Wi
-4.182887608057054,0.6466570456228613,0.7272846943385444,-0.003256846609685884,-0.0409844274041024,0.028995097427122616,-0.650505322059226,-0.05105396294983142,0.06163360624535115,-0.0280568703053702,0.0648509732797662,-0.014060534789275454,-0.1864474701353414,-0.17709228089447485,-0.1882623203657806,-0.22890568130439629,-0.07021174210513854,0.22852181477627567,0.3079960243825462,0.3180687329133127,0.3006727931644397,0.039868776638934574,-2.9694740838395863,-0.8544522601716459,-2.256560961783307,0.09628592526243661,4.510532110512768,0.08926185759835754,0.7458709177464518,-0.003491202342960821,-1.969449413013121,-2.12848360802729,0.7854623783224121,-1.7705070518001065,0.7366257161225935,-0.004545552744759584,-0.33565257475123234,-0.3702277711527127,-3.1121249982430386,-0.06518781293243865,-1.3139682259070884,0.7173671984797981,0.4251416762871251,0.26999601058053635,-0.0970862535293634,-0.23627285818695182,0.6429521467476446,1.1376162034814183,0.7605274530292528,-0.15254679553279324,0.7392343715353847,-0.5025391057328631,-0.27434446028189735,0.09927871968829562,-0.5790777870881927,-0.13923531995495927,-0.2142963279876013,-0.0016345301360869598,0.32629988334746807,0.9332105865125336,1.7598324716432123,-0.028206876557181546,-0.08896803731743419,0.21404465568991804,-0.10457441908079305,1.356472842820354,0.14348076969173543,-0.07989980557347602,0.12798021079835933,-0.3926365278961287,-0.2609023180000573,-0.035628193072243894,-0.1559440987300883,-0.06949327670622545,-0.15674830559213154,0.0036946450477386983,-0.0897833679053868,-3.762615817783001,-0.4133404342192434,0.06633297821171315,-0.1716765989504253,-0.2121224404705977,0.5591472792865146,-1.7946120707458784,-0.32896939348769777,-0.3005340441375156,0.3946678981633959,3.175256782082639,-0.46914139852446607,1.7094656356405709,0.2059712168864191,-2.207365831503703,-0.9699707966429356,0.03327742110454386,0.9860150068074682,-0.9183404720818256,0.20585568537011434,-0.23737291663674634,-1.0194838397113481,-2.240908598153981,-0.06046138531780082,0.4584289637662935,1.057116252982944,0.3332744252602296,-0.2583741637221948,-0.18545005385755356,1.0016117678260452,0.19816090933191632,0.1944577257396372,1.7054654580243864,0.18303776744941813,0.4374813639192805,0.6312087781507147,-0.052868883275902084,-0.27937012770043435,-0.6775839481533426,-0.1856590758572829,-0.43660032028869794,4.009419796493416,-1.960190362955642,0.32647147041386315,0.022238283660351753,-1.4972137963068715,-0.1845624291169432,0.20810389520672143,-0.042216908695775254,-1.6301665020912957,-0.0906039483957928,-0.3275694287743854,-0.44696235391852684,-0.7655904285884372,-0.9755042206061081,-0.4870096983258829,-0.16923257648376175,-0.443519540104802,-0.7359443923830998,-0.7251780636090975,-0.2807939979502355,-0.270271907310566,-0.3644813124403601,-2.2714475150320435,-0.5938746157330422,-0.48835898584196197,-0.9333468631934201,1.894891337834942,0.893810067801023,0.9184816516178151,-1.7964993872560102,-4.954476373275788,2.0121747442316877,-0.8692853043957883,0.24000301996676848,0.4587017163209558,-1.1171254623715372,1.5992755630415625,-2.0652924360646536,1.6545301050818468,-0.2556432323950261,-0.11444599432909117,-0.6374594990154402,-0.5333594973433667,-0.18764405509669732,-0.17563908623502375,-0.19571505975744105,-0.4220980079497879,-0.13884745962536668,-0.6774288909956724,-1.0275150839734175,0.09408536126877026,-0.2868986786490146,0.44227533085071236,-0.8642806262301155,0.4435905935198417,-0.5306948481408558,0.23975747446904272,-0.8676685595959842,2.569427520680954,-3.6497764538268807,-1.869857313763534,-0.5318532828615578,-0.16910468854565905,-3.5135427171088462,-0.10348920944231073,-0.5656733919118005,-0.05021641708439382,-1.6659816836362342,0.006599259395447532,-1.0832506176973333,-0.9295241191198699,-0.9018266828234371,-1.1864891415312637,-0.5489029208225631,-0.6248433250489176,-0.9514478121817112,-0.9205974258478967,-2.8961347965076163,-1.5139575651702446,0.050257505444409205,-0.7155737129126307,0.07897394790236117,-0.9198363593660934,0.7549684327112246,-1.421852559584013,1.4834638031893186,-0.40372377337784904,1.3611392031621523,0.9774784916481406,-0.5660648421716592,0.6842618343047094,0.831591665352871,-0.6180511862446036,-1.709939321784674,0.14248248418530052,-2.431752741979508,0.05665244619028975,3.0149725148353763,-1.6231819702682087,0.08154695221552626,-1.0117798869508123,-0.5812022325020104,-0.678387260199748,-0.09134823567466892,-0.7146220899767705,-0.23478192303768777,1.056445895418466,-0.3354672320407604,-0.9448681387906269,1.0999786572677692,-1.0948983254109628,0.41367517404144905,-0.9740159845072253,2.953860399332042,-0.9262003026413062,-0.03342202472378232,-1.3253612280950566,0.49157201292162767,-4.747478980729706,-0.24756457050247352,0.5293439808725581,0.003445030084215274,-1.0764277499261377,0.008743584915385036,-0.1518108369442012,0.0409192880627628,-0.2526935947725581,-0.009923412798599814,-0.06420500814059198,-0.10161008931098765,-0.4657985307893013,-0.4199484812062748,-0.38909788888944036,-0.02066996827711795,-0.6329054385640952,-0.7861307955941572,-0.7804923512306544,-0.8143990361604125,-1.7233045085811467,-1.5433887800381816,-0.6623461354372915,-1.097091234526974,0.9137272174154415,-1.5859156923477569,-2.8906677389522484,-0.16644605063471477,-3.295295139628845,-4.135532578909151,-1.5698132909251559,0.39206936348669574,-4.786633643025473,-5.379941333941089,-2.7438590934646556,-0.7527841121246387,-0.03302262314819559,0.5557870298826654,8.36026413003916,0.13898489706044703,1.825493412601298,-1.3459487197889601,-1.1573590301840826,-0.8571622533928517,0.11038619459670602,1.0418535319768194,0.9723208614270109,0.9008452201705773,0.47355377114871416,-0.32538739588652865,-0.1386871063933408,-0.20124173510714422,1.5375312687187659,-0.13082002175770255,2.6333613137656977,0.27256997772349206,2.0671537543716774,-0.6420286726281365,1.8160166627424912,2.4652541053422263,-1.4874126437371318,-0.6858226627881376,0.09496396438998064,-1.111076792455648,-0.07542605425556158,0.33606830545172234,0.1349561695777717,-0.5415602652797906,0.020110258700860837,-0.16177222387238993,-0.11341770037031142,-0.38376277457040947,-0.43849679706636274,0.08710433431549708,0.07617044668759157,-0.25402101881142003,-0.3646184097199532,-3.23328200884824,-1.3043807161673155,2.0875124247177514,-1.239509581873896,0.02278968258655352,-1.1376302681276973,3.302761112831011,-1.4269713569434326,-5.5032443072123485,-0.22719166970317817,-5.0296288244249245,0.8669724405709789,-1.551288961829922,-2.991074010760635,1.2860765478139553,-7.775026051818659,1.177669614797539,0.0022581524655544485,3.952783376717518,2.240440499580681,2.520717978855707,2.196743673240774,0.66133040308584,-2.6160854884871054,1.3409488526536244,1.2944982311080724,0.9930443493821179,1.360171320022146,0.6898575363471717,1.5305053630254082,0.4396683505036772,0.002513347938486794,2.28361427895263,-0.11171501564816705,0.42300121612816066,-0.9905523201692097,2.058245086617289,-0.24710604226667057,0.9528363628844205,-0.9367198731899726,0.16680569755571453,-0.11763520775847848
9.166320730293751,0.9511164850312934,2.287406627793062,-0.053042284692579676,-2.373350122936385,-0.11245924989711759,0.9180818409655911,-0.06866843601552299,-0.42287700673594175,-0.06572872025750569,-0.3657386089155752,-0.4645373998973427,-0.5679542377693171,-0.7273743584304329,-0.4254781240590716,-0.9473951700902774,-0.7196270489632439,-0.16798372240731396,-2.7287790077843304,1.0367548624165996,-5.609073898520298,-1.1663699206805538,-1.3981646631838756,-0.3480292051477663,1.137795021002072,-0.8602426654157971,10.63169223076595,9.58930890535394,-0.2946039511913281,-4.457823084968844,2.3145721145084366,2.572709717717257,-1.3843441489070136,3.6255491591188314,-5.113211503297218,2.47012274874268,-3.8022461379590804,-2.26649108151436,5.034122786711458,0.2318687546200613,3.8548508669221473,1.5277131252328917,-2.2150412664330217,-1.7364022030846142,-1.5305452559672026,-2.3321434330234263,-1.5164168224138155,-0.49182204961661063,-0.32719914301198116,-1.6069840212159994,-5.27135886497597,-0.38952513219795026,0.8177468074074977,-1.2434384191209091,2.67998919007794,0.008575052516083169,-2.1486751318299624,-1.096636962197259,-0.1332342152972978,-4.896640461349822,0.7054833181023996,1.1912559641822416,-0.13916138483192333,1.179649852314329,0.09607819745908698,0.6645746634941968,0.08199617976817182,-0.4593185653836192,0.10488465483389908,0.004554356236445308,-0.26635394950662217,0.5006459396967085,0.45617272000285664,1.0437979886111841,0.420228957904213,0.32865000117412546,0.43030653154712006,3.926382214270869,0.7339561740300521,0.8173373180938911,0.31132378435632996,3.3519939672191374,1.0269515378629348,3.398082121465191,1.0406588238441513e-05,-0.5046762059223501,-3.4635361091565176,-3.608722753099331,-2.4225104209056827,0.024812748532879837,0.28039948403950404,-2.2328173300041207,-4.178244923057471,-2.7665956679432724,-1.9793678948500053,-1.0901472987186065,-0.19089043221834934,5.686490183279603,1.2522978635192705,2.443103267486803,-1.965640692802359,-0.9311199795994222,-0.8798482905598602,1.6566023431791455,1.3594236533873774,0.981220442844316,0.39376790764806613,0.5179488963053869,0.10374188728325844,-0.4548410365985437,0.32172998648667833,1.3103371532694417,-0.04839055228285177,0.7264633152750896,0.18841702276348568,0.9712778370271632,-0.3887860044776327,3.2530430387107923,1.6033435984875388,1.2371794272059595,1.1897876153316786,-0.2117345831848066,-0.5013245309884962,0.013046262133724203,0.9609169832209254,-0.0441733764414557,1.5643788482832222,0.0999170326807811,-0.4436869390299895,0.3939449859561943,0.7863891073684278,0.7003966358721692,0.8639053756842554,0.5423875312998645,0.5717198253236452,0.5886658950343179,-0.965771413188985,0.7336127541840686,-2.3324185913867086,0.7779615986817524,4.584784738882183,0.4448700828765112,2.914495352971418,-0.28933018008179634,0.6358037322071144,4.627972116351836,1.6473164478483848,0.24731198371765914,-0.16864950562860195,1.3133614160806975,-2.097787889730253,1.4478636306116792,-3.1808341506927764,0.08931602505811045,3.1492255226865726,1.3088734986622514,-2.4576255882939706,0.03214532156879844,0.9947951473867727,-0.42499511758261443,-1.7033725086351124,-0.8717369189686075,0.8438686500418149,-0.20436687939515719,-0.2833737751031124,-0.2030624626952059,0.3831734850814161,-0.3141402121344474,-3.334231537470639,1.1281378509558335,-1.1007540651957142,0.7188768024006208,-0.04313182110516831,0.9385213473968812,-1.504723865520729,1.1173916375419812,-3.553382894864218,3.7407154902701834,3.1353122122196893,-0.34936210808612145,-0.17229655615011982,5.085022503685636,0.04934094180649464,0.6063647758862718,-0.09327956190046673,2.086788432971496,0.10965005657045158,-0.29683270095343484,0.02189683345348357,0.7724964247297439,-0.17311635092633917,-0.04452458930983097,0.33110073853203237,0.4828180634703629,-0.002486756135902643,-1.270548026721674,0.04624500617899462,-0.3165832824405093,-1.5886357650116463,0.6888210697034648,-1.8290473852174807,1.9122378592077385,-1.7748791306812512,-0.8465702055926881,-0.4543533229588354,-3.2048567721693106,-7.185653811605654,-2.6689170740742885,-3.282129168288719,-3.432149531632858,-3.2565662189602125,-2.7462943173311816,0.03040563337670426,4.60240315227837,2.8329801585493968,2.2870701242274345,3.7163949026360754,2.5512786555569464,-0.6934299610217404,-0.34846142904803123,-1.7735825412054351,1.674869271594371,1.759431901808215,2.355500384255971,3.008455300810229,-0.7433103661474363,-0.3721953442093266,-1.8702966391443865,-0.8063837507534197,0.4342273737798331,0.45633568579020956,0.23246215260502207,-0.10801474130207732,-1.3330066228805557,0.18154264288264807,-2.3891419287915183,1.3345381384424815,1.0839604912095941,-0.41900416176723126,-0.09773611373669866,0.20121685360272804,-0.004324998547606098,-0.6833376711186115,0.036331103430188534,1.4939829425165558,0.16257187604586285,-0.1871168648410304,-0.24339960979291178,0.5865148031624949,0.09889020103084722,0.6791600731818842,-0.07840636762130644,-0.10964342007618812,0.7364457346744224,-4.4630869174496315,0.5115908976274598,-1.5394760651148083,1.8940165619396439,1.4060438756993812,1.0155426251479762,4.3618196712007125,1.4921699380844997,-6.325490700033392,-8.605138962675664,0.2987305714152101,2.2292961649112697,-2.541826335126445,0.6169531274325394,1.302135282800253,2.0268522252916976,-4.0407724537503595,-2.067669388464746,1.0193399390562476,-1.3945817956573379,-0.6002650637280725,-1.739686220480959,1.254659219997758,-3.137147800589768,0.0866224548744121,-1.494097994149789,-0.9796479537822775,-1.2946126783037069,-1.4999280532341304,-1.1384203848469066,-2.184832022731774,-1.755619195966222,-1.3822541923039895,-0.8056420512917672,-1.946838802349224,0.2507615414605519,0.7838940355369761,-0.31454315096980723,-2.7681948683407587,0.2073899703888832,-4.166653556578238,-0.3637077130439834,-0.8732218713265764,-2.3205795858994147,0.0535036174621131,2.07312086899744,-0.03398700073872079,-0.8583037897329704,-0.046286563712226225,0.05042600133710269,0.016018876005339383,0.2619024469052459,0.6152689562377373,0.9864109083427081,0.463175978456938,0.5547675249529991,0.16693503643966986,0.2818458772110507,0.4137744466483341,6.4389427059377065,2.613416551213659,3.6195434406059106,1.4374983727095643,0.8879457962673974,1.983384059136461,1.214279811928614,1.5747450183417064,-3.6278414607539267,-4.509730970098095,-2.8500937346113266,0.8995282688545775,2.56131227987655,1.4845026616965789,3.0177753081323146,1.2672009124353498,-0.10112132556401725,-1.7298248137829066,-2.7074328876854032,-2.382111703387685,-4.920658311893377,-1.0129954682515196,-2.6370050754478127,-1.2933766992079905,-0.7120287022520468,-0.9576314984190143,-0.5948945076712739,0.6331049075903166,1.3850110537370643,0.7525692740242297,-1.3048813456369601,-0.8287380948932436,-0.9785615565502901,-2.0915312114880673,-0.515229617562,-0.12488483380708927,-1.4026438547045625,-1.9144495220776117,-0.564412030367417,0.6548086480924221,-1.093511646909929,-0.43973612435467085
4.2020118011548755,3.065187746369319,0.49661064792079146,0.19387676894656136,0.5371276646662239,0.07868508110730851,2.056351183514251,0.12689418262474714,1.653691472482811,0.10680090136194113,0.8199315915277419,0.6301209425664511,0.8614867447088905,0.8585054768612639,0.6940664416888896,0.9607328045970513,0.8794573496843476,0.4279141701487626,-0.05130870621579325,1.8445677689830628,-0.12871662925526786,0.6997713958916318,4.310139166313954,1.0858392643583654,5.710223299400797,1.1642255784450548,-4.636081869936745,0.6030874604507966,1.357821018947758,-0.264304038797454,-0.2649788709881942,0.8780816543827372,-2.207153657465262,-1.007336413626596,-1.9267883100868763,-0.5993687900060565,-2.259623615644946,-1.0740159405438796,0.6924334727890866,-1.5382717959411076,1.8684772031181451,-2.1397303372115575,0.7637829566588609,0.46094121136953004,0.12706921714179178,0.704559964449595,1.1786506473642324,-0.25580445838687305,0.006577175021807309,1.2675002152849948,-2.345841425203118,1.1091628355187808,1.5388934327092412,0.6060539049732078,2.3350792123155375,0.6593048322888081,-0.800331275180074,1.0119959512560561,1.5806247676178615,6.482228064283121,-0.17651502317863507,-0.041575357474874654,0.06351898462740423,0.15688511989470566,0.09849652905414397,-1.130250746017405,0.017547267571569478,0.7989744939585627,0.011805537623912841,0.2224749115243955,0.2957905431657364,0.4109490174723947,0.523585799964276,0.2749434031209455,0.5571289954897559,0.09986869887448807,0.19236232509324813,1.9831698885286309,0.8186106999006084,0.9203249346825505,0.24576749807407983,0.6193193871514603,-0.27598653517383076,-0.2425089633457953,0.40624010985274106,1.9582055092454238,1.9675563848937336,-0.7307477451672033,1.000767277518143,-0.9279151063964294,-3.0908674384453576,1.6159755994579688,0.20108530357692922,1.497085605324061,0.12918391024823322,-0.9167784548604276,0.7733898952164635,-2.138749582275815,-0.7873085018756939,3.6723416539798883,0.2431539714227311,0.6734282078313496,-0.07736312662994678,0.19500883763574883,1.1802045077854315,-0.5185325205211286,-1.4525579277400555,0.02518996262613086,-0.13087276305938342,-1.3564245521942375,0.2287400831037843,-0.28279712450984223,-0.20017229269411402,0.688308586593886,0.2695569382548266,-0.35398948404786834,-0.1251713312774529,2.9518659181543767,-2.704197205406134,0.941600786839077,-0.9199728693339064,0.05899129918077876,1.7252294692507133,0.27644568037938677,-0.6463249073592667,-0.06265724705937796,2.0876675725142957,0.11646112306223247,0.32276202028426754,0.6746532455895854,0.7526259209627577,0.29685365714831213,0.1538680355272688,0.5502058215682805,0.5297206905683791,0.4709064917874763,-1.3949533159132672,-0.47633203971604005,-0.78051745863674,-0.25347355475717587,2.0993198309557846,0.7434325613075892,0.5577337162736704,-0.8881238347067942,-6.981251285627141,-2.738277490653231,-1.8802391839333177,-2.5162067002052164,0.017745003484395488,-3.744232428583252,-2.029973236841951,0.29784486030359203,4.2896911757069915,2.285526252190247,2.1578197341982444,0.2270546111274041,2.038838379641503,-1.2145488198727128,2.305428742287507,-1.4488931059551968,1.6467580121570937,0.8046541812846888,1.2056173111595527,1.4618008776162106,0.10400502268353518,-0.4791072212090485,-0.02712286256431351,1.1118598282651135,0.5138835113033866,-0.9472480970946962,0.9780915598238554,0.427814526744975,0.42399352666137535,-1.2628923052380394,1.3742833458177632,0.529837600100368,-3.800564878323744,1.911042440710707,-1.268099007684579,-2.016516648746541,0.052197456070397774,2.3707347248300166,0.12430241298543336,-1.1053750979182915,0.13656163776855237,1.996037207619937,0.083960466833616,0.060815538524694304,0.17986809568154696,0.7660764316274036,1.2175078027632014,0.8244581603733078,0.8420807194283628,0.6603354598532685,0.32474341770102366,2.8320204808540823,1.1079220747917544,2.529425524801741,0.6405570987887971,0.7679046374193808,1.2557860878753644,2.5120155789254364,1.5278374045499818,3.8912996958419996,1.295928446196517,-2.095077526228594,-2.933368292027252,-0.33990777912454667,-0.6083332722483856,2.5497533926178884,0.2765167079814817,1.0726511195005135,-0.3460784069500899,-0.4693232564100783,0.13240798014847072,1.914894588269625,1.501696761450103,1.7309764259706089,-0.8517616278300493,0.4488721619356875,0.3330887555656565,0.15019811238746889,1.2818105212518816,0.43960693671047746,-1.1118322372825675,-1.362704508628013,-0.9022046361585955,-0.9658270608206632,0.5318852723782677,0.3127610631679022,0.7503326727735599,-1.7327485994531904,-0.5428505581120454,-1.224113514622178,0.5110470481665416,-1.9570058073693914,-1.6364899508094168,-0.789424512185119,0.03545920849787456,-0.03447279998355116,-0.48982202300033245,-0.1430615231763152,0.4109966215397934,-0.09863090139425493,-0.34004900425213064,-0.03630806885635164,-0.5925273027605961,-0.5780833329160889,-0.8362781619589064,-0.2373868874379069,-0.7825055242416241,-0.15016952761325575,-0.3042652962276883,0.018877035494522798,-1.0508858071774538,-0.3332354951122671,0.3189412297835902,-0.7615052789130171,-0.32244868100449653,-0.45555895009715114,-1.4299717997072168,-0.8945215210922339,-3.2919725617307622,-1.0515997412858964,-1.9675466834510924,-2.578673746474263,0.5290980667716567,1.1960400546714085,0.019189541108836528,-2.079168619944142,2.9923453310756707,-0.960988758501689,2.426984041567256,-2.3464506171041553,-7.682391975283669,-0.9178588963152864,-1.1623510303347582,-2.055489413476619,1.2715417977566341,1.8189230665222342,0.9770473239825204,-1.1354161680698365,-1.2880443941640962,-1.2507379364903413,-0.023750219751902776,0.1201482383919239,2.804055980309711,-0.04756740667813539,0.9354214381221951,-0.8976156686944662,-1.2365185623329613,-1.2890747643344262,0.11228074654605741,-0.6816841050559052,-1.1200956569020728,-1.6775089028316599,-0.116355103109225,-1.3475448500340164,-0.15721422609976227,-0.21641266348760968,0.0008784908401859857,-0.8294052420982938,-0.13523320708365844,0.6369720506111157,-0.01710745106643818,-0.6757491813999476,-0.5874456330500715,-0.7062671327058914,-0.30407849860420083,-0.4662270165629109,-0.5346991559793217,-0.09191822740991916,-0.3396250971641368,-0.894083252729993,-0.1295067020125167,-3.554092723965046,-0.6029562430462697,-1.1603418876000084,-0.019081025118577927,-1.8535830000834088,-0.05392549401959675,0.8533461281349072,1.305652029837366,-0.26651543444474596,-0.9787036669659042,2.428386784796571,2.7404605060084783,-1.4520930569235677,2.2612398909281493,-0.6422664090629328,-1.8651393772296598,-1.0668337384808713,-2.8021734784605523,-0.8221009180344967,-2.485504711414281,-3.3319628500676903,-1.8079168534037653,0.08124612792347406,-1.379607576980847,-1.0970402329787068,-1.312289948889357,-1.5584188758326973,-2.382458896368551,-2.807598986403866,-1.6685689379589104,0.09729172628753832,-1.299186181047083,0.10967242154831994,-0.05861020294857441,-0.6537147289361528,-1.1798998129700538,0.05120533290931013,-0.13756602098297807,-0.9745534497726018,-1.8105212760762504
2.6350562393245425,-2.602474873316962,-1.028697714933883,-0.08154549052835194,0.5956018294177137,-0.10430811095284989,-1.292815678606786,-0.052919731652072574,-0.8674978896757576,0.02873319424619124,-0.43749422837867896,-0.6960140801084704,-0.29910405771405035,-0.3429489661864786,-0.6618070366708286,-0.10030514645553541,-0.5535934917746616,-0.3657019766142412,2.1752168463296986,-1.8001014545506229,-2.7771444359608495,-1.0137466265541069,-2.3638285736569684,-0.7833467683761665,-0.3180508471851622,-1.009919226926414,-4.908303046056676,-11.878214468980755,-6.897971785332554,-6.6962067378197005,-2.5756978695688613,-3.697144911336998,-4.020300729589637,0.8916879603095009,-0.12599648667040653,-4.3860033329169426,-4.395289847972213,-2.1010181306214193,-2.0629342420018535,-1.3301274597492536,-2.863687459756541,-0.7851043642726451,-2.539930528603709,-2.1099427876649632,-1.6703683374432758,-1.8450549941820018,-2.405469541062452,-1.6909378551661796,-0.864850034370963,-0.7706012145493752,1.9517876330688702,-0.3849971145889315,-1.5668007331070204,-0.43588727166214103,-0.006442193590511726,0.13361053558556585,3.648407258344458,-0.1821660429822051,2.1992629566340227,-3.86292902156276,-2.6097436416443727,-0.6180355560065028,0.10840834067318701,0.7949467829054053,-0.03521173897190727,-1.4891220791764044,-0.05811760759406463,0.089822814434424,-0.20200149241872975,-0.34698076669648814,0.019631319528082825,-0.27684874278779287,-0.7650408772597875,-0.453827600410106,-0.6041803154616875,-0.7492351243595431,-0.1529117818736943,1.9771714664275815,-0.8397076424127498,-1.975439362862616,-0.7031037275836237,-4.7175843827720465,-1.026278592353247,-1.011887545443104,-0.5945314537589114,-7.012442184767616,-3.8197880500256733,-8.28299162014978,-8.114656806830414,-9.125668066191656,-0.1992430114801691,-3.145961719414369,-2.6037870858896475,0.3921514455051108,-3.394763856750098,-5.09641386008688,-5.091400711612558,-3.9832395770223976,-1.6082993224954567,-1.931332601094936,-2.8411174158411425,-2.2015570996078906,-2.33823587441512,-1.8820563877318475,-3.00735616803275,-1.9593484229447793,-2.0879773792263103,-1.0662334814427856,-0.8684681048808638,0.34451193713480927,-0.4234850417249877,0.024338656034250762,-0.5087538836931282,-1.0474081142326028,-0.1838661162784401,2.014986914385004,0.39624338738417164,2.532359256073901,0.9040239365522187,1.7733752253536008,-0.4210769153899698,-0.1103902971545581,0.35771691595557925,0.01611099661100692,0.937609716581782,0.0001368290545276836,0.1605638872584093,0.04487099312431877,0.546151242813828,0.11214317046459973,0.2535685276626505,0.4063919170403053,-0.3861445560889145,-0.6423995896768009,0.060619552359287225,0.621221783766527,0.8445419628094135,0.42373733162170407,1.9752439848289627,-0.6787987306798909,-1.2742016231792619,-0.7404925884067431,-0.23215627705159034,0.3605318717804394,-3.768880996014424,2.7952910776920645,-0.7427442058935317,-0.18947262490417177,1.771643863399921,1.208195868629745,1.0639458285212426,-1.8481903490147384,4.289211516015548,1.4335878956809431,-1.035724926025801,0.5017910341989905,-0.9995217497055129,0.48754142639224496,-0.9055000208499226,1.8191609547409069,0.6332322046192659,-0.4318363379066656,-1.2873481064341856,-1.0296544289203409,0.07480013083016544,0.48199252432517015,0.9402231804704778,0.925608083211811,1.1011037609954741,0.9247568704185138,-1.209639838912332,0.4749252551073969,-0.8360402764368474,1.6048893848986239,-0.23324238231374264,0.378651803291028,-1.9890532304617468,3.017150492804597,3.6742810165335236,2.9863738869547034,0.23572616042528718,1.777267268781838,0.0500746787874922,1.4835707824912276,0.04123498330697794,2.0098148304960626,-0.06475938217249158,1.4992957128301243,0.7326886917126284,-0.3974725128658503,-0.13949033019495533,-0.3552492924594265,0.2783687631986564,0.22474763027301112,0.6571748946773837,1.7344958077979067,1.0870068444677312,-5.212412228218616,0.2576061953270002,-2.026651754235062,0.4121160486481922,-4.349887311038331,0.17903296326313226,-2.7896140941551364,-0.34611126070328607,0.5305183399089728,-0.1650365303207382,-1.9453737909068929,3.589387538126348,-1.5566462439514155,-1.1263623316042901,0.8863769033593955,-1.2805641661266156,2.7615141442680127,-0.5410318370066822,-0.7772440890475392,0.2677036659361018,-5.503261279370635,0.7420230306320135,-1.0368108413848498,-0.01582954051290758,0.28068680191816475,-0.3064432287627818,-0.8462010515157818,-1.3989074593670163,1.2480272721223251,1.2883403846367016,-1.2494722001896126,0.9407030689519043,0.02322945743266389,0.5966170433180936,-2.488445899550713,1.7876315267247747,1.3689454219810984,1.4466944270666826,-0.5869707990180788,7.646476592138244,1.145180529678299,1.3369789273444426,0.15175812179896353,0.48798780394892577,-0.08495146376788273,1.3179008968366008,0.03152729565102763,0.6579626413863928,0.06493771542278569,0.233713324804872,-0.1717056472505477,-0.04308255859854925,-0.020690245021092745,0.07720179490820041,-0.024689046741453603,0.5904664838750057,0.7253659766803443,-2.0911626661072815,-0.3010449181238874,-2.402325426567199,0.3579674174245162,-0.7868868267456678,1.2436179791078408,2.093621102852717,0.4532769796147363,2.2821560685884354,-3.8700151468236883,2.1371662133634595,0.5338248424359358,-0.6432312473447007,5.159756743608035,3.9617208682944485,-0.13403533972355824,0.9314551466104392,-0.7095966920317341,-1.4850622491282925,-0.7970881763047728,1.1497996045778227,0.6095875633573214,-3.3987841069620663,0.33173533390706395,-0.5091335854540134,-0.010785154530095086,-0.008770486822173887,0.1822758092375742,0.0639589745224471,0.6525813337754983,0.2581415888097009,0.8740879338987079,-1.2492153541727862,1.393628498090087,-0.0696286548316801,0.47712737931746324,-0.4256821577544163,0.9811155575383644,-0.8806580150502067,0.8657946184754337,-0.48473285661578125,0.5573360212047158,1.165181143547979,3.176803643435705,-0.053411200041790834,-0.09254852446868558,0.05892220626565022,1.0024305693800373,-0.06796581688349551,0.41641831680403996,0.016608701148992912,0.3886403571563497,-0.5666449276893756,0.02613802147554296,0.20187377960245179,0.44286093707340957,0.11275012880971325,0.21823208357654447,0.3479372336537767,2.258221522245265,0.06418038472028086,-4.307666932988635,1.3977651736908185,1.381767940742102,1.1479921184422515,-1.357463267604013,1.094677765237762,-0.8924853416221099,0.5545224070878202,0.8651938009091857,2.4658518741302786,3.934786924203614,2.108427140273514,1.1751051605733016,4.955990513615122,-3.3163206380328814,-2.2557037017826267,-2.402347110863551,-0.1051298274199245,3.9634462671931923,-0.7344864216746734,3.047604979540742,1.7600114831491,-3.267954337519034,-1.3911670206381241,0.2814342971501358,-0.19100303860989779,-0.4718784734606357,-0.02794487743813592,1.5910350544937448,0.5268206186369093,-3.1309258429928,2.9089952456545127,0.4467064173909574,0.5964202606191175,-1.5063543616457518,2.4264816100941395,-0.4602721243702393,0.6173740810031266,-3.026183752946152,2.7739965306624614
-3.280836907104873,1.3584449864882142,0.7128043771962798,0.04122967718190612,0.10322476254231634,0.12150756984749114,0.9774647550111776,0.027400086920324553,1.2445038729890079,-0.011779544653923278,0.7124780776595832,0.3726808475241342,0.6410703262228319,0.7723752774417545,0.11183478297556144,0.34155904296656436,0.6675990281464299,0.5440945561131191,0.024945419414352108,2.3773379274819737,3.9640995649931487,0.11868773058526935,0.002646994579965588,-0.8241937339232867,0.9946256220532348,0.5945402350470508,-0.13670618024779504,-1.3295048572060015,0.8039552079958464,1.3659533865826297,-1.3354142511299862,-3.346528399598582,-0.0003777204586234229,-3.385596247522495,4.027478141995376,-0.6675436619999415,-1.8297468015079676,-0.19959838825807055,-6.144000514555832,-0.34250251516362346,-1.3057562632835924,-1.7694352131092637,1.725881137125819,1.0484485659157488,-0.037309254924482074,0.3432000049479539,0.5465897504686182,0.23477335961046772,0.5138541950349275,-0.5014014332564365,1.0313701684120846,0.2935233396223818,-0.1770568537907164,0.722209018857587,-0.2655614547113871,0.3004904275771689,-1.291847657882085,0.6061058528561502,1.8523147714528796,4.51424757051412,-0.08744325850700124,0.30913330921450194,-0.01111873412430835,-0.799378584117598,-0.04776614362181312,-0.4471846696664181,0.10304433742719116,-0.4291181186908204,-0.0919421335894538,-0.17600707388590142,-0.10528317987913888,0.03694504787350003,0.1934790747948082,-0.15329759034374774,0.18560025980308842,-0.274650034692538,0.033742256062746376,-1.741439146622009,-0.5532606502278501,1.3823085029570834,0.22651061767564568,0.4406723211324307,2.5431874062697646,-2.2786376318787105,0.08804777761801863,-2.9389090020882693,0.24650674934562689,1.2599602136487542,1.2914587254007106,2.519707354380569,1.4777517592624418,1.2402934622153896,0.4704135453702631,0.6596325539554564,0.22890840455646352,-1.0831813289817762,2.0301716970937784,-2.1496904837557413,-0.8826816877037175,1.2528043756454663,-0.916652545845868,0.16728603129141076,0.9665807318219317,0.7244008469897728,1.2975982990512984,-1.1188425894216347,-0.7453082719805273,0.4430655711861284,-0.5840355164140534,0.33831578169250953,-0.1271581511686954,-0.7766353885081854,0.23181896731211415,-0.672876352405816,-0.046833504219744616,-0.1309850407927852,-0.39361506266728324,0.6969833588253421,-3.3395184773644213,1.0384149192887697,1.1691778751526734,0.06572718972558712,0.9936838593727764,0.06920648902885711,1.3896529282801455,-0.037954165789986505,0.11518825663852232,0.09808392875313784,-0.3944395350527399,0.15666860835543742,0.8528974387070757,-0.32006711063687204,-0.19075452112912952,0.12222679320692241,0.19638657544864663,-0.12981865318111363,-3.889311254876357,-0.2517001236865596,3.6680134253709586,-0.5100025636893961,-0.2989233569013103,-0.11843814246422069,-0.5317311477041251,-0.8150999877663591,-3.3400761622365147,2.0247142568886938,-0.9762762199591184,-5.26555913297489,-3.799945754897381,-5.8354593327472495,-1.772079484144362,-6.172858794834642,2.937072735644598,1.2883632700191292,0.029066471206930372,-2.669092037831033,5.484068270200137,-1.1988722297576127,-2.747143802168487,-3.5286636550648476,2.0997883484505113,0.7487499885540789,-0.005344167837653426,0.8139103234984533,0.7744163389711118,0.05166514793293672,-1.2763232624586585,0.05660544786284695,1.4906123263233177,-0.8175148956136564,2.504182700514319,-0.11934108616798321,1.5228797560770995,-0.3027673613156492,1.3093045227283926,0.016599090709368436,2.3931962954248367,5.895412280472181,-0.41483502571654673,2.060368255771001,0.03708690509183376,0.500439216178283,0.0017550280533552695,1.2704176275963162,0.12686932556800423,0.4874137754314161,0.07067501894299283,-0.05518738211797478,0.018266070594384943,0.452318578213669,0.0751356314600411,0.2224489233104639,0.6047081753541673,0.19686185945848514,-0.059284253791222104,2.532992063687368,-0.38735180302023103,1.3877353833642092,0.24757565091030884,0.18827604025470143,1.7404757715702532,-0.09144607574269943,0.5958914720571864,0.4324301741850176,-6.318410913645232,-4.18749186801903,-2.1395037526485345,-2.791999280491091,0.25981549057519765,-1.9448973821207138,-0.630800242518301,1.9202608789693174,-0.7674069127750163,-4.35559097871714,-1.9166658679811392,-2.0911271559201476,-1.853366718380153,-0.8489571140634851,-0.5670264645811653,0.25247347369040946,0.8456218184670491,0.30508974295589786,1.3493182698969746,-0.38623944568832347,0.6927179546143661,-0.10160709878215249,0.018382086055675928,0.4217841445513547,-0.2616339502118278,1.0169499177563754,0.48601182877841814,-0.27740939765386313,-0.5307332941953156,1.1431616526187962,0.3486125468263361,3.8325674518250796,6.036569616324627,1.4740004836428366,0.8130597180143172,-0.04248104236423135,0.5171332234801681,-0.001935616677926835,1.090065831217352,-0.06698597188873659,-0.6271277178034532,-0.06604759831159272,-0.3239583935852521,-0.22108207925528428,-0.7877114054796056,-0.2721964180320018,-0.7082424244195705,-0.038532750729736304,-0.896552267144477,-0.9907022622607465,-0.4722302450473836,-0.7650873339982304,2.074890023588129,-1.3325135124927638,-2.0194260772298978,-1.4706390940371596,-1.7046113742105178,-1.6564118790584708,-4.240199472452304,-0.4611153106941688,-0.3886059826695459,-3.6509974822346303,-0.3318707624726043,-6.34582850367742,-3.5446715595509763,-3.252555420749231,3.445629601761504,1.7971075204498785,0.6390274801556101,-1.285312859222618,1.847066093993061,-1.4263033232868505,-1.1214339771522788,-1.4084900933924018,1.7664902951755956,1.590228393590025,0.9430991367744198,-0.06959362296085668,-0.9507564981685596,-0.4835747328051286,0.4807926119524713,0.8110624162063805,2.4106594643846293,-0.0554513445393634,1.5904044371538424,-1.1242719220512516,0.2552727388567382,0.11854606336822346,1.463889586314757,-0.08968736092482826,0.25473459730015624,6.156798762625661,0.6485232580435609,0.2131230038405759,-0.11752063745824169,-0.42204087238488897,-0.029271943238215737,1.010654938341724,0.03163941030129737,0.5679418628096903,0.03062783220415212,-0.3117837488562975,-1.0439409480595845,-0.5951082702379504,-0.36505910926732754,-0.08447168825744356,-0.37669387589095393,-0.4315988622991638,-0.3744685749724277,-2.262409254126803,-0.7345776360938593,-1.1428068796478132,-0.22278312381168427,-0.4699294625416273,-0.9671670781675142,-1.759040682097535,-0.9580251954807901,-2.5026462180069835,-1.1324568614757085,-1.6069531876689869,2.375384057060499,3.799478260273715,2.8331682920174206,-2.1133388119155105,-3.2506004837905023,3.697596707313949,-0.8006178235919693,2.643240681881526,1.1276083717288008,-0.25429347882848957,0.2832336654284718,-2.910251448249664,-1.9312439449539196,0.7674847198310016,0.975377437538549,-0.25134855182960547,0.19481498696362035,-1.696827480276647,-1.0333472489148172,-0.7668712155022942,-0.555118613625732,0.6600403506163177,0.22496988604475066,1.054637585944808,-0.3792386342438982,-0.6394635947755848,-0.07367731902065137,0.2811849120734938,-0.5132005677316488,-5.816563351631484,2.9149773612570735

Wj
-3.5398991851030965,1.195208671782169,2.117498987346305,-1.3735287004906034,4.203225009258666,3.542318619846425
-4.259805040588661,-3.021579836884619,2.184804124995365,-1.01705957034101,3.1538721889535317,-2.0367858215411005
-0.13788584349233052,-0.3072749552928735,2.591055601416708,1.2602632101031082,-1.0802541228670202,0.3708619404738415
-4.537197878676641,3.097490649223587,2.3138360779639124,-3.0181366429574967,-1.6326503295750898,-2.6775152005028553
4.04883458054854,-0.4522018169409475,-0.42357972598933563,0.22381215965985235,-0.8438629960951186,0.6349936434887399

Wk
-4.243386326464833,-1.9009468796554092,2.5840460346075553,-0.23193164570307745,2.711122607523948,-1.9353002106023234
-4.866032857371513,-3.5245808648158112,-3.3081164923481463,-3.125554597826568,-0.5462357687986956,-3.72590609787081
-4.914132213469057,-0.8896936791497339,2.9881546853199885,-4.4809036730096,-1.0572946017185805,-4.646686337991423
-3.408375706824082,3.5614879364234295,-1.40871368799481,-2.6797049759529377,-1.9122726648239563,-3.113385338448078
-4.81431484791814,3.0023541794408937,-2.450978808790935,0.7912098520229729,2.4374773018958864,-2.575135695292243
-5.638247532476606,-1.408542836804457,-3.22388553273809,3.0050042358832547,-2.1384130862561057,-4.444248551268726
-4.157664706761551,-2.8209028727904313,-2.6700465108675,1.6975488943861619,2.552970359537928,-4.638263474671218
-2.5320926637527497,1.3784351566562083,3.3701798909081955,3.5122453825974342,-3.394068348071726,-2.7078015477035566

