Wi
2.4757952618295493,-0.0071719692060540595,-0.06184440413004737,0.010156509834544749,0.024702974361230343,-0.006082123437340389,-0.05403767243890388,0.0024539214924269312,0.02706670579335289,0.004474276823751792,-0.0008659446632259804,-0.007022793984208516,-0.009375085610323082,-0.03124947761532514,0.00987930565866676,0.009714789971782514,0.02560572865139932,0.007843801197135064,-0.059842594125288404,-0.21427129061008973,-0.162296151658488,0.0018133661305289566,0.14066652181676467,0.07393806620517862,0.22000898721032952,0.04688407317040067,-0.5817458336235223,-0.4820951580079487,0.12712594756598233,0.15205531325860727,0.3009373652589874,0.46078013309094135,0.2225254342032375,0.1945246857115492,-0.9503842586476646,-0.025587259148412575,0.1484494279816325,0.12391129603744308,0.5217386964506308,0.16753206334243576,0.34284653797770287,-0.026687205453318392,-0.09979231298863633,-0.05674936579387729,0.02527165717812952,0.056046407036408216,0.06881630188406179,0.03935512036500029,-0.03870696108862718,-0.031175656613010513,0.027615906133680486,-0.006552766009874652,0.09554410306248737,-0.009302752770950922,0.1076091031251716,0.0029370508181309624,0.08153251510817434,0.003188735542586587,2.6220041542342427,-0.07175308834707254,-0.03933462766016623,-0.0470350310091192,0.000526643021305902,0.05971796303317214,-0.009369018228065672,-0.06247403782105647,0.00011148049710700641,0.021245812737697854,-0.006182643671209187,0.018584537636889473,0.023564732095760838,-0.007151816085856634,-0.00896173286127705,-0.006650714982823588,-0.028132589114211848,-0.015595737766235247,0.015973526163848596,0.1346066548931197,0.018274298414256,0.010428871194977516,0.007519005443006091,0.03319982432609381,-0.2724256042270995,-0.06326709939487596,0.008095904565252627,0.10616594921024468,0.03702373223383922,-0.0003342919329249541,0.1678909259928756,-0.3617149191017002,-0.4796189078747901,0.0825476541330756,0.09657143181178045,0.20518957962358564,-0.001202486975246587,0.14474648573932805,0.07732698440485272,-1.5510915963705176,-0.02237176633818287,0.2598756243884512,0.06701756560376605,-0.019046391095520112,-0.0058611003393818474,-0.011926232404752067,-0.015614394575620926,-0.07638808097833,-0.034640550052552024,0.003297991650704464,0.0006080867428465486,0.06783285998343239,-0.0015847283266160102,0.043691394752046406,0.0035179206390649337,0.060385472550653116,0.02937102470166595,0.12120890617725895,0.001266485676697786,3.000044270525297,-0.08533975565407446,-0.02309330274343171,-0.06870475759772214,0.005043649778883227,0.00025256663239727026,-0.009885686851720222,-0.047516128803932633,-0.013948239690985412,-0.0154091713612077,-0.008617089935024486,0.029090126974392342,0.004092820723963109,0.01713790647470391,0.038436881983302834,0.015212844202329401,0.021265058823941814,0.007794430533319522,0.020370819236503673,0.19792990535623442,0.09150425830971125,0.1921158822443032,0.09711284240559938,0.17284027569642424,0.09926512645902151,0.21794391459778306,0.07836536967681448,0.3264974184272173,0.4058396984949726,0.23475124006486048,0.27901173262524454,0.7073674175770679,0.5994534937872552,0.25201700040226616,0.26312580910563754,0.16792930030155973,0.08775101482811867,0.07918736372209988,0.10968883801301993,-0.006104557835076556,0.08521189970567757,0.13240339415139735,0.08394130751049389,0.017429382095438144,0.01570387495265694,0.018113985379534975,0.005500098014298954,0.003085952735716594,0.0368720782652447,0.007737099730093164,0.03440229743952533,0.0013312830045260223,0.035052107404930734,-0.030515251829814023,-0.010744152424676943,-0.016650089561539638,0.014168943287846148,0.005627283074792213,0.011985484522749234,2.0038818159497085,-0.31207048296655115,-0.027374702869611918,-0.129992782919469,-0.010673199353951834,0.02615649996827591,0.0011954554383453815,-0.0934084697177542,0.0064810901470862756,0.038093734027391774,0.012129525866788237,0.007678626666786173,0.021717011240409863,0.019341523646945594,0.027276346593756492,0.01349182224883669,0.01041261537996006,-0.011127104934387764,0.019932280030597566,0.15647533108233014,0.08608980056856498,0.143857005659036,0.05968834460510279,0.19254400484024628,-0.028518774518057764,0.09215311046199595,0.039127662291142236,0.44604642080873086,0.33469816241358946,0.23861588801776956,0.3488331605522827,0.2575748270694389,0.25498736783160053,0.24100777546769556,0.21574539356064926,-0.09392983798600169,0.11488891319172562,0.28320700931848986,0.19044054104996289,-0.4388643505261222,0.1342887227194961,0.21021341274109054,0.13842398219031607,0.015647566599274618,0.05148599996478007,0.0625669724951886,0.02984606762727014,-0.010973019708499917,0.0335821832256741,0.06466200856277236,0.012858881789745836,-0.02261131135256969,-0.011181675389141015,-0.026605536261299717,-0.028370444020117687,-0.02444459192276843,-0.0022918477220619867,-0.03049673254325995,-0.007897706211470049,2.362051670768026,-0.3474596161644583,0.06761690402606636,-0.01760985190437696,-0.0035655703659311245,0.06810117357542027,-0.005509937275356622,-0.004902726272613289,-0.0003100171177988689,-0.008720566695937437,0.009211459505068818,0.025575666320154344,0.02941566831691218,0.03335334570023695,0.012580372891304044,0.009676552952706788,0.005658756332500565,0.005950582430415578,0.011215440859775747,0.23037326792531804,0.09563859390457562,0.2771920239283253,0.09291113946153724,0.017446879931016374,-0.05890100037508254,-0.10915315640177391,0.08032292492243745,0.48609147142005954,0.4876060755634942,0.4938274379267222,0.3778945730356878,-0.24499914755072386,-0.14477217945582038,0.15534267829274476,0.46881917356435937,0.5516981856142126,0.18010038374809553,0.23041995407507657,0.07136710438314794,-1.0263039569454293,-0.010387340513215213,0.10472094408564758,0.18337070023165047,0.12587897598939107,0.07976272809360012,0.009808525142919227,-0.04967747418241205,-0.05996033076700524,-0.03380975604768463,0.06583405412876252,0.07476786937827798,0.04667236628568244,0.006176563848057192,-0.04519571379228242,0.019287392209240004,-0.07756761184280163,0.0037260947106373616,0.010856936552545453,0.015454383858534362,2.405338755435663,-0.03338173136389928,0.0743706395411105,0.022999002352056496,-0.00365696361299373,0.0007608205142085612,-0.0059389325151195495,0.006721922170339989,-0.0044186651845115,0.023253033431222148,-0.011731163543200454,0.028296908814773616,0.013756897976751045,0.015241424430918001,0.029828418815641782,0.015458766528047558,0.0050142369971893025,0.004001188357421491,0.012257408683530846,0.02692222041243913,-0.010787966296192322,-0.04061736635673892,0.08036928407729207,0.16128140584560963,0.05639706604309256,0.10885992485655538,0.048032885533002945,-0.11419719691906503,-0.16289970335656304,0.44395105318251593,0.2594217909946654,0.23606021853646353,0.2823759220045494,0.2358718511662282,0.3432588174268679,-1.1269981121309334,0.08328419707058189,0.26740297277001096,0.11652318145797948,0.12668098053630847,0.13205238723761603,0.13842598485062185,0.14132759798450067,-0.07119204265659877,0.005416614735492393,0.06817989591403498,0.052090776109508886,0.04801683467983143,0.08004027204450005,0.03428014246996595,-0.0148013401591387,-0.10020300949080961,0.024611407666127925,-0.0029566738856792174,0.034334239636688794,-0.002158959901872628,0.02798593050017349,-0.07663293114009567,0.014302289328461016,2.6822532119158806,-0.02734842441141717
-0.7308627453624021,-0.12130782995328918,-0.07428875775841014,-0.010919954543165807,0.018232436601466655,-0.010327407223729879,-0.06617112206184067,-0.004117878287379765,-0.021166163714956318,0.0010996413586210768,-0.015507232754097438,-0.011428653266181085,-0.01505383858929931,-0.0038332557493723166,-0.018366725345972723,-0.0009193002622607996,-0.0061602443469288655,0.006745968911399464,-0.004820659066932317,-0.10740608575123052,-0.11360727844835614,-0.03126007322859785,-0.05298022460110376,-0.0340803800166657,-0.05463811434185674,0.004030491991747507,-0.4112378590838082,-0.4652338868369714,-0.09407205690414597,-0.06458391821298548,-0.09369114627057765,-0.12218107381304037,-0.08772521487346213,-0.05504671761689375,-0.3888148229041703,-0.10989029916112615,-0.09063804220118855,-0.05307226506998866,-0.25320410299847346,-0.06968281160103783,-0.1106110417444867,-0.09539030505625018,-0.06516895095062501,-0.033104531613428856,-0.0308383886129748,-0.024228385059556302,-0.0250694286893415,-0.027133098498496766,-0.031302765892716106,-0.03618588904948463,0.03299388707432619,-0.0021415443344196764,0.0006539133820486455,-0.00622498286297361,-0.012214201742531147,-0.022624488344291177,0.0776915757642786,-0.017420772120741407,-0.39654921290375084,-0.21327579764675614,-0.11797290129027511,-0.09179861980656209,-0.014977914897218529,-0.02544895643119272,-0.004479468937273406,-0.0744322726936261,-0.01060602657258807,-0.046208133857064966,0.006895414857627389,-0.022047965360318268,-0.01496849464759962,0.00759219743640958,-0.016437192257430837,-0.010013262585154618,-0.02581897720024945,-0.03573809173869144,-0.013811689453737537,-0.03112522056491582,-0.02261082145380734,-0.0020467487058143906,-0.009265157750782562,-0.10142495859364001,-0.17126986608069036,-0.1956651718220361,-0.03919609836424843,-0.081857274495563,-0.05294696186025766,-0.0629581773771567,-0.13551608841910556,-0.4753483770154236,-0.4551062872804698,-0.19235273087232943,-0.11074749252300935,0.019839971254830186,-0.020904568857207456,0.11983768122426676,-0.07239198835538774,-1.0738647566338209,-0.1169277803377046,-0.12979253420668255,-0.03410959236503976,-0.0358636672907806,-0.029793822873366252,-0.05372267642114552,-0.0785191954939991,-0.09678267125797074,-0.06039717548211348,-0.04623519678860855,-0.013355158875273086,0.060382221041353,-0.009264169294148009,0.01257080858109129,-0.017017123021326446,-0.031594649530941564,0.005698348644509472,0.02300728081368157,-0.016243366566823098,-0.16774064140752248,-0.34639665880641607,-0.15300184720007062,-0.0760683117229704,0.006137164547636399,-0.022400042051997728,-0.018071031739187823,-0.10737719896763576,0.007956373440291388,-0.0341443382353953,0.008334736126633295,0.023573533078586346,0.006846947369974506,0.014165143876235924,-0.02330577863690785,-0.0073361025828682595,-0.00412910429526526,-0.00954860712938613,-0.01310289251720755,0.09816853669579162,0.007282092584648307,-0.059760200123111056,-0.020081760011015085,0.03584736557204095,0.018579680330624987,-0.006327967143966132,-0.008359647210931373,-0.01031747388691012,-0.25195987317622515,-0.12045664775980099,0.09614913808334763,0.42676667000528135,0.17824731793770543,0.06096934056962517,0.01482840237155341,0.1465451063876652,-0.04657009633352101,-0.056597377432412145,0.07384159442442514,-0.11953430607488533,-0.002917154661289592,0.00499024921543245,0.04157845256885328,-0.01611197790975407,-0.005185021258880444,-0.015023141327145922,-0.031268618814110756,-0.027563660244064266,-0.0040143915591798,0.032901835814826766,0.036760047575622824,-0.020192736926154153,-0.028775952971829024,-0.06974483648032925,-0.044932639301674786,-0.02020624778419131,-0.011082615224448191,0.006711943706077265,-0.014537337292404655,-0.8164556151227959,-0.4326867961938187,-0.15829886295595358,-0.05053219089977071,0.000962910141478498,-0.012256013386142718,-0.0027398416399791754,-0.0483403183280121,0.010335254614832767,-0.03655258143094923,0.016880963728733572,-0.011401817256996195,0.01750586433225399,0.017244283931625665,0.018452275880204587,0.022510314816175773,-0.007343203126778354,-0.01004024510168186,0.0018401603552140446,0.07429404794337004,0.03278423119749083,0.13024398203968016,0.12385655144014145,0.20155171120119686,-0.029013262109948826,0.07745419441080444,0.02420941038124666,0.15015068691590783,0.1716534651462041,0.4618320902771175,0.49106616983988577,0.1146041903672513,0.12288537779643308,0.33540048949195184,0.022130975699412435,0.015010574579294542,0.10179407455085944,0.7563150788445127,0.11136820662413657,-0.14264199752783696,0.046858579198374634,0.12842946922663342,0.06267362151425533,0.042227280297601484,0.09221116997017582,0.0551048676336247,0.027602956436435424,-0.02075029212514576,0.0017485883355115408,0.022463716015215043,0.03414798375200901,0.014327620932509291,0.013017288495099604,0.02888306650574518,0.015660483555829087,-0.013553865069980263,-0.001813463428757405,0.0035279703030421665,-0.01229733555384999,-1.2941070258014442,-0.2540349970861692,-0.0450147537305977,-0.037413372089704404,-0.0007737412513079482,-0.012635750413162072,-0.001606038387105833,-0.03752023568010451,0.0005203518898039891,-0.06343626850746055,0.0011391724591683,-0.0048191395111103425,-0.009685122668880131,-0.01091970116780576,0.0021921061791264408,-0.015219794129207495,-0.028780717223202194,-0.02920612835467011,-0.0012264388138885304,0.003324098765338211,0.014125578391235051,0.008567088537517253,-0.022057188607319825,-0.2050563832271852,-0.07358051262286869,-0.20702530983520337,-0.03743154134276167,0.2629086476585615,0.13327295002669026,-0.100105653726141,-0.15197309379599988,-0.2570992059892332,-0.2545531231903826,-0.10009733257248439,-0.10873216801539107,0.31626776124122896,0.017319649318205333,-0.03035961601311459,-0.032591276438586475,-0.5177181397309264,-0.05198327199285562,-0.007229013344033367,0.0494659996692144,0.01305602056229827,0.021361745274898446,-0.0251742630634697,-0.050148082440693256,-0.06803052540294899,-0.03483811480477322,0.02783977902990525,0.028623015749767697,0.013158009568454311,-0.0073786650726633575,-0.03345452602493181,-0.023234503554197195,-0.04971261964719245,-0.00687625333906576,0.03288601629936288,0.01728431272105861,-0.5351625683847702,-0.21613482959520966,-0.040778983226204636,-0.011819895862329476,0.009104798012494973,-0.06110537371176678,0.005151341677056575,-0.007062509573905445,0.004413614901915646,-0.007881892576907785,0.019866745952259332,-0.002242100793778839,-0.022476959603374147,-0.037588317571175686,-0.024680508923563497,-0.0007815470957553052,-0.013009540559270531,-0.0131419370059234,-0.011607766023123859,-0.08789309763838236,-0.03942012131532511,-0.030905054642534117,0.01456287538565919,0.07963910539886053,0.04273188878681268,0.1178984077854059,0.029020440481179494,-0.148549278909204,-0.03195353765430968,0.5460145341196663,0.062096565919115734,0.08447203313366897,0.22173678565315616,0.38066714173778127,-0.01058275632899891,-0.2816422031227434,0.12201750117397739,0.4072575264335771,0.024020145270688627,0.25566989028119225,0.12196425404780714,0.3637459016794946,0.039184342306928716,-0.01978706065303634,0.08215421466485666,0.070907501101262,0.04028626413485532,0.029487551018341315,0.08652971299533961,0.05341684492666942,0.009769882458493431,-0.005484924164165443,0.02726198749188364,0.044479705422204203,-0.03332938137635256,0.038269839728098456,0.025104926431037136,-0.009489275334721898,-0.018864047195368563,-1.0139749787681,-0.09437602756726696
0.22674250839666601,-0.0759260425492158,-0.04552665357260367,0.0021579752397937035,0.00037584693110717004,-0.00860177925941522,-0.042239098541881924,-0.0064933828939757595,-0.008484976104274218,0.00239630587967633,-0.017909177670427514,-0.025118415269314045,0.0023989663043889283,-0.016485932918197926,-0.0061787704328180185,-0.009845127799109277,0.004041195877445795,-0.009531837545102046,-0.022091234189675138,-0.12407518359514733,-0.0936507616499501,0.007061683170073408,0.0032780875076738923,-0.010444898936008562,0.032545482323832045,0.004559778583942894,-0.3550616387283178,-0.347048961368453,-0.006922673408600568,-0.002705717431200594,0.025378445126865247,0.09078065990661086,0.01816336638267244,0.044706051651595004,-0.4426312335242254,-0.0681433294166316,-0.02049384628768888,0.005121043377117702,0.041412525954410945,0.022855729034862424,0.042353468459921564,-0.06117885473647803,-0.07216074389476226,-0.051662337667964214,-0.019628846578693886,-0.017397286168217556,-0.002921620455139039,0.006231097558954563,-0.0118430378883086,-0.039363648310375234,0.025235041420932917,-0.011047567346024361,0.015672445771086282,0.013772919495630377,0.01762945961406974,0.0156912491089741,0.052634824817228115,-0.0048572221605745515,0.4284756830051567,-0.14482157453580183,-0.07969916348230245,-0.058581382324540375,0.011441071018541596,0.0066350471720224066,0.0047882515624614545,-0.056212584612832246,0.009990607055941575,-0.028376226213060053,-0.005665776592965568,0.018340359752070767,-0.015114391379080189,0.0015033017391108104,0.010597584834354022,-0.004553650016277844,-0.024420711105571834,0.005785953932937462,-0.004310582718660777,0.03629765211358269,-0.014083016634714642,0.020331826822383704,-0.019088935003754484,-0.0319473751171142,-0.15371691101826543,-0.10693478533120476,-0.004433695864936472,-0.01551916701779896,-0.014075326632201091,-0.030899779801803737,0.001156627126807295,-0.3427290181852932,-0.32893364535616254,-0.07452706759011454,-0.038988771796335434,0.05951976753636761,-0.014741686001566778,0.08480629982629923,-0.01881217967515731,-0.8522439433008178,-0.08210129607046988,0.016196560811097428,-0.009957204337335643,-0.024391820071728222,-0.012541647771839826,-0.046149771802521465,-0.05447027262162166,-0.06311015811238893,-0.03915165345923302,-0.015895015197246322,0.005290261085084096,0.048915954962243345,-0.022058399879363665,0.023095912239751007,-0.013886931705403751,0.01435461884334582,0.015655271467697792,0.05125624969353205,-0.004733864696760097,0.6226918791397895,-0.15913771544728883,-0.07280227811396252,-0.06619996243557665,0.0027145398239768236,-0.02103509537669937,0.009224593828944517,-0.0661146360456846,0.010663388887299997,-0.046252253196224564,0.001218317088821959,0.0012984023141294568,0.01981094710414627,0.016528833776993056,-0.010074177687812063,0.009915531796800827,0.013169609547003719,-0.017305963836602715,0.0036209670338697786,0.08719061462238958,0.02500539509375807,0.030590713230215942,0.0023336436855656457,0.054699815719947975,0.02039643484541372,0.06874941087077112,0.019196268813041758,0.0899466755943861,0.030959220623383386,-0.004825404383770423,0.10587655609879398,0.3748578671328609,0.2567185792436374,0.10053402342334865,0.0652907847517652,0.12495980742611491,-0.01306701297975833,-0.012525613500837082,0.050976984515317264,-0.09359745199113825,0.016704117388781557,0.0583380807537096,0.04032471678109146,-0.0008091976691698077,-0.020465363865285344,-0.023806872736407362,-0.01451419687640823,0.009657779644852068,-0.003304721998093011,-0.0023164223831247804,0.023032740416424054,-0.008338979535845125,-0.006952873965569615,-0.04697081411435127,-0.025875365736904694,-0.01939466601233775,-0.003678910541176084,-0.021788449633886178,-0.013008721683785343,0.10693289743398177,-0.29080574184051433,-0.0639684912892809,-0.0437758091566599,0.006493509272059451,-0.03200912195071152,0.00031129957320480124,-0.04358418605235075,0.0043793581365139484,-0.01383461920782017,-0.004590566179809758,0.02274768238821485,0.011241874904281387,0.029404203148853798,0.03393121942505523,0.014938341485594933,-0.0021365252444314167,0.01226282417628929,-0.00011070225476798549,0.0602982150410052,0.03763044308639643,0.10698658041779209,0.07714437107454594,0.1573225166242811,-0.010345476665787907,0.06686067285862678,0.010241896348239275,0.180474140258224,0.15339247713370038,0.28152596069197333,0.3141410081586169,0.1287943141475595,0.15971997960858036,0.21611321683231186,0.04085040119959748,0.003347472097628763,0.0744576894290763,0.4115719771697874,0.10714419065331504,-0.13613202145086264,0.044800257352410354,0.09767372362924338,0.04675853679763183,0.032264208201927186,0.05010910801048572,0.04322160270332317,0.03639033584192865,-0.006743089214719652,0.01983884473591854,0.023228894219342253,0.020399613101518808,-0.006863511495784672,0.003861430438517745,-0.004735694613176752,-0.0032625894670041005,0.0035644058140558246,-0.013192584591769833,-0.008947303451957725,-0.02633926037623745,-0.05349519187446367,-0.21284272035747326,-0.008792894317306487,-0.01858393191878945,0.010322440665265333,0.00012916417426244827,-0.003189307629513217,-0.019078044257897987,-0.001231074291926504,-0.01471309328417676,-0.001207578018814432,0.007649145241382293,0.008709893262501121,-0.0020613763688036952,-0.020760843305473904,0.011311630151838567,-0.012717013995859646,-0.016381442662771858,-0.016970852029971503,0.05969288946623328,0.028910586703753387,0.06989492230269459,0.023683414243124024,-0.0882790044921442,-0.050634671327777034,-0.11417215422791788,0.0020322363870585117,0.22302355236083587,0.15253708547353723,0.09819745339198498,0.06371387923329098,-0.20517362937177866,-0.17312055156007014,-0.03833574796352879,0.06835910509990052,0.2322662336255927,0.05011395355347301,0.04005219932836364,0.0159629432491434,-0.515485913324033,-0.035688271647735366,-0.0070978751288627295,0.07562006163803565,0.015267799460639456,0.003143112934688314,-0.018284563016784577,-0.03126126747057389,-0.03445091322571576,-0.037365697546381416,0.004328283448325115,0.06722095950916274,0.016180512032459637,0.011269805028820348,-0.02801089070133733,-0.01661114624309441,-0.02137640437151952,0.022378696923421974,0.010391999918501737,0.008371265843307671,0.3323559374179101,-0.12624233611282082,-0.0089096652902872,0.032149407091050956,-0.011156200772391957,-0.019979215444483698,-0.004451767469763615,0.01086691149642099,-0.0011732916771806982,-0.009808947061618596,0.012344544829429621,-0.009833091881988831,-0.004724598509304576,-0.007397774769779067,0.008899757221156726,0.0034852138234783294,0.00029481202361331403,0.007199628432053713,0.0028163398643519105,-0.020150093670914405,0.0015495455225744857,-0.024329156830106155,0.010185991112078274,0.09768458325553128,0.038458865511321584,0.07558383714643925,0.022752558195339938,-0.08070647184343972,-0.061124639240125754,0.3902549691754642,0.1025341620699269,0.09184190304150312,0.17099681323634552,0.23673171190512501,0.09846578939523355,-0.38529136205626646,0.08150377186508168,0.2640784338262473,0.05944973529679197,0.13797440650244022,0.09853971299494763,0.1891174167518827,0.07908773759994368,-0.012832680703291787,0.053119279851058916,0.050182781820486265,0.04733849812958822,0.04758358396440357,0.06319839200607488,0.046326598829549835,-0.014249333138401253,-0.021365833473332405,0.025878973415386492,0.03000866821388877,-0.0024226612104934864,0.021761439049242267,0.010639691295438344,-0.02462441661770533,-0.015252856289670725,0.1579934040001119,-0.05188723059060199
-0.22509224178118659,-0.02641102655734105,0.03183874796425122,0.017832722833312425,0.004995198248146952,0.01690737623016346,0.043993440507360655,-0.005945166480050379,-0.02792091127664685,0.0013174207475010623,0.007672272809112587,0.024250327889796308,0.020541915715275156,0.023793947343543367,0.016016329511544466,-0.005818902531271044,0.017863849020193556,-0.015155316937558068,0.1281894467267867,0.1680973443732887,0.1710982624432229,0.015891139293924543,-0.04345103468498332,-0.0697457783618348,-0.14571900048774525,-0.012640922476040171,0.29898243459423274,0.2049957566022991,-0.19753976046037466,-0.24662102579571618,-0.5013181794090099,-0.6629709489719863,-0.32836418265764805,-0.3467348175280941,0.8894872117123969,-0.09536010823181204,-0.10957059049869902,-0.17766796236859725,-0.4602082255783484,-0.294221651391719,-0.30367982138161354,-0.09183018090289319,0.09463609996780588,0.04059284098948863,-0.04487390525404802,-0.02906002429729368,-0.051020046345152205,-0.03786546723946974,0.034798162544959196,0.08374228725079738,0.03363171597747921,0.036823274739161166,-0.039041328634078824,-0.002812330206472554,-0.047915613973136,0.01801013045820195,0.0024773915010463305,0.019477578341016606,-0.16410419654381678,0.24026831189648806,0.026483692821462776,0.01907398047287552,0.0029387676815825613,-0.008500211963093335,-0.0036923361293457204,0.02228323785200378,-0.007172303742337884,-0.040640982276975504,0.004415708978259667,-0.006355221061208583,0.0031044557742320295,0.006481754307522183,-0.008973178540220804,-0.009870385237328031,0.019320643831668576,0.0018927422780344407,0.006884284085656199,-0.06498064415104653,0.01160033207062955,0.030248920542950454,-0.03018289163955367,-0.10194995956966707,0.1482390753753633,-0.0073672178862116714,-0.010791254356239729,-0.009984989496823788,0.033525274781196136,0.037702251678213124,-0.22063799314228708,0.10600820416630494,0.15076905191211148,-0.101744064914757,-0.015858244980464512,0.021413918097952817,0.006185196998405404,-0.03874312368038929,-0.11805616918213847,0.6648159066579218,-0.03918021522288477,-0.15418138369132414,0.01951048383433357,0.026773650775552955,0.026064978214674656,-0.0031808237672379383,-0.024089911258585898,0.014602307033446893,0.01354881299859833,0.01364169753910024,-0.001298452450626415,-0.019383557869670776,0.016754021096944814,-0.0425221495075877,-0.007986647190486182,-0.05359832585293895,-0.023573294097798632,-0.05098755398756994,0.009933399264475548,-0.3433368423764997,-0.009439301872916295,-0.060549393417460864,0.08786734290051518,0.006141720551100442,0.015198520315082101,-0.01689877496011375,0.043819186455305636,-0.013391984332955093,0.030608310743384142,0.00857260215345941,-0.020954511288462405,0.010917420700181701,-0.027730162639270552,-0.019118735086808475,-0.023363317590381853,-0.024681756590066703,0.009624584008348577,-0.03061772658363069,-0.15109306206319983,-0.07630604074785642,-0.1771843806000551,-0.0998867800161732,-0.07575553393421698,-0.08029888484048057,-0.1633490063455838,-0.09438273126393258,-0.3311930608400544,-0.5359756583604834,-0.29120164957712996,-0.2739390416388025,-0.3856171465873772,-0.5930520937425567,-0.2288957560544026,-0.24740773407920108,0.1786947062688416,-0.09822348686553245,0.0424878039506753,-0.029083773903867984,0.31984446934849453,-0.07368256590937498,0.013922175071770538,-0.05652678811066346,0.007318812972042758,0.0008037745682406317,0.019619292961209855,0.02665985529022689,0.04334663197495284,-0.01066230637965601,0.013536171417784537,0.005188882525480177,0.035131132619577544,-0.02760812366777616,0.06874962101751943,0.004299101712612737,0.05389623489984558,-0.05406771356296115,0.04530030611546978,-0.005347197329123805,0.0896364293490432,0.2622927794096623,-0.0652290010927442,0.07067201264673842,0.007296549557150909,-0.0028407094320694534,0.001961263969305838,0.03525158977222621,-0.006781515403811936,-0.03946865887775814,0.0032171177774001783,-0.012828540218303021,0.00569689269001799,-0.01683149577419552,0.002613785763706063,-0.028212247945502058,-0.020072324776598458,0.0084470994771975,-0.03669550267684132,-0.04624796582621414,-0.024290659763024226,0.04359791311612192,-0.01475856524568598,-0.15959310396303092,0.005163123995813071,-0.062003905649002836,-0.01139513772790579,-0.09753072962435867,-0.09413656194330242,0.015452553375598699,-0.18176108529963328,-0.3550512023711879,-0.3536363917544082,-0.10382472297378703,-0.05091278178526199,0.21185237926092693,0.00984103533990291,-0.07575276402528988,-0.2573013843204045,0.2788112309030315,-0.171544372575742,-0.09550821363332233,-0.044891744927943004,0.008760783230446673,0.017497930852566797,-0.06303217170678115,-0.0558817682545062,-0.013184385005115472,-0.03815338587609381,-0.035105130105920125,0.008703534581040267,0.0480094407670289,0.018933128922690407,0.01957973878823981,0.005276266601457321,-0.00159457441441115,-0.00906679057082217,0.0367692944845755,0.0155417806201641,-0.2843840367276846,0.15476535469330482,-0.07295594573455585,0.03224296931643167,-0.018597037214995598,-0.047369531289867525,0.004184999428167961,0.02965792196961254,0.0013450801416344338,0.015622969780483222,-0.009377662865120396,-0.03855165182291488,-0.06285744332729498,-0.06644879629800414,-0.035088314161237165,-0.03422321004983747,-0.055002859326640556,-0.022677530968784047,-0.04428895502567491,-0.15750630310235114,-0.0886848604384006,-0.20657122853476637,-0.20443033105555788,-0.08931728011615518,-0.001758884947487534,0.02261737994578324,-0.13503637028777374,-0.22267861973598504,-0.22522044555716267,-0.7694475273849182,-0.611514741047794,0.30630198307906775,0.10913788250348769,-0.26246938941330045,-0.711016693920849,-0.01579345056161338,-0.15220425065479656,-0.24499023088218713,-0.09705471350851784,1.018275676012651,0.009360605429124527,-0.004166181345797482,-0.17180208294305208,-0.06443010226198786,-0.03392677818849763,-0.011632130351950327,0.041999846501512374,0.06633658363647862,0.06302859856146543,-0.016391964814934386,-0.06015507128671291,0.042596313398346936,-0.004272305615779843,0.059773752796518566,-0.023708092640757808,0.11600343019523589,0.002494058260462083,0.06534264025714961,-0.06636070967276302,-0.16813756486748477,0.19203999034585195,-0.060039846045602786,-0.02210989285038421,-0.0026067992730950534,-0.02420563521187321,0.011267763270193236,-0.01119932978949622,-0.002034411639265784,-0.0021999466631251368,-0.003929961306380018,-0.03732928052046864,-0.03844137014865385,-0.021624792854201883,-0.031972669686792576,-0.03903808614087468,-0.034691141822387736,-0.008058501437950534,-0.022820889239752232,-0.11272554068611376,-0.025085715946712595,-0.07421805976463028,-0.08238084380952805,-0.10347068475587337,-0.07311956873457114,-0.04778185704458191,-0.06590655655463908,0.128150855351944,0.045630904324122354,-0.4233456578643631,-0.21395040897718187,-0.14412605823727803,-0.19260869753369714,-0.1014322768274219,-0.34920739543472507,0.9111573605193547,-0.05982327264822061,-0.18309046487520847,-0.10389127972942641,0.03710219101434388,-0.0894764180905771,0.030958500037945348,-0.14611186898960576,0.05882737643908875,0.004346618361987622,-0.08001383473912604,-0.0475797310898041,-0.032383233763949866,-0.04309309239756855,-0.02383356897138447,0.022077590034626657,0.12208953028427418,-0.028190547315747872,0.009169958695861086,-0.033902836180901584,0.04139256014002448,-0.031500541986913266,0.09416904782681333,-0.003987066741275168,-0.48111203586745876,0.06974348639954808
-0.7865763529162768,-0.15045596051522173,-0.05652157638268886,0.002327669990251448,0.010213891516718691,0.004797311935389477,-0.03843189559455008,-0.011976064765332162,0.026569780893752712,-0.012937291441497543,0.010095485681058251,-0.007151331381541993,0.0035806253596353276,-0.002290608473541706,0.002345510606188461,-0.0027919634066274567,-0.0013892511211251119,-0.005564173439209502,0.03372384275239739,0.062148980420397654,0.02205848908797207,-0.01214650213064513,-0.03609451622479644,-0.06781694965470562,-0.13788088050921937,-0.04227627352852859,-0.42913447906033336,-0.5951325306392661,-0.43818912005639316,-0.4564306279814708,-0.6749749548679631,-0.8898503264216442,-0.5126363063036389,-0.5437092460364278,0.3330107322886445,-0.3212831919200689,-0.24110381251211233,-0.31617251482723924,-0.4887030237797333,-0.4200576121851577,-0.35432817934867816,-0.30403407966444823,0.007995803415650099,-0.0344812202064401,-0.05905724145468909,-0.05915065332063573,-0.06777561441736563,-0.07670188925114553,-0.029526046732011414,0.032274416255512604,0.0782288921279985,0.013534700727005858,0.0038800338859178167,0.003209250079030502,0.012227172730771273,0.005708607622799189,0.06523690207134612,0.017155691808310385,-0.22517121212438454,0.0826837447559871,-0.08408852042280875,-0.061398235872132306,0.021266743315798663,-0.004890384481747577,-0.009028280011975946,-0.07455346653104769,-0.0038380509073612616,-0.08374969545075771,-0.0008040635717181145,-0.014725542536307257,0.000993383709279841,0.0037513401215206045,-0.017844385840201708,-0.0175757494448458,-0.013951371558545854,-0.037749802748861375,-0.020986586968646786,-0.01834813355191125,0.015972384129747406,0.00368591617450461,-0.01816055124978869,-0.29753781739538,-0.07486455532065707,-0.23445991438298547,-0.022841598085057882,0.005483544635144728,-0.01483879185061223,-0.06809788814326155,-0.3872441055448098,-0.6468930226118529,-0.48858143522863423,-0.2257850098201741,-0.06274988438872119,0.27106152046545734,0.0048401447129826315,-0.12774909536364695,-0.23839807902811957,-0.7931088730191848,-0.20238086511822814,-0.0879935735707397,-0.018464077241962338,0.03021351050682077,0.013963584280883417,-0.06400658069561184,-0.1326766652165067,-0.10657811084824084,-0.0544398091376629,0.01621704941644418,0.030860879675278053,0.04146096460435292,-0.019716033719581316,-0.09063837026656571,-0.016903958315524104,-0.023500773807296153,-0.015334279577102275,0.01308647701998665,0.014128466353719825,-0.206028765437888,-0.28484120073204405,-0.26083489748993216,0.021895480032125162,-0.008609686884000434,-0.01292384207171865,-0.0007566832311719697,-0.01513889915470391,-0.01592876989827607,0.034764090554139364,0.0019261546698398813,-0.05561245606419205,-0.036776476268558275,-0.005552880047195208,-0.021035135729939446,-0.04398045437282745,-0.01020769841324242,-0.03139024418101949,-0.04212250961874463,-0.16357861797935755,-0.043009329398872725,-0.0956729541998934,-0.17372803661338512,-0.16570434953510918,-0.11680192292148275,-0.25179273039287425,-0.1395600888919675,-0.4256674398266575,-0.5280522072244842,-0.4144064291456556,-0.43518679359650647,-0.5230415002209914,-0.7584829567051914,-0.3405453633665406,-0.3545422047636734,0.9201313671800883,-0.09339264088237281,0.09609216839130472,-0.07226473770778892,0.2461114089754807,-0.10896745940713051,0.05744111103549912,-0.14454767868485938,0.05170102147031782,0.005462922335737659,0.005227858496441217,0.013184656063436455,-0.0023052442968705114,-0.007057692351417644,0.015605905994175785,0.012359964813501134,0.10751176582624185,-0.058223285204619085,0.04054307521389834,0.0038840179935331317,0.00982202103575917,-0.09909251882588062,0.05772538619324373,-0.014686198027737971,-0.506601274090521,-0.09438233055026336,-0.23728720258584712,-0.019019767003764426,-0.002139693261944543,-0.039187848426613235,-0.006223370292648598,-0.035100089985082565,0.0045372165872994965,-0.07250249882436464,-0.018421547341380483,0.009723047862055747,-0.01621578418881556,-0.009743822842547887,0.01070758298860132,-0.02345556542302602,-0.03220844008781014,-0.01493221663218324,-0.012214889706944265,-0.004566398326842915,-0.0238296451732983,0.04632404420972235,-0.029379120970207354,-0.20673386960105106,-0.026991781117766414,-0.020601201065622715,-0.03327840634127355,0.012652793254039955,-0.018600133550330356,0.02387093571134264,-0.3213042455853002,-0.42884927330870326,-0.18596312630690698,-0.17687516207684445,-0.029130474943475846,0.27614339525117976,0.006743847336708436,-0.10563662663522355,-0.3469072426720596,0.2513372147505238,-0.1942545253870182,-0.05663616724354198,-0.046742905115244156,0.04969816881643271,0.004976096509385819,-0.12214784578409826,-0.11191405449787906,-0.05318766624690661,-0.06517917159847318,-0.027523588786567913,0.013355774712781886,0.031690965060337646,0.002721302053754001,-0.0070300261603044485,-0.008295794725723431,0.02804405035778956,0.023346209724695272,0.0008240727189063479,0.02921984763728145,-0.8451933737076331,-0.29180574416776517,-0.08675942183601873,0.06599906584319123,-0.0066588538887364206,-0.0512369049723803,0.004937302910703651,0.033700494656997794,0.004558174279440439,-0.018223259827001896,-0.006366046202022167,-0.027389656397990677,-0.06585223483825707,-0.058128620771740115,-0.05746345880096863,-0.06619193687628316,-0.10350864986797867,-0.06316206376609335,-0.06306709837175908,-0.19456627115121902,-0.054082676188352614,-0.1397453000317124,-0.2957395611023625,-0.40194065811056734,-0.08337945152409458,-0.29177025698674314,-0.2135682154200959,-0.017371713140718847,-0.018393276862334024,-1.0290913657912857,-0.8814211281806259,-0.20542789829239974,-0.26958704675330153,-0.5394455624186202,-1.0231384966073043,0.6328298167055078,-0.15928860085340335,-0.28462103241317127,-0.1935548580281686,0.4127441592063068,-0.12019484447710568,-0.05580333766518378,-0.1764254999421263,-0.001531581513031149,0.02934260000082672,-0.011806500764996942,-0.03159044440674893,-0.009739892029823569,0.016960122771166434,0.025360532104917382,-0.0073912347360472735,0.1293088868593533,0.013049550648945809,0.0718081667370522,-0.06136708448270268,0.0825898942565107,0.04331903260987764,0.12203736184922082,-0.05292039962643911,-0.4019915730631397,0.24523255405072786,-0.05016771250147198,0.014551428562461612,0.0012942643238828561,-0.06986623926220306,0.0020450478568397133,0.006835741729970236,0.01236238996593406,0.021710884757398265,-0.014335791615340461,-0.043399477921649325,-0.06452338919366848,-0.057890832118401195,-0.06370223148142751,-0.04603992595158243,-0.04535539743307301,-0.01487990747544826,-0.010350331620819274,-0.43593025570388216,-0.1349560595782269,-0.4726460267888378,-0.1390268060580298,-0.044263914542613074,0.0003025235535614477,-0.01787381349052035,-0.07756226050466851,-0.29157814457786446,-0.2957677564249501,-0.7317392862602844,-0.22563285837735736,0.1309842562280598,0.11948523586257785,-0.20180237924849845,-0.4970678667173239,0.18996370183427802,-0.1820508634793995,-0.21385904912013,-0.08626988180488042,0.580874789526,-0.009982154222066294,-0.03918113912225348,-0.2217806971617561,-0.037345783243364516,-0.01493731109997302,-0.022506559807033415,-0.008883639623824918,0.012968633953090848,0.04223792771211358,-0.044728132924274654,-0.042756887612647586,0.04548262068533935,0.0074259048989884415,0.07879239457440465,-0.02549072136699232,0.06826115727394776,0.011860123787744765,0.02851044594618194,-0.0387875537212625,-0.8410686866451238,0.11617376893784154
-0.9990087992998444,-0.06811091146765698,-0.0024691694249934617,0.0056744448732485055,0.010496411069136631,-0.007470910924039172,0.015474380153678288,-0.007454661275203673,-0.005942171314918764,0.01745736806980971,0.00315037838717939,0.020732577865383406,0.008233987431400722,-0.006178537566170009,-0.010655579941155822,-0.02413469724408994,-0.008903622286693837,-0.013979853625642635,0.07608721344160047,0.14949721300540386,0.12157368807430351,-0.012298360921597438,-0.07140263447035203,-0.07517082165983163,-0.1756332633510611,-0.014802448201450274,0.11560415846846235,0.02072662086038069,-0.3138459878364962,-0.30079026625481387,-0.6068973806785859,-0.7775631833818544,-0.4057942058457585,-0.4361578969502645,0.7958414154096712,-0.15481120093174414,-0.22506268989459421,-0.2511899417391135,-0.6123551607949008,-0.34276458351601097,-0.4051754719292333,-0.1697407604633634,0.06976204288794499,-0.002748839143714852,-0.07060067453826702,-0.05576387846833135,-0.07424790699453751,-0.053095286465389364,0.011085011118319674,0.05752545813625456,0.04135051216816189,0.008479100206495728,-0.03744721053995152,0.006223815196408391,-0.06131141925368379,0.010986431332113283,-0.00872320963270442,0.030930840900437497,-0.74206508047839,0.10180989102661754,-0.034723241769992884,-0.018729973088770335,0.0025392895568846345,-0.02954453691968555,0.006222038470611183,-0.00012418815497348138,0.0081642473821033,-0.07490767483156359,-0.029163926665121714,-0.01122239548246422,0.003288939158678806,8.87795351653871e-05,0.01099093503475938,0.0023233525147409273,0.0016056411967905796,-0.007963208250728146,-0.023226994727952987,-0.07067194017594312,-0.0021526193321947064,0.00664058131045072,-0.02352922995189161,-0.17860484756973685,0.06066535551841747,-0.11987981617713851,-0.026954709186118763,-0.0273230448743852,0.006238847455939527,0.023142489006215895,-0.29278131472022845,-0.2111772463962306,0.005676569510196283,-0.14852519210617535,-0.028840902971179718,0.07511273578823212,0.025583983888185998,-0.09281161132161087,-0.17848405391146133,0.23000190165292372,-0.10458681240123965,-0.19988755125190089,-0.004095857272192673,0.02442287672678913,0.01259681130979683,-0.03724498069982242,-0.07137183456574887,-0.027798418085361043,-0.009544566988368334,0.004355597675078525,-8.537037972556591e-05,-0.012507648623392563,-0.005339881316492151,-0.08852176354151337,-0.014577585769438154,-0.059146270989623606,-0.013853343586533576,-0.05830499184899476,0.021225801112674025,-0.8435701423273695,-0.16045003894862608,-0.12962034709223835,0.04470724304821408,-0.018176403691979384,-0.00435490441741485,0.015151055656669313,0.03833915042600184,-0.0013587964415540106,0.05009757732300174,-0.006158695816676676,-0.042229012983146366,0.005678699274196958,0.0050089836993306115,0.0008848060142014756,-0.05633291784822831,-0.027871375060829564,0.016437078065724045,-0.036664311135131765,-0.19914126923334616,-0.06774443733999719,-0.1648053518380124,-0.13630487853488168,-0.15063315646590428,-0.10535080577847104,-0.22727960102691552,-0.11142561069850145,-0.43538704816962565,-0.6108245403558931,-0.3483206376172006,-0.370045957869978,-0.6364029138882116,-0.7665395209490528,-0.2876276336654497,-0.34859711629745005,0.3718440884941932,-0.13284178052626994,0.007278935245530269,-0.05473510332416671,0.19516081677608754,-0.09949898105296807,-0.000234467045871551,-0.11209921463305159,0.034325743560503545,0.01291278718319685,0.022835627707608098,0.020215634105942175,0.006725831746951871,-0.009236543390576231,-0.024898520023983968,0.0007759704367875185,0.0653796733006863,-0.05497658733538642,0.07165477086899844,-0.002662888683113022,0.03992908250458962,-0.06759329814926106,0.050754392166119544,-0.03371518406743989,-0.5370416871803507,0.1335786619325186,-0.12698186213816537,0.046858535506991775,-0.009113820248781436,-0.033362951454738235,0.008500964818920233,-0.002756931783481214,0.005387625465085837,-0.06733184790935014,0.0035096056477591834,-0.0420812362874978,-0.015610007309337592,-0.02831924472825052,-0.026157159447495595,-0.015472508499409196,-0.0024087181321954688,-0.025410250040223677,-0.018870684321175717,-0.10121735579535963,-0.04817661531196403,-0.03381204821552044,-0.03753712037848693,-0.2221039559074524,0.0006325062415071735,-0.08279119698925987,-0.017273341950834444,-0.22357620120828395,-0.20785531137124796,-0.06805980345891066,-0.2949923935134652,-0.4827262795122297,-0.3853881903288085,-0.17053275346377675,-0.11335331190003779,0.17945594790809757,-0.04044823583289327,-0.1471739267138113,-0.31122736033050347,0.27199203834605024,-0.2065505595118548,-0.11484902475137672,-0.1029440949705629,0.013119125135275413,0.005214707299093818,-0.09524197553297893,-0.08676637532317363,-0.04884365266396816,-0.04467506459759003,-0.06518798791435332,-0.021217031595646637,0.013775795216337884,0.010792566021379972,0.01325484938588772,0.01205365085376181,0.01801504754100039,0.00478563340863464,0.05125337517268112,-0.010095217901233145,-0.9068876397890611,-0.02451501173874965,-0.11149533230803121,0.035650476690600494,-0.0009240631857376076,-0.04985582784362958,-0.015220422701458495,0.0011204165959827436,-0.009874230707656757,-0.006616578720413769,-0.018303530402678625,-0.03482224802338467,-0.05934568308342625,-0.09056169828941728,-0.05185404762394521,-0.05275580396713474,-0.04357556027681873,-0.048300181666365176,-0.07800462669842534,-0.2003171257033023,-0.07781224923190104,-0.22064998108750425,-0.22222314009641528,-0.257223895323467,-0.03408135837255828,-0.08933317439188904,-0.17236496407126403,-0.23093155241509833,-0.19798971393246642,-0.8720363423839946,-0.7811775359639358,0.004685298430357175,-0.07317686910018864,-0.3487556579565796,-0.8664511876203452,0.16468789989154445,-0.17494324932238586,-0.2897523654562048,-0.15457620060258237,0.7708814750854963,-0.04723499299704987,-0.0640930112549875,-0.21473210567058224,-0.05386424250337699,-0.04047839241014886,-0.024082593119728234,0.005668969524203099,0.028409945842250216,0.029006502065407145,0.0008575602936645684,-0.05499077755204854,0.07271232887936772,-0.008147835957893954,0.05845399139714043,-0.038723927106311735,0.10036816350428264,0.01200853248834897,0.07519618059398983,-0.057595207286218794,-0.7275954006288505,0.1792856069363681,-0.07826482330500927,-0.023624642613490662,-0.015188242885420264,-0.06480342173715961,0.018225317421834628,-0.018066554101456106,-0.017849648348869752,-0.018936258838300128,-0.013063343167662759,-0.05603092814375446,-0.05649643067007977,-0.04577992814993102,-0.051391055114883157,-0.04075435416206897,-0.030832809053011893,-0.023902842078210636,-0.04090310473550965,-0.25660650658242606,-0.07728594501111949,-0.25907045187543276,-0.12908641206396995,-0.12946793124845937,-0.04818305345826884,-0.05053252975534293,-0.07069115246433094,-0.12290319718282781,-0.18022984033075012,-0.6166493833057055,-0.2876573009194794,-0.10167046474524047,-0.12090478041832275,-0.16840878227840794,-0.4633510603245728,0.6703697023516917,-0.12926493255449367,-0.24066115407042782,-0.09951860848654204,0.15023571190295623,-0.09387341865595883,-0.02812738322004615,-0.24222434531983536,0.026766066665298602,-0.019041657656125862,-0.07351475021137854,-0.052432524067542355,-0.01990617817580963,-0.03171012110567639,-0.046794259125229616,-0.015028584101330419,0.09050724088154279,-0.040922236913843064,0.022470882185359524,-0.02519632152983763,0.054102492366997344,-0.005553928091548797,0.08730454243264407,-0.034923725150788856,-1.050241214889931,0.0031233098865322047
-0.4604930257144897,-0.020153880756247855,-0.02619944772360585,-0.022420364406217183,-0.024283325198875,-0.0018406122998320335,-0.009831643359998688,0.01316875734194847,-0.008565054585068696,-0.006809955047779912,-0.001082898497031791,-0.005999301636696344,-0.015715665819722724,-0.016571810051999293,-0.019417860242646984,-0.009551377370560358,0.0002948518248845392,-0.0007583468946340013,-0.08505076928086308,-0.12238624255075481,-0.10532404186075417,-0.01542894123090459,-0.008811860298666041,0.0219504319667598,0.0021675395257667353,0.009871933939402363,-0.10712427166562348,-0.08067295099670786,0.2114323695282732,0.24429013368150562,0.44586400773273016,0.4712124293468595,0.22542979751354705,0.26972804913680065,-0.5935783451483205,0.09768834918828496,0.1022168939576907,0.1685236581247128,0.1818907360391449,0.20832726832641033,0.14735438196858788,0.12333816256578484,-0.046345590184069606,-0.031877573869475505,0.0027844687368933857,-0.005866264088140391,-0.0014511356799134921,-0.0026557470079615246,-0.008975922451013219,-0.05918183409521434,-0.03343537898558603,-0.03513073367347516,0.0033302136759662364,-0.010692816413451024,-0.026704295930660014,-0.003843011380320489,-0.03128752890242826,-0.019163994174431178,-0.540419394971806,-0.35071035459495703,-0.06537216129507056,-0.03213465735487432,0.0022404551850334718,-0.020665928739212535,0.009989027054888513,-0.019232707423446738,-0.008733144848402185,0.017457485530981427,-0.030143923390580085,0.01584992869065661,-0.012423738434171194,-0.011479769835239215,-0.015179942966341214,0.00888518857112305,0.0023993815028184144,0.0020512785231222397,-0.016065629605063397,-0.024857700801661164,-0.031551669700497637,0.01320710449216107,0.0080395098469622,0.09395849851303445,-0.09613813300333815,-0.04793317493171778,0.0018493942934693383,-0.04557596714022903,-0.06022240990531187,-0.018730233688493463,0.16845256081453594,0.004819484255014132,-0.17803363866633323,-0.016288304354673818,-0.054213217134590624,-0.15487439522692995,-0.020200004228349965,0.17608413883897636,0.08120510735143968,-0.37391697833784787,0.0121940245245084,-0.007326283969083805,-0.03831681072738465,-0.03899253719055834,-0.023872931921196026,-0.008775690992548879,-0.0050177487117054635,-0.009200405663884708,-0.030110075553453276,-0.0013604306358389149,-0.03485621547744483,0.04051927064895268,-0.007318166485562282,0.050100482806061476,0.0007851892709986295,0.025931196959767363,0.0025365483897260275,0.013761476174684489,-0.011381593154382036,-0.4284187074293049,-0.08598589615482849,0.0192593658872989,-0.08160291654273334,-0.01835923958442496,0.0006368421307252606,-0.004845787585271768,-0.06306558801031126,0.013135577456648744,-0.025707100194455594,0.012143776271302895,0.028519434623080504,0.019099413376988988,-0.001810826959485846,0.0037282578439266274,0.006168660663597609,0.008680985880390327,0.006610958665412783,-0.004441946632796141,0.12192864621645998,0.019485081787272575,0.06462654483956526,0.07212820155903266,0.036570748042062236,0.018048903077815336,0.09284010924004515,0.05603907762061278,0.2533213433700094,0.16126436525240978,0.1980932255803701,0.256261943125881,0.3354911799674884,0.3804579840748469,0.12949538151026482,0.1511955335107298,-0.38455048532846847,0.021087141423497796,-0.09709475676770801,0.05209022544943657,-0.3589990053610726,0.04267934521545093,-0.12153726306671556,0.08890634404789607,-0.03424006588521517,-0.015431092309681494,-0.02495927043308049,-0.05205001271192162,-0.04232461253987648,-0.013169814659766079,-0.0035903985901100627,0.0026605649298326165,-0.06146312161976861,0.01423940721424747,-0.07416757685740424,0.0027781351400861277,-0.03997116494164083,0.031240373875229203,-0.060807109921504225,0.01179278157589309,-0.6020657009876061,-0.25805822279584045,0.028917826271873143,-0.025386020438259563,-0.010122151280834445,0.008027524851060296,-0.011601110011463373,0.0274279222858587,-0.008763676540930744,0.02379836615624173,-0.008880910016899737,0.011221615336587927,0.00839220464598211,0.00881221738240925,0.023105089010274867,0.02856460063664803,0.02899104339157173,0.012316055153008895,0.023128033766601205,-0.010918669353915562,0.011755281299448774,0.021972590228462728,0.09887335077241231,0.23579232092969965,-0.008592411874044692,0.07370087934693811,0.022180704532218896,-0.06415751711075789,-0.04750091601765349,0.23740190640948644,0.538019736643203,0.3870251946783892,0.18918670066395524,0.32160953138479137,0.009106256807119165,-0.17622526544945522,0.023430999376815663,0.5262405000479196,0.2758537901650221,-0.18331558170168552,0.14173698553568465,0.17543582086494203,0.02800334562160211,0.0012362336806759477,0.05664833695421301,0.10265877184812908,0.0812127119332836,0.022534387817581443,0.05453527010365806,0.03388329755620825,-0.018450221435214995,0.006547093762058652,0.0028466254478244483,0.014145728182701035,0.0004148726366003298,-0.006515000946372764,0.004133235047311162,-0.004317683448370648,-0.0003464136944098334,-0.7712659389686397,0.047215054325695664,0.056747786324754274,-0.06087263907859463,0.0016494521100747837,0.028172085533710856,0.006850371358020373,-0.039222483000225676,0.011288138863419566,-0.010487355249436964,0.002280294200427261,0.006660026222541637,0.033833913684231436,0.019953062018965934,0.025829458292018232,0.025715748479422127,0.03296177621838974,0.00437325722326564,0.03690704260347875,0.10645314828413827,0.03931892207651134,0.09443807499585907,0.1775305256915658,0.1252092163543811,-0.007736360382062055,-0.04049700683971296,0.12730087537793708,0.07090090891140902,0.003117357622485393,0.602305060127178,0.5550051363777894,-0.1870577222319806,-0.24112641216093406,0.2635450491961103,0.6050498210384616,-0.2827653109182075,0.10009073181538924,0.1735499831892196,0.08307191092210316,-0.7482037264137106,-0.034108794662120696,-0.03164767659351886,0.12951344455088032,-0.0033194116542405124,-0.021101352230463735,0.005445029204895048,-0.028510781433623466,-0.0553437502480631,-0.045403842745390256,-0.02654968655282641,0.0007447835292995969,-0.07488925588026396,-0.03586508503129631,-0.07755266558038881,0.021451650333683805,-0.08994097105002767,-0.039218040714498574,-0.10309029895327183,0.025716867588435416,-0.4440161303059089,-0.2398296076731552,0.009782366265294135,-0.00452557127189051,0.00581137251478419,0.0328109488947537,0.018267407900848073,0.024502973424972284,0.007519302049172583,-0.02984727435659584,-0.00475682743649572,0.025308407121535644,0.04748023576951766,0.02687143207740074,0.035961453960855774,0.023158516134003455,0.0068539078454828714,0.02542163746922765,-0.001216923191397637,0.1789090723429915,0.05172767635487492,0.2169409169360405,0.11457850070973094,0.10025826899299436,0.017585757871175566,0.08547041820526892,0.07658517688358348,-0.015855008126393844,-0.013932498297670298,0.8279420531457029,0.2965329637442373,0.045649976539566914,0.061705815175079795,0.37730909742101176,0.3556062786992811,-0.44106385031702644,0.17383233015068736,0.48810301652415233,0.10118134671981512,-0.07759881463565382,0.10044185606651357,0.2736709031981494,0.15045196660464172,0.01526859280493023,0.07014527350457717,0.0831035812566832,0.04050106600429378,0.005964502746847245,0.05820078859807599,0.06229279284893699,0.01960419543920444,-0.049423710760251365,0.02578444956419664,0.005388060945174676,0.0001297435607032751,-0.011778699228312742,0.013733057251826098,-0.03313629925130629,-0.004729344955124256,-0.6674652037226412,-0.07208121743885665
-0.6788289629373769,-0.1062504810799849,-0.056056431661304515,-0.006070194690778422,-0.02653259400661688,0.0005699988786002473,-0.054005438927701745,0.009025654352139423,-0.018775987035771328,-0.016446024034655064,0.0017388619050659401,-0.009099287257638852,-0.025266882697949338,-0.0029607864996022406,-0.0010172948932113842,-4.1149926851143464e-05,0.01338144698013324,0.0007661779306946498,-0.015768051448742004,-0.12895531583063466,-0.11507691473207628,0.0009402941542038366,-0.041327149616393076,-0.026140669534117967,-0.027173902954239118,-0.014952681427456326,-0.4454110815601329,-0.49845541683584055,-0.07063861674858563,-0.04586791416772816,-0.0701472940085715,-0.07268218239884033,-0.06222957130644664,-0.04765195562406831,-0.4360171223360378,-0.09584485658515103,-0.07910448268336148,-0.021405859184631216,-0.17622007429936437,-0.036900625086746894,-0.06621543983642102,-0.09297388754201832,-0.058885523633056984,-0.056433651033916225,-0.022170433928805647,0.0021304195288217934,-0.032928621983346895,-0.03640229586213657,-0.03142567512922786,-0.036433194182984345,0.013107957672999533,-0.00584354203774609,-0.027714164215840217,0.001565348573023392,-0.00019704167696413827,-0.020241880772160624,0.05497754944134256,0.0041410821139302246,-0.3649780304904461,-0.23958432696477414,-0.11729522301258519,-0.06269745179923517,0.001265060464169634,-0.012337154812903955,0.0030824969863474383,-0.0640682153404885,-0.016203194426230232,-0.03546016189643962,-0.0012968834931962922,0.004987032597431296,-0.0010067579799380457,-0.010172107486738139,-0.0023942074536566515,-0.01165222175500921,-0.04049821685766156,-0.0339302848502894,0.0019502178024938949,-0.01799038920381749,0.0016522201029847386,-0.006521764208467472,0.009227877147697306,-0.10129434663353885,-0.16910050374095767,-0.16772515709096233,-0.006918826538835177,-0.06761383057179302,-0.025939249946940808,-0.08210007022959577,-0.08964700881467375,-0.4927568122737763,-0.44675266201952046,-0.18882429120749583,-0.09700154758860947,0.022902737189065957,-0.022861288200955635,0.12320177181607501,-0.06715244219497597,-1.0860303488112435,-0.12219923989969925,-0.1006565318273317,-0.02926356642707871,-0.023473680625333337,-0.02422966399664934,-0.04362010053629015,-0.06325334204423141,-0.11597930816778218,-0.06017172044410308,-0.041039642290730656,-0.014840891803545014,0.06247142106924286,0.000248154007924786,-0.0014155813607041592,-0.012438086201128115,-0.008725269701137604,0.0009881369206821452,0.050420503891373446,-0.012520235341451275,-0.1317151467625675,-0.326607582119371,-0.177472266058772,-0.07594410097842172,-0.007884001989886416,-0.04076055819793426,0.0019235368651414854,-0.06682718078438601,-0.011897850866030757,-0.06905459622994528,-0.013812905049458542,0.02411695297244634,0.002172190262347654,-0.01507409307912814,-0.005285723030161924,-0.03482354823474721,-0.016037102305815853,-0.0031246928015981664,-0.01199999665660191,0.07799845581270017,0.016416788850288917,-0.04194721762971338,-0.015024038070180563,0.05160990620612156,-0.006984042527275142,0.022413231113178344,0.02366472393016783,-0.0027669668295538185,-0.19169300767397965,-0.0962999191039874,0.09487401262204882,0.4580989007842583,0.23270609661982797,0.05651005416942937,0.04109441916598894,0.10139006224650544,-0.02143521775059827,-0.07377187311916554,0.05271722584291333,-0.12801525266762484,0.021613721777976096,0.00019099891986193673,0.029200483389534963,-0.010021518683213607,-0.016418870949383952,0.0022560891078058313,-0.030150252457848203,-0.024672936552843555,-0.03082146352155024,0.03343494346655705,0.02308611104533516,-0.025231727836626167,-0.018312737036513073,-0.05889922937141327,-0.025454258507062743,-0.023925115922635177,0.003726310664510222,0.002700600369431995,-0.01596812099330599,-0.7482253416008127,-0.4355039444439311,-0.1380995647455277,-0.09012454859110908,-0.019526100233511694,-0.0391130510987525,-0.0006880824281223481,-0.03331835740983554,-0.00848770554026559,-0.02619047250093391,-0.003668468940045065,0.018764320643905867,0.006012988907126758,0.005761670149449937,0.03428538779308748,0.03338165601466105,0.0026540043127182833,-0.0198158468893336,-0.01718404845345305,0.09391441961615382,0.04985120389738587,0.12890153500819712,0.12034539780280912,0.20389595655790746,-0.027000501376641922,0.050316237046175216,0.027196335861100953,0.16302885472340875,0.21238170403096376,0.4189536558850471,0.50629220423953,0.14021318277689077,0.15416191070284102,0.314884694965128,0.029681559823085863,0.02247576634701237,0.09096650130689003,0.6944772302617123,0.1238604724967264,-0.19114666649877096,0.033872073927801734,0.13905504419055836,0.05813091836211527,0.025794441431487392,0.08647420140213682,0.05283509168037512,0.04437197645354734,-0.02825428777520671,-0.010933384906449257,0.02201366508251534,0.04398776079183759,0.01260138079121396,0.024786624864820243,-0.0004518209863602131,0.0018313443141414522,-0.04230609989602764,0.0037129866169771865,0.002669588961743201,-0.014611719077570959,-1.1927551643041836,-0.27585190410591337,-0.041794647121653976,-0.03586827366383591,-0.003191979698545873,-0.020744299354770672,-0.010254454467412563,-0.040928037318111246,-0.011821804174158092,-0.06484910918065699,-0.0015433641411459536,-0.005131025723948506,-0.014300561393739461,0.001603698597415626,-0.026430804388572097,-0.01238041822245896,-0.00587740444831599,-0.030552759950925906,-0.017293819274499102,0.02003100313361246,0.011792716051747325,-0.0006068540460476143,-0.029505612505948804,-0.18334553741989668,-0.07136417976219764,-0.21407097291377897,-0.004377469803696747,0.2661457906957153,0.13737644487245848,-0.048537313362579194,-0.05549436805911199,-0.245023071493228,-0.2756698659910133,-0.08677377745633329,-0.08968350548282761,0.26772049231009254,0.02351624536724994,-0.027043702604618334,-0.026545063382245274,-0.5956356788502825,-0.0531194148640056,-0.03242909171291147,0.07213853490698396,0.04310911444042224,0.009691152766131292,-0.02936891361197333,-0.04732873230261155,-0.07135092887828508,-0.05271763984555017,0.007046099037744134,0.03536875111795546,0.022668677757480535,-0.010320459006565618,-0.016940683983162817,-0.01820938794862192,-0.0442451409159623,-0.02554201451350212,0.013573068034807779,-0.023006355186018006,-0.4877739155886381,-0.24015107527176704,-0.031184129965639656,-0.00447558931495551,-0.012438344084691489,-0.05019613520301293,0.012903458054575193,-0.021627527468722776,-0.004325666907642551,-0.007204257530773935,0.002929830095905287,-0.004402019927948396,-0.03317715989623371,-0.008522230618911532,-0.007302074317436419,-0.009255925199434203,-0.02350915336302983,0.0033864500751398102,-0.005516932831521359,-0.07210350144146285,-0.015144818958503106,-0.03761953577264914,0.02900082728778632,0.10841494383194701,0.023014924095874145,0.11596703032922263,0.01041085260823404,-0.1292631333433414,-0.02300011908209197,0.5396056970607103,0.07867683084887381,0.06816716713019577,0.19849217674495753,0.3829006399946896,0.052087841079061795,-0.3386255469246854,0.13348268103577082,0.3682884070113159,0.047638079794545686,0.1973506527991302,0.10394337704938214,0.31063431332370417,0.07697921272441097,-0.019254744432942734,0.06062679861131139,0.08036025109167858,0.03745270290055598,0.03365276430655959,0.0848228305838709,0.0788389004186412,0.009793474813918894,-0.019460939714216592,0.028786645884439112,0.04926069840676017,0.00017409750126987897,0.012598611999974287,0.026582552186530734,-0.014495211777875605,-0.04219132555148667,-0.9262625123515323,-0.10874437796821146

Wj
0.6344852953633645,0.35108324700991733,0.027259891815281517,0.19278080213787468,-0.9842934892905956,-1.0790288466256988,-0.7801777386196763,-0.3249123488727682,0.15595433362750064
0.6794463923396161,0.8381468369944615,-0.1856478772668383,0.09654621147852423,-1.0647851344595414,0.15685260755334246,-0.3656539077547466,-1.8414936517131806,-0.09035411425877837
0.3863163277903389,1.6166451500818535,-0.21584885026550218,0.16034847524238258,-1.5414560799841976,-0.8822328341295247,-1.2884545473279123,-0.5865097513269996,-0.1559049663057442
0.6151035471976084,1.1807873395054727,0.11552095279084407,-0.09268216898998094,-1.19396060555992,-1.1328308268302807,-1.4187707012865889,-0.29611344602793377,0.1732732096042058
0.9019081424534932,1.9228443047125234,-0.4514356518814444,0.1503781652751793,-1.4840854236328973,-0.7175088995342709,-0.946152187333045,0.14908027092023612,-0.3721324428240733
0.5369556237790908,1.9068871013008974,-1.390547885031337,0.7521447861323064,-0.8954071783127122,-0.6468382303546475,-0.971521258377345,-2.1065161142586697,-1.4472077254965177
-0.7585468398645016,0.017209421348939737,1.5829845556447157,0.7466999009519666,0.7887157997814486,0.8022251816572339,0.5288788638096902,1.2697667029498443,1.4708307195709935
1.0474881618871454,0.9983906408526755,-0.6543933607019712,0.22474744971979244,-1.649729890700731,-0.7619600379382193,-0.3764209800690532,-1.4137320666344988,-0.4178273248294518

Wk
-4.587107027450198,-0.8758467074391615,-1.0093553336165983,-1.43666858944632,-1.1163774991105078,-0.7359856615430626,-1.5324509061461449,0.9517012885633003,-1.3537676758170039
-3.9960931686587027,-1.6847951033975597,-0.8695477968948959,-1.7015085901507745,-0.15264695619053678,-1.652576762942458,-0.6790826496855635,1.5991663413751618,-1.4441502432334918
-2.976863873468768,-1.4369374666350967,-1.1257619499275315,-1.5938456939056016,0.2750918542852103,-1.2247115552152594,-1.7950243538872226,3.2195235253807715,-1.373800021906271
-3.7410089227477097,-1.6166680599402334,-1.8812391150255041,-1.5218344436086926,-1.1303434290732615,-1.4377006978540285,-0.9132470944530381,1.2724175429835498,-2.0040000871448944
-3.3851363014621696,-0.9159450032928724,-0.8002332377489118,-1.5680378057878395,-1.2495478386922227,-1.1028278644840952,0.005228843348198696,-0.036470580587015064,-1.0201928395907065
-3.2603126408166143,-0.7041301100385691,-0.8763429237917478,-0.6438120931563963,-0.2138048953144985,-0.9741818623215919,-0.2617325688644209,0.36045084725313276,-0.3515765635178984
-3.545509588768086,-1.910090591261225,-1.1980470272697104,-1.327200463107019,-1.350376553583968,-2.0691211389708832,-0.1867441617889702,1.5451403233323802,-1.6073111651797236
-3.2056667190750257,-0.9674419106391967,-1.343380112552714,-1.486166186976107,-0.20165164186149823,-1.1708016162380397,0.3392788244885963,0.8188904967452325,-1.6834120274429312

