Wi
-0.3916816544862777,-0.1584802900939123,-0.06508168073756215,0.011976250567402418,-0.007572565048285414,-0.003116996219990012,-0.04037644105653545,-0.006356272802089079,-0.02091719011873391,-0.02070067362382401,0.013960343979265948,0.0024398134700277544,-0.014468997264126504,0.004326334976596456,8.789579831809553e-05,-0.012701944599932714,0.01011877527097322,-0.0034247101854609986,0.15699218664193543,-0.020489370862900827,-0.03528276652563588,-0.031139108566309675,-0.09985577469687633,-0.021035796535702003,-0.08428746967834143,0.0032110302907799853,-0.2496790379450359,-0.3681912087279784,-0.1866878833051762,-0.3040846656246579,-0.36215395576300585,-0.33600574619390716,-0.276126251547908,-0.1566423572337619,-0.032636553586640506,-0.17704564547132018,-0.22319076511645655,-0.17498499446493,-0.30774027621352545,-0.17776643625612712,-0.134767333698436,-0.11671504179484862,-0.016344531736868322,-0.03768822996558372,-0.06801059881466233,-0.03523980862451156,-0.03035996619669609,-0.034980013871089836,0.005329875038225989,0.034104099217218194,0.01276374237262324,-0.00783392910959437,-0.03500628982997794,-0.003943897878155291,-0.016146358689890533,-0.009673742355837041,0.1589908999263057,0.014464968288743975,-0.027372672383885348,-0.13605286317967047,-0.08532708976334104,-0.055890785290235265,-0.004517064961396084,0.0028763168651181636,-0.0008465087037540826,-0.06633408296252855,0.0009731970410136721,-0.04956179570506347,-0.004156923369112111,-0.02172845292876124,0.011951461801869574,-0.0032391980268386814,-0.012033305525755437,-0.0057457926796450455,-0.05378962705366875,-0.04390938509882398,0.014840337199154736,0.07380142164814248,0.010092533448382702,0.053992105590343134,-0.013833386770335713,-0.15768393827320665,-0.1289478257296505,-0.19157767336591558,-0.003611064383725249,0.08977951243758779,0.0008692672691169475,-0.0027714313162339834,-0.19281817976962354,-0.4631052437394939,-0.4010411446020619,-0.17466438113120247,0.02043637782850201,0.09389371407394796,0.0023826515301804694,0.10878148087759709,-0.14705212355929184,-0.8869164714576514,-0.1491177532554661,-0.0641448417136098,0.027312172181927583,-0.004171090822421687,-0.012288800065080947,-0.06880956686444212,-0.08164555515519023,-0.15087071081073697,-0.06936309264809865,-0.0102550113962556,0.0111606513189624,0.10635484569004522,0.014362025816283168,-0.041961550534402314,-0.0380950907597761,-0.021487738599129683,0.008249707450605255,0.056938189924415926,0.012140124124779692,0.007470222782119621,-0.3134247332481925,-0.15537168146095406,-0.030555538386604228,0.004710296053807834,-0.017684607683714625,-0.004588752747785118,-0.04411169578308673,-0.013225687026142493,-0.0231576926897775,-0.0014965119294340595,0.028069938977317948,0.029524874262815366,-0.026667351735727225,-0.016560873312982526,0.002155676334444306,-0.013231997352514131,-0.004127555432397086,-0.018675630676021134,0.13876570899236276,-0.03778515954932441,-0.14478760381093148,-0.06248822734757769,0.06446364433127781,-0.05792217784548169,-0.04688528030894479,-0.013866954379298451,-0.011650227955035172,-0.37596083958680704,-0.25364903672686234,0.029917983386654235,0.27081915508983423,-0.046418144693075855,-0.050997639737973145,0.08083273269549483,-0.057507887526478195,-0.0984744069410689,0.02306080250852898,0.13476722288961426,0.08023085293663153,0.00610235675971087,0.09695568317927863,0.13239263863003034,-0.04844817979766397,-0.034551489977876736,-0.0076384698667182884,0.009141951985202151,0.0031888901703841276,0.03438718288156034,0.08327582907205001,0.04582247782543481,-0.027107761544321672,-0.01625690636164209,-0.011286398564772942,-0.006782682836081324,0.008521028464498651,-0.00743747324793097,0.037271450487384596,-0.020512105249166523,-0.3173450060520464,-0.2255297703030366,-0.14292775443898356,-0.03780156497942432,0.012955765387568383,-0.002168896534395235,-0.0064225716085129485,-0.04726821575559249,-0.007718837604321464,-0.01616921787459387,0.004581697166866393,0.04414631284944878,0.01645593705938979,-0.01692189590699998,0.013742350279143412,0.020039208460028338,0.011719698431930613,-0.012601529402032388,-0.008490165744421898,0.2654189781301147,0.037930750561848144,0.12398048640084844,0.15464455370129895,0.1862292243795518,-0.02365816458513365,0.06299530256380757,0.07293818580058135,0.18352555284681632,0.21267271225905177,0.5419000131289363,0.5519843485886892,-0.029804643006755577,-0.0989262751905905,0.4251280157836585,0.2988316119545915,0.1267466153368092,0.11851526334798144,0.7356689803676102,0.042920649173304716,-0.2966415172133661,-0.042038148998594496,0.2388021625222833,0.1372755819780309,0.03269226286643252,0.1024916190217813,0.06414545717162806,0.005772770942923321,-0.03679729174489712,-0.02124436922216428,0.07401209390690484,0.07118580577558313,0.022532623955542567,0.03578725496022767,0.005409348957670493,0.004622776714285832,-0.03419366218083848,0.023440330482084402,0.04523834848022693,0.028624238343310633,-1.00702300873565,-0.09075794435295553,-0.04585251245985851,-0.019308616263263034,0.004966721066022236,-0.05169897331715301,-0.017425421810856524,-0.010021888452737368,0.011600455729494244,-0.06202055967619093,-0.0054355863278316265,-0.0036044931657095765,-0.03486255984805149,-0.03565235518322606,-0.013643162902878422,-0.024706700438642606,-0.029944144604734456,-0.051740542686928424,-0.03291043333879502,0.04104202572278546,0.0064754757987603865,-0.09939246779791433,-0.1058052739253098,-0.17625499119564422,-0.05859835755264792,-0.30090907568244285,-0.11879231274226298,0.44620711179450206,0.0508224425148304,-0.5839389352602732,-0.21734591591985628,-0.07929944908807418,-0.07741023958050915,-0.5404902398874828,-0.32986680005659497,0.4325132815966568,-0.042166433921342276,-0.01564778864974166,0.0318827695148533,-0.21186358671991812,-0.11102168367976824,-0.12624694474907963,0.03282635656672058,0.050352415212231376,0.021174170384041832,0.005837957518702446,0.0006288853060489054,-0.029232550214402634,-0.008746726270603378,0.05184465072432204,0.06039762359025048,0.03050342350682748,0.00837154716774637,-0.005694281248533668,-0.036561240927745126,-0.006507244036531824,0.00621814669111025,0.031010574125915655,-0.02599087355461398,-0.20676086999729207,-0.09525825051320069,-0.0011860003108170856,0.005603797834624189,0.003931467300643326,-0.03701344704031521,-0.00957839428865557,0.0051915088002608255,0.01107625837996241,-0.01138248178978421,-0.0074009833656081625,-0.03173663104391697,-0.042503745537422616,-0.03625954120715692,-0.016397537920438736,-0.00032232315117905534,0.021121751427607808,-0.0031937474499475842,-0.008714499095326863,-0.03935572893112001,-0.08161026495233269,-0.16565480994897938,-0.0066347043115385276,0.09864436530639187,-0.007053230463532377,0.06623122469250166,0.03245867703802272,0.07751153007096963,-0.10043223050882254,0.31358852757385164,0.19071876264238058,0.1328906675991197,0.10772276319890889,0.31155354157154835,0.10082727871858793,0.041925267698440266,0.08234065174204099,0.4288037544941857,0.06294856786983077,0.11156456745397497,0.10896942333482644,0.39114045682412674,0.12469640284241726,0.04777367213044344,0.09928698487661505,0.060764742561014155,0.01834520152279845,0.04890285720964146,0.073376955148037,0.10773713994883365,0.06599447213824922,0.04536764868846788,0.028209188611762175,0.054327588731368975,-0.01702737288347498,0.021437634497557638,0.02575600450618904,0.05484845940239936,-0.019037257143418997,-0.7846260479068758,0.0685985889667924
1.616779596593777,-0.025854855147577186,-0.0028470638985572836,0.009871925164312624,0.08043084283405055,-0.01996049391454776,-0.02811059936930991,0.005705478764915515,0.047855726898390356,0.007727039736877834,0.0072770624574703385,0.0033216116739999825,-0.015431699328708302,-0.006032630321437963,-0.008175305557771618,0.0072171275409898756,0.0009537713191178357,0.005702712331296407,0.1274714018966569,-0.13752809707129174,-0.039489717010614385,0.02342758211459389,0.15000542474688927,0.014709041611396766,0.11336290470039918,0.02474484029724989,-0.22891886887723378,-0.31096651591940405,0.08329056153114683,0.1128437566435675,0.24204779894632908,0.18533196386670536,0.1526790950779225,0.12160570137931723,-0.5140890607538744,-0.02112839521525627,0.1550079013503667,0.10294757552305055,0.163190436167849,0.0659014689129976,0.22826756312088528,0.031141136646365006,-0.0016646317639883114,-0.00888431865414307,0.020387284970712495,0.04317388918131083,0.046625698499191015,0.020055935605444594,0.019473419883429613,-0.006822607656218678,0.06967355608531842,-0.020951077986683827,0.07758598890946534,0.00396445928586875,0.07695894437760792,-0.004581612141926476,0.1479540593243994,0.0006438606540321209,1.592781501484611,0.06723610976560088,0.027871456716078775,-0.016382119996241524,0.0028086611054973856,0.08822007390282284,0.008291307860812613,-0.00873490038208489,0.005181796261815317,0.037351318282256116,0.0034039928173539577,-0.014996145826264028,0.031196744169595454,0.008360549576304718,0.032972315252502986,0.006527912034434453,-0.02222540073704907,-0.012733935105655255,0.0019347320700048526,0.2254865362285432,0.03233663068212197,0.1902437294256299,0.02468742078056301,-0.0033414850525837,-0.22624648975390618,-0.032314915397344414,0.04016139516603655,0.160480734952751,0.07150499317977985,0.10161701496920439,0.12735814239039345,-0.33356246537002215,-0.36310990999890036,0.06809320825573115,0.1527604722454421,0.2744941722652965,0.049653521900391254,0.3801736687192288,0.0286163304515859,-1.3409443540854382,-0.04931581658645142,0.24250512300429616,0.07344031157497294,0.044639001248537286,0.031213998356668025,-0.047344350793111036,-0.008337154257494398,-0.053918074072932004,-0.02539739897857262,0.07480956013590162,0.043648101419875684,0.16396195935702457,0.010981660365622845,0.04251180002139722,-0.009058380433141885,0.05624838452620963,0.010226506279290346,0.13486672116051762,0.03588302775368423,1.910694357095342,0.10188730403776843,0.06628078529343354,-0.021876227828603205,-0.004237269587659973,0.08088427474950058,-0.00023506744569837514,-0.05707675229377424,-0.003626294152922901,0.02101418379561846,0.014477147815432766,0.07698073238597034,0.04153017634718719,0.028136522455613194,0.02745430423303476,0.030788071529708614,-0.006533043673026493,-0.007492004606944791,0.04156224398701288,0.44689080279031224,0.056245304335993604,0.25179959845128835,0.07510252580136677,0.18786041157388392,0.014162428466164674,0.07854837258487112,0.11574361769163415,0.43185726469809615,0.033442715103389746,0.3133285275626264,0.46902213658628394,0.634524387019967,0.29960019334050003,0.2599136724746533,0.5230473288213598,-0.22360666977982568,0.14124901973260662,0.11472854161141999,0.19703362899633114,-0.2737927391193165,0.07455031358503485,0.2894904609773074,0.3165341252430195,0.04442342229586197,0.04002125973449813,0.03735983088039353,0.014753405651022726,0.00046693049465612856,0.043200684773809284,0.1258859057849485,0.09195292720303579,-0.016530902354991866,-0.00046122935395935516,-0.042135803461972134,0.012586986039266194,-0.033454069824545386,0.023814308536473972,0.03548077260044573,0.05614253092908463,1.1278445886914503,0.06307304149949462,0.07025502017071772,-0.07340073332744111,-0.014594493801458983,0.04789248048340789,0.009315629733801177,-0.04613152937760339,-0.006398730264208147,0.06700671499164154,0.009480631158017607,0.07149764585739471,0.007743424209815996,-0.001555426606188816,0.025210958426320422,0.08048661063779297,0.026772899262502335,0.02633708507678762,0.02277017467635501,0.33299596109520446,0.026055192290339778,0.15621001845300828,0.2147717235626904,0.3602894134520309,-0.08120038955733708,0.2348085707568247,0.1279397804903897,0.39139911693823687,0.4080317274222757,0.7118316007629011,1.0274776550810796,0.28134682901508634,0.08720321342571243,0.7997078261046475,0.47462270767088327,-0.11961887149935699,0.1558902623871481,0.8933709127868384,0.2893159861985748,-0.5450029150830933,0.1854473473928294,0.5229941923110132,0.22827593271034102,0.031228389364475785,0.11279657377916474,0.16834130333204525,0.0690375955313375,0.029765420080310915,0.10001535359652332,0.12041013169655077,0.058767698607398236,0.03672773083918589,0.04071256832067711,-0.0061363189149812045,0.02328902680277331,-0.016689845707609983,0.030623878342268724,0.03988071881732878,0.01418726359216946,0.9239640192109857,0.1048804034844907,0.09461224746043807,-0.033036745621441044,-0.0007146757889590353,0.11316278311797075,-0.01101957547706831,0.01662591720624667,0.0023644126541357787,0.01353951625656824,0.022842622170052517,0.03008957493036418,0.052988225979606125,0.07384808736355686,0.0379052799153804,0.015995029608716446,0.011690276086646413,-0.0033014079619079987,0.023229866121988286,0.27878054870185104,0.11209237670430729,0.3025600894744609,0.07839463451243084,0.11640012683083205,-0.05014267691161778,-0.18576631004501193,0.07327276016726247,0.6326684045740024,0.3582375150373241,0.38372782453049376,0.34185871033638654,-0.05393083117033731,-0.3396567112724796,0.13553508221441718,0.4212137447160132,0.41381500409496325,0.182552091226319,0.29709822444521217,0.16493564745114092,-1.0061395003718043,-0.045315225205964184,0.11267304819836359,0.2787892390658991,0.15619405555572266,0.11607807868038085,0.032766504001334816,-0.002426155686537812,-0.06694608536966158,-0.033489188863483364,0.06248275871513941,0.12147462894246493,0.03687950027700769,0.014835683932222826,-0.021858270634806665,0.010864688194164961,-0.08368333092717033,-0.026980838078341843,-0.020266767342231054,0.061132627969283516,1.410576373051147,0.07358669821380794,0.10360408495111945,0.017025347434119938,0.006657761946074059,0.019293561869959105,0.0014406871098723776,0.06957002675129528,-0.015626205884791463,0.03875219895338472,0.012105558857422228,0.044086220652087005,0.017764096991813843,0.022995843553495193,0.026879195190338302,0.034605055766809445,0.03555535165811616,0.060934315351813685,0.02829991096056849,0.1804603073173038,0.02046668026199479,0.13738922151207628,0.09363023987915446,0.2574553799255902,0.03270961602150508,0.2068388047761848,0.08954689670543554,0.26009708102179135,0.08528400073537457,0.6982382722492648,0.5073006065641158,0.28193197208078363,0.2268908910034429,0.5619453184334834,0.4523628464734979,-0.5388198522132631,0.2422709061143728,0.7179139565627136,0.20782128730370497,0.059634004244566496,0.2179011939998139,0.526167230317854,0.25914227233346254,0.0325238527410997,0.12809151317771553,0.1328658770467457,0.06850021649870938,0.0900911591499837,0.12630185319660264,0.12891339265290006,0.043775672606979954,-0.01911601694820615,0.03472335766590643,0.03642730606232854,0.015478822393242761,0.034116881317616726,0.034282259847139805,-0.015100513141789128,0.04305840179481422,1.2325512773583724,0.14857771645232498
0.6561030358437774,-0.09978924203137562,-0.029452497177339738,-0.004460747780350808,-0.00834209682530513,0.010415502247226115,-0.014130435957710342,0.0021108487162349076,-0.013965715677276265,-0.009263905472608778,0.0037686812874397064,0.01711900720963924,0.013624005480714131,0.027898022907130008,0.006021655474940637,-0.017907126591125064,0.012654141845846506,-0.005167219748001452,0.14810525188159615,0.05634412853871408,0.02000883636191852,-0.002821654445776313,-0.13355075448365308,-0.0477315129213489,-0.06392120094561611,-0.03267916166348696,-0.047163383855698064,-0.08903373465563047,-0.2023720966882148,-0.34678412355027943,-0.5184717627073743,-0.42455621440825014,-0.2380434091154432,-0.1875120151242924,0.3242566315853173,-0.11825053646654274,-0.18840692507621673,-0.2132465787403185,-0.34372518761834103,-0.20393236153213484,-0.1000370124133748,-0.10540342039441536,0.030041895246469177,-0.04977808258725231,-0.07314391660361755,-0.060535740883791885,-0.0494881716286886,-0.017769037712183248,0.009236112160870733,0.044561365977480186,0.02002885669124505,0.010600573914928397,-0.03591016280524221,0.0023192914214834716,-0.009831717907565797,0.0022377816264821,0.08833446349109411,0.01049610565669604,0.9582999302676194,0.0007424655284134351,-0.05921558043229335,0.014781040318460746,0.003875445408750997,0.001534633050905473,-0.009220195236479694,-0.015963222535747515,-0.0067699200859757565,-0.03365571404265844,0.005860255837245276,-0.01273527134382863,0.013058609286911002,-0.004922049509205251,-0.008656192022387973,-0.005778828665800643,-0.01962214219105639,-0.02225451520783424,0.011715423982311771,0.05774914565633162,0.0169837439680807,0.06417322080769954,-0.012780644686893267,-0.11574993011488953,0.0041170424146360724,-0.06289034382795115,-0.017425998587777915,0.02952425354614722,0.00673381509717991,0.003186363682111769,-0.2489316214565461,-0.18989674741020113,-0.04378288712535634,-0.10878148649083158,-0.022628332762888632,0.1139847209764578,0.0021597491743859136,-0.01097303941723593,-0.10501275650898798,-0.05725783476607732,-0.07357008095692441,-0.04038072435752451,0.00649375293580635,0.013544220126708865,-0.00839098247470736,-0.03598662152218754,-0.06619538887995745,-0.04930718372807969,-0.04411210390462454,0.0009125887561189951,0.029724058180156318,0.04171432966741178,-0.001097159075394222,-0.01828960030909953,-0.01904928328939705,0.004695838603339406,-0.006385811369338631,0.04751919374774029,0.00383213450582969,0.767795968134826,-0.09693343070276496,-0.09441018992916288,0.005157401794675447,-0.010766039925593421,-0.010232769998923986,0.014127306864137512,-0.012663502754496188,-0.007492171055715163,0.01992737674631303,-0.0007821710342781453,0.020508520499751496,0.013696761159445533,-0.018929908810131443,-0.020326160668319132,-0.014391205813338644,-0.0059845605839091934,-0.03054227127173714,-0.019053462979381736,-0.005759542008213408,-0.06819746447957442,-0.07264961364415974,-0.08977681029933421,-0.016066808657297864,-0.05828502366395022,-0.07703042511010678,-0.029035683448830965,-0.2576036607725435,-0.26024875423893246,-0.250760714214895,-0.20616130713182243,-0.10729501613620483,-0.1909816091967688,-0.09606637517361327,-0.11074554316970679,0.20445804904454076,-0.06478548136988446,0.042592238489128374,0.05145283673528106,0.20672817708820335,-2.5878978447843433e-05,0.13966048691675365,0.024638440268190023,0.014312301279604405,-0.01156703677275394,0.013715266947959864,0.023080648018147697,0.021340058014663144,0.019064517362755867,0.07103782489696937,0.04324682437430952,0.011851872519624277,-0.009172652568420687,0.032319574376892285,0.013256983200182187,0.020855899984526548,-0.02724050861694088,0.05844897437287428,0.004371147397427377,0.9188303815846692,-0.011571049269180005,-0.07623330712828036,0.03407856755378493,-0.023500229773049004,0.021938479997738812,0.007236217332792859,0.0020374623026757984,-0.00841308161783284,0.025904528769373956,0.013190565253166848,0.030003629236608306,0.030580771364173386,-0.014135632682009945,0.0243517036318306,0.021712012149407753,-0.004111758843306038,0.015211985193488022,0.023433490322951684,0.2045141312093224,0.043464689162027045,0.08924036846221446,0.025886156779911993,0.041920026251596965,0.012352905982018549,0.061843042164406614,0.04205314183737394,0.09506070822908912,0.21343935529664332,0.24020259003410666,0.017019026172623342,-0.09155837489935141,-0.005920925959832745,0.101564017247341,0.15826603154788627,0.2649558689095232,0.05626836282006698,0.2507133670997446,-0.10730278785875122,0.12628517078175147,-0.056303005787750354,0.09846620783468227,0.0691145312175686,0.05130721333115008,0.06436758414975288,0.002390458128259105,-0.009045940924569694,0.012704102643543625,-0.00449376306353642,0.04541534193484296,0.056535918085100355,0.029859623190741643,0.03387974627261346,0.011873501619162178,0.02499938723264499,0.026701566712867872,0.008815492639032516,0.04848762059827987,0.0345139380591976,0.3059096681344574,0.1284840455508358,-0.04115200257621737,0.023923754855497362,0.00785018875700785,-0.042262926172709145,0.004779978670004325,0.013862985076820428,-0.002361604580183703,-0.021305562767668165,-0.006916617989624408,-0.026086620287408276,-0.06192462003051491,-0.04398777729202523,-0.012868595283316082,-0.03238938542030612,-0.03067827196866324,-0.03158665749745986,-0.019829417983930956,-0.09029374191848424,-0.03178964550943121,-0.12975536503118285,-0.1283575959740019,-0.17634223361841558,-0.03300197322581676,-0.09495526865159891,-0.14329522871323902,0.116623775602891,-0.02284760050868058,-0.6575141529020145,-0.3444043266793527,-0.021209976061255246,0.14051788777937638,-0.46780722148546366,-0.4889785528280392,0.3491200772589578,-0.06957002027196481,-0.07347239492665678,-0.035880437987643045,0.3417078584196085,-0.06984544082999265,-0.12066936385264848,-0.07222034024472226,0.0002333730327756266,0.017793247789394576,0.011949647735676666,0.008242938026449672,0.018654811923850954,0.00886944850286896,0.01782177446044763,0.023501882717541146,0.05527378516494409,0.012475514148557113,0.04998177973182583,-0.021503530766446153,0.052383955713425225,0.0015890628036255973,0.06594443934593776,-0.017662626573581572,0.8749092430845341,0.03682223511215486,0.011809579066027481,0.04559051972951567,0.0155375955401297,0.012330093444501417,-0.01811897232380729,0.03466922004247097,0.01990930883948261,0.015336106046771682,0.011567104276249688,-0.020861456314328845,-0.03666734509511985,-0.03197703531696968,-0.014126882886447303,-0.01783388682197888,-0.011254950795705139,0.0029659222598216028,-0.003816591788216421,-0.021995024661979647,-0.019118024914672526,-0.08207398127215336,-0.038181042754126884,0.031441067238207665,-0.006758623986420214,0.06752503740060244,-0.014556691900673168,0.12052626819135336,0.09655493570813423,0.004391338215314119,0.0011549820539786273,-0.008475024727036524,0.08712284081518715,0.1261751260420081,-0.12631906713145874,0.5028477674533988,0.03353647943238086,0.15462067139558952,-0.014731282772124276,0.21648275415528354,0.026897054857665265,0.22182136873212183,0.0426133325777328,0.05401672460868095,0.04415972262606916,0.020454085805095657,-0.02027456687547557,0.020630882056978623,0.05387986110261617,0.08972236324337082,0.09830853544165637,0.08935703816996575,0.006870040304267749,0.04926862194629716,-0.03550828854714922,0.05945642861352191,0.018864843160806888,0.0829966467119867,-0.011626192469347235,0.34292565206102693,0.22411434896085045
-1.2019625390312176,0.08459995441444063,0.014534415447727168,0.0017140434374322737,0.01658643986508156,0.00025366106797379155,0.003023870113246886,0.012042553988133994,0.006681492831645926,0.003803782004439465,-0.007670926761936423,-0.014683763514635044,-0.019707457333497998,-0.0035403582662188932,-0.0026583037929019315,0.005369229084857436,0.0102071126277064,0.006090584536658015,-0.20486851026113687,-0.0879515723923005,-0.058715969243331154,0.004951931235680932,0.18521776621123542,0.02963768438227032,0.09054114818647903,-0.004512374849129607,-0.047488841153136015,0.03935906650673977,0.2483006953392729,0.44906362371251685,0.6889715149256763,0.5304701737323115,0.3141012233005161,0.22593003682388038,-0.6048924902511562,0.12356204629595445,0.22655310153357772,0.2848261393538016,0.44940624544578556,0.23885828890427974,0.09796478319409373,0.10290414709156057,-0.027876159707222077,0.041468343720573855,0.07456001871926618,0.08154184459306074,0.05119453545350257,0.04082500652574568,-0.015793285525403326,-0.07069166829771287,-0.019674392109662684,0.008670383087531337,0.07475261309902399,0.005968020452021268,0.012504961425461123,-0.01423978075203798,-0.11345999947243088,0.006704261530614742,-1.4956410822592803,-0.042364525445675996,0.03772133834227458,-0.00918700871883579,0.0033925678076647792,-0.0004181849353765584,0.00334001452987734,0.014513528702589774,0.006662378273688236,0.024724409005079172,0.005862277415953497,0.013863322172973912,-0.003503346584694807,-0.01141430996090696,0.02104994808670917,0.002695897489874539,0.013716508296445348,0.0167792528316638,0.0032546755119773362,-0.026713025678680218,-0.007690941452008934,-0.05848154962273121,0.036905587499555415,0.14947037803895594,-0.046412332352444616,0.04290215419864072,0.015996840428368197,0.01252765798311865,0.007112369550549451,0.02815915367202232,0.35047846349495176,0.152523899084785,-0.016303352908612397,0.1554540110777006,0.06829163611142343,-0.10257942014161547,0.023313290471474384,0.05579922533196571,0.11152995691487877,-0.2539263369953948,0.08488244727693452,0.07474680562699325,0.0028588158575087418,-0.01449084636111988,-6.432171512716512e-05,0.059914443057426416,0.06263655909265729,0.02927704542161699,0.034624256141709886,-0.006660267567119077,-0.00821846356508091,-0.06398343280712901,0.00850678859424278,0.011488429781174283,0.0010351586557213013,0.006435774736295363,0.008762739182819874,-0.02271525373918564,-0.00472008692591764,-1.228951505879304,0.09219399738159445,0.06999989488204336,-0.029038346063971394,0.007092787605562978,0.024901797045586385,0.001274282017256451,-0.008988288266700874,0.017420778898588157,-0.02314498042149608,0.02201260916888846,-0.0161224824996158,-0.022756185995181193,0.007340682126516625,-0.005832345553768268,0.0173249116636207,-0.005846962776681113,0.01762693854072325,1.4798227612006613e-05,0.0379025677200138,0.06306898415226952,0.0838711996640987,0.08944788784691558,0.021119740042198992,0.055559311258503156,0.05655396353049709,0.05620993846972917,0.34641215302860845,0.2721152495823128,0.32342809399126815,0.2888867942607713,0.13279556561157796,0.21079857633854915,0.12680285210117415,0.23498863850691334,-0.3201324359668105,0.07618216833592964,-0.058747965740570195,-0.03700501373512009,-0.30269054227031644,-0.0019388846506564349,-0.1427430769855568,-0.015850036346208334,-0.0038365818189110552,0.008871367355602303,-0.016870796407137647,-0.020565616402933435,-0.022202201568621807,-0.03100831471322452,-0.06738671167353001,-0.04246146489350032,-0.042047686117540554,0.010750662727345024,-0.027939481554970964,0.004008956258826732,-0.04545417561737722,0.009540730257908492,-0.04882553244320083,0.027573477794797484,-1.4895279512140565,-0.1037544746986388,0.092201602198497,-0.0522901752328293,-4.424337801652297e-05,-0.02581581879141982,0.005852905244605203,-0.02359735768537676,0.013663542355435996,-0.02306552872586587,-0.006789633093036171,-0.052253219074634316,-0.033962568039548974,-0.0027940186187238396,-0.033141465363429524,-0.02285850671971954,0.001980072244092598,-0.009339382565400801,-0.014196594035021923,-0.2202004740391009,-0.03306005217913674,-0.14971981458785869,-0.04604082704617148,-0.04237221123208358,-0.033280802111594385,-0.08451285320908326,-0.028064434503043786,-0.03891817830495987,-0.2055889093437491,-0.2557789143413723,0.0589399779988727,0.07359823589395847,-0.04361260973059784,-0.07976216327226304,-0.09505106664100439,-0.3742850721724377,-0.09132627880384085,-0.3132504885091583,0.13533710472566907,-0.39759974733089454,0.06463188036685383,-0.07144994137696621,-0.05339790551397768,-0.06772053701479838,-0.05004481274068734,-0.00828307962491326,0.01110405266810053,0.004016913690685429,0.037370299793824925,-0.04496539076375216,-0.07741840593659277,-0.03728872389019937,-0.02420600348556734,-0.05255771215407356,-0.006660744781972458,-0.04265831335069962,-0.02662671872364407,-0.04691203217546521,-0.03217997882047701,-0.7012711030115186,-0.24116161631574842,0.05000367664491209,-0.04085210266534938,-0.002556953391150414,0.06850755668004442,2.4219429324066698e-05,-0.027612269852846653,-0.009322186730998449,0.017082882405844706,0.0240140545820583,0.017413402881173854,0.056459381191204486,0.043800609797340434,0.04685993345002133,0.059999324079935475,0.024061203208808397,0.04150194036184865,0.04241027636697058,0.12688332362713503,0.04731891577090981,0.1523062918080095,0.1827051808577685,0.19496198492341602,0.01818863181532596,0.08841663422919697,0.1749319827974568,-0.05895012448030121,0.05905870525187349,0.8111322028705028,0.45687814293826506,-0.00472294217299402,-0.297516581845285,0.5722337297502466,0.6483569883173559,-0.43153689938226186,0.0853634227202415,0.09387430480190907,0.07128095859091553,-0.6345632724183989,0.06819005467657141,0.11876038410242573,0.12678785398973094,0.007720856714654576,-0.006717654945931693,-0.015764799455407146,-0.01901962304801668,-0.04958489925139874,-0.02979124323712505,-0.0063495396111958695,-0.015194543046546782,-0.07822819040908913,-0.022016590882123155,-0.06321099111161717,0.03248253807998263,-0.07863609152210813,-0.006660203888167154,-0.09256008520099988,0.03177753985368153,-1.3867157164806894,-0.11161129421094262,-0.010692643124631817,-0.06248624115075523,0.010546886266756223,-0.008744363221195593,0.018833502913221178,-0.06587482484163171,0.0014916072461391842,-0.022493800462234054,0.016157782697389697,0.04196830013836987,0.034527890965165946,0.05314249863376544,0.033423255711666024,0.012196940223438694,-0.0007350902628823506,0.006776242657127159,0.013979870098015119,0.010102923439950406,0.04067991958841659,0.045762683690342434,0.06933816679393076,-0.029381887290551665,-0.0007878632015594734,-0.10400384254339905,0.0212327307067811,-0.1570353040974493,-0.12616983954085836,0.030420984545127275,0.0433708793799906,0.010895621864223735,-0.13335516975978573,-0.1592107626260122,0.22761430976154814,-0.8103133968598535,-0.023903072221666717,-0.18579121197121554,0.040418261293925825,-0.371344803598663,-0.04038231301235861,-0.28321450745231563,-0.05086699351390262,-0.08361530616594028,-0.059980494519288184,-0.03870285589724124,-0.01739515825114045,-0.04102062917501691,-0.05685945910118953,-0.11150761350064951,-0.09441649341126311,-0.12332143704981702,-0.0033040462780029585,-0.07600064053115715,0.023166806443960127,-0.08032868364001383,-0.03300231900140565,-0.1439325581703682,0.02222737552650148,-0.7571235320429337,-0.33710870335859777
-0.5730255263254681,-0.1406116357381239,-0.04407527502481091,-0.008693657214968667,-0.0031790679483431963,0.027993514843158703,-0.014944918767773764,-0.009921881104021394,-0.0426089070817595,0.010548204518780972,-0.016006802028407582,-0.008779083393717567,-0.013760689056240644,-0.0036974596232429956,-0.012590368602765653,0.006921307127388397,-0.0032798122915780026,-0.007059592068087898,0.10730290239347348,-0.048999635930837684,-0.05100105640987032,-0.022912996335764015,-0.052041312622199694,-0.02141477520940042,-0.05340569696531639,0.008599169878858063,-0.2918040264558335,-0.3715998505733351,-0.13247074404680026,-0.19186451509696065,-0.18550736116794533,-0.20483346275354317,-0.2083132756476249,-0.0719197813248702,-0.12555424257819886,-0.14942239770646726,-0.14629017294647612,-0.0985042533704307,-0.19945555911036425,-0.1195283474684337,-0.10754886075697925,-0.09832743819789112,-0.025473726039390725,-0.03475013308982166,-0.04550407898068787,-0.03241310834747593,-0.03890947528358034,-0.03686397068155134,0.011731866744221863,0.007148549508242179,0.029029319384915705,-0.011579723852069936,-0.03593765946230317,0.009334723771847258,0.00935434779308677,-0.014354778740542872,0.1383140394957963,0.014471344931411417,-0.2816614771476047,-0.15760063701829805,-0.08835462122804758,-0.05783184029409929,0.005868908711920018,0.0015781785779661879,0.00978525394682817,-0.056158374076235223,0.010371062456904534,-0.044746270885265366,0.010116356973000376,-0.007869218520574,0.01881909794702017,-0.003864013523001993,-0.019882122865155446,-0.004843243716106896,-0.028688668254256627,-0.039165300512572936,-0.006495538134684592,0.07805412200998947,0.003306398188194805,0.0691817160480689,0.018117674567748664,-0.1363667010741742,-0.1401221580823031,-0.2110306533497525,-0.019013749145500757,0.13799574801419667,0.026350113388022033,0.027996775427246864,-0.10543845996086891,-0.44215587188949257,-0.42335995154820705,-0.14145460320660982,0.05677803895310485,0.1276307118225857,0.025204650946491717,0.1489227928381492,-0.09970101054043523,-0.9975032996321441,-0.1370181660267075,-0.04579199249558107,0.039658502700569906,0.017488515916080742,0.005651778912693413,-0.08685512642897643,-0.08110999130656305,-0.12662573845198039,-0.05614177306146,0.0017700870241761561,0.015822208514476594,0.10132646374359303,-0.0031515198854755308,-0.0012291741440194433,-0.011433531084123717,-0.05000529193907797,0.004564716991748572,0.04291062496454001,-0.00606516781998384,-0.21647154849278913,-0.2682880175635351,-0.11255248651500518,-0.013473999656911859,0.0059619633529689455,-0.0022486854530352238,0.0004363427284250437,-0.08636053931962454,-0.002317673715867562,-0.017757251514920306,-0.014514557672082233,0.029262140674918006,0.017765591593916583,-0.025582338316809738,0.001215775328049938,-0.003026588179944392,0.010794641705220945,-0.005150979445626966,-0.0014917737918072502,0.1723479277143437,-0.005229105378512567,-0.12044765967309053,-0.01312372540774719,0.09750951893494222,-0.03910884452506293,-0.027979242231869164,0.01034288624548921,0.17680529078367718,-0.28199978799944814,-0.13657310860350652,0.1753592383167575,0.40369534435795906,0.05092145212753226,-0.010740430540029997,0.1948841279371824,-0.10598190049840066,-0.06427195875370446,0.031610053228542705,0.13346412802433244,-0.0027627148689548966,0.0387207690809528,0.10011145874752106,0.21009822198916847,-0.015148049686737127,-0.011240142408371066,0.03032515432994447,-0.012451701219476698,-0.0002965624627706412,0.024899250429692744,0.05864588226679721,0.055228493846529086,-0.04171082448094831,-0.022907263860463066,-0.025604010152016098,-0.0037300894856249138,-0.028230401808444227,1.4139750753541978e-05,0.02496105119650209,-0.004370814750020732,-0.6080243681665785,-0.23460758421432082,-0.11070742912757639,-0.05125235713031882,-0.0016445471841790807,-0.00786939422645483,-0.013183831559104653,-0.054149655774748576,-0.0015408459921841245,0.00678564568220944,-0.010014872904666678,0.03227849959970005,0.005917538562615977,-0.011006746193256232,0.03558481313292481,0.00983414486753268,0.0007756567207869402,0.014263027380476412,-0.00833185874456466,0.21915743876689228,0.03855469833405225,0.1078627494419786,0.16883881449583515,0.20062200560686044,-0.055464006584007144,0.04344986437563675,0.08486812285695076,0.22269480473437442,0.18001792488904123,0.594500291457704,0.7318672145584652,0.04413793903157637,-0.09273859768983031,0.492687677521848,0.30721983810199355,0.05339335704794829,0.11133452352900627,0.7891585351070073,0.09743151340472203,-0.42878158833777635,-0.00045996122913487773,0.21500427728991028,0.11153751178678131,0.024973759389038924,0.1023238484933466,0.06270805906877418,0.016867951518763212,-0.03046136399674771,-0.01426093112968538,0.06759466221014739,0.055621139894663184,0.018414403213119736,0.026561540200114593,0.0011576609058106687,0.005820250413317988,-0.053282103593960115,0.04080029022950637,0.04603915509212806,0.013686491122458464,-1.1533855877935713,-0.10967667599238158,-0.0422638349466284,-0.038152708639627234,-0.01189691948661809,-0.02717603536395729,-0.0035001596335808203,-0.024015628568269585,0.006544201214974182,-0.0746726010481097,0.0076649719693113036,-0.018356401024788124,-0.02004172447061631,-0.016159500765939968,-0.003533564309320347,-0.027402630965788786,-0.0074537450357871245,-0.056071966695255285,-0.0054074988796495894,0.08708966821922434,0.03205247681676384,-0.0344156956758798,-0.06896028377423853,-0.0813282949139268,-0.05865006359109508,-0.27219203205055037,-0.06718403646339077,0.4893361303716841,0.10805204483055045,-0.3286596469759138,-0.07949410516832045,-0.04289484282408901,-0.12670304555563647,-0.3841125856612021,-0.12251287916727399,0.3473481764667772,-0.011439240518154158,0.010913608499202691,0.05453085380409809,-0.35604347822610455,-0.1052666544528742,-0.06229147006679803,0.12428579463998675,0.03319111222811112,0.020583243703612496,0.0046558630858765495,-0.013643824759830404,-0.027323084865242892,-0.02134335577320686,0.061470436456813236,0.07458971596282071,0.028375729712190597,0.007972075640172733,-0.01921669830719372,-0.018373109698792092,-0.04220775322601478,-0.00630874373559806,0.04035092338820788,-0.021546801088429195,-0.4774648445992843,-0.12753446400474633,-0.00496169070196978,-0.012304582600075675,0.005451792792011846,-0.026202372019009816,-0.006436132977953416,0.030099586674813737,-0.009101191734388833,-0.024118019822035864,-0.0032433456130790805,0.01075408921022629,-0.03044473340701069,-0.04116125133577037,-0.012889223554139845,0.009328257974573139,-0.01158982025182591,0.01372709181491716,-0.02927643528454792,-0.010820568992094371,-0.03523072083142178,-0.09223032969322643,0.031791749365875296,0.11927788425417778,-0.016690658917512233,0.07443140652163964,0.03284920214163686,0.11490648321980089,-0.027235825439986757,0.3673588894431641,0.22176813704279819,0.17983807364103452,0.07669882374103403,0.2961198738807448,0.18009081728092982,-0.16557053242552597,0.1355369786374055,0.45122751118122595,0.09637218592989268,0.03983715079605431,0.10573654679530178,0.3727894899108823,0.13352269436544367,0.003591612519378163,0.08375204472437775,0.052053651305367335,0.014347365964332044,0.028741720192236128,0.08213337762856654,0.1146605710967097,0.07224012526435261,0.02506630920538968,0.044793096029986594,0.018682913438492765,-0.008693270499068644,0.01722922504364245,0.004919410390987288,0.022526565294975858,-0.016003715445107525,-0.8514737507480015,-0.014635748839512163
-0.3861034292290147,-0.18633179565633112,-0.062204616617930565,0.0022633435059580577,-0.01110744882969537,-0.005051234838991119,-0.05356510288519112,0.004528549972126168,-0.02073214147316783,-0.009140457213313235,0.0319326354480138,-0.005137017455722387,0.0042832813815286055,0.011413017869474495,-0.006825512369214457,0.011738133282234593,0.00018562606660063713,0.004059290091408506,0.1713310163176798,-0.023205427258256948,-0.03265120103312144,-0.01508432124333897,-0.1247947023177257,-0.03562650435474957,-0.08446982423857656,-0.005374128553195136,-0.2717948956338385,-0.3991094219306923,-0.21910437811469707,-0.3380046434322481,-0.41670210222055243,-0.3922664422495277,-0.29014177146531633,-0.1630401322805713,0.010356724731721723,-0.19081093075980338,-0.23469864739539995,-0.20665291729471114,-0.3378155855692647,-0.20547667962180438,-0.11304036986420316,-0.12177173467415646,-0.023959567264151608,-0.058356542342390086,-0.07683398475298897,-0.06051419814312439,-0.05516169870064811,-0.04060904555332793,-0.0005595645551025909,0.021275894323610173,0.04068713065488659,-0.011338609448229665,-0.03659697332281831,-0.016486118179584282,-0.005430619056374948,-0.014931502073952774,0.16124620591016772,0.02782053423303013,0.05026835282601984,-0.1387487736045779,-0.08035983167139045,-0.05456132196971628,-0.01105467572126086,-0.0031534161951409607,-0.010682514233432736,-0.05112950674009685,0.0010408784553880895,-0.06964199967806299,0.011165688881984298,-0.011044110072033993,0.005055104803302167,0.003964038045009424,-0.016320318802592958,-0.016849384597191024,-0.054875607933879036,-0.04756839125540077,-0.01089066122893781,0.10014927967577034,0.03459181689419492,0.06159687840336659,-0.007030044560498007,-0.20581720689520427,-0.12479859845262185,-0.210335085178749,-0.002565482942386897,0.09697288734268082,0.016162394734630534,-0.003930575673924954,-0.21259853690393882,-0.5188572973190833,-0.42738089861830025,-0.18448197134087693,0.03174908255791303,0.13515216755165824,-0.007526833047754797,0.09175103219983635,-0.1355614892997292,-0.9206504351689728,-0.1623065418867186,-0.053061694033604445,0.038932206877705544,0.010961135845719302,-0.004684512310793806,-0.06332054477704639,-0.12107973483801646,-0.13604428651918848,-0.08636632761757701,0.003920894958706992,0.018043820842065194,0.08336654937962958,-0.004466408653779387,-0.02885327286751524,-0.027370228447420035,-0.03662663637629459,-0.004311985927388471,0.059317647050998755,0.0024481940446225655,0.044895566265396064,-0.3027066504075069,-0.14230131510664196,-0.023734548898098676,-0.0015190332803413735,-0.01309619822036563,0.009201526943766818,-0.05943224167121494,-0.004518572370080343,-0.022825757008091876,-0.008238919724910207,0.03109744376948574,0.020828411588496767,-0.006205071509098039,0.003067788270157629,-0.009535897551944192,-0.020230407753477255,-0.01028114257472672,-0.010209103332006125,0.15472762841386994,-0.0461201686427133,-0.14206106288120218,-0.06576304687678224,0.04989423885890378,-0.054926710573421786,-0.059162344747096765,-0.006603905585189187,0.008897837372621648,-0.37168620339872094,-0.2552392129060264,0.008014628617334294,0.25420976302677434,-0.07963385410768932,-0.06238662566260072,0.06749330520561816,0.013813268964714766,-0.08220162028213394,0.04849026400104283,0.14990453644415666,0.07385545144892665,0.03184664218447735,0.15293601634163956,0.17101403526700365,-0.023900316583689286,-0.00879561429399012,0.025334719440738503,0.011342003743563155,0.006313541322722882,0.02113150600927962,0.09595235057117774,0.059067369982596166,-0.0237850497934885,-0.02047863007755605,-0.03956140650445568,-0.020504897313580295,-0.016260388425161483,-0.027735803695657268,0.03814957662879455,-0.013357363989734677,-0.2646307561430815,-0.21190843212359717,-0.1468810978155792,-0.029716522939014705,-0.020521262985069427,-0.008599629536031753,-0.010881999254802406,-0.05951839839624657,0.0038505709054643725,0.029818159154174517,-0.0005525058224152138,0.04646342413466855,0.024963449058594267,0.005841214227677115,0.028972201558392426,0.03407116922851886,-0.005261559357043957,-0.011194346880332877,-0.003932009814316182,0.27918898241593376,0.04141320515595532,0.11376722795613638,0.13152936268616863,0.15201684015569408,-0.03844421203763607,0.0607975587976369,0.0832250109729947,0.19593327458316515,0.2483854385346747,0.5476175601555361,0.5148637606732372,-0.06591206449314942,-0.0974624076387819,0.38953505260513344,0.32118878225119324,0.1723051996366486,0.10826668131956577,0.6872162142182277,-0.0041631004262450534,-0.31734609877015835,-0.04187058378473951,0.21980967166519377,0.14954254911768747,0.021316256283080922,0.08937492129731595,0.04502259651797085,-0.02176584880620459,-0.03618655611763189,-0.006437328395761927,0.07070798446200119,0.08562864543601195,0.030669748646507206,0.03740246430553322,0.02130267148569706,0.01952094297091147,-0.023949198908918654,0.029671777271566214,0.05993805247757754,0.05495631388373892,-0.9345882235042368,-0.07571510192867698,-0.04913690920650173,-0.030761535922726697,-0.00275404184021997,-0.036660936837686744,0.00028830836763784544,-0.021440862700434164,0.005931109857084352,-0.060108709191583405,-0.01018269125521376,-0.020773168732533764,-0.02317733118593503,-0.0320917447716122,-0.03203178695152296,-0.036745441447142514,-0.03180266973065199,-0.05591703145359701,-0.0460235619105353,0.031105281142945942,-0.0039556013309430425,-0.08870974387405656,-0.11997347219901154,-0.2231852935577345,-0.06136771080101216,-0.3270185576123497,-0.14694855269568077,0.4722406913237022,0.06874284810144733,-0.643425494957193,-0.23768429965780338,-0.13064473208351574,-0.05162465471471542,-0.60349681828142,-0.35731980169112687,0.5097127376705409,-0.04445311518225108,-0.020558560349439897,0.02371473291041625,-0.17552388625352985,-0.136091913454567,-0.12857122709257693,0.061653500915453845,0.01131030336932081,0.044160459077672895,-0.013519787008829602,-0.018922775440213025,-0.024063200369747066,-0.031057576352755883,0.05253032474131628,0.0827014332276386,0.05520654477591108,0.017622515128452778,0.005028943767591617,-0.04500333266087758,-0.0020964196345149306,0.005686401278825127,0.08201807487715419,-0.013864965047937767,-0.13122458491103242,-0.061854138911171495,0.023581589164662964,0.0005280643821029711,0.002388715808082294,-0.031152471842451335,-0.028996812545402307,0.032543729106439295,-0.008926226488807355,-0.01255992493202784,-0.000683713376236269,-0.017103131841465242,-0.03460658787722219,-0.039796776733863636,-0.03193838705842237,-0.011846848664901875,-0.01596469154621569,-0.01408018281320148,-0.013992886216391942,-0.052309330340379136,-0.06641565817880955,-0.17444914972629447,-0.01677010604949807,0.10390853390225016,-0.012931419708916703,0.07416245111722486,0.013922632925356084,0.10711791066198266,-0.09933522266400462,0.21743349394413727,0.16155126129427644,0.11745921812151487,0.08675717838024005,0.26359611832496277,0.057378736747483124,0.043507460086290924,0.06618929752761123,0.3985777765747059,0.06068400272273032,0.11144712437116343,0.09375681113832106,0.39873754096367253,0.1308178947707449,0.04097075120212878,0.0857071773737573,0.04576371390975176,0.032519283666878895,0.04143835435939226,0.06245506153569984,0.12324865893700743,0.08383726201243483,0.04948353876272018,-0.0016767147502644178,0.05075200724962841,-0.019386554627474233,0.03832938546694569,0.018328253588158275,0.0736046008065933,-0.023166971602785757,-0.6785208880966433,0.09111391627890017
-2.741317615507681,0.18941318668979593,0.0029152856362954,0.007645048690958463,-0.006044452588888891,0.0127046950983995,-0.03521389150958991,0.015203413272675796,-0.021439323297931617,-0.00035650419393379096,-0.019451977446934096,-0.00869327060826665,-0.01295809006163259,0.01036761593315884,0.02698063888271506,0.012835968832827118,-0.0002511593461198109,-0.006066269227214691,-0.26430492809986794,-0.08879944082724722,-0.11294795385890488,0.011370199402614056,0.13261587471447955,0.05062506884167699,0.012574795068076247,-0.002150077134769423,0.18584562607291283,0.18050206248958303,0.5188447449696979,0.5438351439664723,0.8964318491780999,0.6339992366397615,0.3163160005794428,0.3079285897561989,-0.582370887929234,0.26627379746788216,0.33908840475309193,0.37605690454456736,0.4064807730125913,0.2833529753144957,0.09332696197758177,0.14109316545571032,-0.0364736041988649,0.00619782646966468,0.07031492861806597,0.09423472919241987,0.07332629213813371,0.02995878146626088,0.0033879105546298343,-0.07654373534853796,-0.07341267173750378,-0.004746653396419741,-0.02484104154637221,-0.0024682499890918926,-0.06395065275738265,0.0010172415498942843,-0.19110962412920005,-0.013065538786191735,-3.4675552093271245,-0.11785202567857776,0.04256241529041106,-0.006210888877402266,-0.008014864616222242,-0.013187283973605695,0.011534436477958612,0.02146592217947791,0.003199293611039471,0.046543428034667975,-0.022824931777587373,0.0006213172817845532,0.0001731234481496132,-0.014902032150352672,0.038249163409143194,0.004575453006696161,0.015764005980238277,-0.008756594008273173,-0.0022306906221106577,-0.13878249329887224,-0.021914796141262665,-0.10436200353034485,-0.01564030563019579,0.16305413963194068,-0.026303597762337795,0.036198517047171135,-0.0011639901243140718,-0.11095585021626939,0.014188265261659125,-0.04083201789081833,0.1910977122048964,0.6787767627202499,-0.006631930783263278,0.19205508226473864,0.031493081794045946,-0.24904582214591064,-0.010088013521635028,-0.11732869306836188,0.18620685339684673,0.12395636043500728,0.11106833355393331,-0.016090333057357544,-0.014276842439529558,-0.029567457608278776,-0.0077861793623401915,0.030654385965313995,0.07355264311702331,0.07090182592597082,0.006224976228256222,-0.020997877415248768,-0.04621105097695439,-0.10093779690799669,-0.014164213191390617,0.0027405249662962876,-0.008802522073301433,0.004679106660397493,-0.023292075707933537,-0.09737155642738689,0.0009082812651146801,-3.104885121818989,-0.013613467242022528,0.17100443926574005,-0.0191531977601897,0.0077185217985518756,0.011532619028300821,0.008973706840233278,-0.026917755682033796,0.020206050110273228,-0.01983382285966606,0.003418300927609437,-0.035028090473611356,-0.04253811123511133,0.007058780536778508,0.0212045771331446,0.0399667946701442,0.0025548656576997895,0.007996297769121924,0.034375778889065796,-0.143397625677417,0.04543597377265183,0.06886223842090529,0.15767016580341633,-0.07936529906045905,0.0551518774207716,0.03146099589234778,0.04064164272039805,0.060300746380147506,0.315160632778468,0.40829480650014244,0.07309332728775045,-0.09015318854263683,0.12453123849491252,0.10464118208661254,-0.04024303079406594,-0.5260709665173637,0.09154712383446047,-0.009151600507401533,-0.0863946647768961,-0.4275788162104164,0.01666631908774359,-0.2742687166228206,-0.11263507208775327,-0.05070413512740918,0.00410126696702069,0.01675306162755421,0.020463340586739865,-0.01197764452958714,-0.02604304231321832,-0.1211344727766642,-0.10028472173840813,-0.04023013087038626,0.07946946026180081,-0.025087647753477754,0.050176015790450994,-0.06299048141569182,0.03988101042614278,-0.09679111718118404,0.012760578924322644,-2.981330681314652,0.049902427258475324,0.07366496321751145,-0.06948717662512731,-0.015742659766050115,-0.02063378302075852,-0.000290406251586208,0.04790029000331851,-0.0017178575351122938,-0.006578030440587848,-0.0027894103687590736,-0.02612816439408189,-0.0256114541439813,-0.019657391984788383,-0.018815675813673886,0.006475387026567429,0.0019893200065557283,0.030824579953644363,0.011344870577064263,-0.26127375639664396,-0.06429087382916823,-0.15320081847693987,-0.05593299637628216,-0.11328984020471904,-0.032530538830479724,-0.0469510595484006,-0.029150651121915564,-0.23624528349547821,-0.23688392599135644,-0.2681103258247861,-0.14140611300119355,0.343462585710187,0.07385397952987234,-0.09991809369346794,-0.1959054203267366,-0.4359164247980947,-0.0742664448107755,-0.371443466303788,0.09161592949116926,-0.28446590745967676,0.1323586264715103,-0.13346161660688324,-0.11863740595733435,-0.06016169718276215,-0.06678077282693262,-0.043785197311498214,-0.012817815858960817,0.01721752736498994,0.003687975484730977,-0.05945405688096234,-0.077105383466519,-0.04244358569768581,-0.031452286525716536,-0.07203237919680666,-0.00040608594082852445,-0.02797848152883304,-0.0044410634300016535,-0.07472897316716326,-0.020343208968303772,-2.4804097813437864,-0.2042979525946322,0.0765606831292096,-0.03827301991102855,0.008415834634864366,0.017342196131339235,-0.0062114098254612855,0.0147338895029619,-0.004969801253794727,-0.0011818686836552914,-0.006973449219895504,0.014892860735708505,0.06869344654757012,0.07130781155505654,0.032151037724029205,0.023697135714628257,0.0068697161446737015,0.0635063337533977,0.08451109842590356,0.032153597867429565,0.03004806132789706,0.10222691527773799,0.16569411304860288,0.2367192943622809,0.029974646182907298,0.12654386798812148,0.24513785295302615,-0.46672332968522673,-0.017858841748083738,0.8757978299558465,0.46179579477675814,-0.06732041445605208,-0.1947455548851086,0.712945162478592,0.7114603677056858,-0.7087565829798179,0.07013252053921155,-0.019152328958663242,0.010516543803198343,-0.7246681868186219,0.08791070498728279,0.15942658929981643,0.015632685212262843,-0.043848393451003914,-0.022670631846223158,-0.02658731683057519,-0.036854165647080016,-0.04391163809691663,-0.049746964245017934,-0.061326154493459954,-0.05608382700044186,-0.09186308084621049,-0.03202630491911318,-0.09068877483180847,0.040592093940501325,-0.10958679371714264,-0.016867799737165526,-0.10431327555179543,0.04008468785842883,-3.0483773844764364,-0.17640390335178435,-0.01633805494596815,-0.06351436282656703,-0.0007748659353218123,-0.02841484514989416,0.018124203177190438,-0.06666626839629543,-0.017638081006030735,0.0057497733188111785,-0.006061996640430114,0.0027795912268905277,-0.0021632965971452173,0.05359378044965662,0.03431652318461227,0.010440404481563689,-0.009322343111042861,0.0341559332577072,0.021884249344010478,0.10270819669579133,0.026208226625395053,0.09212303023717633,0.059216319886143044,-0.06470167121220487,0.01523369869107469,-0.11731720859664442,0.021934359911019753,-0.029293387073222838,-0.11389897923061625,0.11994376041269644,0.029584288648744066,-0.04623249499621431,-0.11470147631018338,-0.06129076524482709,0.08327246790702587,-0.7155684447917107,0.03683820306609835,-0.1255352739279738,0.028639291467989374,-0.32921557346358815,-0.060223051989060646,-0.294410446391037,-0.07816843493567928,-0.09303431716524414,0.019299829484140937,-0.042188544996810316,-0.003169169317556747,-0.054650833853180994,-0.07620690271284572,-0.09871743246682833,-0.0958013345147712,-0.1072710544128909,-0.02572245643852942,-0.053481285691126076,0.029989355207121246,-0.05816922932829164,-0.03120251556696943,-0.12932268653036014,0.0024475054879773733,-2.512457754370575,-0.33847952282683397
1.8344897619684528,0.21298069644885795,0.07688747947680818,0.0042494103150469,0.02061601614827729,-0.002685351033450772,0.08216378906310184,0.00039552028906633045,0.0768097813847381,-0.0034825885964702295,-0.014017652035361825,0.005492657901799594,0.02059288770971958,0.004002549078877058,-0.004421561716685374,0.010228453018742463,-0.003015385974699079,0.018394833850573458,-0.11417438338740506,0.02454625204634649,0.106939181032124,0.002741239781482368,0.16297828338822679,0.029989470099805026,0.17364015068454644,0.010256250909273797,0.2996833965596706,0.38776032498326074,0.23626479163099573,0.3221350244445184,0.33555974746634115,0.3319761039353149,0.2596693419459317,0.15875070094233837,0.14120579824453963,0.20704544718700127,0.33968111162463804,0.16674179653214474,0.45015530178553387,0.18628411147729385,0.27999617277041966,0.12866124538170684,0.03778378879885481,0.07440566107991674,0.07550766198086502,0.05679962343031438,0.06350026649140253,0.046647371808320605,0.02303059859371585,-0.022949594970783183,0.036432405345214205,0.016198815184309434,0.10919474667533749,-0.0003369294342355517,0.06606939662391415,0.013519610301497316,-0.08917949335286528,0.0009621838299499221,1.4343161207444308,0.3256125472891454,0.13912772918570268,0.06963038645303647,-0.020902751075382763,0.050793604968027456,0.010172396641514024,0.05306552931793025,0.013804702456045675,0.06233331419274521,0.0007340801877614119,0.013756857692376424,0.021670986333023046,0.0024581414674555253,0.0008236932001322892,0.005947135387852731,0.036588010090563075,0.028644554724903844,0.005200516780248653,0.04254277246873511,0.0034739659421606484,0.0455630551208322,0.011787761959950134,0.22035955017371714,0.13412340221161898,0.24209571100509122,0.023324259613522563,0.10889700944462381,0.19203163917038382,0.1213344621719153,0.3005783403987298,0.5913091500513238,0.46844527368231015,0.2360201274551292,0.09802154471974277,0.29069231393553263,0.07113376958557283,-0.03153208357431345,0.16663030096704387,1.005721978641592,0.1791497233730088,0.21573172112764202,0.05038080835512901,0.0375353559041054,0.04610694855699807,0.10967894933545566,0.10751562071634356,0.15420458169664267,0.10506156024898512,0.04165186613794272,0.021700018406023504,-0.02402419009934042,-0.0009385856273695546,0.038149864060813686,0.03639554942075115,0.07666590749793814,-0.0005345562697090894,0.00436718603686103,0.0243596346087615,1.2929403081449817,0.49221828242629634,0.25852008944981203,0.07996715416238112,-0.010132024580654462,0.07232490977333345,0.00897524611060273,0.0970017917770501,0.013313671633241904,0.038448941858663314,0.0055436791732645175,-0.0547358187574777,-0.027763003634867174,0.02561632398340607,0.01834875364151193,0.012127400731843338,0.03768195344025939,0.005861299557713271,0.010622062930667689,-0.02600587160709541,0.08773814967780047,0.23881683280729696,0.09294851088970521,-0.03782553244230091,0.03629869964195058,0.09262036080347494,0.03753136731308535,0.24305487071714588,0.5760472907943354,0.4696350534426058,0.04712602914465972,-0.392426351669662,-0.05819979688318375,0.09565153101152529,0.07085968763379227,0.3636519560429108,0.21717042028151096,0.18213515269525374,-0.11573315764889344,-0.04195690806616209,0.009727345732805098,0.04229209685180674,-0.053804602317299006,0.06691007513338831,0.08314929000818871,0.0014969114517346023,-0.004149951287172649,0.02214772846005183,0.004207789783836905,-0.04653357655962623,-0.0006971140543296346,0.08461197044781651,0.010719862892895542,0.04900877547880431,-0.006910759879589916,0.04333697905893143,0.016016156771717246,-0.0035112493479102476,0.03375726362158702,1.6025534964495818,0.4972317307860174,0.2648705048002157,0.045645277641696534,0.0045431499678695985,0.014012438219035276,-0.026725700083931863,0.07482940509804277,-0.006593855957142195,0.024842129966657796,-0.012108668404109261,-0.04999737487316076,-0.007979656303635865,0.0241247392592344,-0.02922247502092258,-0.0329055240942585,-0.002526416810298802,0.002144701112333715,-0.013960886134991426,-0.24114943587819498,-0.0336953973982542,-0.094146530198868,-0.18189696870294064,-0.1556475881142578,0.07934405382774147,-0.01821868308840648,-0.060977315100810565,-0.021448368078045434,-0.1419598963414909,-0.615474835548312,-0.5329582811453188,0.29242059412586613,0.2810363179220203,-0.39416672353049603,-0.18882702657516365,-0.033334671086751484,-0.04432947988202152,-0.8842023825326446,0.031203265690146413,0.38880308737418684,0.07980196988543327,-0.24312003712988514,-0.08195796616539926,-0.010820662943872926,-0.09104150045920073,-0.04498952321855932,0.007676116331640065,0.06470195245975266,0.03822410854530121,-0.06610977782076782,-0.0570077871216227,-0.022665302642040194,-0.03210503645131756,-0.034140710080155984,-0.028333689219403237,0.02207170768042877,-0.038408367295418015,-0.047058906434846726,-0.04188076294839001,2.481327035887675,0.24711139151633413,0.11048851814781348,0.08142431519797956,-0.0019901644178881494,0.09989400116006468,-0.017016158808728962,0.048102596545818777,-0.001057212586353684,0.10074955095497179,-0.0031328135298129165,0.04491073301285401,0.049427224152701094,0.04821778843420186,0.029284193446927058,0.05510586839105555,0.051101325873238596,0.03699274253816146,0.0726033717625002,0.13138853759625196,0.029322898520074803,0.20290844037514502,0.11534495904177376,0.33012818877880706,0.10731263997681284,0.4708779324867636,0.13931022133399482,-0.30805135410200707,0.04275203866023607,0.6447868465280332,0.2630766929990288,0.22033583296464823,0.20285150801047072,0.6214074222882143,0.44893667071892474,-0.2586959169370103,0.07164704426821451,0.12158278348158462,0.028348879733155287,0.3866879433082662,0.17957423735679184,0.29862896530571686,0.046356906916836645,0.04733938208776807,0.025873735394885577,0.037022018039388746,0.04202418859935396,0.09120874765880488,0.07096207346994197,0.01791005015115986,0.0024075656524050306,0.02927074686965498,0.011082262556457025,0.024393164301548087,0.019475231701819626,0.044824489025903205,0.03481061308255999,-0.010702832709100897,0.018339038250562715,1.49512442165908,0.342298282383574,0.04945479234644332,0.03272364606851501,0.0037294209299188674,0.051436790686051406,0.0161683198385246,0.016570375648758556,-0.005320495901844943,0.015545561451065068,0.0003615050517750377,0.055053078471802144,0.053172717829408994,0.057107262089055394,0.04992614881697116,0.009205613325119783,0.03402168254083825,0.035480145745219495,0.0278189667306424,0.15308786292862145,0.12258782564352039,0.3143683299237646,0.003794357882892985,-0.08512807730007013,0.001381460381255033,-0.10456550352167916,-0.0153272111065437,0.25575291636904524,0.41958145191572127,-0.4166049375680943,-0.16605185147596752,-0.08922865213211943,-0.1079646900428973,-0.3956256511214404,-0.11493683622514142,0.1701399317236971,-0.0008393918759708283,-0.5006470786011721,-0.04989328794938441,-0.1135080770211884,-0.08421539550403201,-0.5026421237014467,-0.09007624834921606,-0.008352413439313637,-0.054201981517130675,-0.054071703697258236,-0.015847431342558102,-0.031901087372728315,-0.0590370426171005,-0.07685923752930712,-0.06057736552006536,-0.05666011260054815,0.018137506181617948,-0.05673049581742727,0.011839525834854172,-0.028327689739061822,0.01146225194730274,-0.04968079110870046,0.026489055676985382,2.2429481944272416,0.09947198653873779

Wj
-0.2836176793551037,0.6364742958216018,-0.08471145531309923,-0.7000611674633097,0.744567299778396,0.961910656479552,0.6213914072208729,-0.37426474091341455,-0.6643483965660214
0.2238555469817326,-0.9249881912180259,1.7382334671989503,0.11187478633585701,-0.03268770883520924,-0.8101060954055311,-0.9353672822673564,1.2903977061842669,0.7384827156213416
1.563095368769584,-1.8130881070368952,1.0110102515128518,2.598403068388227,-2.6593290901521174,-1.755591742907858,-1.852693451767478,-3.719171089886075,1.769154674943197
1.1098125017233345,-1.3514898111514533,-0.7893094792752883,1.6777994641966285,-1.9181764347760812,-1.357485482568977,-1.435750044019966,-1.21676575193676,1.3215336386825307
-0.9636590599048119,2.1776365726455897,0.28996439448069483,-1.5804102163253535,2.277311587112575,2.408923522405097,2.162441735582016,1.4246058965708053,-1.963981328518467
-1.796680044773838,2.3990154865675106,-1.7824113041614793,-2.838076221171831,2.9664008753773436,2.392607751239611,2.435329580610042,3.261060657184806,-2.355162106979127
-0.061576256678064725,-0.3503709991501138,0.5295782764822747,0.17975451047900665,0.06148975591349255,-0.22272522620718002,-0.3916379724755643,0.8772329302709285,0.6265314610881271
0.901891566968107,-1.5030887947703833,2.495462922155457,1.593437231110366,-1.5168403200599165,-1.4307509069822058,-1.5379734305866064,1.688144906592786,1.4751572928938252

Wk
-3.948276481333603,0.84702254604413,0.11311671433638314,-2.07424575703514,-1.028408465252954,1.5988618495512439,2.2741852494637596,-0.10557762219630029,-0.1838654452110847
-4.586362980997056,1.3018526400013777,1.0069370158158255,0.2701291040632557,-2.725519054524167,3.5331924097182204,2.4050762114428283,0.2869191944494109,-0.3096061710360841
-3.322706441544388,2.2177164391358213,0.16330420905107274,-0.10112602803119461,-1.3247784695886802,2.2896750284912204,0.4688547667719357,-1.6481727974042126,-0.691533064519755
-3.827911885420499,1.5057683368123866,-0.18553291126391883,0.24976029538615807,-2.1792541100517933,1.980699950974703,1.5911474027115453,-1.0792152664217214,-0.9157657452585253
-3.8379492082276205,1.0724425138076044,0.9725346929969599,0.6794877929236947,-1.245902481491025,1.886237117711787,-0.32201630941607,0.3606473789113141,-2.292539459704417
-3.043569241545252,1.4022531087663759,-0.5122784570974274,-0.6272296402445463,-1.2048507243796365,1.3394617061207155,0.9336891245449768,-1.2305794860653338,-0.8591722669640884
-4.099569521387456,2.237117764870051,-0.6482354880712713,-0.8057923390027333,-2.4836190375043175,2.3406818974034693,-0.2464047268381209,-0.8403112427875651,-2.736027570568257
-3.0782068220825596,1.751258799120146,0.20487351741666393,-1.002463806427108,-1.1890033472430395,1.1856537386404797,0.5368112689313398,-1.0733371843516775,-0.39917256529669726

