Wi
0.27820850668919483,0.45590581382863865,0.7042434028970997,-0.05646925632311367,-0.6301302973989557,0.0039490621020238734,0.5376763890135073,-0.026580365440757994,-0.06742291297462798,-0.03610410711331061,-0.07078632974111425,0.06631652184207296,-0.1805834001191723,-0.254444112867986,0.04957802091768338,-0.22233200136080936,-0.04138283454555948,0.07496443756272493,-0.6860062111284512,0.35545320225629284,-0.5444396601915216,-0.1881217840847288,-0.3010211616340527,-0.030614634166947916,0.7525726634148835,-0.06924844699612782,4.316116921378831,4.413766811845114,1.15366911889525,-0.09432769254665962,0.8504155115641318,1.3880547168459731,0.7007729896688515,1.028782677234592,-1.0615412832876883,1.2641941698249586,-0.170219985596221,-0.24156351664425735,1.8022879633327515,0.7316622021227576,1.3950409189892847,0.7938832085169504,-0.16666516600702352,-0.13386087869193897,0.027024870069215,-0.09402891417556433,0.26246641160734685,0.5067968967507724,0.1881939827600639,-0.14630595613349945,-1.1945804270353215,-0.09194353222188302,0.540821554139961,-0.24181158283417722,0.7401912179573992,-0.027847823798867504,-0.9435837831949734,-0.3696155803698493,-0.4238407843743663,-0.8948324835832763,0.3567760256416077,0.530162366741081,-0.060578887100407874,0.16990094333981537,0.028087326392235917,0.5977656183990249,0.047315131004834796,-0.050235719066834515,0.044960131507006736,0.10427769942039201,-0.09214041994298142,-0.02054373906761468,0.15574703743632082,0.21281723799010469,0.2384656315931341,0.13712871195867754,0.15039492856142261,-0.08006878270823643,0.07866407115159293,0.04709000946228409,0.23144618705973535,1.6220008888167912,0.6606858173999371,0.7411313573913854,0.12501060602359618,0.04315251027020836,-0.24705879931370922,0.4264445387256175,0.6341547479539164,2.039661366225418,0.6085223178153255,-0.37760348024265844,-0.5015151737396473,-2.0604056330944758,0.2368240972436164,-0.34471527232930504,0.7987123975297573,2.8025599029607333,0.5219132637346792,0.5444809681675322,0.05535898176405272,-0.07061489442334523,0.27608044620256544,0.8102543864165443,0.7813109242141917,0.40543549916972105,0.6258292409640889,0.45243626162980316,0.24323263774287623,-0.28384278919054307,0.1221652371770972,0.43665952577148875,0.09155468738133729,0.39322462446531914,0.06077222334847239,-0.17614826300324152,-0.1687113665171837,0.6531439053978264,0.4456543064067184,0.37781463695959666,0.5854472673913244,-0.025337751853563975,-0.1107962438793553,-0.03195661554558585,0.3418935407781512,-0.01817903804851026,0.11018052858702936,0.007797736780066007,-0.06291221840719492,0.2881596771448796,0.2936975952699221,0.13474281227254015,0.28145895537021365,0.2507709880617491,0.07998936803912633,0.06515152687901009,-0.3250198381805677,0.16811739571268847,0.07873394846768825,0.4359679537208482,0.8839547939973644,0.5627097075364837,0.6910533669363276,0.04781619736593759,-0.028604245553437407,2.101418150639206,0.006793958736283009,-0.1627703456707492,1.0254558759795138,1.5553177826780233,0.02267688950040533,-0.19790744474867022,-2.161759396914423,-0.31451177155259225,0.7220161178415218,-0.3583363659374822,-0.055267908140627924,-0.12979348333956894,-0.14902225269999023,-0.5033673054469577,-0.16924991100720074,-0.01554157500051641,0.28886005407748694,0.1896468601926847,0.12484574446589412,-0.21448759295342476,0.010501811909069597,-0.1850801696297829,-0.7291255061673088,0.2979848056862908,-0.02638139326416624,-0.049752158978169765,0.2781463112643361,0.20802304690379075,-0.4250555523363134,0.08343478999486428,-0.09153869785810141,1.2659625550174936,0.25183715317438365,-0.3275647673307931,-0.08766830797789385,0.6849669610729293,0.002952379162434857,0.39287685455682436,-0.007518627568987793,-0.10081826473571472,0.013091457001549666,-0.2838431293883522,0.08362836694751304,0.33512412428254146,0.03980508926164287,0.17333372627348137,0.17132762255895076,0.24812457067297064,-0.028630483136351588,-0.1700593010688082,-0.11863071081451257,0.5955691152840676,-0.15533391466058902,0.7449736301210897,0.04375106393805319,1.1144103426587773,-0.35727758530228787,0.8811998539470814,-0.5029521991925759,-1.716167093543832,-2.2699367757206868,-0.03699656013139906,-1.664138248927262,-1.2937272365925896,-1.143667075290083,-0.9216247796563652,0.024976104951539776,-0.061851146632339676,0.9842167984788738,1.0806090126854373,0.6579592197624499,0.161543889821028,-0.13610257347428975,0.1345691304163008,-0.43526193506115113,0.6434421086504375,0.6199789483449506,0.5827329140619226,0.926239321120219,-0.19732877013356823,-0.09550709507899105,-0.2784218926724314,-0.5226353052172763,0.14670020868781772,0.09850233965507746,0.4222449280691549,-0.22662814578547807,-0.4503761415810662,-0.23547752821544196,-0.3152689446463762,-0.3670410075778301,0.19008390779488954,-0.08158499789035359,-0.022809714633861135,0.08227324059564713,-0.00781704961266197,-0.06457455247144192,0.03431937914018596,0.0992830699901357,0.021425161780717964,-0.048315673850343244,0.09303908179412906,0.2242452057647178,-0.018889790674187047,0.1396638204001958,-0.012798422563145066,-0.14312602618681403,-0.02111562614446948,-0.8370290350517239,-0.04449118319216042,0.26993144900096205,0.03157846346158975,0.0801933830245509,-0.09337547872267862,0.46053137494398444,0.18290006285814162,-2.379321235141465,-0.7269188994787785,-0.49790035509077085,-0.25280794750695845,-2.1150076369382096,-1.5586529616262748,-0.5581538232032035,-0.13597768519175615,-1.0320040920957014,0.2081509187007378,-0.022018016254737975,-0.629108657998744,0.25278674547419283,-0.3334888235956253,0.9332246690863626,-1.2117085754602843,0.18016048915616728,-0.2874709077621476,-0.24842848092634087,-0.11098534381946841,-0.33314674008577444,-0.19127387854835606,-0.4418718704191921,-0.3923715450897781,-0.15068451380554634,-0.47618941582385066,-0.020671073904434387,-0.1185101000537027,0.5856983119809385,-0.19074757947994328,-0.15789898599538077,-0.1208587149817489,0.2959865312567231,0.28483905994180336,-0.5451949664991013,-0.7813818221853818,0.00045456921587665183,0.4327429233817487,-0.04282439413022469,-0.0442325335341776,0.01327281918890661,-0.18132373519418554,0.007100674671926769,0.020587870000180246,0.2497479893231185,0.31127459554646436,0.13270131331598242,0.05624845185236761,0.15313545606623016,0.028659422885368744,0.14165643998920893,0.7609641329091524,0.38478525194719104,1.6901547141343782,0.4060714039930318,-0.017905003272121106,0.4312171008295131,0.5140998933498869,0.2931683995632826,-1.1664478703436167,-2.163770511688125,0.050728244546552545,-0.1667256134210618,-0.4232290360611608,0.0765669905880674,0.7167233609615495,-1.0447804296224037,0.7763757386229662,0.2428209351294052,-0.3967592928421126,-0.39407709434252913,-1.2332227415323054,0.41048855680629603,-0.6604568324871843,-0.6522926892530512,0.528982619480795,0.14876625241207106,0.18952446522370717,0.33330975205098945,0.341385865612856,0.1966611690870729,-0.1638642840827669,0.10502165537839975,0.2178616802894181,-0.7084499077166122,0.024391676793476143,-0.04543541790274535,-0.42638911554033065,-0.8001407162013244,0.09935210537370975,-0.18318412511793855,-0.5935152601466126,-0.4945275880617615
-1.2818525497374709,-0.24119137110316552,0.24813215088321208,0.03880673085166984,-0.08574096048115881,0.04331209971441066,0.30303728533539787,0.016872943370795326,0.11609104127181476,0.0009339596456178518,0.12882575847076694,0.1774290481233239,0.1185798882271032,0.08284052446153972,0.2231438852966584,0.14621932284910175,0.14679433082774151,0.05152824396951217,-0.394007714133628,0.12541019768342396,1.9156673926531211,0.3107465712092428,1.128277169927759,0.42759718500329824,0.6497472876739877,0.27595097359817033,-2.465676506575458,1.670193135054092,1.509755279072448,2.514313350885865,0.7528243617629374,2.4272569543862508,0.537070618157317,-0.4977454923447463,0.8845706952127251,0.9174415404907281,1.8475724958763535,1.1107825604520412,1.1691647842198838,0.8353830552945438,1.2607416476574889,-0.30995655407608946,0.9107575712183938,0.8667113646223695,0.6322931456075155,0.746327640269953,0.6559742015383335,0.2861041319923669,0.28647906984003463,0.11409307470006143,0.2671113092417066,0.13900990947349393,0.24716248036209362,0.3264103014764446,-0.04038818015137458,-0.06529438553696941,-0.6269813575985865,0.08626181832615609,-0.6634912980235179,1.5364625938762988,-0.18032097135139022,0.1410215512908886,0.012328515477299514,-0.6458801679646583,0.006651064114942175,-0.009364311733633685,-0.07247926458246101,-0.30936357237905004,-0.03291605737871155,0.0793911390609557,0.0733755683007045,-0.061141606262912936,-0.017930038749073514,-0.14217247449972953,0.0068037329348977485,-0.017294853272448358,-0.15310072541356934,-0.2977205605013824,0.2280626219265056,-0.19061808772747887,0.08235289623215346,0.5692558528487048,-0.2047612380867993,-0.20226670559442364,-0.016666946669947988,1.648478702457178,1.3447969046911339,1.3589108255852522,2.7190288567197594,1.6203254275200076,0.12075361277630507,1.3822880865401654,1.3579135908641102,1.1398593269178077,0.6252526649987714,0.9165117246619031,1.357869628542017,-0.3270111651564267,0.3704432389941553,0.8213960603568705,0.6094003292095572,0.35320904610711484,0.18389714390533016,-0.1177277000257001,0.1959360221045536,0.12992944428141467,-0.011809907080803548,0.11855019178252105,0.06784225165780279,-0.7955181470318684,-0.0058925582606467845,-0.5445481571375413,-0.05863572832538169,-0.046255848359599575,0.043674540036803954,-0.4252970315962725,-0.10393255428250535,-1.1070098357254194,-2.0822021793227923,-1.145620112328302,-0.32880098111683387,0.031380031698898574,-0.21140808319587764,0.0013553932389809386,-0.47843081913926344,0.011898275232545122,-0.23406600669428135,-0.04950538157064576,-0.21079619759297924,-0.05202112414101967,-0.14429026338641524,-0.08803771189223035,-0.0024855623947707003,-0.09595341762492918,-0.10942286156461706,-0.3127286207978327,0.3637456901044953,0.19258381754002016,0.11520509516567543,0.05200934934445872,-0.12759707190560016,-0.05060659865601587,-0.7141743114784312,0.06447376312645117,-0.528328217238575,-0.9232704191024891,-0.6867716326325597,0.3902078074922357,-0.7842429594862605,-0.43873604563711677,-0.10566453664335337,-0.792462377577381,-0.4980225165468329,-1.1207809697108566,-0.7282458544336667,0.024016613834461145,0.3287612894970462,-0.3150626997664371,0.1877743351124622,-0.5815121989623898,-0.0645094126541722,-0.19074220917554693,-0.022692451630788,0.15559328557344887,-0.14006776839266208,-0.19320796725120154,-0.23136913346876814,-0.11268860623221015,0.42027093105934493,-0.5653471755489211,0.03843235930216674,-0.28496902428566284,0.01679910058692316,-0.6214574508039736,0.07363275605501525,-0.17718819396657154,0.8315989243602967,-1.5537832674688996,-1.6390404438817086,-0.8208432393546561,-0.05217536472031638,-0.42669267632984526,-0.006332244214856455,-0.3251487410847011,-0.024068356327281083,-0.878649974514404,-0.03183552949926212,-0.13476611097419777,-0.2090083393342753,0.09235724970318557,0.15344960613151687,0.08765882435959471,-0.07399012555691481,0.0086721024900068,-0.17016041646510316,-0.1179059850217831,-0.2258507740463609,0.2828596228331635,0.3538730790356394,0.9905969336891445,0.3185040672510102,-0.12854551909935533,0.36810069254502475,-0.7793630842745662,-0.8754674729328545,0.014261493724634738,1.7141696180668269,1.5165670124603208,1.8340944492053264,1.2810524180484826,1.0096066115141955,-0.031003211093504273,-0.6094112978498621,-0.23498194967191535,-0.11404775336487798,-1.3017993865626636,-0.23788240000922672,0.4489433073288556,0.1302534192326328,0.19751545431327458,0.0984097672812102,-0.24180823022113748,-0.003484223628119826,-0.1585472697282566,-0.48514546963610605,-0.2506058551988261,-0.20239853313094655,0.19921182816082741,-0.0694727622158894,-0.1587094628602257,0.0072741001593699325,-0.4478713241447897,-0.33611639665912835,-0.21372127661576903,-0.2602250806405157,0.6674765391987244,-2.621867250889918,-0.6375329302574497,-0.5319366564145402,-0.037324091049825134,0.09847147717223981,0.010042806917794559,-0.3213666787791954,-0.024143696353023936,-0.25793111083016,-0.04998229291179762,0.03115222155452662,0.09470523027951848,0.15011956851944494,0.09323520124577811,-0.015215368054811277,0.15480646245582283,0.019378943093431966,-0.03479239170274074,1.104763098221224,0.4629873653218411,1.8784918272766968,0.17410707378960205,0.5787197556632651,0.06003210414833386,-1.2294364654064023,0.3745577888803152,0.7487398197733444,4.149320787851758,0.681265063141901,1.6082017043973391,0.7086749513479824,-0.05953954560474474,1.1783918568603151,2.6909024212372805,1.2920956995408042,1.04660687709923,-0.5990843166431353,0.9238816225307183,-0.21886864953793198,0.7974385404357798,0.2768474779032245,0.8916665083269771,0.7620899014773477,0.33065091382577466,0.15993787904636875,0.3624581654193622,0.46158287124931663,-0.12340858522144542,0.004787031185706706,0.30332098855566414,0.19186786448154144,-0.35763736185923517,-0.31192577150534406,0.012165686849530032,-0.8418902119484399,-0.2850515474207072,-0.5508510683764274,0.11259339498649389,-0.07435312258748002,-0.5387762030009806,-0.017061464535133138,-0.24738355542675178,-0.02701798954287573,0.08466538372118125,0.0018380753362159698,-0.1711754858858831,-0.045790953983063154,-0.12495405005543352,-0.042446792080308285,0.0016429547664487338,0.21361874224549934,0.04043291024899721,-0.011762019851879767,-0.3668146581775704,-0.09201484900850176,-0.011192448643366621,-0.1016618977384288,-0.509512299639334,0.20940136264998854,0.3786100294231303,-0.1898173754867329,-0.5710190334982437,-0.3219334543999888,-1.0998581356377763,0.07934187482753623,1.959483168100998,2.288896812953735,1.9845042601001215,-1.8034725500697077,-1.306301523560408,-0.4468346684293113,-2.1695941484687484,0.37663652540978104,0.8203943140201259,1.034412618187101,-0.5752166199693651,-0.08121167420253839,-1.1837915272099835,-0.3109392981590577,-0.3063921293529602,0.8702054777338453,0.6481216688529232,0.19684347450996786,-0.27298361647420194,-0.16992498027558242,-0.0029491547226336073,-0.3378564828831814,0.2282344391328829,0.2691794204930077,0.24920727196017484,-0.5664607587226853,-0.023350530978161265,0.28762176821594876,-0.16057230086299973,-0.28332321670076,0.0814305740810818,0.02238815421013167,0.795597547857538,-0.3891584606562303
-2.8903751606914034,-0.8485687957749661,-0.3565715430560541,-0.04819997740835155,0.04687219900014628,-0.013762937275562073,-0.4390651822806422,-0.005629235807899693,-0.39013529356016696,-0.03768911489516979,-0.15278669180934876,-0.09919497719598587,-0.2346404691384961,-0.1946932544134058,-0.09303567305152054,-0.18064981773684385,-0.12521084578131703,-0.15024063377355323,-0.06306292839942251,-0.3224265458535422,0.6322320823445687,-0.03613698748018015,-1.6246273356153804,-0.3153328812411639,-1.9199171473033991,-0.1878784152178386,0.021399486178012937,1.0769591477561602,0.24204972486441936,0.03067136065644446,-0.9656415482804919,-0.7268043749157131,0.08882385469142971,-0.22694055848299802,2.288527249368171,0.14825018817314192,0.4511792708599549,-0.0211477200185592,-1.5553353935247691,0.06652483013551341,-1.4306645701108802,0.10441072016157929,0.28025400975087444,0.18073235454970338,-0.04668907293581976,-0.11350322996280919,0.015293636885503973,0.03715998590577105,0.0356430595998017,-0.03444112032675668,0.7579982886363693,-0.2541359971619546,-0.6146813841004547,0.01654867681195424,-0.9888814647307285,-0.25626913049396344,0.26848578279665347,-0.08809677760230408,-0.6624158178623807,-1.379937071109511,0.11856195963882622,0.07218823903111608,0.0034268906798403465,-0.024046255273022964,-0.034353041060833,0.4314765644344433,-0.010317637506019862,-0.12089320212525421,0.017432746198356573,-0.008617683638435996,0.08674646146842685,0.025458644011168468,-0.07378982206404162,-0.183591172195503,-0.014363736430114633,-0.02513279139224281,-0.10341351768943126,-1.1504063713120023,-0.21496174107667274,-0.4097665223953219,-0.03207423693975124,-0.45868458631266507,0.19751557976493334,-1.1924245967946014,-0.05158501317581166,-1.0494683063706534,-0.16727928322417257,0.7774463191466279,-0.346391142246931,0.4004344413539199,-0.2489091086154598,-0.7699234602926887,0.30423669979943696,-0.33308200403021576,0.3269680522441344,0.9344546698889306,-0.1284741434599327,-0.21646904027701322,-0.31346421655446494,-1.0258998663756487,0.1241309893807058,0.4579590135365801,0.5099861521667507,-0.07018238213344503,0.005971960881050023,0.28151571393159724,0.25156046692940015,0.12942829522927535,0.20982790663889958,0.506171755741362,-0.13409777493109007,0.16262005706097132,0.11372459066649801,-0.15117877790772694,-0.04041326389382424,-0.1055379922411728,0.10067888460114582,-0.4195879664311432,1.3994016113311234,-0.9147077791262465,0.09478247770551489,0.027713555936245565,-0.5383384791820588,-0.058685789938270325,-0.009089175405448822,0.027756729349914785,-0.8989741538387039,-0.07673303962361659,0.20093013789773073,-0.14535831518249842,-0.4029517008138158,-0.30023778139298124,-0.23849600300154086,-0.19004877965570946,-0.3202322864117991,-0.24179586137892328,1.2167112495294397,0.3724403402671647,-0.3347022059626963,-0.05948690997339972,-1.5349235990652026,-0.22777727118854235,-0.8943306089162615,0.30453728197733776,2.476857872326749,-0.0015032332298383815,-0.3586925868382464,0.7637137485130219,-0.5267821876397492,2.1622088646458613,0.70944270965681,-0.046783138310462435,0.5413744221930149,-0.9652675043814429,-0.6544293493449308,0.10584247674127294,-1.3435091451986017,0.45000526720586265,-0.6217180497491863,0.6936354774144664,-0.15264731972314943,-0.15316272273141546,-0.2595527827171728,-0.3782998422587128,-0.13154849358427145,-0.062445153645148264,0.23924149743750134,0.20740080535677385,0.12736050145084662,-0.010819923938390763,-0.4116813436554188,-0.31756932939785176,-0.4901936911785519,0.1397448987309373,0.13640874332346137,-0.0942114056222034,1.56522198318625,-1.3479514779010329,-0.8495625612591515,0.11766986499520768,-0.006575487891432167,-1.445551584978151,-0.019714653966173893,-0.250146635565411,-0.03711671742441616,-1.074197368633265,-0.037345113647667336,0.1141885690399595,0.057574489359061586,-0.18142818962781562,-0.26689295762464543,-0.2714107390307592,-0.2234337963655752,-0.28676474582849676,-0.2033652914640782,-0.2899608473229288,-0.11003385617530681,0.013537483871474442,0.12712795911986188,0.978711697711175,-0.12467975516290881,-0.31892462632705243,-0.28325201388034027,-0.40606585979936055,-0.38540396286351036,1.3320933626893698,1.5881275798375374,1.4138844057546647,1.2426651009491667,-0.22078320764349915,-0.06837021260706704,0.08612242311278562,0.47424820427964043,0.014593050880697525,0.4720916110180598,-0.9186920810708401,-0.16877596818537574,-0.4944499038602431,0.6604946703582266,0.16645130037404454,0.20111266832783176,-0.14270061173048934,-0.18395353814830184,-0.1938910975005666,-0.13583556380543174,0.5052518950117175,0.25873756337059817,0.827401528854073,-0.2586010403427243,0.02133692184406113,-0.4642444263691413,0.49124794628757823,-0.29640533964556814,0.2873801486302014,-0.18417447302070755,1.1567854982419643,-1.0439153186289845,-0.26501837779947446,0.4921366245946022,0.01207700251891056,-0.3793214474497465,0.016830188234696286,0.2702021657978141,0.05149175744326749,-0.43196711791127435,0.00573540764154621,0.17863994501865227,0.056232600654766686,-0.06567783332005704,0.024224437956992678,0.14117221805601618,0.11174413117897333,0.07182354028017776,-0.12841124499401757,0.5713715094774582,-0.0893592131392651,-0.016515829884631752,-0.19977650208826844,0.1775953297873869,0.009837493926066187,-0.44542147945457605,-0.08439797544979444,0.11230615411576922,1.855119022276039,-0.26883445875823675,0.7342126465911942,-0.24180816668759178,-0.7229766442433856,0.07543228621438601,-0.4753478851018725,0.4779186252458314,0.56181287419694,-1.186758411160307,1.1209112582825014,2.689819211409515,0.764734098382217,0.7327335323745956,0.4236361463298948,-0.3266830189234823,-0.1960794772697091,0.36793636603714464,0.7694932780132466,0.616840270549151,0.6219969856659764,0.583375399791666,0.42510373058445344,-0.5882524575789398,0.41607351738247067,0.14528773553597685,0.17369574342257402,-0.025496118736926438,0.5099158628036259,0.46046652833607377,0.0072668186215956495,0.835512352048355,0.2202368307198083,-0.5058941690738522,0.8889039898687571,0.10093225592630602,-0.6246812484446456,-0.03307235260221007,0.4312861324116528,0.05575622043373211,-0.4364027354388565,-0.03178617643059823,0.20024285269201533,0.10846370030959904,-0.07902679155066467,0.1291065569497404,-0.010864680987326375,0.1309494777165712,-0.07405918367163998,0.17775325239412668,-0.01632203021621064,-0.3291873305236513,0.7997740478254841,0.027255757806173123,0.45678797108373176,-0.6866279491381891,1.329026148852157,-0.16998329712930033,-0.22128919046785017,0.6415784465780952,-0.1507031634429128,0.4213788989501973,-1.39539510637289,-0.9409391205917221,0.9512624172031016,-1.4721843078970227,-0.2560848822036055,0.8216068869637305,1.0212205878336253,1.0790485209057643,1.5936803609566648,1.3919606683007026,1.7093056704946672,1.0029215819712718,0.24237000178329626,0.6551780986821841,0.719283734801354,0.42897804299755676,0.27719155009171287,0.7201247377904951,1.1434022568224247,0.7142638189552922,0.2051035203218446,0.5581717122351182,0.13976305629002297,-0.10413103712111926,0.8458297332446886,0.4913732256048377,0.28216969072985437,-0.1563009833693469,0.5674481795479681,0.12203635043353896
1.6766653468943802,-0.8050968723008932,-0.4129592995903767,0.012082532140490725,0.023534509265335186,-0.05680605781911716,-0.6403201448367847,-0.012640647392626676,-0.5109809839349008,0.010910819103027925,-0.2397824969625382,-0.3057128810026789,-0.11742856308676196,-0.12344709495149588,-0.15946145352717392,-0.148872474763075,-0.33392998534951807,-0.19255071487165276,0.31756932298390034,-0.6345867997584567,-1.3408693291985976,-0.3096248823265486,-0.4559468086894158,-0.09977516286491706,-0.15094413447747057,-0.3505729331631147,-1.045016954594911,-2.0825556762366007,-1.6309681284217659,-1.5744845905599534,-0.07512096429044657,-0.11225188651128985,-0.6346796777053634,0.671122823816639,-0.7166235893788415,-0.4862904005291496,-0.6487378463750246,-0.2562994469893006,1.1385400574971107,-0.18690120110391414,0.1209507682401552,0.013744792636268703,-0.8759547025681437,-0.5923659137449696,-0.3479440430504705,-0.6283838312817384,-0.8021337600989208,-0.4551160419847701,-0.3238924509122686,-0.22801172906873404,-0.02770098602546134,-0.2143295263674455,-0.3674331516819077,-0.35928527567940893,0.12808925892632925,-0.07405911179009735,0.9604999892818473,-0.1774227055661697,-0.09605793289302793,-2.5913653185817256,-0.44182455897814543,-0.40720471824125254,-0.009568926093160296,0.1408483240079148,-0.008064016430465767,-0.5556756220785084,0.012847960604086913,0.1383864833206825,0.0024700687766413547,-0.025600299719269897,-0.03523996270913163,-0.08198475616410708,-0.16673964004331368,0.04949948840946059,-0.18761301703251027,-0.07895457717466678,-0.028481241816569077,1.0779681594090367,-0.06433740418511678,-0.03560638415697242,-0.22940962595014427,-0.6308731408004615,-0.7622470526400361,0.7471394994135482,-0.08497565366983365,-0.37916454240675423,-0.45657148702762257,-2.2586234845522646,-2.072430914123509,-2.9036014057212336,0.3054348853391494,-1.0599213138952792,-0.9962006443368638,0.19100707260412955,-0.7283516726525622,-0.8747946533413693,-1.4020771707190876,-0.27565126649652333,-0.07454344552401544,-1.0354243436980002,-0.47638083252784846,-0.5893332637189738,-0.7380079986780074,-0.415160866534032,-0.6849722340501622,-0.18196313203278355,-0.30248557699208656,-0.431666145676682,-0.25184546506657185,0.11407296499672609,-0.07617069808115032,0.1517672384829945,-0.17903771065048907,-0.15344142080477383,-0.08076994359236914,0.33365754036374146,0.02851179044000556,0.30912973431710533,-0.3750397690257601,0.47046957012809093,-0.11971207268332258,-0.05082330452572193,-0.12108454820981018,0.0011858864793398499,-0.13388140474063023,0.012872365870427772,0.22927592357748347,0.02098739567948322,0.11540932630621416,-0.05187549442901641,-0.08836814541053438,0.19153416647085036,0.11162117357867246,-0.10216933201107299,0.020188147590694087,0.2764076098964851,0.1210512757344752,0.12357596879672546,-0.4430918880748938,-0.009544211560065678,-0.15162289397327583,-0.241074573748513,0.2761077574475611,0.13546375995158777,-0.12808318060399795,0.6997288370782542,-0.05470451491502901,0.3680090388184439,-0.1800145162660494,0.4801316948519858,0.21755099990940582,0.6759854965622284,1.048351823247198,0.5824322885471149,-0.1949372053972222,0.4720187179975613,-0.7712994352408671,0.44733384735932186,-0.010012247176223062,0.8124457870697629,-0.40948570451929833,-0.2636882996560166,-0.053791846663557026,-0.4124211535951648,-0.17212885625214472,0.2728608756624057,0.22776940186550132,0.08727406815806914,-0.10794780827919011,0.36670760233080246,-0.41232932073576567,0.22653029258921517,-0.37708008214735217,0.33967575207158673,-0.3214498772155591,0.06966362051817597,-0.678460500737753,-0.5155041222632853,1.2146569740764388,0.38421447766269684,0.05310859258547034,0.6142425651887917,0.01775314218690867,-0.0665590124506561,-0.018279239002496894,0.6155221100345645,0.016557761327009167,0.31046432823943737,0.13110604315185487,-0.13303001848800786,0.04397252219829849,-0.0634432613403504,-0.17038347499510767,-0.006903010420176128,0.2456887921126914,-0.26859559207214234,0.218898512610574,-0.6906338694368697,-0.19453753093727252,-0.6855525687181133,-0.7596199579226827,-0.8427270679643505,0.020012682580543187,-1.2395482688237833,1.154608996463057,0.3973372650523223,-0.06705288913029525,-0.09225962168837498,0.8834934100262944,-0.7999998712069066,0.38163698140035923,-0.1251645002800205,0.24797717105623635,1.3042486307095633,0.38992329556697275,-0.27048970048196774,0.6888134359821604,-0.26715175936177415,0.26011634778262405,-0.19368644345698136,-0.07556766891730679,0.026220165777856363,-0.2990763538395822,0.03710908930900638,-0.12785484693066085,0.2542822875457026,0.2066353099517389,-0.12016798999901881,0.35878210169367764,-0.20820748285640878,-0.11523014671561596,-0.47198365382835067,0.4784247915763825,0.038778068856324614,0.3260073415504417,-0.40329286646417123,0.9628332382928941,0.09943620252475485,-0.0020595111654596312,0.04023679576180477,0.09519468660765158,0.016942183433553165,-0.15215713502801156,-0.0065002908320208885,0.35733519313215734,0.04442001085296775,0.1455658616707448,0.002090672073090241,0.14414615949603685,0.21011032777426883,0.10977073931806743,-0.10372499178253106,0.2950800938879678,0.4412800389309197,-0.1443141953831157,0.09295248161566236,-0.9108409299604231,0.6483791891862932,0.35046944647551664,0.5494563591964242,1.339822083460875,0.5842596643154996,1.751185473937891,-1.3749782690962018,0.646612303616138,1.0967548705722876,0.3185778948591928,2.1876343560330924,1.606968807493213,0.9020692929335222,-0.13809294383629594,-0.6487703152991351,0.1910022773068771,-0.20142170449694385,-0.005831678075046978,0.1285555063792385,-0.5162409524157802,0.7324019107997363,-0.4640024678488922,-0.35764167439950567,-0.4014346685487313,-0.43555664327625304,0.1320875896286808,0.06569324984319404,-0.21639160931116044,-0.07091216458296856,-0.5425035147258115,0.303768432118576,-0.5044968711416704,0.28382290055538645,-0.10770075783879549,0.0724612995342084,-0.513478319158233,0.22160106981944466,-0.6983133550442472,-1.2635483202020739,0.35065709447764215,0.2815027097407644,-0.030448999066127237,0.29977076653239193,0.046106883798838365,-0.2556512726068539,-0.028303085693551035,0.18618688555160046,-0.001673665343074669,0.26491489368879445,0.12189257527105933,0.18120047083605553,0.14623601196869443,0.16515987326067916,0.07807133599898138,0.19856095015586958,0.1502501185821299,1.7586611848267908,0.29194551624830894,-0.6121982988873719,0.31385121791722626,0.420285392807518,0.4815013437625662,0.43583489313343926,0.47348494734973956,0.37123402833595354,-0.047336220273585215,0.2562954403243356,0.011747880097087977,0.2956165756992709,-0.269663845501,0.7446290856540125,2.3873405148856337,-1.0928160488209622,-0.3744310938077033,-1.1196165248593017,-0.3589306617292599,-0.7554830714265482,-0.6292775157289064,0.6169724388597183,0.7692623399560772,-0.6566963834940566,-0.5035277624281641,-0.33808969643209646,-0.26985869896550607,0.14148733154724283,0.17640453547295204,0.12361338162004207,0.0509863009218301,-0.7552654617395705,0.4197563562580097,-0.4349306104017515,0.20027746061948698,-0.004037109216734855,0.3829989700279306,-0.23168854614659365,0.44301160748721014,0.010208445960577527,-0.08535889286780267
1.7509679559483866,-0.9030052483224161,-0.376896785597341,0.03446459933171524,-0.01188778234691202,-0.07186668362207609,-0.7731211430920931,-0.01996977396176667,-0.5721501031382054,0.00790828148147131,-0.28417577311090286,-0.3656925398650543,-0.13426374817844275,-0.1222967466244059,-0.17806828132191552,-0.21734005114310337,-0.37084846205504035,-0.2523443672518821,-0.15534807813632281,-0.7421708334648601,-1.2090488669812756,-0.26010101681686426,-0.20832627115090785,-0.10073987292488248,-0.13706286990687294,-0.44356801383667027,-1.5145161491174959,-1.79202403550929,-1.47828920443178,-0.9985864780133483,0.3634749134809333,0.3622544146207805,-0.8268327715261437,0.3847019207236098,-0.8759047977951046,-0.17269218042017667,0.5193920555522885,0.30020615203463125,1.6467177746148232,-0.06527290531887782,0.1534484352776321,-0.010173013949225453,-0.8681846501482383,-0.42501312096102833,-0.19308449472374822,-0.666910052719675,-0.9808527889090912,-0.532167461609995,-0.46456432242234774,-0.44631510928011625,-0.013564717567795611,-0.21921169742431815,-0.3689159916967153,-0.3662419952599888,0.13383636909121027,-0.08676858999722506,0.5857332566809049,-0.2309625940033696,-0.47065533727947195,-2.8122486799536217,-0.44178519973992875,-0.37879218613599497,0.0024253254438306804,0.09418202532923868,0.006983281211006096,-0.6128057837633064,-0.009990525182201903,0.16732978617399458,-0.033992998915873616,-0.06556475891077272,-0.07565824485723478,-0.13602276170061225,-0.192693041797752,0.009925429361220907,-0.20347849341147356,-0.048967604389854535,-0.11389833851119316,1.03302330092516,-0.145202040049596,-0.48048335495711875,-0.2811853891470744,-0.421816764706513,-0.7042301733144699,1.072834075278693,-0.10747606478684044,-0.28929117317874276,-0.35629650003605895,-2.557183775387639,-1.400120922284761,-1.3301808318815562,0.9430695799485709,-0.5541055231690505,-0.631747514116851,0.04100090561297419,-0.8370310771803998,-0.7120656371064296,-1.1598306394796807,0.5594089989270022,0.2306569319037643,-0.6445219374410854,-0.4178341961558341,-0.7823921594063129,-0.9361000146752704,-0.5766934950068915,-0.8825215545505757,-0.08024450950076265,-0.40366750045481714,-0.5352377947050325,-0.419866374778395,-0.23908158781110048,-0.14646511179274266,-0.009496353139490408,-0.23811182991341553,-0.1587403860104149,-0.10000578249186698,0.18587979296502272,-0.0405682430065509,-0.3963613568253307,-0.6059019884573704,0.6093449432020773,-0.2602474384486169,-0.06720575860029766,-0.19262613505429568,0.025140560154018235,-0.39860659652878505,0.009755657982838933,0.2821863636821652,0.03134451035027951,-0.058726045489322434,-0.19847639581145887,-0.1386331011814057,0.21316104270911446,0.13057446210065143,-0.1513635561261809,0.02499421387270786,0.23393221852094148,0.03831905282985764,0.09037706112056086,-0.5760400407363946,-0.00661310546945699,-0.33974889888401444,-0.36879714766166466,0.23080669542745472,0.06609488626864438,-0.19986732386905012,-0.22775096463987282,-0.01645805779873728,0.8626290651713922,-0.9543580574233583,-0.3156825387463519,-0.35485400498794767,0.8415943278163845,0.4019920128697912,0.23512079459048188,-0.23381575911408936,0.5413911532062585,-0.9067447305757932,0.43775144545565176,-0.09907504998808776,0.7892246578646029,-0.5839656180862186,-0.41653585847684504,-0.14468310269110096,-0.5184105203811823,-0.23586508224730057,0.2946592053037131,0.003999326651636394,-0.11788896896009858,-0.03665979430043919,0.3168258617024203,-0.5097133520323244,0.21879008221117324,-0.33824144434195014,0.1701313957315457,-0.505080291401816,0.03174866831382286,-0.4916301604561268,-0.9333117323540484,1.5892711665036012,0.2575431170754411,0.03040845370422351,0.8584933651575071,0.015359694333830004,0.05568186117719545,-0.03875978227897008,0.7714127963148628,0.014189727868784058,0.16354573772921016,0.013876632980570633,-0.1893136267948015,0.07463535085514869,-0.06766846364205004,-0.23121216067919806,0.014516167625916076,0.24720756077354086,-1.0028411613214698,0.00676274556693321,-1.048330279249084,-0.21640521077188457,-0.18294404631656697,-0.7825396919190241,-1.3187354703944045,-0.035591141246110555,-1.7698908854591846,0.7903976002170198,0.16463071072396013,1.1929791724292909,0.6989020891661191,1.3571651956942423,-0.9830968725403393,1.2087815249953289,-0.46770372865586457,-0.023696458338701272,1.693862836188815,0.7826205569537422,-0.8960394981524629,0.6520407757625795,0.2049797998981706,0.16667554599047638,-0.1781633457103138,-0.13988363665723905,0.08765615316299973,-0.2104689077445032,0.1099713951809472,-0.168905231668659,0.030876490808241876,0.016879875470442937,-0.021499980374151323,0.403121621131629,-0.09632491633904819,-0.01782011087656317,-0.6023391350504929,0.3954795960870631,0.04050966086191283,0.37612100256182945,0.028483525882616434,1.0545835918444468,0.19731755090510011,-0.18185051186665285,0.027821738468500553,0.3068232206277606,0.026296904657741066,-0.3714940393110498,-0.007931463416788668,0.6850761818840689,0.04792088730904078,0.218886586788249,0.02849105176002196,0.2803690906852486,0.35257237489974236,0.1359913905827997,-0.006604664495762257,0.4796480938800183,0.5791799474955426,-0.05784960344976265,0.2189661930132058,-0.7699854198437799,0.9773511956083197,1.3134581993723762,0.840329489854903,1.6711653888196008,0.9441553504415482,2.060215956606047,-1.2687374501848432,1.200486913365131,2.596695705208134,1.8598647739411012,2.3359001516005073,3.3062006615296795,2.70303834708644,-1.2514697144431424,-0.7272612822309941,-0.17103427713829397,0.40083974422642077,0.12219874535261124,0.44229516377222156,-0.4826531865120841,1.163833611433619,-0.48189525690211554,-0.4831173094003462,-0.519569156327191,-0.381707386294143,0.4051331254222466,0.033544005354674125,-0.5541195331206044,-0.3524693004312727,-0.7813394229061672,0.21617607565636499,-0.8575730310216922,0.47588370523457446,-0.3498715678639188,-0.008330203834138515,-1.097660987814068,0.4376512156154245,-1.0217141183528688,-1.4140772621788151,0.5171988960811139,0.14911724636082854,-0.04392909820297548,0.7428566835557949,0.08431725735317752,-0.4475971857827891,-0.02793432118880486,0.5335991954894277,0.01517975661651685,0.3800003457722318,0.24268150014850734,0.4115711813959372,0.33704562054924825,0.14373469001832406,0.1745718213412125,0.40827128153101716,0.24893775949453742,2.5607381826738638,0.5427745101063187,-0.4001047183582091,0.46986975827856675,1.0650556015869528,0.588212877497779,0.6500766213994278,0.7768054898257242,1.0385534787271484,0.0023397905168227578,0.7866491086105459,0.911217509052801,0.4789795911785848,0.27203352603061604,0.6571009689938775,3.4704682831598364,-1.9973327100164533,-0.3665483252265081,-1.1586796052766912,0.050784821780633184,-0.8096875408255746,-0.6408457656338793,0.7763670344154432,1.0440169536368626,-0.7176681033138902,-0.665804041226764,-0.4750828674957239,-0.17017218259496544,0.4936569446720995,0.27212809433350715,0.07031355999657646,-0.04197149969442171,-1.0615825742249767,0.21981991904691237,-0.5223537756714625,0.5893725238859493,0.1172979641298783,0.3992776518608728,-0.40312472969803087,0.7140831502138322,0.11731655572761837,0.5876803430741895
-0.801315577225549,-0.07545747385066216,0.12843257062976127,-0.025310980483371832,-0.22981677240669224,0.005646151371809458,0.07294474464962647,-0.007239602416151901,0.07129471186391516,-0.003943654686605087,-0.02880748106558647,0.0040226403321209254,-0.057044310265188115,-0.05545871020608802,-0.013388982487120305,-0.08226118034628256,-0.0027703176217432337,-0.014874351157800475,-0.6815252158603456,0.15785184956464837,0.315270758737353,0.026939401073283336,0.022772670978544858,-0.0790819583765535,0.08907406701695576,-0.021779936309881228,0.46287544198084013,1.0551743773012476,0.3248102112831119,0.34216508170726256,-0.1379007971202059,0.14551486299092617,0.023190395843734578,-0.6118273131427772,-0.486878622142598,0.22506657970502172,0.8497315160395508,0.08941568649000997,-0.07702616965710131,0.1787830814150885,-0.023606048385580364,-0.1328152627824659,0.19564599882378825,0.15527995496042657,0.07488686340927114,0.05353286812171606,0.09910470125802251,0.14884742045084157,-0.09337008691121923,-0.23116147136830803,-0.15368526207892155,-0.003471405754613402,0.23658250140280965,0.03569191112294142,0.13043089961300844,0.0005477872264113767,-0.7490273855566244,-0.10568941988688844,0.044187557827054816,-0.06388004592684925,0.15120291871674976,0.22348696393563777,-0.013424373867292625,0.006802394794641079,0.013484371492436987,0.23611562861935545,-0.010805494723509937,-0.16740861403148863,-0.017003976312096315,-0.030741224826455953,-0.03561676579085721,-0.02105695879739578,0.020685338021075195,-0.04566304860457314,0.046472973020146004,0.03530410439824436,-0.010881490750858166,-0.42751633526624727,-0.026157169592000647,-0.26670566504759546,0.03786774766148978,0.14324853565582985,0.4335924982528323,0.07326111787692317,0.020397202952253668,0.1814508595229654,0.09664416053810701,0.47968363837274774,0.5388108212672009,1.236315930411214,0.26867849864905324,0.48599831295658596,0.2922707708189024,-0.35083301451053245,0.13324064730327714,0.10168580543768121,0.25610817414613624,0.3324653786847744,0.1985490885864329,0.7607670237642833,0.17050528500477047,-0.004725528855589218,0.13113074927331067,0.06409453198557696,0.08493874654638807,0.15664918468970415,0.12059133448815725,0.1741671050591572,0.05804736019178335,-0.21599019405043013,0.043817597955360305,-0.22859010822760065,0.04917780731013992,0.060627391918373796,0.03243089916454112,-0.16280343552947574,-0.08627107619837612,0.030512770619715832,0.11506037973747538,-0.3334563047587167,-0.026105392051416206,-0.025445429678204994,-0.11216676166853543,-0.005762318817570169,-0.142827062347703,-0.006152447954169211,-0.07605240363722289,-0.020675208799543158,-0.19339338698637187,-0.09823757551648059,0.012148288889641468,-0.0877572964330478,-0.04922449348065324,0.004469822582528291,-0.03522766383422494,-0.13819534716649415,-0.2732836556049628,-0.14184559918380477,-0.05057936080296968,-0.028605050087663918,-0.3529546496303576,-0.13061413748450323,-0.05835475731192734,-0.17998882687924883,0.4425827998859984,-0.6130745945174704,-0.1611214327407347,-0.05246060567015986,-1.1909215078059165,-0.8964551375437488,-0.5135815995699008,-0.3331590862657409,-1.3495746597643128,-0.6001675046809841,0.30284294321918925,-0.3229720602241084,-0.00885764435469695,-0.17554547125406603,0.08998285054155253,-0.4319851774050098,-0.0985108497051411,-0.10371650378686867,-0.1167626278478701,-0.06919682279848312,-0.007840065432870847,-0.11651342712322052,-0.27505524225334144,-0.2563418500320053,-0.013781860529017764,-0.1856997821801396,0.022272416478176165,-0.1337950663572184,0.19423853550013542,-0.20268246120236516,-0.09119133389290886,-0.0497524039643879,0.43550641668774254,-0.4408706507191316,-0.21340100262404574,-0.21585375481704877,-0.0560576706440302,0.007159356533772886,0.017693917196933088,0.12027401665393438,-0.03926959424081208,-0.18375433570647726,-0.007994471625861473,-0.34234646288628345,-0.1764071801329569,-0.005453511366707641,-0.09481995370609743,-0.06061506785756576,-0.0528269886704788,-0.062010518860770705,-0.13812672873157186,-0.9246746164772068,-0.3734969255378144,-0.22089871766829014,-0.15815311730118417,0.2930923363931848,-0.05057185637088897,0.02636201390181019,-0.29689934818600366,-0.27360577414154524,-1.0792081476957653,-0.7706744635247539,-0.11649792554316019,-0.01210951569898737,-0.41906095118903575,-0.28180170755414263,-0.44917644870491363,-0.08119504423979089,-0.3276600100278912,-0.17251902388714144,0.014889093798273505,-0.7340432942055746,-0.15789518911806397,0.5835317304395589,-0.3849273142703387,-0.0445812010067209,-0.15964065643376463,0.10082269841426272,0.15050675237686006,0.1016831271543817,0.21241727008325909,-0.2922164125624331,-0.25879375746557726,0.13963304676382943,-0.24488806355680884,0.20337883683665642,0.038659574337695644,0.27368355815876555,-0.26847490466944435,-0.030270324991127986,-0.1455136720058296,1.145382051728862,-0.6066426402320034,-0.022136527190037694,-0.138390931151794,-0.01910158926003229,0.05181904813941613,0.007018135877689753,-0.22431005697205977,0.024196290559161913,0.12022890998308756,0.0024052087005160326,-0.02389353227811118,-0.020585645604035096,0.03513086774427723,-0.006689290456665974,7.14152176606634e-05,0.09413446492685182,-0.00879361365914898,-0.10660374850488269,-0.20878917273481223,4.788652700218771e-05,0.10633051296636943,-0.07064998863784515,0.23366986362848075,-0.049144852546345714,-0.06239460456584418,0.005702362852347775,-1.0479059930625676,0.07439627033373175,-0.16823423202958757,0.48850875490744555,0.3462912299694584,-0.8858499492499846,0.23309166856606292,0.8048711613095807,-1.2824243892723932,0.08377941229018258,-0.4424551620183536,0.34974537306580505,0.6173135838512792,0.16136167917073835,0.7407737488515455,-0.21843316660844184,0.04419461258627024,-0.14485838383613867,-0.03656632781116185,0.15843420848017048,0.12924258337130734,0.017710118228093916,-0.24175914121068828,-0.3630092263147684,-0.09658117793991498,-0.22229582315940707,-0.08438579821079757,-0.0016966750311691772,0.11319283494246123,-0.1005334273126237,-0.19035141211678439,-0.012758108617718056,-0.007661592176951141,0.2646265636835591,-0.28094883157233536,-0.362803992415914,0.000872201634783274,0.22374105030742938,-0.0016340800345443448,-0.13547383906959018,0.014169159104719315,0.0966096904726529,0.0214926584048073,-0.052660709101403996,0.07722185153575603,0.13910887436504876,0.05934056145458745,-0.0594796780668105,0.03968498426327488,0.04941560820067041,0.044591758284097394,-0.062467738514374975,0.015183536709041113,0.35460577387880304,-0.03209542555153805,0.2020149714589879,-0.04949369297961831,0.3814899011974053,-0.01105024924637348,-0.2388492018047788,-0.6811019416867178,-0.6475471723818327,0.21504255467621594,-0.19967184996459317,0.3761356120981655,-0.1679116217704396,-1.0635256225814835,-0.06875647886879363,-0.07457283928011887,0.044707432553857375,0.252027791020954,-0.019162438461562126,0.38069800111822255,-0.1634095543357948,-0.424001272157635,0.19020573171582436,0.03406777265411,-0.04091863616519581,0.23146356247833194,0.32129514853192803,0.1993087420633463,-0.08435398107384902,-0.1015949582565446,0.09736270067964485,-0.4008616392809514,0.09217090338447938,0.16588213049546657,0.16953686940515864,-0.23411063618173092,0.00384194285993888,0.010485853589594812,0.19375318863594118,0.30334214905750106
1.0189720734052654,-0.05826674526557243,-0.049645976938127744,-0.015901742950307298,-0.15764706603402545,-0.03738674094684706,-0.1630058701803887,-0.022278395228069073,-0.24045054726286114,0.008724857895677545,-0.17238856516076392,-0.15908815998177145,-0.17032725860392106,-0.20144297490192967,-0.021050206174323245,-0.14309532574482603,-0.19213711323393776,-0.07837467151428314,0.1687026986886383,-0.33985480962767145,-1.247096808856752,-0.10659737805940114,-0.21205581314528962,0.051374349180514575,-0.09613191704645507,-0.22409473477959851,1.3558169278169974,0.7476298447449647,0.05290110092658531,-0.2063267544001962,0.9853336042436117,0.428306567550771,0.3743801536999156,1.3914634212046468,-1.3000156882406158,0.47597482626336945,0.3118693641675742,0.004314851039912024,1.663633701767441,0.19232662502864978,0.4232535322956943,0.6559024613629819,-0.5552727792289635,-0.3253108134614064,-0.06784379362552269,-0.2960888661140955,-0.2823793651743437,-0.013211153340159737,-0.09719510690910277,-0.1218373824797849,-0.5561901224037986,-0.1486329209421658,0.11744281855484268,-0.2950341521218681,0.13888249709649794,-0.11627182027717586,0.46683669855268334,-0.23385337832610148,-0.16336734165903677,-1.4909372184661112,0.3015839301153973,-0.05874495844920861,-0.018852365826755063,0.21165748178526686,0.018413575636073477,0.15511715196803155,-0.01690602120129012,0.15099237964186982,0.0301036320226163,0.09288433474275562,0.020215209541269055,0.04713544865661579,0.07475927993480184,0.25334541705521596,0.021730594394985942,0.08671562166157767,0.0632495030317664,0.6791386489128556,0.11734318216304343,0.275039349397444,0.12190586328110938,0.7696502750012104,-0.42517572887783234,0.5970424470597865,0.1271061157510074,0.30807327629962994,-0.015873246977561994,0.10977920342337896,0.49150461756362407,-0.6270036929250267,0.23685654144808857,-0.589550265708373,-0.20230756812682305,-1.347405493962248,0.11125711590122284,1.0242888935693593,0.0119868308977053,0.6276632931155679,0.32753705034006414,-0.5042329089813742,0.05388042380035509,-0.04305102271662518,-0.03138247426377774,0.33511395232310287,0.0680327875743974,0.26763490634210996,0.2817521422377863,-0.004124429335447749,0.053374965268914325,0.07620883228956464,0.14489833600180946,0.5390168948120139,0.004788726295951188,0.17576384201468787,-0.005268919502151133,-0.007805729062325195,0.047768169955160276,0.5369520510359077,0.8364756494881769,-0.23654810106736196,0.00199441838296056,-0.025189854076340733,-0.19125887050812393,-0.028410817642678127,-0.3481549931944469,0.004060786053826673,-0.04181121700047817,-0.013743028982069534,0.26581478490955407,0.11820348185521892,-0.0886790048805909,0.04965091366796577,0.058218584529420817,-0.014120928024514688,-0.04097146531487303,0.2320645229368483,1.6668019198809187,0.10598269422563783,-1.1713208027151816,0.20817688360257325,0.472683872180811,0.2688973214180327,0.5475917043069831,0.46751925545699446,1.2310134439053315,-0.34620313980917655,0.31048972341167413,1.5955532284113028,2.554696005451009,3.0132980438143693,1.061753208566395,2.488411441495702,-0.5067106886230414,-0.5776716338507714,-0.027600560178719615,0.4754250939834859,-1.4173173669768195,0.39054252332012,1.683942784179352,1.0330938645092467,-0.7555718634882519,-0.5317954330225227,-0.18640351285210782,-0.5203388332679293,-0.3262384186827612,-0.10777036982842585,0.3974297882147111,0.1730240176218148,-0.7739449409790792,0.241662904554493,-0.6774038259989857,0.039595303086037814,-0.4534673691095368,0.26216004818204064,-0.09356684751436549,0.06947317433184033,-1.0201909473791702,-1.2557116067351135,0.19944038622589605,-0.4278539093428699,-0.023818017598071076,0.21613484208342956,0.015335121809110503,-0.3944257942484895,-0.05247497417030188,0.020654659192594984,0.013954913035034789,0.1340756659159856,0.21527045619282117,0.014553552374780421,0.04314687313571813,0.05391032622009605,-0.16106969455566403,-0.017023445176688922,0.037218327690889404,0.2913398179698581,0.30681275145625986,0.4434596008687995,0.07483710494325427,-0.15144159702603963,-0.8169160947356009,0.04651614652509216,0.09143241207845865,0.31119847272615103,2.520021084183238,1.781569588202146,0.21817896050733504,-0.3514100860353645,-0.7025300308358645,0.37851080301155776,1.072948105536062,-1.0622171276509742,0.5447015087034781,1.3606541433455515,0.6365565768311152,0.5740869333743169,0.33017637181399967,0.41591962153046824,0.45036849885519725,0.02287936913077775,-0.2601057176940451,0.0767885094290376,-0.3301182705103428,0.18485737923552598,0.24999726052584414,0.1417459814348699,0.0981988903668635,-0.21823288255934395,-0.058246520699806896,-0.43945905724027856,-0.19567657322203275,-0.029297375865846437,0.15642681870817207,-0.4557280657079664,-0.061154011703009076,-1.143953352799877,-1.5061544157880418,-0.21451644954882498,-0.3269996311024635,-0.004074439368558409,-0.04618053312710122,0.007667420891286745,-0.48926679756826735,0.008012045463078269,0.1501134016396114,0.029720864315885005,0.023906685421117863,-0.024959386262627913,0.07446508669340217,-0.0050696506224182,-0.010644953323358443,-0.12980733328600097,0.06932856968679803,0.19792244207635293,-0.030161441436204216,-0.10089665519159312,-1.0605572575648852,0.2746875635017482,0.4064277634078339,0.13696689853605323,0.6350530620822228,0.370131941805551,0.4048710465824289,-2.335911037057255,-0.7098535474533659,0.8491248376309783,-0.7293246121086461,0.24039254864945173,0.29493957631654943,0.42877742619030895,-0.49271137868117304,-0.9441419428399636,0.58570269418267,-0.06384746630107324,0.2532808291708892,-0.2721070914501265,0.5911231610484762,0.08059288836811863,-0.4778456322724853,-0.5764525750035612,-0.35812369560601826,-0.2075415507291287,0.044882989450072595,-0.019628453349993358,-0.1817075405357535,-0.11866083916341527,-0.43541631733640823,-0.2552853747178415,-0.09849619998691227,0.1496349204148735,0.38059223400926256,-0.18927514410887025,-0.12336718729339881,-0.06839089594207538,-0.06120381795257751,-1.4739798952543932,-0.33726525074464475,-0.37795061532131274,-0.0053872586493439135,0.24400306098663746,0.003546544163785098,-0.22822720309104086,-0.0018351906182757028,-0.24366219140647358,0.003577280750383423,0.1156950058010307,0.10828579028194531,0.12761850707744618,0.07214065007708861,0.008112669311111188,0.03725586213925291,0.04939085284329604,0.13248140278475898,0.7445909537135307,-0.01819671375245144,0.6964929492165094,0.18874158320785053,0.1257450031651564,0.18562308333193395,0.5973670742968484,0.35477087717859046,-1.2272486468977302,-0.9069735231538587,0.5092467492558631,0.11072575699111534,-0.7790696234495006,-1.3741268549970302,1.3672239160807367,1.2917261926044314,-1.5342359457413597,0.16562762657752947,-0.3651154786598749,-0.16619227580911008,-1.0418621321610313,-0.2634218637552392,1.0007307756031318,0.17482103712443367,-0.11915018529989962,-0.20826247573817414,0.019023016495910185,-0.04632515510875133,0.20409297354935774,0.20209804099012058,0.09399235066288139,0.09317913058280855,-0.04866445450244234,-0.18795149015930354,-0.2884552769128335,-0.07950657685419284,0.04319415542069167,-0.22006636331289028,0.03510346136635986,-0.0343453677602368,0.901109113428673,-1.1387107855522343
-0.0451396682973565,-0.4511529435181929,0.1945339497285545,-0.052290957999335086,-0.6599439304123481,-0.038020652589412396,-0.1710682337290269,-0.03030514697838767,-0.3668110458541326,-0.013003802713922907,-0.2877182583073232,-0.24000077686914917,-0.31169801656878626,-0.339238308052122,-0.14142182286158253,-0.3892606706589514,-0.3159723287831005,-0.11309476928167714,-0.8485767621655655,-0.1311875871819952,-0.81322280410363,-0.2705228270928376,-0.8226401716492245,-0.2809368176915203,-0.07329366386535258,-0.43775623887455706,3.322364766866845,3.216748542714625,0.14113914009378378,-0.7202659914256648,0.11666560479270725,0.17159690270927405,0.13357607107843966,0.4586467071579729,-1.1125252778939838,0.849641430374461,0.8296811214652262,-0.3588305510573716,1.3123192795523702,0.3455464558929654,0.33637281819141474,0.5546535320969006,-0.4744166790841392,-0.31781874295027085,-0.17009696520634296,-0.549369804844754,-0.2832827939778219,0.19246634556672781,-0.23147641571109528,-0.5054179977787052,-0.7921468942702978,-0.2671920221588449,0.39561399499588806,-0.39749391426554714,0.5236485245224505,-0.16317960524824507,-0.46958525340301305,-0.49885437381675674,-0.2843931529760539,-2.7864142236688156,0.24733130582295607,0.28227148273629155,-0.03956508806109899,0.2935949722003107,-0.0007307198982932911,0.48309747275738574,0.019582123454975158,-0.16752496337739836,0.0242356097792305,0.047229118171775344,-0.11558618580749577,-0.04005206438886421,0.028315245821782093,0.15548080203756676,0.06067943909022537,0.06064834477116736,0.055645195665446644,-0.03596560877435687,-0.11024529270052631,-0.1061857254858552,0.06250242791193136,0.5309554964185124,0.392200503739262,0.7088611904588331,0.06520755085906714,-0.3563143923016656,-0.21983737812754064,-0.15317895303847257,-0.42096872776864863,0.29344466251660906,0.811545780631533,-1.023110015385961,-0.7520792879969085,-1.7194444344039035,-0.01112156445512161,0.02038586041173759,-0.3291038958676747,2.1481942116347947,0.45060333500711236,-0.06962075220126467,-0.11400099099653214,-0.17929352663858247,0.08693534902292953,0.3766968104304417,0.16424544415021264,0.4498699139715945,0.4814005327459626,0.1795742003044697,0.10027969808621032,0.058801445634136196,0.017763413410819853,0.44642739541690435,0.022494106655491612,0.3023028896881441,-0.0033741281609704346,0.020460219787842113,-0.12862179957238132,0.8774689561069823,0.995697501109589,-0.04547220817707243,0.20819037505236695,-0.07084010336351376,-0.6007404564181352,-0.06002429208047364,-0.03933078686513922,-0.0243278287067243,-0.2958961509489097,-0.020185076850927252,-0.1339964610253567,-0.058356331198818175,-0.0699956073634372,-0.02527379917357671,0.09270585228718697,-0.03964675829497687,-0.10178340400566802,0.012564446410193535,0.0748797345689064,0.01714924702042106,-0.5803738245320511,0.20321668713645857,-0.31779250973557344,0.04748232578816833,0.4050326592436981,-0.023812861470225734,2.128312949099787,2.337747656683041,0.45633143210069627,0.6959561855328377,-0.12435892428345316,1.5122963150726652,0.05807815043734465,1.288861505152353,-1.4688714734999857,-0.5351012525947125,0.7546563576619704,-0.25632684915702697,-1.3737962911924495,0.23431944961189588,0.10321161166503806,0.3089818329247297,-0.6712124047394556,-0.49533233683071476,-0.14691511770802237,-0.5096827186909276,-0.2331159477966301,-0.19426275706858429,-0.09377475432038823,-0.3717562751330323,-0.6841229541178199,0.29052626082525446,-0.4563888987627878,-0.17193931299937112,-0.08870613414970342,0.25548463288048323,-0.6212280910701695,-0.0812784662132632,-0.40426569396101036,-0.881651656974846,0.526270129384727,-0.24833075539935387,-0.10556796453129812,0.15498356953943754,-0.011607950842434704,0.013442778026875607,-0.08042126364939953,-0.2876542772083043,0.02433384498218233,-0.357914470463078,-0.03564741833311081,-0.006090249359022786,-0.190650584770264,-0.18652577181708532,-0.21047411786156894,-0.08858602210862612,-0.16819533559368036,-1.597887263911501,-0.2502632446571423,-0.29646514430948945,-0.4912632131359503,0.6264373433737039,-0.8033255465222165,-0.03544340494516503,-0.7728088403014461,-0.3106935696504752,0.09051984968421105,-0.8384184290386362,-0.3240462879323077,1.0873767743249496,0.7353208996681047,-1.622188229574838,-1.1666127760129337,-0.9063750191952111,0.11029623843993995,0.8337857037917626,1.4468282115523217,1.0170311515854293,0.7627408528798005,0.07355888677840626,-0.28955858410288954,-0.13045753991144315,-0.5766679794809568,0.4152004852484215,0.18916396299178298,0.4555872484343609,0.6728704188062451,-0.22779455807499477,-0.3283236783119908,0.020613969513913335,-0.5620688452981972,0.1375996402150383,-0.25239199711979654,0.4490101646922782,-0.3009418557292549,-0.39628593660967093,-0.2764015079242052,-0.15534942135883933,-1.7050762581114751,-0.027211540144350097,-0.17466910309247827,-0.028809838952952246,-0.08508208746834668,0.017453510299025896,-0.4279713895516698,-0.001118535490682704,0.24704537200339813,0.03872090871564468,0.10898614608939168,-0.006836189508578688,0.20828124834512812,0.11091448314039618,0.19176090682906338,0.02350693829904251,0.082393070603203,0.10897908293020436,-0.7910302800524318,-0.06361993528571427,-0.7019238997519678,0.32012322942018817,0.9713344121523941,0.4181187433044551,1.6969726074274345,0.4113840549555107,-1.9109853312178318,-1.5239779478099855,-0.42202535535192637,1.4025669114916237,-0.30705476016107436,0.48316687340378456,0.7769077439026427,0.693568458659946,-2.6755743052056795,-0.414187528788618,-0.4261436739288766,0.16422213498344834,3.118079314359806,0.2317148239140234,1.4719683685227793,-0.5835086158871859,-0.5247728721855116,-0.829222339461169,-0.35933018166335545,0.051623763322551336,0.24073663511364848,0.19966835811837375,-0.58561887130196,-0.7669625200618675,-0.864118884793091,-0.29647979238146205,-0.16274704074531576,0.17429013767896642,0.6652775228717257,-0.09639366850649872,-0.42007670189007157,-0.04642540065824367,-0.5402365987727851,-0.8521295185252781,-1.014512181674367,-0.5855598203157694,-0.009448201425759058,0.48592302937277265,-0.00410216409070747,-0.2803012001427756,0.011578410617527825,-0.1352069523524484,0.024319880355123166,0.18993093766546257,0.29014134897556815,0.45212607330869814,0.3433230754596824,0.044779829073314494,0.197740781608827,0.11770493645607658,0.25430461828659373,1.883017923589052,0.4418152342327155,1.780962951511011,0.43564222000166714,0.3327485893030667,0.19456763346727363,1.5109743119796537,0.4698129743899431,-0.8561005974659908,-0.917372281649437,-0.5810132493555755,0.08439683428744456,-1.2602434455619422,-0.7427356493924956,1.3194802209558074,-0.6385603508466448,-0.0858951649470873,0.2738959503574063,-0.39555862712027323,-0.02285029138033068,-0.8451106288886212,0.6050950843478987,0.43583112892321546,-0.17068629486881556,0.2107552423728723,0.15311432264824631,0.0873908672147256,0.3932682687601074,0.6179922849711035,0.5736949506112461,0.22334922276200228,0.26395616912355657,-0.08084848515386533,-0.4772679358167774,-0.21770603604851874,0.06457626462451829,0.18734975788312438,-0.4666128557980291,0.0013420007342759344,0.10162744549104157,-0.21776249131757408,-0.7711940355569453
2.3746048550199044,0.1270693718471203,0.057169959090436984,0.026653928228562433,-0.055337473219291874,-0.01635244282202555,-0.1907471931148199,-0.008258677562117515,0.13714937227711538,0.028238136296925256,-0.051484363210845485,-0.15637655582865354,0.08683767943533882,0.10584473681160089,-0.18816526977687453,-0.010766987537835858,-0.07418505528355182,-0.03759413191127368,-0.21210684480890526,0.15222733966662688,-0.7461720353292559,-0.17663816861842827,0.48161939177919105,-0.2344511954895183,0.8173178127798507,-0.200867051780585,0.16377344290070023,-2.0770437592261453,-1.7109150276377965,-1.6852109229328425,-0.7875456467874109,-1.3427443054174069,-1.1879076981239907,-1.172253991165654,-0.8173863361255672,-1.0580520382038847,-0.45176238801699664,-0.6036688018179275,0.12785659605212307,-0.8292951593707555,-0.4452450327954822,-0.658335898002685,-0.5957368392402902,-0.5292030747854725,-0.37205802812234323,-0.4422865802037077,-0.6469418501633319,-0.38438415028833206,-0.4482939119982269,-0.2931689321176445,-0.09332528632611657,0.026997652729707625,0.23189279202015897,-0.17855867080026838,0.6871526921757228,0.22222823840709097,-0.08322330651567236,-0.020545392723489823,0.7907461044269064,-0.1453306222052175,-0.17196495955706773,-0.26550113519885815,-0.025820957884956114,0.44016471749790004,-0.004346822348906038,-0.39152847840414523,0.030413631087118163,0.079910591522738,-0.020019775496227462,-0.18772789055830455,-0.16092599437530736,-0.06458644831836502,-0.06340637882255395,0.010974752266694471,-0.13631473945246375,-0.08791665218829145,0.05547014111181659,0.6117443100604859,-0.17830749071610524,0.07298424879881894,-0.15505281629410825,-0.9901511023191889,0.32117485794812206,0.5896518290250039,-0.06862035734062609,-0.5865340886892259,-0.5415317214871933,-1.693421335275792,-2.0498552061072375,-1.214412131396013,0.012253509546706585,-0.36617393161547174,-0.6776788254430132,0.2818867836773983,-0.8254239844996561,-1.239317765914843,-1.315636393271033,0.0010301304991495387,-0.23689302127086379,0.5137631044838025,-0.5480040201499553,-0.6934406620564884,-0.6277793857219768,-0.35787591443883654,-0.5617071036248171,-0.42091665394709865,-0.4582411499325233,-0.3434731473582219,-0.32390168244813133,0.21337556970997199,-0.060002585095009636,-0.17023456520215438,-0.1049562213163948,-0.057051519746322235,-0.07960628956155551,0.3961187004081935,-0.049528526710795516,0.7719628441292492,0.2082305818036851,1.2047943475186624,-0.022517839178791816,-0.05852730951756301,0.31391445375258253,0.03787094919532876,0.3329352329830724,-0.0257331606515787,0.6285554831556582,0.03300609526360708,-0.31762594838901276,-0.1469606840083678,0.23828486827186326,0.09627857164221808,0.00013183023686523122,0.0814021696654982,0.18490464268921308,0.08145405820874148,-1.9286290078339963,-0.4444800803755536,0.3773629927590002,-0.31465314278351636,0.21741860913234717,-0.3634703339748576,0.9783422930807576,-0.6907452599089206,-0.4840078270880451,1.167353170387404,0.5606680475569161,-1.1128445577545525,-2.1876482546364495,-2.9999843009793357,-1.4127341009694392,-0.14861647268087003,0.5065770821056824,1.3006950440232565,1.0054317908529067,-0.4637724721768736,1.752364973090359,-0.13176167440079836,-0.5534814798397106,-0.458686892942505,0.26365415952664456,0.06005702109234944,-0.059372007829277554,-0.016932608570106988,0.17973375178516487,0.22368620406537243,-0.5050139401735215,-0.48297464936202994,0.1660340870297657,0.25677176385955397,0.47452134728629536,0.3144623896004013,0.5983697571746308,0.08907302947835762,-0.29200473160008616,0.09870385374163708,-1.2944706744423875,1.4633713063611962,1.6441960752185578,0.5308861924027515,0.021052516065026432,1.0800803609598433,0.02420458865661497,0.3568571310635976,0.06433558306892904,1.2219753993084013,0.020039501498422506,-0.31680916183950286,-0.2472051211487873,-0.1945776344680747,-0.15116887931829742,-0.2134485612240894,0.02950690005842373,-0.03343557676032243,0.07660011426829796,-1.174857066845064,-0.20682854498006306,-1.0257146478441557,-0.6042407367289491,-1.4725197623213235,-0.23041774749097893,-0.8534274727598496,-0.5502379809442185,-0.039943156619516515,-1.14815714671235,-1.0620143934964144,-0.9358277506139709,-0.9225414781122555,0.3563067675257175,-0.990585839038519,-0.8715594520729656,0.4481293709111495,-0.385314865831433,0.044078658025295606,-0.40487016308297835,-0.14228149020896688,0.20703490021798762,-0.11190630429384195,-1.010939739850286,-0.5051518775963519,-0.22522957520275788,0.00020339937939009792,0.03979081599962019,-0.08520531627995447,-0.06075102960518808,-0.45024375567382263,-0.47961232939223647,-0.309806771434389,0.1365313987928924,0.3335268472068992,0.2882643294286231,-0.1435974242890357,0.14824117848177537,0.1961783424053485,0.36567504655871674,0.02468323320383804,1.9956828046475477,0.8131222422547298,0.055584093305153945,-0.007279109685928439,0.3642174279635937,-0.015833506903311798,0.07159624992288113,-0.02743889971310693,0.8175572266411104,0.02870730243437725,-0.08685273994554987,-0.12056949264360371,-0.06357825143891827,0.022162374554932807,-0.03382811617414524,-0.014104253178381383,0.10776090676249479,0.09194503255612219,-1.2459498399145883,-0.14245771693015605,-0.8826431918769594,0.20354557822313663,0.009881178627924259,0.17852836004611117,1.7812091764123725,-0.1643058835961083,-0.7680775821777835,-2.4468180963687147,0.6587661672774946,-0.479248698869326,1.7788987396409475,2.211208537711395,0.4020923728802654,-0.39634229874357574,-1.5846440573328708,-0.6562417328877769,0.8086203541931168,-0.6325291535138907,1.29944827819116,-0.21420974532073672,0.004797391951523044,-0.5421408856068443,-0.2337286168167464,-0.1179630292529102,-0.14978981646106268,-0.39878513999368354,-0.2380161721758998,-0.09567535052412801,-0.5301093773939731,-0.6134094998981399,0.09028902200222742,0.1905339436723226,-0.004896453381613057,0.07673523536169628,0.46331766112666706,-0.022754446734929337,-0.23134275488037487,0.11764811500214697,-1.758774892617036,0.9595998403305255,0.3637414232842522,-0.34619653991043436,-0.024809219139124736,0.6959773811744981,0.04931306682955159,-0.37999358291971097,-0.026910079781519065,0.8082770802078658,0.02932752377325952,-0.1162594507200311,-0.18202383814142412,0.1268250790510183,0.09523801913544958,0.16301194837438002,-0.0470153949618415,0.18488315678068873,-0.017557682758186175,0.726787652953914,0.3919163069233814,-0.8616063221172328,0.11979493372768928,0.24652187951977392,0.38371297411788624,0.021201671283738004,0.05280065961403058,0.2571019176202272,-0.1243293808793585,-1.36707630070731,1.6003201580983268,1.3940429752093166,1.172015103667407,0.5688968975449531,0.3674135543889115,0.4833025862107291,-1.183890292149774,-0.23521549126106686,-0.33491366776097364,-0.2840739755679778,-0.46953592444030817,-0.8080620818106568,-1.1278069057137161,-0.6461843689154728,-0.4609839892774471,-0.5712826588398814,-0.05015319261760511,0.03658236777754065,-0.11119056100360356,-0.8424848839629343,-0.7197896115486383,-0.5184034284250634,0.04473861759170036,-0.14780995723268198,0.21045175976375574,-0.20651334373014543,0.07810557666581897,-0.43225642629694644,0.4462927551628624,-1.2783936434100673,0.8001334277297987
-1.2816033299497258,-0.5675631189032553,-0.39385016897051994,-0.016772199889063248,0.14815701349954594,-0.0017171373602805568,-0.43150119119087443,-0.0068437551434140315,-0.22842621391677767,0.001072511315625756,-0.0854034636485029,-0.09691902242539994,-0.08805804495444162,-0.06483634632089716,-0.13526173114714635,-0.040372850368116706,-0.09462229298000892,-0.09236031958915024,0.07819154550335336,-0.38095893060496716,-0.06455210866795189,-0.13696491046707646,-1.2789513003850108,-0.29307036679147724,-1.1609531795607495,-0.13537621786266027,-1.0301951983590254,-1.662574219201113,-0.8526812407526239,-1.0750337606418017,-1.1878364523924891,-1.3768726563553082,-0.44289841611896613,-0.4400323839356855,0.7837909430463943,-0.6518119188613765,-0.8302255034446899,-0.46425212839928587,-1.646201170999525,-0.4093552284082877,-1.2277626940427695,-0.29246093740401136,-0.1755534513337319,-0.1904154457851574,-0.3065021619978884,-0.2531423033652185,-0.1749953298460645,-0.19868576331059146,-0.1051988723369631,-0.03546034127165564,0.6570591237141339,-0.1478520353729783,-0.6446109672014293,0.015290313425127391,-0.5809593053721909,-0.09238823414547505,0.5235243171238169,0.00800307201032691,-0.20550725242360063,-1.006795476621978,-0.33701936232153196,-0.20133695106654426,0.0002703043827945398,-0.027079843707746402,-0.017572975929073215,-0.08539115292419436,0.0008799011178491656,0.01460086192360176,-0.0002491144049328008,-0.08550762996551325,0.012692837032384618,-0.004373268776283821,-0.12350178066736348,-0.14302453307636806,-0.10633059916326805,-0.11114090473886548,-0.07426850380740307,-0.5585583800272399,-0.23899532775970886,-0.18893377929960495,-0.1516476935162435,-1.2107965562545833,-0.09570416323160195,-0.8335303061571171,-0.15279449284186322,-1.4361405438254664,-0.7090303124807873,-0.45147996731270235,-1.7671322849946534,-1.627817983433152,-0.766131796504159,-0.9583534557934169,-0.7225528370580909,0.439695149609044,-0.3069748680900481,-0.2527419513084648,-0.8770859228901998,-1.256802242533271,-0.5462623059288545,-1.154279040234145,-0.437401289438032,0.05984964133915732,0.05989080747800357,-0.2497485668348456,-0.2885745365079087,-0.12440127284077802,-0.12981825186295573,-0.18640702160815198,-0.046358661697336524,0.6512460037379354,-0.133607820485573,0.026914411095360948,-0.0032900489414613462,-0.18635501355797554,-0.07713386685808667,0.23766852668249666,0.09165520097490666,-0.22984699156476843,0.45375673100052877,-0.031933030184094185,0.009388732714889473,0.02799035922554665,-0.12006689751671556,0.014826326150885643,0.33764284272587564,0.03718413416171567,-0.34184382921837553,-0.010449164008654834,0.10895567584868428,-0.14518521118912686,-0.17866121437729346,-0.07886189568231855,-0.1502625195734857,-0.10453665552924739,-0.14696391742695633,-0.07538849810614337,-0.4687551595854462,0.16099875202766517,0.42405123930083966,-0.19395658812005806,-1.0632482710825284,-0.22085772823779082,-0.49465728120861485,-0.05134330745128825,0.0024648835035856044,1.2063648344625943,0.32545364347805467,-0.631893926633649,-0.602229597080601,0.4698605713686329,0.20986860383861655,-1.0933521036686318,1.3042346487216825,0.5171811709065336,-0.14455031415760566,-0.1579571766896551,-0.3944695128015064,0.34447954549131043,-1.1918132354876478,0.0032915880435021236,0.3209603388369086,0.27045741251585786,-0.010433986891745796,-0.1129435600308195,0.049679402439830316,0.13202917002706774,0.017767942593282526,0.052805938681676906,0.3752794234396913,0.16840510415156207,0.040740682839282436,-0.014756979904662165,-0.2858877365713433,0.2279087240382506,0.07281142425847639,-0.01362282891097191,0.4336387819810878,0.05914996142546797,-0.03776811315548778,0.484539032609663,0.04422731178895245,-0.82878527351125,-0.0195509455754677,-0.06589235462262943,0.017007460500642814,-0.2838422051659427,-0.021363449158251713,0.07756705617516316,-0.0466840447658145,-0.2588222148541763,-0.216336289026298,-0.2511294886641532,-0.0944364003088483,-0.2083200431193874,-0.07560894831039791,-0.7080104357237781,-0.05566099287493889,-0.3912335588129594,-0.24248803133926694,-0.48323436978029116,-0.014022881877077635,-0.3629887431696005,-0.34601289938191393,-0.9998191191690915,-0.49337777107734454,0.8795157350086895,-0.8199832712465394,0.27077924453053215,1.1067679363356755,-0.2661092432045457,-1.3543619714938417,0.16136035564530607,0.35125184260617076,-0.7322024212845842,-0.2356762058388821,0.033949031799129864,0.09990302818820858,-1.3613790373595132,-0.15943778668663106,-0.07388857584855962,0.24647347393244423,-0.2423526481869483,-0.18992620299422913,-0.23145385265045595,-0.2232844095148605,0.23629460146643472,0.012236274778581597,0.38790219755885774,-0.029204167150586918,0.006740415576326163,-0.29050583298602006,0.16390463474346414,-0.04303464918622856,0.26619329740004966,0.03727167430049821,0.7111823003786152,0.40923836416175446,0.1491777426051883,0.6047242526030718,0.04026124407719732,-0.18404480377160623,-0.003183067514293539,0.5875370071922484,0.04754918809426841,-0.2871838341542268,0.0005496255179635788,0.09587048383379933,0.012223297246576888,-0.150553500437877,-0.020023057480438575,0.06161714615669334,0.010593566053408684,-0.015601662201559598,-0.06767036453741017,-0.1277782482276584,-0.09434292614797092,-0.2677496991718145,-0.13319875521569216,-0.6128655627449412,-0.029464298977359964,0.19073867122078228,-0.21462443610746812,0.11640924693092392,0.7540192975141075,0.6987078233026559,-0.7031292698626901,-1.0251027921708122,0.727599574662333,-0.052119366105853444,-1.4908076720364463,0.256543506458971,0.44598315210078,-0.43042083229133077,-0.08790461125203307,0.7646236076926474,0.4522431312759294,-0.11065197799253654,-0.0050317456573967185,-0.3203137224992233,-0.012478750359313628,0.26360430580986577,0.20992424911182692,0.15795914191222488,0.3987887840724934,0.42285316765959147,0.28647800685433,-0.25943793392178727,0.5734029165191491,0.16060690491592625,0.07286600232724456,-0.03755033935679655,0.519336377110907,0.5041151181728899,0.06541198062123817,-0.04013411708044838,0.6473765060707681,-0.07506124516936655,0.8237682170407385,0.0884425732677531,-0.5806374929836626,0.01050302439832961,0.3448523423415145,0.03399184904504044,-0.18169568938039143,-0.046531309335843096,0.10142427592171793,-0.06375079052877158,-0.16461554784204782,-0.00467466475990134,0.10662729494373392,0.021367363689295715,-0.08048879275414013,0.023537807531180257,-0.664621817822585,-0.3245687562144004,-0.3273796177724725,-0.07183066849543339,-0.1984644473409811,-0.38673168401466695,0.7072447307680314,-0.2273336672223477,-1.2827473933168185,0.4942420568291114,-0.5137565125810871,-0.3870801156743387,-0.355589978470955,0.07122166978014294,1.1449666834781835,-1.3622506813867987,-0.904325440121266,0.08586643690751926,0.11937292621142297,0.11362603247549875,1.1986798543006736,0.7470916242895873,0.5317119847888906,-0.1194483824991759,-0.29407547825783287,0.17457247720818997,0.28895406625929604,0.022366460576082655,-0.19638334267929666,0.23467034611018564,0.3466520304675568,0.07441442689475444,-0.149803213485476,0.7438043420548329,-0.010705247914319376,-0.16613687689310225,0.37517616084648403,0.6514171543174802,-0.10422211235679449,-0.01968352702113444,0.2921639897219324,0.10399105974719376

Wj
1.520203684034713,1.0318054454742247,1.7732759952823407,-2.0404048603306415,-0.923979977297901,0.0690817808343273,1.4212078952678464,0.003143241085536241,0.9400164657650859,1.0463867384688175,-2.837815758459727
3.1026525172983277,-0.08773457337405445,0.19094462786422137,-0.2789370219717912,-0.06229833616209927,0.07809216880006613,-0.39545313768625284,0.22214798994810356,-0.013189385663888472,0.26574973338659125,-0.45904761638316327
2.009594342532955,0.0764584890590276,0.42447293866131486,-0.4369723576097326,-0.12658189632503217,0.03686486080237729,-0.8192089256111651,-0.011114922516748987,-0.0888622784726224,0.31626510236685457,-0.4041455955654558
0.13312872588248154,0.22676470142758937,-0.5598680216513449,0.6838212086456722,0.2867204936220431,0.873613521162472,1.187805327843245,-3.3474025685530457,0.02317860585679231,3.0821675542538194,1.1778267391098964
0.7970455640041458,-2.8092232221050115,-0.8961604798945793,-1.096866466059816,0.4071547839736269,2.053805165746138,0.06365566665276033,-0.6562852223962682,-1.3282933064736069,2.4714649722245783,0.25274149790469896
1.8591928802722042,2.425648151323127,-1.204594806025197,-2.6911145415964444,0.12238006625531422,0.21383925702081708,0.08567831311259771,0.6902851318427001,1.7229113482051561,1.3489940216661074,-2.2741348469434306
-0.08587380297514179,1.403934693616864,-2.358579522803962,-0.1809560891484712,-2.448616147145807,-3.225236604994998,0.28991186599992147,-0.7811999036014918,-0.36753275246354533,1.0078160628629238,0.34768113471919315
-0.9844109022919089,0.6509049209554066,-0.4576703305316,-0.8490760495054845,-0.44368778791408897,-0.7363578668014008,0.19156650631592442,-1.0673179900165104,0.8050136694714607,2.2679561850184884,0.6329641504282979
-1.3184015597822967,1.2105134228547811,-1.517875309497661,2.273780089248923,0.43056757115014255,1.334415692852204,1.53880121297757,1.9651527302715313,3.7835056105667695,0.20228212507705065,0.3105393058661554
0.5599288619494567,0.18309504769681526,-3.172698252103217,-1.2956534040753829,2.2392937610837964,0.8726609079657601,-1.7722354185324007,1.5276035660074931,-0.34624659366952143,1.1797080498261494,0.38580779686048133

Wk
-3.0749471182632715,0.040325662089803954,-2.8974001897059116,-1.3805310040876848,0.3516529992513594,-2.163787934621464,0.9368811587231717,-3.114462117272699,-0.9350742042385107,1.917584713032824,-0.846149151251034
-2.8708076010304326,2.2635541098971346,-2.945359494623234,-2.2673394567860714,0.5091733666526709,1.2881135199979852,-2.0077087003827137,-2.1628519247044333,-0.5962643860638098,-1.1257217880283312,-2.464537075837645
-2.890034692683707,-1.9233701924373454,-3.280307066757316,-0.9368507554133426,-1.2980950152580892,-1.554218067477659,-1.8165836927842751,-2.0314464091272164,-0.2571153451917046,-0.12628219828892034,2.263610311030131
-1.9194941787333104,-1.2085681367183996,-1.7327489054287597,-2.450356320579288,1.7740256668873904,1.075144183012491,-1.7786610651439805,1.8958172566241307,-0.6298156907482527,-0.5275491021591185,0.37080726579764844
-3.1917646364108845,0.5199411957130134,-2.176119321528243,-1.2931634137587402,2.9027136221099714,-1.1342921337641665,0.31194637786850143,0.3941967671235124,1.8679680486347792,0.6198641228456321,-1.6380162283156658
-3.5879974166061204,0.3586811486959302,-3.874307588389673,-2.059109924105227,-1.155986733944342,-0.8052347955635938,1.4884889403934989,1.664656390205876,-1.8078774496461636,-3.9012043544636255,-1.5416115469133405
-2.915209693585078,-0.619169718036423,-2.795637905922124,-2.29080846807372,-3.5527709567843258,-1.139194621322772,-0.3261075930738058,3.4704101607068867,0.23291209773994145,2.740330770067622,1.0948306068202127
-1.7858751614444202,1.187070237847502,-1.8038588643762128,-1.6562194928637157,0.25211339302681196,2.549963211252733,2.01088008851806,-1.3504199846791107,0.6121090838000226,-0.3912902515562748,2.0149015118175924

