Wi
-1.8607461918831805,-0.26763585337337886,-0.18395314233370783,-0.01494931546369456,0.2085305367954786,0.008610409114328126,0.012418498729472281,-0.007667812060374583,-0.05138050776433992,-0.021760968896068014,0.017859792661157076,0.10765269057013573,-0.005087382397308899,-0.009809492631402574,0.13753353840974472,-0.07586219824409332,-0.024518992932896652,-0.046569347640188115,0.04311664107579973,-0.1812839034263443,1.1930283376043815,0.15445285545927845,-0.13178611605490637,-0.1254372377327802,-1.172439936317637,0.08574328912124324,-1.1763107313330579,0.6475337903841559,1.3135406240560414,1.5909537621799785,-0.8000622246172202,0.5659295954929118,0.3061338376081849,-0.5529526066551216,1.2630505764629951,0.644935550599893,1.1849476350001822,0.46962367161746427,-1.3041359229598075,0.2600074380268002,-0.5353652860018342,0.18280978012176108,0.7864593923540526,0.6535125402471342,0.4682319522832145,0.39695325374072316,0.27634537866296643,0.2477845419143587,0.4042137522295002,0.34298994691535245,0.6546234145950409,-0.06868039387000939,0.08438455403938372,0.13862024904800424,-0.6862574873631664,-0.20260577253227263,-0.026107477505890434,0.09592055304453939,0.005963860874851948,0.548006317123797,-0.3015689853467611,-0.02932180388997295,0.0059981656698039594,-0.1689162699497289,0.023895554864760516,0.1634643065953586,-0.01853364598788479,0.1713084750225064,0.006666647442942143,0.0885379486942127,0.1431453408515422,0.031498612682406814,0.05070110400687244,-0.06451152927185552,0.018758541689881225,-0.05830032638546929,-0.08089313484373734,-0.6602855607136108,0.11527446482366212,-0.011439333890408437,0.0419403645159648,0.64863814676295,-0.5953600130478978,-0.6019010852888818,0.033339891696640075,0.6247562546438067,0.8440968664015157,1.6048942327291171,2.1531368890737643,0.5288644385735729,-0.8031626771957374,0.6342465549069922,0.8088732788448894,0.5273307353965716,0.7738410134060665,1.1967554821028756,1.2335187760438253,-0.69667540091771,0.055015139281803294,-0.0622028136099169,0.6218727305988119,0.6155802558734742,0.5815117244143618,0.15170611904133424,0.38665013527327935,0.28987853527225377,0.2423329828553406,0.2852417035097557,0.2360146843130468,0.1187069040790452,-0.09652662138141455,-0.040902347033695004,0.11471995491757546,0.040087503209129655,-0.021722177151432584,-0.39009172415285265,0.05577466551371625,-0.26544399321510187,-0.19175089455619201,-0.877072156620492,-0.07919513877040406,0.0415911284407219,-0.0757482635909393,-0.04721728163830573,-0.31896561852526834,-0.0010824353647904718,-0.6518132692135361,-0.056420513648545556,0.13574220055017097,0.00537288720960961,-0.3287413964045561,-0.2609706680668532,-0.1530499559784877,-0.11998034745096602,-0.3505757029168628,-0.27128207652183844,1.2233566333761479,0.40020785942868914,0.039244569237453356,-0.14112572602895596,-0.6080263997610972,-0.1986670321699352,-1.1045943544146588,0.20402847802484914,1.2918416148026968,-1.5327255025541642,0.1943275168452586,-0.07946361579012583,-0.757789661804087,0.8269130812471478,0.07085958500348213,-0.30699474971589696,0.6970902178598143,-0.7498371917955624,-0.4168166181351427,0.059678718123873854,-0.7567637840336676,0.02509785934428887,0.24643863866468338,0.39596370931483565,0.005871913216386189,0.04591633445356718,-0.055546754706944645,0.0369989344259743,-0.13970634247443417,-0.035452900596721806,0.3772961105591531,0.38101985640962927,0.30543106685078675,-0.3387921521614094,0.016935885559806328,-0.3367910484242073,-0.2255722213165624,-0.2529488477311173,0.39616783772568,-0.07158431856798206,0.9921175477498524,-1.1122354476687246,-1.4866523198929098,-0.5384415344718341,0.0005375299928888621,-1.2418565570243871,-0.004024729808227962,-0.5243327650072711,0.01975130475901179,-0.6635824869919679,-0.03853408009085158,0.155956888448984,-0.06665593542889033,-0.028302167974607367,0.08377884354851546,0.03049203697080891,-0.06789270285876413,-0.09381754972482884,-0.11749270846900282,0.4144900673999444,-0.14968738566769416,0.31519395996486144,0.406438267328498,1.090616935282335,0.2267091815190232,0.5103601524800562,0.35866860919095866,-0.45985116329249726,0.07535472449794067,1.3057664586909616,2.1096346463674127,1.4633397217217294,0.4278044381348609,1.321012349615881,0.21062801299427372,-0.040321810117677874,0.29006981737527654,-0.2784377508754581,0.13325388510153718,-0.01927196182059062,0.027171184240308267,0.3227108415278598,0.5001337755843006,0.3178771305866494,0.27728861857993786,-0.07815468740393898,0.02276361209263935,-0.05501389067604389,-0.1680286983493769,0.32011106375948617,0.15087962642529584,0.48152214265765436,-0.09292455389424031,-0.18020986988548307,-0.2304797728273955,0.14111864538134983,-0.2581638346747183,0.044098260889647946,-0.21411394868421818,0.1546378437643346,-1.7379419011886905,-0.549235346217034,-0.06819966660962151,-0.020966459082493945,-0.21695210544070523,0.025722496807987705,0.06334026710097057,-0.0013656129216335358,-0.47491705545260204,-0.0398723573663769,0.11759395261999737,0.2083303303894351,0.09743373343467264,0.013524322480490542,0.07700199278677804,0.20548162024493197,0.039976558678548504,-0.12620539438000097,0.8389201113173381,0.16989893335090409,1.0227056663532539,-0.2299754349427677,0.10683386419128206,-0.032286749438285245,-1.0569710078402332,-0.15726778796405388,-0.07843985798647932,3.162603863071496,-0.29657597063627744,0.054886519469753,-0.02168560398174163,-0.538186453911438,-0.16658491187973387,-0.3274581058563062,1.1398709337307302,0.8824570377136428,-0.6778611438728945,0.9002569111029037,1.155809707595433,0.7903145896321482,0.23911040745511802,-0.06092326780213535,0.25310259143888697,0.18795742887407163,0.32531948154764345,0.6846458429670436,0.6925959701497624,0.32493110372398326,0.4455729306160962,0.5710507753202198,0.0400444405326652,-0.20082357696720174,0.08912314066920103,0.060575897605663606,-0.26788051032752,-0.021719522121454077,0.38411816960955225,0.0744049255578282,0.6571552633948466,-0.19121462437250175,-0.06207723857738604,0.3739902662432722,0.03252906807010147,-0.32372490920678,-0.039142691749213164,0.261533247371778,0.0015469715346359955,-0.2718686141647979,-0.02329366164770184,0.04763768938520253,0.2070409236523595,-0.14727223429045574,-0.042278933169770175,-0.10201701774675898,0.10133338343922596,-0.01543191630599213,-0.03422884161031841,-1.1784450919793772,-0.27288751377462317,-0.09501376371194518,-0.3597849873954174,-0.15442446939455134,-0.6354171886335507,0.25124143680047306,-0.364779122119487,0.894725743515692,1.1814873023738603,0.5059383914161432,-0.7535697545667626,-1.9263249883817766,-1.1077547137639085,-0.8235788921500066,-1.3559897183774192,0.38831771803683285,0.9640468851032287,0.7221938760234564,0.40315525932480445,0.901948518928144,0.5662681579327538,0.6336666166829565,0.6699903012705092,0.5415891522845719,0.5230624241909257,0.4253338157955519,0.18919483918078153,0.14010660898322835,0.25226638449146754,0.6750902925009754,0.4628543781398109,0.4086960306577873,-0.04170267554934199,0.08658839937282466,-0.04279749412353116,0.6115767658906711,0.18050115355413757,0.3854091121146212,-0.2584837817909307,0.7730484857889026,0.2537759660387363
0.03781705235645905,-0.04353573600487356,0.4977379778410791,-0.08221524371437926,-0.7790246456844017,-0.020124346524271957,-0.0705220927153783,-0.0353292814012766,-0.4114295196336008,-0.05551205282447164,-0.32092422639828744,-0.23039273115699968,-0.32885723610658735,-0.3584910174367677,-0.21707514903330902,-0.37101453812124946,-0.3133679473063826,-0.22701247781837902,-1.3202237185445351,0.06522584607145863,-0.9002888852442625,-0.27179860241778875,-0.626318552305211,-0.1584540108447704,-0.35627996643070514,-0.3704255496709585,4.388361981025195,5.107973854735762,0.8171797764381684,0.1693021701891978,0.9382223168963133,1.311180130614726,0.45528535490536515,0.7755670246900455,-1.0345249904699485,1.3900257963221314,0.8357688393550492,0.23290102827467743,2.0884461142997117,0.5261716460500798,1.0995024285826138,0.6307578362814568,-0.3520640260149392,-0.23467853672610503,-0.1457419131387165,-0.4295788561808063,-0.29276526650437124,0.10602322423252676,0.01798859679592233,-0.43936590191043073,-1.2817472517579593,-0.33481128753622086,0.38192946568464264,-0.341230270274116,0.5023482519789773,-0.1891493057632901,-0.8410734694428904,-0.5409172372046014,-0.27158128796596903,-2.8723075553222257,0.8027168956584936,0.39468846137008895,-0.05366084542718405,0.09696215281510065,0.006089603969961074,0.5818717365060687,0.02304257725341199,-0.18279695015360048,0.04316902873437256,-0.09792699162993992,-0.1658934353429776,-0.08017614262759593,0.05881938394187359,0.2066194637412608,0.14125221787512926,0.14666949160264883,0.01620250421697007,-0.6913466495523677,-0.4458138738878328,-0.48729774274199883,0.2505129947913417,1.4344743983346235,0.8232048465031502,1.3903487752246826,-0.11033018464009578,-0.7346829199438792,-0.036096078623367826,0.3587909856288553,0.09819857073435183,1.624562029490434,1.7150598394256105,-0.5588645100418604,-0.7588995009504624,-2.1633700911356857,0.18363205875478392,0.7005302953688295,0.459523549237413,3.525579215113444,0.8495862476059207,0.3880387710274621,-0.27124671577472464,-0.3046531381495708,0.21322345389796923,0.8655650665219089,0.5596525473567839,0.7594577626866491,0.5349980520342018,0.006243908446461176,0.007421410120425479,-0.3105725011682574,0.1182239926461485,0.6807965713324672,0.085454851506072,0.41387651714887413,0.057949149423037784,-0.27827792286627845,-0.05600915841744625,0.5530611443107885,1.4320531165428987,0.2283898881382405,0.1793747946089407,-0.056157568784862964,-0.7828226411818654,0.015494382596403388,0.07318131312449108,0.015051241366071904,-0.13140974345421605,0.0020666341855446273,-0.511130680973788,-0.263372618683197,-0.11910632544259561,0.07028084460902631,0.2791349878655741,0.17302886840532558,0.034243515440065965,-0.12606237109624033,-0.6031342786985441,0.09724641410297728,-1.0857226088984804,0.3788461939117158,0.5771404287464565,0.5608334852558777,0.4368591625341173,0.0667305927254125,1.5886747333967712,3.0384716465453643,0.3919115092566737,0.3702259867894186,1.0300310426034465,2.402561759709399,-0.08728510348354518,0.6518704575397241,-3.2121540899667655,-1.1282011676723023,-0.3154852111733613,-0.12017454596674543,-0.08192797293760716,0.3343961617098214,0.09506085672739766,-0.23154342976295267,-0.9347397463907844,-0.7989982041707289,-0.19240193852766613,-0.2629872973432407,-0.14742692899481072,-0.19425618941384518,-0.47292639434411277,-0.6570413531942477,-1.3608015600463197,0.5107188807885222,-0.3826770615229487,0.055941586517187794,-0.11688132866086977,0.24210845605043263,-0.8935381982180906,-0.16263152483197568,0.13506646699363353,-1.4740622027904944,0.7870638503259914,-0.3373015728030829,-0.13300451094845636,0.15498461952922085,-0.028793032129538747,0.3758944630798281,-0.076536351625653,-0.24147725616350788,0.02188724654078862,-0.8211281133150268,-0.2922225157597571,0.05225618738058169,-0.3302306363414361,-0.403989886458095,-0.15853805846174637,-0.11828982914988814,-0.234996284617412,-2.1341742030661024,-0.4663652457507049,-0.8858837293150696,-1.0125008713661505,0.5692582806817544,-0.5546177341463536,0.3540403855141383,-1.1621741773558,-0.03823761850059859,-0.8995040823097247,-1.2804042467493983,-1.0979731460047741,0.6460369449628695,-0.7023432218775348,-2.27850648836984,-0.9095711998979431,-1.7372111966258623,-0.04877152355908832,0.3327935892518608,1.533578073514673,1.5804091553999873,0.6476810059526203,0.30320934712456205,-0.06835638463301762,-0.19819597933758432,-0.587748335668288,0.3639596606702954,0.3511450755834244,0.7396086525601703,0.9472990717745917,-0.406708177759816,-0.6551944799682543,0.008851873448124166,-0.7617672989286358,0.268435543147729,-0.06940857157896556,0.8375370623330333,-0.6409432390748245,-0.6473499132764035,-0.28598234827199837,-0.31348961629908667,-1.3437020041429348,0.10308552917335075,-0.2174084151993128,-0.04161589925397583,0.1452895095011937,0.03194661278086485,-0.31390390146163877,0.045721674585806775,0.29894841276634876,0.0917773209602518,-0.03492522166172969,0.007924394083863173,0.41354958000440684,0.2617280473576811,0.3647799655315042,0.09939229655924453,0.15089864755553342,0.299221543613161,-1.0023114276025367,0.38945086128998746,-0.3783018172564534,0.8560484097137979,1.0911338208125065,0.4363814487428817,1.0165114619817668,0.6268327741203075,-1.4050677038701171,-1.0147420340187023,0.5956789226376118,1.562602840159063,-1.2771499537477597,-0.4505350548292323,0.670123110962142,1.9216538831101804,-2.6490397917001998,-0.47191211962144497,-0.15474786250765318,-0.14776405215794838,2.290685387754341,-0.3948054278744659,1.2248906980613523,-0.5708391666943339,-0.2955166737054861,-1.0287744485191388,-0.4919165784385392,0.033008918569430216,0.11311095102549419,-0.13541173125114067,-1.0101609417982835,-1.2146528555583276,-0.8711206833577823,-0.19641895677051557,-0.49749333791929207,0.27972975699617425,0.408748735255479,0.05178905440546726,-0.9219658454733527,0.1867018036993058,-0.12820773397374413,-0.3592665470658864,-1.3872331547565142,-0.7359147465977663,-0.02542730216189268,0.7632550542534373,0.038459819879478815,-0.046452464761331726,-0.008060783938305779,-0.11010301664042169,0.016952334414550206,0.21642374320551802,0.532592263290492,0.6731495491593302,0.4745289754092868,-0.008335004625926599,0.24044794131227212,0.3152681582788923,0.36322924533152223,2.2617641025231046,0.7388318520953279,2.7069458624903997,0.5627894405253988,0.4417263724057005,0.3845281806315391,1.521552576108627,0.6943436653064501,-1.5383711939827054,-1.8076428069642487,-0.5119147927470371,-0.8472860932690818,-1.0750132193052018,-1.5684905666113924,1.9418271613751017,-0.5085361974610652,0.18341954900830895,0.2528015067504794,-0.4141223130296972,-0.19392463973191942,-1.7811332114542122,0.39856235559732694,0.4185231277391016,-0.4304939692594676,0.406480611791613,0.28462317563467204,-0.07722818260168533,0.24855155629152303,0.6084730114689649,0.5061118882236091,-0.1372390997881365,0.17132908237256292,0.18254196229138436,-0.5861658896930791,-0.6004684827653914,0.24101874853670155,0.00013675088557280602,-0.6460755330327492,-0.38006002314883297,0.37238713113935873,0.3507654813529823,-0.41479968626690494
-0.5734745890912986,0.2663380847447502,0.42099486791172064,0.04550730845094985,0.026825338793852956,0.04193774788181123,0.7819018938121405,0.024866056523518455,0.2621415821635037,-0.02630261187117494,0.3114552439980315,0.4650440936442413,0.3265144078042406,0.29888961418170557,0.23607552534789744,0.2342922904970484,0.38760630485872943,0.2272143366983485,-0.4586220112986158,0.6920694258999504,2.2243959303551524,0.3826110722747897,1.8572917494870635,0.5175160383987947,0.7798162873170078,0.5666599633163142,-1.857374630241752,1.3152430919736717,2.0837830145564635,3.171363017669548,0.7672214158895483,2.583176277443068,0.8322399833763955,-0.4226610517886304,1.942364982827581,0.9697647117287473,1.1216803492067442,1.217221952712256,0.16119583560597786,0.8887804576191236,1.595499942288549,-0.18494813944520383,1.2643038522286012,1.0694328820725958,0.7388607845647166,0.9665669562175622,0.8660517763910612,0.3391123637518014,0.4320963253692176,0.384859612420498,0.08560268711441146,0.3814989700523079,0.5052612670036185,0.4130163696640798,-0.10361899955849099,0.13296098476015697,-1.1838262361348741,0.30674876078940044,0.32868043497342386,2.807660330166101,-0.5105777502202699,0.3208500114347135,0.024016711759474223,-0.6861485417278326,0.03389737938425862,0.014243338989383908,-0.03939089647281281,0.006351821023413608,-0.045888155833947085,0.16893237266949096,0.13219786908999231,-0.035896259158227264,0.20199742660755343,0.04891509882811101,0.19472666623032886,0.03817433715327926,-0.0149117511471783,-0.4794382777061659,0.2454652159335251,0.28838700081187746,0.3331792849379872,1.5082247863470593,0.36499479028569076,0.4365437917766642,0.21134312551091866,1.5259148792586417,1.2902169308270748,1.926796149461587,3.002695896168527,2.2501441744305755,0.05055723362320894,2.6333766062788544,1.1269924687140664,0.6053908015515487,0.6970816324157294,1.2344114143916844,1.929321391400427,0.8275250028504221,0.5828835100846874,1.453597901451327,0.6057428694560393,0.5158780555163412,0.5710745286663478,0.4600794564436145,0.8789195251298559,0.0891452760332713,0.24980955328098894,0.2517810946841681,-0.007231817078545464,-1.04383590276853,-0.03295120985543985,-0.5074459403794931,0.11306962615585359,-0.03731793172112197,0.2092514681487252,-0.5644715638543861,0.023849157297853793,-1.331502821666821,-2.200172999808267,-0.859576132233825,-0.35244267627530484,0.05081407729425943,0.31029628151631294,0.05926902949385164,-0.2973471598845535,0.008135115496252282,-0.018526594369431045,-0.018815320338578016,-0.44695615567968355,-0.00822760454736177,0.08193161929196992,0.09477375941772688,0.13680401529928765,0.05249104264084434,-0.007933064190189368,-0.2916476009416917,-1.1306572847353002,0.17199026048804555,0.17689521187243296,0.16860008240550695,0.25597291855513166,0.47440195828526877,-0.8066962095227952,0.07344684172959304,-1.5294530970338562,-1.0966610610134289,0.058360665794340155,-0.02062326855085787,0.34287827891026196,-1.8656073937130213,-0.15970935957885635,-1.3719723313911094,-0.8407974586066904,-0.7355238606471034,-1.6367087131327271,-0.35568360497234214,1.1029827995925485,-0.7584418027275754,-1.0824224241802443,-1.6570398948194323,0.29747066326916005,0.1501941986168252,0.09184150354704029,0.4790137230435636,0.04774134093988179,-0.2999308795188171,-0.6630299859119736,-0.19022675453818408,0.10537252238367857,-0.6380779086350058,0.4319401670636746,-0.10177007566007333,0.21653244892305157,-0.7311848754527098,0.11496468605534832,-0.06455259841607998,0.35743159751146547,-0.1693317281148087,-1.844124689940151,-0.652472521222801,-0.01970169404864561,-0.24773103136481628,0.006717149390902505,-0.11453185889540336,0.023239478894829777,-0.5641744641959778,-0.0278330902978582,-0.3311918320146154,-0.23477156775907343,0.43020820690343475,0.254676896447828,0.3021316119358193,0.0684619187889362,0.05692275864648952,-0.07434419452527305,-0.007165329991188032,0.04219928929019067,0.4393668165500862,0.4603204276887233,0.14665975903374787,0.9173324161915899,0.6091221831418286,0.6224608296563487,-0.27304713690808,-1.9102941028472544,-0.734475485988141,0.03347633681035535,0.9127514566221678,-0.4084339111059073,1.529184728380163,0.5937247754041008,0.3886083151581056,-0.4356056272738696,-1.440044986646388,-1.0336878099065132,-1.0268309563757632,-0.06905678117500491,0.1561936958932664,-0.5555163694404207,0.32067330774623926,0.15273011586332533,-0.26635264886170607,0.20914091712397007,-0.1540006903329655,-0.38915435694430073,-0.8041687803719918,-0.5531040370593624,-0.003375929474907768,-0.05349380362783653,-0.03153621848815883,0.16239564555676042,-0.546280186403727,-0.40597378946265095,-0.19003113050079987,-0.06701520300027802,-0.078036612424881,-1.5461553111216955,-0.3610308130482373,-0.3114726213670086,-0.037238936418125396,0.20133316596109155,0.02798888035775223,0.12453412732540205,-0.0038720503769815997,-0.35880223069756656,-0.06139314870441098,-0.08753994496883259,0.1299261965968056,0.011592495324588632,0.09592524665886994,-0.03808959068447503,0.09677026714960271,-0.011408631334216083,-0.16045800203080782,1.0719179772434517,0.4494930962108591,1.9343562790771702,0.05708614784070772,-0.07407501873475471,0.0416901090739588,-1.9819357840300138,0.014402767334952936,-0.0162388240726242,3.514274928681763,0.7056195536046554,0.5926889635214656,0.3978594845817817,-0.5454574916452232,-0.31564222042893186,2.3494066312316697,0.32201920922533667,1.1918673772372181,-0.48219546746707814,0.02209566758281401,-1.0285475135507505,0.1658085633110016,-0.468594230452293,0.2630028828354462,0.8873428469040171,0.47990840037401067,0.4092444014842272,0.15185443339852095,0.018668018135922396,-0.5115224959627166,0.06361747569935752,0.24169994807786102,0.5091020171691436,-0.3243086878005294,-0.14869967687074212,-0.1592290759590019,-1.0788430683704342,-0.32326429536068874,-0.5279166056212435,0.11462664389482816,0.7410067249745333,0.35900748656332016,0.3614094974179555,0.010242658415474068,-0.04880930240417658,0.12613158174825867,-0.020216237123444905,0.2451501668847605,-0.01277358531989237,-0.0720710847649901,-0.05681286738638358,-0.04343520182497554,0.1387913804376909,-0.033609579089362705,-0.07431739846518215,-0.21215485360824363,-0.12575371509160316,-0.15219843175719022,-0.08034181001621382,-0.9126209369938203,0.2701584409812307,0.1674620501203697,-0.23670461742738644,-0.8406937929456006,-0.25114350977209665,-1.72969214929843,0.01606519116450904,1.6549629429371042,1.2441931610555406,1.5469790613380865,-2.167789117264254,0.26006595623541434,0.45988984197835553,-2.302785678885975,0.04856638510097456,1.859305266895663,1.0567681063072694,-1.0514438508394615,-0.7230297078074003,-1.2315081531010454,-0.58769079496341,-1.0549571480700333,-0.09315169520938156,0.8530982616802983,0.3086094667836115,-0.4279292794454716,-0.5387167822581074,-0.6599031306675861,-0.6888768380620589,-0.34045407319294907,-0.05899427161400669,0.38182209612586837,-0.511637745203211,-0.01441450914947924,0.22626057804084773,-0.5525557716947892,-0.15384208292440243,0.05709235834570873,-0.19713030745301624,0.6034971107456812,0.5909381161297337
-1.9170813705550718,0.5945556149645118,-0.08747261010603029,-0.02230223808728166,0.12766684774405507,-0.013795338225639213,0.25409539348396604,-0.010346224213132168,0.004870606202576744,-0.012032936444540782,0.006035450471988017,0.05074230401412727,-0.1356185988989221,-0.10746076730209317,0.19607644982528963,-0.0732805086839509,-0.028730316563909238,-0.0033603729409091318,0.7672667916714608,-0.491265772482353,-0.06616443451004392,0.1131712356894709,-0.5434591636311731,-0.06642476243218623,-0.4800788135531724,0.023783111617312013,1.2033182170581256,2.4278118452580064,1.4426320525015401,1.2276972008546385,0.030417917647980942,0.9791403599477829,1.2617742301719237,0.5779258273968908,0.09565359851370826,1.198090245731781,0.6836618634547971,0.5807698411635475,-0.037686548325940386,0.6891254817903023,-0.6754224732879253,1.154957607392476,0.43664291892636664,0.47448363477567906,0.5171472099742447,0.23550309351372978,0.39955543557829076,0.5907953220860165,0.5902251976066898,0.6296942560712442,0.07659810122390726,-0.1445022654654617,-0.04543785376642218,-0.020301479046607018,-0.38110018167330995,-0.18373493038482422,0.518893941653785,0.0299689268579855,-0.9891158692736528,0.6183329819453279,0.03707912271589106,-0.19821482167840862,0.009966950055875433,0.03964868002385445,-0.0018804291675388863,0.12279031572105055,-0.005580889471209288,0.4115480569577642,0.03868001573419761,0.047140132859219364,0.1302225095142189,0.12448543014611915,0.10698487822253015,0.04004107669539334,0.08293392853521123,0.13167885298957477,0.04775209607182608,-1.0143700877281903,0.30257956798381447,-0.4503359990133711,0.039992717274321035,0.8045205512434772,-1.0166187135069749,-0.005574858093927044,0.029545984286179095,0.49849805998511004,0.7314269309044749,1.4447594773126724,2.172454856585938,0.35921244762657767,0.025627390741128117,-0.01899756858719414,0.32644970952644,-0.37582732577371475,0.8537364278228639,0.4427430812076696,1.1453936264768156,0.8885589558611521,0.3912997341677616,-1.4492679112761204,0.47390182958031046,0.4067264321577183,0.2462732085814507,0.19374945059036003,0.3320348664118715,0.4530647255599164,0.34742555112253687,0.1548378787698873,0.3395944435535286,0.10495877862801826,-0.04879751216927044,0.23224361996010623,0.08086725731551037,0.31747408117520437,-0.18522264879897218,-0.7774396076271237,0.07585279628063601,-0.4400601577824523,0.048300618496488174,-0.4937387911342359,0.12263839535801938,0.006335552242059629,-0.45882230828549597,-0.08230077420962706,-0.24609762761039428,0.009757183516554125,-0.7246171801038567,-0.04973450613088248,0.4950462142616299,0.24665921983640018,-0.29082988532784615,-0.21040866025448715,0.06669726910949686,-0.05728656675558201,-0.23904492078522635,0.006382087490274199,2.8392939870408282,0.23429291403859454,-0.3499716557524295,0.06893008267453875,0.5178694913207615,0.116763742554379,-0.09485409650929146,0.484033681492057,1.6145104021779315,-1.2935168878042995,-0.21249308584024967,0.24109080910123867,1.8546924109214695,3.6866240429093553,0.8307092721550138,0.7438136983362503,-0.7657499669583113,-0.6684982395326685,-0.4140511959866637,0.691853537129274,-1.7417197596127645,0.4793924830473854,1.2300141748933875,1.5999960445677688,-0.43189936717153443,-0.09133976472428797,-0.11997758785386903,-0.08558986500866295,-0.21221770439099089,-0.04452585905269323,1.0627538834989136,0.6305566597653142,-0.26218112029184076,0.005322818373600889,-0.509780236288563,-0.4172968592917935,-0.49919579116553325,0.20908304180865497,0.37828887992771065,-0.20090265226562415,0.7591793707655389,-1.4748014343422629,-1.2663861889539716,-0.8829315449599618,0.02209583499690649,-1.0921260640188446,-0.01723638015854996,-0.7771937353940217,0.013645333271753445,-0.648143689823987,-0.06362323531770597,0.445473698254247,0.08981087483521755,-0.11203234310540522,0.2708007113639965,0.08780505677254748,-0.02930119367116415,0.10282271884160363,-0.0926371633600376,1.358224467968039,-0.05685087528607689,0.9609365262031937,0.5402764185801098,1.353701760691859,0.24213289266505794,0.8148537974391286,0.4149963253397791,-0.12632991222643286,1.470437757754273,1.7806151105685573,1.7006880899095231,0.9636071229052193,-0.09984435678074846,0.5582357328085265,-0.4743914332407609,-1.047422041966457,0.6314671844348009,0.9551243224683892,0.6444869084849344,0.7651297650277701,-0.3587433536953984,0.3349912173934837,0.9105301150280294,0.2066033826258217,0.3354107803391618,-0.12380840908102035,-0.20181579750988504,0.0781711669085766,0.011603369195397395,0.7288204162822683,0.6414025377734878,0.050811368612497854,-0.14984750342485043,-0.3710725896417691,-0.30560722389757883,0.2486886371880629,0.021543787812773253,-0.08911166820249174,-0.3988332359868277,-0.6077977313740477,-2.41614166579198,-0.6465227087281247,-0.5078071030867438,-0.010771327895997983,-0.33070360280434663,0.015764693303536585,-0.32130792253139484,-0.030230590099339427,-0.4441220244523463,-0.01182974467419799,0.06760823382582239,0.1355259851132329,0.17472300803387703,-0.08551434329692645,0.0405264929243038,0.18123674199405546,-0.05616828181638737,0.014632818352440858,0.6620229311304023,-0.07095307046383503,0.5112586272724439,-0.25990852345486576,-0.033834619063012085,-0.24966344576606847,-0.7060881507547009,0.03282455021593206,0.34260146804222086,0.5190151847614912,-1.094561620349911,-1.0186016492657721,-1.2266074683917239,-1.8431162110694748,-1.3313419401194342,-1.525686679026609,1.4336938149754845,0.08026323490657673,-0.3297803967432903,0.8940472701085185,-0.7087765178045303,-0.08026610331617477,-0.018433945382355568,-0.029388254865302454,-0.004632297418092303,-0.011226271438315949,-0.12507605069989872,0.4108819176227562,0.31848019522429366,0.1476680358702204,0.3020185767663466,0.512036142301934,0.22594951543009928,-0.6108417471362368,0.08836422260007615,0.08528350469413559,0.2789356433058407,-0.30969203952004865,0.5808762348564754,-0.06073726032566599,1.6571908343099062,-1.720013279574645,-0.35329138587789205,-0.2949100392209486,0.017244428077393757,-0.7627423998936255,0.005040463613190537,0.07792522082213797,-0.012679548481759135,-0.5228784263284928,-0.000624350451403089,-0.07795717438781645,0.054700301649177094,-0.1872973046903083,-0.12880172394080533,-0.23066917222408356,0.08733643926514248,0.07846054226456939,-0.1502519623077881,-1.1457599838847232,-0.4878827952368009,0.5063211692359604,-0.2732211874330382,-0.46209299765213857,-0.3461372246801373,-0.083220489131718,-0.42825961167845,-0.1969502764634704,0.10474221496295183,0.46505317390866113,-1.5238825227169366,-2.23046060013657,-2.2276900069163457,0.48925624841594684,-1.9290136273482008,-0.2929016661301543,1.0169149321482136,1.4116215456722223,0.418920509793597,0.5353395150301538,0.6731032676595683,1.2309453212568118,0.9052436876537728,0.6370115134139811,0.5985078693650729,0.7589026067633028,0.2693259413115566,0.4339434921052946,0.3689276634082386,0.84823393364336,0.6966744555875644,0.6456035170123253,-0.23075693001398634,0.11105907471167034,-0.2856796110209547,0.1969706138008801,-0.2126270882270609,0.6150800178577427,-0.3810457135393942,1.812799798834754,-1.8991990045928282
-1.4546292584869205,1.492972020134005,0.384559056623189,0.05355664899573629,0.01013291887828279,0.0675616884731843,0.8175675579035174,0.03711672715354771,0.8133902168331695,0.04549973316333993,0.2807567120851179,0.3687990792632779,0.2361449586624229,0.1554408219915409,0.22588463178972956,0.2884804819028655,0.4913262630628207,0.3022349941621671,0.5858805220094293,0.8406969978724604,0.6484109765289549,0.24978174615161358,0.3398535758072857,0.05304166387498571,1.2552091285614055,0.5664875228660619,3.1356160092000054,3.1837528216059607,1.4004351092565444,0.5881540617570064,0.15572285119074694,-0.05769927549396225,1.083793990142402,0.1803317740699513,0.3713110512891298,0.5894441738570871,-1.2611017427311202,-0.2807732485254141,-0.5965015636211294,0.14155947623877516,0.284128710961561,0.3792749425219643,0.8408833450723273,0.48049341833765186,0.13491156066804913,0.5303532215981008,1.0513978185663604,0.7612970673667818,0.5236888641626524,0.6337911184990946,-0.7122870357233965,0.23018093117233968,0.39434695618030546,0.332943498413074,0.16684389678681702,0.20979250150499143,-0.5084387339568293,0.28667432154949174,0.21267943384309507,2.863718504874078,1.0987751353656667,0.428862509315045,-0.0111157109578503,0.13651123056110284,0.026053693599601562,0.639648139366695,0.02915850274607314,-0.09428871270275146,0.061504758379615256,0.08972375818731823,0.15894832664728506,0.3023104077994691,0.28866311155940644,0.26696502295112134,0.30993048191821104,0.01694605017725205,0.19606129119155938,-0.8193430350528352,0.38943697498029684,0.15141095388411527,0.2983923069017509,1.139818291227843,0.7246712797410159,-0.5033171763527187,0.35243718410165575,1.058861484647198,0.41113076228512224,2.787670257010226,1.4079902591040951,2.2219225136930394,0.404737180129599,0.9497149303517933,1.148461199551398,-1.7322452195138591,0.9544647712354457,-0.07013021468149007,1.5959505779074874,0.747117220299164,0.3013604313443272,0.9591335466662599,0.7386641731472505,0.8257831262538796,0.8688938868282343,0.8623697662862846,1.1179844194151798,0.05765649617465995,0.409936724071368,0.5835557327998593,0.41875779843032696,-0.3107105059151002,0.23309399729708977,0.35764913023853867,0.24635904005734824,0.19451170986741756,0.1550428192688556,-0.33210340857364407,-0.004275621212491715,0.6190608321923712,1.0214678904687953,-0.14487541903360698,0.44597080649206966,0.0630300607118205,0.40398479641277346,0.029612720039987776,0.3868677909827696,-0.012668602896439157,0.15543094835642288,0.0028102319812894436,0.1870680012220234,0.40171728774351595,0.46582533703303586,-0.006496150994795811,-0.03323792699021313,0.36317131874938463,0.10112085053712941,0.10041124078596911,0.4905426280170974,-0.03057937996945251,0.3345523519544786,0.3396902824214769,1.5068112032181706,0.4210600566968351,0.5730108997243214,0.29200992658541053,0.017484815554327227,0.4579754774257814,0.3360104769870506,-0.16603125198999827,1.5759915835858436,0.6618796226548578,0.4466785669976355,0.5036381640847702,-1.4267613685601934,-0.17918407540777578,1.281125303239608,-0.06491217553444842,0.3658118735042878,-0.2681979524788217,1.1183356137430358,-0.3918475038693652,0.22942094594830012,0.583373125612644,0.34128525429657136,0.42076986567018887,0.0923700197316338,-0.21076277730471413,0.2874774143203875,0.1668610748139104,-0.25953963524486756,-0.0942273611850737,0.29474165671748465,-0.07458645845560229,0.36176411297854033,0.053835549995538814,0.3437926321051648,0.23646568442890814,-0.31777888291079354,2.210744987667489,-1.4127265767725035,-0.3036012759952668,-0.07379905407167492,-0.2877693298427516,0.017535080100361176,-0.10445751949416884,0.027091633591117444,-0.5347013594863225,0.02985415342382228,-0.0016919157884970318,0.08151303153045211,0.2531888306934304,0.020982247155545343,0.1458169673888656,0.23501737104248704,-0.054495636251695866,-0.04507930919172804,1.7578404565265178,0.20299863020607625,1.3098499692265468,0.5311979176272866,0.4266828680908354,0.6189738291213245,1.35675183364393,0.3569434870678242,1.6090479538557607,0.04279855472165943,0.06514564406287328,-1.436372443036174,-1.342458958584666,-2.548976968814841,-0.18757842736556415,-0.6682725356146209,-0.5679490556694567,-0.15397299447408822,-0.7765727829658673,-0.7914375301847435,2.315488528077973,-1.57469119717664,0.4145323411164105,0.055791572915459095,0.0813307734467369,-0.020239017828421323,0.00998286305595788,0.12485833856350624,0.24428231313627582,0.6298051258062789,-0.016029109982492056,-0.10358278144307144,-0.0591055269585602,-0.29665909984445277,0.12494504570133065,0.023687745612112353,0.9603232554127671,-0.16410003504861256,-0.043015861396509196,-0.18635611579911202,-0.2684971442088589,-0.4268223298665296,0.07074232153465813,0.06938397729547101,-0.031979865831340874,-0.30179646358563406,-0.006598202229212461,0.05905288396680989,-0.040684378280526276,-0.39809250264083357,-0.021055452022408445,-0.17153402190433573,-0.2829855337442897,-0.4384129713116797,-0.3499616575650196,-0.42486260075585963,-0.11674724327418273,-0.5187683592335968,-0.610126269732142,-0.17109816611231254,-0.4327845414362985,-0.517381915516088,-1.211568475068093,-1.3615634319603365,-0.9530588487398434,-0.9286247037428534,-1.0814693590183089,-2.913119217475507,-1.1589638750978353,-2.4147717549743453,-3.2120751338222315,-2.5475313224616256,-2.097372369966606,-3.5775443425047473,-2.891768801989104,-0.4130055851978228,-0.23134026573083238,0.2777618341587766,-0.813102845683196,-1.0148366331877372,-0.6622984272067579,0.73574857699908,-1.4223465957852905,0.08649538264548859,0.14650161492529148,0.21417229386831918,-0.0017220422164191157,-0.42034914727988,-0.11366066327298237,0.29226209761073285,0.16355486762796026,0.8857255368076167,-0.2966575976165613,0.8451851950334353,-0.48971712206643603,0.8650893088856835,-0.12250534988372047,1.2531965022195142,-0.4286784146796784,1.8020226187806854,1.2186657460449537,-0.7667497562026105,-0.6981128883863326,0.02612260261084191,-0.7745871696947942,-0.09432344507862214,0.0759457328367891,0.0024175021928046483,-0.5668446332769195,0.018325244900516208,-0.6525136877196334,-0.5015684950964875,-0.46945958534465215,-0.5910719499085917,-0.1598862260508198,-0.23855909767912084,-0.37438158259327026,-0.3116805318834711,-1.669490830518121,-0.7395297594116078,-0.08295153176740887,-0.497554000169233,-0.6392426442347995,-0.2508362532662276,-0.4430883072930471,-0.8678606623020243,-2.0632194027369186,-1.298717014103751,-1.655572544591171,0.315236667752334,-0.07751417342119069,0.668862507070694,-0.13703801060119816,-3.8807979121218663,2.5473715351021875,-0.5144756005144518,1.4163282045817478,-0.08537686022812475,0.5104305136966558,0.2581330498747161,-1.3944363537872628,-1.1885103933688266,0.5953169626373555,0.4530077610967465,0.3780956317373856,0.14486263761598867,-0.383741884759152,-0.20660471975877337,-0.44912012437107585,-0.1469728479529287,1.4516979691203453,-0.438316543012511,0.47698994367852354,-0.5433315355315297,-0.023853399213935967,-0.6424268758767446,0.6375883434725947,-0.8558442190724765,-0.34205298608064216,-1.6814641538818922
2.5859439078891393,0.784855701981769,0.44879212446732375,0.032597373983479914,0.08786824116539742,-0.019674817197175766,0.15516113662327022,0.006998835992534532,0.18416110533868135,0.0119073763635548,0.026420342882525052,-0.058566472993392654,0.07933623858072499,0.03327182916485051,-0.016453531475992263,0.016146736766484038,-0.07551378642234063,-0.0011006618224339549,0.1408918522809115,0.4774104205316289,-0.2970341764556921,-0.11138124766907337,-0.09392654128469621,-0.12780985538093975,0.31524111719190284,-0.17775353188442172,1.5246061349875468,1.5350699595566828,-0.1629902541384994,-0.6149782357545244,-0.6942734971315041,-0.5727499869165193,-0.3841592916632821,-0.2570826938869787,0.5777953613106283,0.25734097109986065,0.20011262171415292,-0.3891992832115409,-1.178799862522458,-0.2721950874696079,0.06997964609631582,0.009539368580425877,-0.46487148191142846,-0.34042741008449645,-0.2907547265387961,-0.3187224734070662,-0.24742234274432126,-0.2869757651461987,-0.2634740538281096,-0.11961387121193848,-0.3487655731136753,0.09555921502905058,0.034832061503021525,-0.056358676538869765,0.36130817229868806,0.1941443247184017,0.44469434548700293,0.008002040611317889,-0.1568252797173364,1.1088436352318969,0.1376370430920496,-0.12606532869657572,-8.494340487475982e-05,0.04084175243138943,-0.01696147136920502,0.03422431078163526,-0.02294787142055696,-0.15073819965893762,0.004768209512438617,-0.07027008481315489,-0.09925251000220074,0.03398332684985731,-0.009151378992801776,0.07156913865030715,-0.041037044775162464,-0.07763819707401173,0.019588403574868327,0.5826508513024995,-0.13781122949702862,-0.11568340019172721,-0.02235763541832685,-0.3389256928604617,0.14982465331448208,0.08055006606211025,-0.017119987694220812,0.14263345190963478,-0.4699072640925422,-0.794612888325253,-0.9027897433720619,0.3184087070354366,-0.32195016826652445,-0.3020179360654325,-0.7491494551071947,0.6303011684840045,-0.37634397683033605,-0.02595839817663229,-0.5890876771406959,0.5270892968241359,-0.1856301612520917,0.41234678591224716,-0.40484303356434054,-0.3919830107130563,-0.3446799451407706,-0.010882192541039311,-0.2006626178659758,-0.28905982755878507,-0.26779324790375564,-0.15052724365776235,-0.08309080420534073,0.022930153607847694,-0.027325800384239523,0.20275115967594898,-0.11107117208661058,-0.048520197675666635,-0.11097931012600933,0.40427330623144214,-0.07728764209336407,-0.09435334777396522,0.13171137432549204,0.9673710462299341,0.08323713704049786,-0.038766265121847866,-0.18778786590157132,-0.00674027494909793,0.3765843936104304,-0.05643038550569286,0.1320394196223906,-0.012587026217329792,-0.1623768119386661,-0.09588654676305096,-0.050267045896995995,-0.01933156956113342,-0.08576926449968414,-0.12245407505756696,0.028163130207976558,0.0951512535603709,-0.5981047710071707,-0.6027756563171621,-0.4862902335990013,-0.14025157021055124,-0.4492977072524191,-0.1337707962994386,0.32382205900284333,-0.35325924067988873,-0.0360847066932292,1.222082203191608,0.20109386500983326,0.1279047817687046,0.4903364900907022,0.07501744297671487,0.4623887779708829,1.5887287023463421,0.07202375129784226,0.770177917092682,0.5132650141449491,-0.35535650319039674,-1.0443068316079382,-0.03939285521824314,0.8435063286292152,0.22272688024872384,-0.10048723828666954,-0.27552683661294003,-0.10905890000011195,-0.3297912757815676,-0.2574851942332836,-0.05098359779420131,-0.09722977454710727,-0.2044694596804523,-0.33471621468335994,0.18473514151981554,-0.2553891671934201,0.023277335693959626,0.05362447462373889,0.09068225052416452,-0.06296763930542501,-0.027220453206617493,-0.6374767290269012,0.8381924627366976,0.6046628950630256,0.010862424034085244,0.0060284172797855145,0.3338343767625829,0.009207718554807323,0.019027859381650653,0.00017225632328300675,0.20046389862566782,0.009761662092256217,-0.1484194106027536,-0.14433278275778263,-0.3062683213164087,-0.33219804349307486,-0.15576617766345938,-0.14991641224149677,-0.17923046625290584,-0.09198057698652808,-0.21991485534353808,-0.26235974897357783,-0.6861192541963167,-0.38861081177345846,-0.4919885699832902,-0.8505518850444576,-0.3721938940220099,-0.39119513985619,0.5203724803052644,-0.9865636406649579,-0.6174595923559654,-0.4239558729653833,0.2878539666168811,-0.06696869383054832,0.4801044533482128,-0.16740321568704578,-0.22462101348066948,-0.41992150313269405,0.9959772859483053,0.4040129407556173,0.7499910579834506,0.5844286030591959,1.1574620904141728,-0.1548591012348012,-0.3994741708579766,-0.2095712282968334,0.2878250925418744,-0.05814151048959419,0.049961123892885755,0.05001243443321437,-0.027504246677040597,-0.2366913500021504,-0.16788563698745165,-0.08596709424031886,0.2537775159863225,-0.15778266631658414,0.2461767652120998,-0.06234756761585451,0.04053211152754719,-0.16254057955255324,-0.6404109792626913,0.18159866211881845,-0.39021066886997585,-0.01699404855512494,0.03909642468111379,-0.22522449642391928,-0.034308451882275735,0.03697377318228364,-0.0063823950419188745,0.12824434783266322,0.02093974793190604,-0.08111573899792472,-0.15371079274811603,-0.06548813494672417,-0.0016958278289748324,0.02179924764587406,-0.07345338304378146,0.11511996927039897,0.1077875763415005,-0.6959809730638501,-0.1939031419367066,-0.14947722539365058,0.18026313227602947,0.6977783210717727,0.09554443626940474,1.6897055425338248,0.11491053162744934,-0.25045671786575935,-1.2629716954178394,0.9327440872676835,-0.6480894396302274,0.6615116489459943,1.3824116941099285,0.6284204693856689,-0.9922505993939671,-0.9502332355468885,-0.42666652884148015,1.1655307459309934,-0.8134301215198838,-0.054188225746160126,-0.5363361008259764,0.0696314028539623,-0.7144257626712871,-0.04329771781464595,0.02791584464310597,-0.16449477583335803,-0.3079936566032924,-0.3257731758010547,-0.25763234552631037,-0.34364726974074244,-0.3567256813325847,0.13632718155124246,0.0802368079584785,0.2766492705839456,-0.14369820704902211,0.23992952715755678,-0.06879916852972576,-0.15361751126658782,-0.17147346613201564,-1.0840704043282303,-0.9530809932417785,-0.7071297429479364,-0.21010949329201944,-0.004893584514169648,0.09673808171067054,-0.004605372812584704,-0.20968334403568764,-0.004812964283180295,-0.07753193421778383,0.00014504670573565036,-0.021877285083115112,-0.1457628505675648,0.09151049068495327,0.12352359613601363,0.1385376693799582,-0.11049561283138748,-0.07267272086750234,-0.048050054147022944,1.1809345963216484,0.26283099615287275,1.4717426304305303,0.06452666882513136,0.13070906121072923,0.10003489788790756,0.5976766885102522,0.20703885243516956,0.6223865871909501,0.14542564987969414,-0.07449851608932896,-0.8440174315603067,-0.14698492256641157,-1.070765862926176,1.260141331109013,-0.5606758872055955,0.7752122325025653,-0.37617792464301736,0.2899878798682368,-0.49689396277427567,-1.1177621696261641,-0.39502648899338033,0.5557279746788829,-0.6359974070276005,-0.02988972881635407,0.017016591951912324,-0.12469071662427987,-0.16846477503984916,-0.21523485786085172,-0.051076121257475064,-0.32440764475666123,-0.08020144179886594,0.24124582977664666,0.1317846351711195,-0.04931815431011522,-0.1554903279416552,0.014449465349814616,-0.10005140245897055,0.08392884216359824,0.038404116662636587,-0.19223244989086205,-0.8726050149753398
-0.008806831675005608,0.019899394746360502,0.005787802875337668,0.0024052444718473615,0.0185238157993741,-0.004334536895440247,-0.004592289338725847,-0.017581751220090074,0.0020463076216746664,-0.0011319071979533485,-0.00014775379027447694,0.0055861696787416195,-0.015669891768579178,-0.005035110001461367,-0.008603114958711041,0.011725149271734375,0.004154470139259789,-0.0008481098707717389,0.003363709290701067,-0.016577567941239307,-0.00454274463566358,-0.005546331491096091,0.009687472287455551,-0.008322700053641052,-0.004533571586635377,0.0006090113836747962,-0.00038525655950441453,0.0004529942409350043,0.003375378720394472,-0.01814183978764623,-0.02470327422815962,0.008426537721921711,0.011087586939790799,-0.002936969511432456,-0.0008206549505840065,0.0029891349873387933,-0.016690507566502717,-0.010009805404170166,-0.009474002015842047,0.01119135182052624,-0.017065739113451668,-0.009050490561730566,0.011064487342563385,0.001976536343820773,0.0032529667531832973,-0.006055340601947056,-0.010221607773165739,0.013163822530181427,-0.007744351951444216,-0.014306340922479224,0.015462230650207773,-0.008695265203203632,0.012901598460216213,0.0022904488067924324,0.009387699020930165,0.009372821619197074,-0.0014295508620711917,0.00574230988061755,0.005883264438628776,0.010157255107808488,0.005286482786713843,-0.0008400596509619511,-0.008551792307854493,0.0074740956149183775,0.0021505446118980304,0.010360990303700947,-0.004007392988187002,-0.003150759274532914,-0.011904273458956354,0.016570409144239982,-0.017531143980460545,0.01895782457188229,0.017492044874527785,0.013726003252171623,-0.008530439985571325,0.0010126615347232672,0.007090276092268493,0.012390330965995407,0.010419657481118453,0.01749012470548796,0.00851634750826011,-0.009719008063543918,0.011395816556403772,0.01084030997862107,-0.015273366943199387,-0.004307230139624926,0.002153421059619981,-0.01442492356932244,-0.017444568794409913,0.0032788309231375256,-0.01110090662538709,0.0010036264925205915,-0.005511888988454545,0.03406400100107225,0.006366494416791497,0.011104408545049004,-0.008043833760947899,-0.0033663980597980207,-0.01324005025915838,-0.010750017061556405,-0.007197368466025431,-0.0035857219814949166,0.004251977504503749,0.002615062244458354,-0.0029163555037568494,0.00917425838877142,0.001959087311951314,-0.004620098751967754,0.005108128851490809,-0.008200150589072122,0.012317418133404461,-0.004888541459592079,0.0006184312272832194,0.0033868463373433045,0.007691487298079072,-0.0003067522879555122,-0.001330363880360539,-0.0030601651133253726,-0.009002347806448558,0.0026883235638417956,0.026449492799602303,-0.013247525450082268,0.011991246186404757,0.00796389708456312,0.004997407695093979,-0.024770258066680654,0.003727290165961797,-0.005954386890581531,-0.006239115576100022,0.0050764632539159055,0.0012853003513368312,0.012449025168242416,-0.005325187183756009,-0.010857420588379674,0.02537372412058382,0.004824969862701358,0.006026012568104343,0.011182444177161055,0.009982821857471687,0.015721835330610515,-0.007759705963795595,0.01064028553927645,-0.0022082723342151033,0.008306367138752253,-0.002132176491830825,-0.007746174748823309,-0.01250853987163785,-0.007931036067035274,-0.008459734123333316,-0.010015436735922171,0.0008051956774817651,0.0016444957927759184,0.009589318500144153,-0.012323863813561861,0.0073859150742388415,0.009132565255048276,-0.009498220050714892,0.006725589940314998,0.01677154965466622,-0.018174316704611674,0.007166820613348238,-0.007310419824352558,-0.003032610582729232,-0.0008024003165858067,0.012990036174207938,0.009949031801317048,0.016144375958489124,0.006554313184084745,-0.012421225715786067,0.016395922759413546,-0.009394333997410294,-0.0038100212569803647,0.0037372448865543627,0.011919033982435432,-0.002811649131061848,0.004897261655810761,0.004434415794698215,-0.0051166358241054935,-0.0008431903122636383,-0.008882861816304535,0.01077780323131584,0.013851370016786426,-0.012962200995588107,0.007004887147590851,-0.0026090225017551707,0.01537917155877486,0.013382033676063873,0.00417549994909114,0.005888136026651396,-0.017419450682714274,-0.017600685215223632,0.005402697153999699,-0.0051704697563885425,-0.0001922725728169056,-0.003012572984449207,0.013545337523652891,-0.013135931091670662,-0.001001546581881983,0.0017791312951420649,0.00811612033125723,0.009919414171433055,0.018097402164128768,0.010050857322936115,0.010018303696426938,-0.0016534025447212134,0.018828407498223395,0.003188300650136618,-0.0036722326156972645,0.0018650115411680923,-0.015294851485811051,-0.0009471447329135477,0.02222428797761188,0.006067831231840998,0.009347469990062491,-0.011558958278778146,0.01002987183242178,-0.01389784002061,-0.007998059602632135,0.008299868191077484,0.00016091526821938399,-0.013382047060077732,0.006594886935790336,0.0035483870980335254,-0.003053617419684993,-0.0021475889926178605,0.01549294588044725,0.0022186341301149073,0.012463417149553126,-0.004546592805624023,0.011401180464757603,0.0012241218311575726,0.004586897917840504,-0.01710685446909675,0.0017713461221440935,-0.001630003644109125,-0.0016851854944103005,0.011676910279258395,0.004692608408447798,-0.010235261872352392,0.005309462007261098,0.0054928563208454335,0.0017656827041785915,-0.00942532942749044,-0.018215063940703945,0.010105906079431612,0.0003198989164386997,-0.0029354128239415093,0.0030970290946735995,0.014943328784073841,0.0028602842464128596,-0.0037310645286334223,-0.00353697644465732,0.01710537828823396,-0.0036295343884666887,-0.01031231689383507,0.0037282089761344144,-0.0015048994997042778,-0.010985391484841673,-0.0004297021485878949,0.010293639885161647,0.01669576536253213,-0.007169234464496937,-0.007892069392274248,-0.02125614245265738,-0.0027166984648960084,-0.010021200024304676,-0.017184812440743328,0.0026202908780079124,0.00201938785570782,0.004909038903035074,-0.011511918260114242,0.010321352006868718,0.0009171853177868145,0.006575686127219094,-0.010984259364118032,0.004473976425429423,-0.004544757295845377,0.004119219908685211,-0.0036953158322740377,-0.003871243022417429,-0.005488793549138165,0.0029386074950921003,-0.02532502597354641,0.0024592516831320158,-0.00746974552828978,-0.004978801272774708,-0.012513122432255948,-0.001729733256068465,0.012730796596607037,0.011854551738733647,0.0062623237338788025,-0.013305601140575682,0.0027068917614197405,-0.006324586569847185,0.0018716831786741999,0.0026816990096673217,0.0035407337185729636,-0.010302418635918182,0.01924634793271626,-0.0009394769761564773,-0.00874324240365029,0.002160840107961909,-0.002886412737803115,0.005306939949877271,0.014778804192284136,-0.008741282516440494,0.0008249363396014024,-0.005665239998063671,-0.0007129408627925582,-0.006941064493728663,-0.01571752244743522,0.010929314986882443,-0.0072103539224953675,0.0021941275498860045,0.012921117363641356,-0.007111233500386217,-0.0027038758736273763,-0.0017145498593958532,0.00585980331510206,0.001837810749212963,0.01182204055869482,-0.004693831187020685,-0.011125091667362965,0.001273279017750957,-0.004837284010304157,0.0067253483480524115,0.019891156479628098,0.0064952179756657255,0.01650016529383861,-0.005071385552395793,0.008030098974178708,-0.013828347589157842,0.016223489924331785,0.009032534566396841,-0.018775058869584572,-0.0067436692728683875,-0.010050538814766181,0.009211946639563505,-0.012694202902394622,-0.005535762991875889,0.0004922922715822171,-0.004467735146994705,0.002757632255054144,-0.005496111803036395,0.0015635874643243342,0.009014221549810266,0.002727674331057837,0.01117289472595938,-0.011692514063027066,-0.007938295902929379,-0.006604808618842368,-0.0008829867864116951,-0.015355624652716405,-0.006133973721001759,-0.010183695699386692
-0.01978326002655758,0.0051232246509645704,-0.014298406724449493,-0.005010427285195134,-0.012080835629419015,-0.00020712002568097979,0.029246922710072894,0.003800864658942978,0.006691900669675993,-0.014800649249894271,0.0173482418816609,0.006397478422690514,-0.0009967398683665989,0.0006183781130682188,0.014926917850663994,9.239819927693057e-05,-0.0060714442313205665,-0.011268557753498233,-0.01838321445471438,0.0020022616336668304,-0.012446208262683237,0.0005795589811635363,-0.013635000231261095,0.018539079534485105,-2.5492121904269268e-05,0.0023500370727369143,-0.011072934346319023,-0.0010836361916802448,-0.005693306899733026,0.02061110295841972,-0.0007768132497493626,0.01733096499091286,-0.004317416828104067,0.0068157110176116364,0.008684536592115447,0.002001602690112819,0.012236921210921101,-0.009446025196332102,0.002791310464339231,0.000865232447495615,-0.007386843490201666,0.008857797569332682,0.015527087181313971,-0.0010565108143891255,0.0006396816966810372,0.006548259319512812,0.0020066448859943436,-0.005721127838812668,0.003536428129719463,-0.0029888038374047124,0.0069072597137410765,0.017760079334760773,-0.007430092905848128,-0.005027687682900566,-0.007820789909858772,-0.005326360740786837,-0.015162841760093592,0.00431792952361269,0.008802631311044706,0.01818495571220049,0.002691803405960366,0.003864968037126443,-0.002266146760090591,-0.0003939745501559527,0.0173179186064284,0.009862023474049042,0.004422356980824025,-0.013241940643521511,0.00785401196254164,0.004016120594292063,-0.0008738767663592435,0.015304200867787195,-0.01448503905233305,-0.01026024471298988,-0.006333988025855479,0.00040907672595733436,-0.007395457125627556,-0.008898565885060586,0.003964579142733187,0.005251969196372293,-0.022795231287992834,0.015132549080826235,0.019745010810287313,-0.0004402522215630492,0.00980414719541782,0.007840435974915717,-0.006695027927504861,-0.004743052930884756,0.015225780986342646,0.022062674172149892,-0.017276181770822255,0.0022551883764264573,-0.004477288294833509,0.005778654069028987,0.005102012235191522,0.0026308667433145266,0.010026867188107146,-0.003878464430546986,0.0013830555838559434,-0.023538101672274343,-0.026504451924740664,0.003713944408322345,0.011739569444870462,-0.006727434985544934,-0.008665775798100512,-0.0022277626848166156,0.00849822239248875,-0.0008308352078018108,-2.2092734186251573e-05,-0.004748488649221524,0.002948573192881398,0.012234335222494704,0.002867342691051303,0.008763508030101333,-0.012407824293219486,0.0030951335643149306,-0.00476932818408985,-0.011471670347438026,-0.005841502570797713,0.006942842947013835,0.0009526819913520879,0.005037846678972507,0.009450981478765132,-0.011714799756262108,-0.0035183885759222876,0.011092444862623148,-0.005423763321392711,0.001169746312452995,0.006127428338814523,-0.02101835405790664,-0.004909724360667029,0.026137014909614485,0.010119694175617805,0.0010240432950058404,-0.00013450900194984265,0.01963708522088887,0.00041563823592409566,-0.00756701319417088,-8.129544297706374e-05,0.011432554547611542,-0.010885722496948202,-0.0002683558291181696,-0.018569189919478674,0.01121103107444462,0.004952489872210934,-0.019139727057459456,-0.004337454837464733,-0.002938480296848138,-0.004755468334816797,-0.0016507967961821317,0.006195816400885181,-0.009365595294417293,0.01212358947333663,-0.016902578051231205,-0.011398584787517575,-0.015239190671173406,0.011669368559255131,0.012575257277736306,-0.00413495477336305,-0.0027086209528031065,0.0017782578664094352,-0.0018968681249865347,0.0005943912048294935,-0.004363561775286153,-0.002161118687393001,0.008545712245343435,-0.003097836815375263,0.003661782390067186,-0.0069253911420092676,-0.012597682384066895,-0.009785630613560962,-0.005467429099364168,-0.0026692650088325875,0.019195308618832903,-0.006045542723273755,0.009460965202833037,2.466577773512674e-05,-0.0040715626113735845,0.003772195430500838,-0.002930561442784524,0.014387881586356113,0.0062925014795018,0.014843265553675,-0.013140524334044308,-0.019449524157862778,-0.01680387877832801,0.008222947456536237,-0.017163327965253064,-0.007823456789732116,0.012017547758820553,-0.00698440672662067,0.013230598766924333,0.012798344535271783,0.01165489928508535,0.01242590016706899,0.0036833669012067845,0.0011486621280634719,0.014858033966081981,0.0003830743721812207,0.006082487149845248,-0.002477887422150744,0.008980269778644022,-0.001543292830695773,0.004641448785586452,-0.008575016803006309,0.006079139632996866,0.01752867991493115,-0.011748546283989037,0.017214181498236492,0.0034430291643424847,0.007854025587426632,-0.015257350190296504,0.02084536801902548,0.013138133220570797,0.002912213251746944,0.003445591389003976,-0.0009358212212041075,-0.005420667977321,-0.012876317124323206,0.0013368222654514565,-0.012800453137428836,0.011582131888678166,0.009503197491715035,-0.0030501420822587806,0.013972872154497653,0.0018977016004407632,-0.018814288454520822,0.017919493707797184,-0.00848736191668729,-0.00021159557122917873,-0.02295733010434409,-0.0014482863579478827,-0.010662873807208718,-0.00560345531297482,0.0037796780726077283,0.0007850776037205302,-0.005836897253239051,0.015916189065566785,0.011166553329460137,0.007334759359373927,0.007463658123123078,-0.007517879046080873,-0.000969098213633097,0.007371147915272255,-0.004764479614109769,0.0006298446715172608,-0.0013067421649332349,-0.0022592947207929325,0.004847994456459092,0.002230965384447049,-0.00633213429482401,0.01956977691872861,0.01133242530942938,-0.004008354822989828,-0.0179958768077539,0.02561772276978085,-0.012632328493289942,-0.0027630145009081754,-0.00019237953894984044,0.0002932276220010004,0.01700263148041521,-0.0054710973701681724,-0.016531042616800357,0.008074031689063258,-0.010746599844959884,0.0039053809700123673,0.002340980430610418,-0.015681202143105078,0.005943681691448894,0.004596848810565948,-0.004508525715987786,-0.0004455555035242782,-0.007191134765728357,0.02076066799385714,-0.0004290991467551858,-0.009824911419752932,-0.003225872807961745,-0.012227514151087377,0.017233024646796737,0.008803629502334495,-0.0039242517196467755,-0.012258024257267913,0.007461349581776646,-0.007054476955529987,0.0008552492283749606,-0.015605887298457294,0.0010596151499628478,0.009303410526905358,0.016239968720480544,-0.006810711470717547,0.0072094701714735575,0.009082587234130274,-0.004557141300781068,-0.0012710750773879515,-0.0039161900164993895,0.005781386082440575,-0.013870856484966382,-0.006739759545708653,-0.006496340471510435,0.003976209924296839,0.01444758969216177,0.011073747361968844,-0.006793059031305547,-0.017640475794312056,0.011045424418912814,0.008431495898486262,0.007039560460472598,-0.0025806112890651685,0.005819721281037575,0.024258680460623794,0.0012200196981955714,0.012172745021065051,0.008157907514578532,-0.0007036896242968445,-0.0001522027626645059,-0.005437699494992621,-0.0023563806742345774,-0.008949650168551296,0.00689715952306406,0.0028576415466119182,0.0030677663499573114,-0.007600715164336456,-0.00545944776084474,-0.008983091694638607,0.004688777264139452,-0.010169090559237655,-0.021906301532829863,0.0017600768496530395,0.003176463230076882,-0.008988734818570099,-0.005846941670741338,-0.010012339319932763,0.0062415937573809975,0.002231657247223192,0.00427263766022077,-0.003583754054917964,0.0025695413509683766,-0.0008270956417661586,0.026369491789128445,0.001915536635549296,0.003780509724159983,-0.011153497336396225,-0.008627440650864312,-0.0024963080455303465,-0.007209754514159116,-0.009014073650689554,-0.0019800522472641696,-0.01302243663020689,0.006647232117582598,0.01048011753928292,-0.005526254391756344,0.0051869518290989305,-0.0019060956316815673,0.0006154149492177732,-0.005766773214640173
0.7052965883135704,0.22672263461627473,-0.06173823745869542,0.0009406240660515625,-0.08837888980413111,-0.022376147694318557,-0.29098008020343447,-0.0197488305955702,-0.07751048865169864,0.021305222705177575,-0.05788439117029613,-0.16598763310042297,-0.09177935194095424,-0.0824595781893933,-0.10045632775016233,-0.037853193700233524,-0.057088299655865676,-0.029807188505662687,0.39959242374261555,-0.261776778513688,-1.909829511647003,-0.16569043897027774,-0.4563615665577915,0.08910399247714988,0.45294871721314967,-0.09989400938263412,1.4380754459501932,-1.5342700484773257,-1.505822064027361,-1.8768195072868536,0.5043354365766368,-0.6696165730845492,-0.10572331298497696,0.8690961573562822,-2.4102045839437762,-0.9264260773801752,-0.8882814774582262,-0.5826112481913973,1.631581743952602,-0.3485524456854837,0.45538084283471236,0.11567104116704752,-0.8219760721767622,-0.738323028891584,-0.3208739317578742,-0.44174026939087063,-0.3415026300699554,-0.07592793649850522,-0.20217689532018057,-0.1509262072730324,-0.4897642392118991,-0.14003951611936424,-0.11244570985989939,-0.22130406277753784,0.4013478652922752,0.04595382062121611,0.38280468812536417,-0.12139418436455462,-0.049822892839174404,-0.8551788863949613,0.3222309189160097,-0.2763448790015828,-0.027945842715641413,0.39037830099520593,-0.01254449310252152,-0.22229219706693337,0.04262702428383683,0.08355583028015945,0.03588133170942046,-0.07358115226378885,-0.12163118123377283,-0.027720859270157508,-0.10863564333673552,0.021213132618933133,-0.0398097454706457,0.17215098815850569,0.1350681872276497,0.3941989867502926,-0.03547404646748212,-0.21063934291910796,-0.18182957300753957,-0.41128877198526376,0.1453381824598921,0.29255741952237535,0.03514455062374937,-0.7070638208474415,-0.6862494682055288,-1.1531533281208481,-2.0143932461642926,-0.914821646918993,0.1603371721902493,-0.8652020393250132,-0.3490310338950296,-0.843213799588117,-0.4279289735357105,-0.9784216722791794,-1.123762516328277,0.8865710290444215,-0.2882095352470727,0.11337934799182386,-0.33238425235576435,-0.4559295557682555,-0.47547493256652407,-0.19500150114489379,-0.4617317771980775,-0.03241592698735655,-0.037121202499467806,-0.21532294357374776,-0.05686609666439223,0.1264275411206147,0.07789752917516074,0.23269345146830525,-0.002649216265644897,0.17943446774081664,-0.057429630556879274,0.1091286582505869,-0.028365312540707312,0.6857194681762496,0.5311237128595512,0.5785563700959107,0.24964409264978854,-0.032573386928513234,0.1233341262590645,-0.006561090610925287,0.12977260234306814,-0.015032579135599498,0.5174199483977521,0.051491751975113305,0.15512022966999836,0.0629559631078116,0.145123247047225,0.16210845786956157,0.04575314927404457,0.15755558191540775,0.23961588577630066,0.28357055979954476,-0.12388690336823754,-0.08987588730612385,-0.3207593329062702,0.13749253729654942,0.7015939950168265,0.0027181762790619516,0.7787635283498555,-0.045104576169234994,0.12171892738835942,-0.45556328476803837,-1.0063235491360452,0.6100849167242315,0.012290170291283035,0.23198327308177408,-0.5673790801016361,0.6883751340557549,0.08374548592388885,0.028300956249334357,1.2894667602418945,0.42750987964353754,0.42979105137576024,0.09815290252269847,0.241703222165413,0.22274969097582475,-0.14568670382018772,0.05060094811648037,0.23227996441999674,0.13572413560772556,0.08808693206075326,0.09494680317236423,0.053118954345535686,0.06443044311987028,-0.025857573396327164,0.45983915639605255,-0.1613267575334185,0.2586490610776976,0.04811821180816808,0.31953340944423786,-0.22079698360643824,0.1243925067871871,-0.5222775990545361,0.6198039115450845,1.1047435086017143,0.311521956302124,-0.00969961015676118,0.8756566499886934,0.019997646182979,0.20771249448700657,0.015896032055160606,0.8696465584624855,0.031104009433763402,-0.019723596116273404,0.10024014890459378,0.017906923461591562,-0.03786049420473574,0.07191820684009284,0.13218998124949163,0.2095493125959475,0.1740249746019119,-0.3859163321494323,-0.007430978164483887,-0.1631188813128524,-0.15266751479731883,-0.03559430714074093,-0.12097429520703618,-0.01758163555360935,-0.17995261914284422,0.6933626192688738,0.9229749533327373,0.05478157779621587,-0.8224428571501824,-1.6029966856881892,-1.2627903842777706,-1.0015968204502532,0.3663124084028827,-0.7797599898749502,0.05750903326585594,1.2673514491204536,0.3819218953964998,1.1032279652520613,-0.3865653290218928,0.25162582063813077,-0.06268968784589389,-0.21663525612591591,-0.23561719907396994,0.31658477317732253,0.11565760413365918,0.16356506856886158,0.265943219286103,-0.0460919695318514,0.15523402431397632,-0.24548392381480105,0.18034251796352982,0.16545008783625548,0.22198822427391157,0.2716386844353536,0.336397827676701,-0.1985614891776002,0.16639538568023418,0.07097959649082448,1.24721907588046,0.451498718462864,0.13678694446183962,-0.007215343646804475,0.08817226080656153,-0.01961251963456498,-0.1982801794952273,-0.006960206631213591,0.5147268133146646,0.02091149141541971,-0.058979910850254356,-0.09198164899164896,0.007878797743183358,-0.02940808199454662,-0.08026654561850119,-0.14211372705560746,-0.0708302217752654,0.15571807037899554,-0.7207982893756586,-0.24048835519142073,-1.4160680770055671,-0.09399408571608128,-0.12859994158949933,-0.11441953414215354,0.6491984228856631,-0.02956675551788467,0.06882073684896196,-2.9391453455630225,-1.387921018993801,-0.4331427905699361,-0.20097514256957966,0.04890699505004978,-0.22746665832104213,-0.5024755293997795,-0.5430956932454473,-1.2590766246027476,0.1343952276387567,-0.3703420130839024,-0.18169521155244997,-0.509881728896264,-0.13864381491983585,0.003216877494928227,-0.3985394625208958,-0.3192744548200269,-0.37885857544319174,-0.39172824315275223,-0.20678140550566385,0.053361645982547466,-0.2751894121342336,-0.44237032586045455,-0.08029460374462569,0.15578591932964664,-0.023823362528558534,0.021236097145353895,0.7289852813413481,0.07226571216128477,0.019546626915469476,-0.09968226049663391,-0.24283059835173593,0.2512644061635662,0.09437594890916781,-0.22291996425150307,-0.014574301275637724,0.09263979603312301,0.0007749746366775611,-0.19650376282324145,0.040697569403969715,0.25146057515013226,0.057627195118570465,-0.10240032540322709,-0.15443381102052764,-0.08420592028710505,-0.03841054213121329,0.12935706616233228,0.03031046805655823,0.08870218373562022,0.06962877919378567,0.7200845079018436,-0.14655412958429145,-0.6105942064236618,0.19909756226160286,0.4589290991753239,0.5781823336278198,0.5617005777155589,0.19685595201378392,-1.761184292074164,-1.8304238380260307,-1.0391685946983251,1.2211571414906226,1.0197961700085423,0.8790896298512998,1.1848340629665262,1.2863213750192333,-1.3951378754126746,-1.0621412866216782,0.09414002416333336,0.10847932832923186,0.8084159836150279,-0.12095461741853512,0.5768135183303867,-0.22927983182959238,-0.6381239211119561,-0.5324815387044047,0.06387403955151279,0.1815373144452923,0.427107425582799,0.19002991490591226,-0.23928438553643888,-0.19033455133094151,-0.2596718227750693,0.03271840489866299,0.03762766071324545,-0.030866611613398216,0.010897617557890808,-0.1243992462459555,-0.23147354068465673,0.17736031160654947,0.004997987425880665,0.040278182704362585
-1.8754608484612483,-0.030928236132590204,-0.0564567444242203,-0.012574707952897017,-0.03706932427928495,0.0005512976975567789,-0.12353822064378131,0.0030661090426738003,-0.12786847958855313,-0.01795501596619811,-0.029766129295255437,0.015553915166972672,0.03283833653529662,0.001036892949341854,-0.15989774065487128,-0.05025604436817629,-0.03272613455002736,-0.012079241559680352,-0.08521803393361044,0.4661362419762044,0.6210502336228898,-0.08393123164423218,-1.3978087776622148,-0.6017254164828734,-1.8866993295892114,-0.06342752303250888,2.4169201658258634,0.31509831116544895,-0.34223040359398815,-0.43985652181174095,-1.697333075723783,-2.497855702595226,-0.5989922034728759,-0.8624378757876611,1.9930992696813563,-0.4251010329719137,-1.1120200740526873,-0.6485598460652386,-3.277744429654466,-0.588666548442947,-1.902154745086125,0.15620881398368247,0.20897447787750703,0.1285561188205221,-0.40234270181110526,-0.18402979352000576,-0.10276069879608445,-0.11027060979462514,0.058833162802204436,-0.07593054468981242,0.52489241554843,-0.07978014726058151,-0.454029693973842,0.05038305533586725,-0.8722375583986544,-0.04217157365885649,-0.19294431203732834,0.04949499703398407,-0.05146676048969749,-0.4345285930163602,0.04825648858200052,0.0823621716002119,-0.03968096953936303,-0.13560076970587046,-0.03720117243890603,0.3587381050987847,0.0176869030203447,-0.37860964769982386,0.01353656550589136,-0.10215848368209691,-0.0751798803134833,-0.02589289536169539,-0.09386374244307616,-0.08883071991989389,-0.09934194175893452,-0.05518785658736471,-0.11474154968596097,-1.1344009920622744,-0.4982020322748938,-0.36594345574026815,-0.052385444885166076,-0.5789762212757437,0.8158471991305826,-0.9454931895575194,-0.2151951028195231,-1.1841246915700891,-0.9291170805570556,0.12033019941699173,-0.08042791210325306,0.9463402642684413,0.6102583284854666,-0.7681945981570869,-0.47675985651879865,-0.12673788918162607,-0.22511574356064518,0.42404809862040305,0.14919913826546072,0.2826141853142725,-0.2580507104068784,-0.7879899850870576,-0.22918821402886502,0.24531508619490236,0.34284221561280087,0.13737100946734745,0.259683455660137,0.11926300412353744,0.037713869909938205,0.028343052369555845,-0.08438961524512942,0.5431302934937471,-0.10302510078743271,0.09286294098537,0.17102297597051347,-0.1301507163838377,-0.10950290176726842,0.03024101328245291,-0.06415569022430624,-0.3802081934236746,-0.025327737494512878,0.03863406208196169,0.5105172431326018,0.028866583586501335,-0.08167728473218783,-0.02277208462667668,0.6213776062841302,0.008049009610118509,-0.4493210870266848,-0.027863705477994084,-0.1594870304689861,-0.32970260360504394,-0.07289239662065937,-0.24523848513613022,-0.2301457908553168,-0.11973107148106517,-0.2616635072205409,-0.19620054072712603,-1.6243394520080157,-0.09312805956982606,0.316207503169785,-0.2540826300250963,-1.0230360585104115,-0.23811915000454859,-1.0610232435744604,-0.5052736715283799,1.0946885772359138,1.409473372313084,0.7573143735435612,-1.1528852954211262,-1.0454704731407278,-0.979710985934135,-0.8347820332506553,-0.7796311730959303,0.8633975489767924,0.5506596269725866,0.22638115868772393,-0.618634410737896,0.4237834789826367,-0.16015765902197743,-2.0807351464437347,-0.26595052724958296,0.42292028097822987,0.32463252368557227,0.17781315957391977,0.030420730980555703,0.022284512654952994,0.10250393360718904,-0.271999690213621,-0.32373000101934996,0.2955422837419349,-0.09772123035605186,0.4702642294878366,-0.1107721437406962,0.042101941140156904,0.08417019747398222,0.023111219310974325,-0.16043233368568122,1.245155607783755,0.8390845141143588,-0.17580503299067038,0.779710590960683,-0.013944961483402676,-1.179408282224036,-0.06728843271113152,0.5258984373052017,0.009988267259073967,-0.42293563207017215,0.01984634996925117,-0.265116388842432,-0.2891642772605913,-0.33641826998700963,-0.39852460807373374,-0.35236830744535197,0.034118417358292255,-0.24397689871542183,-0.21850715956524736,-1.2019663889866425,-0.5273850476978593,-0.7913477979465036,-0.4986126255841401,-0.3971360820404134,0.06760381211132067,-0.39570961644462005,-0.6693520371999495,-0.9509756326277213,-1.9725506052772876,-0.4957074773695869,-0.802590727162594,-0.5900791367091804,0.09502056224483495,-0.4805921168399613,-1.74152281146141,0.7673216575024396,-0.1308454186956439,-1.0644435057882715,-0.39574563505377003,1.929136355802352,-0.1363683975848895,-1.0574042724711281,-0.6307135631581035,-0.005817949719700597,0.06393499441266544,0.11139545225502512,0.32277114995999173,0.01202202404548974,0.35647860695426986,-0.04472136676396839,-0.3991811459217864,0.6014480977735587,-0.29638203123429263,0.566051315451951,-0.2871274254600105,0.9028290644165,-0.43622497943135313,0.45022436558305967,-0.28906643027808443,1.7778231407247278,0.8627764122755301,-0.006774000713745015,0.6051437435434494,0.024424872650853687,-0.49755832992730986,0.003978690976133575,0.6525053943141716,-0.0011470722964667041,-0.5398180179570116,-0.0011426860762718712,-0.016242079287019002,-0.1000451899450141,-0.3048729841960112,-0.16638681432106261,-0.08790474851440858,-0.0625430808131723,-0.2071604227139359,-0.35879992903252644,-0.26209573535402253,-0.11553933908370329,-0.3406176628321257,-0.5325766766558232,-0.5411467439487883,-0.3847228369315671,-0.29247823770889747,-0.6802693621549024,-0.9460979556730812,0.7128386503335222,-0.3933656757312996,-1.1853341153777617,-0.5599101355347144,-0.9502809653970655,-1.3791574172046126,-2.225191534537282,0.6178670145902888,0.32996953063518997,-1.1290264798212424,-0.22413209358814112,1.6894981734122037,0.24741753674883857,-0.3180808346856514,-0.6091923063816904,-0.19974108734161852,-0.010236296132103933,0.22357422446098577,0.37318868193062404,-0.05412541027748861,0.25907145253521396,0.4353866676697483,0.16733636960571743,-0.229655400331302,0.4804081769523063,0.5056296726931159,-0.2588560997986001,0.09853921745537368,0.610213408024727,0.8361408257688239,-0.28766116785854146,-0.23527264947011814,1.0659898757142994,-0.5553013778324228,0.7769508310027549,0.055470790559804826,-0.5638533217581523,-0.03645199318936478,0.5651423321802921,0.027013034455908018,-0.24707127467913087,-0.022568218809414304,0.022386288601431412,-0.11093887514570266,-0.1392972050618153,-0.05140244719855327,0.12232315182787251,-0.056949849848528175,-0.24216165455598723,-0.07406191207686554,-1.026510303031507,-0.4863863322429094,-0.22041621197596215,-0.23316536230341814,0.24569355419232386,-0.5601549678003329,1.241842649665966,-0.40246191446582846,-2.1787483677646478,-0.8053468170929818,-1.9437005774318816,0.6730827874648269,0.39349815007593886,-0.1497951657321861,0.6241598766381353,-2.189672271749849,0.05684235550892641,-0.3105437778617311,1.0519535698135358,0.47157626524730034,2.2666831823540496,0.9880119065922288,-0.3913977466193922,-1.0816890519492481,-0.013154930640642066,0.37518090999125503,0.49245451359782577,0.5038797386650544,-0.17439111562871687,0.35050318708799083,-0.20370319715675198,-0.2508979090446574,0.2530725420573483,0.6805812481951773,0.35762688910108015,-0.44868574749298873,0.6161660556246829,0.3050856034915456,-0.2307770701798606,-0.2926929244332189,0.11177998179743963,0.8795874640852015

Wj
1.4087378387264555,-0.26859197432572635,-0.044381820343050965,1.5616630895842285,1.6987157694425137,-3.121457783279769,1.686856582976226,0.006529851549992473,-0.006183475712332077,0.3363450100683165,-4.071631947663954
-1.063919270000552,1.5875282855051396,1.7848977963443786,-1.491598127409183,3.1387068583910653,-0.6180620190622796,-0.8280020707875736,-0.01895786780762997,-0.0010107794688585612,-0.8660288491573008,-1.588964829150127
0.5365700898417035,0.5934538857373188,-2.419668507243527,3.7155123850401757,-0.30019194646138575,1.4367038132579402,-1.57200370399271,-0.005020386685331155,0.014577747072981368,-0.9972367929184159,1.3641976159737224
0.8147012310183462,0.7251258895874781,-0.3515511483944685,1.9252152503549207,-0.7164107322001324,-3.2099364267419492,-1.0515300408230444,0.002418357751298668,0.016855162340083885,0.036410577777743806,-0.3027329518467022
-0.054862318805130254,1.0415812929736856,0.05893124816579909,-1.047272909629934,4.452764222067895,1.2879677412509218,-0.7733690134737883,0.00391999684685972,0.001486095288218338,0.9655097223572011,-0.7069009850994754
-0.023296891892805906,0.09762747888165715,0.10045157520999405,0.0406646087198715,-0.1437633846559487,-0.09202378915698721,0.21143239665951108,0.010535975089433977,0.004792684751540962,-0.21479094318138361,0.28275736962442655
0.5433460949793604,-0.6638443821316287,1.9393318423006611,1.3108433425069779,-1.1902884360181611,3.0579457622009354,1.386280605985879,0.026085929903235255,-0.003935556297067495,1.2943454519195197,2.4726261449606786
-0.6368425042119026,1.4398957945809177,3.4048693422231997,2.1316715419901815,1.3361753496792963,0.5197658798794859,-1.2601195287889821,-0.0027711083321457605,-0.006684120947733797,-1.1148883326134182,-0.6206992558710023
-0.016558779627651152,-0.00538853987697457,-0.010595577065734803,-0.009383417064928928,0.007712556618641439,0.003892334294157848,-0.0064414866169184406,0.0019009815387216948,0.014486942427966523,-0.010808434886125365,0.008164619131530946
0.36765612442380474,2.1557000580156753,-3.7068738475756877,0.03585470896081684,0.6123968445366708,-2.273834671384454,-1.217619422910168,-0.014895034854996643,0.015595911017869873,-1.6567409242192015,2.3009785554046016

Wk
-2.348477581757725,0.5340649836810109,1.4421085669424898,-1.55230633135484,0.310509951999437,-1.9183649829299563,-0.0774576237681551,-1.946092445138953,1.859726961671269,0.0007100263366551391,-2.7954076250230404
-1.045251502987274,0.6598141217802835,-0.1938435130160102,0.8327930987581167,0.9083486744188173,-1.6874543311077868,0.053957852968778496,-4.968214780985125,1.3046170270294595,0.004471918131972495,0.9155459139548593
-2.7831485149616686,-0.8648872893043815,1.0223337076389536,-0.35330771024752466,-0.8533365815046468,1.772639672785982,-0.021416205697352555,-3.260920560215282,-2.727879850013064,-0.022780005901431095,0.12161658460881078
-0.33817982466076935,-2.218105204901176,-0.4549934711852531,0.7784380071821323,-0.6873151354527264,-0.7678777607603344,0.09268218743594045,-0.6190447126415796,-3.9092737444914314,0.005940337750540455,2.5362148061325684
-5.036094011691135,-2.218441924050967,-1.3237098019197748,-0.2795069948851911,0.18619287976149262,-3.108144743679654,0.15046269025067224,0.7823049280860133,0.28494256188445954,0.007684717401064599,-1.2066424378867298
0.040521661681261194,-0.8682514164816858,-3.639617573912264,2.009315182121011,-3.252108036377345,0.9526652801976113,-0.18608551378889832,-1.949395074650135,1.9788349186085916,-0.010844788448408835,-1.7213958744882594
-3.427008662301631,-4.046415077430346,-0.9270635965780673,-3.7230462043703056,-1.6237058974997616,2.6878354233969453,-0.1139578466885356,-0.8595385517536573,0.934217308115693,0.004517530428498293,-1.9782182138757627
3.5868087589888074,2.3161033273289835,-1.1548885216189892,-0.8994824099773654,0.0009086570583876119,-0.729162855971226,-0.3575782752595662,0.325267776114618,-2.4170207349092787,0.00036013047781169137,-2.829979070391559

