Wi
-0.016871319853039135,-0.0018340914680370487,-0.0012347590771069306,-0.00852847612929609,0.01457283593134768,0.0047930277431673255,0.011371923882916801,-0.0022908673977786696,0.001887292258865735,0.007643027919625621,0.012394206960370132,0.0078116219648574035,-0.00566108756721962,0.004341229786817172,-0.0066330062696365565,-0.012604128196986558,0.005523993363791935,-0.001471839490614841,-0.0079551146358929,-0.004536376160769943,-0.003753056164369783,0.001971966163526274,0.0018230312647265375,0.021790108502936494,-0.0010100216811803862,-0.0043221474325105015,0.023026828541049107,-0.006815779386068254,-0.007628113248394474,0.009602241276661826,0.005314320081948233,0.005749214198733216,0.009390008455989219,0.002106634936055176,0.005981734588820375,0.0008928947704700002,-0.006277749313027797,-0.015185020373600772,-0.009045779478531853,-0.008034954795987013,-0.013398760532015084,-0.013140787817233802,0.014102612959552542,-0.006596350259265465,0.004356152636133377,0.00015388480292754592,-0.0062185526163742,0.0025198131126501814,0.007168325206996219,0.008402894046253669,0.0012588205346489747,-0.01576995602995785,-0.011563948252402855,0.014508387865339914,0.0015539165225241128,0.013910246687338697,-0.002283965116641417,0.01586021128526598,-0.010819861234924781,-7.144534183332071e-06,0.01037951230505849,-0.019537486434407468,-0.017686976314958868,-0.012303547028972175,0.014574614624556012,0.00147261931922488,-0.006792433071516533,0.0050742318706413865,-0.0110586290791236,0.00231622340965652,-0.011717559642467965,-0.006944875747629916,-0.004752898828525908,0.0014830892483260994,-0.014801574111321592,-0.006517360576876075,0.003907453117876382,0.008968751757379297,-0.007696176760600171,0.0036160350740898875,-0.013284061336139751,-0.013873387931240927,0.008942685902502868,-0.00013405213828125844,0.003054600579590183,0.013366854985321806,0.010338425798274898,-0.011480030705978087,-0.0018068281087587144,-0.005739109161919955,0.009683889627528919,0.002458834572853798,-0.009495520463484945,0.007233463493595582,0.001140513933293478,-0.0020251843735500843,-0.010116416691319423,-0.006678525277805064,-0.006601936159385476,-0.019286192513084544,0.0034198986291630595,0.004396694389595854,0.01897075861981104,0.0009845169269962152,0.007866212373723416,-0.009077627651193841,0.00215700094051516,0.0011460689338000654,-0.002645274544352232,-0.015106625935041963,-0.0030192368662486277,-0.01613577296208015,0.006682085060016765,-0.005313406044563672,-0.003806381224744779,0.0019920838827567583,0.00011736627775006783,0.001020801656906758,-0.002456022442973107,-0.011474539482826663,1.1288804844604748e-05,0.0033046402713711397,-0.002098343028278387,0.011926151797519801,-0.007057728688749391,-0.00549414625878614,0.004549644185713334,0.001314417964825547,-0.016372933092512726,-0.026113800436209627,0.011477686691950904,-0.005506472107118548,-0.017061326268526363,0.014955843459804425,-0.000262957996108539,-0.021316691480210568,-0.00696694879546213,-0.0036102169037925892,0.0023003305092146034,0.02576895773255907,8.035633454831482e-05,-0.006955116352035382,0.00212127966864307,0.017271596280779452,0.006638013994609158,-0.005844374500639973,0.0020883201966534915,0.007772662269952554,-0.005340304987029299,-0.004352588669094843,-0.014995074663282254,-0.01156463152867077,-0.008926479361356697,-0.01863629302620897,0.004768338198121137,-0.0009873647608969764,0.0006067667594086167,0.008657019750728316,-0.0014492436101264774,0.007703677572735208,0.007107710191772204,0.02253634582499517,0.0014912185145548233,-0.010345231949177072,0.0018903657774863968,-0.0011222850312627667,0.01718022674008501,0.02378843757240247,0.009758755065387117,-0.0038687831105633065,-0.0005842482694784638,0.01160985613990506,-0.004582291107961334,0.018579732560321173,0.005194407681609879,-0.012897125641051152,0.0223660929459897,0.0027031453675597575,-0.0017980851534697923,-0.0025745609243860174,0.0019780419895511357,0.003678459044627144,-0.0051218631977989915,0.003678238077108637,0.00024337788214272548,-0.010620541814033454,-0.004614103687454971,-0.0016203063071412636,-0.006072768156292852,-0.009314792315791909,-0.006671784880215591,-0.00895187132833869,-0.006482708790234235,-0.004922023306953626,0.019834143700747642,0.00419589071129554,0.0013949278016324512,0.009370866443908422,0.007618816801817545,0.0030546437081651247,0.004880769440821856,-0.01283495880792053,-0.004987924704903687,0.010074578016112676,0.010047359219422344,0.01173459155305261,-0.004545364490362357,0.009164139635348336,-0.0015637750250971972,-0.011566263882206898,0.015141584271461823,-0.007915901656444756,0.008829157360092217,0.011444524916648453,-0.007128075203505894,0.009946920935253005,0.004695638194568047,-0.012213839598706248,-0.005754486127356706,0.003959556987489444,0.0037303017243364056,0.02381076195236339,-0.00802323963312097,0.010988105559103789,0.008040282759559161,-0.0012702433983036254,0.012522473892599665,0.0076867433197597215,0.009037801059860275,-0.013704177611872759,-0.008350820458349624,-0.013673226699672289,0.009164316781944952,0.008620665611419578,0.006047520813764198,-0.0019432307270661946,0.0025903364736009323,0.011873257924375161,0.0013502395966841542,0.006073409733596189,-0.012519240601239465,0.002792473752178368,-0.0009441873219588378,-0.004507968010388775,-0.009020737459388795,-0.004385973883560366,0.007462614551717609,-0.00835614053715868,-0.004241952213318409,0.012401911203515121,0.01641647067562247,0.02852369392320419,0.006241367382907812,0.013151165757753576,0.014915911101783278,0.006440928858024913,-0.0013116563716929963,-0.003726304298677486,0.011832555322723289,0.009485617946066756,0.014738471905046912,0.006616440223829407,0.004977103765277795,0.001714490843065599,0.0117521623597826,-0.002638029890817378,-0.00783509163720442,-0.004072358792307376,-0.01484957290459714,-0.005965422557396658,-0.007080584619316996,0.008262233867195696,-0.005917341678631869,-0.008059912654983093,-0.009299584442559121,0.004719073262393008,-0.010697668545536172,-0.0160701158101425,-0.007660839999761829,-0.013553470517951942,0.012088501874515394,-0.004380412143075271,-0.0032619807874433517,0.00072254870201256,0.014421838787141567,-0.014897218779423502,0.0026677555176366713,-0.0042765496594784295,0.0011334124592195874,-0.006114545405481969,0.00462065795481585,-0.0037389330770279255,-0.00406908997389324,-0.005490277355858382,-0.006441182571653525,-0.002125107069054192,0.0007571557017904781,0.0063828685332371835,0.0014545019793778956,0.0004126270561880047,-0.005892536279633447,0.0034623458077786763,-0.005998188176555974,-0.0008681398192744006,-0.009039373401062941,0.0009972171536993541,-0.004069476207048017,0.005156821453375011,0.005326311618649237,0.0037851215013191847,-0.010925382446098648,-0.023441196483613723,0.0007199974482788745,-0.007127663551771126,0.0002498604718392277,-0.0029589166421972535,-0.004211642833888483,-0.012702019552733415,-0.004260772350242291,0.008583894439457843,0.012945277355450407,-0.00518032516357759,0.016159257312100307,-0.010877555471079478,-0.00452453492073019,-0.004592608658477651,0.014669009134809712,0.008146215685227571,-0.007390035947582999,0.004093330605040342,-0.0042631849354766,-0.0011716921748303984,-0.004414883075071565,-0.001540916805797314,-0.0065809003858881485,0.0013828042565878819,-0.008805261820760269,0.004029740796576418,0.0038895910991174534,-0.009134213401262291,-0.008055245929981258,0.0007594889815842207,-0.009314009786663208,-0.0027138550814601306,-0.006820323713038932,-0.023156833822781334,-0.002970217910880914,-0.002091697326160318,0.001917794154965525,0.013233920706005622,0.0039632212645595594,0.010721029903112418,0.0038818949396922354,-0.007772656110764628,0.0023002103621713598
-0.46136662918962107,1.4369421153560273,0.59682642967842,0.06779485348229573,-0.08955119706701334,0.05731476462127417,1.1323396316138894,0.04997779197844892,0.838883082358577,0.0428881761375178,0.3617289832750721,0.4379800213612077,0.3856889459067801,0.35942796195559784,0.3574435752510155,0.4423379833482271,0.5218451036670613,0.32942645297190115,0.11638929612248808,0.9339175843525913,0.6511513202707683,0.39161123074518606,1.7503581573475608,0.6589481579465198,1.629548646961849,0.6400100318108372,0.4081975011619268,1.386575864205569,1.0660202865580295,0.7698081437241456,0.9436182542068832,0.7966853642327842,0.4560192422549507,0.334133122124527,0.2505073027373661,0.3094018322778086,-0.6629701657368331,0.09606808678601718,0.5286217586932679,0.06974051808917728,1.1317197035995055,-0.17116304983480363,0.7644883789153527,0.6483807939696132,0.31392353619881397,0.879284840498504,0.9531176682457394,0.5585092237387874,0.28054870511247226,0.5128416167625438,-0.6916652130923631,0.4682455166162789,0.4990918041496214,0.43168206217412813,0.4041727843861743,0.30078541049650204,-0.6719003395004841,0.3640342449735324,0.36182820722322157,4.003500939357697,0.2837813369478755,0.4045007165357096,0.027940619496335497,-0.03468864410235301,0.05629705262744292,0.11856415480651583,0.03507208180384633,0.2757024434686661,0.03932230139138038,0.30161634907960977,0.2936041177231319,0.3244159188670796,0.380932074341544,0.41060152719651133,0.3448997684365536,0.2495917390305188,0.3465090776392991,0.6471605002121966,0.7300245662034932,0.22273321857056275,0.4224589056506596,1.642255824835878,0.22962781092834847,0.6072477829722096,0.49992099923652994,1.7156721143813438,0.7382597857160559,1.4104589275391566,1.4794289179518425,0.8347712652155022,-0.7807082241780149,1.6903126348286364,1.325577390504962,0.11895357992472509,0.512766856190425,0.07517811302134068,1.0099301899132214,0.31600438505337236,0.24867873144572544,1.9463513484193116,0.7296244939500914,0.5180009330890762,0.46178945826236395,0.660025386604464,0.9033764226178175,0.06821771022542561,0.3715844902421185,0.5145678908789999,0.25750283991107764,-1.0213021833898166,0.37642478776460003,0.1694910134630701,0.12377105584062191,0.13934984847500825,0.34954408571247847,-0.4554755939548303,0.024522266398431983,0.387658405436314,0.1145444048373817,-0.20491193386566203,0.2184532723386595,0.038188129503133196,0.37381735055535426,0.08519742148081066,0.17109326226631072,-0.026633674085163872,0.4816345438264111,0.06772629356182237,0.1074834795397688,0.42595629534447843,0.45915083115424654,0.27600156084736405,0.30712761862149196,0.26071625155609957,0.36025997664400033,0.19835710110774818,-0.30142698497821074,0.25096924442131197,1.0123431480427154,0.4229212325251651,1.6603046858438173,0.41549701985778215,0.5908700225894251,0.05321993904308539,-1.9748840525737847,-0.7090324884237112,-0.3073790421541435,-0.8790596823972125,1.123122868776381,-0.5405106266827908,-0.5221482583482143,-1.5831541728094063,-0.6332959947823803,0.06302895303560971,0.4337040432587989,0.17422734608894705,0.5489386516731207,-0.5153884745188121,0.6352139542224334,-0.9605488987433998,0.3608613786111509,0.5466927526400165,0.3818371439137425,0.589579222721526,0.260172678118539,-0.0721343903397354,0.0911043528511658,0.12083091691019843,-0.17002635563702298,-0.19348910635542255,0.16336061595944978,0.09922317886287589,0.4004525631240561,-0.23869513887793384,0.2128932392396144,0.23670435081801108,-0.841903105887433,1.4644055667754912,-1.3464299757461569,-0.4149497234909032,-0.01187059477099728,0.5480724358888759,0.06117724717504312,0.07855218427947254,0.08164803630415826,-0.05387618553848613,0.027768992273823147,0.2352439929330042,0.18390831855346543,0.48044823549022825,0.5120987211553336,0.5224071794989908,0.3226537903906148,0.3409798992698266,0.24013161517508066,1.4696462765200593,0.5233552905675101,0.8657965030206471,0.8095371859022674,0.6971306070548324,0.5464257440450917,1.5867990723191714,0.7312470374183377,0.7509383274391435,0.29293069458414694,-0.316012794072413,-2.250651277095406,-1.5631785129114997,-1.837236023979507,-0.4391412843890819,0.040330370672419805,-0.14279861875412098,-0.019208177702748293,-0.4747871790064255,-0.6958215736123835,0.9523085416149802,-0.4182387200272456,-0.005613471034054156,-0.46406114247643776,0.33120573679011117,0.20332467568346874,0.08052458367433153,0.2653964035812587,0.35140885665286314,0.23875113385311358,-0.06225463574456274,-0.1030719095816469,-0.5106960880792609,0.20490262140130644,-0.1197019633473261,0.20195038020928774,0.09956822663319259,0.07553767548557369,-0.26018678505000326,-0.0407989339841265,-0.6966803936451671,-0.010940367421052396,-0.021390980556072036,-0.06225070188218449,-0.05536553096835888,0.010836479353005385,-0.0628790823045752,-0.008865239506917639,-0.038400214321578405,-0.11777127661360241,-0.08144532356182986,-0.22338693934213583,-0.19102480783533074,-0.20766807240123789,-0.2299552707635374,-0.29202713021499727,-0.1579566024678213,-0.5127767201078228,-0.2490568757829996,-0.344757434542339,-0.08419540948638922,0.4432969058668598,-0.6894513355421524,-1.5589590905011665,-0.6685878735383325,-1.3666161839775048,-0.6138682225474429,-1.0394951678762,-0.12417742181666526,-1.3457865373953763,-2.9554550297087556,-1.9335298432169996,-0.8168920615071247,-2.1527530874848555,-1.6391331419969866,1.0618185576954893,-0.01684222005446317,0.4881532719861571,-1.2751947433552966,-2.8102236672460337,-0.6670700822565164,-0.48655923684157826,-0.7696595663384354,0.6344486867321075,0.4938523847880309,0.0706709019860255,-0.36302969513784056,-0.52089115673899,-0.5109675931632862,0.07070028241881986,0.18017449383530604,1.0215829408841717,-0.3376568726017677,0.24778714906437718,-0.3855943206920186,0.20741685446446895,-0.1613304105936745,0.27748126567079734,-0.1412423228558428,1.3153612070616358,0.9499415421777443,0.1434552588116781,-0.5078374145216965,-0.005801337484086801,-0.26040652712885226,-0.03303379039018003,0.011218769789612544,-0.03357065478199093,-0.2233427074904427,-3.248842155927812e-05,-0.4019514262274547,-0.5568296096045358,-0.37993822985029263,-0.2772483757663475,-0.08527339937211707,-0.10305987698551702,-0.15648783398077742,-0.1834652508278259,-1.8262322669385667,-0.6555639708248591,-0.6394795169583433,-0.17817987621520234,-0.5162324394024185,0.267400319783226,-1.689177855745072,-0.3488396760362813,-0.9823599663084103,-0.802344253155226,-0.8579680587035804,0.25538142557109983,1.895758372109221,0.8074845110263253,-1.3346275690448843,-0.4593229048604127,1.555675103409614,0.11530703898767622,0.11861458252107374,-0.19211768997578285,-0.7715968397030785,-0.7897227423299591,-1.8581124029265415,-0.8260835760815635,0.69281169957037,0.23908766115236796,0.21081567172748206,-0.14229245799319612,-0.5114905944381098,-0.5203933141232823,-0.5254104697035847,-0.211143257761512,0.8677872356670429,-0.4464649595383397,-0.037630847061532004,-0.3168322812342657,-0.6675536040246501,-0.3980497192125452,0.1936281015697341,-0.44146329684694163,0.08666539738226042,-0.7093366537832116
3.9999064515639278,-0.7728095591843291,-0.3545583058621892,0.06910106608815371,0.599755278917435,-0.01875741257424991,-0.364589973075637,0.01051917255463474,0.042457675441930263,0.011706649821763324,0.045351104512357014,-0.19755214135669658,0.26285829667140775,0.24617907554008564,-0.13191924538439134,0.050374962227888544,-0.32080575941696454,-0.2285898086904722,-0.6821588857504616,0.07274225360769494,0.12896432405423802,0.06712594527568776,1.1641940505392905,-0.14137994430225645,0.4212804976740074,-0.437758416737759,-4.609127442399781,-7.717236063706084,-4.22927642261232,-1.0318744419924872,-0.3363903759783979,-2.002609800973758,-2.7600297259219024,-3.240895484729936,-0.9068234452771312,-2.6881785437945944,-0.09676878905779307,-0.19488836486780456,0.4004171604561441,-1.377657218799693,-1.6150468689650974,-2.030264954697929,-0.27668579959773837,-0.32645619073601184,-0.19270794162021104,-0.24574053521291192,-1.070343615536744,-0.7333498193584945,-0.3606369733452455,-0.22232329582247123,0.8832375131801641,-0.007822598521289586,-0.1056753486427954,-0.2277399275007522,0.16967813577996527,0.06488862128220625,-0.03573692816514966,0.1782254566443929,1.831745726005146,1.0956050393582182,0.13139663695369835,-0.8999706260370076,-0.01572872507537772,0.18011101888330253,-0.032864225527746496,-1.070543871512551,0.035264756993035815,0.5078492589244941,-0.06913943432588664,-0.3001934329435007,-0.510360660750699,-0.32183954197471604,-0.4725585035374167,-0.26342728958356,-0.41195929710169193,-0.14465707938344938,-0.15452882233499152,1.0098997843353166,-0.5222997609297952,0.41898860909950214,-0.3194352620603301,-2.640837225904211,-0.21654132735831763,0.4997429639790107,-0.29815934009610223,0.8187273343809748,0.4544541851099144,-1.3673239125259824,-0.9313830327716037,-3.200492771598321,0.6359832678998547,0.7484276891906846,-0.5336235702663074,2.457115085878631,-0.5990270141359664,-0.03865741055350476,-1.6609026557428002,-2.0636867013930695,-0.4850301872086935,0.7251489357803413,-0.3685569544610681,-0.6100828930666037,-0.5196863258107812,-0.7542920998735483,-1.6151064514536542,-0.8539218800400703,-0.9312197548170602,-0.6254507829313158,-0.47305993273929964,0.2803924487499747,-0.21185620727031543,-1.0022849700132683,-0.10534721704250015,-0.5473872317448566,-0.2893547257238567,0.6432673298635505,-0.10943794064358378,0.037586553762204676,-0.4586417580716333,1.060104977866763,-0.9848938927584416,-0.047895298269572374,0.2133749298930266,0.04891468612394981,0.03413423114726308,-0.014781884916127287,1.0167411891183398,0.041388252087389714,-0.6910603303094761,-0.6743491740471229,-0.24481308703211477,-0.09511969877779049,-0.014869575442486661,-0.13833526428348286,0.20771879158383358,-0.20883935788835578,-2.478282473629546,-0.9005272105338664,-0.8339786919355143,-0.4862460839603047,-0.6195111342450373,-0.17087622313854658,0.06687941532464145,-1.4122175759395685,-2.20402042699235,-0.9756713352686642,0.870670441426258,-0.4041647589428256,-4.361175800285114,-3.86273241757584,-2.071484690039397,0.5384088775114539,3.0949795917541096,1.3985533072449672,0.5795452260412348,0.04227682346415534,3.74702540222945,0.23093255828594764,0.8246382426316449,-0.4288031087960965,0.07895980402099946,-0.22771311886951395,0.01207974610154061,0.2521262300752135,0.0752182043183561,0.312400841697494,-1.033583921699903,-0.9897671738801443,0.34337944881535076,-0.2006995728029825,0.6112631531080699,0.27665496957564784,0.231059591696191,-0.5873005914890088,0.06674257912585668,-0.354436462704528,-1.5106345688761318,-0.10121747304168703,2.6416427898308212,0.483926083516437,-0.026137636622165793,1.2382807786734937,0.030330232829974216,0.46550273077119125,-0.06976723533451985,1.927189902218812,0.004495899433501981,-0.8852214232747805,-0.6548057713074349,-0.29805647069403424,-0.3362590187535416,-0.3775341616013851,-0.1021655651358043,-0.07118005511073262,0.07705654183711477,-1.7652233935502797,-0.6423105123779286,-1.2167812579755293,-1.1197625295862916,-2.009880141135621,-0.2782290485929456,-2.0292665351616654,-0.5245500371336473,-0.8300097291592659,0.08066550005015807,0.6030813579264782,0.6049014882697612,-0.9445416925466236,1.1973897741563793,0.44054149004589976,1.6224102336422568,0.2673320623212144,-0.3297109415077843,-2.2345698841382786,-0.9226945527190735,-1.0919309776586912,-0.9618259435885622,-0.45909807029481065,-1.2888674657917154,-0.05989689397042413,-0.5038849352714253,-0.6092031447487523,-0.6026016392624476,-0.5108647433668183,-0.6939337706905666,-1.0631306037735277,-0.950258228136821,-0.04720114355762705,0.315118789005926,0.25637786345221675,0.4399112967098169,-0.5851591947079302,0.13440091252647954,0.04267790352992618,0.5422722584018166,0.4884444672893989,2.2311328929616483,0.9947847259431155,0.2540646389791189,0.05735238527684294,0.25859891579116506,-0.004839005440541776,-0.019845403832447622,-0.07030497718546212,0.9769074529897082,0.011740635172390242,-0.03589091773238131,-0.30010809606641947,0.02524301338445036,0.1345717109300991,-0.1004795352511768,-0.011436937451257689,0.33567087435756765,0.32392339143604376,-0.2948845046170464,0.6769092049292379,-0.765728791478411,0.3700063252062553,0.18434909381038553,0.676640236471052,1.9118711194805145,-0.2835979743868302,2.174441099398426,-1.6367026325970024,0.3342847823397818,0.9073715449852475,3.115187444471234,2.46957721380262,2.635109912202507,0.6917382546700199,0.28320558777441146,-0.8254545845063794,0.37908873920674097,-0.06607213415298666,-1.10912999894763,-0.03195118129244931,-1.0610960794455,1.2531339175245209,-0.209634481568823,0.2187838218639808,-0.18782936244952242,-0.6473459306002135,-0.022018295046236074,-0.05215741746523784,-0.018088057506845338,-0.39751607411798484,-0.135951366043414,0.2854271828124801,-0.6758367316301753,0.048975450308030535,-0.5377651301601212,0.08267707176928214,-0.9290229737965069,0.043239689920296524,-1.8741898167771551,1.2717989601270006,1.5299472142521056,-0.36313773321565984,-0.013995300049915027,1.58732596572688,0.13172685151834176,-0.2480247365669315,-0.026508561400120326,1.2028524432346053,0.07687280603806686,-0.038310595275321865,-0.2287978729636821,0.20188568615862837,0.03107117273329119,-0.06408291001707705,-0.284302476331701,0.39089385872056753,-0.038747316111424616,0.6698689763320717,0.29352070566026506,-1.6859448243157868,-0.2039827585973391,0.3464652862447179,-0.17450647199582567,0.3534028601930981,0.005606107970457817,1.5225734676238798,0.3605253051042309,-0.7929649287237817,0.9720343987949167,1.8687276890813187,1.6437062676074679,-1.4690037181249873,4.183689618039877,-1.3071142246765854,-2.214503026677026,-0.7703232722828008,-0.20702084922494265,0.07549221647662357,-1.6590456529265796,-1.8186968558702576,-0.5357149088220596,-0.8248980722385446,-1.1722055914173026,-1.1475434718095583,-0.47319116057440735,0.14247380384557468,-0.38644582155979984,-1.387051282360221,-0.7646046823743049,-0.5513560509196374,0.3082094968885457,-0.18841135270217765,0.3789583816312908,0.1752804873621547,0.2732098053039365,-0.3115806086534232,1.00480851124392,-2.020144369145028,3.373083494008745
0.40127092627180816,0.22241329267777263,0.13411538947409002,0.0002479453944817135,0.06746320524877407,-0.005898202682334538,0.0910162123289238,-0.0007171063549286721,0.04055463594684653,-0.01673542073709426,-0.01604487636706941,0.0007639473948978666,0.0060621175588865435,-0.03384427692733096,0.0036581490031050816,-0.028353088993758147,-0.04318153839416872,-0.007036728906156844,-0.07781417510707661,0.039697490659777304,0.11355374920035768,-0.02750309186487385,-0.048301004013010476,-0.01322007133439096,0.2726346044488415,-0.05771836042752787,0.5930205049706913,0.6989572873089781,0.3624603164333209,0.29851674345723794,0.1082169862195215,0.5116232282439315,0.23819469461518608,0.15152843655850987,0.14575100772815622,0.3590477495566424,0.3903171220451189,0.08433421712944404,0.16212684055241475,0.21240891220085847,0.3608943728641774,0.24824074211688665,-0.004000907893764638,0.04854982040904132,0.014780050702487805,-0.0462746568067658,-0.00914522423407141,0.03289716693092756,0.033299167014221774,0.07268199802982114,-0.012907281628560571,-0.013906712097183452,0.002813747779232285,-0.04486161137841826,0.17450848634378968,0.018794274980624602,-0.08308841222527939,-0.025526990192245486,-0.3922268897502239,0.240626570724469,0.011306363630767303,-0.01334683861979746,-0.005202699185860799,0.03431962236962644,-0.010445706308480563,-0.04766132435537115,-0.0060697416397901644,0.06642390474941548,-0.0006255944355386387,0.019133888813421637,-0.004536721738675863,-0.028212258058724748,-0.004633984066771837,0.006463575173093044,0.02084586869739253,0.0021332483850358074,-0.01745336996447823,0.17438857495725246,0.025565026028533153,0.1926121486285023,0.009984208143069762,0.12287720707404523,-0.144756577051109,0.16659785158525256,-0.004825944699408939,0.07761778434008758,0.11212212066085646,0.03511203982369884,0.28928645278014464,0.08789142838727121,-0.0005041966230416794,0.18207526846724018,-0.08880191262579805,0.33132493741964203,0.0023828441014979353,0.08567398029334805,0.20980576990110336,0.14845142492442287,0.13081082016255413,0.22468440877484785,-0.08502290226025262,-0.017825096411297797,-0.01585363743732325,0.07126791315400478,0.07649044076412612,0.09898039834083659,-0.022362493935335945,0.018971652296503903,0.0013971675799282553,0.08386463802757489,-0.04033912922494017,0.05197964145804462,-0.00953787700191783,0.07912718854322907,-0.021456798002987408,0.044069701452363046,-0.03565360543072386,-0.18039043918629302,-0.038546806143917686,0.2660817636077986,-0.037135696468559014,-0.02333971599026634,-0.023880601757366754,-0.004865270882631225,0.03573788601781467,-0.013208801300084594,0.05874783460836317,0.0093633653452248,-0.0663894424580525,-0.0014008425196936557,0.03726497096114945,0.04062530304407719,0.07660594421516177,0.04434871799210242,0.03974918729231621,0.006471316397565669,-0.2901573732321723,0.13092213950950066,0.3823679349122799,0.06530241527928239,0.012988480719667586,0.13656099869088803,-0.05433212201104065,-0.07812737307345664,0.23606713450555103,1.2057940886016527,0.7237672464999063,-0.4364249656900413,0.24746139080093593,0.10487050195614726,-0.06077625179032447,0.02279415777096918,0.4909570759406745,0.5428984671806338,-0.14830254598135076,-0.02355479241053599,-0.2653476783794767,0.1010895960425338,-0.4191231727691242,-0.05538630634065614,0.07894305545262716,0.054352837461188075,0.0529093094456122,-0.02983628966727963,-0.06649979029608633,-0.06563547776480468,-0.10449540363767482,-0.09914671643492794,-0.04023296434144435,0.04684912167060058,-0.04476080984227806,0.02127625062415884,-0.13982562438549187,0.009637935728015794,-0.1714154354664991,0.021165749272631804,-0.08301651516233649,0.2798418109464655,0.2559838633643317,-0.11399139531960788,-0.0013427587803748107,0.11503433591255731,0.007315093273852052,0.034780184824270304,-0.009123680595511583,0.003965537367806402,-0.0017238829928754,-0.033262847202979305,-0.04104044771964981,0.03389172404726195,-0.009213028827838605,-0.0073506547973819685,-0.013386369717732062,-0.016747864002282852,-0.04091750878821494,-0.37174144457692376,-0.04410086938010952,-0.07459623199635762,-0.12300423719747147,0.03253372846899234,0.03135504521704945,0.12115370119014347,-0.1982433448380252,-0.11938719538676273,-0.3704495418175983,-0.09023359773643726,-0.3992251044416036,0.9343191658519758,0.8263701030741881,0.3173626117761994,-0.5898891964470833,-0.5234516354843001,-0.05890198353452551,-0.16551364332863983,0.24794171084243904,0.5335489255631917,0.462664245845896,-0.42026483538430665,-0.13768353516021253,-0.02262089323236856,-0.011524178278297569,0.07457993956684524,0.1539080220455505,0.06470305036036092,0.017526292582245393,-0.10383204356478971,-0.1733439394277265,-0.067774979822823,-0.06111439035073107,0.03643299549903684,-0.04216204053518689,-0.09696065801871202,-0.02210345003378874,-0.16786098078159975,-0.011854925434119873,0.1843115126002275,0.005155051889222872,0.1629968635165974,-0.055292549347349375,-0.003673626046434836,0.007503436322117613,-0.011421758388487082,0.027360817358775446,-0.0156830408665668,0.011189745453169968,0.012922292675041032,0.030288002576107163,0.06626667746002149,0.11742586103462314,0.048856349526315374,0.04831331890402795,0.03709745243554951,0.04077599822050591,0.11041712655946415,-0.31868415030169045,0.09944030258054812,0.2616471261878601,0.2373794569667114,0.02070601351134616,0.11831902042175997,0.45285338469740016,0.25054656437555006,0.21430834791246314,0.39763563400569235,0.89696142247732,0.10454809304943422,0.275410589066194,0.39185143917076437,0.705170219505597,0.3186778920867634,-0.6316148907251619,0.24297359059541773,0.0037798420565274067,-0.14899439452905364,-0.5356345960795142,0.14986341959200916,0.04908055201343774,-0.23749095535557566,0.049169705180942845,-0.021437524983902126,-0.01809787905067744,-0.11348382925898728,-0.08862304704198509,-0.07188708671580685,-0.1752645193354144,-0.1309498742738274,-0.17154534950364714,0.005535897105019821,-0.19748787168328535,0.020000155054842136,-0.12634011540659776,0.02576077048233519,-0.29175291289086097,0.011772641397351282,-0.41472076285137927,-0.07817004924539911,0.0720666548111712,-0.12342598301284811,0.0009607461916099091,0.12432190025429983,-0.0016481132371386098,-0.009361174782573112,0.007793049869064165,0.0009291466148917022,0.010037090632529385,0.058319364017923904,0.14189827990555598,0.11421914387831054,0.03714527061306417,0.007746144720040688,0.003758510680581788,0.0028465086379943967,0.012664174353194443,0.21865835412333956,0.2826161856738811,0.44226068824808923,0.10246292338188917,-0.25873047276981437,0.08057736740831609,0.029336589516747877,0.152960357511131,0.5682423740504127,0.1718117286378998,0.7749081666210264,-0.35519354233030853,-0.10666446423822878,-0.025420981730810446,0.3812720976788818,-0.011994906486722724,-0.33015371733245813,0.11506909391879738,-0.22143453560323847,-0.16323124421841478,-0.3620006043781613,-0.000978072095960633,-0.37755539974511804,-0.07259024581176295,-0.04843488744852749,0.04115399802390414,-0.08883932332833562,-0.032210399251877395,-0.007723082250899297,-0.05413339417230792,-0.14258592834645703,-0.043680036053197834,-0.18949616183324838,-0.026424302822598753,-0.16113210853046608,0.029739093109762273,-0.14969776467566973,-0.021218710756949474,-0.14692450273418456,0.0856733570533257,-0.13783014744014635,-0.033588923430119745
0.014116916945283529,-0.0016383009668017015,0.008452399848233682,0.0007458419495046059,0.008773607550497482,0.003005314077598463,0.010085328274552283,0.009050245603199654,0.007957401540323827,0.0013528459648690474,0.011603272505846897,-0.0015530756281230942,0.008495591301915682,0.009914384271845364,-0.009025451335595529,-0.009721327938320071,0.00027894138956541145,0.006566183636962519,0.0060444758947306,-0.008935904944013416,0.006737496477952888,-0.002277858917469668,-0.013789273277662674,-0.0006403867224251693,-0.008866966937006997,-0.013548136646237179,0.014351962785448754,-0.009451780880429146,-0.006931741319812923,-0.015414079833238954,-0.016219332826915643,-0.0032360648300715045,-0.015785307227709888,0.011612622504846515,0.016362471636359024,0.007491496526490382,-0.004740804175901615,0.005846474548680795,-6.137802693027344e-05,0.009280405159455524,0.0003561383328248265,0.0027973938603657682,0.013994213854113143,-8.096086155428238e-05,0.006483135714773561,0.0077262692236540085,0.005090299153882864,-0.000652428615043306,-0.014791992771751314,-0.013926687038747311,-0.004425628788261828,0.007256567942197235,0.019504454099986798,-0.0012301120071978831,-0.0055594678287423475,-0.013255438910962467,0.011767360999590136,-0.008116474472739629,-0.0070035891244246504,0.0044225594354958654,-0.0002441758231150632,0.00222009451369526,-0.002223439634206343,-0.01603239220807043,-0.004039365317336267,1.0003047723808506e-05,-0.017025488516293888,-0.00666561504067739,-0.01996337190983667,0.016352987465965883,-0.011440425017660962,0.0014137598803912734,0.009666423526259535,0.0007176414459480583,-0.005982279252304858,-0.01687423659062992,-0.0031544982051085716,0.012169053485085839,-0.0010439666625012452,0.00520653777770585,-0.009048464224309861,-0.0015409719115589194,-0.0089271819904551,0.0045646869008346995,0.0023735222824376135,-0.0069352402407521505,-0.01408724411089244,-0.023386254345848064,0.0053464309312415545,0.008271722963605626,0.0170694805999275,0.00046984022196790094,-0.000546939524874187,0.009839089297750792,-0.0016843367956579603,-0.010245226388972717,0.002586912550794709,0.012085187108919478,-0.008264196015975733,-0.0006987039420353941,0.003807724344764614,-0.014348685903784958,-0.025913070239624934,-0.006605229869542657,-0.004961402052450581,-0.003257867746974357,0.005134169134668108,-0.024049433637777298,0.0019023124457198835,-0.019394862678783632,-0.00817280089253698,-0.008689419883068254,0.004910772263598362,-0.010275627192916805,-0.0006137915383491935,0.009046691915485855,-0.008379840473750927,0.006268122091932239,-0.019253925607024897,0.011439546241030581,0.005806366804597592,-0.0002164434492516581,0.012642517969358972,-0.012967407619165192,0.003523117184790988,-0.0075452077105487665,0.009879147290123227,0.0014741739472302882,-0.00747047975149575,-0.0001364445752649275,-0.015125418456433764,0.012246802897104076,-0.01610854842978612,-0.015056094065365634,0.005757931686872773,0.012646010908453059,-0.020892693807550287,0.00738632952142379,0.0033316176106733793,0.0100831987753071,-0.018623940350277472,-0.0143265258516619,-0.0039485998642963885,-0.0019407095797216464,0.00939270126227251,-0.01119859170159575,-0.016846432193428972,0.0021223124626725673,-0.015730626904927613,0.003824586318336629,0.007555275235269005,0.001750494275792055,0.005765417949520632,0.0033137359934675196,0.002745624978634482,-0.00984061336825329,0.003630057697373074,0.00888036818715023,-0.009495661212849334,-0.001101379564649905,0.015979135762219633,0.002528065687439463,0.022090144033829844,-0.0030949146848917412,-0.000833373063949149,0.0062992267769193065,0.011161569495799347,0.015834307729596195,0.0032086657312841186,0.0051127825034205454,0.0036204709375440166,-0.008353293860237516,-0.009527874739426628,0.0024816314944024137,0.008978689965432555,-0.005573539091927136,-0.000748781540844268,-0.0071955912765586305,-0.008379921862013737,-0.012834147038956288,0.009182374561087628,-0.004570658561473685,-0.0038731719690110944,-0.0006327007203860769,0.00012524423218444837,0.009545551436769351,0.010331950507027697,0.005402978040855307,0.001377328102192817,0.0009671822707568965,-0.0002683770259093918,-0.008049561566857148,0.001365879110723766,0.02103648016131963,-0.015780743436448558,0.012405203438133807,0.008751977125007537,0.004549211767636445,0.013572466791786173,-0.0058600346677033606,0.004137744810507318,0.01518257238373235,0.005732208526525387,0.00039298946512007576,0.013051212101060354,-0.015295223201112887,-0.015549966807076793,-0.015219817574689501,0.011865831265786792,0.018882096001164472,0.0161757906197598,-0.012878571377095681,0.01938008397967113,0.0003982437575368145,-0.004101017086061866,0.0010571436756700615,0.006663028484739997,0.007295557059673095,0.006099072888454966,-0.00041732181056221686,-0.0023700977435377434,0.006833867762779795,-0.003706128461241523,0.0020440839338457797,0.016741682194321126,-0.008748096310860671,-0.004509036716724676,0.01798396323889069,0.0057113547808287255,-0.0013068375117806358,-0.0013231773663694099,-0.006718549383022281,0.011444968717814688,-0.008540278746464874,-0.008068317677711509,-0.008908577850564137,-0.009840868676889214,-0.015440626771884054,0.018056117899984698,0.0023805244563679905,-0.014149866482650061,-0.005783741646031331,0.0014366765758364068,-0.005668212284282588,-0.028477825147630254,-0.015280697687933425,-0.022114978038926175,-0.011610268612526682,0.005784934228388439,0.028532762796296227,0.002106519184291084,-0.009811627686175434,0.002363445571359813,0.003289168443491743,-0.004865049787830804,0.008369644228922645,0.010340726142644694,0.0064954057596573285,0.02598004067648476,0.012381398606559135,0.010297010067432817,0.005306202672259528,0.013931697258506005,0.006529761448536884,0.009322234528596061,-0.010732623215360792,-0.005892459688736078,-0.02133811373697998,0.0014166061165806396,0.007155923739102549,0.003339947481935061,-0.03575103222090414,0.005100902476534488,0.003859998107461752,-0.01364326581227244,-0.0021531528967374254,-0.014553177375007649,0.005022263396217393,-0.0033523244568887172,0.003191458723785395,0.008705222851031511,-0.010575024430444476,-0.0037742323053759556,-0.00041004099498781216,-0.002860907187759677,-0.005109550902591808,0.03006146523665644,-5.8316833299397884e-05,-0.01521690363223951,0.004628820646197284,-0.004038997302855805,0.00034403972477495417,-0.020821235434159105,0.002335679996625295,0.0017374709769756925,-0.003431163519514617,-0.013417762198961182,0.0026880060228090556,-0.010826377258182833,0.001065359762389446,-0.0052059255684487145,0.005815538620216905,0.005024760868938312,0.003434576437981032,-0.010986905080022539,-0.006464733658658628,0.001295558988836859,-0.0009808067609934387,-0.0011457897594278304,-0.005372169131164179,0.004008639381071171,-0.002559899537187737,-0.0020627559752894047,0.011323423766271176,-0.0060095462646901545,0.00940772871039633,-0.0003026260367407309,0.018362652544829394,-0.013808959253499533,-0.005880763814127796,0.015208304091287844,-0.016115822997179462,-0.00015085376386033634,0.007763310678342522,-0.0038113299647605787,0.01582431907512188,-0.00931436858307319,0.010892274029904,0.0028854814536815637,-0.006266066381224873,0.01199104072704509,-0.0009090502259878053,0.001910292331848837,-0.0050128291699939815,-0.0006829940999327378,-0.0011248798694936044,0.006013517961191778,-0.009610950742059433,-0.0005992181878186337,-0.0022928124181582337,-0.021092274284219392,0.023047211293483978,0.004201462764064483,0.004814190569110972,-0.0066714699302219274,0.0026851685421757955,-0.0011806022108875056,0.007028214297348968,-0.009246566904856394,0.016845421458922524,-0.013541716662320801,0.014708780985910315,-0.01142016290912895,-0.02418329762437455,-0.0069051534467862085
-0.005728949679269684,-0.011802420439914746,-0.0025219025248152966,-0.004690364951683578,-0.011765923012707362,-0.000604922919968947,0.002924670182952086,-0.0063046678408257345,0.009118047658365148,-0.006496178162550423,-0.008277715099787504,0.012149746721338176,-0.004715865129651924,-0.0030610916433994498,-0.013469776298044267,0.013019454782088,-0.01933652130034121,0.008658161709929172,-0.0028727265362430377,0.007945519240445688,0.001996427515216529,-0.0001700980968379031,-0.007950710454575256,0.00452266730950554,-0.023825546006395682,-0.005345197666416633,-0.0014481804402035185,0.010476876178353146,-0.00756164055972586,-0.005954911340333231,-0.009522819322196086,0.0019268549232399658,0.005177461097718339,-0.0033944768967751004,-0.008550374245811801,-0.009751160323878865,-0.007430927194596931,-0.007171139920746439,0.005289218337745237,0.005655512419229806,0.009426392765827695,-0.015773971662831038,-0.0009064231184972457,0.00304085872934136,-0.011221039834141308,0.005710342463983301,0.0101052078510759,0.00346961921501615,0.0007379685490077812,0.010697340003698815,0.007523064717065093,-0.007044846938700925,0.0034739642500265285,0.0038072106376064027,-0.012806052393868353,-0.020383004010940318,-0.008027645427043704,0.0022796246998796335,-0.003402482468336399,0.0014066726656221382,0.0033410947283013066,-0.003538905885528923,0.003685492754260064,0.007342890395562486,-0.004912630324840645,0.017846407920951095,-0.018180871376088665,0.0031949968218644162,0.0013801211087233734,-0.007752754105366543,-0.009068453562527605,-0.015258524113205356,-0.01281179652645433,-0.010852834157494244,-0.006055211179069574,-0.0038243796775098804,-0.010042723313711482,-0.00011560123440958452,-0.010373129075426094,-0.019603737258990936,0.0027280841207156376,-0.027068800843285824,0.0034949942930598624,-0.02087748506331237,0.001037250818389558,0.002927257336183056,-0.015111370202254079,0.004589670312528455,-0.011004125708167813,-0.016320414716308383,-0.006135419893389996,0.004166284731943063,0.0003464950034950854,0.007204477996552174,0.006007100601601111,0.003016052625694278,0.0019680092609463355,-0.005426049668945075,-0.026448922340664482,0.002701407883056499,0.00499501550745156,0.009410608909705374,-0.020574770187289433,-0.0006476547950325736,0.00956949352864878,0.00414528329125625,0.0006124187253805265,-0.008589200455322922,0.010520973704072591,0.013944249077873245,0.002318451371130741,0.0018383542941932307,-0.006100194480331605,0.010314461601215137,0.0019261904767516969,0.0019957401226666028,-0.0018886636525683798,-0.014942229607177157,-0.03189854373679233,-0.03224852434122589,-0.01611901688941263,-0.006989825255187774,7.734630012510882e-05,0.014566935482444568,-0.007644575987586376,-0.006314450175741596,0.0021041823316112927,0.006447813301536635,-0.003161847149479787,-0.0028630561311935496,-0.0011643593324924047,0.011983963121174385,0.002896347090222482,0.011737042062053293,0.0053254891862743025,0.008825984636321416,0.0073917607056065045,0.00018419866274478212,-0.019712420264367744,0.009771605101507706,0.009556339072491064,0.0011922053779632278,-0.005437989997885093,0.007930391139342626,-0.0038880513871000794,0.0016808051190217784,0.0025261569479706186,-0.011733772702981227,-0.0024276670168573663,0.01833930132526961,-0.0055525935190189665,-0.004726113012349877,-0.00024360441712476064,-0.013108944377863493,0.004070457530573996,-0.006182728098882039,-0.03279783004899757,0.006397445563411371,0.012381335346977692,0.00585012860212262,-0.015576652562300449,-0.004965687138990622,0.003997014403923426,-0.0023781092243013277,-0.011275194426629841,-0.0024275398351961083,-0.0037017589463740255,0.0021378602338813506,-0.006379003223400301,-0.004646106044537956,0.01833796406166238,-0.005603108124861965,0.011067035357777385,0.006451237378463881,-0.015169753282189669,0.01735708945571239,0.014001878189975708,-0.00814035061337724,-0.009017795766764538,0.008295842662428306,0.011317263505337048,-0.0005232650208079088,-0.0007516190785425865,-0.011976741130645174,0.008360961074425965,0.002678297686560303,0.003314997893420113,-0.000838927702399255,-0.006210802565477756,0.009766076636428861,0.014464405427145327,-0.004731274555303462,-0.0031014462086734343,0.0009204381101873101,-0.006621327532413127,-0.004167746845047448,0.019567754898421413,0.02777303985652759,0.015444630571951943,-0.0078009058293876336,0.012375941135251254,-0.015641194092829106,-0.007307846624716205,-0.00043581008864467007,-0.011108932139531978,0.006239543415323111,0.003955925784102379,-0.0014194469076739336,0.003344923396711876,0.01863847851043659,-0.006283580537827505,-0.009636522971887065,0.018849451497267456,-0.011795055280405337,-0.002639470610312753,1.083847429285256e-05,0.010472571197540335,-0.005295879252127227,-0.01606616308090209,0.003459863083761555,-0.0073437629595148836,0.02487675384001899,0.0008887254642756186,-0.005472042469326076,0.017974455375886145,0.010259709528637341,-0.01055957334370182,-0.004361880632713388,0.010536114389124314,-0.007596188330401626,-0.015410543551824439,0.014516190240541491,-0.004398555916243986,0.0037382645992731565,0.006868266740094785,-0.006176384071115787,-0.0010843850468524071,-0.00025932964424413605,0.010471848787924879,-0.003754038195624533,0.01024550480270717,0.0012478744138069266,0.010704187875513306,-0.002836512644482238,-0.00222701478786134,-0.022335242638507804,0.0012237086921304172,-0.0051028195998900575,0.005563102641171775,0.006548030076018593,0.004875624484511956,-0.012819731907978646,0.021440325473366394,0.01603737384971388,-0.012071838406484577,-0.009767277196053917,0.002360183002854351,0.007177736245457484,-0.00972173945769855,-0.012644035552342493,0.01176601517802487,-0.007045887865799977,-0.003160971725640602,-0.005296119406275829,-0.007778610818606552,-0.002634931047364518,-0.0007215527747502788,0.009625950179793577,-0.015509087178400303,0.004814284088384092,-0.0044730431378341845,-0.006228639899032194,0.0058228171422181835,0.0030406174991820787,0.002353048852621086,-9.350964745097093e-05,0.014986137636313932,-0.002695155200950148,-0.005548888157472939,-0.013571610237603218,0.010431899222292007,0.005641591807533617,0.0022421090949399773,0.0014994823735092592,-0.00995334766519831,-0.009651516741385383,0.0015880537714706724,-0.002374715334673354,0.005102060187733514,-0.003484202409428308,-0.015278059301128714,-0.0025412834074380448,0.01795860295589962,-0.0019783059388135092,-0.0029439491378579715,0.016719199483794897,0.00626410953710083,0.0006153749471437121,0.03517262438565586,0.004516280782263926,0.004086430603452614,-0.0021812737875834833,-0.0034181953960928766,0.0014024738940813925,-0.008498495500126749,-0.025023376151090695,-0.005747117736738511,-0.007541134080493108,-0.007717203792550952,0.012516657183295397,0.0023970138210694537,0.0031624058361277066,-0.004263338591591813,-0.010178051998377815,-0.012618955152330753,-0.0035095966091979796,-0.0072525576311673326,0.004097274246571015,0.030602691821127917,0.009842328735951705,0.00547420554963895,-0.012343202212611353,-0.008430330985921535,-0.000964717748452036,0.0038774589925776224,0.006450316252707537,-0.006882824355394913,0.0054703094246477315,0.004197052455274592,0.014123771684850583,0.01138287868985726,0.018002717292763572,-0.013394164829780722,0.00989799912224903,-0.01930141927146051,-0.0059431275520500804,0.010724638705193206,-0.017843945617676563,-0.0008109117690892829,-0.014309900960415636,0.0001565662693629417,0.001017085376542737,0.004978856309252828,0.009660545322919163,-0.0060589826045941726,-0.007902249971742452,0.012447489415600197,0.004569668327394044,-0.0024669379608930697,0.00687490022088993,0.010258334566576034,-0.012141475098671401,7.358865115117359e-05,-0.003319989949390184,0.00968230140877531
-4.268916014499738,-0.33537443906512193,-0.5034796479443813,0.03379962934527391,0.8871933409570172,0.10429433745998867,0.02606247964879592,0.0473049090080745,0.08310174870885055,0.008989240146398483,0.375047255946363,0.4134630811475851,0.3400059396045433,0.47721592988684997,0.2888011905111637,0.4628119798914076,0.5794706213093874,0.2082230369710372,1.7547717166921228,-0.017725306039278,2.7541638125566736,0.4812188624691903,0.9372599177157113,0.20445285402111588,-0.14364394030543043,0.6113978998195813,-3.6613137283132997,-3.0080322692832406,0.631680753263456,2.3145995739053054,-0.328265445029324,-0.5719111876840391,0.5684379565863921,-1.1123803692716432,3.6671509586246924,-0.6071154585046363,0.0746614098288963,0.8260928067252291,-3.231803892542584,0.2416065533891175,-1.4158198269342828,-0.15297263384777116,1.1904051383325562,0.9727954149871483,0.5872485702572927,0.8574261908173834,0.8475399739443487,0.25255467385588476,0.5658177958150934,0.7948381019369285,1.779696250925303,0.48710675791333535,-0.6249410367268672,0.754191778349655,-1.5304522777568785,0.09830071861582504,0.8748368904400138,0.5567743542820642,-0.18357293666770566,3.325192807720464,-0.9440300604690841,-0.023075643361920632,0.10148705202923086,-0.9729851220761946,-0.009625748782155294,-0.16682032035494196,-0.0645687529808536,-0.28400518860809043,-0.09460868204300538,0.07402265898806622,0.2768974505833676,0.03597518410049034,0.004189311469504592,-0.3097411103559774,-0.09914244238193952,-0.17814693258067751,-0.09533654180988323,-0.7407070338838191,0.13433385149155805,-0.39680928117781,0.0023301307205289092,-1.4181013730167702,-0.24164254909163652,-2.2082593602879625,0.022778131952079388,0.9079743930572349,1.1550431471126064,0.6782111351646914,2.461147007628676,0.18201002850006356,-0.09098878771601866,1.0853570930880743,2.4240514724713824,1.9960880694481218,0.24907292039475704,-0.5905616330616833,0.44064517229565886,-3.060433300291558,-0.49579891929032577,-2.118116865129085,1.0156111469314582,0.5352536340677335,0.07371091972410757,-0.9222212257729124,-0.33518803221639043,-0.3390596237146117,-0.48509503680659377,-0.03925485928869896,-0.07458895951963763,-0.49833509243204177,-0.1061640646859061,-0.8314296934511022,-0.014906966017449357,-0.8273656223099556,-0.002804890630078555,-0.23207651759496598,0.10902169937718187,-1.8838850284624924,-2.3673959524284713,-1.0333370967971311,-0.13438414066729384,0.08615973288601421,0.18129311248652552,-0.002146828671557365,0.11178541307159791,-0.0033098383265157518,-0.8701882443561693,-0.03635586071801724,0.2650192422815912,0.103438558699526,-0.1537919696008469,-0.13303286686094384,-0.38053843168804613,-0.35152222125896193,-0.3255698647861209,-0.21226436372547866,1.4255332988600706,-0.09770149121424763,1.7644602437168089,-0.38649562399603143,-0.6052597970732746,-0.6038914312343646,-1.470160256622362,0.5318679498574608,-1.2281021752322863,-2.5777101223871655,-0.6497178862246912,-0.0690382282410801,-0.5099509273192296,-1.5543209530244062,1.5166370142596202,-1.0038735189473627,1.5014059280836318,-0.6825245764134346,-1.724324719608961,-0.2903320730732914,-0.2685349497240504,-0.46373807857621185,-0.5103160429915181,0.15333666755368447,0.9499685317550026,0.43019627632758656,-0.12813322091827062,0.25577484822248164,0.07637272143540699,0.03718607562307371,0.4042118887372393,0.6464334684556865,1.6009710715430137,-0.603761741048545,0.6773674858765307,-0.3518197754419503,0.19341067806310827,-0.29958610999236673,1.1895682038599236,-0.26443892137674074,2.6097437739651603,0.29146339496414825,-2.3079735595608217,0.4147257341054527,0.08194535028239124,-1.9815966084676295,0.015000625563293513,-0.15992873129444635,0.0712908769907347,-1.1763992397752647,-0.041683508102034375,0.6486416585437438,0.20906926935955192,-0.20289076232682554,0.24119415706604502,0.21815446514888512,0.03265026221850969,-0.19702007532345855,-0.01572290291353118,0.9927883206511118,0.6216637877781773,0.34551253100146195,1.53828215137025,-0.11837613561340656,1.3811328094848796,-1.0826723482906393,1.8117542394123165,-2.212471995920885,-0.1303262928163624,2.004657277283065,3.7737951815238624,1.5755403068479004,1.2056048814692362,2.3460914667925907,1.6699057668995025,1.789783355117642,-0.07722305198818419,-0.5238533748561297,-2.0811603569484034,-0.9105339904022928,-1.7786760898681415,-1.4018708090415741,0.6303150683875941,0.19148632985263017,0.9664965057853524,-0.462665812687168,-0.6093703103151675,-1.1973397352900348,-1.388276392800458,0.4385236529849992,0.3853459754557915,0.11893429080261,0.5224477728606532,-0.10388960368992436,0.01187235238327337,-0.7025236497494592,0.13581076180851984,0.6226422306137055,0.002893716634761901,0.8053192426882192,-0.9221495090119877,-0.7387157874541168,0.21082968798340163,-0.0022507550747003138,-0.235552093969925,-0.01711080617733676,0.7702219783224231,-0.0016641124983569292,-1.0043053265930377,-0.10187016865193858,0.10478280506308071,0.053012647133554955,-0.36964271069210075,-0.07357753313167456,-0.13543015995873486,-0.01360458153188502,-0.08354226502808246,-0.38151138006583185,2.1546905164649637,-0.12644552018787691,2.4520255936769546,-0.7908840558453045,-0.8610962583443365,-0.5221134818014744,-3.402325959486072,-0.5869307021416845,1.8701600951923167,5.700614851918098,0.13045645172129244,-2.044749614142907,0.7638025044779175,-0.7305023129520727,-0.7964366543965381,-1.1353937524974393,3.844583078004522,1.7509759782115684,-0.5804691582863482,0.782712655407758,-0.7226210184293489,0.4338521676793939,-1.9918620788809187,1.3616166616849141,0.737680926225189,1.3665085844762541,0.7261060408389575,0.7108557212216045,0.20310665268977987,0.24840113401697214,1.214113100099037,1.3688001277504798,1.2435681542556976,0.2645843247350893,0.8284940679007868,-0.23630123769633005,-1.127612698177458,0.185406063706736,1.007881094608888,-0.004087682016306184,2.7218240436589043,0.7283562947697977,0.7925768970008061,1.4959648665336474,-0.024287381988377828,-1.24740217990332,-0.018638697216015476,0.8556561651551816,-0.01618702046656093,-0.285780190912916,-0.09755999129773141,-0.006368383083872028,-0.18373018283729525,-0.6408765856265848,-0.17945886547269427,-0.12647165922731024,-0.1429512284022602,-0.3664963370279747,-0.3324490659345993,-3.0265642247521796,-0.8245107482126222,-2.3365170619276405,-0.2684153065897872,-0.8345051045676736,-0.792191491520437,-2.667655302113535,-0.49708861507269336,2.1592679419409477,3.7499131394646197,2.221980857273412,-0.9746516649923107,0.4000018250565976,0.49525107922655204,-1.9013797347297958,-0.3602271253097051,0.8338898184544906,1.0063925106767058,0.8387009517478328,0.5821288445730848,2.1839264846702284,-0.23554893878848965,0.018804024588142905,1.7845341437911124,0.45294478843980207,0.8630759789098346,0.38175336581820746,-0.3846492261025987,-1.0206724866379366,-0.6394453271933119,1.1820428555070979,0.4963041890190016,0.27916736099536676,0.8569071150478346,0.5198077103907717,-0.14155567356361146,-0.4669575334244806,0.9499158825579473,0.21795368437506432,-0.5279098787633564,0.736660305430892,0.46405250267202186
-0.6616587976184101,-0.044070040321501594,0.15002534323438035,5.3067228788971965e-05,-0.021465156052502557,0.03198371133310128,-0.03136420550662061,-0.023895410338523694,-0.0341496953764551,-0.0128871616310902,0.05761540372075552,0.07131152591803686,0.09621571437951147,0.056703857147823895,0.009039208608884373,0.004628994589469331,0.009833403048909086,-0.010456462140285852,0.1514580751741927,0.4017880293094894,0.7639072097991723,-0.07119263376497509,-0.35711556484529344,-0.11365768793391624,-0.3648946931639724,0.011014458139975113,0.6464455446616684,0.5915303712896348,-0.16306686180489574,-0.5713969102798407,-0.2561158365988093,-0.5775243255383373,-0.2330442740453773,-0.4115628520342004,1.704496452427247,0.05328023770969442,-1.1338568078413924,-0.1088836605676806,-0.9558631914648142,-0.07394088844745156,-0.43330042889417136,-0.05779201262104113,0.17570597741706875,0.09666959713208703,-0.07753294458742102,-0.04790876272540912,-0.15149921327024318,-0.1718480428595851,0.03918967442904363,-0.015622365434990156,-0.019217281685353558,-0.05713052109693888,-0.2766546907596074,0.016112493244649254,-0.24364013982041255,0.03636050161816324,-0.16073481067987802,0.035872427326132536,0.00740413290056859,0.0709086410391452,0.30738233270185333,0.14040816746388338,0.01953813029937128,-0.08170832943872917,-0.007732250264236535,0.2677395058149309,0.00979248689210718,-0.2121894225366816,0.003364049654198454,0.02081894654785699,0.0052618677585764915,0.03633433055315411,-0.005243009426943547,-0.02570417506294721,0.0371395995684943,-0.011728361551964684,0.02345117915152749,-0.13396749199813643,-0.022845266464059762,0.1263066828917114,-0.03782079351890745,-0.013090711537482059,0.701623318619928,-0.391382834470461,-0.02603862268522331,0.2561487397914557,0.13086823197010228,0.14433427457825115,-0.8762933539546526,0.6384613731712053,0.31388455485965033,-0.35601251440291587,-0.2054001392489741,-0.11400891324906161,0.13237675276300823,-0.09107208726291598,-0.2238549599413209,0.5586060047506152,-0.13820650420719774,-0.770991213369508,0.0672943355452858,0.015427525071787556,0.11367129635701066,0.046191241539009935,0.19362081799496886,-0.2793068099685912,-0.0828580254797599,-0.010922490785268666,-0.04413037647970043,-0.026376182759540734,0.004847602461960816,-0.1256012367211998,-0.03233234559497348,-0.5713188631102238,0.025213982729749278,-0.032026232417202496,-0.03172729834289725,0.16348335515410037,0.8136481235780492,0.2309494585943982,0.010952374449319518,-0.006466279136684841,0.006826985588666741,0.0021982034644106225,0.35196548913505143,-0.02202066548290776,-0.0787310644241831,-0.0008514978125099377,-0.07107120855896354,-0.03474308768051154,0.015572637461321238,-0.01783550699069239,-0.013547650206747657,-0.03446893045752893,-0.03697011799535659,-0.14072187203304337,-0.8614932707068035,-0.04568024403154402,0.021979501883519,-0.20567528274139682,-0.4953248459126034,-0.2859417826856271,-0.2727737321494086,-0.19792736345587786,-0.5390341937843247,1.070815495857953,-0.7813191043989455,-0.8940383616159546,-1.9237760284773386,-1.535250647012343,-0.5025975972610671,-0.9341201684240744,-0.5109221657439965,0.13842934290762232,-0.9007499106060478,-0.38419478115668426,0.4912346482942467,-0.19312624916054605,-0.9993552969405571,-0.26410834741748107,0.05624589684510856,-0.026617112220373055,-0.1746934211349901,-0.01756718562165458,0.0365410311062779,-0.042392119167462425,-0.19033241556676417,-0.13559726921821777,-0.043263310209787395,-0.06283750048200068,0.1900046094099882,-0.009104555089250684,0.24252671310090745,-0.03064395063564632,-0.13288736228938522,-0.03966007873400741,0.5097045876101146,0.4185836573942677,0.4696970274780867,0.7244285856202313,0.017845639274856107,-0.06226638886940142,-0.016978059523945082,0.43129361448490794,0.023716745905100808,-0.052281953828013004,-0.007168059117751928,-0.01904519328761117,0.025938787724016185,-0.04268815404963339,-0.1575514921004551,-0.05474256222137908,0.05856414014005484,-0.030930807564560157,-0.08342857723353907,-0.050778790605932385,-0.28588764357323493,-0.6672806257860537,-0.07743118990779418,-0.27154052564801245,0.035933081122486527,-0.6712082240994734,-0.13898554214843634,-0.9005084147158299,-2.472519545193112,-0.6938171644381181,-0.4478916764299267,-0.7925709073261582,-1.1258384448389576,-0.484980387206099,-0.8356868314241589,0.5443909960195152,-0.3011372191035577,-0.4329452380451996,-0.4620815355191414,-0.8582704025930198,-0.44785264639174993,-0.42252523977688816,-0.14719407921696848,-0.13049332858434878,-0.09387057529981374,0.06196193438916083,0.06284567374837584,-0.09032231369241453,-0.04285396785249186,-0.014731565219993697,0.09538422980213572,0.14837651629566243,0.11244575187930347,0.2296355727243446,0.03329804250490374,0.07634673757023634,0.060520845789392465,0.3829022360313074,0.043779456648575715,0.9215327912259821,1.6368363795774035,-0.05302217499072128,0.21721914773013767,-0.0049907048594140585,-0.0685691332915446,0.009036257196063175,0.07616988350335395,0.006540173108769213,-0.023927796296682322,0.001730579852037911,0.009765814715445239,-0.009901479095830085,-0.036163623003772474,0.021803867564537036,0.076871592605861,0.11308976690421914,0.03222339687816982,-0.09441959733312537,-0.26520160229685547,-0.11627517685962646,-0.05184984788005166,0.019233950614953844,0.20685307303812636,0.13559334134545636,0.745017837472311,-0.0777897152440754,-0.7590250414913023,-0.11099978168407813,-0.06442240004094384,-0.06149270192703131,0.338192481432338,1.2760248767954607,-0.2786224076021758,-0.3475218591518957,-0.8411164387866243,-0.00031134132103967935,-0.5065899848220116,0.11554014373035568,2.325215814320801,0.24913561250524227,-0.590037115225148,-0.272250429349186,-0.12496770175550614,-0.05423143424364273,0.1610517530220217,0.1294806225320985,0.15044253815523534,0.07614690017813697,-0.1996085577628941,-0.24388739226925865,-0.1563434738215079,0.1732887142755204,0.04443228970544806,0.012582514909039487,0.007208958631450611,0.11788038728419575,-0.03826372026390196,-0.08598258858212907,-0.6024668469171466,0.23598482342135418,-0.11098031886189814,0.3343201022294786,-0.003592773630257929,0.0049165851822042545,0.016199257944810547,0.28603852005063896,0.005607823302318456,0.016515370305895324,-0.008420833644282835,0.06074639587153966,-0.03522464942741549,0.03918656214291605,0.07446323129766749,0.08804506353831298,-0.02687060548981801,0.007019920116709781,0.035206288072876894,0.47656095517908,0.11543135077032979,0.5260047878015157,-0.06272690156196786,0.10697136012588718,-0.16496299889258284,0.14940448659490851,-0.06278485136474486,0.41738690489351493,1.2257345909240542,-0.33675461791182765,-0.3403611285274315,0.0811726889712516,-0.26339037919578057,-0.0038634657581932304,-1.1534885262631813,1.141303775228563,0.11000517100848974,-0.16721364642890368,-0.16494681844419648,-0.34428051635054263,0.02525771108034128,-0.44473136867684937,-0.19588347319251917,0.17129173922972074,0.25623280581918145,-0.17180271302076933,-0.022007804711899417,-0.11181279585090681,0.08719139786618264,0.05944353372168877,-0.025852664307182135,-0.00924556747171779,0.1376287135275215,0.06738986726938782,-0.048888086656306354,0.10506969501469565,0.14141850171841464,0.1722098617506694,-0.010491668799910073,-0.5430456133627244,0.6318954984609157
-0.49946988225827904,1.0858967214466582,0.012686550431196863,0.021014990173597595,0.1614901054016117,-0.007359184938215351,0.06611652088874533,0.002635044039847535,0.42716781801440673,0.0052380267780268415,0.035532171420347494,-0.06521834357221781,-0.03406844004042736,0.04365465623812411,-0.11842946237303809,-0.04871237120142117,0.022975777518975872,0.07452259825443538,-0.8469521561287275,0.6511000028612343,-0.24967303784602624,-0.03139590664209963,-1.3233668881798228,-0.6184369343596379,-1.1807770081318671,-0.017971803129100676,2.8479266211521264,1.295018375495519,-0.08157690882827111,-1.2433921070574174,-1.451554971625554,-2.774102890779433,-0.2437332250750358,-1.049437189135382,-0.11031527094071156,-0.43262868130823534,-0.9662683611913931,-0.9032844927289155,-2.2946859147431438,-0.9329900083723496,-1.7133665811073038,-0.40252875285533374,0.06827633623201981,-0.160587304504488,-0.3070778718245978,-0.08135534442205566,0.16398140026901073,0.22663102516672837,-0.07103187386295583,-0.20754442932253736,-0.08834060928366753,-0.09972702044318534,-0.011811494771678118,0.026133999772138188,-0.2534720813130021,0.03401119345533787,-0.5325544197949925,0.08092955539679308,0.9669741862123815,1.4217905398602202,1.0114326972005188,0.053592580628308864,-0.052559392047378056,0.3488258334353495,-0.021011060403464954,0.6088107565523966,0.06658815888875563,0.06410084004555218,0.06008864267480783,-0.21119847851140036,-0.15551364012495247,0.07306538156117212,0.06374039803521225,-0.02724655363202046,-0.0033704478783400807,-0.030456811623983344,-0.051492278322339706,-1.5453987319710223,-0.43942937016803624,-0.6471340812876236,-0.035930061708075424,-0.5526671880239045,1.2264836721317893,-1.2759680626647736,-0.039562185597791864,-1.3335807394128456,-0.7261455477094244,1.4344434831099897,-0.9745902519280792,1.3753774094486182,0.2776507400036867,-0.41859558647595835,-0.24167134669510998,-0.3206860945236253,0.0619172803502205,0.5483043967158527,-0.06074443960457025,-0.5569807698147513,-0.37675287471075264,0.025341828454172016,-0.36265137261927527,0.21635474744580394,0.5613772733861366,0.4738640110101782,0.4428573949953907,-0.029914793703790608,0.1081034787168794,0.1107969041806126,0.023166787971836227,0.5949957400118345,-0.0768214538181442,0.43286976532051874,0.261686013679447,-0.22221437968101618,-0.22924548973425382,-0.27490886169847584,-0.02455081379079553,0.9138491688150505,2.419079891527816,0.5879632284586599,0.4422595844252144,0.028656436081866483,0.045789361290250664,-0.03204739671154835,0.9955964970460409,-0.010380969370484664,-0.37744318252685466,-0.0019587744213393297,-0.15436054534170646,-0.3702252184427901,-0.05795907615687769,-0.24414070411285885,-0.28638717194931923,0.16264228764742295,0.02032468497339287,-0.1340016325100864,-1.656485535019609,-0.32486582841998773,0.0616665877410003,-0.09573722730643225,-0.5879516982729684,0.1701081228077056,-0.3014917636102353,-0.6733804675556745,1.0843873170837288,2.2249955089880626,1.1027525628914145,-0.7623027505429042,-0.09711740515566933,0.8207072111689494,-1.193903841478263,0.29121067522069893,0.8147867211457467,0.8438920241424276,2.2104119367946127,-0.539123440091287,0.5347030584074685,0.23966584307317337,0.09942206446532112,-0.16319484790272193,0.4542151543417829,0.4669335340098448,0.32639069080313615,0.2326731121900062,0.29650178378653624,0.12668429463561542,-0.22317837118993017,-0.3199138548870374,0.11321210453595036,0.0384148532142567,0.52168430537169,-0.047584477770023385,0.05388179409074442,-0.012489615705184776,0.08163415347998625,-0.061732037706288885,-0.021638343913286447,1.7356366761351798,-0.0006098847592905574,0.6364961624298953,-0.07202091353159104,-1.1355547845762375,-0.03370731528198751,0.18520321271907791,-0.023389994230697497,-0.2603980212653812,0.015853804489781263,-0.7298782869210982,-0.3892240555579201,-0.34312715599274535,-0.6503304945106618,-0.3935843530103657,-0.020384569330894036,-0.2354689927423755,-0.27895641857401915,-1.0765610801111798,-0.3002451107166447,-0.24163551703309502,-0.587317957447453,-0.2996939660685705,0.1837820732524415,-0.20579280537709022,-0.8319897380067042,2.0949766650546002,0.28857149839711765,0.40683605856170335,-1.0799979107131334,-1.553080038272341,-0.8657461300128453,-0.5746921503114608,-1.0108983415498614,0.07693640401978712,0.25591135388576586,-2.230201538933166,-0.3012147306111664,2.789691289753025,-1.114123262308913,-0.2486168980037422,-0.7439410589001396,-0.22307750517205727,-0.566653567651843,0.1716281162066791,0.2583162733061894,0.28875777272581826,0.4805605339792267,-0.5628521488934439,-0.5391232781811369,0.3487754578318547,-0.5357368515620615,0.6731237278955018,-0.16304298147415075,1.2175309340961127,-0.6859078099234388,-0.11090945428575491,-0.3900087346456522,0.04087448203298533,-0.3139643403546941,0.18050645403354193,0.9928821036292672,0.02791114772758596,-0.5819855157386169,-0.015462214459213613,0.7744597735538232,0.017212166836825575,-0.19482874752112003,0.009554189788337445,-0.02085190850800701,-0.3197946982516682,-0.3942078204946577,-0.23496382781771127,-0.17653579813927112,-0.08245152599455838,-0.16737905892900004,-0.3545187702446452,-0.7142704439250117,-0.43112756947704917,-1.3552110506788022,-0.9725125088927383,-0.7408774427863696,-0.6257559737609523,0.7752613702068185,-1.0906133808194625,-2.3172797081250107,-1.4278549007340418,-1.4084925807865454,-2.1057304230735254,-1.080354229856373,-1.9692293027957584,-1.969725249093722,-3.6184739833393267,-0.8903030504827227,-0.739918560743988,-0.718334452927883,-0.49939609353263303,0.5709390590828497,-0.5281767575714483,0.46207839475444,-1.4013038493959091,-0.4442944211102542,-0.1363580740272793,0.16536762095497148,0.16864485573420712,0.22596309349469662,0.750712406104202,0.4567982977051572,-0.36826891079848556,-0.04455777273978771,0.5899095743668654,0.8008733298031757,-0.26006913343190474,1.0733974626685874,0.6319522630438504,1.4493509161412705,-0.4032252650522364,0.7846406340981916,1.9205114281364413,-1.3751726470400016,0.22190781419559616,0.03443291504608949,-0.7748955069570905,-0.054898805097965284,0.4636588604724029,0.041871559807716445,-0.30242586466453986,0.01235397239120355,-0.3188497410588811,-0.42363804239860686,-0.2034380169484186,-0.1975911954788909,0.3180232477526137,-0.05895763955720128,-0.29157276610328353,-0.05843446194993228,-1.2059930290295198,-0.6408334199417373,-0.49694995136749326,-0.31885352959141733,0.9111293487820676,-0.5309040127971187,1.9808228331367101,-0.7702706924690236,-3.314453272169755,-2.1268897346325097,-2.9118946739259024,2.4117895546243875,0.3707446181423124,0.24462516185477207,1.767564283754018,-3.1016478508909198,-0.16669833794604424,-1.6695105546259386,1.2747497660954616,0.967395986053187,2.5872508211880336,0.7381382871489076,-0.6621612079070671,-2.0361279220419157,-0.13774706043723164,-0.08315055410633133,0.7220488822228543,0.44610670857981544,-0.05354703301475639,0.6819314288786277,-0.44579414050845834,-0.4761361663776014,0.39371944021322636,0.2654509097090072,0.2128126976156729,-0.5457487998041389,1.020717332735323,0.0787707719062459,-0.12695135703414015,-0.5145646710495846,-1.2754684222550763,-0.5909538691792574
0.03483617127660419,0.011488018149512823,-0.0016627396867347204,0.0015032217750073288,0.004259506297393257,0.009271265873846265,-0.006696649396253046,0.008582664806358482,-0.010511079823066719,-0.0006497575539822792,-0.01184818205626107,0.0170139754171619,-0.0021818737068839966,-0.015076396400140952,0.023521000398443206,-0.018030459081223884,-0.006148634046727708,0.0011859871968086832,0.011884393895788343,0.008608527291555906,0.0075284530983278815,0.000840322721870596,-0.011145525322862596,-0.0033697805370754216,0.014711244974404519,0.016036523355887535,-0.01600504025483663,-0.01157687729096075,-0.01217970819484808,0.0014179656858442813,0.004720980225862679,0.005065189053559068,-5.9929436079173045e-05,-0.008766416583860409,-0.024949409116841122,-0.015690630719746523,0.00024580852287513477,0.0032007854690750217,-0.017987708449798363,-0.008731964623320022,-0.020255408693583766,0.008996420987850601,0.01260453729043778,0.008143350678787315,-0.019550734075391766,0.006876614996244426,-0.0027718048364986274,0.004775915913217809,0.009098272048380068,-0.003444415093526856,0.00427714332408629,0.015360238611991926,0.0070125358198963724,0.0059199666782237285,-0.013245752051059108,0.0003647730154033708,-0.014727183816128435,0.011054163775588105,0.045910171597456924,-0.005372459800539999,-0.0024849219052639096,-0.01848110169369711,-0.0015669256805854708,-0.010245300729632688,-0.005164279623916527,0.012164268866760712,-0.008899509659734196,0.001458453798272582,0.007459085902652094,-0.019512073574310985,0.009561801472022359,-0.0029606021122974458,0.014730706249184317,-0.0161687220013326,0.005578696864299353,0.0065880821354803295,0.0034679570799798203,-0.027501266686434083,-0.012645916304270519,-0.0007653501901690932,0.004431812806942796,-0.00800779321122853,-0.004953219073834648,-0.008900481359268348,-0.004892643079443842,0.0012173152159152187,0.012815113089945037,0.014059244472366979,0.015049385284745517,-0.0246317638659241,-0.031020750452311216,-0.018883617586396718,-0.043567067875989005,-0.00499504096470175,0.006796547709002847,-0.01229137963555971,0.007654909350241398,-0.03012794162869935,-0.0010053699783806778,-0.028307270191693584,-0.008031600938342806,-0.003215296569786575,0.014386988595157763,-0.010539474670174865,-0.0026253013483909563,0.014289555252863927,0.010297165800031852,-0.021251370446268104,-0.002986434817326757,-0.009725409247317894,0.009378494331080286,-0.01156451235435213,-0.006628015728299158,-0.0025267450119482258,-0.007615470426689697,-0.014709445631426359,-0.013196136231054936,0.03781525435613499,-0.04169123007984527,-0.006583282241438545,-0.004404160578679475,-0.0031106133303395425,0.01325277044255371,-0.00017902866863701543,0.0065914360419796056,0.0011696013575958628,-0.0003166060223385753,-0.012003197067787262,0.005368607580436846,0.009144269836465161,-0.0023234110722725222,0.005969112872732521,0.023523402017319856,-0.00680973400338397,0.0022436495625409616,0.005789883454383568,-0.032103711716616724,0.004148542022755728,-0.003776496095764848,-0.015360487123529797,-0.006009340659701076,-0.005505400083417414,-0.009893703862695254,7.463697919201706e-05,0.0017700441535586499,-0.0013620527503415611,0.0004805543510963104,-0.0019337488729791014,0.03541703241675004,0.001520992201960592,-0.005789318322296512,-0.04614880937293366,0.005776537330989528,0.008090457112327705,-0.009658190564532413,-0.00032254294607200225,0.002020525480263578,-0.0015141082642839126,-0.021471654809366254,0.0020834017741361835,0.009993380963988253,0.011312288969839279,0.011752114371576102,0.007545918994726498,-0.010534285409499201,0.0025978824060300387,-0.01424030624582471,-0.0015782409449636842,0.0027313902076619733,-0.010667555963433177,0.0020152542401847364,0.0023120089514697285,-0.011863114528441108,-0.007581212915029538,-0.011288881038042316,-0.004213385804767076,0.02126794819681738,0.0017656819317841187,-0.008527641635206138,-0.017746394291263467,-0.00020832721654426666,-0.007097078571043115,-0.0014209329250084817,-0.011300194858014858,-0.006122948500785201,-0.0006472410024070259,-0.004650357114186393,-0.007480456467567499,0.0014651956309450608,-0.007949829351077548,-0.006609648330298754,-0.0032834913636646665,-0.0017198608024311364,-0.005763130774670092,0.004549751270964861,-0.023411005950405836,-0.0026669220843511233,-0.0037238758308519213,-0.010590529315459823,-0.021722249842275852,-0.009792438352786936,-0.020545360799757675,-0.0072046996138040425,0.01037470696880033,-0.044895435448569734,-0.009458200918023681,-0.052235501638899805,-0.02161680508688492,-0.056011276123270975,-0.04001205126665687,-0.03330904141626308,-0.016940010393838825,0.007139984613423757,-0.06749857521933236,-0.014618554503097436,-0.02227493459695654,0.014953979605498173,-0.04996670570135962,-0.015434560779298652,-0.01845128325190297,0.0033248841570964836,-0.004563414543985429,0.014769055098471984,0.0035342143773923083,0.001977812283858206,0.0015134594018139519,-0.0003661203100822516,-0.01459507677254979,0.0038159683161809923,0.013576103866442396,-0.008355651205353521,-0.009798569306597938,-0.0063008753919735925,-0.011245067143032118,0.0159973298934475,0.06984839705034741,-0.029634552188194656,-0.005899164205882992,-0.002463048102354739,-0.011063802764492883,-0.010345212858817189,-0.009957618904021909,0.0022425431408781343,-0.017876655082550444,-0.00826690459277791,-0.008031206063089777,0.001370435565535864,0.006912419106020146,0.0009783860711369149,-0.008305703185891036,0.008401934281085549,-0.011550286034648248,0.013580820730455877,9.66597500816608e-05,-0.007729267264323894,-0.005385701515093393,0.006039133926625406,0.004991718672036573,0.0009234310041299525,-0.013781848407663102,-0.01254826486084855,-0.020023087961075787,0.025266288383616876,-0.009235375015293012,-0.0040924938966527295,-0.017471652396772293,0.022786856253263793,-0.00563725081190385,-0.0061498326783052445,-0.03987911568472034,-0.04257409960173231,0.008018699383642526,-0.023479257974421148,-0.011770367257520665,-0.017270789538644766,0.00213753788956171,-0.017180598743423026,-0.011672114920987891,-0.0006444311425580105,0.00581138085981197,0.014666122733147657,-0.024077772166272823,0.00289651688924425,-0.007860599805080993,-0.011135354213074128,-0.009610796190126445,0.007700116346775517,-0.015402730481903854,-0.012739512502307935,-0.004319700711637786,-0.009936394050051672,0.014158591305418676,-0.021423979910070525,-0.006626657678335378,0.013680075054187854,-0.020476640033959527,-0.020371481687608817,0.01391906201324398,0.000854013441500086,0.001374812629874051,-0.013699431927748775,-0.006571893941821343,-0.014402361100882484,-0.010533038429230118,-0.005707670990819096,-0.00013780056126337536,0.009754092671099498,-0.0036237348340167224,-0.014270424964487645,-0.015425325053640745,0.0001687608054427713,-0.011784829023494715,0.017635860832892276,-0.005100329674521673,0.00250567633293221,-0.0033597325147479676,-0.0034224383471950044,-0.02871328562977418,-0.006622157738653229,-0.046235386820533735,0.0036226729572070163,0.010406046994390778,-0.0092005372013149,-0.04163915075102581,-0.03606597895808936,0.004735253258532301,-0.009878671924090898,-0.016061792713367152,-0.02786873099367821,-0.04941050650510391,-0.000805150930154463,-0.05229510886582237,0.0012210927561881828,-0.038858913380790276,-0.017153521674900824,-0.02602922501648065,-0.010416056640345017,-0.005601350515208776,0.002067843178464103,0.00014801852639723386,-0.001252188224745853,-0.007959352990512793,-0.00520303880435983,-0.0016821638910642866,-0.0052596174602824435,0.014794107762894712,0.01885234248910709,-0.0020959150020078074,-0.022961124238262687,-0.012999742568354577,-0.0013792899428908365,0.003856587854874576,-0.0028403955966281834,0.052414268934409786,-0.038496285248812004

Wj
0.023161323618898402,0.013046566183058309,-0.024876096453738245,-0.029477730261418495,-0.03858003672965423,0.0030143017230960375,0.0034568504909027425,-0.021086760786032943,-0.04388149863946241,0.06879438297874438,-0.004298768863105642
-0.022131580277566534,0.001265838652309278,-0.0004178609170983822,-0.013312365975528002,-0.003418735726592346,0.00039430085425546676,-0.01485394052085195,-0.011669925304887533,-0.0006864872317335495,0.008464721187428617,0.0009538391075750885
0.03300783514606539,-0.004107766618068325,3.455020425278473,-3.505654021206489,-0.9403016238489292,-0.0028381040444893507,-0.018366087990970118,1.4677940894704458,0.25629895694814403,2.9789201112791575,0.019010030724514078
0.31584879555984025,0.0035313034198861224,-0.23256682879864765,-0.4306069730770551,0.0020851814048766398,0.015801543699978042,-0.007405740413720621,-0.1927664302642141,-0.1168750449421533,0.06563502494908224,0.007926674937417425
0.5772837923456705,-0.01679353754518436,1.9096008210741764,2.5752485854885574,1.2286098855289755,0.024053152315448467,-0.0036286200717998893,2.7195352696253146,0.5445260653939745,-1.9782024087201848,-0.007729693496289586
-0.011317153691463905,-0.013609720896054575,-0.009509914738419374,-0.001724639944666187,0.0034870926573176983,-0.005045279849941075,0.019792760052251186,-0.004547004248866181,-0.005091783619482474,-0.006654657949542249,-0.0004975156071661463
1.7380187551586834,0.014175845388497994,0.2656591970332803,-4.0079018629213286,1.150749646972292,-0.008000895720014336,-0.00013126380816721726,-0.027536683643905213,-1.5417047571635074,0.31423735935804464,-0.1043607305857286
0.9176292764636812,-0.007714962175117091,2.2631638476311124,2.9624504236811737,1.0227319105028216,0.0048951476366708045,-0.019820179562245435,-0.5843639398679173,-0.3032843994124441,4.397181352337763,0.15985532403411215
-2.894175087008787,-0.003937468537498496,-2.4680918297772303,0.42422982679328053,-2.1482562271029213,0.007586572050269598,0.002005003823339672,3.56393803685851,3.7896584527645487,1.6168991230874734,-0.04226078587630004
-1.1455328164031688,0.002241089688157449,0.7967123034432326,0.7260519169486324,0.017863484571146435,-0.0031727720067981904,-0.0040120596725143195,-2.4652655329802178,4.197214196561507,3.5821076112130266,-0.07687474194006544

Wk
3.147736539408162,-0.015572048516404145,-0.014808784079925304,-1.9032843728049753,0.06890659007229676,-0.5749716845286279,-0.007498451943473022,1.8113940393824108,-1.0074847082321556,-3.3359968146766543,-0.9497079795876124
-1.2272630144338366,0.009797042999561892,0.0017629165497435012,-4.4528346777696095,-0.020756182762204357,1.439836082952571,0.0006810743387838082,-1.86929333673318,-2.3854497491204363,0.9183094925640405,-1.6678408467419266
0.26637768554741703,0.0131812606950973,-0.0024880824095572687,1.0553398773274367,-0.06337373365470578,-0.06133189718914263,0.011799513341608642,0.8629746745621785,-7.270829367570962,0.014747782163505698,-0.23668698671729832
-6.71329305345491,0.017230531543643266,0.012221524822132715,-0.389232296044964,-0.02981002620842019,-2.0713354106893886,-0.0032634588794863773,-2.5167338028244237,2.0097694404886814,2.191322303469998,-3.385444131058149
-7.412984171583973,-0.04073288398672679,0.007556106421739732,0.15228960066379552,-0.05545307550240401,-0.5382549144606346,-0.0204274065371343,-0.36237313795281517,-1.6883366532617663,1.1696676999909383,2.9409830949775033
-3.123737267358062,-0.0568775760117236,0.00564145824327218,2.68615571238624,-0.5174461609461622,0.23519074061191736,0.0074471378052546715,-1.3836637720580054,-0.4243741608538274,-2.1650094675004645,-3.325050142271465
-3.545846685585048,0.05831005147264799,0.006263029560705322,0.7063517757042631,0.30055142848579786,-4.8637008543462885,0.018243551290774606,1.741734744632884,0.4401832470072839,-4.136609885929874,-0.8690896587622169
-1.4129200761841345,0.0366840260027655,0.0015180242100644402,-1.4970555681252495,-0.05406597887945253,0.2052575410397084,-0.014988039229048922,-1.7038984252010003,0.66874821950546,-2.8531951033253593,0.6331057379847163

