Wi
-0.7971641990215401,-0.47594439084471657,-0.20162974755790608,0.00725778470012444,0.13466618282589884,-0.014368440256350257,-0.2235945462501824,0.0009691102484868034,-0.2827104555403486,-0.011923040464935088,-0.04430438236948708,-0.04107514680647833,-0.1041049145409781,-0.0797026029005173,-0.08698779345093247,-0.0754584638603898,-0.07790088325190261,-0.05382388717092397,0.6482891006684476,-0.19727442636970988,0.41135978451827127,-0.08589835185003551,-1.2876907574772942,-0.2534471168726026,-1.196868401040703,-0.07127987309203351,0.2786285559444099,0.37326485411613497,0.02338578167328711,-0.3780091577704654,-0.9605710445799883,-0.2498164825383069,0.042783801973168174,0.2629536398058805,1.957824761988734,-0.028073791602797642,-0.5203273256431208,-0.30507991801872775,-1.9929916648989368,-0.1238841656978314,-0.8198515596832148,0.24891102778906662,0.06533073068390836,0.0835725244068713,-0.24725332327564836,-0.16827161085022882,-0.08807765877829817,-0.10209023069634557,0.1744037031999295,0.14380536752231926,0.5687519743004842,-0.11001745377632986,-0.5360819621963336,-0.015183766166378993,-0.6053067135352705,-0.13170914489834548,0.6710621170088832,0.012313223279843804,-0.41048622003111146,-0.7900940653270307,-0.22164174995375996,-0.08895642847917379,0.016722847836262954,-0.060906581322855445,-0.025807315483791404,0.09053351185480404,0.011775981265588136,-0.1329964678460304,-0.002655560615913593,-0.03936247947785917,0.020518711012420126,0.007413054713547114,-0.05648449874951326,-0.06510781515198065,-0.0800363431629075,-0.09382032304338651,-0.08217764944149808,-0.1741181308208948,-0.17265814849480332,-0.05725301467041977,-0.03957513025922024,-0.3420297303452257,-0.3060399967638649,-0.9091282392734104,-0.1368119253104845,-0.798574450961083,-0.46796923671628426,0.11590951892904991,-0.929591330316584,-1.011331911805617,-0.9432885203533562,-0.9571803366387232,-0.4036380473635854,0.15226307644477313,-0.06276777926888386,0.5057778011252934,-0.32095312249295904,-1.4555991150438339,-0.4970696387147219,-0.806482324726123,-0.11244939656133217,0.28550159684704984,0.29842589763686606,0.022247799216591004,0.017871553305790374,-0.0033132463673513413,-0.002586231895757765,0.0474125058751694,0.06840265690006234,0.5433597217519884,-0.11891237431046676,0.3454528843575229,0.0286946475889812,0.004670374246429233,-0.020828892969887026,0.24201918845833642,0.08113881296295153,0.49775542627201186,0.49133538720444836,-0.25332845796189807,0.08731892794089215,0.033030635851751054,-0.2338498585102198,-0.03824855336598269,0.2717323601680105,0.0026043323592518596,-0.6817342809661578,-0.03132708428337426,0.23361661124459518,-0.04913391934585254,-0.20612915648577615,-0.1739292249787378,-0.0924431130409274,-0.1485101515353565,-0.14719587444193566,-0.13957540762272466,0.4275386244871274,0.37684202229743374,0.025317663911257622,-0.09122044765752424,-0.7912919939611953,-0.03988161345724229,-0.6300134826360926,0.2149122191165037,0.7284007369587456,0.9134655177437897,-0.288251368191654,0.16218602039255026,1.3475541973995626,2.02546425836796,0.4644739217520663,-0.14446400412713684,0.8482627073262562,-0.3753864341839287,-0.8872069813080233,0.28986599874915187,-1.109504462075465,0.34760649411978267,-0.633153677549428,0.31345619977401995,0.068422822299373,-0.09288521748282058,-0.10207681129326007,-0.2032559012178242,-0.1564496996112877,0.007175479359173079,0.22342452255275702,0.31098635634457916,0.1662364566240732,0.15012070220750437,-0.2867356966026619,-0.15466812761245555,-0.44876345616611696,0.27002523074831425,0.13962940659357978,-0.023829023712290592,0.5848715348755917,-0.4677230776250473,-0.1472812418652273,0.4950597632360865,0.03142474773578043,-0.9665688311790454,-0.011322753424759288,-0.10366434427077016,0.014733339162072236,-0.5086371987908035,-0.005252212447331807,0.30505320169234507,0.15308763083429278,-0.07757213858638085,-0.14413337439666646,-0.04418987051689756,-0.09136821192878244,-0.04569603555625695,-0.01148537681534631,0.47304335206708903,0.1313761238911996,-0.2990366335940466,0.06328897126991492,0.6317269081703366,-0.0006372013591426173,0.299239784671565,-0.00047321672841898376,0.052716885163765256,0.10506137653818158,0.8416104370377097,0.3178852928683063,0.5466066335157098,0.384408499436438,0.13375516377643798,-0.5064928231156541,-0.11200796727355454,0.33848909266229754,-0.07911186202239597,0.42314803123355693,0.3418920707247341,0.21426861852971632,-0.4800917257775295,0.6634330967312293,-0.0031133235017619322,0.24421027361537978,0.10222950305533188,0.05101604070534212,0.11870624450284645,0.09491920474001825,0.5495622116935986,0.37000029154194364,0.4252760276769936,0.04557572125961518,-0.02163016955641943,-0.25285977602974746,0.4285924743751961,-0.004778774091111307,0.26183068540553833,-0.035948535677070716,-0.042392308849324,0.4333330392710826,-0.15867688649203954,0.38215188920608334,0.015702481153793996,-0.33640242840923995,-0.03041143474734577,0.4307180876212634,0.026922272800164956,-0.5395066971937252,0.00010127897909226275,0.09345189189262425,0.047777889952142064,-0.10660413560282075,-0.03218818267044733,0.060462459281432075,0.008920907268415315,-0.06766926725874618,-0.14164022898960016,0.49522325148485513,0.0028633748029525358,0.16783453997552894,-0.21137882633073424,-0.7166382135476527,-0.23096971955045822,-0.5870670955725698,-0.2260741004497219,0.8491573455982824,1.895807982060313,0.19989346380129977,-0.5053789457888247,-1.9559427284690816,-0.07801323873316546,-0.910907669865791,-1.191508959169045,1.2532005367095733,0.5395418903156036,-0.39627885667034995,-0.17451247745219386,-0.1246665921044754,0.2419584952313444,-0.32147368482254207,0.22815116616660386,-0.18789001187864873,-0.05605968825468992,0.16072547616307092,0.2078512279603928,0.030723103893768703,0.11762065231979228,0.5696481191408498,0.6031374547288062,-0.1312430683322984,0.36853300012284423,0.16817876370807314,-0.01523678951231282,-0.15304679430308768,0.38511186329806313,0.5336783730741185,0.0229142779077446,0.5901758759980654,0.1596843088085429,-0.34080342775537653,0.855429919838496,0.07361102503406113,-0.5724894647598257,-0.023294680013182013,0.5221906891680389,0.05399308410298827,-0.3955668450662228,-0.016538912133111455,0.07407986697128073,-0.004814710590394432,-0.21162843766650674,-0.03747741101667293,0.05363685606843615,0.039695675203083196,-0.17650023109506713,-0.00924871857310375,-0.3436011371338316,-0.34068746399391087,-0.034641600061257286,-0.026940418440225534,-0.2313621529718726,-0.22612561601558673,0.8570587941591028,-0.12022728099827137,-0.7624397162913862,-0.07752217374284956,-0.07224371027085356,-0.551390916720697,-0.6246930559243891,-0.37640120402283744,0.7271066770176824,-0.7689351956264511,-0.8202599544360316,0.28432688473620765,0.8651751934713573,0.29608185712399177,1.4519638714215486,0.5459725784209045,1.3166894042949098,0.46925464267599337,-0.057742713314680116,0.3936477416262128,0.42481205573200304,0.2292576598779535,0.10837550672076919,0.31911351565178425,0.5936924013153134,0.4337389878490603,0.12860585854204123,0.7272687133225731,0.10725568512107961,-0.20419939080513724,0.6002663161281394,0.4419886383324019,0.06282935019459056,-0.1858523567729721,-0.051672357942045395,0.32132219506642673
1.1862629056020157,0.8405799660557168,0.3289987206996102,0.015170061949426356,0.21197739982031766,0.02555018052973745,0.19409036379943848,0.010883538452972042,0.2366443638984733,0.007933642935913775,0.11829728022188736,0.04938570969656298,0.3226914659880125,0.2805587631007241,0.0761733035464125,0.13947616507844426,0.17023330987032656,0.084239877627022,0.042807825686683884,0.7951125102182482,1.093594808875783,0.044649366641023765,0.4388195649274488,0.1185856753415318,0.6841363211799311,0.04630011701016748,0.4837049059540219,0.4796466309909318,-0.24796988195664713,-0.40876259869024034,0.5291381139754242,-0.3260395046129806,-0.2586601829997382,-0.48070429762446765,1.914232553357439,0.4245484586794143,-1.4607709687240085,0.04320365200245196,-0.4795357616234083,-0.0441133274059713,-0.7161646162856709,-0.40754220264329893,0.20120388769458275,0.08054169724801377,-0.15757119539423586,0.0006342077377745582,-0.027385695556807872,-0.20758297785482147,-0.028622232360348433,0.11104832358947699,-0.2871572027477535,0.19396269007797654,-0.37568715172562755,0.13634104677321757,0.03361149165567332,0.3412239197029583,-0.3332550966477186,0.20059602947786137,0.6826561084595638,2.054750914026469,0.4711038430629176,0.2619945477712674,0.032039000302067716,0.3480708146413317,0.009944518008753114,0.19889203223956628,0.0018172427005458815,-0.08995027048548364,0.02019870184714107,0.05336416796545169,0.12679877161150474,0.11544298571547529,0.09058962611328177,0.1200747041655932,0.022533392417028935,-0.05190121177301309,0.067122234249176,0.6879131811705106,0.18842193062941073,0.5989305347363638,0.0337601862356883,-0.5195631239131968,0.8622515714333494,0.2286797052320974,0.15539489487193459,0.7110758109132062,0.5466914329648997,0.28937446216240525,-1.1866332790565925,-0.07792204176725165,0.25817087606033967,0.20855029143857956,0.20825228901451381,0.5531092062457117,0.26073986677520083,-0.528221192022371,-0.4694471212436021,0.6600701290408415,0.07915384877868788,-0.19223196785682967,0.0011431395347224445,-0.04613512981332934,0.02042738534246151,0.022332867434132497,0.0032710194947440465,-0.18259437823090915,-0.10746688591039014,0.039353638855819204,0.20838366169153266,-0.3440477642393903,0.11277863872396693,-0.462483281762809,-0.008566528812524968,-0.8656408203509395,0.07344634303408172,-0.0680575597395975,0.11958512577803859,-0.7540600196144522,1.5400903647548683,1.0751135354745025,0.004743766734022511,-0.008908343567827983,0.3098493386975517,0.042468535145198834,0.49304153390405403,-0.018454691935702594,0.2561693188789692,0.03192669374636167,-0.09763697666753227,-0.020015908948401776,0.2618092973657347,0.08784556885520486,-0.043097657585169,0.13274879080218543,0.12919703650798067,0.07547862915763413,-1.3596749985327239,-0.0374984626231731,0.0736025378821302,-0.25443595291893756,-0.5006501078808956,-0.20039484435248076,0.09975642577427433,-0.2976626499394671,-0.3797120903525946,1.6022384434615717,-1.748180681290529,-1.1052443849998987,-1.4500039330713461,-2.208562443071525,-0.4586467756568926,-1.0240680115037593,-1.741459436420933,0.2002871056356375,-2.115388378080414,-0.6562621546777021,0.275391780829015,-0.15367034010948197,-1.4263434663980938,-0.5585844564111794,-0.28453719017578855,-0.40304606143454685,-0.45315684373162046,-0.21315275635361247,-0.07875425376884607,-0.17612734593903698,-0.42499424910805916,-0.4083874327500407,-0.19474321096584665,0.03326028055718957,-0.07381825338660913,0.20524716658265768,0.3239854834446358,-0.0637319310162917,-0.5676608999458577,0.1518071662578596,1.1772643702743537,1.0054846975886378,0.7890413221667196,0.6151126075820399,-0.019473185788422966,0.9045093010262752,0.016069501422592992,0.4436110341611715,-0.004876390522151966,0.5280248648365216,0.00817211942141165,-0.1092423041124817,0.0450936473814753,0.03935776711897414,-0.2663369166102307,-0.12737433472927667,0.08617788411145035,-0.12356373179289491,-0.031077534945446416,-0.24458649018334094,-0.25807107821535524,-1.103598528651042,-0.14606353831312427,-1.5208622607973898,0.04473659064872024,-1.656640816517414,-0.14528809793817604,-0.6983324839721015,-2.9289390248523,-1.1935123374570422,-0.8663818342741696,-0.4233380872503041,-1.3968853378056922,-0.5858046350400321,-0.7673719199331167,-0.17160865180041626,-0.6192926385911944,-1.2249774896863077,-0.5592008700808986,-1.8339648827985033,-0.8752752805989366,-0.5553847478283203,-0.4118315641937716,-0.2900544861100274,-0.1696310687583493,-0.33166350765802305,-0.14015488345914526,-0.41358037908720036,-0.1474367991269368,-0.09235040485841414,0.1724806899849972,-0.27379327251359387,-0.055741402398163255,-0.40738959740652075,0.38524640067051313,-0.45281911299197647,0.23681850683775713,0.14778966943228852,0.29904738615734777,-0.5555475702898,1.971987184782156,0.6134730523940185,0.12311077575348262,0.03815112795488222,0.27094468325833093,0.00019823480015101734,0.1026535903360852,-0.01810707076908387,0.47822618037815295,0.015781848483305518,0.06459630736854567,-0.08765464572497458,-0.10539110812289729,0.11913658816581923,-0.03393564863975393,0.196501184682617,0.2720172319492919,0.2978314445059679,-0.5328453645830515,-0.16374234691646164,-0.47584585420799497,0.2685620827901694,0.2677548930372222,0.6599473949656937,1.6262344027029347,-0.19545172365987462,0.312706126972538,-1.183147966352022,-0.3272586582334151,0.739421526806668,1.9948666558959633,1.8506909725794078,0.2926992065355092,0.21607152452849265,-1.95670222172478,-0.45589884052383667,-0.5449917158588288,-0.21874770851165753,1.3624109765377066,0.18858012874399302,-1.1366559625326937,-0.21561889586870883,-0.27839599181307584,0.007327693932439482,0.1100099281335737,-0.35785254831199625,0.09543153027043559,-0.09700017637729814,-0.4031704701274677,-0.4532881088038083,-0.22790639043807523,0.1994767629686884,-0.24089465030734408,0.0056649523925172965,0.2221951513904947,-0.05042584050035777,-0.2712178423532526,0.03026607198349927,-0.3287811666118281,0.7948617443552116,0.1919094918570152,-0.08652546564961516,-0.07560581456090382,0.16586094460683648,0.027190369562915276,-0.17460267333409252,-0.027286481562248006,0.15186358057726276,0.01864635547669656,-0.04031657783454422,-0.1330673621548771,0.06398312757892699,0.11773544127202619,0.038400098986583336,-0.06216010766220045,-0.025457631470603242,-0.01067811675901685,0.5434477715528352,0.28892519008028605,0.5716574389647421,-0.015233370787163933,-0.3412576370347962,0.022651836601076947,-0.052441522432752304,0.047764424856699454,0.8320894354152636,0.9695593401396383,0.009579164699603274,0.2689069575447369,0.34141496120227943,0.1443609015722643,0.4781676987905049,0.2852155115758954,0.06684816996551729,-0.09481353008710519,-1.1684603517334484,-0.6158278768076831,-1.142810434508395,-0.2568927945746843,-0.5220188606454831,-0.3383582525903681,-0.21606732541035975,-0.041223654813710986,-0.7299088307272231,-0.23444876683623708,0.05483970727923166,0.03677527411370151,-0.05267986580310481,-0.15691283937847292,-0.31412571024029956,0.0026584561831939075,-0.0636561799625752,0.012162450099223407,-0.17781054304133415,0.07750830851569146,0.14277670265462017,0.1830868433162593,-1.4831405474482482,-0.16112900760180693
-0.0073791528645224145,-0.018122532740693732,-0.009178537404220638,-0.0009282929928199105,-0.02231463457849353,-0.013778341118158826,-0.0013055247378560971,0.00379744301819624,0.004780591919945358,0.005580630084125514,0.017233890829638117,0.002409215927277197,-0.0030294171710287727,0.002203857244167363,-5.482439026054781e-06,0.01391270271227448,-0.01569708589813638,-0.018239954045979168,-0.0023013264022553087,0.011680354657986902,0.023441505411981357,0.020705933600018447,0.0002609238679654471,0.006700850255969236,-0.01909731152013752,-0.003609537773866529,0.020812801533300174,6.546477605712936e-05,-0.010597315122866224,-0.0020810710463314832,-0.0014425376639442976,-0.015471136599640707,0.0018674690351457247,0.0015635377357875832,-0.012628064563855113,0.008702533040277936,-0.021449867518033065,0.00900079131220298,-0.003408930613853622,0.002427600312610938,-0.005849010344604734,-0.011493980832590794,0.01044152632181727,-0.016736315857051532,-0.017445209473698327,-0.001390904026264551,-0.002655243256943253,-0.0013180672464802904,-0.01411967651222121,-0.008178287680138426,0.002269695870371536,-0.010778439339493035,0.0009605721576737582,0.003471478255568562,-0.011981425201548313,0.014420353325547992,-0.021980150791108738,0.007005439921904262,-0.005206046034881476,0.013459859956617862,-0.01168359044749908,0.009703662441411428,5.636347071772649e-05,0.013676554279935912,0.02594472729271049,0.01751828745735669,0.015597691355326286,0.0011111540002670243,-0.00039962813937978675,0.008662776000535357,-0.00469929357764823,-0.0037898164142479763,0.0015491882479888106,-0.021326169049633418,0.011093867841893503,-0.025557525147054446,-0.0017235482607265045,0.03609169329939151,-0.00028221022781765794,0.021318729017164195,0.005141413070001963,0.004122181570330529,0.0075048150698632824,0.016556386150880713,0.01263423902388354,0.00035915650576476347,-0.013510754455855012,-0.010622008652677609,-0.002867371359766558,-0.015100982647117235,-0.014919027580392043,-0.014236041443006537,-0.006085851398420405,-0.001259369173463348,-0.005920016372954945,0.001753704954727975,0.014429064175425638,-0.003936909270297275,0.01126476058529109,0.002368051871746977,-0.007500249239981589,-0.006308806546626909,0.007300827184325274,-0.011833798895506101,-0.007576484076477303,0.006072267918465596,0.012885963252541084,-0.00952523261368567,0.0036378568410964773,-0.006677553257313014,0.018323011475948787,0.004289109268316217,-0.0037191576784539513,-0.00795575675367153,-0.014379981377998863,0.007968726459889401,0.004239584206835677,-0.006313796520792537,-0.015698529710800994,-0.004597288281419974,-0.00020910822669121748,-0.0051688240388800405,-0.01603107727061821,-0.003702289656529131,-0.0016220805219155437,0.006695662774855223,-0.008830243699538791,-0.0052262802676224995,0.015286983445359557,0.007016403855150657,-0.0021995520948369044,0.01427055693383602,-0.0028132402189158003,-0.01196025892775151,-0.006390839249820742,0.0073330598453730435,-0.01179720844661949,-0.008385350318985539,-0.020841579717417555,0.010131650529964894,0.0194168679295603,-0.010148297123080666,-0.004337203592539742,0.006765576955363569,-0.002135733681083134,0.018070060588655134,-0.00926598825741635,0.0027721082273911906,0.006723444095520828,-0.0004069181110479607,0.003671459336326467,-0.00273328943389804,0.007364759928513391,-0.005703415380340834,0.004756785778497565,0.022412485501512862,0.005949350564579387,-0.00361131639640162,-0.005352998706387649,-0.00531272832770276,-0.006594905445440811,0.00015459190771469986,-0.0027818044179189166,-0.009019596038031175,-0.003648293114174869,-0.009032653463095867,-0.002735396869545771,0.0018962166151406791,0.0017382966288375513,-0.0009339468276522782,0.0031108876355564674,-0.00019769132022451366,0.01098195262210274,0.0036435599187426533,-0.02023778708883793,0.010922195546413264,0.005456987046700518,0.009823909527844123,-0.006461696062526673,-0.007977214656060244,-0.0027099113932669314,0.009367080584960524,-0.022376279713697246,0.00774842621165758,-0.008851029190586938,0.0020454874688792444,-0.008068166611715857,0.01126808623428474,0.005954032647621081,0.008891113684654148,0.009052345379891047,0.00037326840198749576,0.0015798885462674297,-0.011746251249914177,-0.021865045532099694,-0.0010456134411701596,-0.002233106298267603,0.008550455539254861,-0.017180138001594625,0.0027260859633035216,-0.01637127622881077,0.009860714596119327,0.0011793753393323917,-0.00797907968960493,0.002145995138076772,0.0017785421686369986,0.0040935437688044115,-0.004140902703346823,0.0023788080253302262,0.014564953273788461,-0.006779897216614065,-0.011219178480773308,0.008313472224251493,0.020760897156107502,-0.004249785161879788,0.008297222052033518,0.0013923729097672297,0.013897655966830933,-0.008923134375323653,0.006458445284873118,0.008997028114995375,0.009453597626471974,-0.008535723765485687,-0.019399224240905025,0.00395303995382072,-0.003692048534364565,-0.012444697956879835,-0.008258148926265021,-0.004630524024314751,0.011440644718760908,0.001365278566159761,-0.009528514467265485,0.0023373864151209523,0.015117320465767735,-0.010009458521092779,-0.017521989752666188,0.0012230462217528875,0.003554966828174702,0.003335323601947057,0.014532432582134413,0.004505125146869474,-0.0016006583120790428,0.003229844884142591,-0.00526961026111946,0.006691608409450752,0.005648940852258153,-0.004083513707937456,0.004933245602084948,0.006930731136490521,-0.011685250494233097,-0.007947602597549258,-0.01710430949014054,-0.004036099703025003,0.010470605367305076,0.01263386501944731,0.00481432664235904,0.01770301051852763,0.007144785220890315,-0.014198560244528405,-0.0030941059734344548,0.008384836237174266,-0.021631112868347336,-0.0037521112012737453,0.01584184947428813,-0.01818931164184274,0.00521641495734049,-0.01283871122560756,0.004155651663235486,-0.013166098518571631,0.0173746204132355,0.003376172439890138,0.0005336395374872347,0.0193785576770008,0.009994423747542194,0.005704883623284946,-0.0078497422774792,0.021411005393006683,0.005569303103448276,0.009878013514286117,0.015614714766676354,-0.00923330394731837,-0.011157431489424413,0.007228501243087952,0.006859099957884496,-0.007222301224964386,0.021118089037084703,-0.0004122292598795085,-0.013855668098179317,-0.009220818021407572,0.006535124370625193,1.2658349223254506e-05,-0.00011364395325706399,-0.010640538784338821,-0.01812696961526596,0.001355437712537183,-0.0250478983072163,-0.005236309994291815,-0.012020452606372927,0.0030229689554877523,-0.006506680989481026,-0.0033165062491996287,0.0063958292390424165,-0.009291466090134157,0.0013921364148090317,-0.005336345032977349,0.005734641745880278,0.0162409581385369,0.018749733898051967,0.0036386024850391645,0.005100940503717761,0.018205478354682086,-0.005555373385227876,-0.009346296423055048,-0.006656024823763091,0.0005661375602046112,-0.0008115353836030046,0.007153129949083641,-0.0045939139752693755,0.0007184631990154541,0.006420873503939737,0.009788238775705938,-0.005616466254793605,0.003383503367163978,0.001378076838719863,0.006375936133163872,-0.008581085664107469,0.0008561078327303862,-0.02289792702326776,-0.00315039763617833,-0.020028078867212397,0.021186349242080488,0.009056401084801234,-0.011037690578941285,2.592086944883736e-05,-0.007599694311097746,0.0008382659807636507,-0.010641629305420928,0.019306865217929025,-0.0029678794329520545,-0.019691842715630573,0.0009128773717429409,0.006139786849008046,-0.0007205772411181233,-0.015050058479149165,0.0018696360291229795,0.007347716365850801,0.016605435001559903,0.000315351952840143,0.0008658274195807586,-0.010060364023150128,0.02338721930426004,0.007994521354836,0.006213308952553226,-0.010704289714308242,0.006659089060314698
-1.224487307705613,1.2121344509890235,0.7519711332912579,0.018588653949944925,-0.34234795635870796,0.05529539071056194,1.205345570849695,0.028728330712487617,0.5528568302837732,-0.012520303738651817,0.2512806475473283,0.43956555341977205,0.25382140495355804,0.2242308330002443,0.3058708394434637,0.14539744049688813,0.3183841796059094,0.20268058801955433,-1.4782652535294003,0.9159518491160287,1.5743667174086875,0.26200095210532076,1.7873477405754536,0.35533267679692576,0.9558359105112982,0.4795789047856413,0.4366033251095947,4.315719954031269,2.854127534774051,2.677272361880836,1.143276203352478,1.9928769713453547,0.8774757267683264,-0.493907971479965,0.2985967053057541,1.8875288543282098,1.5353759174630088,0.9323339833271688,0.74942269629468,0.777576665076869,2.1418425731403303,-0.0793878438525392,1.1618015062616838,1.0626920469440246,0.7808984495660469,0.9574657824736343,0.9513152458326962,0.6494867439817522,0.4344528455446671,0.35419837453304726,-0.7858203535678993,0.26242559808811594,1.0728178254365497,0.3479771857315747,0.28599931937669704,0.04522315415572391,-1.9518767354464213,0.14516908949985308,-0.1469665211757758,2.8962160142942266,0.42385761739334354,0.5382432474768091,-0.008349476056677857,-0.43537907744128795,0.0780199442093836,0.4608624456900422,-0.025015624410538607,-0.009462248910613277,0.026954168143742217,0.22360483520181462,0.12407159739222698,0.11868871697847054,0.4008106108817188,0.22333262593396247,0.29011356684175205,0.1511866831459265,0.049756301600459095,-0.6900468639157373,0.4474341116603659,0.42622640806067175,0.3423017218445355,2.296750153693542,0.20094863007666505,1.0396783681738504,0.3032783819889693,2.5537429227393518,1.4925050406439002,2.6729551170815062,4.234258482443766,3.3799968752253804,-0.04169929228353378,1.5808937132710486,1.695159745049924,0.39794662256011143,1.0753379295927292,1.347859458546325,2.7137930387966973,0.7867502922796783,1.0331423668547077,1.4588673690978688,0.9734053221638392,0.502803001076978,0.7416098567051075,0.8477873691446478,1.4026585183937734,0.5792361178205083,0.586972743827251,0.3006930631553737,0.24434428027533478,-0.8699534630013349,0.11495716076396484,-0.23583738084351522,0.001534144549558213,0.25763534960526974,0.0921087034079942,-0.9355962956289351,-0.14804816961616485,-0.8487252265053163,-0.9401397177897622,-0.5177821053216591,-0.05841614997845172,0.032499716407103724,-0.16532000065898675,0.04219702767813638,-0.11095922593442026,0.0017218927309505389,0.25431797038796755,0.000861993822539563,-0.5588228716916664,0.25356498873599165,0.2306418556209753,0.15821876973720658,0.36544587634847825,0.23246796295920893,0.05772668921420718,-0.16559709655662375,-0.8245679584925447,-0.10363784780587172,0.08733405319212247,0.2614268810852767,1.2311426739166835,0.5845536875542005,-0.29354514679258076,-0.27737407227533156,-0.5706891546326972,-0.6641831005352506,-0.6338306731309069,-0.5324631425249019,-0.05254409838483193,-1.0899187599565512,-0.4670531577384181,-1.4456282404740137,-2.3595702510518204,-1.1374664209619354,-0.6621586705378317,-0.2902567424609723,0.9319370617464353,-0.702778952309858,-0.4535707057869681,-1.5943763466419067,-0.1282029175482884,0.10942881692123141,0.36986688277936186,0.6682260359036094,0.14416217872327028,-0.3420717855479525,-0.4396722287707532,-0.3446362937171014,-0.3702517335907735,-0.44183281650251444,0.45763385496063574,-0.15595886091056288,0.3443693387024777,-0.586469858637185,0.055037032923663,-0.1344801425870955,0.9481359745921623,0.9225198822246242,-1.5524492840926303,-1.0931639824758566,-0.060570180634869235,-0.12005475265551818,0.012971303629267116,-0.2423474997904945,0.057519939189119115,-0.5705585941051575,0.01778170537013921,-0.6084481887169637,-0.19363636457387395,0.47375857634982976,0.382686804302156,0.278574600940968,0.13569592975455808,0.20458763810715333,-0.10169241732994713,-0.41549461109551855,-0.3716318883195992,1.8911027687858977,0.1285454552197979,0.647972581618859,0.5699684964741939,1.974626050497765,0.06488645744265832,0.5565901898580755,-1.5636475574536612,-0.9953008426978943,-1.0599090210298383,0.5919759330249564,-0.3312058547729784,0.30615526676404897,-0.24950997894345459,-0.12864877891806623,0.3084601736668982,-1.0095599332472858,-0.5781565709658557,-0.2233300960338865,0.3499162985398036,0.8190053271790517,-0.5949650855819874,0.4579137429536585,0.23920618018609283,0.06040384140579192,0.37609051341693706,0.2051204362914636,0.1931160112620006,-0.6634023553274008,-0.5898963086667963,-0.07166393500333043,-0.2704872738321127,-0.021842542013822693,0.07030229773270244,0.22563095406965517,-0.7089100702715923,-0.6042231946513975,-0.4506975278374216,0.6240165137794039,-1.739132807826002,-0.13603684147968434,-0.8196397031755066,-0.06277498358355052,0.1987172211561661,-0.0013984345652261808,-0.3740028743290343,0.01884351405267831,-0.017395282426192763,-0.048522405932286926,-0.3041438205984542,-0.03919791044330549,0.050542917400915384,0.036128948542817854,-0.04689412615054324,0.10815722757525782,-0.14730583006559247,-0.24567228807461397,0.05509694887677681,0.2139406369080255,1.6369137840960395,-0.1478328791227706,-0.06467312359047372,-0.07896102994614668,-1.7075046091965913,-0.1432237040893748,-0.9293245731971113,2.546018403092159,0.16346298715340293,0.07691271743195478,0.01843210044924701,-1.3215119060422476,-1.3765958904356292,1.935301567257272,0.6657903446232903,0.8530232157209067,0.3275073255413301,0.07115018497381674,-1.6289709193077881,-0.43092242441973827,0.021842122276257273,-0.23647432385831726,1.0650445170010359,0.47841545535045954,0.08502281223305994,0.16489087137300407,-0.009034032106061508,-0.7106137990017591,-0.29429225673178794,-0.32843273102809306,0.8294500886687354,-0.6261818561995176,-0.2966817941987606,-0.21303362895984085,-0.47101518607522946,-0.48979368375471827,-0.20593139908242378,-0.0011764049967119797,0.16138461127627068,0.6654146583389249,0.44900852321297924,-0.8797987995398331,-0.032172889246360574,0.40336129462053466,-0.016286910071573714,-0.08940048739787025,-0.028979889991331546,-0.028139924829388763,-0.05039571205955787,-0.2021025835391311,0.20504838285629426,0.029164642301848207,-0.0071714096140149996,-0.34781937693636045,0.04084797001922389,0.0127376559395471,-0.16624588397591558,-1.0921816120632712,0.09977422549883203,1.7074437849743995,-0.1168361865777663,-0.4873431843687999,-0.14740240364255527,-0.6157565214221021,-0.017184648419270337,0.6809402666051682,0.6619566682152325,0.21299327036137827,-0.9454336804318777,-0.3286848613300365,-0.4166551085090107,-1.2180388180712465,-0.791045210889011,1.9940816343912433,1.2767364095405909,-0.18314438691258902,-0.19128571109513046,-2.0877290075017236,0.18577119020400654,-0.9786950841251936,-0.6428993152525362,1.5804795850146685,0.6328670544542038,-0.1737751632736659,-0.1560982329258304,-0.06111451253963406,-0.3045239975856312,-0.662684940102215,-0.13100918904799536,1.0163769227935822,-1.1868636344275465,-0.13093643754059953,0.2799724327035209,-0.2724161611031894,-0.8206558336606812,0.2190871882640648,-0.041128562752693755,0.8338165221076136,0.1952975541177015
-0.02485058784862625,-0.06292733704789319,-0.021172579375820122,-0.00016848557314432108,-0.04123260816799282,-0.0006167497438130944,-0.006929915084327537,0.011690661779519175,-0.03343699641085034,-0.004095018315875751,-0.0031037850073697146,-0.01574161054759366,0.00337473344978531,0.00817511856210249,0.002575789698346285,0.016121454935197385,-0.003748039521076432,-0.026077399390847845,-0.07953280777974533,-0.008442350524281494,-0.007638092659951494,-0.023448817909945574,0.033082135520186504,-0.014180314416903771,-0.006915927615362798,0.002544900935706858,-0.16206363006089203,-0.1984477543671076,-0.07056051701066997,-0.006397470966611398,0.043471237896475966,-0.02196710954100517,-0.04906287656233853,-0.09703157592788732,-0.0691377208274469,-0.011349906755036198,-0.05889556400318735,0.03477813405512999,-0.09462677547464945,0.007155251464940331,-0.08033667525371892,-0.06534456912571933,-0.010268561434645608,-0.026449788966678368,-0.0030940949436677537,-0.004672385364604079,-0.04129630093996672,-0.046348487781473574,-0.03349732632370906,-0.02654123398479201,-0.00342085013132073,0.00826559257980478,-0.028175616617236398,-0.013831446860945434,-0.03972339928428223,-0.00311243271320699,-0.0440699385800127,-0.007182330813017622,0.08277055217382943,-0.23728780175101438,-0.03705031369646904,0.028220731376372734,0.004074026811536627,-0.03719462612224674,0.003600180574611684,0.017278963501059178,0.005747373836063169,-0.019289849533570443,-0.012699600517098942,-0.01842446845039898,0.006026709493448104,-0.005180181873963416,-0.02425985290099424,-0.018820182103942252,-0.006843698697004566,0.005184800059831933,-0.01498321660286825,-0.0001514758653194969,0.016164479987770475,-0.07540451980127882,-0.027306838377107595,-0.03820386081454451,0.025937979525490127,-0.019321752908402434,7.535168501250243e-05,-0.040039221262447786,-0.03764480169680411,-0.1419507519428522,-0.19169144395974233,0.034283037627051254,-0.026360206009802382,-0.015311635976870705,-0.0423253945984587,0.08485439317866353,-0.05039199404801524,-0.2736554097115442,-0.0344043930640082,0.3502956799634238,-0.036842433826428524,-0.15127805173161143,-0.016647934235658354,-0.0399094223393755,-0.06683197582812779,-0.03892829295263678,-0.01669681983359404,-0.022063628968377467,-0.05129613021991126,-0.028915506236507703,-0.003899441675223832,-0.07380035088221462,0.033169138566578944,-0.05883808264391246,0.003888695119984016,-0.042530866431462755,0.029218994153832393,-0.009941970082138821,0.0005457606036900303,-0.03484721128449553,-0.14640334003706887,-0.025528787166649452,-0.007195242191194619,0.005905338633981743,0.010002944747068159,0.00791225107771119,-0.023646819432527288,0.0008462710121997132,0.030095599869674236,0.011620935059851078,-0.022018190111336763,0.008214939563991337,0.02391346787844804,-0.00038305022689039467,0.006515290529356715,0.032720645770333776,0.015773539181324063,-0.0012881783802069187,-0.19653583374431718,-0.014072339290457765,-0.043531928481591854,-0.03347042541199791,0.02329674537257406,-0.014029572320107283,0.07791815472162995,-0.03861762351122031,-0.3912468108240157,-0.24233297659258402,-0.3111262713487857,-0.14532845919499784,-0.23253646973741413,-0.3244409532857173,-0.12527322057121149,-0.33339348665407026,-0.21944713009294828,-0.0816639081062907,-0.20298497191444798,-0.01206728327926607,0.19482900246754195,-0.029724912186709033,-0.12254140063668018,-0.1646552915126771,-0.03310270000927478,-0.01708290456974276,-0.039679786537029596,0.01084340997754746,0.011740728180031784,0.01951709128188881,-0.04385879094603393,-0.031131871511946973,0.02667659795464297,-0.03136995029983489,0.05378215805680259,0.007565288730457073,0.06271884478603615,-0.01661014610105417,-0.050587810513450536,0.005626268528202973,0.15499721318174453,-0.09998287478382707,0.02796558864443197,0.05799425493210883,0.005733846166333711,0.1350540989143782,-0.008185318919071637,0.11010586468320008,0.007221387344186316,0.046583807328803496,0.00983548344838593,-0.005033238213541318,0.023212938527227722,0.03003953198064935,0.030887590190108994,0.031857126969184225,0.03310917554057198,0.04544057052555268,0.05191152265934451,0.05181141724320161,0.02472173223411275,-0.06996985210277352,-0.030575112975209335,-0.02381457051463684,0.11207354325801488,-0.05311344096126219,0.00012032611051557466,0.030312307929982955,-0.12268487399188296,-0.40410602182010524,-0.2388706842503984,-0.04633173874694963,-0.044986550595290935,-0.25505933910015427,-0.18296955508717988,0.4000606976350548,-0.12873849334526058,-0.1509605570247737,-0.07629518105596692,0.09602769344251426,-0.08631557983516251,-0.11393789227742797,-0.0417512154747766,-0.005746010903808462,-0.022803732686252663,-0.013140113782597693,0.03849315991503768,0.0006436416341381853,-0.022310094992097188,0.002446168051833532,0.04751967030750922,-0.0002979853448874535,0.03830170278748646,0.028460118103709187,0.04994316430397489,-0.026713755208291976,0.0433565774498302,0.036746988029359884,0.0416641578882757,0.04916720273319674,0.25487200203078453,0.01037102165814185,-0.023506602850527542,0.011932797895864466,0.016289116713386557,-0.005078642011024271,-0.046302366002535233,-0.004149854786549877,0.00017309369812979457,-0.026858175167003704,-0.003771949323649789,-0.0006306763556442197,0.0032612522273617784,-0.025562435808059208,-0.025024393702225377,0.00046832208028806625,-0.01445768452700746,0.014570089399697332,-0.04181051501964158,-0.005264437584338687,-0.0416463416467896,-0.009063019327434063,-0.12035676626703615,0.013394064801434482,-0.07594383079145128,-0.010755808503051736,-0.01408951252048776,-0.008932092308021035,-0.0031893077781250567,-0.03030939951245452,-0.11675764112605592,-0.02356480072444017,0.06651258552572212,0.07573076589977798,0.013083993986676609,0.0019746874414130478,-0.12220813908427391,-0.05762833579241059,-0.1462199151999393,-0.01993313587586788,-0.08434499021665544,0.0159983770418516,0.007030560358957116,-0.016171034971157287,-0.054245887483036104,-0.04439835335810171,-0.043026071297032724,-0.048554173460987254,-0.02892234323655301,-0.007108575001229898,0.011881871243912587,-0.03334638372080526,-0.06838039674903164,-0.011867156651478151,-0.021715896065089165,-0.024373392700042656,-0.04391261489810434,0.008268538256184127,0.025394024471500822,-0.06495051595040155,0.10100942232789666,0.011488265035698013,-0.012039769050039908,0.0297752508442633,-0.005990376494539078,-0.01662751659805235,0.0012883465455494126,0.0494768473744166,-0.0013935303121006641,-0.013464200542924734,-0.017732224255305195,0.008471611645168192,-0.010423940137177453,-0.017732348174866654,-0.008212179657023951,0.0048226939849829896,0.018734429926709765,0.00951152492580512,0.009261509493779949,-0.16412072066733613,-0.007900585300541298,-0.06358020337317773,0.04197825848917874,-0.06914593635398428,-0.0009676733466877245,0.03561160083605666,-0.033211269178657965,-0.13301775225779247,-0.1275563833242418,0.07365279048042275,0.3738397762755747,-0.2637608137609616,-0.12368704684191606,0.21882188868344649,-0.077240748804964,-0.22693297719598823,-0.050427505123054064,0.24058193163708308,-0.03655404344722415,-0.17794540722611504,-0.03139292082642157,-0.052674488092218086,-0.043148350917605396,-0.06450371797095261,-0.008153339039963731,0.009909487269878357,-0.0043475489758652225,-0.006160109355490841,-0.004377208917551584,-0.06463077316606082,-0.03772532157356504,0.030523503813667162,0.031216938935428158,-0.0037808452034929145,0.012964826997884022,0.06542766530465931,0.03589668993466381,0.020396078969476816,0.1530487841780813
2.1275606586808262,0.3944312055298877,0.20853289975687986,-0.019193129994365316,-0.07455077244920422,0.023249894589112835,0.05676027336693284,0.017430744782004688,0.25478388640219346,0.03533687779248088,0.058691586395709025,-0.05657104170691805,0.02202448643486391,0.14012453814132578,-0.11955227063574271,0.08014037972895205,0.09858726314262638,0.049300105142035415,-0.0880818202170396,0.07807524755776588,-1.7896308451071055,-0.0863511462963156,0.49420371881305913,0.16639102464939004,1.37598515636514,0.01504839541507066,0.526739656777409,-3.4358875828292645,-2.2468184605587473,-1.7220090059784785,0.5884040835122791,-1.2959723428995387,-1.0057259386276418,-0.5010054828558476,-2.924615349408498,-1.8571850266993504,-1.1422235778383358,-0.7834198132247531,0.5536408651273313,-1.135541956266602,-0.3177766366140502,-0.7335559138270596,-0.7169926837131622,-0.7358789007431912,-0.32021541745223076,-0.44433782818427764,-0.39624889595520546,-0.23420109459062632,-0.48786183886037426,-0.18222183366292632,-0.36802422787705874,0.035309358554103984,0.12833105385929247,-0.17276032857891846,0.8585700872896939,0.2643055912552089,0.055162040664502726,0.05516920170416199,1.3821878217127677,0.6199012525491701,0.20838652945355815,-0.07334073301638164,-0.0322757236842964,0.4874058258813143,-0.02614998797967036,-0.40599270067514237,0.10476816114086664,0.12742189088073855,0.015764981791996896,-0.11788823347791098,-0.12699462245239868,-0.04704903544903041,-0.13457249899464926,-0.020010208636388714,-0.08897231440280379,0.14117232897583645,0.1806363508631163,0.9391642104564784,-0.17804558942317222,-0.005556630212736851,-0.09957468557883625,-0.9784626789812162,0.472521424941554,0.0757467427968384,0.0012261505355235412,-1.1843745403761219,-0.9371170067085958,-1.9029516274545237,-2.4466482781804237,-0.9120857208725722,0.3228569240509388,-0.2904857281868732,-0.824243191911679,-0.09901618544846436,-0.7939027198593078,-1.6395562010671954,-1.1868690586584163,0.12888498857354633,-0.5720224774523017,1.245569378340009,-0.5319814590976213,-0.6576919117026082,-0.5906206357359833,-0.30854465356276206,-0.6196531241266471,-0.23653013826723152,-0.22017452287503192,0.05559465084803827,-0.13346007397795415,0.1903550188633559,0.13535582002697197,-0.3448233805883266,0.12337729059113602,0.048982780391599194,0.03548743352651868,0.6257122687325789,-0.02383335194367369,1.122361359119671,0.25518945289165834,0.9961360308847477,0.3796828180320443,-0.01946225499402867,0.6204619665721822,0.06434015931642177,0.33962676768397704,-0.006053668187494849,1.1267650984675188,0.04776646522144271,0.014221422690256854,-0.09545784284026795,0.36368868972490626,0.25977407362959287,0.0698606345377231,0.27002654176459934,0.3168991910148528,0.28766628837856706,-1.7164314385356816,-0.12350157304979,0.3613077511121485,0.04637238641023609,0.8788057591596167,0.12708284130393319,0.5464089574042164,-0.34997961357548474,-1.3688054212462415,1.337942192728626,0.6077495995257534,-0.035094552938131525,-1.2042345654090805,-2.3179505882017746,-1.2043745066044689,0.3152040137647485,0.4781465432697432,1.6783896142688473,1.9000847222868475,-0.0030446248833303977,1.9398580509144052,-0.49050192851433083,0.2248269083936164,-0.4394327053145624,0.6652633407891198,0.6074133858803914,0.39836583526246583,0.3638880196213922,0.2833381015057584,0.06636349768429324,-0.33086475934852977,-0.14462214858763,0.0240844665739998,0.25048721755605424,0.3942280829487419,0.37112995364954565,0.29385705701513515,0.21663319612216955,-0.16703746614194304,0.2883167108419758,-2.5575967588422883,1.8274669321337849,1.5099133138630247,0.6263414422004755,0.03994033149569754,1.7037539887566127,0.015180657415907368,0.7269635516085413,0.030111345316142856,1.382217007161005,0.06617255371857064,-0.21309107471254307,0.037040313550453126,0.12554260395448702,0.10846318111481874,0.1348336116306656,0.385911220919203,0.20186776506938733,0.1982287715449898,-0.5362619214184232,0.161840069325546,-0.26008963094946014,-0.10972348918789529,-0.747563386821046,0.403542714646517,-0.2543577489533402,-0.13471090078183778,-0.31446114978537576,-0.39545946780198776,-1.076497308308165,-1.434827387810654,-2.090504565252559,-1.6068341669159558,-0.2071435798845702,-0.07324328753633222,0.15491567576666962,-0.244787679568073,0.38151569365691396,0.07152762806068258,1.4462166609476645,-0.12166039359893653,0.4183062262407897,-0.9497024385006778,0.010227234380480751,-0.16860720139925112,0.3121623609831156,0.45465059494398063,0.17313091269730171,0.37726833877012034,-0.37335258017683703,-0.24994130804354842,-0.4685951653872521,0.15957959030632088,0.43422222539554695,0.565601485199937,-0.06207195396069866,0.21896444344783328,-0.032749714731576327,0.49379898860716326,-0.205231123120441,2.9199016880700177,0.8356601552272638,0.726792949991646,0.019252506669861513,0.3015405147430386,-0.019992284202490877,0.5132897634338907,-0.020690699263278448,0.37265275752705634,0.03126378481856559,0.012931037950248423,-0.15493401365143475,-0.16074745779623353,-0.00983026013072513,0.0034931793030515404,-0.24046975953831531,-0.23588150677292882,0.1851717223252803,-0.6859565622073404,0.1335091143865057,-0.5762690756272015,-0.1283682765797631,-0.42714072778783185,-0.18834933950440147,0.4235138237764636,-0.4151713125451078,-0.4968231040001986,-2.878075882147333,-0.7355384665302186,-1.181913105482742,-1.0858402549604613,-0.7107123339388586,-0.13886824079377086,-1.1220944768733552,-0.2909935395964345,-0.7866740988941284,1.0782066119796299,-0.6197745797743118,-2.195816523255567,-0.9053563110280635,-0.47137343694736455,-0.13154427403024688,-0.04132737221016835,0.2255902060962049,0.17080606167969833,-0.581995649554481,-0.7573725437502682,-0.1363373183607922,-0.005480585599547446,-0.3892161071585205,0.2860830357849912,0.31434971701347186,0.08339977395174872,-0.3033901770718609,0.27077798086639215,0.22571777500889834,-0.01486530539580815,-0.21824639172086358,-0.057497167714577774,1.5731576622529992,0.3713290217850084,-0.39162468379626236,-0.043053612289777034,0.5257478759245687,0.004133288461916866,-0.3093628735371892,0.013117878938964711,0.4888957606947475,0.05618417991330865,-0.20865302546527675,-0.3488665059419659,0.023636439271643966,-0.13780879789725436,0.15771560449385735,-0.036017067385492665,0.126557592560208,0.046914339041496604,0.6275307621530514,0.24740793271601666,-1.0529535668558352,0.14198625840469276,0.485353746085946,0.377252769617732,-0.4132703177273587,0.05878325466312942,-1.8207463717128765,-1.6931129758539083,-0.046778467800169414,1.973031423542924,1.8905415988037217,2.2881932479317793,0.12771605474604578,1.3054876880374437,-0.2744124100700851,-1.3004059638381125,-0.00015541151932243493,-0.06037233151742165,0.5778588817784979,-0.5661420196109356,-1.4859258048653459,-0.6087361493161794,-0.6155728767449724,-0.6066833072760393,0.05055041646425923,-0.10303897020215776,-0.14338242239432586,-0.2090862061804071,-0.8292102740048257,-0.6156489666574462,-0.7035626093241472,-0.11290609027896956,-0.20123110930807578,-0.04963615931784967,-0.5047023038770087,-0.09097667507386449,-0.5576850179522727,0.27663101366741916,-1.2905032907804785,0.602077272022836
-0.7694507828965177,0.5697186137034997,0.1808332024644118,0.0021205895714330393,0.024479393204089494,0.009545675522290045,0.16430146703085333,-0.00934488778300675,0.06582602901645536,0.009467931125817132,-0.028493215689837283,0.047028279797663525,-0.05618762330118085,-0.04787080570850265,-0.04325458960243307,-0.03530966201835129,-0.008141436898690594,0.010508053571015316,-0.08245722138223366,0.4874597407619192,-0.14152232518742552,0.06152856806333285,-0.7448073814744232,-0.14689386477915303,-0.7384587197070847,-0.022547100567181875,1.9086290521206852,2.1648219069103396,0.5768197496862363,-0.34581506055483663,-0.3525889105660277,-0.9513064123202127,0.08247514623364341,0.036151547690130556,0.609970048501552,0.2591174655057889,-0.26613626663060674,-0.4220332021904002,-0.8185836837293089,-0.2028548589533783,-0.5820204838736075,0.2103406005653386,0.10495575947251728,0.04162877201564811,-0.09983182132519605,-0.06899998939624855,0.0008158837329762709,0.10950873733308361,0.11970058872804422,-0.024987411437665225,-0.16248653502516663,-0.06897233498944574,-0.024992980190926276,-0.05864017981085255,-0.21846777737690398,-0.0024687468548588794,-0.03650651895523334,-0.007376833897351879,-0.09069471058015913,0.5480938926499979,0.8729918345664176,0.215546865781343,-0.027320549128310632,0.3708618078827435,-0.006738620882806831,0.5115080077660573,0.015332018861382503,0.04148148240216356,0.05775162586814488,-0.038703115151339215,0.01929198912343025,0.13802913488915733,0.1108221578695549,0.12617253777949536,0.11526476873667423,0.10208832661827451,0.06284937681572075,-0.6788569857563134,-0.03184457590549736,0.22237922359791254,0.13031750049921093,0.32882070644069544,0.5899046193691373,-0.29915893470381544,0.0711813105469407,0.29161855654586777,0.2649669828188089,1.2162295043866413,0.6766964277609148,1.3990889609635455,0.6948259682494525,-0.5244873522499446,0.13553778181785892,-0.8481148562011891,0.5786992815680267,0.6172752487193931,0.35720436760874513,0.4490969833810782,0.10034657687732837,-0.6863358031843684,0.1034488604643539,0.38287206500057325,0.4990809587324335,0.3356732057911325,0.26461827047411846,-0.005321011647057371,0.07557239260051661,0.19617106702035655,0.16932731236179804,0.34559735300410577,0.09995885586040239,0.26594729718472887,0.1425506124684732,0.09466793938320121,-0.039784673719430404,-0.15854454813771296,-0.007628583202801422,0.329590415703632,1.558022803474144,-0.23008221945540863,0.012640709989220629,0.0033189679620634236,-0.12911974564089126,-0.03085732353188272,0.01662745064926629,-0.0032930617897496675,-0.338914585217711,-0.001852837117847375,0.03550045740283323,-0.07397782138873389,-0.13627809078057285,-0.2014007680921913,-0.15609417884537577,-0.031602988275868465,-0.10731081123214713,-0.08073133492951744,0.19835192749487926,-0.25159847375520344,-0.8606208263107968,-0.0390215096795282,-0.3780610014681695,0.055933474320366064,-0.08971133388850791,-0.1617013514163474,0.6449805338191937,-0.6439338459020989,-0.12270688243831067,-0.14537931260157863,0.3505663634850176,0.4797983689871669,-0.2642281346724686,0.7572047181104454,0.006809043698700591,-0.535294416768692,0.5812119186720028,-0.3049327478847822,-0.13122569154542105,-0.10001186653915883,0.6506445268475057,0.08257180881480182,-0.3024641987513205,-0.24705701213150635,-0.17720828106718842,-0.22779299928223568,-0.20321302923753565,-0.24510300880391603,-0.014585038224473611,-0.0954367291579455,-0.35482461424701234,-0.08755327349997087,-0.2639846955142949,-0.15071747619308185,-0.013991930538478478,0.01818538482279244,0.2202074312074076,-0.06387187440280291,0.3678497804904711,-0.5962676902605868,-0.1937178116775593,-0.03237619566035931,-0.02816149330909318,-0.3755382206056133,-0.00662105829901102,-0.21006355637726676,-0.01990569333437686,-0.27490375751892754,0.016513783879936128,-0.09162823691765391,-0.042117712869394926,-0.04885306324992431,-0.1954387947377614,-0.08768276793497193,-0.005503562390269145,-0.060496615556964936,-0.11127049144285307,-0.14690022565172217,-0.0225351645085579,0.25314385716482773,-0.014083782685981776,0.5670725819611646,-0.19629689943746398,0.6624798466854911,-0.258092475566567,0.6825002161860247,0.35534250293827435,0.5455386976660375,-0.2692102116075948,-0.24364592560417225,-0.5689349749985462,-0.35889901974017185,-0.2764510281991136,-0.42890742986514896,0.2738539170000542,-0.06765784028792343,0.20332181416261766,0.9328465390502331,-0.5388722706008662,0.07144210030619284,-0.07757881283939175,-0.1174853070521328,-0.2943585512263438,0.08340843557612015,0.05486876949645556,0.2012014358987474,0.4374155925694284,-0.04658204537277158,-0.21546709045472154,-0.003861039575305216,-0.2622199667362561,0.1713807135126387,-0.19196477035113207,0.7150714382543756,-0.28693943907780506,-0.10196583356904271,-0.19587140212931223,0.22118033230274245,-0.8924569974188213,-0.23147941834131566,0.02503469533370696,-0.015544280589679816,-0.42210385129348926,0.0036173393065029925,-0.0376918864391001,0.0009737354171746202,-0.05953725235381025,0.01568555366485097,-0.06132368883316177,-0.13086958695183065,-0.1994960164684331,-0.17721087359196358,-0.08008913704218673,-0.07331158298971611,-0.1800158486116499,-0.18480828393579432,-0.6374401693682527,-0.3394141745613367,-1.0917861549181307,-0.4703299237288692,-0.22094500786477297,-0.261434839729897,0.08783774785226402,-0.426854267012939,-1.5192549700026152,-1.7501669148349905,-1.8738470599888561,-1.1033429218349011,0.0009811690257791384,-1.0511169725423635,-1.550591231536296,-2.1271575427291465,-0.45943759208495977,-0.8569576719202354,-0.22724529202455776,0.03698844121658373,1.7277048576513079,-0.3476387291104248,0.11212592129805918,-0.9306543631642431,-0.4994462984729599,-0.4299629990951323,-0.08832677242650498,0.22085539010255117,-0.04578736338280812,0.11081969632872266,-0.00450022779783038,-0.24131923988315573,-0.0027094410918830215,-0.06207839154363495,0.4307181899503305,-0.11275382616084678,0.6002924356295758,-0.06974042999826711,0.4715825351862873,-0.2905254337495368,0.38457367724486535,-0.5126818239038201,-0.7011963868880738,-0.3655116047114279,0.02710397731158439,-0.2963858353758458,-0.02642093119622397,-0.029566112842509103,0.030331821491015463,-0.27692526391630873,-0.00204388684787454,-0.11187275611196165,-0.20145192551841987,-0.10921091091590115,-0.18918882871719148,-0.008285544850979409,-0.01456970775272603,-0.14739363819381207,-0.05901994898940748,-0.5462810359361401,-0.45664142041605377,0.24888207388167993,-0.3419066951808744,0.21621418378327628,-0.2271911401967693,1.0053162208762345,-0.2637235915117308,-1.5113353032636392,-0.5793068545081297,-0.8264664823580207,0.4172275512386536,-0.32313554270891126,-0.5738288204147252,0.8758968375484827,-1.3354547361093116,-0.4325244620230386,-0.354792921211177,1.208546083082098,0.24316809197351236,0.31528217755593835,0.40784868792768836,0.0024582977048630806,-0.7262203555303463,0.14658647703568667,0.14830804274541062,0.30663668321460347,0.1907862554222407,0.06132299871936339,0.22376724845207852,-0.15056572499989465,-0.015266141184339877,0.5016159946326458,-0.18742162365931514,0.2477332940388935,-0.29931591726149587,0.2300949150897644,-0.26785689346054115,0.06967183281659323,-0.3096508320189547,0.0542695731436459,-0.8430817293158157
-1.84822534468185,-0.3605575859137553,-0.649385156255172,0.01285917433695381,0.9308690052335779,0.032648750152671525,-0.030228533818319824,0.030620453226087616,0.21209705398647502,0.012526559826533735,0.30001895228891606,0.24943219607441292,0.30925846445031785,0.41964671732327946,0.2255422075229225,0.3733332512332605,0.29902130619550255,0.019617209811179526,0.9387115665954708,-0.0993074625353322,2.2874146307045207,0.3668830506660454,1.0304882827412754,0.013114855087269155,-0.3559768406017507,0.32104769192617943,-5.461459101964236,-4.302613827056266,-0.25655626838914936,1.7531997249295461,-0.8476657250345095,-0.6568697982313858,0.09852808879114254,-1.8265477906011778,2.9715718507756836,-1.1213006060817658,0.2280966020831576,0.6605152062283276,-2.691306336071191,-0.22142723234390776,-1.0400104848568383,-0.866733725674662,1.0921528413270662,0.6726736579828884,0.504730748995857,0.9253780825321944,0.5066506756738117,-0.07723640563654821,0.1742091799943901,0.7082962982325073,1.7324581523720035,0.31855284793053584,-0.5513046751022275,0.5281689961635215,-1.0556536701999808,-0.07214852288142226,0.6129078705900284,0.5074060246511339,0.7247956644597371,2.7017808234728276,-0.41270084551089825,-0.19712136417456022,0.05715726583602002,-0.7733534717756544,-0.0048623528953797256,-0.5201671390024388,-0.034946961425961404,0.12154327648790127,-0.113550951536639,-0.06329503020729244,0.20643201871579278,-0.1384362482002033,-0.09835227818996621,-0.28665223894633884,-0.178162218294517,-0.16306581361401734,-0.10157161968345482,-0.6559661164395788,0.09156335503376366,-0.27959083453729583,-0.02776546345331025,-1.527071173617126,-0.6241334148282208,-1.6262887208146777,-0.16095304862385765,0.49053093380710616,1.0339941581753735,0.4372946006034494,1.2839068984109903,-0.9239379789634575,-0.7496558936760781,1.318677728257583,1.1938075792912053,2.2725889554536374,0.18706643994085279,0.3482480275432099,0.04234563952804104,-2.382359577278684,-0.7376245836059775,-0.3943027212709709,0.5227364278993024,0.4382200320180176,-0.022447354793160814,-0.8370773118120429,-0.44252317319661666,-0.3898036269711149,-0.45627759101372045,-0.07586329147353144,-0.08526702056431042,-0.4927399381302784,-0.09562194397646147,-0.808388165595784,-0.048013936299159544,-0.3809533348926183,-0.08643146673516068,-0.20542529184773062,0.09250893872050747,-1.6568718439038852,-1.8666548263433203,-0.48875045885442175,-0.5832326733134855,0.11701437733713128,0.23652156286891418,0.023704417704207177,-0.11633250729236358,0.05957323335086494,-0.20420647832433986,-0.006175236379982338,0.017632268910138242,-0.21427677872427517,-0.17748951584810244,-0.1765179662852823,-0.32152607835486957,-0.19114789958635348,-0.04370038391054777,-0.284869842263091,-0.36405244147894705,-0.017948689221897053,1.5447951195381506,-0.3559042883793855,-0.879052880908247,-0.5677901073402087,-1.418647345270525,-0.10948269768593073,-1.8316357873597582,-2.8388465889151853,-1.0059935382822438,-0.03619935072296005,-0.8517754062682487,-2.602590801440018,0.17314953471859798,-1.7852702627303505,3.0153694613058213,0.35685818721369145,-1.177802125456448,0.1000328073929016,0.8320017246863146,-0.12726785176241143,-0.779858767267303,-0.41330509665583426,1.0594457007249558,0.6037899229985098,0.010689720340472908,0.4053268032465834,0.234149619349936,0.16467556886297846,-0.13324029597361703,0.4201200828739135,1.5847200777580452,-0.7274415219168149,0.6764464150622582,-0.2044701534136402,-0.04194823362118369,-0.714319895811017,0.6368239584961974,-0.27632198977638495,1.4065177050129365,-0.4501425852672358,-1.034512649219537,0.3454885234333852,0.088170712913352,-1.2592149659559067,0.01960442932438299,-0.25725392625895416,0.057432675564789336,-0.1971365988163459,-0.056852266776831084,0.2473222985698851,-0.05904112198750649,-0.18322535134101364,0.10062775108306622,0.1656320191337637,-0.04554804747395529,-0.026382418962797995,0.1296993676783069,0.9264456560339263,0.1523016033438986,0.030969846431647383,0.7121029174111616,-0.5806529202886381,1.2845004005530833,-1.159509776358327,1.1386345901279025,-1.1457834752588634,-0.9027992755684514,1.5134424188423605,2.4018741370288854,0.22238485317449763,1.1524048982845603,2.35571352568419,1.8637667366186215,1.218221805715325,-0.2719062107730759,-1.520015634275077,-1.643815303170525,-1.479054662967251,-1.3721936198016342,-0.7433982482069575,0.13517412410089513,0.1819047458406516,0.7709143418930691,-0.6031904320701436,-0.3389065392423616,-0.8246925112133764,-1.3432551817794454,0.11732281810728314,0.31706934432671635,0.3732866970496831,0.5199499922663117,-0.25260711188417845,0.1858593123900882,-0.9482888185132539,0.1998954381132647,0.5460520201076977,0.07829403857450584,0.9873271316323493,0.5846912863192383,-0.47632238132709015,0.06287441528961903,0.024372310057383936,-0.05575078203622958,-0.02064924091787469,0.40031578050541206,-0.04771347023553356,-0.6534024509494799,-0.1197323427622326,-0.015164846012866624,0.17645249324233744,-0.12869060458323606,-0.04333961853133078,-0.2570286812876101,0.09755624292300222,-0.001063767283838067,-0.27276640106365335,1.900166187825819,0.058858099846568736,1.7572309675786686,-0.5377996553671993,-0.33139301844837266,-0.2889810083443125,-2.356247661146098,-0.5948574151862028,2.1196980862025327,4.354782471846262,0.35583498923289386,-0.4836473827333043,1.769374278170036,-0.014530031817869632,-0.17634118713899669,0.20338778334838947,2.4756054092900843,1.3392934056327073,-0.14638078762575196,0.40417856060386176,-0.5292724163919118,0.6982695484448268,-1.4410566270123801,1.3649519751352355,0.6417413925932569,1.1099910142119493,0.6727293315004582,0.39847627723128803,0.3529792082305395,0.12544424826531522,0.9032438088167458,1.2129131638330362,0.7171794544222673,0.18813540735432333,0.3578076576634582,-0.22961754937575748,-1.186251004126833,0.006974679163218055,0.299138693089741,0.17675141775479156,1.8266993062469108,0.5883545179709024,1.003349065747257,1.2829801777723828,0.013748415232587708,-0.9143762819217205,0.009427131976649974,0.5480773871915043,-0.0023792081590107705,-0.028811134988454612,-0.026744175208022115,-0.09906119057350588,-0.2512378855589879,-0.6088190049510228,-0.30538071667600886,-0.17259686896255183,-0.1902371567793786,-0.1735381194518304,-0.21311482788811542,-2.5210067608382456,-0.8511811212931991,-2.437767693715072,-0.5704566574458728,-0.5192853494361253,-0.5801682848967483,-1.9882541500178224,-0.7637089330392066,1.4648762899466572,2.8887260837269286,1.5550168704808214,-0.5851691513227703,0.655559208136909,0.7398101867921897,-3.0626623938284867,0.6655975230407616,0.432300320918163,0.30016811078317224,0.5299189508845389,0.3722677235219471,2.045131285538794,-0.643249204433971,0.004838795936572073,0.5664248557800253,0.022632782517325742,0.14450087416323215,0.06193188247107141,-0.34551798463579736,-0.7571661065976851,-0.6771721716621933,0.16087038274944243,0.12264574586357516,0.02854639746265357,0.7646203191228679,0.373612726404352,-0.04440969051036567,0.15370365445795137,0.8049790191034556,0.2931323757914273,-0.0994839540912375,-0.2725899718467581,1.0533074590386862
-1.1900532287519137,-0.6757999465218555,-0.12578791633285424,-0.06880644622078613,-0.15990492207398121,-0.038149572067011375,-0.38535566161203644,-0.034187774357985624,-0.4448495969276487,-0.030578178287657413,-0.2338336469013004,-0.12533339034726176,-0.2519418292009901,-0.27935465525847797,-0.13436904128735716,-0.29113500617545296,-0.22267634359559502,-0.12171482265299953,-0.2960879958261562,-0.34432072512309986,-0.03966911268413314,-0.19390903980792729,-1.0622297966514749,-0.32069292086015927,-1.292477662518625,-0.3016186806181153,0.9391892048352602,2.5980727712422227,0.7000285098603881,0.22813731879406152,-0.5625400864012081,0.24621942841409783,0.2379119419642419,0.3212882482925994,1.2165284362085298,1.0358521442301178,0.8866364426887364,0.25496053208538677,-0.4236251343298263,0.6834335969586645,-0.09540963872361184,0.6140251975259737,-0.054307879923943994,0.12045912078357605,0.0592202902865025,-0.3135220471862649,-0.13267254217575167,0.02725762943896782,0.00940920470092551,-0.22367397813377699,0.11615242206880039,-0.23234909873466775,-0.19619733578517948,-0.14075000253319592,-0.35572982063474595,-0.3214811583728725,0.08997009809587181,-0.2701534993382912,-0.7896451764327318,-2.0925817920278207,-0.16346069941676744,0.06832869298468264,-0.005039051390664919,-0.12983417393200233,0.004194679124735612,0.33607006168564796,-0.039052487354273635,-0.16546696072314865,0.010002611587670978,0.002150940511473547,-0.04292095831955078,-0.05390209016211969,-0.07267367340431048,-0.07911668744502441,0.10471341233682586,-0.03930081017605215,-0.09552645716931117,-0.6208237941297801,-0.1737017791128268,-0.270030068841823,-0.024310564025905264,0.42715843509429097,0.06788418542763329,-0.2971034643028347,0.022793036268195916,-0.3340004053981563,-0.13471550524325754,0.7090585632758717,0.6763258150546461,1.327051315579487,1.1402127027417193,0.022165384852838275,0.20427100714800325,-0.8770529551518297,0.2289338473409827,0.3537038451651616,0.43529742674798844,1.236765152613414,0.513012282782943,-0.7705165765946235,0.01913513444835512,0.07545523768169063,0.2114875858553627,0.09756163827861557,0.1352532478519962,0.20990264033816047,0.09918421352690107,-0.04216165592831751,-0.022001400566253895,0.16099505468322375,-0.2317743792309594,0.19800274854259314,-0.07176790262428367,-0.12623549080387025,-0.10128045065282162,-0.24491388862549893,-0.014137506667320702,-0.36676461456898535,-0.056911130083263275,-0.11308385570598047,0.058610180762307174,-0.003370415013313524,-0.2329884304024972,-0.04785222590175457,-0.1878894070894582,0.03472721123198517,-0.5772347747574237,-0.03786514582126173,0.021655772705293903,-0.046944494391589105,-0.20221623849196,-0.18091183091694335,0.04412659987435191,-0.12074505471337264,-0.16746756547818686,-0.15779824260183217,0.8838578237765405,0.13295027265100476,-0.13552347300247955,0.08508590209854669,-0.3360136981509171,-0.19724823377532108,-0.2869479785037158,0.2924611174715432,0.9730301000579883,0.5259104514412029,-0.0013377641947107844,0.7795599044581047,0.10974287494609765,1.0819895625816711,0.09441598546169577,-0.31127281310717314,-0.6460660084618585,-0.8601064484804644,-0.20740525971618465,0.15431451434052054,-0.880036006248994,0.12258987101871613,0.04010094077989881,0.3340757499434082,-0.3186501649869154,-0.3063285017622368,-0.14519963909388078,-0.27561303327603853,-0.08739734977365453,-0.038941601583104904,0.118313810794293,0.08323655580913723,-0.08357547633195994,0.07122726220667631,-0.07653973485902539,-0.1757468571447029,-0.024079986396544656,0.133679795459351,-0.031187047945527544,-0.06019438702537404,1.335257690329315,-0.5120604711415325,0.07285305189971779,0.02430150259628942,-0.0227188616389295,-0.6212016690959156,-0.011492373506363692,0.03669370231868688,-0.020956796442622203,-0.46256864696074357,-0.009509476046373285,0.08878252203115887,0.03309150971541943,-0.053068853053667334,-0.16159091891882507,-0.1563655926031964,-0.19878263019965403,-0.10986889078697959,-0.1195458369875188,-0.3007797615915337,-0.21208794277513296,-0.2691581165015471,-0.24056459023130491,1.047691828091777,-0.3234171886238178,-0.18117821628854391,-0.45542091782498323,-1.102500113616767,0.49566434320498676,-0.46025450722230277,1.0239443124577339,1.3751356780209176,-0.2844432175198369,-0.8691714796362715,-0.3328869211948298,-0.283927429128205,0.1863189970188308,0.0987126137798974,0.767360778593064,0.30225470063948756,0.05176934984913314,-0.6600194296464622,0.7067647965490583,0.013329132397009866,-0.032811171308835076,0.19158992647025339,0.16035919524787157,0.13958248384858385,0.21699591172384466,0.24832077233169672,0.23300335542068315,0.376619771133566,-0.24318113698781377,0.14170655568773194,-0.2812022847423605,0.5026359310159121,-0.2430794901020203,0.11088590891271827,-0.09517781842459279,0.8631944430390601,-0.1228254346620953,-0.03162755144559981,-0.24035632490344216,-0.013928313242180567,-0.015426908075615631,0.02276235821093122,-0.08654430554740354,0.040468661316682274,-0.06951223124114501,0.015837900792147166,0.16090116528824502,0.16848894977430598,0.23841875544498603,0.08388211376017836,0.178114217667262,0.13328424965257923,0.09428290676928788,-0.0026106898451467757,-0.03081730247238756,-0.04058137972139189,0.2948219122796581,0.25211174179892154,0.9091437140396297,0.24110905760658885,0.10843766530576196,0.4983882421682088,-1.4359509008869669,0.73198382466079,0.4742541205697609,1.535661181210084,-1.0438723489071302,-0.7334783183506284,0.5370917919471512,0.8553329289194419,-0.17353941034834694,0.3531338166131224,-0.5791770605919108,0.5886640794797655,1.8778858837088634,0.26692671909972837,1.0967912630276722,-0.15111167771774575,-0.1544624158822962,-0.4885435341744683,-0.22499337192897387,0.3818523465688676,0.3269712106493386,0.24048926871699827,-0.054546537770021775,0.09473843256503661,-0.3960500728715721,-0.12971491525334017,-0.04308377998892263,0.31753481851562954,0.07949768157836982,0.04980986014030703,0.05110119352650981,0.1970636948961314,0.3178170585002214,-0.2547037798798023,-0.3431171667276204,0.2000127390264974,0.05024825384058405,-0.008094565621970378,-0.013471362191001328,0.22671284586236917,0.005264620730875021,-0.08731083646206318,-0.029527985341147547,0.17536099447424738,0.3354563519694423,0.13951521253331137,0.23787287212894,-1.4461442739139901e-05,0.150373744359667,0.009932014407047161,0.06552982331809165,0.44709200747833233,0.11530416203647276,1.1222645503958213,0.21344277473454282,0.21342230763565134,0.0021201929287253053,0.6238174544220894,0.13907791169519662,-0.5053754612593644,-0.14442772266684567,0.11276161716397375,-0.019796959359609782,-1.7505119278893597,-0.9671828823146449,1.1179362921549303,-1.0942796036378617,-0.2842105301665177,0.5825292011710608,0.39424754919305954,0.41868249195899526,0.7602456308627608,0.594100665725797,0.6625098040245854,0.32959846002808624,0.17115760340110997,0.3977343531879663,0.3226176814926651,0.3641470395624518,0.3862888589081716,0.38611701050421626,0.5498710199378936,0.5193651866900648,0.08907214478180883,0.12823993988485763,0.1572613458869129,0.14201886624882715,0.3217605410807929,-0.10684141766659082,0.09744706419903651,-0.00818118364999961,0.944681313219454,0.36795844931023997
-2.227723247172614,1.236228282798365,0.5429274270978602,0.04333729792600486,0.11607129617855608,0.05252755245345076,0.8603365896607211,0.022178274284386915,0.6375480775895624,0.005624530397302443,0.2833973579558275,0.4731669136607297,0.25303297267160313,0.2049124266179838,0.1490378458656399,0.26537995131197517,0.5012515511287281,0.28875212269027456,0.27542669879041226,1.310916878214622,1.4540971902613697,0.2762944720247925,-0.18169862124854197,-0.09971351591334737,-0.08842857232851245,0.46197057132191555,2.404496746593211,3.017677016407187,1.6812470922174663,0.854529523566368,-0.5867119342805112,-0.47556705829243806,0.9734762652404881,-0.1585640910001903,2.4699721381152604,0.32657452505811346,-0.7775311661565548,-0.19168561169498105,-2.698194051473173,0.10814044611907776,-0.05004066368150231,0.4157243312110734,1.039185090240572,0.7076087661352783,0.15915638871289087,0.6249642844799341,1.0041342201944365,0.56142614396046,0.6139709342126491,0.44795586472257715,0.031118116691504022,0.2085014979488861,0.13865364204349598,0.32286611993188596,-0.3563911794011756,0.13068257286453766,-0.6943341156452676,0.33341587067573686,0.36143835672871194,2.723864026534455,1.1552025656691731,0.467253079412022,-0.0012248217244453625,-0.030410859886995285,-0.01609070711506409,0.6241542293325748,0.024612015015788528,0.0230718967963273,0.019659338757193147,0.023654799911122674,0.15788527128872573,0.2516417734009763,0.28983952095136,0.22031425582579306,0.25273674529464696,0.15450407701555963,0.11729015328525616,-1.474213382906291,0.1238753276721127,-0.08691777356177381,0.25991044819822484,0.7540479681314418,1.0696587956903827,-1.3309187356200174,0.2783905252326593,-0.09166647854785905,0.3393480942530239,2.4439408681557553,1.3251584152969036,2.872684686995533,-0.3216835633251784,0.703687110816431,0.6410414847623627,-0.8197534540155184,0.7372363639007491,0.7346959557344207,1.4474164789558317,0.12283907563651476,-0.2918181946160487,0.1381692888595257,0.2601890621601412,0.8177608624714416,0.918309987683005,0.7888175295811938,1.058901222600445,0.14919027624631034,0.3859827683713851,0.5371179347080179,0.2897440827941366,0.07311593034475504,0.10111117932776659,0.2530621247726178,0.358951407846259,0.061513764192350384,0.12416606631736325,-0.25027188625290525,0.0735381488316803,0.20643217077572384,1.6161051808317541,0.04793471453020919,0.23461549512514046,0.09464749567604762,0.39457636296686865,0.01866054310294429,0.8339935128609273,-0.03616403871598314,-0.3718039476934757,0.0165042235738849,0.07164233856779254,0.0879671323876602,0.14450842657569601,-0.11830615051181968,-0.006817018705523543,0.18425038191577525,-0.054627006155606284,-0.22433301054957916,-0.9573683472273801,-0.14984966475145411,0.5190136502858965,0.3051728915339028,0.011327633834057943,0.42709497806623,-0.3752236223361708,0.02848314936770619,-0.37478944870550296,0.7482429947097914,0.5632497619077815,-1.0857623123318347,1.0517453794847917,0.4986648230276183,-0.19691097385004983,-0.8810298998142504,-0.20407359524941823,-0.10770171039808682,0.900789009201492,-0.7694286390859789,0.6190668052763877,-0.33513782280534066,0.11945901079428091,-1.1725031031708546,0.7337732005449186,0.7610040008931354,0.3763845153784023,0.36415176009772593,0.21465581030348432,-0.32067316795883705,0.022065290588011214,0.0677508633153035,-0.12677685333554128,-0.2330529965654218,0.5639151340060083,-0.20552078821315234,0.24569772147578722,-0.151568520585251,0.5213696514853455,0.16806145460349506,0.3743295485974598,2.137942850185089,-1.4216519177804943,0.1922737993881495,0.0007244401572662187,-1.376857365198837,-0.03933472758509937,-0.0514953350352645,0.07541606164217693,-0.9067290960546888,0.03245855413698429,-0.10498114649586425,-0.09127836019247869,-0.0031475833551418927,-0.1794325571403234,0.06709845266157573,0.09792615902373207,-0.06086914178594231,-0.20081341908036998,0.577000812291112,-0.04588411417397998,0.37128205124988906,0.23352589740168697,0.7534694933951332,0.723334357502306,1.434398634788836,0.014439334600402505,1.4669531410995031,0.11592662722046626,-0.2745382684902483,-0.9595769146434701,-1.3833276726199215,-1.6329551862554579,0.1561002253016734,-0.8465919090066139,-0.24235608228375236,-0.007736929197568802,-1.5648735042401394,-0.39380201503117773,2.290838779332033,-0.7140881685461729,0.04197011581740335,-0.2543367942317909,0.031396551188182256,-0.069047539197247,0.19189930989655793,0.3593084702576119,0.37919913258397575,0.6317006533777436,0.0662806018416652,-0.3857134151386839,0.08275764925169483,-0.5518122756990995,0.33131088947203574,-0.20751465152547316,1.184926805282616,-0.7292964001001899,0.10298776199644519,-0.5177362700946023,0.25443823350196954,-0.8299448134977435,-0.2881673045247699,0.3585516071755875,-0.047596563484478244,-0.5578364676556896,0.006601894069901956,0.6211274764508619,0.02228480272578113,-0.6146089397080513,-0.048152019210077994,-0.08365027630193077,-0.1286939625323576,-0.510101722550329,-0.2971693078407652,-0.1792803732053113,-0.04891445116498764,-0.5705340862990592,-0.670372040460808,0.32379227280624756,-0.35160758932504654,0.14998174433048167,-1.0403468762203867,-1.0520196025932054,-0.8626061806202153,-1.2551194674307633,-0.9724715049542287,-3.085238757204965,0.8354214332561226,-1.1751520727423892,-3.3582085570698896,-1.7400301976682155,-1.8815485527854512,-3.633246195929515,-2.8380054255565668,0.0749275036204166,0.16899520499684392,-0.33925195862856466,-0.6022192709278604,0.2605825953542264,-0.6657553439608981,0.21558953040100012,-1.266220052430333,0.040103595049726534,0.12821750484286648,0.4861459203611646,0.43876933852832506,-0.41339056874019287,-0.12212492884355856,0.6756071299722682,0.34234628548936297,0.8644763249823924,0.1777107268687553,0.8562295791181607,-0.4920573270440015,0.17665448572953524,0.2887756395507636,1.5426597910754856,-0.4303420729341871,1.155481217548518,1.8171214043997401,-1.1138462548467916,0.023401018009192823,0.05251766522898024,-0.9216890575400132,-0.09700718043036825,0.38788164599316655,0.06162265526858949,-0.6393827202572266,-0.03059299372186134,-0.27283389921276463,-0.5305448846968573,-0.524412105941142,-0.36748642031283013,-0.051761915077852834,-0.12848656110332934,-0.5421081694406614,-0.26769597398381756,-1.8883238638235211,-0.9312403751133337,0.10540413920015057,-0.7153684142407453,-0.3779125811559182,-0.6725891498350802,-0.02761615787403514,-0.9499912440113089,-1.7134804644301378,-0.5909421374593391,-1.814574606576788,-0.13193976690852288,-0.38758837286217107,0.47857871518082584,-0.05623779579378232,-4.16779218650284,1.1458973496560116,-0.26216592650073495,1.9951828495263457,0.3300178373638894,1.6365921733006599,0.44440431526028995,-0.9511463006308953,-1.10883866257565,0.7661329698238147,0.7478044859705787,0.9585322389875082,0.25065089605674556,-0.6520313744387672,-0.0635057003573168,-0.17228657332617545,0.0033092202282154217,1.2551754831392057,-0.014803399595932338,0.4988219337128483,-0.6902622759477888,0.2712924681394477,-0.23064950046236582,0.37853788174096736,-0.9272826870854535,0.6093410740426084,-0.728836449830195

Wj
0.4317557656537058,0.08349390643017454,0.06154221926720601,0.008353091637465343,3.7469214016991548,-0.6053780209417785,-0.41421157060767066,2.5521047295855386,-2.3819988329802673,-0.03834332447230755,1.5927626170121858
1.2815492496010759,0.8386540636481463,-1.2441637399564611,-0.00574756659467393,-1.7077605032398302,-0.16507728942280472,1.0028453176604768,1.0389443891646415,-1.0322844302893037,0.734412694951298,0.2764384539225346
-2.561915495037011,-0.7466552336998892,-1.7639339024946996,0.0021628973650415786,1.98085110677198,-0.006084156628288172,-0.07427873783925806,-0.5251414481712214,2.961091243753921,-0.9223186018970864,0.40914190712117465
-2.4354354343777787,-1.2718359119638356,4.697775149364294,0.017087313196244826,-0.2364301671530719,0.4187773063666376,2.6125862715116615,1.1921957471141702,-0.2627631670985603,-1.7744947520961956,2.887116499334745
0.0025348053785114225,-0.008509350477652208,0.00025048064625049103,-0.00945335838795539,-0.008454085295877548,-0.00561134685504942,0.044224760686318684,0.012884055035618548,-0.04377271311934453,-0.011398823431308828,0.020789716655995515
-1.6272603082735364,1.7659324181396012,-0.3094370000546341,-0.01365214967265795,-0.730330587849046,-0.05282969201520439,0.6790806796481913,-1.823031594889633,4.1234141857407876,-1.169029347856785,-1.0591178838429056
-0.2807537791823704,-0.17686398532225767,0.35970630514607904,0.012319418399875878,4.134733203441441,0.11666011382713512,-1.4105285665894538,-1.184260670009673,0.8011696134472769,-0.007178156142347035,-0.5348087717275694
-0.5339683862780593,-0.37247015815292517,0.06503778262615378,0.010471216149465227,1.2384603991566696,0.05423327826970674,3.2710335215538717,1.6155161456439728,0.7796012117783176,-2.4291302724171224,3.5741414098635746
-0.001186102977415595,-0.00775849309901204,-0.01261087098602878,0.0032610992988560596,-0.00011979242007570821,-0.008759921532163449,-0.01007144918249401,0.010243238986236296,-0.011767462232876147,-0.015111946376822501,0.006522182841638549
2.9668092092511595,-2.7399602850648765,2.2450471060186663,-0.012527308042885203,0.8377037404765333,0.27820950919134196,2.449202125643542,-1.620950522916492,0.959426532473697,-2.320404425809767,-3.4270987543461895

Wk
0.7041583133347025,0.06230343994826779,0.08564099989768176,-0.851101888820168,-0.39482599143845964,-0.00274404484071107,-2.078944567861212,1.314062196428519,-3.6113880998932193,-0.004509224750928345,-2.3145493060595084
-2.516958049244751,-3.513051594526113,-1.0683377390747064,2.34117994959702,-0.8876534884243676,0.009470963368618635,-0.9266414894101603,1.7802697774820668,-1.6477588431578216,-0.0032177433018747707,-0.5850585044690286
-0.3325239466848905,-3.2114037148525365,0.16144071547354275,-1.3112041748600247,-0.4768484717707797,0.011431402822773546,1.503164435341149,-1.3381547478987499,-3.9655665180190547,-0.0014475410375282642,-2.1387773318166436
-5.179708977140856,-2.238875202896068,-0.7166615191355553,-0.029474498853148325,-3.020948579207703,0.00023563120077352065,0.5989104125367335,-2.2390181360333044,2.166999812978813,0.0029915772348892886,-1.6404243847578395
-5.122618757149786,0.10398418203997306,-1.2329572949181984,-0.5570807626983857,2.3532275897445567,-0.01649360384932051,-1.1262026969759211,-0.24219465852275404,-0.6032838718924242,-0.002744955723944594,-3.82335918148399
-3.086546025326217,-1.3315109139827876,-2.4711114076274496,0.9067494449152064,-3.1092972816360476,0.008967780008750743,-3.4118015384631297,0.6921813710366234,2.538819761880135,0.006868082410448283,-1.0961966895169728
-3.337663705175356,2.072877339856906,-0.2564756539653272,-2.780288308236628,-3.8453334627045486,0.018211174623755676,-2.006574773900078,-3.100058156598119,0.761271759624987,0.010892355550944465,-2.261993610951617
-0.8216861345393586,-1.6311220993201971,0.3243328182702833,-1.5657753003777506,0.684781577250643,0.05802906875857659,-1.5631903414538968,-0.10834766791301152,0.2791030848343409,-0.012831485294678676,2.729603274923956

