Wi
0.7442254921193199,-0.021611714343174937,-0.03483036828715478,-0.011542269268697553,0.029670780478627604,-0.015519904351830812,-0.02923455596373711,0.010804770337981667,0.0338071866632473,0.008260314817757783,0.012986130014047467,0.005818838893968597,-0.0002463395356760692,0.007806045071581648,0.012158277105359817,0.005602283461927516,0.013097565164500696,-0.01339253917211239,0.013821683775054883,-0.060587221248594336,-0.061120415801553904,0.019971267036006282,0.11664679264900582,0.008875821946866792,0.11466857099782941,-0.0001522846183999214,-0.38610158505445863,-0.4324929229679562,-0.09380507161185972,-0.057935043630205005,-0.09225245776576303,-0.07716273705933599,-0.0014211574421594004,-0.02574827758729317,-0.3056712524175748,-0.12836932235919785,0.02445174918110579,-0.04303577632444606,0.09093470184315428,-0.04590305097507218,0.14093428350877799,-0.0829507457061444,-0.008360774978555918,-0.03274168137626207,0.001952244667500207,0.004155170496861542,0.018076835489055674,0.020163066458948515,-0.0080895744818538,-0.011459129471731411,0.0527893885150946,-3.601134751768001e-05,0.03327370846005563,-0.002497602321504643,0.07383237597556856,0.006095115348296724,0.06674305966090331,0.03272266126360542,0.9167615244393004,0.14762850494302537,-0.006668659824813033,-0.019814672086459772,0.002810290355485841,0.05402881465782361,-0.0015102114245064417,-0.035179615700146986,-0.016132611570516073,0.021208727924530348,-0.012646103814200935,-0.0033988200240818657,-0.0017610061350789227,0.03471843040720321,0.007922402950205793,0.0008271301076456173,0.0038408430485329893,-0.017662398500478977,-0.001535117650550778,0.1436965469228595,0.0627597895637258,0.08605575130737947,0.025929043939675177,-0.029000330758616962,-0.1414951100019492,-0.00026301902794542454,0.021543392883906436,0.1731429790789469,0.13087834391768582,0.06994313837329241,0.04809568080493181,-0.427729543231688,-0.28153157810203544,0.04992674752626994,0.09441915814781147,0.3196647549731182,0.039697069193236914,0.10717830554756833,-0.039005746440155996,-0.9466337029042732,-0.028853075519475198,0.1808266638981455,0.05106747635996461,0.021696785296714767,0.026035123865211115,-0.026883441363273974,-0.02918241336210325,-0.01939092119683638,-0.006141991944800417,0.019491997292455713,0.05595167182729248,0.040284467679001575,0.003217013738189999,0.008149248675432595,0.02335689197553988,0.022485246264962313,0.007465439071146152,0.056512863274632244,0.0004245272412145373,1.015357411281333,0.03891013476289324,-0.038351058893826326,-0.012513537134194883,-0.008201754341237131,0.01587960202712684,-0.003691893982847606,-0.0451717580789395,0.009286139465241892,0.008419164734189336,-0.005886285255210582,0.01604356342151876,0.0035372125000284987,0.005727003702990999,0.0177490095908734,-0.0002054954358011571,-0.013328259020754227,0.016460775915334833,0.00914179872478515,0.13065007950572427,0.027553814348882363,0.08281388718421512,-0.005522034013704131,0.03438114373887125,-0.019140218232795915,0.027531872421569115,0.007940475132021577,0.149965722571486,0.05463052667292993,0.1137528171258123,0.08949489004118119,0.029396090122157385,-0.012810853414645747,0.07433696805750133,0.19065208711736187,0.3325118518511961,0.056411509745498765,0.11332045770538968,0.05197815457522007,-0.05487690585111917,0.03510357429117343,0.1609994030764185,0.1234556892068829,0.024180723167197625,0.017230713313167636,-0.00922551416137458,0.01924849508827499,0.011915529356979192,0.019975256345855896,0.05279935916933328,0.04480872952899998,0.03843604767279195,-0.004042662849414704,-0.0131529543034307,-0.0025846464731838097,-0.0044570385296028026,-0.014852817654434056,0.014784254287677052,-0.012543497669817093,0.5819335260361125,-0.03390956552458919,-0.03300052993252406,-0.04681213567936033,0.0043125089428775925,0.00790561477702717,0.0010977453425602387,-0.06523042531773307,-0.01610892094106846,0.026560829660162835,0.011413006231297386,0.04796301329272706,-0.002160488002704807,0.031404230515186614,0.032453121514081744,0.018681591639991012,0.00522697741733083,0.010143410860198872,0.021536188476828103,0.15938941830614484,0.048512301462437006,0.14034795001332204,0.051043400404236765,0.04804767793784894,-0.007121363179661795,0.07335188256190521,0.06254808731125483,0.23592439677300453,0.24615376940359113,0.18395606620636631,0.2640087851930716,0.10549986821465228,0.1853923110499067,0.19536383145241434,0.23575417636151202,0.1268476342895371,0.08388172319933315,0.14878020415959714,0.031075464653354402,-0.14684872242146868,0.0567373266802098,0.13656390618626496,0.09452859591554108,0.03418386199177324,0.012685376811499885,0.00836037833635223,-0.01361898692959702,-0.005937755686786575,0.017776737764589805,0.053342451700379996,0.03929399484156013,4.0155286678210485e-05,0.019186188088910545,-0.002931745443517439,-0.019390933705564068,-0.0040386608645074295,0.009404720174355964,0.009514211346222321,0.03332777053673395,0.5533984378992463,-0.12656178586032235,0.018413002864789165,0.013366975926074463,0.009215946290047272,0.023885128681646297,-0.004748683138360347,0.022399027018339276,0.002476479276119978,-0.017309443846176262,0.007608061978676458,0.008692593182533523,0.010853078723273624,0.013931035365876025,0.017512459529161112,-0.02440361204232461,-0.022217791819459556,-0.003044312958173705,-0.013362211579229625,0.1149407007617328,0.035962436714770896,0.09472093406603134,-0.008202220868452712,-0.07494688781230793,-0.06354336622628495,-0.10193571684926395,-0.009489037947022537,0.3412807179046311,0.2263411231083113,-0.06829357803281456,0.03090089513073407,-0.19980944508454915,-0.1549663657501196,-0.05478702918947036,0.033635036873589846,0.41601040247824495,0.049179651358167896,0.10252793087757195,0.019259265658534603,-0.4755843125239045,-0.002060899759511479,0.0797873218471123,0.07663359725902735,0.05815206321763714,0.05895207330640688,0.013876334696377186,-0.019164952447495217,-0.03397770550666988,0.039148272374808855,0.08106802398487392,0.06088828170872142,0.0614882731016112,0.01149156033150316,-0.00560929527852155,-0.013158830380301663,-0.00011883449723314137,0.0038715971492635955,0.06039463319867934,0.002694564200237851,0.7479319548942389,0.0873886839332291,0.05598406067331572,0.022100040164878532,-0.0006986818902126224,-0.017343870690642603,-0.002785780714101072,0.016486696406905747,-0.001683642265723215,0.034508677274177266,-0.0026492149844875514,0.015673001581656607,-0.004702653131690683,-0.015526568118126416,-0.011614293305189271,0.015231502642228114,0.0013438069789335864,0.014199893125315385,-0.012930272249333819,-0.018107860918564853,-0.006029439873620609,-0.1194699540321761,-0.0010816115424044132,0.11337151974532182,0.04679554260367202,0.10219292979728196,0.02052996935077822,0.1016106332621619,0.0074458274262982375,0.10035731991343369,0.15636967277162822,0.2785614408273574,0.20163935189948037,0.11827162264752693,0.1501966448383787,-0.3587658073678811,0.016586144816946487,0.12149695555430835,0.0820088628510082,0.3109903025171244,0.07217346711523936,0.11703842419388114,0.07661267410256968,-0.024712674572026503,0.0006864085237789259,0.046990346672034174,0.032089946717363226,0.058111470247517436,0.042208291072681745,0.025097054196375677,-0.012337045920205809,-0.053761370016272035,0.008689493267664902,0.04960267354591684,0.00315802825465751,0.0041438044634054235,0.01764000861151742,9.807539860374724e-05,0.016037679404835595,0.6227982020617269,0.04969087294597253
-2.3736553257142203,0.05991881433523995,0.0245981239750755,-0.026434514536122763,-0.06032916230421847,-0.02582258554906815,0.026449491568091458,-0.02073951179200653,-0.06556824131274237,0.005652694930164233,7.412411290841494e-05,0.02569935266730326,0.011939495649980768,-0.006564568105662789,-0.01592989633757794,-0.026914653051338614,-0.022246816061059427,0.0052937735158007735,0.010717995291586133,0.12274806021111076,0.061290375256400985,-0.023020196810409982,-0.16051327895043102,-0.036400711333759446,-0.22468923113982578,-0.0375841269247053,0.5507446261566924,0.552959158496252,0.0935804520139937,0.029314320747785443,0.0506205632019276,-0.005180398109524014,-0.04832549255244085,0.00830594220174198,0.5388893210636722,0.1890851983401234,-0.123274384260742,0.05027967502454719,-0.24510339182745278,0.022140298669478573,-0.2563655673807734,0.13330025486123095,0.046278123514616305,0.06530818487873757,-0.02137621062970604,-0.026802227676298505,-0.04347647832775539,-0.012915652023526895,0.01944524813406765,0.013759111006900785,-0.041847626039824684,-0.010982527073978265,-0.10544788912994937,-0.047555594444980094,-0.13527578932181944,-0.036462845228322896,-0.08466147409271625,-0.020250098224766467,-2.6363257568677985,-0.2208413524268311,-0.042322312690564065,0.03773300166678099,0.0015771408263052134,-0.09502799349107952,-0.006752289454834423,0.040043871294141976,-0.026867492756038773,-0.03528272183801375,-0.0031647525790598815,-0.01656423324843325,-0.026059731129904857,-0.011078927235351843,-0.002425647477098129,-0.018826747809618606,-0.0010162680053577547,0.010595615133499462,-0.01500832222237522,-0.22642284035545723,-0.06074793215814201,-0.18632303301270475,-0.039052884648908846,0.03034241971422486,0.20488141675152005,0.003064952139229194,-0.029568996677764997,-0.1777479839774295,-0.12424313892894717,-0.09746358195766011,-0.04146837309785686,0.60716825159738,0.49062714512570926,-0.08700927390089794,-0.11896869455539344,-0.48448934060270743,-0.04599985538340176,-0.2820613991127708,0.08252474519998955,1.2319299377812645,0.057047970325275,-0.34691125631053155,-0.07001661787810155,-0.04011417317920418,-0.02327152048264662,0.02834701062635339,0.049637504960991445,0.04966891542166896,0.0026522458746383675,-0.0413686392459076,-0.07425151654745213,-0.10118500611424468,-0.019332608021024336,-0.05325244919914148,0.0029369857971843724,-0.06969770906729392,-0.014946590876608485,-0.13607827475086004,-0.02826901209656147,-2.839371212727729,-0.16349110343703466,0.045710780409861845,0.03821687041960637,-0.002523505756225726,-0.07844355669730713,0.007743511627287636,0.04118557547533291,0.00811718180065956,-0.021259181148900713,-0.003431772434929091,-0.012920483879899672,-0.036155728706770605,-0.03802710358456314,-0.011857140576358017,-0.006208678474838557,-0.0015210871730380621,-0.019022635208517324,-0.025493263943458067,-0.19054641083596502,-0.063161619822976,-0.15416801271565433,-0.005959770057486052,-0.07097758801234709,0.002186985727277126,-0.06530009431396458,-0.015181902948105534,-0.09218327431424558,-0.08352702053850859,-0.2717112991727893,-0.16580911642614315,-0.039102333700546534,-0.06858799181417552,-0.21715952494350507,-0.3257064228950522,-0.3872261011052149,-0.09177556888970517,-0.26821265771912617,-0.07811640447459109,0.0609758947480343,-0.09924294859401844,-0.3206989000968169,-0.1340812620478413,-0.04417526015715313,-0.060499317654771886,-0.009945884097295654,-0.011286565218184165,-0.03943371458852241,-0.012519802137549284,-0.07598857633351956,-0.0708489061573937,-0.047815170459130224,0.0074320199104556325,0.004529454389372607,0.0105494319453668,0.007899182915561794,0.018806090423597308,-0.0644035667709861,-0.01796760777118711,-2.190249109681049,0.02547048806892792,0.009613575934685701,0.03527200704941555,-0.011353578590633163,-0.04749697978294148,0.006379456160139097,0.04264874344532184,-0.016963630669741173,-0.06389816723009029,-0.016172979020987507,-0.050632130630264956,-0.05339278159215796,-0.02369234156476626,-0.01441964936172719,-0.04321198084835795,-0.008333652983991066,-0.028026253075371856,-0.01825325011589745,-0.27878554298373603,-0.10864156322093904,-0.23860562366136098,-0.10518676015789911,-0.13377384719348584,-0.002932583821532862,-0.2015027552910081,-0.09409865354873875,-0.4233225174493126,-0.435619554059441,-0.35625481764861056,-0.40473784626386594,-0.15236052443881962,-0.239876107870998,-0.3792913572382759,-0.39109058731884555,-0.3347096512037443,-0.13482155912745877,-0.2626921398385832,-0.06608622827958216,0.1423821490514669,-0.11344876208808395,-0.2891551502413451,-0.16024910626941546,-0.07737026257929859,-0.038085498500565425,-0.0074411632421099265,-0.006004533963969992,-0.020971427368097602,-0.029783836879892698,-0.0754961684239782,-0.08871142732620652,-0.034385696314600915,-0.03564610663019092,-0.005399723106576377,-0.02115063278186091,0.011393103008899012,-0.03282563892306745,-0.03326394324871088,-0.027703659501589175,-2.0598849970843873,0.040273218907508665,-0.028029489876100454,-0.03592835558549101,0.003075086031999875,-0.04800721947592379,0.0061171005240768924,-0.023066244610565906,0.011830143915556387,0.0010905942624700792,-0.0025094090855631453,0.0001194775663555831,-0.015855442625238095,0.00629409472844921,0.009316824654265506,0.024619133633581994,0.026139549383408532,0.013093620881661659,0.01322958707825941,-0.16195303110335676,-0.06433362677981738,-0.12932101534721396,0.012604276949850187,0.0948550594267934,0.07811909931710284,0.08822804288749214,0.015295780950252467,-0.37529864351586417,-0.3030839421890256,0.023227823257974317,-0.13275071082654272,0.4062529049765416,0.18627866197364804,-0.04910520234094101,-0.01624672666548546,-0.5602470950221546,-0.085975152693528,-0.2265436280354434,-0.022375798112628503,0.6163476636348261,0.004305350948738652,-0.2128488344446387,-0.11323295743891165,-0.10721422070472307,-0.09816541609801135,-0.02747618500320926,0.011627850590337734,0.011218385082303899,-0.04969939206858291,-0.11329557798536517,-0.13518357893429753,-0.0701873318654569,-0.006729296171620275,-0.004159156315620679,0.006190377440971727,0.01197628787766042,-0.009119739664740802,-0.07735816429213754,-0.024073491732907435,-2.428655897821345,-0.20730914099034684,-0.11651637187806133,-0.02814233987987532,0.015593926341196851,-0.014865949472562907,-0.0021497812012349344,-0.025546158330393344,0.002851496247419744,-0.04721212903851991,-0.003373217197193825,-0.006862502941433568,0.0011125505157642025,0.015060921185823596,0.013044192391757123,0.01025772554698617,-0.02324943895152061,-0.03608406940577106,0.007880381148485655,-0.0019771088866184423,0.001424358710612953,0.09035699780757628,-0.02826850705245534,-0.19557015993832788,-0.06331472894928065,-0.18902013636087048,-0.040773744307464665,-0.09666282313738,-0.03831536974520544,-0.19402825190608977,-0.313523541433979,-0.3641090281555994,-0.3840445951317324,-0.21631421465936912,-0.23025980642186972,0.37186155453497394,-0.061041654428145485,-0.26254188382896987,-0.11134688830385907,-0.5173895601404521,-0.12851927102609648,-0.2745042504086698,-0.12367257339992178,0.007028593419629342,-0.026313549472976944,-0.0921648302849746,-0.1085454924236731,-0.062101693789121254,-0.09052746531298998,-0.07304646491827063,-0.029412942368795856,0.010018215266270959,-0.027655205986771157,-0.03688547630184844,-0.013376716324132079,-0.06647003602332793,-0.044149002381477453,-0.00045244233487978547,-0.012300347213664431,-2.1753026031455853,-0.2354523630337554
0.487565203275492,-0.07013166350431538,-0.025109370335247305,-0.00211911091844455,0.013116607861625721,0.0057758791294337765,-0.0335266546230863,0.011973136144751631,0.005136859090892332,-0.00046479559371823543,0.047844874972540585,-0.03177154454084667,-0.01697582311856583,-0.013967696660410225,-0.014310874479567557,0.019597334144518988,0.016540941493607866,-0.010889035090478234,0.1055372093150285,-0.07999785061624003,-0.07545857891985483,-0.020901980668908395,0.11987089567834161,-0.022277260594040563,0.018828692692640665,-0.011702113741602007,-0.5438072202230353,-0.6329174852354709,-0.39751610861991193,-0.42445595272125186,-0.4675081958874081,-0.5654970810714027,-0.3902309310921629,-0.2576602379147122,-0.09486488255340562,-0.30881545598450355,-0.22452333291976284,-0.2741757965918493,-0.30961631319296123,-0.30689660494905147,-0.05260227589062826,-0.18828343453236837,-0.03918247540377861,-0.0592028516512527,-0.031487948419140266,-0.014261205380677693,-0.04486383381333531,-0.052510628426647075,0.0017100890019378472,0.03922560215905578,0.09705209728895858,0.02253475684228933,0.008886757576865481,0.024112023084877695,0.03872937319727272,0.003446859920085484,0.2227274808172083,0.01679350064459174,0.9489705502467937,0.2094521672088359,0.02608929031461433,-0.04060346693360841,-0.010826837947621997,0.10476831999452965,-0.002018222287361264,-0.060249374783725315,-0.014607884403824961,0.015972503030905024,0.024448774130077025,0.009046609374437816,0.02540011424487203,0.043093373147271415,0.008780552545995949,-0.0029807141033088677,-0.01561715407698241,-0.011683721059070605,-0.00933077501114556,0.3126823865657572,0.12769995128830552,0.2700525258899259,0.005427246282527818,-0.21542183215399327,-0.18489151689775019,-0.07489185940587435,0.016988255723603855,0.41727882573556946,0.41749845096474014,0.21121940966970648,-0.07267206225253071,-0.5786195168343642,-0.29984884967653996,-0.013289052057968672,0.2105649898725466,0.6315804492828773,0.12157617273992573,0.20943823590581825,-0.10688963205181382,-1.2567014561214336,-0.04959444427638886,0.1683771046260583,0.13921338600214533,0.06777433260812987,0.07006692812540669,-0.08760408845370254,-0.1447450840613384,-0.11492563886378293,-0.04104225691087797,0.07241598728454197,0.11126799876477039,0.12518502795022832,0.021782403719947805,-0.05837959082156482,-0.026445445424560603,-0.01645134674931827,0.011062722596779461,0.11637481380800468,0.022210744154667724,0.5739223405345512,0.008941979668771003,-0.04429539633059347,0.014163801997676799,-0.013943775386819146,0.00651543862228216,-0.01820821676365393,-0.025616601642411033,-0.009071993043057848,0.03361225262584177,0.0029520370133110166,0.03176533999768946,0.011876278463329924,0.0011968689736811997,-0.012172811311132731,0.008973922589839261,-0.02267427648316976,0.037579015836478595,0.003210989550528826,0.18944382297560064,-0.013739070179373099,-0.08576002967821898,-0.07145581032361081,0.1553964137750733,-0.04911546605217479,0.03331883305136977,-0.05712430866922299,0.04778319328869434,-0.3923798581295421,-0.15374085134024734,0.022598302245154977,0.2219195981400814,-0.22546720739290152,-0.04113994618150592,0.029392791146471437,0.5720797656786089,0.029620442079818125,0.12536267809522872,0.11606500328402057,-0.01480444963575254,0.04209056832156769,0.3652918274202593,0.18133029068110862,0.03888700279278549,0.0456396625734002,0.0719690535971092,0.038467712072602855,0.057476257515615733,0.04218982429591693,0.1515519016569478,0.1023154930346551,0.03553826412787664,-0.03658984344922954,0.008360197111604944,-0.016173381310518833,0.08177979626198942,-0.04736294855961437,0.10728926909950501,-0.041088388562912304,0.3708222197211474,-0.04926030959928497,-0.06456911845091845,-0.09642078836187949,-0.001569381843208188,0.07502412039205662,0.001194020986933953,-0.07907070939826638,0.006283192861688051,0.01279570863882859,-0.01053283577927472,0.06318531330061905,0.036884359570489675,0.03314308655335422,0.07052118276163467,0.017704850612836706,0.001469956504505391,0.011421920748226863,0.0264310668983649,0.3969656634166391,0.12211646652893786,0.359192600352574,0.16423351713280993,0.18807752906467662,0.023004989291362146,0.0879644707427977,0.15975613018622667,0.6007782379917931,0.5473498668673148,0.6011687133929252,0.6039140014396659,0.20884900756884284,0.25417974034014434,0.4184618900218848,0.5557818980461491,0.2633250585885885,0.22164853384146949,0.5290158335266529,-0.012353176215596852,-0.22885863737646098,-0.015137714221488824,0.2949786274138592,0.2302307004666951,0.059741470355793004,0.07464280677711743,0.0027088468822880946,-0.009288645529953492,-0.041627652901891764,-0.031557600824113005,0.09148679271096452,0.08486443026032725,0.06803023415115354,0.0673556288764793,0.0045523046992847135,-0.008861003057018198,-0.07249275600707746,0.03462230377864156,0.05204809576328989,0.027890546236984854,-0.4975406449149433,-0.12967850211598778,0.018394439835524766,0.016178782776973977,-0.006230068662586366,-0.021517290021564738,0.006756252950973339,0.07008585769350842,-0.0012214840465906054,-0.012791824645598358,0.000866112447840052,0.003710693978990099,-0.03406318608058108,-0.030974830226947286,-0.016611610509394324,-0.037156020160645904,-0.04028239524446546,-0.03238999655999909,-0.0017659728126691648,0.153704917226051,0.009205527672806206,0.036720013054364495,-0.1736271430679073,-0.08357550205141824,-0.13106912731181766,-0.16749287757634312,-0.13140967906544976,0.6369427302923942,0.2320343200225005,-0.683833419181771,-0.4397385359961788,0.19040867572250178,-0.15663921809347048,-0.42414625176397264,-0.5182288050495066,0.8432032058403056,-0.02588278452001768,0.012168798432259379,0.02673942222935892,-0.34044399109165835,-0.023504903482475508,0.06271395055866176,0.1203304563459532,0.11051612761592798,0.10722904343599671,0.030748254114970064,-0.007931025797974599,-0.027762720497564407,0.04730475412637837,0.12721781950801092,0.14959861393732438,0.13007235296241115,0.004920455354240946,0.0060720617494391445,-0.03862589451625727,0.04152657494145589,0.009539380632280776,0.1531425750215792,-0.028267238431561297,0.644158610195266,0.12443349518115336,0.11973515806089746,0.07368509285816008,0.024903015618119813,-0.05244327115959115,0.01153011711578261,0.02473523923037902,0.013500237852303996,0.018801930941006604,-0.019605050103955492,0.01593426748095149,-0.02272185982550477,-0.024749351673318192,-0.043669589740359074,-0.02020209404686445,-0.0065121899027115425,0.017856978929093676,0.0052480198235349855,0.08993262579334624,-0.006818230142223818,-0.17126112016652037,-0.03238680799825077,0.22684030417993353,0.04559975674846089,0.17716152403127483,0.001019194682599995,0.46182959254649353,0.2880426731044742,0.24128327376912553,0.22064578999428633,0.5596655049598162,0.3219428840707292,0.27365144414654957,0.29296945473226843,0.050679276299029165,0.11145518716960613,0.24224162245717193,0.06450233356626936,0.467401463693965,0.09271712848226059,0.4226706234800041,0.20052440380462982,0.04092813075685655,0.04762890324263161,0.023401177015242764,0.0251826627541444,0.04460224835504037,0.09387115652127731,0.09728161788915807,0.07755143503295743,0.04198454245793917,0.055770171099336865,0.09339200842946763,-0.019087307623034937,0.03777665978407778,0.06320418509497171,0.0857529055504061,-0.014437470277463699,-0.32915403208337085,0.10095293287982968
2.633565593336269,-0.03410465347422567,-0.1256974398984129,0.0009392450713293318,0.09266907132553968,0.005456541035365045,-0.08679166527107961,0.013549935172007886,0.12004184775802583,-0.020960490788420726,-0.005926848013880392,-0.030898063469345854,-0.027136369946495098,-0.029896289549148237,-0.014657577981461329,0.03327041734496768,-0.004372569149569598,2.1021205705428762e-05,-0.1210942640407876,-0.41844501123289424,-0.2796604176061755,0.038027350079855145,0.10891674498099455,0.04828948751389896,0.29052396086308074,0.031514623354805524,-1.136535464102266,-1.3311490404918374,-0.027596615278451652,-0.02889192771368968,-0.003822942484025608,0.47211352280913127,0.10035186123897559,0.15035967296406008,-1.9129381340993994,-0.1598516841964189,0.29320187074860854,-0.014828530480144684,0.32293109021528926,0.12262692380189032,0.4991069470837464,-0.0778146717441075,-0.1323337417473586,-0.10897995796346997,0.05218021974595843,0.00621944309712323,0.027137196003215194,0.08617077318858299,-0.07182018209986127,-0.003009641072699888,0.08544095163949866,0.0056196708591255235,0.11129833801619256,0.01973724021702419,0.18505039792752226,0.010016538263046337,0.2177837046290155,0.020243498272462787,2.8057287899998418,0.10019530696933701,-0.006658843646227405,-0.18106781373502942,0.009805362622173953,0.1564950698921164,-0.001782208291402423,-0.2045184312346155,0.00018892363796347542,0.06948747034022613,-0.014108528858544536,0.0030912937709486744,0.021788491564930068,0.019756688196641756,0.011052159514909848,0.030526677257238188,-0.04148171648096796,-0.05025488201999475,-0.018920941956154427,0.30336825524243227,0.07678763007953063,0.1955530187766443,0.04506971758593235,-0.029486229191893268,-0.5946115560445915,-0.14091019864658316,0.022038358191970833,0.28683059738232325,0.1405168101626827,0.16940346124009292,0.2459382270920664,-0.9579011403903754,-1.1535971214925738,0.16855888689859572,0.20240815666576792,0.7104713246837218,0.06853629759726679,0.5839321598551012,0.02300946419990494,-3.2141401035535977,-0.058300471506680926,0.42270085183991396,0.11932300313102112,0.08081766350187981,0.0721735909380492,-0.061519422700253346,-0.06966033874674335,-0.16367551025865593,-0.1174523097876541,0.06719315058364264,0.09844026826857022,0.22359370758051894,0.017718867743281696,0.0719420695438445,0.0019555798098946924,0.05701211253446283,-0.005902553014233461,0.20728822898564073,0.052067355568870995,3.500205524347408,-0.18750791416719456,-0.069548725158201,-0.1017621073140254,-0.0039027329802490593,0.12335673181232641,-0.008165424859506984,-0.10663606429266248,-0.004736280810943801,-0.0301360390826239,0.01205773598853021,0.10304503855171375,0.027598573410520483,0.024521206381658035,0.06573137659334362,0.017920019686307045,-0.007478419528777575,-0.0038623283149046704,0.04048857374845314,0.4342606906694523,0.1017170385869038,0.2575762422699416,0.10786993763764445,0.1388222085355878,0.04494501494328519,0.2089654761547291,0.14959764050889154,0.5880056834738316,0.2525968209031293,0.5335891469915158,0.3190365513093796,0.7352269121031654,0.7558739086679458,0.48767909521927105,0.7228949161191814,0.4701684209325392,0.20887517113171686,0.2583964172025026,0.1550068725372573,-0.7582521925990797,0.20957094726079403,0.634123703200126,0.343671173515176,0.0553816281156097,0.07671668291465975,0.06785668208707835,-0.035109291570492404,0.022904091331242868,0.07700455045470588,0.16946759165702463,0.12419644935766894,0.0055885415600071256,0.034055162771094105,-0.108043344161828,-0.012184542016622947,-0.09829247280397134,0.017065361573326786,0.05065146089138046,0.0037043716307035585,1.7455253882793942,-0.5337067175409472,-0.12864688482226627,-0.2667215466395727,0.016673138235486818,0.037559104581921465,-0.01777325635858732,-0.27814641069843316,0.01641898981476513,0.049948262947987494,-0.01817421425765042,0.08086545261546947,0.06382587323216786,0.0545401307259814,0.04086040400853385,0.01806247449903652,-0.00879605239421245,-0.006837628179837347,0.04286043128167751,0.48545466946507937,0.20107791823589008,0.23359479372138245,0.1573471207342603,0.28866298743253455,-0.08600026836370252,0.32154781213327255,0.20915416747714705,0.7359303173067187,1.0607812609124976,0.6621206858007356,0.7246181085767737,0.6863191143824537,0.7149831173728338,0.7560888809266316,0.7597932947689239,-0.003967788303773203,0.23294224556975865,0.4996207527721121,0.23235652411517965,-0.7981214125408392,0.28049246397071015,0.605022719167883,0.31617872730553825,0.03434273028314607,0.05701346100114778,-0.023087133195529554,-0.02412782790668668,-0.03455226025768298,0.0055545269009511416,0.0962401606082839,0.09554474188592604,-0.04385925119602916,0.056120972301266815,-0.15490308792367583,-0.01971082696008189,-0.13983794055581728,0.032807248002275115,-0.029081495571204246,0.042757669857926665,1.7542216695150028,-0.8446972419630214,0.061593697396939116,-0.07602461628102333,0.010080776831908155,0.10676931672583413,-0.011145918471816679,-0.02538135414072558,-0.007813274740663944,-0.031981163480120714,-0.0018614137276600849,0.01421935255680728,0.059253214848324236,0.05876061612135166,0.02450163560553997,-0.007234593387653804,-0.05817876771042011,-0.036881901272802005,0.004392801795846772,0.45790607637489583,0.14104271774990726,0.4406735338071339,0.11285400301197132,-0.28800223928905094,-0.2291351033457387,-0.21622798747660765,0.07533075316907431,0.983660931901745,0.8940044364490186,0.5953207580005135,0.2906512587976743,-1.0241277148518977,-0.6853275581857903,0.2567766133006368,0.5346480076516932,1.1914575155145677,0.3312346583672161,0.4481928475627881,-0.04630090254712101,-2.805892614249034,-0.0023742184636858592,0.3932461823691366,0.33922538453489964,0.2561330921072359,0.15743040101776765,-0.06606786180180291,-0.1842116144541281,-0.1663208810272587,-0.044324381665822754,0.1872223716795778,0.2584650842814559,0.1266686961022689,-0.057434923596860914,-0.13803246387713625,-0.04721803481323,-0.0992193999441192,-0.029206089331579223,0.06782762103062272,0.045642708749116294,2.5335624849115317,-0.007533838139622671,0.08380220810439358,0.0010080573706855063,0.0008891154909083557,-0.09140605744345584,0.0037378738503298786,-0.014361958184542898,0.005376529860713062,0.01978358735043103,-0.0014290636034005033,0.012329679794550626,0.005649950840802948,-0.046312332532091965,0.011123742186450144,0.004686336481694806,-0.013690183392090835,0.01710356183769961,0.014198091666215648,-0.19553956348185583,-0.0641120835574573,-0.22127540137738352,0.051224970091340326,0.3188328393005433,0.1473439481132289,0.1786008469706806,0.04824646077851183,-0.35272845668993386,-0.12769685150041848,0.5203045772375605,0.5095275358940546,0.6879073674819269,0.7314980461634503,0.37052117968871345,0.4832375735392436,-1.9380905687335819,0.2611121526288897,0.40897226071067966,0.2199188902242523,0.6046521659162604,0.23252899878132438,0.569726261700256,0.12249596051519347,-0.11990030998374734,0.056408606328052016,0.08658746491089432,0.080031270601701,0.09472187460708455,0.11733041802673595,-0.0029132962747588534,-0.11096747767850895,-0.16394230022390363,0.08931403691722939,0.06412208080350587,0.02946108997401257,-0.01804030106790716,0.0026409541545221603,-0.15396675071057933,-0.0044851955308295504,2.4754847180754864,-0.2350719484552659
-0.8990030104081426,0.00548789468016632,0.02094059032988578,-0.0025680039432531892,-0.007377250499688256,-0.01658132225107986,0.007804809164837832,0.005389594976479646,-0.020210445296480084,0.016303685141407002,0.01311507550619065,0.004891711482491267,-0.009713639555181498,-0.003046424304556358,0.002849540729798521,-0.007762793767357791,0.005453519407618243,-0.019940947981253725,-0.08052235309984906,-0.009625178697272441,0.0003081207349495825,-0.011448874251637767,-0.028734643107605512,0.016247436930798654,0.008653609785033612,0.0014238424614485812,0.14558442131537966,0.1961646683180312,0.14935808106198317,0.17420888957642533,0.19718748254060356,0.28062781993434377,0.15872833045868623,0.10850426370817312,-0.25990786030025564,0.09277673320896122,0.09068151277957313,0.1055641059675792,0.12422510617988756,0.1275633651948955,0.05348106156038944,0.0679561141901361,0.0058903718025430825,0.03655407309375721,0.04536675944017795,0.02062936485949391,0.02044312025953776,0.004726744555872895,-0.006057545339898915,-0.002280279028251286,-0.048958583931710986,0.001324170871939243,-0.00678177954770669,-0.02081373365851124,-0.02799789106151247,-0.0061974590733895355,-0.08144594146123037,-0.016301902391224716,-1.1206510275672728,-0.14163037506718815,-0.026835297688898516,-0.004923553502855234,0.010214751969848545,-0.03459305506115412,0.0016372370120438789,-0.007229268282311577,0.013953845067772972,-0.0006865421883994539,-0.01655731475930359,-0.0009093727662873419,-0.008157178067039394,0.0016603083952372816,-0.012695310596879254,0.013473069197502975,0.03408394249243816,0.022307263011734878,-0.0018013105730415302,-0.07662543157446772,-0.05041986413395179,-0.0920644624240963,0.009021233878686178,0.06194584882995257,0.012008240498957,0.006716654727375025,0.0185896047129355,-0.11038982713809588,-0.1341523521406959,-0.03920151647879743,0.07784714463075341,0.16802908504039155,-0.004791157339628088,0.022605540516602,-0.026617742010009788,-0.22646291107225727,-0.036377326884337716,-0.018576616964948455,0.05791083766649081,0.1827465994761938,-0.007796799779697297,-0.011365978158691286,-0.039497977494391,-0.0216019429909733,-0.034183646332117595,0.028929710745462356,0.041636337674919296,0.03011857454035561,0.01067919645683275,-0.022258857549639046,-0.045678755043239,-0.02982996023858074,0.025237963341746116,0.0009337579835744442,0.019482267856742876,0.022424999646636305,-0.00165866640445781,-0.020812718852365377,-0.019497786304357282,-0.8816331844443056,-0.03671498371041674,0.00038889619431194204,-0.04478164762188082,0.002011439785189166,-0.003928881091162537,-9.83689079231418e-05,-0.019598078332905354,-0.015062754638014831,-0.014162087204949452,-0.009021132454583474,-0.005187362427628346,-0.007071071972654072,0.0005432901809432737,-0.00015164008156981745,-0.014110857467467815,0.014129297444821482,-0.027848524682028638,-0.0015341305992697851,-0.06070485378851361,-0.026369150361025495,-0.03239107629692222,0.038843119915598794,-0.03743825406984819,0.010842244391980426,-0.008032826046660673,0.028350402728544204,-0.007605796498400496,-0.003502150757589436,0.11798190394914043,0.043602646616334485,-0.07723395984983523,0.1375278796633566,0.04781115377615765,0.0619037961498134,-0.5011881692328599,-0.03136317217849715,-0.024827903810472684,-0.005265944615049243,-0.07608057084092232,0.015974882446952575,-0.08073514200704873,-0.03757340778306687,-0.04751579216148827,-0.01495412660591106,-0.02749358001316736,-0.02099359837045541,-0.010944660134014274,-0.004024379221017248,-0.04978731914664472,-0.04904580082046669,-0.03010862047677407,0.024996283174384726,-0.01968580458903257,0.0030728944581035027,-0.0271549637981097,-0.00204335211206511,-0.05141400008650964,-0.005998151652542876,-0.8862560791548776,-0.1132598869787041,-0.011276464667036403,0.011542268940668543,-0.0037349622313643314,-0.021291507491096127,0.0050420028164079415,-0.0021782754888430805,0.0019244475802515685,-0.0016470447396508532,1.9780105027655518e-05,-0.0341512117703982,-0.004941500102583322,0.01697360434323704,-0.0050234702902849735,-0.006074735464384007,0.008835736946383984,-0.01115339358729362,-0.02510026831919592,-0.09979690210378254,-0.050964900157595666,-0.1327335362258269,-0.03609030513433014,-0.04019516682635756,-0.05418479849939527,-0.023875720633439224,-0.04615837128689091,-0.12998133493121677,-0.155649115073202,-0.13842834216073016,-0.07232915285474724,-0.06701673711810659,-0.12971705450659562,-0.04210302693846004,-0.09025146344232343,-0.13113387586712413,-0.05972236271432934,-0.1674086852404322,0.032705273224515295,-0.15993363228223878,0.01676733101126291,-0.021260728177976355,-0.031729128376169806,-0.03408399898823456,-0.035034562886181723,-0.018049489331583866,0.0070195623439722014,0.011285423297661778,0.019248845698978282,-0.025902762409092988,-0.022646150953056925,-0.04406090255857029,-0.029023112405422522,-0.027154923414558295,-0.006985969682144751,-4.182591468595433e-06,-0.04588742957346396,-0.029324443446470637,-0.002875961413581812,-0.6305976051598925,-0.08602286730504222,0.0005772315319758097,-0.045131477818733744,0.0032790290211247813,0.005570987597092036,-0.010882155531917704,-0.061486199961593206,0.006141704182898032,-0.005444105148106909,-0.012360727183228169,0.0021667980090368253,0.009049916880890877,-0.0005401015510993506,0.0043228913810443165,0.02255516225781745,0.015955870275776888,0.019983075821217704,0.016104643440016567,-0.047380056294573585,0.0012259533459359079,-0.006357605382441188,0.06986494250786779,0.037582629477432204,0.03298962827941036,0.0329952075877916,0.06363446756569491,-0.21243363891834127,-0.11361014091829733,0.27833102912396895,0.21999388559249647,-0.0566007254279405,-0.014523278613047667,0.1913017581902482,0.25187798487058893,-0.4320024924746435,0.01824860050953223,-0.006931859741878039,0.00978144144743639,-0.095955200053133,0.00911530849213754,-0.02265132243564831,-0.002245170234168793,-0.05059977952649922,-0.05689745117123553,-0.015614551886336018,-0.003916286976311471,0.0015122936097073242,-0.005677861366041633,-0.0607098547053071,-0.042816856331644254,-0.06693277004910539,-0.012391572334650266,-0.05124767040213229,0.015361271260848698,-0.03237146149583725,-0.021255407260327538,-0.07786217959986208,-0.0010891912030399587,-0.9379229838434272,-0.11949774676760584,-0.039010866570188846,-0.06644477724737977,-0.013766624820618755,0.022935346472956693,0.0008750584640299831,-0.038569875565621185,0.00801404543531453,0.00935832913890963,-0.014742148048457006,-0.01859606272028694,0.018017473376379777,0.0013973066643347494,0.009921053287900532,-0.007222176248624251,0.005108636616939282,-0.003674340071207901,0.0030412466064419197,0.01625549750706284,0.019720500975097834,0.07756309619076672,0.03609938112216818,-0.0769686636848488,-0.014753055021921164,-0.08173847545992528,-0.012308653884001321,-0.15566955976767996,-0.15628964305133544,7.305874223541152e-05,-0.010427875480903894,-0.19691153255083302,-0.1247473974093317,-0.06256035208554467,-0.014087732652860258,-0.17032879743368481,-0.01075225625931458,-0.04762206812026586,-0.004803246972420467,-0.2702525767721878,-0.03897036500098981,-0.08702188535156873,-0.01795204439744302,-0.020256708745664223,-0.019343471752758135,-0.014628027834144916,-0.03483584498495771,-0.025548723905235694,-0.041169357286003676,-0.04662549435509865,-0.029259573656344955,-0.013511105340276209,-0.022066245618298754,-0.0654837222001536,0.01672818275147156,-0.02130957957623698,-0.015510764844419314,-0.04276651714034401,0.010230540001064561,-0.6161841337735703,-0.12646626717133036
0.9724192927698663,0.003538766899551788,0.01817465439950093,-0.010753630234212759,0.02173079224784208,-0.0009832647052447569,0.01692980793493113,-0.020209298567389195,-0.004938477766076665,0.0039359884840562,0.016972317710175763,0.018986347191801894,0.011182691678658029,-0.007046002313632706,0.00519584509029813,-0.00215110961246846,0.013617035202958488,0.0056468060895350225,0.09424346997989355,0.025011721699749294,0.024196662362394115,-0.02363993340144327,0.05741990668291895,-0.0078045658655134225,-0.045991051806421726,0.0028709830040483638,-0.1294716932515966,-0.1549295647091478,-0.18371907439259635,-0.22139188991251885,-0.2440040958525111,-0.3776731100649834,-0.19752742684442542,-0.1356671873816924,0.3869038886790952,-0.1267524038878159,-0.14936147215797466,-0.12928460257772112,-0.1620147611741483,-0.17157190632002178,-0.09309200574859074,-0.07785332683848979,0.010823469503446878,-0.023647634229237463,-0.032647623369334036,-0.018738154997497803,-0.020736342416650698,-0.015100011704877287,0.007146603138198459,0.022164914359690396,0.06644148057852682,0.00754707935996099,0.0007427263156038993,0.029152379611910723,0.003143042329674821,-0.014769802549067516,0.11183457858564866,0.01944667527863234,1.1867914989913348,0.16147793374784372,0.004315238269605835,-0.003948391984315522,-0.004629219901427818,0.037771432858382734,0.012431572536045534,0.023450905758471533,0.010971689664498192,0.005732155185121719,0.015727668294113685,0.00428052502326914,0.013276712406542835,0.023261229724369222,0.008230199909189698,0.002108446040492636,0.0018836165961859774,-0.000455506968536848,0.0016341197751342353,0.11494627623147485,0.04627518920387526,0.10940663538002945,-0.005862789841081013,-0.09497727938651662,0.007226058757036576,0.012896407142697104,0.028588192868166013,0.10919038684072227,0.16367611248685432,0.05064912161712483,-0.09120776999134492,-0.19413430251803426,0.03434943963828388,-0.020029736345933406,0.04279431385607389,0.25389396627959504,0.0429713754658913,0.04664214679286589,-0.05893268546994588,-0.11516416166952147,-0.01587874848078376,-0.0052147519799260085,0.04565067315405909,-0.0014636038428246041,0.019683930125969747,-0.026435090328975803,-0.026990155030013493,-0.023326138763283547,-0.002796192405060332,0.018585867950534466,0.027790451668651864,0.040341955105404524,0.013740570095347264,-0.015489731573944772,-0.005701660403447234,-0.012475287006573839,-0.0012025446369367749,0.002880792679737068,0.0017609851610683135,0.889942380997448,0.04051938974649108,0.010670718308593424,0.04317269705931056,-0.007789506452483593,-0.01702069652872723,-0.01446310396462555,0.039163627175159206,0.0028695297150713632,0.018370188204109104,-0.011508411391625416,0.008234754500329795,0.008600987406942642,0.004032303056073361,-0.005421781778349461,-0.020158628283989632,-0.011023747092109855,0.021705073352062284,0.011181794221551909,0.06279200034924183,0.03230071261716254,0.011563471331742188,-0.05202617120828001,0.06896941427337643,-0.033912309828887204,-0.03210076746282135,-0.05680085166026611,-0.018539722412065453,0.0073842992298471365,-0.1441031370084266,-0.020632465909186545,0.07706383252669305,-0.17681469911075556,-0.07938877917681586,-0.11214093868147029,0.5721575808834121,0.0137486388526397,0.025768557136095088,0.025052813438765403,0.1538777790426583,-0.025945529510460995,0.07551325550822467,0.02282424280429201,0.04239659953857795,0.029090780627512622,0.011940518605908439,0.009710603675495543,0.012497382861275545,0.025573204888437066,0.06450918147468061,0.03651292090204558,0.06082818282256681,-0.015778779832237334,0.0338512057317576,-0.014286673717191917,0.03823462647072582,-0.01840217579284515,0.06368371788817852,-0.010113310784687354,0.9607935739276199,0.17010834830753493,-0.01029311149951971,0.019376295906212603,0.005203641192413887,0.04627306051718698,0.020297906081343332,0.02332889024207766,-0.002379403813138044,0.0038291034072612065,0.02762684911610519,0.04453513578658765,0.003557935817219713,0.011896928020108383,0.02164417920705891,0.011437757130005513,-0.009967529036824005,0.008622643140198654,0.0031783602599662736,0.13775722544147215,0.03511241626260621,0.17661599082970947,0.05771002254377929,0.07349341376093023,0.061155890281906426,0.03639912049551953,0.049873726696938674,0.14833512233715315,0.1529454932193884,0.23432242764856542,0.13321825215297892,0.03410681210283786,0.14067149557934297,0.05773973140027416,0.08853579116104275,0.1693282468944513,0.08096764006152143,0.2733636831068455,-0.07363728936321884,0.21273399682512142,-0.04602330629486438,0.02186054663571496,0.05384109048481796,0.04912566491452248,0.02511873648678258,0.017817129721374114,-0.013848812977064933,-0.0026202181190066475,-0.0133815808510235,0.016636114053161843,0.018950051354770393,0.029719441231899367,0.03290994746314095,0.03687299193230105,0.00831036806789582,0.0006189644608637554,0.03019252442269235,0.05524630461436299,-0.0006417740237079095,0.5588578787616323,0.15147096924850748,-0.00934466272477763,0.0597773532061174,0.007425233732448213,-0.024505204870564717,0.008085824201047927,0.07732369616711383,-0.008877916189907535,0.008315561260656558,0.01176222105368863,0.016330748163718378,-0.026228847838581443,-0.01825572266409203,-0.015308481155207752,-0.020619282294632706,-0.022849842348861477,-0.011413317567877758,-0.005457457148480307,0.05514679129080035,0.010063934619158228,0.001960151836427461,-0.08947929496085545,-0.03060002609497488,-0.046275914554315394,-0.027242313499065005,-0.07304347577139421,0.24383504784094095,0.06499000328715862,-0.37213304394025387,-0.28334784687781434,0.14841814470916037,0.040539466828303665,-0.250632406971301,-0.3408432666715941,0.508328571843893,-0.03392708112545022,-0.0038612502563831266,-0.0072253476568868175,0.25057631418086335,-0.012836711155367017,0.014724498128484802,0.03814446322584592,0.03660568884419148,0.07084496874957887,0.0259023007416894,0.03226063062435954,-0.002908845631751931,0.06091685109762737,0.08328054201444013,0.06139666131381593,0.08580799808807943,0.03035465689595924,0.039038189631104704,-0.01908927594055412,0.04779520831975242,0.0060401229363336835,0.10486900550187293,-0.0005709930642853481,1.0021613882498164,0.14732614592014553,0.07150863668013151,0.06924221254164903,0.026146334205466623,-0.044075518065143385,-0.008573643334323785,0.06843941346764239,0.0018825725511113904,0.005827541243615186,0.018401871607963916,0.012905878493377236,-0.011667657221698973,-0.008547383054314645,-0.011607428667938829,0.0161370844316493,0.010820687073600205,0.017856672067341543,0.008560749949250254,-0.0011803992283580102,-0.017852913597706185,-0.06853182237965914,-0.03584163336166663,0.09413249267626513,0.016468992771521626,0.11922483668711728,-0.0019759996847755405,0.20167648455686524,0.2110759106990245,0.05879808248860012,0.028705925630567883,0.2355599953780009,0.14042898987309654,0.13582499480867205,0.03037946859864333,0.32987307862307386,0.004760937898879906,0.11784350509531814,-0.0006543850404958272,0.31866978461032897,0.04398787007833034,0.16185949264040778,0.010708842798391651,0.04441391460617549,0.03810439160223559,0.02793394854585468,0.01564382829148676,0.03453017279594179,0.04326573559999787,0.04883232180048312,0.029568424624156295,0.038712906854162475,0.03682227271585708,0.061986423145522454,-0.015577309358371863,0.05127850400442374,0.04655860976312269,0.06202078205095249,-0.014648141827058092,0.5507393615847915,0.14918310978613714
1.467867968505934,0.03477354022631471,0.01913610271739437,-0.01528551523139512,0.016323144360813658,0.026970878311295007,0.0011455209066115605,0.0071594598508081956,0.02193400144511199,0.0069942056583731345,0.03254372357951301,0.00933465012765155,0.018999636324165896,0.013887127299239502,0.00411140621785143,0.01732262499082121,0.02176875390286058,-0.0007282083219947053,0.14530103520193213,0.01900593521758514,0.03169185604415051,-0.009607984205332501,0.1155824314013277,-0.0059517380914662936,-0.00485181060665837,-0.01803265048750674,-0.09153475406328777,-0.08445633484086906,-0.23871672517951642,-0.25606667331928296,-0.2827895068561828,-0.3989078069255293,-0.2739427603893656,-0.174018631501838,0.5721230756296742,-0.13225920912407985,-0.16127877680964164,-0.17941968466016964,-0.10076046974466168,-0.20292890564989158,-0.08503893697138831,-0.0695129547255994,0.007339924192490712,-0.013041543136490853,-0.025797490224953944,-0.019491891764708613,-0.0004373231905715639,-0.003295524013384833,0.03653941450181741,0.04380484731274465,0.09354420265401202,0.0007361335469675442,0.00839264207119896,0.01020916951666276,0.01385612695380122,-0.008525736657244827,0.12285411569841814,0.024880454813760746,1.6542073799110883,0.2971169872805035,0.05786211457775114,0.02297256072458033,-0.0024739277703611983,0.06245655701462258,0.0035330668243780464,0.0030345695101088167,-0.006949340463532727,0.008037396109310712,-0.011265797565200283,0.012544556570199004,0.013763616775906776,0.0259559774416026,-0.00417269724400376,-0.0036823389473114756,-0.004791480841806104,-0.01870994655604894,0.0011734572687961285,0.1547713130801749,0.10939511737997988,0.18448958264047513,0.006071429260795596,-0.1256389416712844,0.03380745101772301,0.04042152856020822,0.00963762994860922,0.19835675290478966,0.2725479617264591,0.11543296382870592,-0.12247751700648896,-0.1472515302288905,0.10804102771960464,0.006968451752887305,0.06692680103445042,0.3525950465012013,0.08361430202100979,0.01846656073735624,-0.06720216452946018,-0.052049287266049536,0.005535296519099129,0.00021266165677061378,0.06447517691864167,0.02711215099044632,0.019165926733786542,-0.017860501902023294,-0.05477453330368451,-0.026534796389686595,0.002328716445408246,0.03005681340482142,0.04894655715951061,0.0432471793232139,0.024931623095504313,-0.01122006456991964,0.016526298125708768,-0.007298876211925675,-0.0013724464120585147,0.05490620609921928,0.01696063474854658,1.251399083274984,0.14651189481486587,0.03182509502737356,0.09035861189066431,0.022742124460258212,0.002671739981027187,-0.005137833306286695,0.08174521075823145,0.0006148017402782519,0.050395781697862706,-0.019177360907394397,0.024031820903120903,0.020811147805053703,0.0005752635944499207,0.010354972834858697,0.0032612687703161927,-0.01102597145424016,0.015433478776138264,-0.0003899274585508511,0.09413118569118901,0.020705888270028977,0.015538357761793775,-0.06857387223949837,0.1163742033663627,-0.04153509253225117,0.040012722927037,-0.05917843420185545,0.004722181186985665,0.04274871152703342,-0.20606545361858292,-0.07548823040437688,0.053808082968669776,-0.2462510857624144,-0.0877774747851312,-0.13114558627391343,0.7710987505128469,0.030036456222344417,0.05008906168298698,0.042495414038711946,0.21567880733409964,0.012672165879319441,0.1677930111926491,0.07577681418326102,0.055044755505169816,0.046839815800851815,0.03438995218870625,0.012323387985968543,0.03809721622624125,0.010326045480668004,0.10902158967012426,0.08429859218704226,0.04896921798837614,-0.017278858403449927,0.058766165080396365,-0.01431650660495716,0.09971066609063083,-0.018453070736843484,0.09572639250808956,-0.017143260641590836,1.443746175021618,0.3061834816717936,0.018864069469311007,0.00677562000151699,0.015553286882335643,0.052986781315588545,-0.004402281114743767,0.03677525790213323,0.006197056430438484,-0.006242538915640176,-0.00681466477832416,0.055987216806490554,0.03375520632492175,0.01355751618169527,0.028444355616454437,0.007524189952143759,-3.2755570145300404e-05,0.024083940145158352,0.005362694533521613,0.20013826036403806,0.03298323553448432,0.24915109508382238,0.05962094024215131,0.04390289860503196,0.08493588796132376,0.048751797765543704,0.08113702318106794,0.22297884434890067,0.21195388731602732,0.20843791230184913,0.0760554051456174,0.09210481184448405,0.24353806552340745,0.060377632873264316,0.10887953803002712,0.2647873486485076,0.12273583982835683,0.1715923656875052,-0.10025305469972413,0.3003204919863727,-0.04782523248537437,0.017291171783374686,0.07438101458973424,0.04253901818469509,0.03245307630860465,0.003782157901263706,0.0009914010165046167,-0.005392902026767899,-0.002401214296875425,0.02762993983505361,0.028117578348277862,0.0610869092196849,0.03585965227419713,0.036602125513500755,0.010849898332272704,0.018898728826740527,0.037090588013286865,0.06478321558822552,0.006788474273757503,0.9573977603470922,0.21095505604516626,0.014934042884694623,0.08668991006042807,0.003653875225525537,0.012246255940312105,0.003647987995639348,0.10831188124180671,0.010376717135503694,0.017017712609542705,0.017607339827911617,0.012380948596985296,-0.04219418268633118,-0.030534966390554693,-0.015443990231123599,-0.017758737763869256,-0.020845498209860418,-0.01616496762678493,-0.005107857016589602,0.06647547955407226,0.018303287075650713,0.04082910576261256,-0.10857729865122492,0.030116245301026565,-0.04727482906233249,0.020663810355522092,-0.0874863748329794,0.32488612980742015,0.11498733667297374,-0.49913052591191365,-0.4196172032833972,0.2539288089430669,0.1318006025097772,-0.32875974697699795,-0.4537669564945065,0.648989714516685,-0.042689776166007574,0.03228576307728244,0.0029320022578308087,0.40034367235326673,-0.009364960336216059,0.026079243985039694,0.022802743612788726,0.09492903442918543,0.09183133742695264,0.04557758721002094,0.0437298715664579,0.026216462872944525,0.06244400604143959,0.09768804725155872,0.07965111341563394,0.11374440764921166,0.033507097617491224,0.07683039686315067,-0.025032999403767665,0.06964429641778606,0.038805137820686626,0.12576231754663725,-0.03375830604338919,1.476970774218875,0.3025513085550244,0.1050836724423971,0.10254857505909395,0.004071100274876607,-0.026828178506882145,-0.018792385336876626,0.09407728106628581,0.016535530969066604,0.01061112292940696,0.005364860675882984,0.007532346770534255,0.0018443015061402714,-0.0010420250009964612,-0.004259931274421022,0.012581571957293983,0.015436632972839114,0.007428742069779045,-0.011161172741640307,0.058179018168780496,0.004992592331113642,-0.08450082969072172,-0.039064728981164844,0.11002262682547734,0.009514938960573363,0.1430302016118892,-0.022538720298936405,0.32335095511768663,0.32909268503934425,-0.004785762656984933,-0.011845806546324833,0.32116465616132656,0.18318314265418423,0.08836337339981858,0.005056682327459052,0.43746869671369154,-0.006035344042310372,0.03661556425813775,-0.0073978600694252165,0.4385513204019843,0.04888278608968905,0.12205230906182099,0.05649821152883392,0.06884547254090517,0.015491216307614469,0.012576144726618579,0.04025248793748207,0.04873111009581873,0.05553379535846846,0.04122121019110049,0.052889031877442774,0.05623514580545123,0.041197085726776876,0.05467368431744285,-0.011231490834556218,0.03801298500201395,0.057449122328136634,0.11648320482771074,-0.016149955391709672,0.9438299284936299,0.2698881146324371
-2.112374254698276,-0.045761232948805616,-0.028801823361593298,0.001454118611332188,-0.006673444524291764,-0.016955689649638273,-0.024197327667375507,0.007781046282198746,-0.015585487488636432,-0.00394130345216324,-0.013982235903185607,-0.0022042908066768853,-0.012604759249820323,0.013915126543408665,0.01004368053794322,-0.017743660342101404,-0.01997411298284457,-0.0002281701293529903,-0.14975219721240288,-0.04157194572486862,-0.013069325762292031,0.022126799960717994,-0.13682831000112536,-0.017045104745570923,-0.046925832996946644,0.0005787597036403748,0.05483925315065858,0.03430124761358191,0.2522852865848461,0.2656492147430289,0.2856471779962021,0.36022077482286674,0.22832766203209762,0.13998958514008314,-0.6205055709652215,0.1343067396832951,0.18537238970075773,0.16564050243622544,0.06882149269348031,0.20270265564396006,0.013420613694830028,0.04814244431074959,-0.024061016201239405,0.005770475762917825,0.012441832394243459,0.028926697959786883,0.007164406711309565,0.01901576959138173,-0.05171992160400088,-0.061942020323888854,-0.05457305456610315,-0.004968768356483728,-0.005740670546409048,0.01970096264060927,-0.013003890789185492,-0.004802398403827762,-0.15218957634959696,-0.0018677721606712924,-2.2222019017336287,-0.33805328492401604,-0.07566402828559361,-0.040713962638948054,-0.010138745027068375,-0.06674106991051905,-0.016320914439364575,-0.038110065069138936,0.013268822439953273,-0.00803298696242206,-0.01161268327243398,-0.0092401309834349,-0.006472782242404924,-0.030626270667090966,0.004179334353114048,0.013119809491520133,-0.013701470769114092,0.007040668732681024,-0.008444399397995734,-0.20541868696399082,-0.11136542865043679,-0.200977302625325,-0.014346232603183526,0.1186200301900857,-0.04492383467277242,-0.11365063654711635,-0.014011799058245237,-0.255225311918448,-0.3257337834842258,-0.15796987171993207,0.11552649458651956,0.1293631046335977,-0.21384808430462113,-0.03189234711603383,-0.0823567517816792,-0.4332991958989402,-0.08710967712487934,-0.050532603916378795,0.07213985482140904,0.0017416606975000266,-0.03954232122596814,-0.07324070942627067,-0.07965289182442115,-0.03390928983272181,-0.016074109422497127,0.013661876141708653,0.055002806702901114,0.007071403284215573,-0.009959323585366444,-0.048145804326373456,-0.08081590102913787,-0.06045125639128426,-0.010132687736755392,0.007759011630836258,0.007529436174486164,-0.006375856319060278,0.0009043139226359887,-0.04420644672925904,-0.018708181767624482,-1.8250004614501862,-0.2197823966225698,-0.06624151445748819,-0.0784324946879222,0.028675290105245624,-0.0011369122210839605,-0.016965476110601282,-0.06680969051287004,0.0014400844749204546,-0.0570281168254768,-0.010646083915908863,-0.031101053518385876,-0.0006468540602041312,-0.003900793579623829,0.019631102401617063,-0.01260856842938343,0.008519519978616918,-0.03345584567277081,0.00020432244692963845,-0.10397460256539211,-0.02431843127010787,-0.025796804938883887,0.055224866149700694,-0.12342275596399813,0.029632491634485524,-0.056776304624969756,0.05107090119444367,-0.04224424273860494,-0.07643710831361705,0.18841454020616866,0.06192854497739886,-0.05777976016351891,0.210453635583812,0.07488048197192843,0.10930006649075545,-0.8196324356941891,-0.047875950640561944,-0.07287021386025157,-0.05047947888766993,-0.2415085728477541,-0.020736841260331252,-0.2050103722228271,-0.08207895145087411,-0.07473716065432273,-0.0512251591332667,-0.059319873391856716,-0.032028315207420374,-0.03486731646859998,-0.032385278473624685,-0.11422303914224423,-0.08212790102960371,-0.0952330540213056,0.00469583831923329,-0.06411492618302754,-0.017082039264682953,-0.10003952861024662,0.0368213074742417,-0.12319031395360304,0.02052303901630565,-2.022350905349701,-0.38954911453937435,-0.06492170036724641,-0.030783812651322077,-0.01686214961815109,-0.06675376559789571,-0.0027503315660438654,-0.05840100450045448,-0.019637063437242454,-0.013015202254443047,0.0028819698511492317,-0.06253539176581474,-0.04806350259231287,0.006846072000104033,-0.04575887235431918,-0.014781522592961782,-0.001869042926453685,-0.025395747146403153,-0.022614683803660024,-0.23050465617275295,-0.06951628446833491,-0.3003430890118239,-0.06882591044220075,-0.05852039279928572,-0.10469296930761564,-0.10515142119614869,-0.06270910529777775,-0.2781827216396372,-0.2976055030366655,-0.2197399059598364,-0.08742311556841001,-0.11920956818050048,-0.35294824018958243,-0.0863264923314505,-0.18474242592983964,-0.3171741894355772,-0.14364294613342898,-0.22707081259092338,0.07076471131870357,-0.4010127066246173,0.022366326543590023,-0.05706776252218466,-0.0859992674981965,-0.06793264113685021,-0.03099999102707931,-0.011195713637464352,0.006301012283996871,-0.024017919137078212,-0.008413696618896151,-0.028680560655816423,-0.03736049791487181,-0.0720084570818357,-0.05568353243705503,-0.07401962147674736,-0.030737805041227598,0.006970744217914872,-0.028758763129698516,-0.07582061500262069,-0.029325297390185245,-1.4685119130958781,-0.27978092407578364,-0.03437681591083209,-0.09521889824537755,-0.0022499615007909486,0.016641787320233727,-0.00790095627899702,-0.13286619479700315,0.004154028737818014,-0.013576820536124783,0.0006444738903765967,-0.003415310686830827,0.038255279260689765,0.019469629383935046,0.010153859511477641,0.018003774244901898,0.020198274434673116,0.009173818204143393,-0.013947921175875814,-0.09159156502857992,0.015988176366871783,-0.051345003306974286,0.12918977192324846,-0.02511457563127153,0.02304752597669103,-0.08580556571270778,0.09143195720813276,-0.3394715918330934,-0.1557967410994075,0.4973463021410599,0.3761164801403374,-0.30498501943393097,-0.22167924241345188,0.33577865677740265,0.4445892301466242,-0.6947756210258443,0.02317218186323693,-0.01666301919957626,-0.015685480586548197,-0.4903524821177292,-0.020219161456184177,-0.04722740099407864,-0.04086804212363196,-0.09042651354453339,-0.08956562502937276,-0.05611516967806949,-0.04316653595086842,-0.016307002020349116,-0.0711368866279283,-0.1179535751130954,-0.0899954301020215,-0.12122464181554521,-0.06193486408199538,-0.07291554005000868,0.01746860330185956,-0.09232215889496587,-0.03818652565503598,-0.13319783182537476,0.016805687179189364,-2.0383977939275337,-0.3329369189395711,-0.1253438025473696,-0.1304851120860968,-0.002216394755386567,0.03780668289909277,-0.008530674917297561,-0.09180844675996423,0.005459935771636049,-0.04461595365772821,0.01687703429858834,-0.015404608861004736,0.01045979712269022,-0.006826669617658682,0.00199072537726048,-0.019300153042143196,-0.0009865999071716207,-0.003443427358354244,0.0058127883121448995,-0.11110004847788969,0.0025121726214284166,0.036658541818982524,0.046700595259305824,-0.15719665338671632,-0.050380928382875875,-0.18462966604343556,0.011988461293862811,-0.4236174646516597,-0.4455559232748333,0.021132839622216706,-0.022580389167415456,-0.40117906452207636,-0.2671608535734004,-0.12650819364147584,-0.09230324203782782,-0.53262770718251,-0.027401704161552975,-0.04771061418641056,-0.010842703860672128,-0.563643512522169,-0.08471747671471322,-0.18388488387351834,-0.0785485093894131,-0.07279713456248836,-0.012528622684406115,-0.038719482925343475,-0.05917212515612895,-0.05562719042381796,-0.08969844046231046,-0.06600847943853816,-0.0771920457339254,-0.06476681408392732,-0.05945001066565916,-0.08518977432139865,0.0037552652418300107,-0.07212342666395828,-0.08151633792620142,-0.1473431095286738,-0.0032429798981436064,-1.4689195357278384,-0.29430843313665667

Wj
0.9284540475609141,-0.020984781327837636,-0.3231757225843169,0.1340885934624533,2.810997658795119,-0.3308481692828256,0.3009673435245937,0.16486022682477297,-2.341713051727599
0.6394524525807773,-0.09872033702926199,0.8746213861511141,-2.006805944440597,-0.4148937496438289,1.062128975433058,-1.1614900131650796,-1.1658943997754292,-0.6044555516039462
0.7241123614936688,-1.279287105730137,0.5944518081534604,-0.9248697660404215,-0.270914220726069,1.010066782537249,-1.1332362181922015,-1.0666649600329527,-0.6426117193392248
0.430715372251039,0.6253857580161035,-0.9728204594863048,1.0869761098336939,1.08393730372133,-1.2196664134027038,1.416279732629678,1.5111696963742516,-0.9296983720273395
1.4057668535387529,-0.7238494995758474,-0.2207734573098066,0.7790413058658128,2.183138560598636,0.4943132267836229,-0.10944385281836384,0.5023061871454108,-1.5024417148820801
0.527388971678595,0.40501819068366485,-1.183945620768594,0.8826041406978029,0.6800281793784219,-0.9050595665156688,0.9841764275482116,1.0910976192787767,-0.9459857939338651
-2.656853294644529,1.8989705222258362,-1.5385399318399842,2.2785384866979026,-1.535327204401584,-1.164041990015639,1.2556417755258782,1.1828947771938612,2.8626168319622303
0.5039920072884885,0.08046818090759174,-1.2216741446416155,0.01085506687004951,0.047138577677537784,-0.3620125769285342,0.23427078460858458,0.4420040701853203,-0.8039112423921231

Wk
-4.920811085429158,-1.202948847611913,-0.09194967751098818,0.12098924147735064,-0.7982122842154742,-3.8887273406276885,0.10853565604609157,-1.0724036450470387,0.15493811909356886
-4.661071071952358,-2.056425141206983,0.45377811601774787,0.16670111233331272,-0.3459806249282054,-1.686070003055695,-0.5542535383797808,0.33247152718446377,-0.8153024136568376
-4.902583591568826,-1.2769381512475564,-0.7599346236644023,1.0449357975975757,-1.5457944059391542,-2.0708295296671837,-0.3528413131988631,-0.7504195991274382,-0.09506854802706896
-4.036740254887391,-1.7698218154250793,-1.6452225705188999,2.084739828103343,-1.7871981029507833,-2.17975479739842,-1.033231840805689,0.40722082794308123,0.9091100880755667
-4.111543676419199,-1.760254380297016,0.2226280022310622,1.7255426788683148,-0.12253483302791882,-3.4193341905511807,-0.3281679394840515,0.0017520220412846309,-0.645195380420739
-3.7048633259270383,-2.307280877810683,-0.3577807114767291,1.883498740713202,-2.1074681413682375,-2.0991841830653524,-0.6888000041552232,0.03814527083087082,0.2767787547380017
-3.736886690533646,-1.8596980020470186,0.3295911949447398,0.8598029744315636,-1.1774479187379454,-2.129004731921717,-0.494973262451074,-0.553883174836657,0.10178739692868533
-3.5069467761717066,-1.8475461594824423,-0.3448757708312052,1.9787138887841016,-1.191617581783181,-1.5383288160050974,-1.0487624083936937,-0.04431150567461734,-0.4058908193838097

