Wi
1.9484452719991991,-0.23413407707502373,-0.011315927320963311,0.016453421816310407,-0.011338218197511463,-0.017938314062101456,-0.015933035365936325,0.004983987209096891,-0.06163366118079326,-0.00933952171189435,0.029373506893789817,0.014719922019105765,-0.004034416980128345,0.014187128923299968,-0.0012349503855827667,-0.02163078070490218,0.001053263881268316,-0.04846574891295254,0.15048422486328328,0.24177317427921366,-0.004131563864131797,-0.06033728916380254,-0.25350513656025314,-0.10805550594363092,-0.1233860248247549,-0.0008547652051218301,-0.019700652858985434,-0.1958117580046845,-0.7677660911403322,-0.9915569971020514,-1.819644110783227,-1.08848014200022,-0.7137924733514339,-0.4747414361664909,1.061838305760879,-0.45428363995330845,-0.9099804654056306,-0.7714602130573556,-0.9072777659698035,-0.5552703696087314,-0.3538708326714904,-0.2512724913514995,0.06391889726175415,-0.09640269137969028,-0.14759286536867283,-0.12384096640236905,-0.09530451354522287,-0.07418409923216471,-0.005548806001939408,0.0750736121415274,0.06053285174811896,-0.004046448641804213,-0.0365785432830396,-0.0050885676700707415,0.03962352494395236,0.007037995231344672,0.10066581791659963,0.01406734080573963,2.8752434045083217,0.22053686200342243,-0.039267907839666265,-0.02432001506748179,0.01597817191679452,0.04181679221751922,0.0028295067053733963,-0.07674127673226507,-0.008634737721172943,-0.060783491769949946,-0.0019483841690451553,-0.00015050072790886767,0.02181148692735127,0.022151302613018935,-0.030565036071123135,-0.024372354916727304,-0.06269430248274947,-0.008493560921738223,-0.004808366515422517,0.13822221518192065,0.11400796919256051,0.12761821190117387,-0.010136432584174538,-0.35387507089763093,0.07230455372606395,-0.06047315851584484,-0.002150637956857506,0.3763600494548854,0.2793365849173513,0.16674025560688782,-0.2904817244027618,-0.24075495698857285,-0.051380900070291516,-0.10909252045976352,0.0863006943903169,0.6607463397245265,0.10532700246215049,-0.08376292906283461,-0.2746757390458848,0.14297250507116047,-0.14750423693885104,0.11467491549822836,0.08004769237182155,0.0497847948514479,0.02536981614682316,-0.10531373354709771,-0.11653869237116592,-0.0652473998081572,-0.007446445124204111,0.02975374862356483,0.03799168305587908,0.08280189099202521,-0.031365580184549,-0.13381666929023625,0.021249251644495575,0.014261384227896233,-0.0107559333237865,0.08423264204818279,-0.00021595653710494977,2.158256294326611,-0.22322292295350507,-0.383499176108688,0.0098581010450359,-0.0025938680520728105,-0.06986088073246448,0.01053909669189905,-0.026067968118021825,0.011629458505589276,-0.07944725618505376,-0.008497089709061632,-0.03052737291236404,-0.03537719682423608,-0.10052356970403498,-0.08001939594396261,-0.08823026283675821,-0.0668281742112558,-0.04987168319877465,-0.12856705467468282,-0.24570372039988872,-0.19082452527670057,-0.27297848792930535,-0.35880415034154634,-0.278636060544058,-0.08829662802090642,-0.2880347478518637,-0.3119172246761735,-0.9211707169633707,-0.5502495495900723,-0.8077712476780183,-0.6925587449317075,-0.8656100856724911,-0.7956451639494598,-0.6056773516833039,-0.5421880321883571,0.6452624103525537,-0.1554501717618299,-0.12512930319002452,-0.18615408061970215,0.5260917848860667,-0.08870835406296253,-0.008616445681262646,0.03406617378953571,0.009705930241653282,-0.08518127290104724,0.008458498054431248,-0.014934549074229588,-0.045848913644676276,-0.031375212501900784,-0.037684705109213464,-0.015739907657846986,0.11590454404655486,-0.1563173528204825,0.05553122318072006,-0.11544894303874706,0.0668884656214324,-0.19025053659144323,0.07651904631041398,-0.06670242237918082,3.034746578473981,-0.22873600022672957,-0.30669203998924616,-0.0036182756411456954,-0.009948520836903549,-0.06744776801831007,-0.0067196502036116655,-0.07245342242779769,-0.005656499912217548,-0.07247941628725618,-0.0016633513794415803,-0.006624532043564389,0.01087771865134403,0.045209888165262564,0.004776758107057203,0.0018430106003745892,-0.047121444644113344,-0.038137239169533405,0.002355487322836878,0.1817378259476358,0.057879955598537446,0.23686278344343104,0.004183363319424103,-0.2095164984793549,-0.012465440123621881,0.12188275329351139,-0.03822543984960499,0.47785948211472834,0.29724918089745483,0.1133866962544483,-0.14962600802409112,-0.4356521473227192,0.18413383846148942,-0.012482304460115936,0.08492927231167738,0.6714578915192255,0.047911561148356034,0.00010113390734678115,-0.4904537901410838,0.06438780201323027,-0.15996362851912824,-0.1001921019998859,0.05584776017298177,0.03909068658789662,-0.028272038178805626,-0.15455820486942307,-0.21514616474717368,-0.04610212031048658,-0.08770567793540146,-0.031568716541896996,0.06806545511825761,0.0962205176020406,0.04632650133895445,-0.0695108600974698,-0.000742458082188201,0.025351397551255317,0.03123551921912494,0.05259800889543529,0.035026296537181305,1.7522013595823258,-0.2342895254493719,-0.18383926345170348,0.032733892399909495,-0.026529981471801713,-0.1919747299246224,-0.0128409230674743,0.04496482395071112,-0.012527641184190096,-0.08303100472961893,-0.016220224237655637,-0.09578000665015961,-0.14214385633579063,-0.09281909551114126,-0.06994015151752654,-0.13068105145394487,-0.08558497944562961,-0.08697450598301594,-0.08609907034709462,-0.3321762284606791,-0.07271920663760513,-0.34469613191198584,-0.49405714404795775,-0.4566292741062475,-0.1317752421430472,-0.3712200309557048,-0.519089380382612,-0.038929858487592374,-0.06449418142471083,-1.9547091204281393,-1.389608704339741,0.1015757717589707,0.214588511736652,-1.1828120098059751,-1.6754244397642293,0.5397731817124645,-0.29379788482471564,-0.4719447023269543,-0.16124681051044074,1.220460757322728,-0.17875417647769118,-0.43137256469385993,-0.3377339490442368,-0.04961874756494628,-0.008588842656337185,-0.010928486383715345,-0.036858965503935984,0.0316537355426106,0.037762552935027956,0.03586873604829246,0.03934790828688802,0.14645555371702948,-0.014675976142173487,0.10059412424486475,-0.11449373223050739,0.15697602112611264,0.01071091117102503,0.1943353774550746,-0.14578379851361778,2.884236031078397,-0.01107726931760751,-0.04887229932621816,0.012071566396874102,-0.012917859180880677,-0.04435127662932193,-0.014811381089416311,-0.0017466538094150837,-0.021654823383999117,0.03127829105964646,0.011268546101343124,-0.07174118046784586,-0.09196700557639678,-0.14029700900390646,-0.09747446897300757,-0.05509449725579227,-0.030779948193963163,-0.014780159780126107,-0.014556803876000073,-0.25855212299957003,-0.025658405129033654,-0.3665459891852841,-0.18734005261732045,-0.08438783938611727,-0.022438636859495438,0.07229657185504722,-0.14990671750868276,0.3873679883459996,0.13274380077181516,-0.8604237747038735,-0.3925279048154306,-0.1361442975167124,0.23960162943717603,-0.17899080655710284,-0.4627966823458435,1.1238264502448059,-0.03755753017996481,-0.24919883033907295,-0.18921403305949314,0.5147531125953999,0.009473917259459085,0.059276362898605585,-0.008992849709230739,0.060250946326349475,-0.012984165346940867,-0.0657973813172891,-0.01470492400508194,0.018706339368775297,0.027225982219383216,0.06530856703488404,0.07465881232288651,0.12229678643965061,-0.01802970156463805,0.04342194730103442,0.0012298455289282187,0.09263940375827237,0.009083589305586793,0.17309919793845246,-0.03311420011287734,1.8089067369379839,0.12972849823984778
-1.1292374716416607,0.11986116966963886,0.037360849053551665,-0.00297248460635354,0.008812915926013118,-0.02555766461207508,0.01903270045968774,0.00017091591033579484,0.032053977473257,-0.0030986733723270526,-0.004092294780236069,-0.012604173642396157,0.0031055743797309856,-0.00830171164373181,-0.014437662921306882,-0.018935405551489634,4.241086566612346e-05,-0.002624118490352223,0.010644519854235729,-0.09177681041408814,-0.06451556139806672,0.025363266725869214,0.10937857516413504,0.030911691689198047,0.10157480244038616,-0.00546417915502003,0.02450403954200798,0.18682639893932282,0.28325333927763346,0.4279175610038113,0.6793497173911345,0.5703220375028768,0.3235084502861044,0.32370649710329763,-0.4043693651358904,0.21360314308848044,0.3734378155730063,0.28191477015356403,0.2913141671631329,0.2658285332152629,0.2311509186096496,0.18551586612999316,-0.030629715611253574,0.021701946588753445,0.06741342082112356,0.045421542427311806,0.07565224287875465,0.055829850568902085,0.02504821143597612,-0.01209933406139504,-0.028001571400165886,-0.0012459546467170498,-0.004232531738007163,0.01995945701649858,0.016999775600807957,0.02441351684344838,0.0015003276988293213,-0.01730378745343754,-1.6121695109400498,-0.026281894121191016,0.019439771212347533,-0.03886115744646994,-0.0176634006475131,-0.029209591375284227,0.0017037787996996123,0.04017005173804447,0.016094388882774667,0.029691878630103297,0.009067849097571122,-0.014240144806694707,-0.01303204005570111,-0.01778803372600697,-0.00014290533435032857,0.01652886330233952,0.03017198057823158,0.021314512945551967,0.0070331130521778555,-0.058125743904117615,-0.02861645865580808,-0.02003556358124227,0.009310539005274588,0.15713931439065296,-0.05655880410157513,0.031039426631442886,0.0014279927302907685,-0.14204516747243023,-0.09649243359548398,-0.04074218267518952,0.13356177387452192,0.0485427351740831,0.00549981237818645,0.07164154888794788,-0.04381212681668577,-0.26368436415735647,-0.05052053851868509,0.06732527244180112,0.15463142972527727,-0.1908789281248044,0.04752090684431509,0.021687111367518948,-0.05937559525399124,-0.02920569589929342,0.02120538287877659,0.01318884750267036,0.06432832517764432,0.045965735465291285,0.012169200808240554,-0.015742063950860134,-0.0042466558517328095,-0.006164056671649747,-0.011668596775077627,0.04979299177148327,0.0006996575921241568,0.031223107967848454,-0.012636763319277211,-0.016887881220724286,-0.009294866128723092,-1.1152329854080765,0.051493533944378694,0.19629437504412203,0.002791249572284134,-0.0022389135007186184,0.03630445433162487,-0.010702827815896987,0.031011158311744835,-0.0004251988652130393,0.03750826955309792,0.0068876017895822695,0.04927542636410093,0.022471431095093183,0.0251570129917449,0.05760065599019496,0.03830780607338466,0.025061408927879714,0.031974602920894886,0.05869120170887203,0.20011902346959803,0.08299226280676196,0.07902338396970121,0.10678738331248111,0.14412182166361234,0.0844635894714434,0.16032188476619488,0.15683962340180527,0.4054546453249402,0.16971292661676765,0.34868720343221027,0.41517740736938397,0.3997080779637576,0.4153481548810147,0.38202089449620047,0.2804259073253141,-0.3774456807368394,0.03549094655656172,0.003428351752004301,0.11946324145953031,-0.20331883608076037,0.09069521717532775,0.08073536996363416,0.07358544648236469,-0.015691131342715346,0.04462886884038152,0.02020295079503078,0.036769199032804234,0.009107605337549243,0.060934501978721425,0.05424125443039634,0.02407656670449507,-0.041363996559683036,0.08789349242245445,-0.03281137564498255,0.05010851875723387,-0.0006072305223242987,0.08223921768068504,-0.04777797331021609,0.03173407569744505,-1.6095328680340129,0.17937950540659772,0.13122274351524682,-0.02363083843786282,-0.01016424391536149,0.020332861591327786,0.024696109438312096,0.02200846450145587,0.0015909519811581425,0.009124467356651574,0.01584530206174067,0.0010279728773477468,0.011069843641806913,0.0039060110390118255,1.926268349949591e-05,0.01888157544711202,0.028315008653164764,0.02717212361005859,0.015326940678446503,-0.0444216746936901,-0.011196104879675125,-0.06505534868873714,0.029032553925847724,0.1124252625107511,0.000916278587932569,-0.028656360011177568,0.02373610136751953,-0.08749497069116206,-0.13649708946476236,0.08068131248104074,0.24194013208513282,0.280720882283963,0.06766762505121383,0.16927517763853986,-0.013144367638503015,-0.28596732131305436,0.006711046086079001,0.16612830805998174,0.22058629117427472,-0.2868922153746603,0.1407948447614621,0.08869493688473365,-0.0037283778876940083,-0.004857719799590199,0.016939255536312293,0.06114620025456578,0.04452696179740055,0.0343720200106922,0.04816837410222124,0.012593541355761594,0.0028395028368212085,-0.04705066939610308,-0.01933570705183493,-0.03461249489725876,0.010749551677642164,-0.025522206976984714,-0.019718916316103573,-0.026493813121300752,-0.022048820697979497,-1.2287542182396713,-0.0008325252148066293,0.09889925866444642,-0.026212372306020637,0.009296702287394699,0.07252362199279543,0.005648398930779426,-0.012949508947907603,0.004239713419269352,0.043314318200823786,0.024650634569445145,0.06366003369195938,0.057753865307003154,0.05780201812151327,0.017387870686990162,0.055971292835754013,0.044720463867007995,0.04473575020923341,0.07095030777337191,0.22408080666975524,0.047954657161322155,0.19363789380128624,0.2158920827705511,0.21257647718093436,0.07870888787856119,0.18110128280369392,0.2368514137167952,0.16111192321176165,0.16642830717488302,0.9250281534545132,0.5754915387550227,-0.11735483132669139,-0.06791897116971089,0.6545075325169866,0.7664211114368665,-0.17876938425084304,0.16440421459893464,0.21345369465353628,0.07616131370412,-0.675481584834775,0.08125982101885519,0.17972277952961127,0.19292508760757351,0.051875376002395224,0.0018398698006922287,-0.0022576740187845233,-0.012978451430324875,-0.019833547508977502,-0.019702039189755393,0.03173738887501087,0.03583536873263754,-0.05422369603991318,0.005646064689094878,-0.08186404416998148,0.05156141788957567,-0.08002153435390952,0.023364803570391446,-0.06794287041922431,0.058924091546073094,-1.5806268250938096,-0.025935653801366143,0.045274896664144554,-0.014777116343740944,0.010220907322346926,0.011527527982537073,0.012245146399533143,-0.04636720408485568,-0.0128721622026899,-0.007984716331345202,-0.005534423802439165,0.03718994005760805,0.06627801448004986,0.04737700687883087,0.059251912708402965,0.03901790058322565,0.027592364067386778,0.01638045742508344,-0.001129698452396079,0.15646889371278622,0.011465727274971695,0.16318745830514797,0.08679255739840588,0.014807952633977602,0.020924855251705947,-0.019147656465981207,0.10366876091207085,-0.20641272341354797,-0.11570615794296484,0.5497433435314693,0.23289338352626343,-0.006126194920945174,-0.08620865592066582,0.2537924953446812,0.34080391654950876,-0.8031184338783076,0.06861822520798774,0.13395547587087026,0.09915486074979299,-0.29318779432776804,0.053639821999116405,0.1133809890390665,0.028820900293895713,-0.06782465964152339,-0.009040140431593745,0.031749084546347554,0.016235877735584013,-0.0030526447943986876,-0.004682827598740681,-0.019987365572273826,-0.0259249040683845,-0.09807012018779201,-0.0001416970902968454,-0.04835119966139623,0.020445802829499333,-0.025238981016462998,-0.006921331420295733,-0.10001424017645516,0.020097042798535143,-1.0787755884636931,-0.11115344258729787
0.7847999534606823,0.17850748384805665,0.05459081355892247,0.008232242409578934,-0.004691840874507318,-0.007591635233040711,0.05544287793830924,-0.008385944520184822,0.007906246668768884,-0.003107799147494058,3.8889941325447786e-05,0.00028862465594278405,0.012148600737491709,-0.007102208516637402,0.008608265180021057,-0.0009273705355120187,-0.0049088597053934604,0.0026942244338670662,-0.1017410969128225,-0.06116405963920245,0.09012140699959237,0.010899590997212315,0.1456566106520355,0.058723516584169654,0.05834014073505769,-0.015706766750161423,0.4697072221129224,0.6240878482218222,0.46739054169294847,0.5537265078614939,0.9645722789467405,0.7857173249934098,0.37538596203314417,0.18864875542275455,-0.13572511400823206,0.3873668526753784,0.5081798053125486,0.42037336282448134,0.6980003461923652,0.29855369178270774,0.056898379517816206,0.19310258478857106,-0.024892271299069204,0.06801126561886266,0.09138017062410524,0.0853768085083897,0.06173265752727401,0.025654495906816528,-0.004993057274009619,-0.042746058934800144,-0.034935546726196996,0.009147849397479995,0.021072422416838286,0.009484925500098253,-0.012244121700068656,0.0022749745070179124,-0.08187138127838592,-0.021744844605874933,-0.025831783920802036,0.023222518665407817,0.05262951709708444,0.09687219909948083,-0.007492526730376768,-0.01188351712700834,-0.0014907584535780454,0.06434488264220162,0.0024669699165444097,0.038459158906397714,-0.01642897297527657,0.001062865444335795,0.001593502120199282,0.0041731341981848195,0.004588265181144663,0.03291156571477524,0.04110412511524525,0.00890328140624594,0.018424914590392676,-0.03058257626402667,-0.007821588271044342,-0.018851023820139826,-0.006326420642678464,0.29740656026647655,0.05281971868692496,0.16945162450241535,-0.008887281526408958,-0.13274078724248742,-0.06552471035782528,-0.02505265385436696,0.1625752056610839,0.5418835267937133,0.3889901880186007,0.13053263784032146,-0.08158328663335275,-0.13757136890981275,-0.035804662180838824,-0.06255568348610531,0.2081046462378483,0.6498973776703062,0.11923249155523839,-0.13881621344525555,-0.026635336950245014,-0.024642476950385017,-0.006082525493746935,0.09122173332631565,0.11407694925993218,0.09326253722991046,0.0440665058840189,-0.02131490127440076,-0.023321156859041157,-0.02296950605820089,0.0033598489535797563,0.07413223483823167,0.008951698383684925,0.07325625575514302,0.0004906157707257481,-0.03574565615424188,-0.02810514596330747,0.3847566315116162,0.2581426218115091,0.253012032291473,0.0735335798920046,-0.0009493026858026681,-0.026311995704349386,0.006325042356510275,0.0680116698760299,0.018342359658853138,-0.05124446881231531,-0.005494391195686399,-0.01374260927637775,0.014299487990267838,0.03740708271048803,0.05255677264103243,0.03502008882953748,0.018607492709533456,-0.0017514541464736647,0.030253903097081866,0.1460199745557575,0.13911983059834468,0.15655005949759868,0.15171812796305775,0.14936964420957394,0.09388258755188325,0.1308997401784918,0.1457532357996186,0.6268560007188687,0.6243487096626933,0.31235136261090013,0.32747683859174703,0.4558790995781626,0.45607508897957805,0.19995011827023798,0.14153283192439534,-0.12281046582249969,0.0972701182042208,0.09256402476779572,0.10026389527329216,-0.14005348515972654,0.032802865021561774,-0.05623026829472162,0.03424104270235345,-0.007633594242402615,0.06430270703699376,0.032376245581993694,-0.0042803189110765735,0.03755804559353689,0.02771375320588118,0.03287483545688367,0.007330574203630654,0.009936149802675195,0.10264485186128298,0.014798710836146168,0.02798319852918876,-0.026064861217744376,0.089730540755009,-0.005780653535260988,-0.0019187076427353135,0.2823169891812004,0.3726827436722913,0.22973897724361353,0.0532628797478124,0.0011766583667969911,-0.010109678283559425,0.013634636466728616,0.1099920376266654,-4.1667916091481434e-05,0.012731311497900084,-0.00233532947027108,-0.006024625861366445,-0.005602129804002787,-0.043888829077741595,0.010605608462019191,0.0016369288095455276,0.025406692521027348,0.02514275970858447,0.020658145464884828,-0.053286880415175514,-0.03983889891495986,-0.13305152823066432,-0.056398655130367896,0.2259736300621702,0.053965703265305545,0.08405664525862383,-0.005660431769909266,-0.20160030435804327,-0.17782124781422495,-0.26232387351318076,0.05533120182775062,0.5794949277915128,0.3340298345357299,0.08628274904373284,-0.17206908416240005,-0.24323821699625556,-0.10222191241871224,-0.21682985582236014,0.262982558002648,0.33306385673915745,0.20415347195638797,-0.035628931031495406,-0.05788762174811051,-0.07258398651876709,0.0017671161461762246,0.062320653597477495,0.14405844368137968,0.06503099301521555,0.0866556919485713,0.022749669083738468,-0.04068071705185128,-0.04503681988051694,-0.01151260362654281,0.05844226609879676,0.040341367922079555,0.04946694318041305,0.01523663420384132,-0.014553915989193955,-0.04125045093871059,1.0027283524509307,0.3022633611300696,0.13569535872451172,0.009706836028535995,0.009124747826118556,0.1162938952542005,-0.002074616256020361,0.008177741950926593,0.0051239612234817485,0.06446485441040241,-0.010779071511984872,0.053872390887150075,0.056829608116144,0.08022617675133836,0.0335685721071263,0.08175465982252514,0.04619628878302644,0.06773447225768468,0.062097853795342356,0.22112328023477426,0.04440996702229482,0.22518090480749903,0.22888686358279203,0.3680116255169641,0.09442264023032497,0.18155122489772837,0.23014134448200513,0.03124137681112141,0.1238434711522414,0.9795403551249339,0.6495812759600835,0.350240193102254,0.0906615646927042,0.3674648243802055,0.8826204090296882,-0.11539281768046519,0.17564447201105757,0.16791599488653655,0.13933389657479553,-0.1372500599707091,0.08035745251606884,0.2091945176311128,0.1853065636812015,0.04101248900800437,0.008394423426192243,0.004769542426426826,0.06979318490378776,0.02657611565877511,0.0015859820747721623,-0.034603497634995053,0.010337947188535994,-0.029222569421574068,-0.004956718834643536,-0.018622852516054594,0.05852573735646871,-0.05459608994604279,0.007838261745671222,-0.05777414863438701,0.1000312923709497,0.31001056418964373,0.16064477335424415,0.06270007084680414,0.06079280091689721,-0.005145077132166724,0.04537389332570276,0.015409440705406372,0.08592599104988763,0.005436835901795975,-0.02196587366343376,-0.0028241988643853398,0.043049489746905874,0.08180619275700197,0.07743543386894368,0.07959393074544645,0.03105756299061401,0.033609897930897616,0.020780508817028986,0.014542068587049683,0.26524941660008133,0.07715108752544772,0.2666435406102019,0.0790184803844774,0.12871350177175225,0.014353694609705838,-0.015003711604680581,0.057774436055201495,0.13830994560940002,0.187549133731938,0.3107397015725072,0.08188528213921979,0.18065626482578817,-0.1030549424681607,-0.07562963061065486,0.15772733945173797,-0.01513482379159534,0.06027895716847898,0.13375429330422053,0.164837259108179,-0.15693231378156713,0.002202631249009662,-0.12345236762190932,0.06680615541236179,0.02131213585278632,0.049903242011245054,0.04412039641872503,0.0221835023892267,-0.007844895863933169,0.014215850276990405,0.009320387344095273,0.023517233826244828,-0.023459852893262325,0.013973664269353666,-0.011457807883913774,0.018371400404847468,-0.03294852357778204,0.010792770799595765,-0.024195483562102126,0.03134125174604702,0.9585044208526713,0.07028563338320935
1.5985387638962478,0.3751985971403922,0.12552063816403308,-0.007697712079832123,-0.014435938408346609,-0.007841900028922797,0.14218171392856882,-0.017655412595762646,0.00023888085593123124,-0.006375319927653791,-0.026929508099880886,-0.020849158297440218,-0.008054898359737982,-0.018032420542097045,0.03546703405313673,0.004728363494978637,-0.012559149231139209,0.03249311161576408,-0.170879971179335,-0.1074536980618188,0.060416289887167476,0.043277323288610184,0.24914211723238344,0.16156221664615025,0.018275481596834873,0.00671279864271262,1.159564850664952,1.058076363062486,0.9821296801207559,1.102706291954192,2.150775941395448,1.524380704375893,0.866779837400384,0.5153328420469819,-0.23698579635168215,0.6538974274432021,0.8840582834073694,0.9169497003051741,1.4356060017646466,0.6406884845867372,0.20487176266058688,0.45665390259366206,-0.013920204456219417,0.17576904222608036,0.14737226074348322,0.16581194749890865,0.1006636995689594,0.007180675432998766,0.04603960974058891,-0.09618965228946834,-0.03339962704179568,0.009298872090561723,0.011244113991286626,-0.01031543325806129,-0.11161081520204882,-0.017375707873794315,-0.07925757660868737,-0.032252491016047706,-0.2627179425254557,0.030038989564609042,0.11366288661626454,0.16561493949800143,6.824651165013633e-06,-0.018954523598903605,0.0016495642898470876,0.15650603177055591,0.006992483635875688,0.0901567876131883,-0.024728308923925402,0.012992256956002502,0.005543924925832056,-0.009413559320596785,0.04773158879444485,0.009249684881793663,0.103039978345034,0.015910541696929726,0.006585077282071371,-0.054423284316255566,-0.06497214298949232,-0.06287740944869721,0.003142077172759396,0.563006231102557,0.09811519651109839,0.31229411674150476,-0.0033579218907238864,-0.1818875248511871,-0.14733219589515884,-0.11677535952561695,0.2870466685910287,0.8688448679628772,0.6950835342741835,0.16425940862708333,-0.07920227121689984,-0.3049567888057569,-0.07373037393143696,0.034562397419224615,0.3647587053126215,1.1416648988043798,0.20012436974825154,-0.15059336364580508,-0.04511031268952373,-0.03719609389214728,-0.03390894773597945,0.16605327637458508,0.19170043769872863,0.09549533419078544,0.0839747473828133,-0.013937232302064192,-0.029822503766206855,-0.04515777967862746,0.0033595806802041426,0.19905224939428043,0.024730544534754085,0.11336603831284105,0.014777862586677086,-0.06269011656625476,-0.011580600497486262,0.7682113081795356,0.5119168500643506,0.48939551524867786,0.1758271847632284,0.01114736762813345,-0.046271110082612164,0.009715844484824127,0.10931294630106295,0.02578469250102509,-0.03138943196324247,0.005179440976672675,0.0029521001608393007,0.0012661453915358647,0.08066438259740079,0.05724817091791252,0.1228128221718477,0.0211744384096011,0.03898476454604784,0.10399783010490767,0.3169462533242647,0.2921313384172621,0.32022221293738734,0.34175320602531506,0.42199155626124,0.21482743052219264,0.33883511703588964,0.2808803179929381,1.6473175508312197,1.207527728150073,0.5882595505296621,0.730502590386883,1.3484512501578936,1.103666190856802,0.4999588786454158,0.45352778241053726,-0.39942099662065933,0.13717855498937584,0.01904416718027656,0.2528308053011222,-0.16253764417736907,0.0980610059451912,-0.19610520301475337,0.12129792663777189,-0.006537835495566201,0.10558227269427455,0.06246084734576782,-0.00866638983611937,0.04302954115195633,0.0022659563494237616,-0.005708609011726647,-0.041141749179227596,-0.07557340188858117,0.1985365304785289,-0.00991957923850571,0.09386011408930423,-0.06612755417275115,0.23616847667814084,-0.061933920816752794,0.061515010620000816,0.26094542539603466,0.6017249182483909,0.484242996090739,0.13029800963829802,0.006935775307113433,0.07005258721781786,-0.009199348994648854,0.19031732736686705,0.012210195121388902,0.013976784656759637,-0.00752198206439863,0.0022651957304554832,0.017748690082619666,0.017244112538402016,0.03545157749769619,0.033353770294327345,0.0561501440793566,0.044735371085549355,0.05266047371749743,0.04420779112635948,-0.004211816967331433,-0.1557746199553249,-0.04547469085664232,0.5121381690377445,0.14035039257577836,0.17889214433628026,0.027156100031640103,-0.2441446450254932,-0.32903744946317054,-0.25379079400668536,0.3156038817923883,1.1840592405499226,0.639097652590573,0.048451442515759995,-0.1385618609317028,-0.36619602489880854,-0.13293423903926627,-0.20696278046105715,0.5842730708330699,0.6450233852678887,0.32532901589113117,0.10073268362583349,0.029126196922803067,-0.045488755653580897,0.04633182978568367,0.1431943892824134,0.2728683769989178,0.1312857742126045,0.15615619477209827,0.13069557505731946,-0.00970121674384741,-0.04022848236917533,0.030191874960844772,0.12290832936359969,0.06718057225443871,0.07970508216567317,0.06591274342015964,0.017285185806301447,-0.010234727808102629,1.5501297413037856,0.736436362225892,0.26186817505558113,-0.005150105112379973,0.014322631124869865,0.2088896125521332,0.0006396054743468112,0.06224750480927526,-0.015404888436298237,0.09385028503772398,0.009375534212934949,0.06706916132515717,0.09573134152393502,0.1441207031436473,0.07175837526236854,0.17944387995216834,0.07837930201667048,0.12462369764023098,0.06398725325053035,0.44998241811405754,0.11289902690732646,0.46361092370089874,0.4864367150237107,0.7675357907198754,0.1706432885532722,0.2881962147068229,0.42702180449874105,0.2784222109771943,0.2885740592083816,2.1054338880143226,1.529519610071199,0.8820281397077461,0.11933795136975388,0.6522586487287113,1.9008000530697955,-0.049435567950240254,0.3461163898241823,0.5200933345141618,0.3494394075013655,-0.2994666015269991,0.03493817228472507,0.36293944473845907,0.39949954875161753,0.06927279383461452,0.03279289497707618,0.05660095358659309,0.12231925498412664,0.010161504631731879,-0.051585708093275645,-0.053209038870627064,-0.021340345604808277,-0.07695637933713996,0.010002524328492293,-0.0678428620713746,0.12113806790160778,-0.126747295225841,-0.0009484714324451322,-0.12942828061736802,0.13072381119399973,0.2384091480665359,0.20767116785768838,0.08304573168768163,0.07187025138239439,0.0013224419488794092,0.09361009035126854,0.030123279805116164,0.15136380387704274,-0.0035787114789414248,-0.017435643628753755,0.010153144238317912,0.058023369905609426,0.10095001076431205,0.14444678607899142,0.1544218658366393,0.07041389336903478,0.03535793287162958,0.026969302573231435,0.05410003250854795,0.6309694535312665,0.11958468994650044,0.5497811996686703,0.2064267791825215,0.340899189220293,0.018080676143328124,-0.030029813598756668,0.07258005032492136,0.5298041037351632,0.08657861973957674,0.986200010533456,0.41605941766499005,0.4103358894697523,-0.22770342272406877,0.06981671376978724,0.4368904254731105,-0.04455506267805454,0.17929871661495256,0.6626047877321637,0.275474987792128,-0.29057496792536613,-0.02457116977581555,-0.20189019923101398,0.19899425608727814,0.05437340537118651,0.14229918808205574,0.17293882451690107,0.06398353861640833,0.018005318482895997,-0.00686127063801838,0.07966021506463744,0.05394777937557645,0.002010273403385234,0.04505242069365147,-0.013298336808171834,0.022939802234682893,-0.015890832483654155,0.04045602048302405,-0.03151976205598759,0.07235851537992927,1.4455584606322196,0.2005060359218818
-2.7433461004599167,0.7033340868394108,0.2407364360711124,-0.03002602370008213,-0.14587131392362426,-0.028335798919223096,0.26206749516616745,-0.003741446653408673,-0.09567413627752797,-0.0035980398420698326,-0.05207918716376047,-0.02684889589697055,-0.01258758863438556,-0.037693060838886114,0.025966450774517865,-0.0002823274713850596,-0.004629543843090076,0.03147724622043108,-0.529173483974052,-0.1777274755132043,0.15086510537751624,0.043770987412932096,0.31129490942639276,0.21956140443557942,-0.06380647865881488,-0.0773593452017621,2.1465392078630843,2.477646855572764,1.7116847904392185,2.348514914172521,3.681751302866396,2.9080046146217655,1.334847038813138,0.998572933528927,-0.582994435429146,1.603720434427926,1.4474401231966938,1.683826338154395,2.4128522421368,1.3251815496077763,-0.2733125726454261,0.9017850171316725,-0.08434281706941461,0.27519621568111524,0.37552929411047675,0.3002116502419088,0.17968750217799262,0.050575370053395824,-0.06835047695003259,-0.16188348437065664,-0.13894334868694314,0.0052175540944119515,-0.005153189617104553,-0.02816773296618567,-0.29562279256957424,0.053840114117232114,-0.5036103567160517,-0.10587336002022459,-5.92101710974014,-0.34710322444151065,0.06965001828595835,0.309540811579952,0.003779518300108832,-0.19359448430563816,-0.015752709878009245,0.27232486533985506,0.016087120474783726,0.07380167935130054,-0.018152357325200312,0.010143895681928332,-0.021396707931787145,-0.03326596649721974,0.05607846944614505,0.026833551447600985,0.17051390302561018,0.08571355128202372,0.0363729788989218,-0.5668711710438307,-0.1623700825829909,-0.34229529583600016,-0.07735618254348268,1.013542117773152,0.31740468518061127,0.6322846054016784,-0.06348508003751273,-0.8786807673924881,-0.5909193606213359,-0.46339877157270487,0.25110264695835616,2.516889298145632,1.4600152027541584,0.3464982548105587,-0.512538507657319,-1.4764101948514086,-0.23714813571693186,-1.2816999994566192,0.7997732668444812,2.9711218233424157,0.45856142373692366,-1.3256622372029034,-0.28326127728138345,-0.16138457085228627,-0.16406072224866353,0.3079032799502182,0.4216424103070113,0.23062432949956752,0.18326680911236148,-0.1261225609891714,-0.2633528432196307,-0.30605579831282514,0.004519480000485762,0.21585966122270234,0.0352943910318919,0.09944746359305018,0.03196955257943708,-0.3746981160911793,-0.0645918025458627,-3.9052705454464074,0.45275356700329633,0.7930021881917231,0.21418950262760386,-0.030526709545775604,-0.36611701123118473,-0.0014350696598545171,0.2439266102154901,0.03025432769648479,-0.40937944814225846,0.012937467956939274,-0.016729430417435593,0.013933870435060256,0.054703313532371005,0.12596840702956694,0.1735603535172886,0.0888478283391103,-0.07335623607078699,0.16012459268062634,0.11401535689597796,0.39517549125030355,0.4877187452855418,0.5730984234021405,0.5403378158538517,0.418062283617309,0.6108143254430132,0.3864082656201453,1.4120853951578174,1.5161630346203538,0.6871419251575135,1.3830267307035742,2.1170193735138865,2.2673672334344355,0.5740936353907833,-0.2961718284406571,-1.2223243250115448,0.1545372109068124,0.03156524495250708,0.33337077238490365,-0.5312285081934464,0.19310271417521363,-1.0996576899955017,-0.3305584139910333,-0.14219996259768633,0.14829468153573214,0.055979208736782894,-0.08602182900596031,0.08720049166027752,-0.01400008235278902,-0.19379803173069526,-0.21419548945785305,-0.06800497617621407,0.3028972219849896,-0.02859104219032932,0.08831178460674126,-0.20381446820183324,0.38676424304649426,-0.2630164548124184,-0.041441024839860716,-4.005100112199682,0.6962910861933375,0.7966559757664067,0.16439662621592233,-0.015420835118834447,-0.17555980625589765,-0.015397312058341701,0.3554226845953004,0.030314694193979665,-0.15447750041854494,-0.0038565904695515834,-0.050211997887859475,-0.04661365562085666,-0.10011941751662384,0.00430231179966543,-0.024052512396205393,0.0003158762230462197,0.05249803621106194,0.036744317107637266,-0.5359498400261499,-0.15255160813659693,-0.6544765508060175,-0.40881364607765264,0.5349897230756928,0.1609590965992282,0.0015362171669078006,-0.17573558969108524,-1.24706729094528,-1.023529869397145,-1.4088812554523533,-0.7684132115751606,1.9783123226932546,0.7852532713480386,-0.8741371676300721,-1.4682802929020342,-1.1742526984748822,-0.46759985557825645,-1.6770184138150592,0.9416687684748349,0.8454728996771181,0.547332297509121,-1.0143052302823428,-0.3109576367801522,-0.316861744792603,-0.08243234988589353,0.16040793818781637,0.39051270314230724,0.10867914640571813,0.2524637399949718,0.04365973666071629,-0.26888250255524804,-0.22939280261507713,-0.060590431266310106,-0.028383595677190482,-0.03098153966394266,0.001211363741747243,0.07189688683415718,-0.11598174509422365,-0.2435103314147792,-0.8239603399678829,0.5727117840981073,0.4502696676740378,-0.14163282305761052,0.0082353708622454,0.3682545294734738,0.004584487997143707,0.054057032363787866,0.025690864939448117,0.1167590713011649,0.02929804849006768,0.12940806653411932,0.24651221874397813,0.27440670783116067,0.15688022058844917,0.2782054870666796,0.12699973200534395,0.21879300404125704,0.1395912519880811,0.4862275863212811,0.12714252889807057,0.8001418787784244,1.0235857909902848,1.3267073196256056,0.36281113318947567,0.5807349748365644,0.9375184141776718,-0.5000190414507638,0.12626411483016786,4.472108421302969,1.6522385619691242,1.2838533886914618,0.42610772733622754,1.2948999636918266,3.3566486860650544,-1.3223788978827646,0.7611771751283769,0.3803392951769913,0.36452009459819296,-0.9310818314395196,0.18222132546464298,0.1718150595768012,0.4683628382040034,0.0670489176813365,0.040569455640102045,0.07004484880019791,0.09937152674539873,-0.07494808055094285,-0.21338406391839868,-0.35619375229338796,-0.13172315099907328,-0.2519375578222037,-0.04443250891729035,-0.17552762356525758,0.298966618838912,-0.27020005500012756,-0.03250009808904736,-0.3779603742470715,0.3774811944876342,-3.9645108049228486,-0.021579826978072814,0.0906070185896956,0.09553602108383803,0.006641310201558,-0.054891034768016336,0.040266840007745795,0.21890087011647277,-0.012391119644148001,-0.21297030252200816,0.010390993293933594,0.10072821363197738,0.22556330387763443,0.3037950174867701,0.35948162093947444,0.10594227208787116,0.05036207178130724,0.032998648488268806,0.04919436449365565,0.9182373200169479,0.10907105841787029,0.7313269790042288,0.24656070083880471,0.25856738298413073,0.08867561941117172,-0.2187849446512461,0.11478628343258819,-0.302673755472306,-0.25137697722599095,1.3349796102155758,-0.044474033044031455,0.7614672832174505,-0.4521305449349667,-0.43504964147150865,0.3723117062081426,-1.4341194464900044,0.16191516608535342,0.10385025484892409,0.5730347548113855,-0.9415594621439258,-0.04307431429623675,-1.5171755398045939,-0.012788032226606382,-0.16157882557248054,0.08472244121412204,0.20504167255289182,0.07850301774077519,0.028494924849846667,-0.0903610904818297,-0.08265427465046135,-0.1517593997272149,-0.20982504582826975,0.07611716394632172,-0.10792903586119348,0.10870265095337424,-0.16613339852406875,-0.00250139352446611,-0.2892141810788536,0.06912742704806024,-1.0211077383561928,-0.4104896530165146
2.0332350155497902,0.33694885412776,0.1286648125324859,-0.001489178104432143,-0.012902831641857711,-0.0034019576151242963,0.0791786191214777,0.0034024055532558407,-0.013857333877393638,0.010212104854380696,-0.0379436444914005,-0.012924035233713299,-0.0009929376191745755,-0.008478146806631889,0.01620155745937974,0.04787998005281488,-0.009584999039860053,0.02854691138065407,-0.3251330659285275,-0.15602701348772757,0.14232890145423513,0.06938436752170633,0.42290028122883105,0.17164054577854188,0.20254213037890706,-0.001930107946584291,1.070311014029603,0.9494729290749755,1.1851161915293993,1.4761797677620363,2.4754040361695537,1.6134051192957173,0.9372634244348752,0.5276012418079655,-0.4293338897035241,0.8027059589688723,1.1876813109065945,1.215222937423521,1.7466672394117824,0.7777075412683828,0.18210345547074341,0.43024072815033215,0.0010531326564973034,0.22746847460111683,0.26766088067641236,0.23354582807677451,0.1546977275329219,0.10130858888236427,-0.06489407526032782,-0.15605411723162907,-0.02561352375818671,0.007696870443765117,0.0809099168082743,-0.007192737918320617,-0.020548851941836678,-0.024460723737507246,-0.21511475030492208,-0.047235895777389895,0.1707503764463599,-0.19677995202481374,0.0529727611411916,0.08302955452152677,-0.02900243445126247,-0.033225902819410784,-0.0015809504065159969,0.1256288159669378,0.011846654114850655,0.08226473348529235,-0.015688069592705724,0.01890444371391091,-0.016041158624787263,-0.020790771145470587,0.030716293541657367,0.014864325742836516,0.09871488198063882,0.05899634099446795,-0.006196775019132039,-0.0943187556272553,-0.05887156929112903,-0.03510163115848681,0.014318595666912367,0.6515714656987474,0.06871588860678339,0.20749688378867376,-0.03141621332742525,-0.3293680662131191,-0.14910324420152984,-0.13063212907051666,0.32806433351398673,1.1711187265396077,0.4790905738907819,0.2403514750495205,-0.17184736504229306,-0.3806399895229923,-0.07853759151117048,-0.08138538130319782,0.5177998672299893,0.9828182413259311,0.19191747206723747,-0.27050306201840424,-0.09369325987820137,-0.03519794818160075,-0.04626047999147513,0.17119505908343194,0.18853810068659502,0.06967660707391966,0.07366492632900928,-0.03842600489575329,-0.06380215903707505,-0.06377378963651047,0.014825096860212288,0.1822377329749621,0.03033774463525716,0.01852604264880075,-0.00451156501487229,-0.05780128383693183,-0.03427339111748013,1.4841996827066097,0.38058239331185656,0.4979573778931147,0.1441114405908796,-0.018626036302202213,-0.04860936195591539,-0.010166289430790738,0.08056756226733296,0.008489035729784374,-0.09154666313896062,-0.0024200463380234416,0.021581123978760962,-0.0005871933431555795,0.08164641764139703,0.12073801504119866,0.10169133565091161,0.0674590398048395,0.024867759865285752,0.14280311874636753,0.424127948337632,0.3272237677847692,0.44134772880186446,0.4199222545417964,0.37558454469629854,0.25838095635993275,0.4563685494582676,0.37133623073913646,1.7208296256804092,1.2091014526960824,1.0177884378957154,0.7527151383102552,1.2856812161213398,1.2474955124525564,0.6879396922975272,0.39105983089831475,-0.3624156518762259,0.23213035944446095,0.08674820959983355,0.18679270530825312,-0.4255841592701102,0.05061516985669444,-0.33303041998950533,0.016376104949055472,-0.006666621673767745,0.09767213398687784,0.007319603696008596,-0.06405136135352502,0.026164371918100428,0.054169838260996264,-0.03356497086478693,-0.011985171928887027,-0.03334993484248107,0.1985090395444366,-0.06729902509670742,0.0787841491357276,-0.09033922470647276,0.2513335732800766,-0.04345827430635662,0.022893334691974902,0.8179446663696373,0.5877385974840931,0.4243539430499541,0.07843962186330704,0.0015762745666092963,0.019841061896882648,-0.010919677811275393,0.15694570539369712,0.03340623655655564,0.014146076036696806,0.011901843926885727,0.005512710727336023,-0.004849363236107186,-0.03563963915136574,0.04271433342735886,0.020682448131330137,0.021943041897420506,0.020018900998231087,0.008844691157693305,-0.12845961595550795,-0.11586689023371098,-0.25962009008127923,-0.12959199410017017,0.4743734472960912,0.04245882557889277,-0.02446985655474021,0.05759604010202661,-0.6322239464837199,-0.4623462893420509,-0.40056007568988283,0.11672234450422796,1.2110270283449098,0.3043029926463277,0.09442108432080976,-0.28258596817207426,-0.6309136089423123,-0.18992138523874294,-0.4142721410352224,0.6441987185801266,0.14570447696185923,0.27330062510393877,0.08180964067538732,-0.1033733556094151,-0.13003101572061937,-0.017971269650953785,0.14551856595920168,0.28064299278074456,0.030458587031137612,0.1430182531643291,0.05105830465950849,-0.07528037385207137,-0.07613366616677454,0.013214034901550913,0.0506297696610483,0.002238660286006188,0.019180223525012932,0.048423718675940856,0.01370202160218764,-0.06526294870732373,3.1712258928633643,0.4860359714141418,0.26798844145773526,-0.03788732550654414,-0.0009288142864384762,0.22840402989788197,0.01012761355339223,-0.0051830051111784875,0.0068608562801070585,0.062284694265115785,0.0021079383024695066,0.10254353208460038,0.16686312290464064,0.14433244907417336,0.09975259578017527,0.16487838070707206,0.09807888992025925,0.1608598384992216,0.1358821962722976,0.5401046430564761,0.094840363055596,0.5780864104349281,0.649871706511718,0.7369464886532966,0.18063233820862742,0.49808571000615554,0.6894637808106245,-0.021659242852479912,0.22158363443254406,2.75334508899481,1.6124884315982362,0.8581101136643263,-0.03109538946758115,1.2632473145866794,2.5633801021590457,-0.4974312577332201,0.5085605265474377,0.5287439422445036,0.34156108136078167,-0.6796037960830776,0.18138384519081888,0.6960262157802944,0.4348088500940961,0.07341271191092048,0.030643631326761227,0.04628851859293717,0.0655223003040954,0.01505592778076654,-0.011077642395267845,-0.1049880719371241,-0.03745656922887113,-0.13977546057906534,-0.0010220588606821746,-0.10745345599791938,0.14565331875352877,-0.13109570909579377,-0.019851450837221847,-0.19428259346090965,0.1824073360875626,0.7320711995523338,0.06190334238656545,0.03504106301263487,0.03531606152280647,0.012051776794741703,-0.0034997759211502413,0.022812954946130393,0.12569158792642424,0.006092708871826614,-0.10659930603327922,-0.01381348668402643,0.07579914636030584,0.12391857988503535,0.1722181885272227,0.1384840395170828,0.07077724065145137,0.039719786529303615,0.016211988717731288,0.04639722013624151,0.62972329660084,0.10978383697721393,0.6125890445084242,0.2083133645526296,0.1966865891029303,0.010566854719970964,-0.1631476125913955,0.12170397553874704,0.299754900221123,0.1779977861487659,1.0020204743217414,0.3533402677500578,0.4084773516078645,-0.35302725282365666,-0.0982604870817916,0.4015504619911346,-0.5179113662431485,0.19147493297893897,0.3407768811710404,0.28191497973732693,-0.6691111160252673,-0.04843967468542414,-0.36324809287780563,0.17609029696747827,-0.02553647794655066,0.11779697183656065,0.15017064239911723,0.0032622215238465287,-0.07021938027379793,-0.05839718718354842,0.00041468002010316453,-0.007868973739421574,-0.08849420983208293,0.07171854710479401,-0.0624668359989759,0.028457168779146596,-0.10922647123790535,0.028801277886223494,-0.1333453214078945,0.027645967166370314,2.8583762847307885,-0.0811065591984991
-1.415913972852847,-0.29498993357820286,-0.08886803515004314,0.012666385178223789,0.03022880802585225,0.012745139654663297,-0.11061945818493579,0.022591238696944665,-0.005825557305477997,0.0025667080815580503,0.007418972091433226,0.020065566393056712,0.016608411011292797,-0.0007241991631441036,-0.018238040872313812,-0.030431043284070498,-0.0009500763881762251,-0.007335508796875003,0.18722198382353436,0.11779565430427782,-0.10039320735609354,-0.026327404240637998,-0.22421001538811594,-0.10383335188876759,-0.20176311306985145,0.0034348383024773543,-0.8374562545943777,-1.1062129570026995,-0.7787058248373838,-1.0484451082260926,-1.7002341413027653,-1.478070429851989,-0.8069087154398181,-0.4058937147387388,0.23250362517646214,-0.6092328355663887,-0.7613458770660105,-0.7092357951258403,-1.4003155270810022,-0.5955440214589108,-0.18213353841108207,-0.3438024302441274,0.04368690549263435,-0.10203630423059822,-0.15372335745393706,-0.16130971601234936,-0.11700368308716849,-0.07301910197084807,0.02475515334602786,0.11321872451328593,0.04843302882621878,-0.0130357658167686,-0.05806279477794715,-0.0042874013464191405,-0.010972608839160835,-0.0123030066906617,0.16280378635233084,0.047450835822817006,0.005176286897923841,0.05366762618346461,-0.05816248686467114,-0.16323588125157124,0.006933896393838615,0.018400150390818056,-0.010223960301822646,-0.11339230094720835,3.733700790167945e-06,-0.06458636384041548,-0.016992344236466953,-0.015661500187468643,0.005560203947790065,0.023827251411714746,-0.020494510210590917,-0.011993689095290607,-0.07064449111386566,-0.030301311296138424,-0.021894153905488885,0.08599798849548561,0.05461239763219977,0.02855162968393873,0.0207298417855453,-0.5114154221646553,-0.11518923978213504,-0.306089376014365,0.04428025656245851,0.2870687598230142,0.16796641114330263,0.11408251287768202,-0.13833416338076007,-0.9116569480187603,-0.6487896988332221,-0.1519700287757401,0.17698637155909652,0.3209632643797188,0.07251788821734016,0.1911307046046877,-0.32992147251161336,-1.1654567756877428,-0.19748774687950804,0.2514105186952226,0.11307697194383201,0.03052270105938166,0.03980106580697139,-0.15576357764521595,-0.19137783072859824,-0.12093140157234765,-0.09147855469443632,0.0351080855883072,0.05039015359569615,0.035522482209346604,-0.010851605572807599,-0.15929425281989426,0.01547441333431048,-0.13244489375121887,0.00233386218020286,0.04672040806432875,0.02737621311804521,-0.9130138542126002,-0.4038427785466882,-0.47460341617304386,-0.11057910177968823,-0.00606969198097738,0.03184959232234997,-0.002850536543971258,-0.17896456546585757,0.001700521435296658,0.07707157607393983,0.0004956550073629034,-0.004964934297771406,-0.0034634881351432094,-0.06939772168545187,-0.07544232500783273,-0.061233627854572176,-0.0341466246946445,-0.022611542567564463,-0.050288144558271144,-0.17811868639164669,-0.23262171809831486,-0.3361907831053006,-0.2943659360797992,-0.24749425544858292,-0.12583825813854027,-0.2949584978975026,-0.21946785717833542,-1.1470968068888583,-1.3024744882571981,-0.6190771602737677,-0.5430494724871225,-0.7543856530568704,-0.8716070179911819,-0.4464203298135265,-0.16674806463255004,0.14519686902663545,-0.21140054030065208,-0.10095862829866772,-0.15643865831698398,0.24638073633848984,-0.10850368902316175,0.15280157263487226,-0.04017859998048641,0.02416722854175349,-0.14138511972949988,-0.052853769394352636,0.007738926108457611,-0.0583383475012278,-0.0544129900190692,-0.017518171232312193,0.007086816648688792,0.021827308279812146,-0.16228750050970778,-0.0063835420105825165,-0.04784881147066975,0.05178068435471834,-0.17314251907611153,-0.0135281906353948,-0.01623035032862077,-0.5794801340203772,-0.6195007673287645,-0.45685941403580566,-0.1026499782981732,0.002708245548937975,0.01641118740401893,0.0036680184891266093,-0.1997604016316331,-0.013613892739051548,0.005535939166799917,-0.010276114029789868,0.026196564886444177,-0.010160081851510558,0.04377123930591704,-0.01221166636914896,0.005465588479148728,-0.00853371782023576,-0.03509043339241928,-0.03356157619108627,0.17301145519748168,0.0668812271649878,0.2495563901675227,0.13937508302422874,-0.3715730438833307,-0.10687015312368071,-0.15585026762103338,0.022847467483627183,0.5426454823472381,0.40651872556151425,0.5565666606789195,0.035574673170559366,-0.9710771955899704,-0.6482472778075229,0.08243278674219297,0.4426190117229517,0.45604879257753017,0.1819250883417633,0.4075060339091366,-0.49110807485059765,-0.6565131171483888,-0.3030009067903806,0.08638331689723967,0.08326895622273775,0.10627513387909332,0.017227149159343157,-0.15586098786184013,-0.23939592269346835,-0.12598755105176848,-0.15289698101300486,-0.06400763927919635,0.08227761746730683,0.04861709231180755,-0.008980068533357232,-0.11128906549005015,-0.027460220851616233,-0.12243089976856059,-0.034753042350371674,-0.007889194609765577,0.0780413776528597,-2.1064527295897313,-0.5938396624243046,-0.2190506018083191,-0.0362390163310853,-0.010684590891553361,-0.17381786925293885,0.0066862395027953315,-0.021925333507010383,-0.012685318809110408,-0.10186603577309518,0.0061246014984144385,-0.06750690217671632,-0.12181161119060126,-0.12281616884119187,-0.08266548643309521,-0.12955204122213693,-0.08833540154829304,-0.09094157386532757,-0.09358129748269983,-0.3657463653385934,-0.04559973082750114,-0.43480454678362274,-0.42938290567802007,-0.6290036362746991,-0.18344486534289084,-0.3891001194556243,-0.4402730191811968,-0.01120099480306672,-0.21446128523225325,-1.9357750557435518,-1.1169210745115579,-0.5049671729494197,-0.24911209035704443,-0.82045670923459,-1.6754798184869606,0.21778220425381237,-0.3859332820839487,-0.3730180681538995,-0.22026535125330052,0.284641374558262,-0.1880833374174113,-0.4243097071852781,-0.3417505935792595,-0.03405865312732556,-0.04122126695588704,-0.06377126773992546,-0.0903727528583178,-0.032440297031812164,-0.006385880639781353,0.04758933619749346,0.025871311781886418,0.06681239456211541,-0.023367950358113947,0.027486850099860665,-0.09801187653299659,0.09152626831272868,-0.020257744776389263,0.11184837761332235,-0.1717697803091633,-0.6337460085181333,-0.2820416703816978,-0.09550958217669935,-0.09199957977939582,0.014547890765852056,-0.054824195644834574,-0.02535627443821278,-0.11668326507671681,-0.01723439979151802,0.07522000913992125,0.012332557016552219,-0.09796259124475772,-0.10881805711378725,-0.13398304022629076,-0.14878122519588438,-0.04914117154062752,-0.0338013374461997,-0.007083144153515099,-0.03491729214596195,-0.5436209224624088,-0.09726666260866394,-0.5212918627785668,-0.12674730102683499,-0.13879687815999703,-0.03558141756394177,0.047250226063986836,-0.10686943579606527,-0.15599149078369176,-0.22685929844169164,-0.5384222677401533,0.03770719409700139,-0.25362699815128587,0.16402234263131393,0.16198471125118424,-0.35151310952263987,0.13589567238574993,-0.08587790207158565,-0.14876901837896161,-0.1959491839641008,0.30752393157946173,0.015138059476255433,0.2127021005369888,-0.09735007658858458,-0.018109581824043892,-0.07733377400190596,-0.10355267495358529,-0.04819706856103225,0.0016334543589325878,-0.013619210119723736,-0.06855299789584567,-0.030672452890329622,0.02639315143852777,-0.032767872518791576,0.010760934450026741,-0.04086892082595524,0.010517942496139682,-0.01952323570611244,0.07327134191291568,-0.07167020537864438,-1.9385881675169017,-0.09352663611510849
-2.375316715816176,-0.36192736762409766,-0.08956969503525533,0.008752593106772538,0.0021487172267832273,-0.0006647379036609648,-0.12527908297738283,0.010520217856792545,-0.043185889113719074,0.00105231617972781,0.007905599324306062,0.005739181169485457,0.005516793852658558,0.00992961296378985,-0.017323966308168258,-0.02643408299451434,-0.00635355550951557,-0.02161762729176246,0.1946951788638143,0.2310569112418117,-0.055401734406984135,-0.03483621060224277,-0.3334763638206353,-0.13887747895902863,-0.13262591166328172,-0.02818097543259829,-0.5948308862173817,-1.2170192345224282,-1.0581271213855827,-1.2224005415048855,-2.227661127163909,-1.8102611003020106,-0.9767700845437247,-0.5563285947101088,0.6309360571699039,-0.7756898328075177,-1.2358107239617433,-0.9532598753907461,-1.71553677747722,-0.7030686486024639,-0.42753702516252734,-0.41400223059381785,0.050399289070929984,-0.1465371610503606,-0.19033837490884284,-0.1840222022041726,-0.13174422861028048,-0.06976896433934933,0.00711686053118932,0.11059223019948838,0.04001958660432719,-0.015780096061012553,-0.09676943345818644,0.0030151199303797365,-0.008356284938141029,-0.003097193385990798,0.08719206792946249,0.054028279556211346,-0.5340010336401725,-0.02131319639749264,-0.14396384595625428,-0.19490205425794477,0.01935280921065792,0.02340499901433227,0.012632397603801396,-0.17522900855207818,0.002974509847919077,-0.13915779271314746,0.00038974726225603657,-0.005061808369087712,-0.006915796897798324,0.014012661939896988,-0.038339458265315346,-0.02900633793121455,-0.10395710123415286,-0.04416528061918127,0.0007193213146652039,0.08836701598712525,0.0686547607995196,0.014230215268864215,-0.015790096969993648,-0.6081548064894059,-0.08719148223198306,-0.3683241087941111,0.04922825852661373,0.38599400360193287,0.21298239538884647,0.02649489824923571,-0.36223076203401466,-0.9174387360935297,-0.7278998385840353,-0.1941493387583327,0.10979440978127958,0.3915031622339487,0.08695434758815679,-0.280764372050063,-0.479599980078713,-1.1225328396998548,-0.22387652828587276,0.0759845561385818,0.10957423136364143,-0.003899489971836686,0.008889765869559672,-0.18322525326566702,-0.24430549446590502,-0.17723068436707182,-0.05525788148625865,0.03741449236385108,0.01967074947333309,0.011541250522984907,-0.010631279527853577,-0.18996462592604832,-0.006734672998393602,-0.1365367755744675,-0.00748209007712537,0.04068631395247421,0.009467459867285477,-1.4038672738639129,-0.7329550054061044,-0.6115768392391773,-0.08203155382537893,0.003741116512982619,-0.021115144823472636,0.002788793226898382,-0.20402751110676032,-0.016007256581765262,-0.009816645455092607,0.0008986103541728244,-0.03624622619601067,-0.050794008769565725,-0.12887397358093214,-0.11064656274431046,-0.12276642124279426,-0.0812808106752035,-0.05548252141923623,-0.09443810631050517,-0.4644791671110691,-0.3338610994536469,-0.38256531096637003,-0.4253267585018908,-0.43640474178208755,-0.20603839545052155,-0.4174040030972987,-0.4212541817089657,-1.4956290562888779,-1.6270521651277228,-0.8338752879928147,-0.8777733276703317,-1.2925283186472603,-1.3324144790417378,-0.6681565649151188,-0.6676046863419558,0.25509677002500714,-0.2136695867943514,-0.1672993481511068,-0.2442761042864563,0.28783918091289284,-0.10932267236517665,-0.09566333826968695,-0.13528999067425834,0.0054036353512056726,-0.17571417097487482,-0.0559376381029997,-0.025816796390897682,-0.0467371135973769,-0.054776977838235576,-0.09937185826626253,-0.06741786088874718,0.05841401369296516,-0.2065855944793799,-0.01745048524608046,-0.10220916980948046,0.04167974176093884,-0.2439488951571808,0.03033633616348758,-0.057424925097517954,-0.794754449752102,-0.8538742347216548,-0.6264324811999774,-0.11338012031022521,0.0018615280654057237,-0.0327494020992219,0.016914950768130654,-0.21522739066359162,-0.0042792279376076756,-0.08692615577954899,-0.01471206796473937,-0.008046078130706194,-0.011536828149662701,0.019125027369268625,-0.015487464208980077,-0.04593418747205546,-0.06119748292864861,-0.07948015278431549,-0.020047794121393448,0.10968905431788528,0.05335215896489262,0.17605726347995143,0.0585341699673576,-0.5938669333128626,-0.14960205307186739,-0.22720253898073595,-0.05188611465048152,0.4094290689779753,0.30563582813344864,0.29762780426141044,-0.41771406207869793,-1.169339746622756,-0.7257633300158285,-0.2200258211846531,0.19466202681870626,0.5165971022940846,0.10163641383692201,0.018212645216350583,-0.7192509118181423,-0.6889425581176872,-0.4370377359029159,-0.21017942520794738,0.07927030374762808,0.06538423079460842,-0.05868222541337947,-0.21207323732022412,-0.34398444164511444,-0.1726738890464703,-0.21347902516838102,-0.07280408335563346,0.05715240972855073,0.027020118025123985,-0.015268517438326005,-0.1906535551472141,-0.06112145675614312,-0.12286070709820965,-0.026986095220867194,-0.013942716186498576,0.06697669654254286,-2.22429745185902,-0.8960834262296579,-0.3572073604258482,-0.06385387059709959,-0.01979122566850788,-0.2517396588828298,0.0028786287488310187,-0.028785650296200335,-0.018148135407101897,-0.12785810481512874,-0.012611091974289163,-0.10953440602671918,-0.207919727968425,-0.14577801768034257,-0.11045302814638096,-0.18274795914343092,-0.1082788708815611,-0.126719069869804,-0.1252317182647286,-0.6245659821111645,-0.12128238511762773,-0.6079115152745408,-0.6207920020610854,-0.8971407344015361,-0.25091946660894193,-0.5331335529167053,-0.5907546787097875,-0.3070305914966197,-0.4719682025092109,-2.497415149662592,-1.6704338800920153,-0.5660864096241263,-0.23943432001078077,-1.1140703764817388,-2.139418650876429,-0.05560692965594794,-0.510207009207526,-0.6625565780659524,-0.30481550483147435,0.6357269926483861,-0.17404339354006418,-0.5952187322044171,-0.5667683187996664,-0.1314475107698652,-0.0673020376813857,-0.09555716369431876,-0.08645923528596003,-0.041694005298149574,0.015227715723239168,0.002635834061380908,-0.05973236815920378,0.0749525902257009,-0.018314263828430127,0.04204076097521642,-0.13092595877137983,0.10747762802887369,-0.03693728990701285,0.09859737737252354,-0.20911604959754942,-0.9701719260943716,-0.4535916730403108,-0.18562979340457997,-0.10444319516138693,0.008345425826192129,-0.16346585144768228,-0.014016567153803897,-0.16561359314186344,-0.008271777870804258,-0.005740674159980395,0.0058838549220213915,-0.11130642683631123,-0.16378130886166956,-0.17591319682869083,-0.2080619604478095,-0.07343393156691681,-0.05489819712881534,-0.04922986283987802,-0.021888850393204543,-0.7090606310457532,-0.0780066595898631,-0.6843876931601796,-0.2463096719875755,-0.3457100242709811,-0.05301485516424854,-0.06578676710628592,-0.19926697133583682,0.0284751062365257,-0.23601381594580875,-1.0039198860510343,-0.528075358673657,-0.48771759231285344,0.001975317708988429,-0.1801791318898936,-0.7093576218626145,0.4159174645316741,-0.16040104336952352,-0.6124187315982169,-0.401236918392934,0.24336440296879566,-0.03426737795265639,-0.16021492677225865,-0.22225462913357705,-0.06460446362731952,-0.1124835814653363,-0.1513528958632478,-0.12548690193743312,-0.0759801308879666,-0.0477243777153765,-0.09460499961976186,-0.03320188394309767,0.0398263292418525,-0.08659163714087116,-0.01973332386301439,-0.04603505740588092,0.00145440739765143,-0.04094976798703431,0.06758174154755972,-0.08820941980331223,-2.221740594413692,-0.42346936121117024

Wj
-0.15899090148354125,-0.49220004754243973,0.35337593635822506,0.029876824410396758,-0.006574635342152885,-0.7463150947983948,0.2354308738789552,0.10077654308229893,-0.1116958153673657
-0.07802953967967483,0.8837274494584293,0.15346910804159655,-2.1487361371878997,-2.0222254727387,-0.804837013589989,-2.649161628687367,3.014154945047839,2.5029122669919444
0.22975999401298042,0.4745448033946743,-0.3344659153932763,0.34566169074123804,0.6015867289369183,0.35061118542919234,0.5540798504758916,-0.29454675039465456,-0.27257141594042394
-0.10952250794096957,-0.19500488207008798,0.18946729207915114,-0.6995039937932362,-0.6092198456056069,-1.0056419837433581,-0.6618343024011407,0.8248644598524929,0.8927363147123637
0.5293894263644304,-1.0493364200246713,-0.7522901727230211,0.4362444743127163,1.4151552892595194,1.892584738807394,3.347641222025034,-1.1282247919410708,-0.5762809544173165
-1.5013122607096456,-0.6773925978551713,1.943717159177985,-0.13090961785753968,0.0765127986523142,-0.15907359623645176,-0.2429063872585099,0.3852636061223375,-0.5797186602332585
0.3177244187592724,0.18335323020354644,-0.629521670056181,1.5576636288891108,1.587153166412556,1.4668943362972533,0.48795022141463873,-2.0846272363934686,-1.585136119918125
0.6057687307421488,-1.2270072344180005,-0.8856008203777929,0.17838984366804517,0.7535124893699571,-0.48437785350856805,0.5299465969449854,-0.08688133259802847,0.1967174704418777

Wk
-4.081176027180595,3.2963677675961613,1.1572851372868431,-3.3219846664104433,2.8881160415130758,-1.0171726024830412,5.201971135704098,-2.1854999878860633,2.017461528316678
-4.8075987260825555,0.8694699064960795,0.507824969461958,-1.9902725572751514,1.3360024453947006,-0.3247882644330582,3.894460747509902,0.6322015717577424,1.2229290713669443
-4.183830926791962,0.6214145152146396,0.7067727418727908,-0.6570380667427383,0.30880326848316075,0.038888104464430216,2.785889637726369,-0.8300002192112566,1.2664559113701543
-4.093979414255401,-0.07317464517107873,0.6654684746284659,-2.2396415315544935,-0.1262737052299758,1.0067650621596496,2.7501368697484687,0.5302632194619499,0.42058537774771354
-4.158277552642715,0.23147426532115997,0.4497310168329776,-1.6424428227855465,1.1124417432225344,0.9435077541027604,3.6526075735609145,-0.43967259616305987,-0.27908538922173337
-5.337946897018282,1.4238195026657319,0.11140435583378992,-1.5783382689934071,-0.0972982975976344,-0.009231023313677,4.3440832407472945,-1.007107584037202,-0.8204557703296511
-4.471938044624196,-0.06851817818366901,0.8167258805434793,-1.43551430356838,0.17947914144212276,-1.1421312330177658,3.3429982750563036,0.0059986129451729915,1.1049321803195782
-4.828527979382824,0.9274102143912465,1.0023814985831474,-0.7752484166242107,0.814640624452469,0.5410772925709191,4.356094633555826,-0.6489804600387319,-0.18026711709093401

