Wi
-1.1656489739679485,-0.021144008178284452,0.016918165834465468,-0.0002655390416924087,-0.015689054894007515,0.008975198258966028,-0.0005277842748163133,-5.3524925128856115e-05,-0.031926847751842645,0.0008491867228363404,-0.004219306950762914,0.006672109868301698,0.02005677661078873,0.02360119653420372,0.0034127481287810103,-0.008549731483402519,-0.0029053084682198233,-0.012067793019583535,-0.10700465235460165,0.11382709880393115,0.14084502296218218,-0.02481109427593061,-0.11943886162234676,-0.011561161604353215,-0.06490463672190629,-0.01143146432641211,-0.04115052727567759,0.04620094588976305,-0.10015928590164569,-0.1486274365213099,-0.17536895566140995,-0.19067955458441588,-0.1500005781221996,-0.17330739641608273,0.36533781688292044,0.012115289302541337,-0.23643741598507015,-0.09503827278098732,-0.13576334993436748,-0.07584449496518819,-0.28681726438690847,-0.12098832581767587,0.06072461224825217,0.027647206116292462,-0.0636508675311023,-0.03739637612039843,-0.02534969117936144,-0.06300387443592997,-0.0379580646979967,-0.05311387651659078,0.00018418100887473784,-0.0041686757332942154,-0.053632106352424054,0.010614092262044112,-0.04137547213172917,-0.006862933535232291,-0.0795982742837538,0.020607863867128838,-0.9627003366948679,-0.0602526505380597,-0.012937511566105887,0.022333674493451496,-0.008473832501016056,-0.03779982493792802,0.00694475421250997,0.004250206799121411,0.00810787863236525,-0.03540215509639903,0.004172796136065278,-0.00022380003707121447,0.0013327146901809719,-0.006309807946377602,0.002472540843396394,0.008739318555381074,0.02158005784459639,0.009205864244320473,-0.0021885427889714983,-0.0957166810053839,-0.028241682915765957,-0.013245718557866402,-0.0323049304577633,-0.1306430116463218,0.18985045295278455,0.008780026375732613,-0.02687064380415224,-0.05186436872955161,-0.03423632778991961,-0.02825312692274771,-0.19646514528548326,0.018397797208680695,0.2930797543243458,-0.08715082563779797,-0.09620158163184467,-0.12109430753576118,0.017007965456896718,-0.1994515776298677,-0.128000388678192,0.7650309879730727,0.007702494956333059,-0.2091964608963304,-0.04934990649568353,-0.005931879455532731,0.006207124763477026,0.00992502536209443,-0.01096365975478542,0.014754784722693379,0.0013500198362633336,-0.03509852068272942,-0.038830092688661735,-0.04442767434165018,-0.019186311909022955,-0.055315669114539945,-0.012614752257220096,-0.10057452089919011,0.0033469371548455035,-0.07092268921083353,-0.011044922933616624,-1.2742445850765962,-0.12846715176047915,-0.02108890176176286,0.004903090746726781,-0.008878479028899728,-0.018098809042167492,0.021377589785028753,0.05756526556384507,0.00015046418660150384,-0.02027964231204876,-0.003678160030606913,-0.050844810952329796,-0.009387488093483026,0.009020994251742423,-0.004242451385634169,0.0019764033930616503,-0.028608501430397015,-0.01342114445903465,-0.011785447809291522,-0.22805358938879078,-0.05000893210658776,-0.01934523869809966,-0.050833887917508785,-0.14968013583685233,-0.07370322859716189,-0.13891699879518368,-0.07330502721366644,-0.5304495256660873,-0.14668633679781223,-0.1849282573173442,-0.2701580659365844,-0.6833928986980782,-0.3721087844288454,-0.21829022037968013,-0.3495603617406375,-0.0006148313099621975,-0.03028774796021626,-0.09433946018127326,-0.12169371515022512,0.01381576420516699,-0.0672121560156911,-0.25562506057737966,-0.16366593081841768,0.016550255958494207,-0.029324929881456546,-0.029099657100352155,0.010343552306857757,-0.021549293568647158,-0.04766633779750462,-0.05587309530437465,-0.04627721626842069,0.04847589400278164,-0.028305743492984148,0.002468992936913474,0.0030710590028911007,0.015463701937971901,-0.016105693371096637,0.004475896161671043,-0.012946018078119693,-0.5746247737183264,0.08787152001382094,-0.0200519399801075,0.07613744498396902,-0.008408147129871198,-0.025477599038451298,-0.008405562072028952,0.018992990603154385,-0.002439021274218395,-0.030991451130113267,0.003833834314366836,-0.020519175600905975,-0.03335653223524252,0.00011420628927667394,-0.030081824867623178,-0.029138668125585052,-0.008849639964472168,-0.003648210287163749,-0.009539364355942145,-0.2097839316858825,-0.08896434057233234,-0.13873447821218696,-0.09917783582215431,-0.21899946048482594,-0.05997370098397632,-0.15307588291205448,-0.0732064624780469,-0.5129231782288725,-0.23216266818680575,-0.3221564542720477,-0.5256140851947532,-0.4926124654927566,-0.35045674147499667,-0.34014295501560277,-0.27467627167920805,-0.074823070672979,-0.11472580847514784,-0.3721403641493582,-0.20801803464433272,-0.18253459550440465,-0.15824573587311588,-0.19521511321436805,-0.13691767839779384,-0.027985502444115306,-0.03963855675000252,-0.05835592937123174,-0.05126756786563377,-0.028854299863110774,-0.06142509623072742,-0.04014125966381009,-0.011873921613527794,0.03966888194440102,-0.035606338855778415,0.018774961416952146,-0.014727268277490423,0.009891428900058051,-0.027082900932239383,0.015550372553536775,-0.012696679723580172,-0.3718156133033063,0.18523610541838006,-0.07015780770246496,0.016409751097287987,0.02555575994330871,-0.046121397975107864,-0.010903623627974533,-0.05024498183881185,0.004615011847623541,-0.010674242396004629,-0.0054714917941960884,-0.03397624018569282,-0.03555750996023938,-0.023770218861313842,-0.001609640587294941,-0.00630294038810026,0.002035188131391501,0.009574628025975503,-0.01748743343419042,-0.23361528549254773,-0.07342888462270974,-0.16614374977767576,-0.06845297710825113,-0.03837057021881026,0.04966134907973148,0.1049162703553755,-0.07398099989348401,-0.4289382907658224,-0.2509440100936173,-0.2808285470163115,-0.19529517154601453,0.12178681912569128,0.2570207871880214,-0.1572754443584265,-0.2944023015393611,-0.3722269947614937,-0.09353376760003622,-0.2463239234918569,-0.05957813531756772,0.7792725173329449,0.04021726170070087,-0.13848843074358133,-0.1792220652637434,-0.08678938532850813,-0.06531157654819549,-0.009180218418891115,0.01115374630802915,0.031189795486130368,0.02985451060502427,-0.08037649238505888,-0.08225202591144765,-0.045092778068039685,-0.005516061301860379,0.01806945042380425,-0.008035058266856418,0.016602330263890294,-0.04003090026279143,-0.04589130644526118,-0.027840902247892905,-0.9711377332679845,-0.0741673748870094,-0.047043915482088326,-0.03238140830346441,0.0007757020556592231,0.007398635693590004,-0.019213125888691503,0.0006749428506781452,0.0009401071293754288,-0.03366308378116384,-0.014061622837556501,-0.01334869181750417,-0.0097539194103679,0.0037412537292227715,-0.002461598694700964,-0.036364416655772586,-0.014202356111755767,-0.019929196170360153,0.002805530738669296,-0.06896494149589609,0.00021431094213727523,-0.0077968612892794905,-0.05176657570643251,-0.16724790896775887,-0.052677679486175764,-0.14282820820777037,-0.053531818062204466,-0.1315413479790055,0.2274445134111474,-0.441744205312566,-0.28536700647522445,-0.29979566278459885,-0.25363669556830465,-0.2985787558755436,-0.28152558039875664,0.6509439059663592,-0.07239884260723584,-0.34642745469824365,-0.1505563336122713,-0.44634265896451386,-0.11347673310345611,-0.28672331147976765,-0.11778066276515609,0.03892182742673287,-0.046076539139009866,-0.08403535593553824,-0.0842344057680198,-0.09108545048410077,-0.08502083602514121,-0.03629031544066027,-0.022526606307822734,0.04645014506670651,0.00035120259044866674,-0.05468634115605465,-0.037500522207314486,-0.029518244307306245,0.006803700191055532,0.031164332269438943,-0.013291279849331619,-0.9925832201718183,-0.0762884545770221
1.3746024724938612,-0.004115796905255617,-0.016485768477037095,-0.0015690128450071418,0.04306750771354987,0.011449736414765306,-0.025541360733518967,-0.003926336927281457,0.017166350208983574,0.0004795468734211777,-0.0020064067866043325,-0.009765267553294373,-0.009656658773157198,-0.014038209391217867,0.0012146209624562504,0.00527435097047145,0.02141581590045723,0.0005300177587571872,0.13394459842323347,-0.117058065432643,-0.16171795153881757,0.02383056279616379,0.12455313492888048,0.013955468298629536,0.09764271054415032,0.020897944105690715,-0.004884397687999511,-0.0641444433415315,0.11888700297698886,0.18082909841568504,0.23860279520813027,0.2978618783981477,0.15838823109755726,0.2172902475317125,-0.3775064115233082,-0.007420305365898166,0.23521445359722468,0.13019703896157428,0.21721822810539207,0.10247878336956136,0.29575334182607393,0.12130680041340457,-0.04675792224659387,-0.024766052829684422,0.0680587613729511,0.03746710895428731,0.022234292177306075,0.052243922595072136,0.029986949071397914,0.05144945786155422,0.015667511788115495,0.007603221223592053,0.07423636089484958,0.002121539609075087,0.08256147194501638,-0.019988741894443933,0.14676837238801083,0.01640089130787538,1.1252275597941956,0.033256845822312066,-0.0016436008662355564,-0.05180449497220027,-0.01114096731700686,0.06845213711960844,0.002947194957789035,-0.02332752062796394,0.004432179522758087,0.06688605299024236,0.003824325765973966,0.005422460069341562,-0.0012373755498669818,0.024646932303448856,-0.007111801027203032,0.0048745885416952356,-0.002118080272587958,-0.02142674590369586,-0.0021118781963092533,0.09968184404670193,0.01568105171754453,0.0467228010149842,0.023900853788909323,0.16481838557744685,-0.24843877724576727,-0.05080446435595053,0.014484483100197102,0.013299659308998856,0.027782149039248177,0.00545180550643167,0.19491414498241863,-0.09048806964893925,-0.39846042037952356,0.08773007392107139,0.08601075565483078,0.15015452182550662,-0.01084421294751648,0.23351903987716105,0.13934361956027927,-0.9986738765351132,-0.05935198608168812,0.22918357344686063,0.027411890596230802,0.000555151567978802,-0.01278138179307476,-0.03416778590211052,0.03197939005735413,-0.019873692566610524,-0.013853187389988371,0.050079874013237144,0.02044093125949863,0.06893612124779643,-0.0022228689282443237,0.0573119029811328,-0.004928417547559586,0.09267950457567538,-0.006865157439324046,0.08278955301924927,0.02251201689451565,1.5643863282099286,0.1170451823370516,0.007534016443270127,-0.010305249845632716,-0.0016944626452354073,0.025345479674059698,0.009000595727735467,-0.04707387870478385,-0.009680231563708761,0.015123115815908666,0.0023537767476268135,0.049219043007640045,0.03489871722815931,0.026467514178934236,0.023120094580712493,0.018209348102025513,0.024447655859795702,0.013433045082237784,0.029667679629008816,0.30791055459157235,0.08257728687369359,0.03345010432958399,0.06285686817236431,0.1947192872278276,0.11031650879166811,0.19201239350047006,0.11432280473902103,0.6484729780898062,0.2528112295519038,0.20119907274024623,0.3326326026688592,0.8400818445522032,0.503660891828724,0.25991194919339194,0.37929061546019754,0.10960799620828,0.03705320666793732,0.061085244248744765,0.15450283118651026,0.00011394745918784152,0.08106864466519823,0.26204601881759143,0.21137471940425367,0.0005104484866592218,0.04536023760375685,0.022845776607861676,0.005384460071586782,0.00616186022642294,0.07736116181350712,0.09733708224692428,0.05520899516744874,-0.03784476312645428,0.024359169757943267,-0.026089256890409758,0.008093803091262742,-0.009497956585742548,0.07337987989787825,0.021422237141289515,-0.0015817725101643985,0.6083501291652328,-0.08817298828524524,0.01764818620202985,-0.06299568958459831,0.005940701502481512,0.019439334200928443,0.019073317651991405,-0.02615733672904525,-0.003105612552060512,0.03517663234089174,0.0071131732507247886,0.04371367607029273,0.04343338348031539,0.02152156131286607,0.055775338176350615,0.0445845120727783,0.038071233811349414,0.003316955031238092,0.037158171165997046,0.294129069187586,0.10214020904315764,0.16428601966725573,0.11123870864704094,0.2970809799911081,0.08868754885884794,0.1471393856860012,0.10267675708704126,0.5808516996445222,0.2859630893903808,0.40220764312740803,0.6836393118267944,0.5780508451250824,0.40836273598281386,0.41799976368783825,0.3572060925045463,0.11902692953789223,0.10582752562340715,0.5150256319309373,0.28562146133871313,0.17868243639319306,0.17746112763665362,0.24355700445162476,0.17516951371040032,0.05134552062293828,0.0870726360656241,0.10722959595081115,0.05706151059979615,0.019307144286788844,0.03915707497226371,0.07183855856289541,0.06588393218282225,-0.022956159036191814,0.03522915084285263,-0.00981420630535879,0.02175882510137343,-0.011896656085836652,0.010275395458082653,-0.005027351170815588,0.013924845013568379,0.4397244628131872,-0.16129240822010035,0.09139051677795011,-0.0060831153644968095,0.0032636270781628536,0.08245994055193479,-4.1890699783771884e-05,0.052221941790875095,-0.02174285795255897,-0.0051992987664218875,0.013942019535464938,0.024919895174533416,0.03741372944944497,0.03931390150102495,-0.007329504605674401,0.024130386371374758,0.0041460748280937884,-0.015893408292359117,0.0020036436790255747,0.2832930536986769,0.08307981315692577,0.22298054355413846,0.09085320480499684,0.0018544141659100593,-0.04134570312783566,-0.11813172755358073,0.10341488264293744,0.6077164729828904,0.39629733546083856,0.36638898750576987,0.2464277317249583,-0.2228098483089275,-0.2472987789321708,0.1689029167644777,0.3654567678831955,0.6186698429909695,0.12416102923599447,0.29684892123717826,0.03629984168248101,-1.0154003843553197,-0.04755187190389876,0.13910659927398605,0.21612134234193786,0.1022703364419592,0.09480970564736355,0.017469158715979302,-0.04471907643911951,-0.052719273972730366,-0.029892729351782627,0.09786884169527024,0.12421335460330692,0.07109006111140867,0.007271145507086573,-0.0180718689311925,0.01850980231162045,-0.04558777222427461,0.026815433527982768,0.05088136284038448,0.050258790230025,1.1112822088933785,0.10515701528773784,0.09323241764930168,0.04096886516427993,-0.00840073161997879,-0.013160160576632218,-0.00741463936603886,0.009325409410508427,-0.007371323654508491,0.021450832989546382,0.02181986946390644,0.029830516511974905,0.01579093100824708,-0.0034996816157719635,0.023817641108872432,0.029157683771702688,0.011400133421436517,0.02145247462235459,0.01275209756270624,0.07122920641841195,-0.011461261006984821,0.003177870873624471,0.07541955223925266,0.19663167194660763,0.06554917249817467,0.16571269326807087,0.05042370170983692,0.13781747126695684,-0.21367017477229874,0.5634508368626577,0.3613037380191904,0.3385468677111685,0.31516584936034836,0.3844570966623831,0.2988444279581318,-0.7601522960225249,0.1293529616202269,0.4452110653565889,0.17006614756180102,0.5374548934321823,0.1544427273123723,0.3806849116812783,0.148021614429832,-0.034393910198029176,0.07174581119221472,0.12444306465899128,0.10808099389033077,0.12327014567732945,0.09476410209917958,0.054234756250525706,0.015210560198767051,-0.05848769673459085,0.044706258337579775,0.06785967052153721,0.0375332282727299,0.022365923696169052,0.011349445516904935,-0.04194670511232802,0.022844562886573078,1.153811028720315,0.12184041848492884
1.4921098489862732,-0.008693965535539926,-0.036583400025890216,-0.0074466542533091155,0.030278192838327483,0.0057299368286489434,-0.03088502825931763,0.006245695658635452,0.008642241214359893,-0.010409283468100628,-0.005953199069227529,0.009678668311516364,-0.015580936652518964,-0.004127688574650681,-0.01742473600379089,0.008474156590892769,0.01952007587231968,-0.008871795267046973,0.06070041731845118,-0.12084424116706124,-0.13181295028593304,-0.013330395860162682,0.05729552652849102,-0.010273242941218928,0.07403117759490821,0.0018462714775280243,-0.0913788427794574,-0.27170116642582637,0.059455557654848314,0.05116596199932273,0.09753547500437475,0.2380220520119205,0.06297785301300894,0.13121679214997717,-0.34478875284729543,-0.028819480312657755,0.015702918856710164,0.04135497735403766,0.1551691578590293,0.0741298612613499,0.09969386336116026,0.015047243209735753,-0.05987441670175202,-0.03575992815910323,0.035947909286568554,0.0014672853791764626,0.01380193002247465,-0.0005966850707976136,0.0025682339238770995,0.012871292943492712,0.015887126741768023,0.00594457309621708,0.02983822573445133,-0.012400584378734477,0.02755615489697855,0.002425940132910731,0.13563186676772757,-0.00548446489908835,1.4223833517762405,-0.01627479107207741,-0.0025617118289154054,-0.0384646133842957,0.02962867966505225,0.03980522676494039,-0.0017763632705777345,-0.03759399385553776,-0.011381192782417183,0.07129019682004484,-0.0008148296892413829,0.009800672446995038,0.020039960122018627,0.007457725964486637,-0.006603438267799511,0.005961036337422807,-0.016153314601977952,-0.028739456093692016,-0.007620020149136863,0.09359894147645818,0.024222119452813325,0.08946731696107212,0.0133710487142844,0.08214650338962427,-0.18035999255328322,-0.0710647303031232,0.0012816301605118867,0.033350521983762836,0.015891297176518514,0.012398947655831816,0.13451890789858503,-0.2918800588297608,-0.2597649633534837,0.014905061561233356,0.06982178254542425,0.09819780047598092,0.0037641429616340504,0.2046464014268435,0.054326341176036165,-0.8520760429519375,-0.05579110576704467,0.10243526750007119,0.02897896890249386,0.014559996515850333,-0.009767481592109616,-0.011133543383945232,-0.007809441971261867,-0.058387403561848294,-0.02847264458735145,-0.007211992077633208,0.009718697663884952,0.04974454097717843,0.009333379401513676,0.0740097494252404,-0.014197456727976869,0.02894717686265189,0.019035609246422475,0.08119178755536756,-0.0032633883212017743,1.7100791009710086,0.16653821374035133,0.03112913538596451,0.016455793844142474,-0.006443810600835287,0.018714454812317604,0.0048874430019277375,-0.03222985793565889,-0.004623062769181519,-0.0011937543528199297,0.00847935102564699,0.05778515740977892,0.028979216563511472,0.012943697886867962,0.027748667776975478,0.008222356326488794,0.011567265254410087,0.0018635453550890366,0.029090961547986745,0.357227372448678,0.063219883602123,0.007811428664140321,0.0332131390401568,0.2575071205005723,0.0983230955828099,0.18556679295351663,0.09667071507530256,0.31230193350556645,0.014981703606926827,0.03844361055792688,0.3324859426508254,0.6118250419357601,0.48016216039403237,0.18943930583217833,0.388382854243861,-0.013106530441588726,0.019509234292378032,0.060935922184270304,0.14672460464052578,-0.031018927906926747,0.07196525844096274,0.20758583354494367,0.23405019485635775,-0.0011275931605846834,0.04573943375108281,0.019593601641819763,0.02889392962205533,0.019430526137231875,0.05542822126862065,0.108211096471364,0.05668810259978543,-0.03843640786318325,0.028094218159399113,0.020430390263284633,0.017014426401763077,-0.007224885978268905,0.06621053360905102,0.013024420360161404,0.01602784902089643,1.1080166009071581,-0.008760799925763342,0.07365184348245103,0.00045840443217733015,0.004326794223799573,0.03495052442104668,0.02857303431726903,-0.04847302271741847,-0.00013798674012291894,0.06848047952988433,0.014492333212249346,0.054945648341965206,0.04729452701829284,0.04001737792109612,0.06529882089826851,0.04403369929799679,0.0215897954307325,0.012826149080718243,0.01699303723922432,0.3145220697336782,0.12454114678872769,0.23486643778328387,0.14442695700393757,0.3595628721685681,0.002273470359676215,0.12023819418271008,0.10474449751649448,0.3008999292067196,0.2407308069049222,0.39471999553061005,0.6884326354082074,0.3145257106806935,0.29439150417811333,0.3873813144668186,0.2970929679112462,0.26786519130285674,0.09421976540744006,0.6025987232742986,0.26547184523662326,-0.18726581187841518,0.15973549811951304,0.2875666447143124,0.16684741686995708,0.07753474910405145,0.11256195308958156,0.09825463140131353,0.09702548739625548,0.008526996101756031,0.02442973020822627,0.09767493218633577,0.09536746529279659,0.001126285855366731,0.07738876761748095,-0.0016321110003103248,0.03511167960708122,-0.0380724397982267,0.07503294392864783,0.016455849113886478,0.048401246679435836,0.8793021940045642,0.09025360842882785,0.0951571016111059,-0.020079529505496567,-0.0057799212009039935,0.06170359335991192,-0.0024425817489765306,0.006824869991845345,-0.0028938955270251766,-0.03483452684706379,-0.009749052481096107,0.015152539737521849,0.05505409738037217,0.019148269782892746,0.025331162149420907,0.024068640327317363,0.011750133732391898,-0.007223816677855345,-0.009222295249893046,0.31256781260891503,0.059118949899238896,0.16726807548577954,0.06483024648007227,-0.0425169571791266,-0.03405408854861178,-0.09013257760752477,0.05418989443549512,0.6411776392944472,0.2961636519971418,0.24991407414119876,0.1587233458795556,-0.21263782243502358,-0.14234104495514693,0.09452088731270422,0.27030765781788574,0.5947076724861524,0.10854952275192452,0.21106564789579446,0.03202461907550543,-0.8462438696968007,-0.049670467445904073,0.09713859159923355,0.2210841118635686,0.09594013990879088,0.06772067244649227,0.02921598796474849,-0.055637725225482486,-0.0627738050433531,-0.03606641005188668,0.09764985399813378,0.13477330089577003,0.02378215871828872,-0.0018812340986693846,-0.04472479348568494,0.013938317652806878,-0.01875787225147117,-0.0069929684815854595,0.075270877527221,0.04052082402640046,1.3375563264011154,0.008184206946572526,0.09897674606605503,0.04096341840019153,-0.01849331704349059,-0.008427688378471293,0.02125530377285318,0.007706625167917126,0.009988809788648287,-0.010960156373116241,0.014469692012929936,0.024415708276817296,0.019837054493100397,0.01454805759572025,0.007449147068629205,0.016010988293521964,0.025805015914745728,0.03091963416071301,-0.009057083992568611,0.08480472465491126,-0.001585352044804921,0.017294957999226583,0.06335668054911289,0.1755687163738198,0.07110591843533581,0.10507744961143087,0.052401383906471984,0.12446990170639394,0.0086406382051143,0.5549787096857266,0.3781050393154223,0.18959206677899826,0.2864658270628229,0.3592537692166652,0.270110558418249,-0.3795903063579312,0.16911217654842237,0.45791472695157004,0.11996384388004853,0.2814935468515456,0.13553667024053093,0.43203052367046596,0.14072025329716725,-0.004202052376247348,0.06358783394275638,0.08468550565885452,0.09622852444673377,0.04183797274282452,0.08679638975993714,0.0945412393990054,0.037866916422368925,-0.051538246991829656,0.02814548162945136,0.04695304674166743,0.015897503853722517,0.036612826122074685,0.03238436801429981,0.013103350046131683,0.02663530101195642,1.2355039188092318,0.15071290063674864
1.23495506184497,0.008034231739206208,-0.01862696244154303,0.0011440104357710284,0.04003052562095798,0.010767607501184285,-0.014315431271134474,0.002343363989122343,0.035356919837356914,-0.005202000347968766,-0.00802827877043376,-0.012800784050045848,-0.016390738334302647,-0.004104956441547264,0.005027132494772914,0.010037232022848605,-0.005494612764529276,0.009252850155196632,0.10978912988463214,-0.10299306099151712,-0.1403266041240782,0.016952725200707088,0.11962405128218959,0.014708656087531536,0.0813925067148686,0.0431938275678564,0.014462360979879274,-0.09253250034221289,0.1060155235329637,0.14665375788548848,0.15795969426127562,0.20614465786088085,0.12646607774227717,0.18686904162882767,-0.4027399252821568,-0.026858314967797805,0.1958132328932208,0.07628779473535299,0.16530473523474515,0.07167578062473498,0.29113114781841865,0.1005049771834618,-0.04304743612338777,-0.026226718537433916,0.028526151649951113,0.03353905666414323,0.006001639489316054,0.04870082076568646,0.011700128171266002,0.029314323042768244,0.0205124100210369,-0.006036477752459891,0.06536742204181004,-0.015772149494569326,0.06846315136204871,-0.000694546982579435,0.10010148668085923,-0.009648986906396404,1.0816487982348972,0.025325981638906196,-0.0014779105428167757,-0.03407204468485188,0.003726680306194962,0.06304332075498723,0.003229958178339733,-0.018335486828924122,-0.002468047410307614,0.048870224948272874,-0.017764555979604038,0.0072470186765571706,0.01599430915575353,0.006759295172644447,0.011172426411711988,0.010510302760798411,-0.012273676281435858,-0.01927972299717302,-0.006660802744777455,0.1154005174371809,0.01868764524753403,0.028317201029813343,0.01931249579472802,0.11993467766302243,-0.21573856872615027,-0.03749931062212771,0.0025359618321464735,0.046267312756591274,0.03713097062087403,0.028229511824981884,0.1838241810885971,-0.06479201863325353,-0.31024378578557404,0.08631044174022307,0.08845922214011656,0.1522774466567834,-0.004996784176114003,0.17938984767599936,0.12392927200369644,-0.8993133418200746,-0.030941825259635496,0.20431806015199275,0.025106254679419588,0.01677825256482628,-0.0056446891763859836,-0.004790222407775426,0.016607985626483645,-0.005755007601623456,-0.03553401735212441,0.04875438448357567,0.02521637968394834,0.04079568060004283,-0.002051963295475204,0.05989974193743262,-0.00040081667187890323,0.07973316712477424,0.007631257297045861,0.07946712239531883,0.015599877202330862,1.4414869882515586,0.09654141165233981,-0.017316823973205216,-0.01481142114768409,9.930437926571219e-05,0.02869467348303086,-0.019286860773680525,-0.049379517078678416,-0.0025773822258165534,0.018425379049501058,-0.02450375506054061,0.034245083921576415,-0.0006604748428162949,0.0026346885672091196,0.0084296915458801,0.009681186158737419,0.0022754743252478265,-0.005198050233481147,0.03167678508676599,0.23834867503741602,0.04414750539097044,0.019047264329621574,0.05681726327440951,0.14739064035986552,0.09640576563521724,0.15468692323691305,0.10145141457084746,0.5299535900374154,0.12960634673091156,0.18602779924081944,0.2554217681454157,0.654837580635968,0.35100203761508636,0.2040177818595361,0.3573315106484423,0.04676167334307774,0.048853052119008034,0.09684783747826027,0.12874598709322516,-0.04485525708222991,0.07502962968653919,0.2610901781807578,0.17661959750747824,0.0007881158363901937,0.01564598640471118,0.05027463772701401,-0.007714955996931279,-0.005042705120664857,0.06374301297573569,0.09132872963427162,0.045480460181549914,-0.01121391548666987,0.01409505478402008,-0.030268452928370847,0.00664844927197076,-0.002409250705067026,0.026638001436968033,0.03231601120079528,0.011072673422055753,0.6408981163483934,-0.14195358207542125,0.00024294205186881985,-0.09083762584465403,0.010053643906279072,0.00019687713896436351,0.015482342790060354,-0.016176592909789202,0.008839318680601765,0.01977356416296517,0.030388052218634252,0.022067063085311926,0.03139236374168109,0.02759215528364247,0.032979020596045155,0.03615196275255129,0.008095372636822367,0.022431127040920595,0.006172469475191434,0.2122003969276969,0.08391987576460813,0.13489634016333432,0.10138348761291426,0.23458178076712455,0.04598016922975746,0.13441552664398032,0.07224148269615487,0.5343548687917509,0.2598577005032979,0.3156737325197734,0.5197206465033927,0.47023499554690934,0.33448857446521785,0.3398682310818936,0.2915020678918688,0.11053817198355922,0.09626673216245694,0.35750860411760105,0.21667101177894954,0.1381878324538278,0.1412018253042459,0.19217237096172696,0.13893087058846143,0.013082744888590073,0.051990497380508316,0.07028576669238726,0.04390911146001716,0.018647540364991656,0.02575306751116735,0.024118848740338743,0.03117466384715648,-0.05392226745042281,0.02462143721999591,-0.009160571220905741,0.005649859196958973,-0.043902660353626076,0.029807349443344417,0.0012470573674901357,0.0035191809374068186,0.4772016658786226,-0.22330314049570985,0.07831158516239987,0.010744702757866256,0.006498522052781723,0.08265824260404304,0.02909827170615596,0.05657098919365821,-0.006000466071835964,-0.002053269130334886,0.009293592939781464,0.013239880366549127,0.043642185062731736,0.015185645786157229,0.027291716902974876,0.0027404699270430627,0.002353422221561614,-0.011074101910664165,0.011134324606944407,0.2382418067452458,0.04527831778106367,0.1455929684639299,0.04269405751177292,0.012117856623612366,-0.053752980348067074,-0.12325671417878423,0.055522758485280134,0.47621316332468433,0.2829933339013037,0.27399176216849075,0.17910251483206804,-0.1739408899480742,-0.2885193723133145,0.13351247380846387,0.2681404185770078,0.4333505875535299,0.08496608643877852,0.23931519132792595,0.052533957869831914,-0.8501597496791871,-0.035677954264825666,0.1376470506989975,0.17612492012125808,0.09621390168858202,0.06876227755798292,-0.003717416669253571,-0.01936826288491138,-0.03787347882579954,-0.043553260274802705,0.07860109565581089,0.11136815933703792,0.06197012607188821,-0.013689729822073752,-0.0024244725058193877,0.004771831856144896,-0.03358208238929054,0.012253180053745288,0.04090700854408789,0.046466119278311666,1.1046028829422787,0.08665876957852589,0.05743122615699311,0.01019051091902772,0.006218583887230331,0.013451122383528673,0.0049946819500023614,0.0036958153837453856,0.008481748510452148,0.037901111980660596,0.0015854102723507205,0.025987796220284572,0.012553174370526646,-0.006489378805358354,-0.009674596460783466,0.002614150384776085,0.028358899400024604,0.03135969213304572,0.014043955211561125,0.05264591237207765,-0.03243452072913714,-0.018886328397426124,0.05697860132077996,0.16938192189196424,0.07111501753803466,0.1301701857216854,0.04178204886454403,0.09406841054084691,-0.22536471324216764,0.40424927318987486,0.28206277565611704,0.302804885287334,0.2600403589941639,0.2788159026059621,0.27485027598824957,-0.6932527775478713,0.07481068579121708,0.30267566391563583,0.1348013921117241,0.47587944213990363,0.10475880907064421,0.30344011916681257,0.10860645007253845,-0.05126261209539891,0.05067846605658506,0.08386225303491605,0.09621802006699352,0.08861261483835936,0.06960231460067683,0.04864190641138014,-0.012465465503735298,-0.040957507489016415,0.004108278711018049,0.053179740106400995,0.024529233862111487,0.013651686968598645,0.002730210341134644,-0.04582338452520585,0.012035325625724395,1.1379821430675818,0.08175875468613612
1.269863871712166,0.005608257018536981,-0.03519562043869509,-0.01595929364222713,0.04457014857783619,-0.018479089784401357,-0.02093833902999355,0.01088474786483822,0.019979661954284716,-0.001178414520770424,-0.01355093030096093,-0.01918996886250934,-0.013629049884726772,-0.02152648601274105,-0.008577769229147027,0.003971437483531393,0.004792965116960726,-0.007717910124326308,0.05333365542204085,-0.1305914741079612,-0.11727510417410045,-0.027571164485960007,0.06255656877543747,0.001362029387203629,0.08377407720342356,-0.0014817198512310022,-0.05148397321486851,-0.21092611299500413,0.07153977624605995,0.10630554805147073,0.14896743404056134,0.2985315447514112,0.09434144349186253,0.13488505238546517,-0.3787264424723312,-0.020754379507538074,0.055598526799151574,0.07266025013773021,0.15236522338007105,0.1088602750386595,0.10711560817617123,0.04144318292811515,-0.07036499094363056,-0.017632841689551825,0.01611690100171445,0.028503406100319095,0.013164875306219497,0.02985568622206302,-0.0001297311323906994,0.017860953139590408,0.024415198168441406,-0.004979881895245291,0.02508483986662083,-0.009366522501892552,0.022845933636266146,-0.011514782513034009,0.08361343239683403,-0.00908425606870123,1.1510697043938336,-0.02098560752573576,-0.00955777202211975,-0.0477915920203023,-0.019884455306430966,0.03356356578708081,-0.006720336419588408,-0.033547908484266406,-0.001408940774359812,0.05077325451432959,-0.008385345967842057,0.006821735857374145,0.00343009412762821,0.005703081035331982,-0.0007846402451962077,0.012940919516831002,0.00661191671407915,-0.008745003505984447,-0.005744711042170521,0.10017423852303074,0.002887864294633481,0.07138340403537408,0.008965835400249584,0.10355684636983672,-0.1551539066986266,-0.032439196425626586,-0.009876819050074322,0.006628325600331285,0.004642692582320583,0.014629319517969301,0.1462207814230174,-0.19509201735779544,-0.20661748263645846,0.058516339245361516,0.0582356640544449,0.07222602673601138,-0.009767705584823013,0.19880223432780386,0.052581714783484675,-0.713794766799924,-0.019576863321291868,0.10634022242543616,0.03715585635771774,-0.011053483446527268,-0.017406103031368834,-0.026078981152298095,0.005987863011052868,-0.049174826667205476,-0.021331507007452802,0.026776858622607914,0.02919532350378037,0.060334735216449005,-0.0032836744271497733,0.04809751683656232,-0.002068825504275591,0.02220166678467865,0.03281289486438479,0.058820803631736904,0.019685777200695406,1.395705687002375,0.12249456542236391,0.03853360439089532,0.027862828877035773,0.012524691605524017,0.023108850662848797,0.01719539278288529,-0.03122763642164123,-0.008517797699332297,0.01997563922102638,-0.014942182781060605,0.06782723479786114,0.02156329278837334,0.011270813853203531,0.03501639957131961,0.008099581067556429,0.02095901411342354,0.014419617084953129,0.008345199545666015,0.29379281313835837,0.07411218653830381,0.04533686691972065,0.04397003367704642,0.1968994292684124,0.0831634102776037,0.16416913703907002,0.09608576219983617,0.32056131299933277,0.07434503760431697,0.06846244833178293,0.2981001288126834,0.5346809576731192,0.48260709869604396,0.1882664015093228,0.3594990490359602,-0.04603187216967924,0.02169889623162981,0.0683151249230413,0.11962538084299952,-0.06677730294320988,0.07944499595936923,0.14869411720261336,0.19598922120375573,-0.003169406968011142,0.03916114514033666,0.015138611047614763,0.015129096837289092,0.006063037818264647,0.048193708484412554,0.09682512171729712,0.05728117829393344,-0.021576483163086673,0.04506864055800628,-0.0012067586560331252,0.019762515368115335,-0.012192949895057915,0.05720342535417516,-0.0005938813374616308,0.024074535272564295,0.9072898214829117,-0.013599860681681194,0.06899686275160843,0.012668595155793758,0.010836848900812346,0.00817340178674543,0.011086244908211817,-0.019319858468587348,-0.003932827608124931,0.03925526343726513,-0.004206141024463132,0.03710184230812856,0.06903574448540035,0.011250281791807194,0.05631861959067346,0.04111164936071926,0.020195287550516857,0.007677153718143277,0.014082103745310182,0.25442190895082256,0.09038248546757084,0.19126119848040826,0.11812579402079992,0.3070913035821661,0.008673592870090327,0.11381076265070361,0.08673838553430314,0.2700046172937055,0.17731678350434074,0.33219692696754627,0.6374333041492575,0.317991252213116,0.28494101568690494,0.34522615812332624,0.267432654444781,0.19227942134778014,0.08607668550819432,0.5087746609676621,0.24934072054500087,-0.1532428471917998,0.1469065771182424,0.22268823826626025,0.12107756808389479,0.05173099248360507,0.09639920709849814,0.10468197881528468,0.06470258172864105,0.02633046635072864,0.021039210359179276,0.07029461873704003,0.06376766569847808,0.016715758437843294,0.05920848271465479,0.00032360852432674405,0.02435842549912371,-0.030547908180741188,0.05416348461216462,0.01742332275512438,0.015911324352877957,0.7220587047226718,0.07290406032885359,0.08333590662760329,-0.0075209727034124315,-0.020710865704361453,0.08267010213923504,-0.001362560286396867,0.03111911707421997,-0.009357650437888486,-0.020433915556903725,-0.012424667244540388,0.02317146910865861,0.06247387793956307,0.01998452585713075,0.018674312634694865,0.04525889915701944,0.00868107668325235,-0.006760667167387653,-0.006594220872532631,0.2748402343835116,0.053174099586424224,0.16088997261907775,0.07643184491773748,-0.03014940926405703,-0.037176364272237625,-0.07077610403621157,0.07307304493799141,0.5455030792770336,0.2567440227578408,0.2970234932833974,0.1970531310665451,-0.16683838160871955,-0.11215271965122968,0.12222828313721264,0.30077695859583703,0.4853422825353746,0.12680486150067413,0.19972654590549685,0.033798867353645144,-0.811175976221322,-0.03172442224600629,0.07747663121225853,0.21122852605522388,0.08061713533161424,0.06286289306894723,0.01048977554229058,-0.05678222613936567,-0.07748235968471721,-0.022708378855542565,0.09161818375851913,0.10861486767010159,0.015024554033829294,-0.007214647572130672,-0.0641190713756282,0.022594369642080885,-0.041466051674784225,-0.010968113002450052,0.04901972395732271,0.057153499316398265,1.0985060925905612,-0.022596259178148996,0.0795672494961569,0.029605294269257343,-0.0069611702458874545,0.017922853683475695,0.024318978299187624,0.004965757751898363,-0.012512726050381485,0.019735724553476313,0.014852342812936285,0.028007977054784597,0.029962647190865218,0.02332052991125522,0.029946801220418522,0.02529933309626982,0.009174709398370104,0.03265432260231256,0.01531883181080105,0.10323666717585693,0.008616118393587772,0.03669416412420403,0.0791382786271236,0.15009910480540947,0.039943062915775006,0.08369542589477898,0.0422466205864012,0.133618219492932,0.007225546905805063,0.5037905857558954,0.36453583979426235,0.1786789940220879,0.24728618199270103,0.30645085878746264,0.3084377501753803,-0.4161400875651526,0.15150535236202836,0.3892204467228503,0.12722572845444027,0.23155133702454794,0.13222643266846923,0.3831260075658887,0.1452431162767154,-0.003937858492107967,0.045533298281072325,0.09087056129628385,0.07536365727069542,0.042105228466058034,0.08060488993557187,0.07920666500102727,0.03747070616078988,-0.05218156687799321,0.02158255064034678,0.04416679098367388,0.018382676873419917,0.02210365736735166,0.026246108193760807,-0.004571327554361958,0.015031116857226114,1.0199418875788326,0.09955192355748398
1.0286143265163705,0.007019673137401516,-0.027215586489264715,-0.005285575689522361,0.03832099209989409,-0.004029227579437616,-0.010477091943188126,-0.004618050398872414,0.02647478957963701,-0.008248977675032403,0.0041695931790440895,-0.032528279517728007,-0.018551324010708147,-0.009943570850133967,0.021036539984289702,0.01271459682657083,0.0032503992492979267,0.01511586285166797,0.0973754556396255,-0.10939652755667878,-0.14344893891205115,0.00630416779431906,0.11392594243079446,0.009874727867072849,0.0644609225586946,0.018078342279996256,-0.029736913569118423,-0.09581622673217799,0.09494932174937133,0.10413071178773692,0.18699509427784042,0.19305057273671453,0.1457382591359293,0.15908081587341574,-0.4059311253577027,-0.02145257473752826,0.2131416107493815,0.07308393270721882,0.1744118574974565,0.056823552867170356,0.2559618389056961,0.07698265344230737,-0.04757356090055498,-0.01837832176153757,0.07532864054736076,0.04021499978450696,0.020894924863726173,0.03748723655447988,0.027198610542543005,0.02697518672508253,0.010950790993022817,0.008983340249935589,0.05605383013278837,-0.001136617486577362,0.04028390351747583,-0.0021892221199689343,0.08580676268232136,0.009420271829006737,0.8591395632442395,0.0008974331919120677,-0.0023269916506922076,-0.018604229399391325,-0.0011962395921602425,0.027340939699721834,-0.009688386126942268,-0.01107991572762692,0.007636838365830265,0.032569281310737115,0.007445248866902547,0.0022873914137491657,0.016887812824569307,0.02263853824666025,0.004724564503846495,-0.0037265734237202554,-0.017075331789272837,-0.029355693026873443,0.010030994768894606,0.08365549157104313,0.0045316335099184245,0.014743893672513803,0.0179359140718694,0.08476413904964683,-0.20091361724818904,-0.020433884863020963,0.00987880884649055,-0.0008460710704266931,0.0032201071276602065,0.0012333577923666363,0.1594155323355173,-0.06237477827566732,-0.35400221340713756,0.06004782972828948,0.07257655699792107,0.12751345887173474,-0.0024829115001719793,0.14801403471874414,0.0933086397250439,-0.903378231819755,-0.032144682566609725,0.1791971610712499,0.02251814501516461,0.00958503763370079,0.01729820934385247,-0.019246013403712306,0.009295317417866685,-0.021898803014919314,-0.016431390963914685,0.02939425295110156,0.03513582374753145,0.0612545395325893,-0.006134174516162217,0.051766517269598515,0.020722246769839733,0.05986326380574413,-0.004990276239022168,0.05917538998430008,0.0021122039311812263,1.24363990550419,0.060851226556025956,0.0032954688451465107,-0.029550889308068377,0.006931334142521485,0.032093504272794456,-0.0014520690986682928,-0.03934926350057228,0.01050585019994186,0.016832613703317865,0.003997966096007462,0.018589465517587906,0.012441049743190442,-0.003797968386992574,0.008259059719893212,0.006051748815613158,0.004781361890003166,0.01181907749865365,0.02770542061665459,0.19386827577412666,0.03568579110820596,0.015552233663378252,0.044729725141008016,0.1475354934632027,0.07162722310958085,0.14385546376166794,0.05383292305877051,0.44499325374559745,0.17728894176928908,0.19319287830007878,0.24348346639464225,0.6407813138973647,0.3651732366521582,0.190917388521426,0.25736111622038615,0.07206216832587989,0.04414598759938629,0.07937654632445582,0.12390263342650523,-0.042069189258348176,0.07869690639900692,0.21167374627034208,0.14269330472445924,-0.010471915682926533,0.027231363170227414,0.03280275613877576,-0.01207852022379273,-0.007003535524003716,0.06239176255004273,0.05657954549575647,0.0068158253659745495,-0.015153039406208576,0.0015030305254817942,-0.03700357871031994,-0.0069077354224967484,-0.018768518783523012,0.031227133103468804,0.005037175077168841,0.01145413314268955,0.42390892687170567,-0.12489325120290909,0.003955473239982152,-0.07681368921934631,0.004652155528740574,0.013210951516615523,-0.0057153729595422025,-0.030556442686997483,-0.019522733693049358,-0.008989900921525615,-0.0011212233942899652,0.013498299838087839,0.027837595347574382,0.011163281024712248,0.02928727124583085,0.01546623536608043,0.016183166019662562,-0.01781811880940968,0.005991415750621811,0.19460309548871335,0.07549257565445171,0.12112635246736878,0.1023012609556093,0.19037319134936867,0.02962537317903755,0.13438454404493164,0.06507395938503094,0.48318048541972014,0.22896086044957925,0.28902727306335685,0.4452808906601121,0.3971258905989635,0.24648414335566876,0.31192120628698206,0.24900932297103118,0.04421048950228627,0.09363942780709864,0.3461483785035413,0.16934143564749676,0.08087569857376106,0.12672948719283983,0.17031736730079822,0.12302484975754989,0.04814876190221008,0.06247808809579001,0.05298972585042983,0.03620702091533644,0.013350374299077076,0.05320127380433326,0.021097876533748422,0.023037966149094452,-0.027289881962179182,0.05285055472740013,-0.029179390908840266,0.003443907200875336,-0.04216366290737225,0.03367788386630993,-0.0017202149393438452,0.0005602312701450346,0.3305845806739774,-0.21827876386436926,0.08115456511482201,-0.004760531677414444,-0.0038972506586885626,0.0661575654396846,-0.005814607243993946,0.042239797504405804,0.00041409444908523026,0.011296444515499876,0.004964329205374021,0.035111178774405165,0.022642106904601965,0.02407644018885583,0.030710879895042058,0.024494439561116653,-0.008171039398471176,-0.01172949462087526,0.022318500812229032,0.19551305165412108,0.06574326316839801,0.16199914893805065,0.05604619778565526,0.015160994461866391,-0.03683182588411272,-0.09411467503365126,0.06518719659067462,0.3807569376906246,0.2540424241729422,0.25360581284924716,0.19022713375997727,-0.21268689168019178,-0.23312168637132347,0.15177114267847344,0.2754437334915814,0.3849736327140816,0.09563106057109967,0.23850960053045853,0.02080184800408389,-0.8059734474666919,-0.03453857569289679,0.11669192424148758,0.13674852779951116,0.10059261013950106,0.07723913396055718,0.003812775546467066,-0.028478729673911494,-0.0458814722458618,-0.04536715460486628,0.06427386157248738,0.07542523275255779,0.06286850485105246,0.004249192066820911,-0.011906005433821087,0.007565422101099078,-0.040797392331474475,0.027678710672921967,0.03451025417869016,0.03221042939194461,0.866688817661231,0.05500456056380948,0.03305604140611447,0.02008139745787706,-0.006777083352479332,0.0053497155849244376,0.016909021969501378,0.002260646338366908,-0.016468018667625643,0.024560820956412575,0.006159571486467987,0.025200961414413435,0.01966313507000751,-0.015134515993266652,-0.01912587375744444,0.017307697782185407,0.0206722626142081,0.015939662368466185,-0.0005105450623871012,-0.004283288391634764,-0.013200876246708192,-0.026609902433753784,0.04343929741047912,0.16177633072950467,0.05900412772393592,0.1277915784896157,0.015748763509217143,0.05118153661709674,-0.252172446872358,0.37824351854817534,0.27348368252612576,0.2863790506774238,0.24135045940663602,0.2663806213746307,0.2546930136664274,-0.7601269957436553,0.06414293328268346,0.30007760995927707,0.11071236953284753,0.42011276402532605,0.11118316142040899,0.2485298005786984,0.09521235061488545,-0.03881016107034518,0.016829501855852746,0.07936957977924605,0.08496346789531842,0.08122359632881765,0.05603235522455399,0.028919146793988153,0.003524742117211191,-0.04585804862055099,0.009357693084082222,0.05643326928026447,0.02700561824764067,0.01004670722501265,0.017835299478215497,-0.05646850824403367,-0.014390364231778849,0.9347621457782573,0.05147314810036672
-0.8550556378598084,0.004324458208758237,0.012278543166395591,-0.006345927082978845,-0.01899689675569259,0.002657893837344785,0.020841127417875242,0.0015077381754651116,-0.011370002843159307,0.008231525692183196,-0.006902604259242541,-0.001427546416788173,0.009543647006039612,0.010310557951692492,-0.006087649435993467,-0.00492985251593926,0.0001062934712448993,0.012169734631236974,-0.04937666501857237,0.11578600651101946,0.13023844612841928,-0.007904107110231323,-0.0588726307955108,-0.013643685479020092,-0.056314267696175736,-0.026510947049903217,0.07772084489512654,0.1938165667774719,-0.0805934628544843,-0.11547959739042987,-0.12834219395871155,-0.23206584064041913,-0.0881900543123891,-0.10940038103968913,0.4494871219552515,0.02333310626027699,-0.1010655219021831,-0.07810150468490527,-0.12633315907915665,-0.08080470361270918,-0.14490380769560807,-0.037000232665071436,0.06453939094898511,0.03257422576949281,-0.019183014777876827,-0.0054410367159690755,-0.01399276836233503,-0.017874219732242135,-0.001475010826904237,-0.02362300472608607,-0.014997042726991545,-0.003986122772241232,-0.04600092144382163,0.008091864241297781,-0.01952133968610372,0.0035341793265542677,-0.06544018145486089,0.006076186766074504,-0.7832520168512711,0.020017452540018455,-0.005411506959415998,0.04292984802288399,0.0033638316807861396,-0.024031001823090474,0.03223130024636985,0.03069604289785405,0.009512761813320642,-0.02747147154823617,-0.00805492156644083,-0.00850157794650387,-0.010780097751910325,-0.008055605399518448,-0.00879459807503304,-0.002591867458544998,0.005028252931264879,0.008139543204915781,-0.0038878966102422474,-0.049486016921306934,-0.006628455924058578,-0.03474920221047484,0.002697503441819145,-0.05086970426466147,0.20623227064050295,0.07175631741255444,0.010844762080955528,0.007270755197873686,0.0005385074861790215,0.012675682888314908,-0.11598913798297261,0.21970049010658232,0.3041839189899065,-0.042049518398850495,-0.040545739664466174,-0.04969908134032011,0.02829347818581839,-0.11713156358850788,-0.06580716200686036,0.8928261759251209,0.046174087180965794,-0.10764740139131952,-0.01583372374115266,-0.008785688071009467,-0.018709417665484316,0.04414711110175727,0.013447304087845825,0.05373996729879416,0.029434802931114182,0.004227233756337871,-0.003669607754887961,-0.039785573700890565,0.009702005247000703,-0.015683050009874175,0.0012956095795484273,-0.02446805867940105,-0.0027036725416538804,-0.04565101195684711,-0.021923037313792384,-1.141166713177271,-0.04797638269554017,0.005097689627164932,0.025706796448305296,-0.007868323314814227,-0.02937062824497002,-0.005233892508870734,0.025754361571037995,-0.01724122841298967,-0.0232195156503079,-0.006171499532705941,-0.04055026573197639,-0.03103300682331082,-0.013804982193701024,-0.013302351486082734,-0.0009219536460428958,-0.021068544975658562,-0.0014018351373829721,-0.01229911728291065,-0.21498533469253997,-0.05155592062613605,-0.020459841440844936,-0.05439699065622042,-0.15559753228561696,-0.07200527780738343,-0.12196608674275679,-0.07625886799851368,-0.2970557676677347,-0.07781118960771143,-0.10348781250914506,-0.21274245704324263,-0.47226639761804556,-0.3363836732444375,-0.16810839918405313,-0.28471538022655857,0.027232798465011254,-0.011136914079606916,-0.054696598949905945,-0.10202841391325874,0.0964965168724767,-0.052855116347906544,-0.14693637482271646,-0.1479533077728606,-0.00354326966651727,-0.030809321055284153,-0.01698342351214913,0.015533068642869685,-0.010677977054397964,-0.029762949518679863,-0.0547359076723856,-0.033692752674196344,0.034091764118602666,-0.017195253604330576,0.015750569146472354,-0.013821712254650882,0.015514322655473175,-0.04484781301323778,0.007313647181424352,-0.008488113390231153,-0.49365660939520806,0.11110305792491885,-0.014174547686011356,0.05528203073826264,0.0060711265350528905,0.001720482141050631,0.0013475059747358148,0.03947931661380923,-0.0053987681317359685,-0.022735206925898723,0.006504412101715281,-0.014844299351240087,-0.019283169799586275,-0.02436270055330334,-0.025700448677976936,-0.024017156818807287,-0.01264263434813992,0.004664545947652329,0.016438355761598283,-0.1590334732969105,-0.05617992522459637,-0.11933649785208322,-0.10503907843063365,-0.20160947403423926,-0.0028483151721160897,-0.09915447549158588,-0.06128137621794201,-0.2976222811583072,-0.17589214544226653,-0.2556182131331506,-0.4384539073271297,-0.24831710142769717,-0.20173173585930856,-0.28905429523212023,-0.18051959958397973,-0.049749551972345936,-0.07230268830410704,-0.3200964162898854,-0.19024378595990374,0.1487357284254996,-0.10524272393969343,-0.1421376967684416,-0.09611860082838544,-0.04738911680061664,-0.049420723240398624,-0.07606764038059277,-0.050330414215636166,-0.012152207773790558,-0.028027692311660926,-0.03551993549486275,-0.04928428632088434,0.0066207227987602575,-0.02272695870102156,0.019731094599646375,-0.01951220136941108,0.03993008831517659,-0.034831595265216335,0.010865397956649866,-0.0068803156382083045,-0.4314988796327713,0.1546708621175744,-0.04212698391863419,0.004013905157770681,0.0006527559067832974,-0.04925208045664832,0.0010705756070935777,-0.01579182643012863,0.03384243199288179,-0.0029783933975492663,0.004043588852915418,-0.01767405104597958,-0.04220028950226729,-0.024937269965246898,-0.02258434960515334,-0.036726045520473774,0.010809480247230658,0.005808114536784119,0.017019569458117792,-0.18776636653774592,-0.0567987110873021,-0.1395539631093654,-0.07133461313905357,0.07322427097608766,0.04326695620999613,0.10075619294122372,-0.06398833119572801,-0.3935917895099252,-0.21744147819263662,-0.24817557454396025,-0.15629238115608268,0.2955603591709507,0.22701100087183176,-0.10490194103726994,-0.23363744265753464,-0.3642395488777061,-0.09337138336458073,-0.17878232967288546,-0.02973652664450271,0.9061391459332361,0.04862111040169026,-0.07800392550495713,-0.17094204110804254,-0.06082155881250696,-0.0782528045549407,-0.0010473491266647416,0.02208707067401231,0.054660553251230044,0.028555277450408298,-0.0685850607158371,-0.0920580687929529,-0.042238861509348934,0.0012712382416144295,0.033379890956766585,-0.01624102633274139,0.04729775377679753,-0.009578100987771739,-0.036512061207731435,-0.04037843036463826,-0.8111520292017528,0.021692451928028482,-0.043822380060377635,-0.02362665794669279,-0.0020519064991288568,-0.006349459474708284,0.003086862732231921,-0.0037514277278200285,-0.016343524563286582,-0.02439215951477266,0.01861096588509255,-0.007999570597918193,0.0017226577638748278,-0.008426646925801086,-0.0028045707613257153,-0.022184569424433257,-0.013179408197144863,-0.028386869122515125,-0.024334045691351336,0.0149210364037297,0.026403937119700727,0.05162770924127311,-0.04358148455351273,-0.12017740016309604,-0.05278380029028179,-0.09842232996914749,-0.025002864174720647,0.04742664312872844,0.20426885044536056,-0.37056770025173164,-0.23704433024080834,-0.15810261416192198,-0.21034514566928778,-0.23341670486771787,-0.20336377746128287,0.7629026964051492,-0.07265336489584334,-0.2834124243212465,-0.11739177280500587,-0.2792611222108217,-0.09661658192565983,-0.23326612444469236,-0.07128491721766138,0.025239675250377888,-0.040090979716171773,-0.0475964469563623,-0.0694906561506375,-0.06840940569217603,-0.052521095186287184,-0.030169772837990265,0.03262976152308289,0.05741257018079422,-0.019848741500109426,-0.038584252803668714,-0.003564625402638893,-0.019127763361823067,-0.011067595450562658,0.05522486626461171,-0.013526453736767448,-0.8603295389508322,-0.020598923154584156
-1.3714410795292276,-0.015238411440060327,0.035642786593191825,-0.0018640279047899729,-0.053348552355378186,-0.0018689912268240391,0.034760834019422475,-0.017055903030958913,-0.026046371513653514,-0.01630640447610043,0.012138312118519762,0.025831456107371403,0.01401428185029046,0.01557316350030419,-0.009086160515659603,-0.016100452802362608,-0.0020523012465142113,0.021731161713674646,-0.0635176635773168,0.17923805335527165,0.1975736504393808,-0.012710698491247237,-0.07009211203842992,-0.01269299981239082,-0.10797268828539239,0.0055351161432744996,0.11435651410530003,0.3356008108439399,-0.11931625264848487,-0.1365216093987808,-0.17511454175498276,-0.40809867915322623,-0.12819466286867126,-0.17097029251868784,0.5767988313366255,0.007767576500909712,-0.10079586157982154,-0.09982395030450027,-0.20103034898793395,-0.13296164312931433,-0.17110296256374374,-0.08392256815177297,0.07803971944122405,0.04689600481156288,-0.0319140332783804,-0.008397885775000788,-0.03173411079518473,-0.02181797340515438,-0.022371191893674484,-0.0076556728185801165,-0.009526276953756886,0.009018408926672277,-0.011015793577089967,-0.0067854645969440035,-0.03059441964469164,-0.002704867976497049,-0.13404227858226764,-0.005841035757356478,-1.1987995835655985,-0.012988241135920191,-0.002254694957813902,0.05048443047750964,0.010586572267209271,-0.04477431499456099,0.0019761045263439773,0.06138988884691087,0.000368023477020807,-0.0853650530028745,0.014697339645533242,7.405053681101035e-05,-0.01780791250188137,0.004191323219741531,0.005953274374693714,-0.018871282252518735,0.010990933764725097,0.013261289957782646,-0.007990786385824457,-0.13501960422869716,-0.04126230628717519,-0.06886313837978913,-0.013206000475908477,-0.11673781934969973,0.23343578259852915,0.08110786714454615,-0.0018454324303343159,-0.02692104920260793,0.005397797941187375,-0.009046531116954453,-0.18139765237886157,0.293425528899642,0.32511961412298257,-0.06602691912882637,-0.09949406710778812,-0.03828703243869551,-0.0031659386421403857,-0.21815090231910925,-0.11303101675569781,1.026997538338646,0.06830559629595434,-0.12190427113347621,-0.034408932666994435,-0.008860650252803947,0.015250232193782234,0.028849334324101625,-0.01039538049232477,0.06383269648596235,-0.0032596219141728176,0.0018208687916607235,-0.01531605338792881,-0.06142115398368484,-0.008508870295454753,-0.06143455865876838,0.0024426046042376466,-0.024055474559216056,-0.00857196367026463,-0.10195490175890126,-0.007187153578418214,-1.581803491002481,-0.13382300247826778,-0.05184014449353635,-0.007794552832065975,-0.005389682662261897,-0.03339700986342464,0.009843411294314097,0.038318859447544186,-0.020334351803527197,-0.01421849651003734,-0.012181472589604085,-0.07225346039512795,-0.0353123226582176,-0.020030889694796907,-0.03432227069007186,-0.03984834126812405,-0.0073663386165533015,-0.019538174532183594,-0.05864948582653542,-0.4023429908933878,-0.08694236783087367,-0.05721455211949756,-0.0680943587445306,-0.26999836589857656,-0.10390797172672492,-0.16719493830353063,-0.12690858782991332,-0.45865432274255213,-0.14485173893839184,-0.10892596642731224,-0.37382254682664584,-0.66845338733781,-0.6026166336460755,-0.24192343121213802,-0.486733869323969,0.040682818390468584,-0.047347227808441986,-0.06831100688194003,-0.18446502026116846,0.16429281269775123,-0.10251413307608337,-0.22344728347109663,-0.28666035236407716,-0.023118544792381363,-0.03562572959672323,-0.02501235820642789,0.016157399118664657,-0.025898000965788037,-0.05600847380562363,-0.1287651390325312,-0.08095029256134713,0.06694011269426559,-0.03999138842806517,0.026066431564933542,-0.04935543235408685,0.0169199486916622,-0.08575318517607798,0.004547408048961841,-0.03904633516549499,-0.886691701484858,0.0020422569164243475,-0.06542523187810721,-0.007329126627805491,-0.009861390350051616,-0.03528294791413906,-0.008745815177457891,0.05537982759518449,-0.00929733929406131,-0.07654727387424284,-0.005765471960725279,-0.050624604315292976,-0.05642601797989137,-0.05169520932488318,-0.09500665473313767,-0.07533385380193623,-0.024736247062251866,-0.010128614433118592,-0.014716589639101451,-0.3239926966314003,-0.1195834904239989,-0.22123899995106333,-0.14997955637118962,-0.42382160949491676,-0.01765262306422659,-0.1235804157634504,-0.12353967124568363,-0.3634721259434595,-0.23318772917276143,-0.4288627754512328,-0.8179752016635915,-0.48265368653111446,-0.35498921708491316,-0.4579815806028764,-0.3765243932559185,-0.13104142330011576,-0.0970789153813146,-0.639561032396826,-0.3507799715679514,0.2378060905216125,-0.1894407663927086,-0.2588857597179774,-0.17950863289228233,-0.06923251521177862,-0.11921434221707733,-0.13320923643150076,-0.08995635933171063,-0.013829099866993412,-0.02032077459064652,-0.11028124531146359,-0.0854974445889032,0.010809161840100572,-0.0971952354322165,0.007481380822421277,-0.05288065062421953,0.045836804891505004,-0.08172485875312172,0.0038845931635573252,-0.04307962606188153,-0.6962746166321122,-0.05245203409866248,-0.09252085000058434,0.020666079901728706,0.006855784190654218,-0.1074105636485567,-0.015198539528836767,-0.03483833760253717,0.0014912266699298282,0.05182433034072591,0.004493466129807593,-0.031986832441826936,-0.06886222665798082,-0.03742241242564228,-0.030357548901163527,-0.050228893382600136,-0.0021136453430248936,0.029912065989145215,-0.0029424259950363426,-0.37391777886920813,-0.10910735506715999,-0.22921300081942453,-0.09526791595218376,0.036972029004141094,0.057202317889014954,0.09962122737026179,-0.08256642013669489,-0.7531485265528792,-0.4102439013080188,-0.4347106552909179,-0.25812401337068475,0.26675853283996415,0.1728580832153954,-0.17888626083552905,-0.42177777496844276,-0.6530475643597087,-0.1861784232276393,-0.2592374929748674,-0.05214534512164164,1.2324255146869736,0.03957786519376705,-0.11451387977533002,-0.2888350409946944,-0.10383420908750284,-0.08873930333255126,-0.013732197367757427,0.06691252596150402,0.10275436197911435,0.05220794971425404,-0.11464739545321617,-0.15694976043760267,-0.01363593472992845,0.004928623864854423,0.06962451694025343,-0.021743260069781452,0.06491325313398699,-0.003906339496396083,-0.07006561330929402,-0.08437263062338646,-1.1522117205765892,0.03553430517177448,-0.114641634125272,-0.025544811995262238,0.008496525969309852,0.015889677442957065,-0.0011666312205348287,-0.011617614689392696,-0.008169371312393849,-0.019088916639665283,0.003744129733826168,-0.03805399368322312,-0.024526302628686186,-0.013073074571614504,-0.02151333936770885,-0.03445915064670005,-0.025964569800667303,-0.03638141909890699,-0.02224604438053192,-0.09651184560847123,0.0026404990409508193,-0.02652095646059594,-0.0866518320736677,-0.21931083644000565,-0.07470413433301974,-0.12331166477484408,-0.04188283260666402,-0.1691376647236235,0.05260625672965548,-0.6618045993084473,-0.4963794083823957,-0.26855358739965224,-0.26706480912990016,-0.4074512113358846,-0.3996658658720126,0.7001429589160078,-0.17572934070272367,-0.512541973743995,-0.1756133541784337,-0.2761963269599323,-0.15460065393925335,-0.4317522561644134,-0.16013922519135781,0.003471169035392151,-0.05839604215551938,-0.10311061906584981,-0.10501291023647401,-0.06630108968001885,-0.09740155189909877,-0.10565926079247993,-0.04922168652586551,0.07071293135011787,-0.026567233422598157,-0.028300566976501303,-0.024639301336331177,-0.02042423159601457,-0.023537911604054645,0.02572623787066019,-0.04445589230990414,-1.1015861524079882,-0.13025874877091678

Wj
-0.3174948777377741,-0.32688286070688705,-0.18552163614682787,0.1145302349130851,0.3675097388215392,0.34121327404602875,0.20248267145319873,-0.033198501218270796,-0.6645860769113031
-0.026999473864450268,0.8081296874323128,0.4479690935930084,0.7782740311188185,-0.40248039842934397,0.9097139338554141,-0.6480057652231952,-0.6102218531300401,-1.2513550067470771
0.9498432003449329,0.17101753837609796,-0.1984185908566436,0.9983548640707273,0.03129719781243024,0.6724739114917906,0.012923058312771345,7.224169366187534e-05,-1.2368258022650092
0.6632859743141254,-1.276285649180198,1.5374750046619163,0.6021237818600034,1.391829771640996,0.7382454664060839,1.1160157910986135,-1.659592107990496,-0.8748413108696214
0.005445046885237796,0.02492702890841393,-0.5582958022931426,-0.9160864213426031,-0.3809252954741435,-0.8663388633812522,0.1156650175767651,0.48299592089164767,1.2316799950261752
-0.37239575191727825,-0.3768011066678526,0.4678600396889398,-0.27176714787020684,0.3872726936166841,-0.07429069531841992,0.330001954949723,-0.3358304873818452,-0.03239078973731426
0.5720050029748694,-0.862170410126683,0.8694691613796383,0.6171838540193301,1.1761463551341549,0.48887656283776587,0.7905603128915627,0.2411274377349592,-0.5414104193862721
1.170323591788368,-0.565008810345829,1.7434039477941745,2.0077802567774254,1.0027382208518252,1.9289698407590443,0.8018590652630685,-1.8188165874343103,-1.9359438804339137

Wk
-4.19621176758168,-0.1686042462955711,-1.7203935295527026,-2.917334605521039,-1.2539091826311786,2.3677134304827243,-0.08494910945531695,0.03355675400734324,-1.5966179466027801
-4.064565204904238,0.5864629216726597,-0.9551059002567285,-2.7282065602377474,-0.8494404954213993,2.6967186766550624,-0.20983904451883076,0.2768062186721029,-0.9089184621088923
-4.650229527448576,0.53681682770515,-0.5097344368098466,-1.92577967931819,-0.4956909667838652,1.0919569147346466,0.3069053141950449,0.45403652985373993,-0.1965306046795281
-3.5598736423286264,0.24758062233817957,-0.6902463834788478,-1.6813704254684003,-0.8302337104066795,1.4997671720572758,-0.11512567743089268,-0.5266283134990782,-0.6960816994546689
-4.100284897245408,0.6980713396327595,-1.3951760750341131,-2.5124051516826227,-3.1350010984752674,1.3642778374597124,0.3748020511922738,-2.877558416152546,-0.6271419484940368
-3.2212716079813224,-0.864508278628994,-1.9606040112099878,-2.1341893373641256,-1.2610645384498567,2.398609435553018,1.0023822852038826,-0.39686196682200275,-1.5353670024246076
-2.9431502310042266,-0.26368603794634393,-0.941493432712513,-1.1949870208998394,-0.9200816927440764,2.0762040896022746,-0.3238541301184177,0.1893633787180121,-1.293680171511198
-3.167419190317802,0.5689211572903486,-2.1934572786658975,-1.3005591908004128,-0.9031416242222028,1.0400200444598158,0.4336086408127614,-1.7703424952526954,-0.7506858119671698

