Wi
-0.22689900444374247,-0.017589236734145818,-0.004505898532596125,-0.019701486992905935,-0.0032931071659642644,0.004557009213530688,-0.004415131126623552,0.0073087028584100724,0.015703485682195074,0.0015172613914181045,-0.00894898106962665,-0.017030394930343303,0.0014144655652200717,0.0016965374104287569,-0.005414153582148195,0.0031963277411832837,0.018095144034523798,-0.001040868878425153,0.02023411953475309,-0.03763497419149901,-0.00044504464669118765,0.0030113312972687802,-0.0023648529256778653,0.0010367532541939375,-0.005330458434599722,0.0064150673953542485,0.03520432672993144,-0.01750752386703103,0.02503054260088482,0.027585047154463624,0.07672228682170162,0.06734292480077199,0.03427413263838563,0.05760353107098264,-0.07699788470068497,-0.0023989868087440623,-0.022137181295566896,0.028019083489642427,-0.012165125479776741,0.0357315172997632,0.002172557729149208,0.02895365416880318,-0.019947675401542977,0.018575843882964082,0.010192595502044852,0.0031279692336320035,-0.018759608799015313,-0.004288654399996595,0.009614506223790972,-0.015065132006443929,-0.0018039977599768242,-0.011359971758821988,-0.008445622905552395,0.0018966725668971708,-0.018587677577565784,-0.013383756742080468,0.01032554089468714,0.0014848468687321413,-0.2453886536396383,-0.0685443606608349,-0.016592290009784537,-0.005433481122281514,-0.005090411647398646,0.008606348802969153,0.009261538546424709,-0.0077472574807131815,-0.002810287843140714,-0.0042420614206548106,0.013840067730300354,-0.0032268457704663265,-0.0070473343899488785,0.0017422765868789194,0.0015155376333310083,-0.008140172372876899,-0.0026709441305625753,0.008218763988491194,-0.008518468772963637,0.01065151079690387,0.002573119845239021,0.00766674858116568,0.014521774595700407,0.0007333015728924475,-0.03506329424551717,0.011968094901596076,0.0029999014205591545,-0.011579235087876526,-0.01047269774834545,-0.030879042509601506,0.0028849847114291623,-0.05381740995908439,-0.04375715027072266,-0.03002274033584877,0.0003110938133206308,-0.04412374798808829,-0.007566788594989524,0.037777237989681904,0.001976761814573607,-0.15835293536734427,0.0022932358355194373,0.011727411561711107,0.006721915943821643,-0.018174171673511215,0.0014006340630624407,-5.125400838405371e-05,-0.005570218311117791,0.009451237045136292,0.0037985204889213163,0.010224493622547355,-0.014395494580733841,0.025254347437129086,-0.020023616460482684,0.033919199183489526,-0.013317474033531264,0.010222122862023914,0.003070167401620471,0.019735063662610356,-0.008112451490297977,-0.14788594344986294,-0.015156666592705502,-0.002259091708856976,-0.008066923749964785,0.00251817655039001,-0.026524017674549722,0.012511590090286072,-0.03190151920304156,0.007507061151961269,-0.02597607351090465,0.0012624079479327684,0.02686174946543795,0.011921395748038022,-0.016424710209674957,0.0012926838376564522,0.010602141444098628,0.016509858220262786,0.011048606722785459,0.004434611769725328,0.05529664793103381,-0.011285003255806248,-0.02371219124348241,-2.8980711101713846e-05,0.050367095797481484,0.013977046829581568,0.04514274848954517,0.0216472915438732,0.05198067881559026,-0.03012204415337508,0.027381184879415106,0.11349320079200187,0.21230353724582052,0.1087072768805487,0.05009480896491682,0.06368288793136173,-0.17979084845065982,-0.03570485029874039,-0.0002446235390255464,0.06101963284563299,-0.012375381728073771,0.027862457776678826,0.02031686151612482,0.04437737497905009,-0.008648393916738774,-0.00458993360181435,-0.007310142426537645,0.00934319732621577,-0.008193440153193461,0.010622910463936291,0.007504815300227124,0.007699447401668088,-0.02974041721650601,-0.0006670138565448411,-0.005980501136665478,-0.005918606891353283,-0.01370441497184748,0.021647768666052725,-0.007212346720870785,-0.020710763887366042,-0.27352898971410067,-0.08017269785573986,0.003115561428193923,-0.01615253774911559,0.008457667304633163,0.004819262869808021,-0.007657882979486559,-0.012330078540211767,-0.007998324051807705,-0.0006604681283983449,0.016984316703433713,0.03193256616918269,0.008518857439319828,0.00833825663110311,-0.00839038345368718,-0.001390503596970728,-0.014756029360429126,0.008217887118241306,-0.0013857998863426263,0.045389353305820855,0.003202034695320465,0.031223280999261773,0.02875508458303447,0.07315070658838295,-0.00946202260677626,0.04562472272340832,0.02450935402391017,0.07796217108774336,0.03882014351059417,0.15119560242418772,0.19915460196440027,0.0669963352988999,0.020148123548762654,0.1503361501149709,0.059942794500784935,-0.028860994178155682,0.026602099585268855,0.22563577027246143,0.051889074320611614,-0.13016517310308687,0.03911340285196863,0.07901234849021223,0.044096267314138654,-0.0001699356558813705,0.037940672640288685,0.023000905199417308,0.018317407502425043,-0.011059873242256048,0.014644039753409777,0.015508218528021561,0.010179897316448295,-0.002818457510395922,0.006148241262944098,0.02631007307045908,0.00972891087101452,0.0014158217390284787,0.0014515197468992084,0.003665503459181175,0.003757612458925902,-0.4327429499300485,-0.016429363236305925,0.03378948540716084,-0.010955411231204082,0.007862313572931604,0.015531665860581027,-0.00481752479302974,-0.014345775731007744,-0.007455289502524065,0.00742951978926464,-0.004392422542108449,0.008614197367814332,0.013971889653717684,-0.012692803259520389,0.01233712606376878,-0.005803894925066959,-0.0014041626089885716,-0.005590165105746442,0.0013586098266480959,0.03551475824433934,-0.009161007657189942,0.017060453654485507,0.018763714642305942,0.035175034273054843,-0.0026387811516356396,-0.02874864880623043,0.023616276530068855,0.09503431250056579,-0.007410802323120883,0.0816113465476138,0.060352352860763896,0.029993695338436085,-0.020203671624245176,0.03191639417778905,0.10962098481004803,-0.04647956637258927,0.02430954812448106,0.014848640491700297,0.038869888248812726,-0.13198277628116292,0.013277877504059179,0.0009504629457097953,0.07355044018747636,-0.012346184252912196,-0.009180781663876678,-0.019347922149659937,0.0020378116743289165,-0.021618546604522584,0.007494922880116515,-0.008705532571239658,0.013456168871783249,-0.016281884482138072,-0.006872842856589624,-0.031604590227967744,0.02080125987071233,-0.015907990220207367,0.0055443490355753505,-0.012441568034301046,0.007852402677035332,-0.23526049716076552,-0.0573252569104033,0.006323323096775845,-4.520601070167683e-05,-0.005614109459336188,-0.016164943853715738,0.007643683961756416,-0.01712329673011024,9.440526451938237e-05,0.011808173680203475,-0.006323227249745289,0.02064214510181221,0.02220859903176883,-0.005637319032938308,0.0018242558076308503,0.009686528390881905,0.000904855913960772,0.0007466547721265542,0.00023791389322465252,0.06874990116725743,0.008772548455440315,0.044518819082837224,0.01724426939907855,0.0337180069755389,0.0033950729843018495,0.055982761596583025,0.03172431085862818,0.06469455005635351,0.002897487280868425,0.2319958898096994,0.08981478785179685,0.008105012610611997,-0.002354546110669866,0.18492146971041976,0.12480022369542193,-0.08324070993373792,0.06747453167164112,0.141239863861981,0.03335771569472014,-0.06816386792022466,0.054960954031933525,0.15373371747448233,0.07782315530208817,0.007223161429673115,0.0078052031687349055,0.007028061759912105,-0.00708004901105627,0.012566307775972741,0.02906066988720165,0.0354718428129905,0.017097827232724492,0.004355072258666341,-0.005068741250648626,0.001808615553331358,0.0024813018111503895,0.014121412044533587,0.012576968101647747,0.02412034684674414,0.0026660963691778955,-0.37352060067669224,-0.04362471745511466
0.007402385967900911,0.004205942312419897,-0.014598126910057681,0.010111796982031612,0.014131059387156907,-0.005811693023047064,-0.004515029955906525,0.004364584685830624,-0.0038161813638278954,0.004047440436729862,0.019928914664648033,-0.0029892023742838507,-0.0010009402858286304,-0.008946167081175167,-0.007768517254723991,-0.00924380819616741,0.007162664923868795,0.009490791996265025,-0.010337472764985572,0.002044640348608778,-0.005218647870793492,-0.0006825375642239809,0.012852514414651963,0.005027226423098073,-0.02101933744853846,0.00573733746708258,0.008495777266063619,0.0055259948745702,-0.007948249574590525,0.0026567280564912333,0.00224963083616808,-0.0021456485692880035,0.016459412202183568,-0.010331566686233175,0.0033488198755205626,0.006856885695638935,0.0018583055164013518,-0.005554249244721343,-0.002036144795932717,0.0015054594007334436,0.012865452770186617,0.008765339935683332,0.002167361759994628,-0.004385271136702098,0.003994160308764754,0.00041376830536776115,0.009075708746059868,-0.006190047731915713,-0.02358289316215338,-0.012703937190931354,-0.012036461878897538,-0.0029767975146302193,0.012935244979211637,-0.004723016851550597,0.0032530906692542667,-0.004387049350022525,0.013293994772413935,-0.010892602162527685,-0.01528041355358162,-0.0008817376624643175,-0.00038207483190100066,0.02256298126466494,-0.006367472166446758,-0.015897435144418846,0.014042814454959033,0.018634933678690072,-0.011295389139491649,0.011374926787023322,0.0016296555330156215,0.006996308170738332,0.0009686825178463128,-0.004428473795424136,-0.006762242201352295,-0.010645413177390409,0.01150825023711474,-0.013574302371910556,-0.0031434171220548293,-0.009209937060848175,-0.008732634710570543,0.014105474472426067,0.00633999934421592,0.005062450790916485,0.004961625360013072,0.006880163357676098,-0.010429974674391282,-0.013952916610805844,-0.015646119071161542,0.004385866167741412,0.01889560736404665,0.002717480809986554,0.0019114955943915102,0.002338661417731016,-0.008399228969926443,0.011232380695683263,0.0030474043884988608,0.0006829059016667939,-0.0036820245284402532,-0.01424676698119555,-0.0037128545109946128,0.007005617729337562,0.009502124756611746,-0.0014887023173131902,-0.01347000519401413,-0.0018676080961542204,0.006299599409100814,0.008457479781145302,0.006129683840999452,-0.0046966582739724,0.0008807026988821385,0.0015109746891971193,0.00019396187431977644,0.016114159872265606,0.02816305574002745,-0.0012249328038999288,-0.004343706212220865,0.00816516094472193,0.006755794541183796,-0.012102454315899984,-0.009018981691854819,0.00869112292443858,0.014332477864165912,0.0012581407959326959,-0.011909196788800102,-0.0008611149760066751,0.010066454247045498,0.013007311561350583,-0.0008545254481558532,-0.012103015090065913,0.008684260807150906,0.006534077214896531,0.0009659951426182977,0.002556015817859702,0.01097167268982039,0.009977471993560558,0.026168593592524762,0.01607666558920117,-5.338122089521867e-06,-0.008439039393041796,-0.003463379451008588,-0.005790888360119799,-0.012494722515069358,-0.029629767597984726,0.006210754818397548,0.014163268447498052,0.0029499059812132292,-0.008810797011084453,-0.008885352442232526,0.0021392302117426484,0.009330028497348524,0.006610702563387566,-0.007197284132751386,0.0036437455025561632,0.007730463560399847,-0.006940616977145059,-0.01152147913502813,0.009343339120109692,-0.01810675380431667,0.0034003044830152106,0.02949853415921096,0.010305638043693168,-0.0006359231416051562,-0.0032831367607870057,-0.0035655154783978955,0.0014205177605770504,-0.0034913636394840104,-0.009295318864703672,-0.005561486045203375,-0.006825514936028142,-0.004408856936020693,-0.00019359449229814724,0.0019513177439969235,-0.005691370495646513,-0.007321511760130514,0.0027203758025084596,-0.004765091692927221,-0.01683876419325408,0.0047896346924914315,-0.011575674259707453,-0.004757684654518374,-0.0029858589217294667,-0.005877215784009347,-0.004718420438914382,0.003048505735268637,-0.0009124270471684246,0.002409829448570995,-0.0019652444550814223,0.014767318297049754,-0.013483087927505081,0.02756913286334349,-0.010311231738386713,0.003591944239065143,-0.0018641979239712924,0.0031421689075578412,0.0011171040665551046,-0.003992752264104384,-0.007690096274611073,0.005624317351859261,-0.005436123097733734,0.007768651151171465,0.01663381338253401,-0.006614737569747258,-0.016875478050267966,-0.0007342599505958098,-0.010485543750124145,-0.0014625684993588147,-0.007166967077921929,-0.006976970137187067,0.0069715178032620385,0.01350008683737207,-0.003279238660616717,-0.009242108231556368,0.000266290651571145,-0.01693390577895664,0.0002908213583797558,-0.018425377002108567,0.000644772928941431,-0.017234861495646604,-0.005420631839967106,0.008179690688338945,-0.002387621374179537,0.013005656772443175,-0.0027131146771368444,0.002838960312398705,-0.004394113022690147,0.0038074529020356105,0.000816593922055432,-0.004977988254866751,-0.004265778037295801,-0.006791242121017444,0.012041593065240795,-0.009229569256950974,0.0036744492880956495,-0.012527567319608107,0.0027401850957351442,-0.01879907865563608,-0.00018830150621118136,0.0023937616619185056,0.006466458957520052,0.009645525997179254,0.02965173295490797,0.011233782600883866,-3.131119057125131e-05,0.004457593058148816,-0.0044079812918398865,0.004549176453381359,-0.0162042224642201,-0.003471975374767688,-0.0014201013657561639,-0.004726671701655259,0.008079774183205516,-0.010413034552260182,0.00105490785078167,0.0008034830711270362,0.00035099497691209704,0.015332651901803163,0.0029230692421218264,0.0039039976335998408,0.0016881977889587662,0.0029886643703286946,-0.01518847608787329,0.015211119925931986,-0.013387340424722368,-0.0035507260183926235,-0.0008336058318060006,0.01846556945649566,-0.0017475094749053316,0.006747588712909724,-1.671976376626557e-05,-0.007250615440805895,-0.003479323768342588,0.0031957304607286383,-0.0022205844992348647,-0.004160043162565394,0.0076791118471219375,-0.005147089694920341,0.018810859759063818,0.00907731026947407,0.009542089050275288,-0.00442658160370269,-0.004146912041781132,0.0050679595785802336,-0.022637379524392372,0.00430903969356756,-0.0005163545712331747,-0.0074025029947566426,-0.0028080726214681916,0.014413286732529298,-0.01771086297219216,-0.00590848267446763,-0.015079890747623653,0.01675836758774305,0.004480612704352746,0.001143740189011039,0.0012186657312207095,-0.009483617310411075,-0.0047314465857767754,0.011193588618026317,0.00017315921336377566,-0.0062752133164721115,0.0022342024635615535,0.005920461084466202,-0.0007977499966546685,0.0055335074973729996,0.007475219700531381,-0.013079737145484927,-0.006114439396242671,-0.008699727095813896,-0.022934840892452662,0.020650213734747975,0.0024828720978408007,0.00010179783558758468,0.009187119160402692,0.0007393266374526963,0.007040962768323546,0.0075631429797057715,-0.011970239287633539,0.010264725083935684,-0.008178964698417092,-0.011050179348520588,-0.0010001150928322044,-0.006710337500306726,-0.0005200744148617928,-0.018125747635360494,0.004545369651021631,-0.00710302247036641,-0.004463873321670409,-0.02542817578052346,0.01263616752571454,-0.005860054564171902,-0.0025526344213749825,0.0005989076313450167,-0.007036317736409117,-0.004502793585694656,-0.017605507269598832,-0.001486293247746636,0.0015397006616271714,-0.01966667851959247,0.002976708352714089,0.00947788859870067,-0.0005753592697255217,-0.02072938557754222,-0.0018845049395928256,0.006319059242579254,0.0027532392679549896,0.007471291983119249,0.002526612326526299,0.011413727058279659,-0.007073296381059639,-0.020720708498278187,-0.001451647260952407,-0.008066428320969637,0.009665195609146776,-0.009404573924998542,-0.015904453498900236,0.0021835924053160674
-0.005519828573122781,-0.00961320888145728,0.003491586303048067,0.0032022960069867474,0.016418344730993312,-0.00287059201292492,0.014746292391983497,-0.0006617739779030274,-0.016708374308407218,0.010258140643466711,-0.005318868178859601,-0.015082489191899763,-0.007395463281372304,-0.009968180600327503,0.010245137486131631,-0.009128625322593915,-0.010595012475282276,0.004568728069388332,0.0034883328856879993,-0.011961611037449546,0.004980200785152443,-0.001724941971223562,0.01468271551206579,0.012735386750909523,0.0052377000965081605,-0.014880954823729685,-0.0015898797527753412,-0.006260457769890323,-0.012237237961971098,0.01834713009197946,0.0009411481915372067,0.005270082834786484,-0.0011967323571363787,-0.003080972958436649,0.008952240637203835,-0.006279925921501693,0.0031370392272343024,0.010415605264919173,-0.0033911902140755287,-0.00935427187121175,-0.022708205791908354,0.004203366552313095,-0.006263838696742449,-0.01290530311188748,-0.005174359425123026,0.013877613713944916,0.015305422117611489,-0.012711003217981732,0.011436837618356586,0.013286696541488232,0.008086609483949864,0.010100631977242785,-0.01164400525306793,-0.006287018646304897,-0.005874134454461586,0.0039049733538413537,-0.010528116020018444,-0.002079524446193171,0.00036802421859416246,-0.003125113275829133,-0.006630384868321831,0.0037552091643214317,-0.0011000322568956574,0.015259411937322864,-0.0026163054771581452,-0.0006455902265317343,-0.0014157096946716826,0.015130300365509552,0.003107649009550853,-0.00618904936663625,-0.009678696121980808,0.002217240702805748,-0.004926340791994898,0.0029302287431888043,-0.0016966250617471753,0.009148403962771539,0.0026316003311819443,-0.0018632649335813352,-0.009811597923327945,-0.0019099264912256003,0.007089891867101284,0.011015481143933305,0.006918511228258867,-0.00011881458021496076,0.005949236546501816,-0.0017889794524844373,-0.021634925736189546,-0.0006694134656579275,-0.01190985361962923,0.0036661742600954434,-0.007898167113132577,0.006469934208676237,0.003815884837813957,0.011449149447414663,0.0019133164157947868,0.014377384423002874,0.009294795607363907,-0.01167534940932981,0.010429211085481968,-0.006782420963494423,0.002957892972641803,0.003931572011419016,0.00200724099793345,-0.007787733691781343,-0.00292636729057608,-0.011966827290791245,-0.006662628576580661,-0.0036243349383208454,-0.009045912709077897,-0.005854097690294269,-0.016203589643198364,0.0002932793848846366,-0.008750627091794758,-0.006977210523231505,-0.0029050818560335356,-0.0004262333120159475,0.006860062575751536,0.006328201241454669,-0.01977294516169771,-0.014017517056429266,-0.0045285618767717814,0.007351029473821707,0.00018919693318335707,-0.0011964905955053119,-0.0004574497239644164,0.018124514812573062,0.001939781479025663,0.0011777255488684662,0.013250567141108834,0.00987607442687659,-0.028058696121793406,-0.019405603292655945,0.006843873615016001,0.008435038054871172,0.005342510318214034,-0.001418954574416884,0.0023276476496088094,-0.0004324478879205247,0.0012156020338631016,-0.008232755465066228,0.004864749212942539,-0.016880745295558407,-0.006283043574714615,-0.0029734339044680215,0.005557681903952435,-0.0021023261221765764,-0.001859078452271396,0.001049586261172659,0.004708936923865325,0.016968952005970584,0.00452935950476386,0.007366507059590321,0.0015801718505210809,0.027234584273100694,-0.004034257700468304,-0.003450117367620346,0.0004898184783963594,-0.009128736996935533,0.002715367206890875,-0.01590777968801763,-0.008278590815228023,-0.002642768828970563,0.003739620414362207,-0.007899051865389858,-0.005663746588155764,-0.007648044365251713,0.004742350706195498,-0.0034713244356708276,0.009754321500121664,0.0011493744103501292,-0.0011874949962831657,-0.008081099553629217,0.004668066400891938,0.007309272089891417,-0.00015519618032640693,0.004417633153121282,-0.008613101763744172,-0.013484913318671939,-0.005197262894625715,-0.002610244349704215,0.0062066958375453325,0.0059700413045239405,-0.005068585445044889,-0.010023852467723623,0.004816249021758595,0.006777347930569499,-0.009994314571810811,0.003980645142706828,0.005220837204219192,-0.0041999681596384675,-0.010936159483656976,-0.002168769982683419,-0.009030094452273627,0.006362922952554712,0.0027582621595618655,0.01220023093487805,0.0008998865854102717,-0.006266722125294831,-0.005211368320667035,0.003411021027459036,-0.004889483227653488,0.0052697915759908984,-0.007241497956747828,0.002639225961235343,0.0009463325069808095,-0.005924898210268207,0.00034433888037947984,-0.008151851365018588,-0.014666678642727162,0.007917266893209316,-0.0004934925036925438,0.0226779523514876,-0.008029908831252664,-0.006292104018452013,-0.0012267058457122591,-0.02424589296739439,0.0009821584198859722,0.007826071772585106,-0.009248316347511566,-0.01695760435165164,0.004979974665509501,-0.009286070176898921,-0.013873065564478149,0.00436141414919721,0.0013340450580928377,0.0051709958101685705,0.011947377806935439,0.026827402204603897,-0.0001640788361877821,0.005198001259633821,0.015830172584191105,-0.00043322588285505005,-0.0021219800034045938,0.004331187205292094,0.004637466041955983,-0.0010691408200414144,-0.0028471319962310214,0.011647835281970269,0.0028502093671838053,0.005376053614716104,0.005015764556495476,-0.013840473686386738,-0.009765948678893521,0.001388682937343454,-0.008481154532739704,-0.0028920827233344134,0.00014202268334902215,0.005621500094720663,-0.008535432631943576,-0.005965385972370746,-0.001964965655313602,0.008134990656251923,-0.017445799397890583,-0.014005145442333061,0.006313848307896012,0.007139783718998395,0.004607749874290571,0.010411102882135105,-0.003792896899647169,-0.0121881694857447,-0.0035112019080716095,0.002555815738792465,0.017450806088301317,0.010212583392273883,-0.01310588954999242,0.0025851946663311685,-0.009699573978758909,0.0020820764202311034,0.009183067909628948,-0.0031317137591821034,-0.005060276491589898,-0.010123762954601108,0.009889666294225826,0.007810595680546452,-0.008502710968228668,-0.0022801254383769507,-0.012817996553801572,-0.006866258621276711,0.03163362706589224,7.218017389152695e-05,-0.00268109521586788,0.004919426609990382,-0.02148163509277456,0.012316847466193995,0.0020198873105461445,-0.005739653331514363,-0.002007629035863951,-0.008642474242084131,0.004265693585720785,0.0006899507164025067,-0.01258962397092319,0.007579902723397061,0.006776292938179711,-0.014742020943390282,-0.016725543402962856,-0.0026996734252696256,0.00039213569955092034,0.006039443612910187,0.0026051136291362163,-0.0033014376663084515,0.00789620896556354,0.005757930929598259,0.01709157813919347,0.005944063735010204,-0.01477781588556615,-0.0008903198721261207,-0.0036146597536613413,0.01013897914762488,0.008621364095701628,0.004233563114213136,-0.015954278217362106,-0.02078710885816645,0.003397384689411908,0.00179304778352459,0.008296668105560678,0.016223585142378854,-0.004716191224537324,0.0009688302471280437,0.009177304210252289,-0.007465174661976484,-0.008966386073748158,-0.005198256185485827,0.004416772895480831,0.0007958937562271624,0.014879800633496741,0.007054496043003663,-0.020058565330772347,-0.00045685719610693133,0.015490804991613838,0.00613387247235632,0.0037382837181911626,0.004496812090686897,0.012724112954953598,0.0014555774035703785,0.015110020594024894,0.01706614162871207,-0.0032657502286210023,0.011652393376759867,0.0015475385721717754,-0.004769637748778876,0.00866964956807944,0.006830989734848428,-0.010262734106638024,0.006048217484931321,0.0143442650720294,-0.002121768341565025,0.010568314265056621,0.0007547837922269642,-0.010437786164489003,0.002803412363298293,0.014821623342497455,0.006914486195978423,0.0018475251575835793,-0.021151760040675552,-0.019539330984013597
-0.018919195459390976,-0.0011145060240922476,-0.003459357420021438,0.010663666532987202,-0.02217076863332856,0.010194385258892099,-0.013510910935987391,0.0081836032862983,-0.010841316849191365,0.008183596161335013,0.009401594706259127,0.006694079409643563,-0.0048153878068770955,-0.0013353074789272477,0.011149662503189354,0.010769413709643521,-0.002510988795084447,0.02129295473406369,0.009739746893831712,0.0001323310788929421,0.00865057487588695,-0.002317446341967523,-0.0056824850354471705,0.003171673153906136,0.005666978242696692,-0.0019030587118904077,-0.0014428823415319376,0.006118830052146422,-0.01058913772908792,-0.002274819284893783,0.004335369728846172,-0.013750482172995912,-0.009176960300265945,-0.008393520532217896,-0.008871492648717933,-0.004836662293519412,-0.0010887751566813107,-0.010972368008825478,-0.0013075321627651125,0.009356415220208514,-0.001424324276284589,-0.02412610318021699,0.010259440109894498,-0.0036241694899144796,0.0005510192868355816,0.0010885856692758593,0.01271101814908974,-0.006268984967463048,-0.008816524835653278,0.0005277904084275765,-0.008549800344386552,-0.015161505041947779,-0.0035974441183082564,-0.004389629227070428,-0.016154279761357113,0.012035580385774923,0.004293000229706843,-0.00875678056047503,0.00631818286651041,-0.0010913996729876357,-0.002936139763850032,0.01654552096421584,-0.014039649259154333,-0.009143342212123162,-0.00945386444170567,-0.00506741408863113,-0.001674733695182494,0.007213325203960589,0.025620815784987722,-0.001955963576240694,-0.005764862332659151,-0.012731842182581016,0.0014655031594045733,0.0028061901558221864,0.014895191891115918,0.0012606245588191894,0.006874576579416201,-0.007432548525202722,-0.00831410133198617,-0.010173078070024134,-0.0016816659426622204,0.015166034112717951,-0.0008538634347164415,0.02914564516117127,-0.0017461685250582252,0.01077463550455833,0.017910058246873955,-0.007066553080687536,-0.022408600778509705,-0.006233837073476824,0.00013783166982194993,-0.018438102850418227,0.022785722534437735,-0.013501474494950996,0.0023515987288564495,0.012456390753455603,0.010923218801800914,0.002471307204870891,-0.0006327575847741205,0.0026999292468445767,0.0067103192793059015,0.002209427830838493,-0.0034571795545560655,0.002439223606453229,-0.0054808217027528154,-0.006622147333606793,-0.010662738971902357,-0.0001969678795045238,0.004564942613555461,0.003906520807828456,0.005658071216025647,0.0031958619548355825,-0.027852105650900263,-0.0024460497364853446,0.0030625766557922135,-0.006964141217288269,-0.002507945575374145,-0.01412865899487538,0.010229022075165323,-0.007153924644962306,-0.011045582751335329,-0.0008041084944337189,0.005988014021359855,-0.00995442568601788,0.001543717036684149,-0.0012991198244848255,-0.005755550022664479,-0.016372864154694064,-0.01794033311779677,0.012675319719846877,-0.015771151382025356,0.003879247538312853,-0.007039129630538632,0.013331930527783172,-0.010949091699081854,-0.0014259238288533958,0.007265738769773706,0.02272420495312953,0.0022866245169208856,-0.0018081853771813351,-0.012934657279227785,-0.011746230925584857,0.011245277280182679,0.004835232015647663,0.0035929172692656594,0.013780924102773793,0.015418780970918198,-0.00476641056472883,-0.013870485450748017,0.018757823727763755,-0.014496393268302356,0.0018882199292712162,0.013248677806819353,-0.020739584219253017,0.0035734273825203783,0.004606475561130049,-0.014617401962941583,-0.005549171170518632,0.0014207971289235512,0.012256896143769971,-0.002999888854060699,-0.016385456080369707,-0.011139333127460623,-0.00425768773328851,-0.0015273552071923579,0.010083770415201029,-0.00857338005119147,0.00333741550419162,0.002583360003129344,-0.007482744635628094,-0.015769970127918198,-0.01226099310965208,-0.006079386955894842,0.004840269249798803,0.00575243519229719,-0.011876227770845935,0.00022256931915251961,0.014441750052291747,-0.00944044787195647,-0.011565228091118374,0.0013353255186936107,-0.0018592895268154286,-0.011925740576086079,0.003787686793538318,0.0018060675937259646,-0.0013697356960692734,0.008155844071442694,-0.002334745679243391,0.009069195141159656,0.016152650897522963,-0.012215486958651047,-0.020056046741490266,0.020733059713663484,-0.0007060382532508388,0.005393509558937203,0.0007166606505120938,0.004901170365469183,0.007918417984947485,0.002822356689465989,0.03154853537245259,0.010102500685835781,0.005999868480782966,-5.273540882130657e-05,-0.02160429500884266,0.0012111935740264192,0.007943831896186134,-0.0009673585185215669,0.00022158369392231772,-0.004065461980356361,0.013691122277476406,-0.003757572395518728,-0.004585202931458344,-0.009878406294465248,-0.008001249191218775,-0.01174604822399822,-0.008186519190637212,0.007640879685340862,-0.006528649964350587,0.00520768990007563,0.0008427259901786499,0.0048942363119894045,-0.0014187077498960371,-0.023782113668504676,-0.0051811452660572525,-0.0011507397179609936,0.018089581015129853,-0.011432455334366114,0.010229774443311858,-0.010833888441618818,0.006477837435919924,0.022613568585236284,-0.018567498532205514,-0.020655597929445314,-0.0040033022270220325,-0.013839615929098093,0.009355540241112941,-0.006182790287110419,-0.0019669816394075074,-0.005922847515629632,0.01998591679773636,0.0028715417025908666,-0.00025948320385183257,0.005221477759594012,0.00025392472168632213,-0.01622427037848422,0.006584788395104845,0.005173189620114334,0.0042492430257865385,-0.00459218233478991,0.0030969147103518044,-0.00645924213731077,0.014130382725551314,-0.0007665765951398898,-0.0035416159181142757,-0.0017401937019211819,-0.0010295903881651013,-0.015610366001629064,0.009219308019684624,-7.452478534408948e-05,0.001901148035234389,-0.010506986249719477,0.018605701985802633,-0.0034247171194227016,0.0022388611110511244,0.007469858891411512,0.003527332010302864,0.00691415348083114,-0.004190325337709584,0.008654820794543366,0.004147429998243545,0.007129705227738158,-0.009522817550957564,-0.010352510029064751,0.005015590525487803,0.0014764621427782196,-0.010208487756939446,0.002801046165381706,-0.013980606840988547,-0.008903579288796457,0.00031222501904143717,-0.0034209330028926177,0.011394033846934099,-0.014029135218475694,-0.005075813015752619,0.011833094312882273,0.005711282495964339,-0.008480375465465134,-0.005445521452861611,0.0004005510413773343,0.001950257414307137,-0.0013458517640096315,0.025753124476483126,0.010310786956334585,-0.01712663550861768,-0.004430677439849405,0.005287371627111924,0.0062945987495628825,-0.01170376364513824,-0.0008581331595897496,-0.0019655653108193723,0.012873648940755315,-0.019039205238911474,0.0021009271472046016,-0.01761575263184809,0.008288852070657219,0.017796030058759883,0.01093146776783606,0.00040986140322581274,-0.0010085640559009605,0.0023091451534364878,-0.009918043378452352,0.009648031615013368,0.008750277528128911,-0.02313091448789932,-0.004573847780816492,0.005901863744877584,-0.006861848420723188,0.006911666719762872,-0.013795972782531588,0.009134987946113437,-0.013290940421273524,-0.0022885574261148666,0.006173738534454539,0.020582181956817783,0.0071750667045824045,-0.018320818864153272,0.003942100323559107,-0.003642760069324077,0.01019009855843652,-0.0050998939169261725,-0.007725812203079047,-0.018273330442180435,0.015298692950023491,0.001783559922702268,-0.010732753555913606,-0.02450781162495338,-0.015327406020096407,0.004627714445175831,-0.00466444613570937,-0.02159819200221718,0.0023193229022680935,0.0020146669056662833,0.007758254302693975,-0.0014839912522405865,0.009793400506304978,0.0038250178231139906,-0.005405966337488591,-0.015156504212746703,0.011557252507053646,0.000686477335721765,-0.00482062995913641,-0.008943460780753545,0.004634833568886301,-0.009161925805425807,0.005868700622296653
-0.6187573789373975,0.0004633334401313429,0.0005356767637529709,0.011977552239291511,-0.012383358108773656,-0.003147120346584681,-0.00808420181605903,-0.0025505389584246077,-0.03085039829587031,0.0042965233653606116,-0.010573789731032048,-0.01652408232377315,7.444980817803531e-05,-0.008020891767654826,0.010885607024325061,0.004209473923851287,0.0026836272250490368,0.004568668183868027,0.09236860281995202,-0.07381294081505843,-0.04812996503245178,-0.001243369997815759,0.00924222831041967,0.03261734276902408,0.006771528026458035,0.015308163739253772,0.03867751778023252,-0.05128427093169461,0.05984288752304071,0.11111520761831088,0.2055904025233628,0.16686857292584506,0.09323490763731684,0.10705044504375902,-0.23436364312943508,0.005876234660138591,-0.019230103827089645,0.10762112603302684,-0.017640667966490043,0.0730424058350432,0.016831178743641727,0.05589025784880632,-0.03968550021688089,0.01200441363352687,0.008972812578969315,0.009401891689817088,0.00453431012606606,0.01682547829446697,-0.0008936444337636303,0.0007161756259571786,-0.021727959011343077,0.007047881840160907,0.001328025665736034,-0.0210517275450832,-0.011623107091203295,-0.00369744499563773,0.03548102257393381,-0.013334792554744028,-0.6459317816142798,-0.15647092848870392,0.0013621638907315966,-0.006192815141103619,0.0021390888441640294,-0.004323208224507411,-0.009486103254440112,-0.01518497804495706,0.02295512727381696,0.016841129487632594,-0.007172697568834706,-0.01143140125183575,0.0016383433791029014,-0.02131710572449807,0.004015203220495062,-0.013029035110506489,-0.003550909626206867,-0.022485801801590755,0.006147462268012645,0.04690136836292468,-0.01832508984103717,0.03067205535010475,0.008616450078722334,0.02651509024155837,-0.07711454389806506,-3.365718728556329e-05,-0.00693164382029882,-0.00640725075774841,-0.03499265650425135,-0.03637727757145289,0.011356495031441758,-0.10681338644841722,-0.12521011496328094,-0.024194091464631553,-0.010995264726532148,-0.09825895099192797,-0.0040428715520526935,0.0366307666616631,-0.009109725995169512,-0.4557630106762898,-0.03050475538772675,-0.0009092938361643531,0.005332462178660501,-0.025846749533865388,-0.03439405228763542,-0.0004185288204605747,-0.011508427159899205,-0.04306630431460595,-0.0011935950750856235,0.023536536635615005,-0.0026249046959914294,0.044064122921984236,-0.0065047413636514706,0.027047056152150497,-0.0051006468628700535,0.022835575788770702,-0.001176952735746043,0.05178088084295505,-0.0010581034158405735,-0.43053883623274003,-0.020528291305577488,-0.019088732155745643,-0.008783885796886153,0.006103617102252107,-0.024682788599771972,-0.0019128778000010512,-0.059011764189214576,-0.02697044036619333,-0.08176737473185593,0.010773034984297429,0.0250724206599434,0.013241011357074216,-0.0011632768107463747,0.014321169586844243,0.004347800505981905,0.007650952071444941,-0.011871438293004901,0.019713338330092856,0.15663063549936865,-0.00823820577396002,-0.05683397835478992,0.05891157675603452,0.14559913791819798,0.0268947489056774,0.0812866032121849,0.03589121431145606,0.17980974827516297,-0.09530109262339359,0.09857309768960865,0.280487041184927,0.5442595189366396,0.3165298526115077,0.16498068537827973,0.18938605426364233,-0.5020398626317001,-0.028179746446751162,-0.028426894192528536,0.11648151787355485,-0.0804574461129653,0.050581550872715986,0.04258054735139481,0.131462178591915,-0.07639102599968117,-0.04094962998470701,0.019634924507949812,-0.0031024643477956006,0.012977707386972558,0.017026755596908544,0.029658053941439718,0.029336053791327293,-0.07508170764811091,-0.0033198792318412996,-0.05599343494215383,-0.01850408986601961,-0.011639135087443945,0.021801645790006867,-0.009859677589480007,-0.002726663950865312,-0.701932660924733,-0.19279479030788102,0.008210934600192328,-0.019742301123850656,0.0057346577590481175,9.31920316558966e-05,0.00847600145808776,-0.020703599806091048,-0.013411777532592166,0.01347465696568866,0.0022388100560352306,0.03926892231967457,0.021887053679116874,0.011890433693401916,0.0203838355468397,0.027161284497585928,-0.012173316432060714,0.011088968595779864,0.023112889668705512,0.15242444878546255,0.02827329856014156,0.08868257525901396,0.09606423913475957,0.19259752145002662,-0.03634972754303241,0.082110276748862,0.05235894564070595,0.1775426223381314,0.10817676452204938,0.43007691193146147,0.5073825289175751,0.20490709172693433,0.03531169490729246,0.41011986413900287,0.21084152943076745,-0.08953220628009832,0.05725340946185635,0.5314396616182363,0.16710580076123505,-0.3230986588034016,0.10216417260648905,0.220445369617504,0.1099525460398273,0.0019198776990518452,0.05321771451477366,0.045907279591380044,0.051552917114423225,0.00429124355118885,0.05606310854559659,0.07739055451552863,0.05919345551443706,-0.012572493039264382,0.015271069448143144,0.00172842399479427,0.01947631417633052,-0.0019423583503899032,0.021400762157992644,0.007264054320390057,-0.0012727518646658042,-1.1086943018334445,-0.028175788156292455,-0.006197537402289615,-0.034235383142221305,0.023779721246571725,0.029437007030095722,-0.008082885940344951,-0.022257181442055896,0.025187545010205894,-0.01986374596957701,-0.010789480921597016,0.0171564196286304,0.011031575632215398,0.0009293841207482813,0.011838156701688488,0.013128995872823034,0.006950690376196408,-0.0039337627386897825,0.004548372573384514,0.12950172307231853,0.03474437384331173,0.04301661175469147,0.04978593355483422,0.10145706688270374,0.0008919002513921428,-0.031051032632585695,0.04162107103829209,0.2592816709928556,0.02068477502925015,0.268301016485703,0.17237586874862046,0.15281233760816987,-0.017305654729196027,0.10552039375156824,0.3077884964759539,-0.12034811827382287,0.051526418110225715,0.028857719419486175,0.12443431999176113,-0.31280973553846825,-0.0008266989052086147,-0.005026865280155025,0.1567134709286973,0.004691244115618378,0.00022805306682946523,0.010081070070630345,0.020394446932781016,-0.0077616758098210115,-0.03022586726124301,0.004784668063718864,0.03064423418641588,-0.039499617754239005,-0.009123345582070678,-0.038094802629473484,0.0028875685529879225,-0.025806211398385803,-0.011346282206166212,-0.03907916237872387,0.01099477758722449,-0.6274402112617479,-0.1784058064857632,-0.010672899005739823,-0.010983729861513934,-0.008354051143910158,-0.0022653368726702184,0.003043642648825827,-0.03196874182495916,-0.001911747629863413,-0.003319521151421976,-0.028111225296887154,0.03274881365815172,0.018143722155611317,0.003507653377493645,0.011239810800721988,0.012339916653947933,0.00651851940721324,0.023458093694116153,0.018322712298509222,0.1882832464323804,0.018517018258325326,0.10525098282397437,0.07436149312207631,0.07891553979695337,0.003519301243334125,0.08201075156385045,0.09250315605142691,0.17762355935241225,0.01172930600523794,0.6134585823982186,0.2166117056403097,0.01941208902469289,-0.0005140179371469851,0.43787964544877933,0.36713587425348254,-0.21087817189882035,0.15813601475377928,0.391251829220989,0.0716287816826403,-0.1492556352517425,0.1295154337885274,0.40070278393831754,0.20593170787679937,0.022835027420601322,0.06371064428937073,0.03473140035411973,0.03606293021197015,0.002972564971122582,0.06382459025231733,0.08217197894684786,0.06418597121926481,-0.008984391083458824,0.011109394320220236,-0.004805739340999138,0.0309704297525541,0.0007922725190842664,0.007384668903075098,0.002855689029411454,0.011149196306544014,-0.9589670804129543,-0.12985631489720695
6.181521837560752,0.5397234375973036,0.2692138992897795,0.01402704005288639,-0.01607871749789591,0.026098608298696695,0.33284709547902,0.005908909228011834,0.4213190811412681,-0.013780982501114909,0.01585037872163797,0.11954327944260786,0.09750533019246815,0.07299965494312126,0.11850574422512435,0.03924184563387835,0.11643046938260102,0.04450323068384705,-1.095302411075509,0.7761063238168171,0.8501415714817299,0.186620629193771,1.1054484632235966,0.08304323093960532,0.6162440464008065,0.07019235574077515,0.442813342650218,1.4228522549667852,-0.1971634410226104,1.132808117042814,0.49841074582007233,-0.5508612586193794,0.4436951476370279,-1.1312627782369085,1.4305380082158077,0.26788016972568773,1.3835085800484421,0.2686702186453899,0.9090354830741009,-0.016988332132242115,0.20007766510651684,-0.4520312816562443,0.439528606859673,0.40816570629310195,0.4546375105045662,0.29828279797450086,0.28867672119857435,0.16283797949115258,-0.022836838906529128,-0.03893473401725014,-0.07765118403366968,0.06165404769278982,0.423162324697106,0.1500693273320465,0.3100136899427842,0.05216914193394291,-1.237753988902408,0.07105470857191389,5.205293615400138,1.9884787763007246,0.6427020382868238,0.3850963762766124,-0.02175366560918629,0.13157586976628768,-0.005105429698128925,0.40105796027612123,-0.010369366300055565,0.17227484444822236,0.002119680229075852,0.05201278922388775,-0.004315552914546239,-0.005432519437504733,0.05408120598156598,0.058130815087709065,0.17492378203598247,0.15155205639922983,0.09938001863270375,-0.02402484499966104,0.024287656004981287,0.31672293870073953,0.15663475280746844,0.6919063585791233,1.1464601334694404,1.0689478124112173,0.19573985718429202,0.3706773848668544,0.5828113487950182,0.86619912589061,1.063650348671187,2.466824496379374,1.9112740361173761,0.907932077922777,0.8894159429888295,0.2667765440245128,0.38018413189211797,1.4761689259925839,0.5528088996171049,5.644531136626926,0.5503488040909845,2.2967185531467043,0.27888261162778977,0.16109283445400263,0.31626863713669073,0.5383460987100531,0.5734641044183155,0.6540221115228783,0.43935894970168876,0.2017497678575665,0.09468387554649281,-0.20976819934582103,0.040435740131055414,0.07291167198072054,0.14839715137774506,0.19934732825099788,0.03380263716476336,-0.3182330803325464,0.023166017101096226,3.359190392015984,1.5753948244807967,0.6843013954739852,-0.029315376489757364,-0.005963859360769708,0.25610014899581973,0.011518295595022057,0.7043585156249966,0.02438913562463804,0.4154355932069526,-0.01747531943622742,-0.569507984105098,-0.2225419565669868,0.10975342361504348,-0.08826732057352812,0.12066667649877506,0.13045414776752787,0.08911476713414725,-0.2568273341416518,-2.6361761257754983,-0.07070568748167234,0.758124955365777,-0.03410096824521139,-0.33003652296664304,-0.1723666356785025,-0.7888468884993882,-0.7223404835644913,-2.257311482749454,1.0679014669873599,0.6491071491216637,-1.3761463591915635,-5.500786977987761,-3.8022147350084117,-1.1735410935694706,-2.1118007993713883,1.4694341929756514,0.648269878052497,0.8302364318669679,-0.8558513231824016,1.6246804771909635,-0.5919141594062725,-1.270844010691196,-1.470873061389735,0.3900294698901285,0.2475442051765849,0.22036558601952247,0.4443658218114991,0.15776606894435144,-0.283384539281283,-0.8710429977567268,-0.5869450459810187,0.5126099540530494,-0.09190043919117952,0.650465788756766,0.08910047318587477,0.3187129855157613,-0.39063105607234955,-0.23964405987750628,0.06778405895501005,6.614398956041417,1.826634707851638,1.030282632819873,0.3819427201344223,-0.04607116786583222,0.3951899308727238,0.03802121360978225,0.5564949593262509,-0.003256157530891485,0.51233386138652,0.007151764733278999,-0.3643055601243253,-0.1550274749551497,0.2252723950505871,-0.09200803737610268,-0.1003905596021637,0.03979307700815361,0.13263743973906414,0.034527223993120054,-1.3166145631292525,-0.3996915644928729,-0.2958002976848066,-0.4945688374176617,-0.21052980503067725,0.38451680156580575,-0.07494305575442124,-0.2927998702217039,-0.807825480490372,-2.0611814395757753,-2.605033709478045,0.12409680689602513,-0.13474646235703197,-0.005022834240281954,-1.6564262982363795,0.0004950596382665185,0.12784445156593688,-0.31163459055223985,-2.062741337592372,0.02015686683953485,2.775158686714405,-0.08428674489007043,0.5030167473268153,-0.7405940773954829,0.05146974521482775,-0.31937788155404223,0.02016511935736895,0.24420663662084172,0.3565874122193204,0.015388845407888648,-0.5980913692664125,-0.41293953959731566,0.17254340404237542,-0.09579866106601775,0.3018642009512393,0.11456837170275147,0.39946909584463774,-0.3773624765588577,-0.3034838521527535,-0.02796348839732551,5.706866925810204,2.442164353387325,0.29440593832464523,0.46030330022462923,-0.020220351403007472,-0.015484987544618892,-0.01744663912603735,0.24812086598667127,-0.006924143965232809,0.5973557356909269,0.01846492682289896,-0.12136410336752756,-0.06789327483904968,0.02745888611705462,0.0035744020421250742,0.00029251024215000106,0.08256730187311087,0.10128756843770487,0.1076911107073761,-1.0609216328478712,-0.29841806908937696,-0.27891239863417,-0.14364658579704062,0.33428604580113086,0.34489669857353356,1.6154623346346424,-0.01621703625405483,-5.0571773988449,-1.680927977425988,0.1371972595112737,-0.0860759619635296,0.637805996962291,0.6040279377684838,0.8941099703844316,0.35789843658908144,-3.5327826800168225,-0.32054008930510247,-0.25736270236457565,-0.5622011245147212,3.98058606935359,0.6111696014404028,0.9535662931611424,-1.1643225950651572,-0.18621426290148693,-0.1674164308428668,0.030830779474691275,0.19341864878005824,0.49989009780534316,0.3881736980533335,-0.3883985351202322,-0.5913083416412234,-0.01065453251551267,0.04364346635660544,0.27298032465187405,0.06375748933558704,0.5091109111973026,0.06961133698641034,-0.19112648430110848,-0.06986567285593072,5.101618678177364,2.171168029597882,0.2872864981987037,0.17088732026855286,0.01929683859637458,0.5929942161140831,-0.003962278319481894,0.4110331323393279,-0.013063200753668484,0.32097829864545685,-0.022736489342212653,-0.06552856760029017,0.0966135953449615,0.26725328856069264,0.21505781611942326,-0.10529247879365819,0.0803000542340584,0.027083987597019986,-0.038482540533441065,0.7232214708171344,0.46705692976010416,0.9225387960233203,0.008634973144630569,-0.04640879309853902,-0.1746961711409714,-0.2280558334170321,-0.04890200293284475,0.4880738093510522,1.022546903042334,-2.380211426600694,0.8345856535350302,-0.6067405303272271,-0.7862631700124421,-2.2552970466398756,0.8574530479816798,3.484891859543699,-0.6479614043477954,-0.6642431789167083,-0.04059469359513016,-0.2835696661670721,-0.6436887763946555,-0.08968194140100678,-0.3114995556589506,0.40404162261449617,0.0017546817050595198,-0.15884010487828568,-0.04106742721647568,-0.0256523120151166,-0.4443957743750044,-0.4105651772271519,0.0651295677998028,0.5014099447409858,-0.06348854909338243,-0.07525038463406142,0.03649018140737897,0.1851598471667568,-0.16337182330425976,-0.06298695324243908,0.26254325067725837,3.4205385170349394,2.4236148943968647
-0.09280337086823826,-0.018452951841155262,-0.020327393438146123,0.0020995795258104705,-0.011770459342679276,-0.0002667868301180364,-0.03144370200424626,0.0029584262345926293,-0.010160304945711735,-0.011217094094355043,0.006311591675557005,-0.004355160336819503,-0.004804704289634883,0.01908163208123425,0.009996102512755563,0.00011846504276769348,-0.004631960855609578,0.0034533404734447644,0.014254831340383483,0.011423322734474562,-0.006670490490122563,0.004693876286651281,0.0024858744657519625,-0.0035038966661225107,-0.008800771735719103,0.003722524455651928,-0.01168854116764662,0.010627213236374515,0.016889703161906588,0.00822616817865265,0.014761465024271687,0.01710384497221424,0.016960204874412178,0.010926276738388694,-0.01344748383555831,0.014709235445614376,-0.006385884867081014,0.003171074893130684,-0.01833411437715804,0.01305503059910005,0.006127409285951778,0.010046132910530598,-0.013369740217672704,-0.0006607307418993187,-0.003205624554042013,0.012877640322658637,-0.0007520455413891469,0.007583690220867759,0.008786162851307342,0.006535938304606298,0.02220958468568803,0.012886135968112715,0.00845335650632981,0.013052813558171592,-0.0023602968094479223,-0.007927024735652276,0.03293002547390896,-0.0017064253012726782,-0.08421882986296338,-0.02221456298240407,-0.005425776745291499,0.0069970560879864824,-0.005607280481994698,-0.0007518695323780974,0.0068562748611644565,-0.0017557158215272355,-0.01293953427384434,-0.00025391412673080277,-0.0231718049566901,-0.006999809007267513,-0.01420056456002118,-0.008392141881321119,0.011861830360368409,-0.009640868881955486,-0.00675779763263099,-0.022777178091271177,0.020634373043450886,0.020038616264748357,0.010034104629181466,0.0001740013277411954,0.0008894842917411413,0.0009881573005840738,-0.008415687842054856,0.009729716210834034,-0.012518312205517418,-0.017245769508916094,-0.013390834000713817,0.009824438844548774,0.0021252660020714543,-0.029899746239133843,-0.026718320074399015,0.0066675865933219424,0.0074299808890514645,0.0032944297094143937,-0.0009858226159772348,0.010370924633078031,-0.004289287381965595,-0.04182777638929893,0.0035718107113435417,-0.007149839269514024,0.005160820528820924,-0.006474641635236072,-0.016260459918252375,-0.0019413915260669359,-0.03955732622275374,-0.003970590082083046,0.008055852910989116,0.01406609432426579,0.015398031783382417,-0.007673898972936514,-0.00021555231859220376,0.0013250264961214221,-0.01831700929953303,-0.011583068889553778,-0.006210693988211679,-0.011533090184351134,0.0006612038964791467,-0.06934534428453155,-0.022463288896689595,-0.007231812041240899,0.001560735361931968,-0.012898998500195243,-0.003363887445546362,0.016893865933169126,-0.012211363593560728,-0.010489445007629751,0.009835702049257215,0.012517961621830642,0.015624373416642315,-0.010201608005442881,-0.004408264153168868,0.001565899635721136,-0.00012854545979910383,-0.0062268695309833704,0.004469237105803943,0.007920434666175695,0.012952903589207256,0.007341365103119506,0.0020376694306954457,-0.002717246263108082,0.027738287031034516,0.014196795096949271,0.026084376751593284,-0.004918902061866154,0.037140975006552855,-0.010147612915763448,0.01296308748545315,0.04403130941925772,0.06553107129485017,0.05786357489636678,0.023828868365957556,0.033513491978927244,-0.06570666452251224,-0.007216486239485815,-0.0098176587803921,0.016531218925672653,-0.01712372873888321,0.010100319193475149,0.01506692905850493,0.01574545337111749,-0.0032834487973222525,-0.004086217960295131,0.003979212830301714,0.0005578163093110148,0.025586494521639355,-0.00031317456289193916,0.008845623190482004,-0.012863721667237364,-0.010746649551070301,-0.03141705930588936,0.024594276163060154,0.02063885849086731,-0.0010980288688277268,-0.011131119936240441,-0.000497052795251217,-0.005862218300668787,-0.10315381962251666,-0.01982082998165045,0.015288109591217756,0.0014418705739683143,0.003543206411552219,-0.0008955665358867879,0.016115291990373988,0.0013982916349679325,0.0024542997622592207,0.005455075906902091,0.004248910208712522,0.0021491917315431017,0.0224695959209535,-0.009166864765874083,-0.00533519949620211,0.007743987504865664,-0.019982414034676547,0.006265059729802861,0.026814905335394015,0.011995889685398527,0.030396726205373058,0.037865871079647825,0.010513585914442148,0.02291203319381719,-0.0059816165316651125,0.0040308284699365786,0.0010389201477929958,0.031161606918786715,0.02646627843626868,0.0617585625479075,0.08077593201602333,0.031272879557680607,0.004144617950142037,0.0662770529808811,0.03213070845146525,-0.025136543950902392,-0.00032460244976400323,0.07693635134352653,0.039096608797325044,-0.047066079539529036,-0.011133057564469457,0.0313296089066836,0.023235638940897023,-0.0007241015191437675,0.015206595069288759,0.0026180819424705976,0.0056482260718567195,-0.027121334114939947,0.017844858527403033,0.0010973622582002285,0.010844253277191646,0.0020845528315233596,0.0082999951295319,0.006635536273193297,-0.0008640655524634857,-0.004212177044997982,0.008948881185682937,0.023320832061139836,-0.012101490471858737,-0.14447355431502143,-0.00990012150219786,0.006587857860651094,-0.021703279626288402,-0.0026650986012404826,-0.0028614665133711572,-0.005293777076647358,-0.01519292402981309,-0.016235552048613936,-0.004961253926504311,0.005316762249551625,-0.0005681666536036282,0.006538930811614911,0.004048405830212122,-0.0005208818089745825,-0.007678632872322965,0.02156971526438383,0.00031548993205269567,0.003067771560409483,0.013573797242534547,0.012901265841740782,0.0029276627886608646,-0.01348190158910885,0.018557262693409852,-0.0006550195935237342,-0.019245378068049258,0.0011076504025875355,0.033106295104779346,-0.002203294716826331,0.03817983359489973,0.028547633406619814,0.02371113947455365,-0.01780082485717487,0.009866982831726965,0.03564598995668492,-0.027945523600981247,0.011752224738145418,0.008071419261297222,0.015101871091261957,-0.03264020406268479,0.00412363397649339,0.0014170130025430224,0.02627541035443835,0.0032504262871831855,0.001094927491212542,0.01260405172233122,-0.014801342968846477,-0.010431266307589806,-0.015532462048951022,-0.0010299755786742273,0.010474584068165283,-0.019721565610316922,0.0022127732192501626,0.0014210447064100687,0.001107043351081939,-0.00637244196652819,0.01643524900987375,-0.00645251750218247,0.0009018686596383705,-0.100378461938563,-0.016839379241113436,-0.0015724649888411422,-0.009106340840266397,0.001938689297126707,-0.008551585319446603,-0.013682252135425274,0.007712437723318541,0.014415884382196265,-0.0008463850173900257,-0.0048292080019456595,0.009538698842266487,0.009910030999886313,-0.004605803588863477,0.009055048985387112,-0.012532130565174068,0.0015468668487083526,0.007170966777657891,0.0017615558946485837,0.009055140553507977,-0.0029434112250369265,0.0034700618368382454,-0.014520259486764386,0.014668587672039959,-0.010942970649358499,0.014834692119202183,0.000128652943182956,0.024654301797187233,0.003604664290621473,0.08942121094898928,0.044309154129434945,0.0038450433973167544,-0.005148888334528754,0.0755615188658093,0.03885003652683268,-0.025194056638056486,0.029176359211233148,0.06986693709989089,0.019361551878624633,-0.019823681674189075,0.041673037124865246,0.05315687505242694,0.014270403640784607,-0.0024964514941815947,0.01981077537217126,-0.001091334690805106,0.007096485432352526,0.006758651907291726,0.023184877352387372,-0.0009638059386269738,0.0076271006780870565,-0.018546966296094612,0.016893556185481478,0.0022234201690462664,0.0033876573631166566,0.008306150233027877,0.013380276175367927,-0.005927598189537841,0.01846662736192532,-0.11624191818805989,0.011756140485764658
0.015431883523764442,0.007816320063140396,-0.0047352390829754265,0.004616374144969741,-0.010377888105817294,-0.011923000572095404,0.00816828315446859,0.015900719223488877,-0.002363439517107606,0.009988097352788319,0.008764788559775073,0.004690749176826792,-0.00990983436394141,0.013964537165382823,-5.063123394767416e-05,0.018281245110652745,-0.003989572223713484,0.006506684651948652,-0.006955432904631065,0.004947519535542689,0.0034062901003343755,-0.013750938485419431,0.011062800248386302,-0.0001685973240434867,-0.005149088683321844,-0.006536762191766742,0.0024840615130509278,0.014724478541215924,0.01062455165654373,0.015616808901663327,0.020817583259156,-0.0005523177617915153,0.028408121015854805,-0.0003628734416948818,-0.017006851372373278,0.013329639700869683,0.008327253915600378,0.0005813751161592329,0.010265064772083929,-0.005485979952424516,-0.004257105014192378,-0.014965706320881867,0.007235892802388535,-0.010921762981351429,-0.0013340505354968544,-0.008809353935998479,0.004867146993200036,-0.008670709365592841,-0.009911587520891937,0.012988827204428385,-0.004790280958773658,-0.0030340633083263623,-0.005508803314918304,-0.006600028702495787,0.005715012124533921,-0.004475346066862223,-0.009287654980474635,0.002770239774208569,-0.015856305927314206,0.016601008111504403,0.011960115943107592,-0.008786429459362801,0.0033826258319926317,0.004812228456319318,-0.004032397168548196,-0.003378333456698092,-0.011452538871272394,0.0007591441109386224,0.0011643808878466118,0.009122691538895528,-0.012382873065645266,0.006040370134177184,0.0030370530110490753,0.002503974560634457,-0.004176589798074167,0.007154809031213985,0.006716411216668858,-0.00022533478345489663,-9.385871904186913e-05,-0.0007757066851334205,0.002911573759900909,0.009051789985222165,-8.625531358680413e-05,-0.006872756813376918,0.003424355033371933,-0.005021383057407163,-0.0015701044024104855,0.01557166434622277,0.0009199853813455208,0.011927121663932604,0.014131012852555433,0.014411370483218345,-0.0005799420480705743,0.007889994211129861,-0.0013729121650112959,-0.010392660589257046,-0.001512914629250558,0.01961646817504402,0.002401423105145236,0.006381750330122473,0.009353879176392278,-0.011516689658836577,-0.022582177441056686,0.0049095579864881075,-0.013872310993621425,0.001249832296462723,0.0022243676852690764,0.006594321338180327,-0.0009455960366045812,-0.009113037016556007,-0.009082278942537853,0.0006483625845080761,0.009603394094396468,-0.011474144517985837,0.00699058743741177,0.01815554387818236,-0.0017597955554249866,0.016974069428084854,0.001954493584220366,0.01355329161589119,-0.0006109763625975722,-0.02198399120359791,0.022884800524953487,0.007713759321603304,-0.005765624216037967,-0.00041547874167359027,0.016755797657560998,0.006229114592195477,0.0071346442966932246,-0.014284967052844422,0.003652252077101766,-0.006538506201733117,-0.00295500587429747,-0.011186995358420113,-0.0030631755160529417,-0.012206755410184572,0.01757173687227423,-0.0025066256257895003,-0.020002919977266248,-0.0013432225619520958,0.010045792076491688,-0.0018606903214118781,-0.006804672074528473,-0.0017311280020587362,0.0016332359211914224,-0.002254481891049594,0.0012294913207877298,0.012163734917437575,0.010726707706332828,-0.005870474016330474,0.017332251835084734,-0.008031865140872578,0.00947021165690459,0.001293120427095771,0.004791422315243145,0.0036054905076587144,-0.01522776682046288,-0.01393724599542691,0.019230080259757698,-0.005306961858760819,0.003288742300193539,0.002275256144426461,0.010390193726062832,-0.0032930980514763843,0.0062973770434527725,-0.007039506888694434,0.013402473455119319,-0.014572526485411528,0.00723441764993531,-0.020076188032258652,0.012516946844925807,-0.007966120802777657,-0.0035085042869724865,-0.011942205845135704,-0.0004949230768460757,0.0011825546079231994,0.006994143788123768,0.025453115750456855,0.010191373804662394,0.01733337983833037,-0.01066509159252064,-0.005512968509328308,-0.014330168843080946,0.002230396101309218,-0.022889256837329938,0.011664246893672937,-0.0003912163303109947,-0.011267122877091532,-0.01084438654390442,-0.0031734851571540235,0.016123397243136352,0.0018696048268683014,-0.007633158716457907,0.01380745469047497,-0.020124244314379116,-0.003439221606668955,-0.0007595031091254493,2.6513693189973194e-05,-0.01263350761432254,-0.011508793897571952,0.0036635670835925304,0.011440443336377903,-0.020697493381873423,-0.011391196822727101,-0.009398535896554318,0.005800309434480573,-0.008526856356056564,0.002528048973369846,-0.001572895373458418,0.010224165694196213,0.015438017404480194,0.008780924736886391,-0.005903736964040076,0.002042914793804441,0.011403058448227612,0.0008663838732473423,0.0005045112340578237,0.015492855742488477,-0.0011780600731310254,0.002256695715266829,0.011067355490361317,0.02412452537312433,-0.004514968797710113,0.008584108213954205,0.010031997762426553,0.014078089221906563,-0.01221280168259356,0.005869153179290272,-0.003565266664865951,-0.015583001985799852,0.015786657613141325,0.005036209466417479,0.002189658907593148,0.0052239481599668375,-0.016226048737756144,0.0075806082794320235,-0.008425769490861193,0.018988304108898527,-0.004439733446689512,0.024181018282524152,0.0033443389341071125,-0.01699774429891189,-6.627160500426515e-05,0.005322990497412661,0.020202252991400993,0.0005446912804336619,-0.00813674350882208,0.02329571427525353,0.008826442507826283,0.007431608891227992,0.007705568257245526,0.010473564316925853,-0.011114147273153222,0.0029839953535925907,-0.018324006471998812,0.009501715808228133,0.011531690763374439,-0.004285657288908135,-0.003177445475647878,0.002556504989526752,-0.008860574565255925,-0.004636010913201918,-0.003331121993196015,-0.006268909013753418,0.000590044371640395,-0.013867817313464639,0.009062218618732342,-0.027588889764153638,0.017852321717832555,0.01243713149052155,-0.005188384960794771,0.006909959053775438,-0.014071249616565019,-0.002091370439642829,-0.0005893782421421032,0.004220364130827756,0.009641969649577236,0.01236931592160874,0.00016243234224712087,0.00451091784641697,0.009516356241499522,0.0058420090782557695,-0.008907365207319745,0.0186157549530093,0.003811333615121433,0.020668766144961527,0.004270745504431049,0.010781672777669452,0.0050886535118813666,-0.009479580932552599,-0.013791885775431731,-0.0005808997140067966,-0.00405030208454217,0.01639657096759568,-0.00292984032252374,-0.005200032040754638,-0.0026694797571435182,-0.022853611701351542,0.0039590265382757565,-0.017806777861295288,0.004808496145567302,0.023379596692288295,-0.0002290541791797454,0.009225711864406549,-0.0063329007582390035,-0.0026181127513885956,0.0015019345532177194,0.025281716019976194,-0.004662403774073842,-0.008335096512739918,-0.0023260154844361672,0.01371255396127264,-0.00765837257586279,0.014001875941160398,-0.0029622507277375877,0.0015286142395723094,-8.29410009783336e-05,-0.006191005699259614,-0.013286646306199388,-0.010524544948538756,0.018441480465106203,-0.00042109987275340413,-0.0016481232809621598,0.0018096385093932265,-0.005760481121949962,0.023922917511375905,-0.004725008695200414,-0.0037207372035982012,0.009698941696342715,0.005342085484779296,0.0009333405454253088,-0.004611151099764075,0.002496165351985076,0.007541579257647655,0.0023444727672215417,0.0007992238172258502,0.011969076258231619,-0.013940206092631174,0.011951192498846012,0.008163259724615636,-0.002405061216695543,-0.013667091255727301,-0.002080717927574822,0.008516602304631866,0.00470583491417124,-0.009163262282675208,-0.009736853536083771,0.007005477186746382,0.0006056300393626361,-0.0036625917822508463,0.0060339166999793725,0.024194060515886486,0.009159545077653122,0.0011239056162685092,-0.0012228909118074602

Wj
-0.2911984831853473,0.057951068716385404,0.005663436682987711,-0.0011814933417685228,0.0038705225391705506,0.1669224686987113,-2.516884951974425,0.019464837300326363,-0.00516342756436655
-0.0052579348332600345,0.0035054066132798895,-0.011032602168668658,0.006855170017656097,-0.0014412364408642622,-0.00017613644778209512,-0.06276266288527504,-0.015879365523950573,-0.001585056103294758
-0.2625904231732667,0.2637736049860913,-0.004858362669278348,-0.004422247098712067,-0.006957155041474443,0.6695349223106785,-3.3819177672125136,0.09162057101852995,0.010013702524904943
-0.0984810080173674,0.22323884836135044,0.005081592606226612,0.0028973569513667283,-0.012253727918733569,0.5797667187942176,-47.088259072014786,0.0733663732824206,-0.02552979995545177
-0.027925468719834413,-0.012266898561624693,0.026330874623676632,-0.0020623077728616447,0.011435536510997026,-0.0016584387249079218,-0.05967177788291577,-0.02292314708904531,-0.0032446132512822658
-0.1637830108502535,-0.03585982339199966,-0.004394233324439032,-0.019606885561483812,-0.02050037324165676,-0.029260754759464637,-0.4655212641856945,0.007084976640292267,-0.00940810126149353
-0.01239976413960078,-0.003839683249033674,0.014217551691122399,0.0008797300290646732,-0.0025934851953972804,0.007684291225943778,-0.05462023323442294,-0.0017274639887796342,0.0006904474761735108
-0.23722580071835841,0.24005345690262037,0.0005658468890168794,0.0031279045598375525,0.009523435331713981,0.6453895862217419,-3.093952437391062,0.07943555164765233,-0.0011629285952836851

Wk
-2.9191939899295076,1.8845239149834077,0.04550331922415019,3.267613619386572,1.518190853188147,0.0446851514057182,0.38464006628480507,0.018942547665177667,3.019294745894852
-4.330680533354948,3.1205671170038745,0.04738577432289797,3.5754797342040927,6.460598892738491,0.07631643024766518,0.5456329781550909,0.06103325784822865,3.3446581673476103
0.7560408794126428,4.141015045912779,0.018787087631054203,3.80360841381166,6.740495784552542,0.060658309835590014,0.4797098470117323,0.03185019892254654,3.626161124844133
-3.8886700158610354,1.907626499362486,0.013002515982036698,1.4898789956931047,-6.292379975603024,0.018490692472898987,0.07363700130893218,0.033443083834786204,1.3799827185388585
-13.724467723807862,-1.0980501512365717,0.018883365926189694,-0.9996868291496112,-2.6813089542220503,-0.01888218525946042,-0.10694898456889254,-0.01710927352734779,-1.0418822332275348
-2.5086739115177257,1.8437221065574751,0.0263516735008255,1.943410808301543,1.6926828333439479,0.05167132383046822,0.281551347588923,0.013583863385482812,1.8081974255758542
-3.6270767589776645,0.03362627171529155,0.009857896340637952,-0.0030717813238349896,2.8485167729879013,-0.0009460174711137032,0.04297103039379865,0.009367317273148138,-0.027904980541421837
-2.0184798456183097,2.3246629389861067,0.016199017394652796,2.057543288960748,1.0541269145917975,0.04974693093306335,0.3837527391801676,0.02636563514129118,1.9392979431175388

