Wi
-20.567145398814944,-2.9276674929290345,-2.0673736165986005,-0.06693162860960565,-0.19877182863683424,-0.0644265116519848,-1.7150667774135897,-0.028425798601210826,-2.5338644721230446,-0.01131093811370958,-0.2758167727553587,-0.4403204014183244,-0.3173103183012875,-0.347118993164894,-0.2922262035398387,-0.3761842264948627,-0.2916907738291232,-0.27117571102656496,3.6079887762504677,-3.1048972689533434,-1.1927592027287537,-0.901578441265687,-5.162773869416055,0.15655193157673628,-1.3274057848494023,-0.5068873372202343,-9.55118178888129,-6.9641026295148265,0.20070608787786023,-0.9842033809401202,0.3862650984259072,2.4834932358167,0.6616362520933783,5.800217478193195,1.783252624059752,0.9391548943743436,-5.790501080417743,1.2765126377360612,-3.507326899583872,1.9960516735399192,-1.8585829630025215,0.8436356100466388,-1.8857286409781988,-0.9430558285024592,-1.4900413530895806,-1.874574651836564,-1.648950502588618,-1.1400657706644208,-1.6533440690587975,-1.1206063677415738,0.9165247271604453,-0.2354037591325361,-4.341289648471004,-0.15212112631043442,-2.634764002179441,-0.23000577538283784,5.170534819512629,-0.19136660742496528,-14.581064568839928,-11.605750919414517,-4.418375560144244,-1.2153917775180785,0.10694779286527972,-1.4127549235589258,-0.020036134507033204,-2.411777125676324,-0.18883749526275015,-1.0227185105663168,-0.15142963447567745,0.039778497235362545,0.35939137609735117,-0.09170789528921462,-0.5045214910277003,-0.3631252142839372,-0.7782527391141025,-0.8025769006705662,-0.3628777497119475,1.9058214885919544,-0.38329886405085667,-0.7824582937055593,-0.9976031082594374,-2.9186068722200527,-4.027521583535017,-4.81746375675643,-0.5774095526265591,-4.71309250625393,-3.609660082053105,-7.663778460258433,-6.164927189860506,-6.654490624405252,-5.483896384887587,-4.414441640733533,-1.4505328402775193,-2.2703892142489703,-2.9364302874895603,-4.7900344889487325,-1.6474531352501058,-10.524891347589662,-2.404588240139922,-7.666465205085235,-1.8949972727773599,-1.2181126011834416,-2.027879850506834,-2.1091618520823303,-2.378513486569906,-3.8244257622452222,-2.9705880021470454,-1.4222495652271387,-1.2155995375616828,-0.3444458698146352,-0.5050573702261576,-0.9463866632529059,-1.2423284835047064,-2.320874577674573,0.08443575484388968,1.836039466139909,-0.07546815944370631,-12.774741822517369,-8.155241021278703,0.03194985280995511,-0.8041192287564121,-0.062309339970557584,0.16851901166578168,-0.008931502491874754,-0.4952515308427251,0.008953699152136257,-2.0165302775535894,-0.0021021331318517847,2.8863415187924293,2.0681629543634643,0.703364029451952,0.5433490389661016,-0.38470055449121515,-0.8083759774368924,-0.6167180735140644,1.2748687541551569,10.842297206653107,1.8812206133931135,1.6849875665608427,0.826300800728026,-2.488227104513807,-0.8493178669418306,0.17597640338302015,3.4240466682774353,-3.5145101073297913,-2.8103317886756347,-2.259188963146466,6.63989644734689,7.956028462763086,6.619537235353441,4.643281936184117,2.543426242116615,7.8139566529656586,0.2064875924938752,-4.71891475412463,2.3447529592082232,-9.653110276140211,0.5487138527772212,-1.002336232032266,2.8938108676088796,0.40767832769590256,-0.14373626421060498,-1.8955247897172829,-2.767460585519597,-0.5056401478869218,0.39998363763240724,4.226268981278363,4.6671032339844025,-0.16949028795704757,1.2231369820479077,-2.921743654771976,0.10789259369946015,-1.9737479962200808,2.1617091824082504,2.796301808637861,1.0094043308758625,-7.638253924552356,0.15246579732976598,0.048261930593624325,1.3302458302583868,0.38475318809442893,0.5604830899754452,0.13406893568981068,-0.6582723625605263,0.08042052207992298,-0.43321428569898834,-0.050055163190178185,3.729471687373561,2.1215047132690845,0.07465536136613808,1.5636453727643782,1.1698685741693204,0.4481474459693288,0.1316055246090601,0.6212657515829246,10.197978095148729,2.0733499903182273,-0.016552790368418786,2.917417679495564,4.807235788332123,-0.8477440166207346,-3.451114837537159,2.8804674035006492,-1.5832925837168486,2.3134738490323175,4.939913680547862,9.21659088453732,3.8675612000571022,2.213343267671469,3.379407672344945,2.746904182975298,3.2296975758990905,-0.39035270066811784,14.014388163382797,4.974640192827365,-11.42174500122437,-0.8122501061044322,1.907715691493259,4.304663946958765,0.20064143458232656,2.3011243199288547,1.136487809847923,0.8246457002456725,-2.2464518848728825,-1.382173693552118,4.764920235062035,3.7882727636547693,-0.15259957257873555,1.7223141809723097,-1.7606731113113605,0.0602547167906387,-4.184899794211106,2.6363855697874046,3.1235372591854893,1.0528822976525614,-9.275860263360205,3.90128656593215,0.050504431273076786,-1.7666614815843593,0.08020230813526036,0.6391022590932736,0.10259930904186756,-1.0566310414961453,0.03221468003963399,-1.6354454273858419,-0.017239752820898565,0.6919084409358307,0.7574513326772742,0.010848060449079166,0.002126273834378643,-0.64116838384515,-0.012769459370797705,0.09034702507930942,-0.37183889218817756,2.115565750619566,-0.8614023099582532,0.9442892051907316,2.0949428686852376,-2.166975201162819,0.34443170925053723,-2.2633652242528117,1.622931096792502,6.2021792651770165,-0.60815647151024,5.56914377017729,1.2595874476171671,-3.7361062847509547,2.9533709448610925,0.3287745139801674,0.21446402314778562,7.578904909039465,1.843808385550521,0.2728594378931373,0.9125203317951429,-8.988267905192227,0.5133071513077753,-6.523375740694928,3.3935962587121202,0.41386855653661575,0.6959116895922848,-0.19371053935184238,-1.0316456594154833,-1.19972765163603,-1.4666912162361754,-0.35497564162997675,1.9472605210533416,0.15822958166997136,-0.28615843031311505,-1.100987118312915,0.3645666688678624,-2.9668580768863615,-0.5894721751773188,-0.8779311553128044,1.4597631277530432,-5.346794755210999,-8.6250447941741,2.6594555155884048,2.0681714551436383,-0.13804433600078495,-1.644669960632554,0.10599954964104803,-0.05371298423204387,-0.042736609629520236,-1.2455652541092774,-0.06629598663518256,0.2272659113490206,-0.23185127182108278,-0.09080437662070011,0.11224373083764005,0.5181353427164124,-0.04489133002387226,0.02215808535712725,0.20818762971292298,1.046015590515841,-0.4586799247638291,-1.8599092764557934,1.4347267425354908,-0.10119655476854202,0.6849152702092337,-5.6628282469614,1.2250076501657454,4.738815013292019,2.844503531417998,8.716069597086824,-1.6800601009285614,3.053709538925743,0.43633449399223295,1.911674304956155,4.464186604783935,-2.165417013684878,1.5116975452971193,1.7667745205404286,1.1587757969363015,-3.4367275748252557,-1.332352069447599,3.8983299036254717,5.860788583637288,-1.0212224998754984,1.501670194172389,1.0768483072489128,-0.2833676897016962,-1.5778253634378858,-0.6475914476075841,3.7069077125746386,1.8619514197869407,-0.5148338377166204,2.1093088520487564,0.44092739160406086,0.521422552032009,-2.271311297710391,1.4263124373038119,0.6122627154604025,0.14558273451416295,-7.828547751469584,-1.7942108277555524
-13.34952588932245,-3.1282885517993333,-1.8570337297444017,-0.08880495530874886,-0.13628603776488338,-0.09566218878413445,-1.4894286631894342,-0.027986254899919127,-2.251034346748017,-0.027768997763128217,-0.36201674609803675,-0.5674775473404816,-0.42553228774364077,-0.40643604216257323,-0.2986404167132213,-0.3339229403953278,-0.3028105704192356,-0.33693251785010314,3.928983392598727,-3.609001579049244,-2.693414748878546,-0.8727907968345089,-3.523944951521453,0.08729256455664315,-0.21821882370197807,-0.6632995659901192,-9.827242608273806,-8.274932239812639,-0.9392888400523591,-0.6997597081618026,1.2606470049683578,3.5092889305320716,1.4860174321107864,6.12458728317756,-0.9868846878101439,0.26596525856393544,-6.557826251829026,1.3177321831389561,-0.38996501681430285,2.2245700915159623,-1.8045051543077097,0.8995872295727516,-2.334721034983594,-1.139592888288579,-0.8800881332833237,-1.4263180371143371,-1.1941919904098086,-0.9789484048926552,-1.7613600371575087,-1.1506965166610654,0.4638798826533926,-0.36635139537675615,-2.673597942372965,-0.19118913176073346,-1.4114869128823884,-0.4259542126471249,5.596809157156868,-0.23820021911167158,-5.409392348831409,-11.312607747186107,-4.496694817135434,-1.4030896500933154,0.09857645258333626,-1.2560421459449531,-0.02354354049520523,-2.429892755769464,-0.18162175901773736,-0.5616103783281576,-0.1564554327401161,-0.07698912399114637,0.309334065268658,-0.14384188373041287,-0.5603218821900421,-0.27911442303932504,-0.7307230184298842,-0.6445731587950754,-0.4730408658346759,2.349034657349402,-0.07993150947087227,-1.281505097207818,-1.140467683004259,-1.7630826301667244,-4.5560365447076165,-3.4127893585056475,-0.5567067290720505,-3.479290129754139,-3.854190084239104,-8.466748582483506,-6.059257089672878,-8.508732501642683,-4.74495937472864,-4.956773436868474,-2.559900328786548,-1.0569317438038743,-3.0573412373255486,-6.583468693327878,-1.5696399207614113,-8.268143243573599,-2.2825338453623982,-7.687087968903797,-1.4442552520636593,-1.1094154782384182,-2.182359097905231,-1.8582234951067542,-2.3303691339163892,-3.0962555250243624,-2.3532236528020536,-1.3086939763815977,-1.042625773713298,-0.4837158020546364,-0.48158001695158253,-0.002101699564369994,-1.179288747556694,-1.0878519050762194,0.07278106169834722,2.091021491639822,-0.0793650828615329,-4.858214896204345,-7.468976405439539,0.6578080111905459,0.38752487123065815,0.0301761208286465,-0.32147695330344445,0.056527135313482406,-0.17749185242529517,0.026216327168971505,-2.118192275024278,0.022242706450881854,3.3453645207121214,2.3539251709393945,0.6702372639209837,0.740282813791669,-0.03018268600386908,-0.7330996775965519,-0.6240547609417794,1.5120682964015641,13.769767299666114,2.6612046561097453,2.3346645763502334,1.269537410979636,0.8262002033046939,-0.282388600605022,1.208053218561409,3.6941428595903347,0.966721716090618,-3.179830803682133,-1.07441482785137,8.554799285901224,12.99572112142117,11.01994859482857,5.416317983697584,2.8092592914011303,9.245838182744489,-0.3800319884320223,-3.6238622620438514,4.083089910233894,-6.871854576937764,1.0760633808517783,1.4438703362452507,4.870526010026823,0.37738911468261427,0.6787552855600426,-0.35632898647324374,-1.4957674146978972,-0.32696834521421986,0.8316637553969155,5.500480203326531,4.870802326380138,0.03217550139627283,1.6559289006375089,-2.7829936303810148,-0.2441332799762839,-1.675054222736846,2.6851174394797845,2.922733054735394,1.028194082160439,-1.9392742669554743,2.5584675050291508,0.45637957743038804,1.6604039084242164,0.4009170573346586,-0.10303682255222486,0.15103433858349444,-0.9076411529594178,0.0954460208921195,-0.78313073585877,-0.05062349659784208,4.0686393289305975,2.182708075751503,-0.15980342104730547,1.3502013500298682,0.8479809760985443,0.4289595382302702,0.5044677021227841,0.8177173606019811,11.646363139127176,2.7071848183456,-1.2507545049310493,1.8908882484345015,4.2753932517069275,-0.5492767555039566,-2.300080508967624,2.9140921481011275,1.8949266806922787,6.43769966722667,1.0298632467519615,5.177999212091937,3.2098063082754793,3.4870987934697144,1.7521744624830007,3.291397342348631,4.253258015602862,-1.4448124747677782,11.324388155374379,4.464872590851454,-6.64287691448498,-0.09853338391026578,2.8033238839500925,5.966761127814508,-0.04347965364415035,1.5501639448209048,1.231316415410905,0.8910459109445107,-1.4103040990341769,-0.8177699442870863,5.490529719325643,4.577154832625368,-0.7288699221031173,1.7600978656417299,-1.7928095370622439,0.0359313257336539,-3.838255017399706,2.939940266453156,2.9597203170801305,0.6445493625550021,-0.36518250201455027,3.092887492018139,0.727765469173073,-1.2888377302833467,0.11052567754620701,1.0136149827008425,0.06742178090264175,-0.6217179186023168,0.051498893261342014,-1.5643365126730975,-0.015076472699457062,0.8190603534969811,0.8551983519927704,0.30150800554925555,0.1894609829893927,-0.2093446120704699,0.15497030159999264,0.03131628251839658,-0.15824076361980446,4.305994967882792,0.6568377429567821,2.6413671403800434,2.2037773769892968,-1.8456885234694622,0.20242670085992143,-3.902405870984038,0.9383234088490899,13.747557479094667,6.042470869588163,5.288521742770441,0.18635548542056052,-4.509707105808117,1.9000986491957925,-1.2156688788972696,-0.4219008922561018,16.642240093609573,2.579240399260596,1.4057624849635395,1.7444824773953997,-8.903419712238808,0.3554441561102879,-7.761718874569198,5.016322265072004,1.2618166694329316,1.2329695955975963,0.21744787441410984,-0.29590200484832746,-1.260548342508076,-1.162471227590874,0.7996226921454586,3.777177528870906,0.58225835959353,0.1680612842788863,-0.6073343544074414,0.5290520376487641,-2.944027411029833,-0.22357554766114685,0.3021719328762496,1.534876079029397,0.615227157075437,-5.761057207607753,2.647973371935762,2.7058129051081443,-0.07373852512109283,-2.0416768616223355,0.06235988889674629,-0.13268006880021846,-0.04773537001499815,-1.3300355083561048,-0.0698558269662241,0.3130690117065456,-0.04188477511971085,-0.24813190797174967,0.17271348865845473,0.3576559648884595,0.0736433447214108,-0.08783794841356324,0.04196980513856497,1.0154748527714275,0.06673856858322717,-4.054375341311664,0.9083436661420524,-0.26637041697938735,0.9383722126531706,-6.314838373336902,0.85223162748651,6.066560781912214,0.8810208597933987,7.577012975951211,-3.995640580250139,2.773253849746523,1.6004144452250753,-0.3799898629836677,3.86823625574939,-1.700897641806934,0.41782385818488654,0.12164842875914965,1.3032185566015266,-0.008626426054679486,-1.455247717008086,1.6817807735608374,6.772320708950772,-1.599140872833463,0.7518393832318775,1.4134083935038455,0.12589412867753952,-1.4152731520772133,-0.6473823944589912,4.0007734797918255,2.5360584408696822,-0.8486963652863495,2.0181474381954927,0.7299278585813151,0.5849184446233946,-2.310652717488929,1.3988416181390952,0.43597225377439647,0.12841839150606052,3.5340906402411507,-2.499752348702711
-18.111253539711026,-3.9959658936844376,-3.0725335152932485,-0.1077780044963377,-1.090612220561106,-0.11161877013377727,-3.023957914427616,-0.05086651708132484,-2.531163219196087,-0.03552058022680797,-0.4328812974962726,-0.6444166394989947,-0.5066006603031338,-0.5430598160695651,-0.32042028464659394,-0.406984784818219,-0.40260453129186047,-0.3128110823655542,5.925438289510481,-4.554944114094111,-1.9222046891011706,-1.229885823702875,-5.06508621043133,0.44519555400800853,0.20648037763555577,-0.7974630660196128,-12.892989173989768,-9.15228584848233,0.7432984136398355,-0.8862463441213075,1.6238605443860252,5.7182398889989745,1.6985558781289118,8.45169979330366,-1.8711324348805982,1.2105974224397729,-8.81156758886588,2.4279318192531187,0.9072800360786968,3.027305206061615,-1.666154837581454,1.9902798049478265,-2.437804488532288,-1.0777981381090453,-1.084869191811845,-1.7640063219308268,-1.3253326555153153,-0.9254296571172467,-1.6635420956684184,-1.4124894450786327,1.264565193417574,-0.3729821140515716,-3.97991316246744,-0.2900374813612906,-1.871972602480863,-0.39280927499555096,5.158340174934303,-0.22158415292261796,-9.039238516701579,-16.60119992689191,-5.871215838228779,-2.151701881332334,0.1470016237742407,-1.8632250862133635,-0.04303816356081797,-3.6871765779446006,-0.2688607073418016,-1.3377047514808975,-0.22210437885057627,0.021727755883737272,0.43894187488600145,-0.22369306226562646,-0.7879130900578951,-0.462473357800872,-1.079965608920741,-0.858719186375794,-0.5832299149969673,2.3110717479096294,-0.1767796787890805,-2.785592479804722,-1.5931487990823352,-4.0305010401975,-6.221718072418645,-4.435275620760598,-0.6901220866875032,-4.456828222243919,-4.594765300103631,-10.958520295880957,-8.692572352371164,-9.748315277454877,-6.533215867859539,-5.627146828235814,-2.7224875071545003,-1.2925883708283714,-3.8546719986516687,-6.582510580775364,-1.7160078553350342,-14.671805827893813,-2.265892597311369,-9.042857269624092,-1.7852259014143357,-1.396150327359755,-2.883964641824087,-2.8284942976781107,-3.1884242114888974,-4.228254259432203,-3.3911534841168343,-1.7688262411273419,-1.2844809235257846,-0.9951213089148615,-0.7352361791387466,-1.3815179699743452,-1.6471330171409833,-1.9201263556845674,0.12709823066558967,2.7380807292377316,-0.18753500930440006,-7.555233953042286,-11.442907268301035,1.7318885109228115,1.1414856520191894,0.11958854103580314,-0.05728611475963581,0.08664789447568656,0.5771700718286231,0.06654915473637107,-1.8178183156366055,-0.004024080815414536,4.406331424250359,3.2626057802107225,1.1251176192912593,1.2733915871929173,0.1990135920535837,-0.7375535878713254,-0.31632217682864533,2.07284462240393,18.84242958222276,4.463761824219156,4.6579686440140495,1.943979561070785,2.423184018277877,0.04448746201013312,2.131224744227793,4.961382763859079,3.23860413560482,0.2389409152306335,-11.075932142584506,12.81663511477839,20.675320541211615,15.526357545482202,3.4372754205836706,-0.09343406644163979,13.05553372508634,-7.659217621137926,-4.76176735323354,6.3044975141462425,-7.791458160998867,1.860193955657806,-7.7271253089478815,5.413265557755643,0.6083583098301594,0.9884729856975093,-0.052622942084284724,-1.4499308741321437,-0.2640347989451404,1.1482666974798712,6.057473291339505,6.8622643789549596,0.5030828104430678,2.581112646866289,-3.352760778674768,0.10675246431441376,-1.9316640056418963,3.847535744768376,3.3378151936973257,1.6182983995959688,5.630530121173851,5.848663710888879,-2.174205694120447,2.0431997100764816,0.5364694661127325,0.707379230430725,0.20503115877489583,-0.5366308435777113,0.13785584470658824,-0.6227166715740471,-0.06478720119861127,5.505457514387144,2.8558097953275023,0.08590676922897648,2.22232122346562,1.5391370789520111,0.9512390152920172,0.7550867981672958,1.0882537346665366,15.25095300195581,3.4739606208974094,0.9209145928539825,4.411988589878162,7.539636835415403,-0.06874585404423418,-1.8153605175839547,4.205043034889904,1.4832795950628372,8.052714088096705,8.491444210579717,8.302112598023466,4.798921101594798,4.483091003728752,4.496414284299343,3.6144062692176044,6.165321190373409,0.19580912939552272,19.884030378585418,5.193984557889725,-13.863663842552223,-0.3672448627542151,4.988439923288414,7.98036257984573,0.8757400954747749,3.5031504023231803,2.0201102257817527,-0.6589373583280035,-3.1136647187156017,-0.9772907245579239,7.394881453878669,6.166258839267875,-0.055648834476120734,2.8022566432401708,-1.7883064326004805,0.2044525407336956,-4.950395714842545,4.073352380018108,4.220107140727385,1.300119105766141,-4.544974240535781,3.7407360269342926,0.263138917148158,-0.9457592967251871,0.19331798531996375,0.19778933132752613,0.12467710676036485,-1.0282823663059437,0.06847302049664972,-1.9169620407064518,-0.005898220690727731,1.4441096287410282,1.3789656781612305,-1.3418748442133388,0.47829938455353105,-0.8063948645924565,0.3132437196469393,0.3747464100111338,0.14635135787786235,5.58417908418752,-0.622522985498062,-0.752971741069372,2.759514132880067,-0.7619650062406794,0.9292834796952443,-5.274091142354176,2.4606586276284568,18.73301704156207,4.702078538127083,1.5883362076392347,1.0469744503954115,-2.5865560786285706,4.5252829074799195,0.22975110141888486,1.5502511969651742,16.123987069802762,0.39528108567379566,0.12669989812813465,2.9809380634237495,-12.424730626050016,0.222332201170117,-9.312326769735822,7.451201232824834,-1.5228451720680212,1.3750793176299323,0.6182124220565499,-0.7922574939646633,-1.5426504261870098,-2.1322259755433244,1.5044344264198797,4.563715193420237,1.0403991938249992,0.7243469987374128,-0.8504237557118962,0.6572790176237094,-4.083648962117488,0.05979559375128362,0.2675693615340104,2.1948320080462795,10.767161083102994,-11.193163392771867,4.132595904371965,4.046477616458838,-0.07762307124427774,-2.928876510935767,0.17395653708462733,0.7078206757628007,-0.039839975983926516,-1.489369993274574,-0.07895911014206189,0.723040110558036,0.06971685624566387,-1.5197024236922914,0.5342107538179599,0.7212965728311556,0.20213435809844038,0.007585200777554683,0.40688224769687203,3.321538350259934,-1.232699221494012,-7.2407100087004626,1.9105784664984573,1.3707053343889406,1.5513941334314887,-6.359040092358086,1.7643609720015752,10.436037913555698,2.634057531875624,8.430854757143031,-2.9936419399037364,6.414204736159807,3.2233543803459193,4.290343212556402,6.362718811682213,-5.814857524084482,0.4228089562009199,-0.341443428896997,2.877190882324609,1.3395871050501769,-0.7915472355507678,7.432070850095176,9.657382966813547,-1.371268198049973,1.7725221005126863,2.556679123697844,0.5941807209328464,-1.3466643111108367,-0.03451101556556095,5.881801365580329,2.715787113407864,-0.9865374601751378,3.343112455543793,1.1388323270731973,0.7992674173325212,-2.5151074497643418,2.264175194762836,0.7846284245269534,-0.11793762288483023,1.2735485796178432,0.18230473794750907
-6.051197322650816,-1.2638431205428646,-0.7929067401048884,-0.035966907137930194,0.053261849656976265,-0.04517877256474282,-0.6811315756339326,-0.0335894528735261,-0.9247957588521236,-0.008496940095350982,-0.1670575362361188,-0.2405951086774834,-0.14477278074782113,-0.17166074324733835,-0.11380522420744571,-0.1734494672371903,-0.13921977506524097,-0.1441575821298447,1.6912097443646452,-1.4999990504209368,-0.6648845262105494,-0.40966082209960253,-1.7087263057125548,-0.07555332000297713,-0.35554379323002394,-0.27639193435571524,-4.441455347378373,-3.546758500360873,0.041577954070906496,-0.32318656375493576,0.32195603036921,0.8213030879598757,0.5169336378451983,2.4311437574385883,0.6442163909014773,0.30064142647891834,-2.4499497131978165,0.5112615677130362,-1.0388119452646771,0.8547217353169465,-1.274330583288227,0.23357284354638216,-0.8372185047338992,-0.35527181829035787,-0.4128051753505358,-0.6235865730571066,-0.6906929505959787,-0.5225988276772331,-0.7531354662054207,-0.41122312512346143,0.499979170013696,-0.15880385816836687,-1.3366525011148576,-0.169468077305749,-0.8108569621346383,-0.14469483819931944,2.415286469453978,-0.0861294255438972,-2.611479629811378,-4.5808019795671395,-2.0295064182256675,-0.7290097037849792,0.05835981944033908,-0.5830861050885551,0.0011735433042933507,-1.0412660464738832,-0.07138572412423043,-0.32664325218448614,-0.06639790438920559,-0.01889318783384847,0.09709506140032753,-0.07292006306982743,-0.2530850621959268,-0.14432149808402486,-0.36685708731244465,-0.336575547906504,-0.22627801393315355,0.9723976149928129,-0.03589335078008633,-0.5241305892935048,-0.4881892231573563,-1.0327535874361544,-1.8039093789447946,-1.816950245049353,-0.27511159695460424,-1.3632812396264322,-1.524302514465388,-3.568953108566882,-2.688536318072694,-3.345973013382071,-2.666918576164653,-2.30070318969358,-0.944835728541879,-0.43427887483686967,-1.2557165889975905,-2.5587563241073665,-0.7110152058952472,-3.6912097202693444,-1.1085973731408996,-3.1946043105064907,-0.5517711898734496,-0.45161648706836865,-0.9150216670121026,-0.8777808557842124,-0.97556378848572,-1.4049410891453402,-1.1836507604512934,-0.5615849398894732,-0.45193907983250625,-0.1969734753199974,-0.1916081873265113,-0.13760345723987452,-0.5026653565221849,-0.6739113791892569,-0.04299891762140061,0.856028413334971,-0.0870214140353197,-2.7135023547613053,-3.529494962635158,0.5003588221395534,0.19852183469189716,0.043008764135895064,0.021843128150346534,0.02950389570037732,0.09043775583472052,0.012898775077738189,-0.6574939626380382,-0.008300189221832227,1.3479213177163576,0.977333232201352,0.29558569675894003,0.3192867327012845,-0.07475293917312391,-0.284154501242244,-0.12232638524126989,0.6135685628158518,5.422409925598732,1.220913547542452,0.7459416372100809,0.24261334324392614,0.02420670304681471,-0.2878460770435722,0.030478976669162973,1.3089120580756741,0.5141566598188255,-1.516091946929317,-1.4193796872883986,2.7175986261212497,4.605744682614576,2.9156929515200543,1.4171837170977828,0.3118427707134559,5.165097843127336,-0.08385270806163972,-2.2038862584256984,1.7339724598638315,-2.7336425692234143,0.2753786320894447,-0.6879188101760652,1.9092269244748215,0.26934023239428395,0.3446213978704392,-0.19357872379376428,-0.6054936901302398,-0.20526916391378963,0.2408780284438959,2.2508447792154347,2.0521836001651703,0.02549810332144905,0.7370795141932442,-1.1357975997289442,-0.017963671966124754,-0.6680351136745172,1.1450906543977013,1.2038829814725434,0.42046867921406444,0.11494676748607759,1.551469630769378,0.24726864048705974,0.8182977684728237,0.181392513572894,-0.04104634177825708,0.02212845364989934,-0.2529881811822184,0.05247949020152302,-0.4104595909554281,-0.010386526797395908,1.6806748284074293,0.8384406205543088,-0.048481043820092024,0.5807752581430021,0.39983815511069354,0.26290804507780946,0.14854439620209905,0.28474493911569404,4.485543052202593,0.8826738175305543,-0.541427472119546,1.049390219380699,1.80161886842584,-0.13664633658925743,-1.1149476856427547,1.1598458697834664,-0.04848287042272706,1.2191503799360668,1.0092330034629542,2.535273830961292,1.5297210441107627,1.8301703971931271,0.6224560232572209,0.5841005125962043,1.3721289373144367,-0.41464210974956983,4.976418342661017,2.0800044286393438,-3.0440178593280045,0.036814610183735746,0.6879076564067798,2.348900376469121,0.0591739970470328,0.7686852943412356,0.4861159471112309,0.2693545305593606,-0.7381503082917604,-0.5235999127404908,2.2524077264622058,1.8604823377522022,-0.23637459608545552,0.8188273837813921,-0.7477693017227012,-0.05214652320879187,-1.7163572110315994,1.250419157924014,1.2055330846006904,0.2754060816481514,-0.5776557515546654,1.7499582186702665,0.3848848811159294,-0.5375591729573997,0.043582169591864416,0.4212698478881244,0.033158220619252804,-0.2935006901902609,0.023737296722012812,-0.7261571106269543,0.0056399018513928955,0.2879820287586941,0.3489460783980287,0.0687940613921768,0.01842170798805416,-0.08984155554286433,0.06990599110235374,0.06576824313611672,-0.07858398652511975,1.2095309986474498,0.16667074061933435,0.6371672047789987,0.6366807797189026,-0.9717085102231517,0.06835691916025344,-1.8955089813597423,0.5134552551630015,4.898277926302486,2.1992926840968434,2.1401995945010084,-0.5554047692850714,-2.2149065184104804,-0.18586560554111967,-0.6529064681450397,-0.8345771661127228,6.455475569209227,0.9070518052222336,-0.23113786463135974,0.458572245354985,-3.543832359623939,0.0049623792245762,-3.155914673324643,1.734687826990014,0.45541023639596834,0.35801464582180725,-0.02153016561177064,-0.15308214791780808,-0.5960006140217913,-0.6586957501633885,0.14945433223815094,1.4233297331838006,0.06856300617408455,0.15277193357217617,-0.2844858888789806,0.19453866769373937,-1.2843765433759158,-0.09814754338782461,-0.02099555480827466,0.6457993672088577,0.5048020894883912,-2.3875501141559825,1.2378546989271886,1.1555900330997506,-0.01351452853407124,-0.7724661666873398,0.02701518555799356,0.10227979885120649,-0.02627615525619362,-0.5681277467452667,-0.034528751300105756,0.17143548874171077,-0.027099270870639687,-0.09565974509003589,0.08759781448731592,0.15228587483310863,0.04227321113740737,-0.03756830621458814,0.04356543643180972,0.3937541957894728,-0.05543212099035219,-1.2047052982477502,0.47178981271967,-0.08106470145486218,0.369701723482294,-2.525271441453552,0.38016243230218894,2.3945411718002183,0.36234773983423263,2.8443422470070074,-1.719594573388316,1.3493932604257612,0.4914141632388116,-0.06142567908566689,1.021810966584583,-0.6071767565421764,0.4473002941503726,0.1660395115875149,0.5346071984718798,-0.09482290541881448,-0.6897781736729827,0.9747978764393543,2.668780168140215,-0.5717912375900526,0.47272666499900073,0.6208718458531299,0.033849568966849215,-0.5764967018500876,-0.29892749903529925,1.6074493593625894,1.0065734654106167,-0.2697465783015206,0.927529258612552,0.2903833332359015,0.23208187215576664,-0.9362907189708521,0.6601990832688658,0.17320078824534282,0.019267871086560244,0.6433760246648375,-0.5185280756438786
-0.08543617321050455,-0.016947998755919288,-0.022272907817408344,0.0013210041212414552,0.012658102057787633,0.020866944459380175,-0.000532667343597625,0.009237165806697504,-0.013489456600767337,0.009305351247102628,-0.008341707852667553,0.005014804626064046,0.0006007283065703151,0.006503978280562146,0.02180897743871405,0.01525176092320166,-0.0009505393890324696,-0.01677650506535838,0.010702160505586611,-0.02827960435852257,-0.0005832876951463958,0.009902319220559442,-0.018906385549676004,0.016639739250999593,0.0015894540726184795,-0.008454250977027027,-0.061600892814709436,-0.03381252160160037,0.003003211918842179,0.008850907307484383,0.020169440973236072,0.018233328782367927,0.008875196646758976,0.009606671658774919,0.04747533101037164,-0.007949564534970472,-0.017767923363365846,0.0032105252103813023,-0.011435072654618844,-0.0015170816178763028,-0.03211782657166967,0.004852478472119257,-0.0026284063692055045,0.005897000226102025,-0.016450711667002453,0.0029255092416325653,-0.006735587709963294,-0.002006992491171494,-0.004046964199747719,-0.028525204325050648,-0.004647361180002172,0.004218118932868633,-0.015880391588927057,-0.01580876497518757,-0.016495981875228247,0.007618820814900145,0.03404573294164225,0.005935023967394586,-0.0652210620797343,-0.01766345387962966,-0.011326569668839423,-0.012260776152074021,-0.01055459618104705,0.005341283768495681,-0.01587413320484215,-0.008057168239256224,0.005862282278488159,-0.01649952668697086,-0.013610491106875535,0.005272682632702418,0.025092047883527868,-0.0038900997342211914,0.0007031364885665748,-0.00016025566267695502,0.003058982920727554,-0.0030675724828954525,0.011929117666759772,0.022659832339523067,-0.019569067708882896,0.0015445414039351602,-0.010473063545434985,0.00038022523474686305,-0.006947966909623006,-0.016521774530612175,3.1200787929161884e-05,-0.013227729283137488,-0.005826645210684286,-0.03661319106922278,-0.01979298458022185,-0.015976357081094253,-0.024136493510244442,-0.023575265454435924,-0.0018998954196975887,-0.012069121314142148,-0.012319711441195931,-0.008697283982060171,-0.01991763388318878,-0.06188148821468666,-0.010179308858104315,-0.015830461775062667,-0.005022096801056166,-0.015073326309476873,0.004250045931543719,-0.0007228631385315535,0.0004576764270754813,-0.00857935403704663,-0.016249521614111247,-0.014807289755950893,-0.011426695427478697,-0.014512180705104384,0.008014564127161575,0.00512559465313691,-0.006743880453747955,-0.009675776313083598,-0.004135952134379946,0.005591999672440814,-0.004749163800944556,-0.040024829103626945,-0.020318171146347173,0.023850053410157376,0.0075092837296197295,0.018493013806254628,-0.012653336828585061,0.010960966223805449,-0.00047214394851601487,0.004218815881275433,0.0050733031664358455,-0.008192568375920967,0.016395499246320663,-0.0010969276137165304,0.004695317882166635,0.005909657226306311,-0.009560514821804533,0.008360974646988614,0.0024959525309707726,0.024899751202468956,0.07608854209213739,0.00047097840068370636,0.017884004656806937,0.00741391879220656,-0.018230015583036132,-0.007121775163309569,-0.015249085058294184,0.002112149641979932,-0.022457317708113246,0.016928936236600016,-0.00030898583244036253,0.020289063485927645,-0.00942785332143145,0.03371173870537993,0.01548643311512245,0.018799220943981898,0.07176445942930701,0.009370313924803201,-0.029641219856806254,0.006383256422403114,-0.029158311222925594,0.009925125252850229,-0.041742719219173254,0.023657172037057295,0.015562816106848114,-0.008997223957823522,-0.005948309172184004,-0.0011659144026252843,0.006078328324100444,0.007112560981559659,0.04347598142327847,0.01608093592416295,0.00836924292813867,0.01475048290276406,-0.012136617404625771,0.014437831036068086,-0.027660470140412195,0.02073479011281463,0.020926699996341537,0.0036257619599348438,-0.031135153270430663,0.06729866237998652,0.015965143857897678,0.006277377439318401,-0.007556455441377213,0.00804937002750588,0.012947099981112764,0.004424760476928157,0.008488863887728956,-0.01880873405196461,0.016572768790669403,0.023493440111858072,0.009439410125747887,-0.008989086005365786,0.006904001190137931,0.0024275529257107168,-0.006555872725987647,0.003183435870322538,0.004422628955889399,0.041455713341224276,0.00039074411607217005,-0.02954373473256581,0.00917747060816063,0.023120753908611912,-0.004682976844149358,-0.005137830380740394,0.022984531006200223,-0.011989604073954689,-0.04897519943723529,0.010116694870320695,0.07818608360307051,0.024126519987810176,0.02326368057557646,0.026997736774602422,0.026031556122698654,0.011978205393828502,-0.011169324825595075,0.05579344628530567,0.050748605930784035,-0.08216434490448134,0.0033579837164666513,-0.004048935653937497,0.026648749246990542,-0.006101533148217624,0.005692765864739658,0.018622108064902717,0.0058238064405227614,-0.0023295555045348636,-0.009473821105200937,0.011886567260624968,0.04064085276786025,-0.00748869908925519,0.0061090220646121815,-0.0001581838409822024,0.0064494922722937815,-0.024070153529295247,0.007995695258462929,0.024573826872654147,0.011690944318457377,-0.02224982399372997,0.07429714464317128,0.022185177393551015,0.011049047565721072,0.02112341116401599,0.02453532698210287,0.00024490383473863226,-0.014517606099187001,-0.009694067914585814,-0.005372260936041544,-0.003701709188434884,-0.004369054939898485,-0.011523970317807811,-0.013802053789643685,0.016022204234770923,0.006649085668693151,0.014557491463631975,0.037234727051329575,0.01548631324337411,0.02058134893783909,-0.007938149480423984,0.014303710333285355,0.009887836918116105,0.005929996361244621,0.016902010965042208,0.0010644492735173083,-0.006500351078884984,0.02446357257812954,0.029186908304652332,0.03246125373015329,0.031038694341002555,-0.007743353800114763,0.02462526696735672,0.009132722569837088,0.017700194302059637,0.04798031005750656,0.01388652449716546,-0.006989056396556209,0.0037424320616020637,-0.02179516386629434,0.028701397228557045,-0.038268289870415945,0.027768623848839796,0.013823883182650399,0.016819907824921557,0.0031140596810060863,0.013282830156090638,0.0006527763132032812,0.00209988111559373,0.010462305099795982,0.006964354909151268,-0.013522517907511276,0.018072235626928532,-0.010329003173694867,0.002179620799306133,-0.014534328029180203,-0.0034284246181555547,-0.005134367228471904,0.016185457744753533,-0.04479031911761269,-0.004771185906512874,0.020610833826372212,0.02434199459256365,-0.011573996837463742,0.004356758944949343,-0.0039090200631889975,-0.0005516161924824354,-0.0024545438829922106,0.009443522597954475,0.019277718922219255,-0.008485788348866848,-0.0005795408775171821,0.024302256415121883,0.012657251080477161,0.004537140535805222,0.0009263836341078241,-0.0011645207812200381,0.002432093033862646,0.017580981219607533,0.003420095303771448,-0.015478859536777755,0.009671428975981586,-0.003934788487019639,0.0011083102560907152,-0.03572837326595707,-0.00763279430595475,0.04508030069783167,0.03210357603493163,0.05133474582009649,-0.017917136291671566,0.002573023741480334,-0.00632221276050668,0.00585057751628301,0.01759016044914378,0.0054323388391665775,0.005126235945571226,-0.020594458800385018,0.00985673335567723,-0.046231003422503344,-0.011396835875673092,0.00939781772161855,0.028451887972044707,0.0004942094130928716,0.004549056927292353,0.002460276847529579,-0.00816558286003167,0.003205728722015578,0.00994665871256042,0.029219655407790958,0.018757381383237775,-0.0171141892633059,0.02257052090458892,-0.012776350106434445,0.0011626102945378274,-0.008985094526474953,-0.008241399341905804,0.004650553636088146,-0.014672630615441395,-0.025033255290430108,0.017043700916823216
-0.15600371463529988,2.015218811982059,1.8054767555166171,0.07972681769466679,0.2717727788654709,0.10779827457980966,1.079734928673244,0.03924674748052935,0.9626859572594676,0.03284072210592476,0.4375053173861429,0.5612989383374081,0.41683070625706775,0.4944119786838413,0.2137230517695737,0.17660691552057742,0.24325910179900267,0.2460526166557812,0.07257784742210997,2.981165502142869,3.2874338321872414,0.2766480861116711,0.8068924974606158,-0.5185690981524239,-0.525614190651401,0.379832669819641,6.066916764238648,6.363596432734665,-0.6324219257725152,-0.8461384991504813,-2.6911799998969914,-4.577119267315588,-2.59296311379326,-3.9680885096590393,4.112405201705493,0.40476873875206326,-0.9148930572551891,-1.0337432856443305,-5.712182783190935,-1.9135874949856944,-0.4624229783198956,-0.5297983927536577,1.6592826874291888,0.8560070274758603,-0.013619072343069052,0.2460494928987856,0.2164671438165997,0.15967713525514377,1.2999616305572854,1.1456280946939967,-0.5782903347365287,0.49572275643479113,0.2597700952446729,0.07616820859563082,0.0919126595642954,0.6311023709344759,-2.349270251166834,0.30858720579445664,-3.0824747222265994,7.4141263418577354,4.0273055324681275,1.7932883274235043,-0.05830141533509362,0.7435139427237799,0.023298233888252008,2.3034190113301416,0.11767917345011004,-0.8498645526705644,0.10232672013392173,0.21084882066353502,-0.005448065631857058,0.2424203532237306,0.454210289109532,0.06626972323018533,0.2830599294293685,0.0559562518208285,0.25665042691027457,0.4847195443680584,0.31733262301133586,1.2522398531623116,0.3471631460589718,-0.5992523480802369,3.5468281291688655,-0.28111939656038304,0.3778055176886777,4.7296830739035975,3.9466914659140953,5.315347202399711,1.3030967302401661,7.647540395859002,3.2183357114965503,1.7483613749985387,2.789409723814084,-0.6057128203477976,2.5742634997984064,1.7614329529294435,1.0957996539499366,-3.821380168155519,0.8453716615254615,3.9804286998001652,2.083185186774047,0.8177145118381642,1.4815764763586108,0.8188495793249263,0.7823124961872389,0.3575251996103936,1.0258037137883445,1.2878914589299495,0.9855060838327698,0.20057666930253598,0.39462169629831,-2.2552528999140966,0.44338230447393717,-1.570475393925621,0.2309409242119965,-0.4250716688191012,0.12600113951689432,-1.8904191448462977,5.4387442926100045,1.8938035003127172,0.4383264118731145,-0.008963620222817676,0.30612504106430716,0.016613820986479462,0.7013696415013538,-0.017786349037261333,1.1367318210030772,0.01510916907462338,-1.65922375074793,-1.1474970973276977,-0.21494700745449108,-0.2840959768735797,0.041582120387468606,0.2911141660004368,0.2011677079505357,-0.6518189031455821,-8.207632411428175,-2.288456938023269,-2.97888334628144,-1.0045164062742824,-1.4855547755585976,-0.7488868365250897,-1.105996422574762,-2.253035231450929,-3.3249529569219303,-3.6153061951703007,-0.833249818147598,-4.458504538444075,-12.469440717394185,-10.732444883560124,-3.555862001415482,-2.1913246344701007,-14.115150495975648,0.5956283154149851,1.5641932128515443,-1.9257136236598662,4.671803214952848,-0.503726743030505,-1.2620595612205598,-1.2612588265322455,-0.33512649670173417,-0.30429760324778143,0.3768699586990889,1.144472382434457,1.0602879100137153,0.14159812961405635,-2.565537390984605,-2.247385464687919,-0.45537039061176915,-0.8407653284795349,2.0066727644646116,-0.004676313062362057,1.747419780879065,-1.2166929707285101,-1.7015116060520779,-0.6139712895940341,-2.8820469848265264,2.375143573875179,2.0119737663625283,0.18514900587935212,-0.14264124249227744,0.4838891777818608,-0.1196217011351483,1.2736545120023364,-0.010778488855237715,0.194015928381989,0.09697264819095018,-1.7851321006870917,-0.589201033139276,0.07542573144528095,-0.8634058049779677,-0.6105367467974192,-0.41962061545468027,-0.30106297102577173,-0.27984902979613163,-3.5921956619936406,-1.6473746781219023,-1.5973143266869836,-1.2056732613080923,-3.8607188018946945,-0.758057020509839,-1.16728543280199,-1.1069588342332202,-0.3480578350097999,-9.467852040995213,-1.6052035222033236,-0.5316285973741648,-3.476026865538851,-8.389464860616744,0.4734031709412234,0.47941907415691337,-2.0356258539029004,-0.23505879802495253,-6.239338185460962,-2.5215819267100072,-13.5226499980184,-0.6882185243115978,0.31480362114208194,-1.2632046462535917,-0.32129179572754824,-1.0419393615578563,-1.1967346236135796,-0.6080777131581225,0.16037665249519076,0.10486128443785608,-2.0894060530341276,-1.2960121010739634,0.29674941767407936,-0.6684110068288819,-0.13349194189532287,0.23253747379271467,1.1406741401741192,-1.1969119325695339,-0.5013936808648347,-0.2615479839880523,-3.3348521701013403,2.1580491964387787,0.06224005485853156,0.7386067932593198,-0.04689158628345049,-0.3917502096108179,-0.0372916860726068,-0.07358991774342286,-0.017049710792737836,1.0531067679429547,0.04143555297765945,-0.1889057558984701,-0.2252712959648127,-0.14301878827571107,0.20409071567956868,0.49479308134088534,0.4243513811048494,0.3734320358831761,0.4229418138089185,-1.066258292640465,-0.5983085072958536,-2.203081538271181,-1.4233831933462187,2.0812175943336038,1.1316727848218497,3.466449201760947,-0.9531614658340083,-3.74584751867051,-5.175934644116394,-5.210117284953032,-1.0880480747340724,5.51957933201961,2.350503527562794,0.4455865869550197,-0.8106745561561265,-12.138278604652115,-1.733670673744644,-3.459065992316213,0.31639775283167487,7.254053121298278,0.33512015966858233,2.1911236563037257,-1.1740790824110334,-0.923147122860138,-0.9700976145556637,0.1577759308623941,0.07813900600861531,0.6350488359706916,0.6243055215462834,-0.3833867888570799,-1.6173891729963117,-0.8994402598191656,0.03198902804077666,-0.5677672234717042,-0.17612034688544193,1.0853932877517773,0.08293839628926379,-0.37912926926348883,-0.8191757603550008,-8.200783837683579,2.351207191437588,-0.8529062370324518,-1.655156366292685,0.03346236348341629,1.327845375385237,0.012586678444263408,-0.777440074642201,0.05182965382485716,0.6660137684163258,0.07362266287454364,0.26488526768485765,0.260525091521091,0.5013806114956847,0.28012192222018584,-0.03513867631273852,-0.14427756352830803,0.1674166548069752,0.08084529338712568,4.329430907308328,0.9279804273572413,1.5984128979409857,-0.6498978207699331,-0.7244989513663226,-1.22645382078904,2.164307546134862,-0.08302244703088771,3.3938843288370046,2.5351078741881614,-3.4907067316632086,2.9432863918291035,-1.7571280918367536,-3.3259043594262296,1.389270256334046,0.3858995189599096,2.466833116080619,-0.44043496269610194,-1.4322097689831756,-0.6892386358762476,-11.821936936857352,0.8096742192958933,-0.954316070301117,-0.8474015330467498,0.7673788818414597,-0.6927924562409401,-1.7719970105727576,-1.0778676607804232,-0.36084924076615105,-0.24790196898023187,-1.3994064043165426,-0.2331272982751938,-0.865081891925152,-1.3324434481158793,-1.567832829424761,-0.2629215876787919,0.3819812538097015,-0.6574079420461734,0.4860489145183034,0.26451096551802006,-10.185610809437474,-0.963513999240082
-1.970082053442085,-0.455820180583575,-0.3802136589958301,-0.0244338940536487,-0.07544254400196525,-0.018992223212589282,-0.25434717565736537,-0.03620056382243721,-0.2790200792541297,0.00037413191588637226,-0.07087940033134392,-0.1090418239139408,-0.08187593852888701,-0.08523508608149008,-0.045323130127789615,-0.048399820913655356,-0.0530128782781613,-0.04722021932948273,0.12284657424876681,-0.701497446063595,-0.697080743355346,-0.0852678350107516,-0.3933899613773462,0.0928773785812451,0.025726398070533528,-0.09945250707121564,-1.5600166863729445,-1.5133838222349663,0.10000847660409826,-0.061489659018942135,0.4001509419719621,0.9551891872261031,0.37689562286488604,0.8292976941118801,-1.0573828204228612,-0.031517841323020886,-0.3853999789841503,0.189973271630496,0.8093040283423636,0.40709649284772476,-0.14779001866129257,0.11333257320598993,-0.40521009868754143,-0.19212874461422935,-0.0555875313944759,-0.15190981377040141,-0.12231316601046992,-0.058523332436823165,-0.2973591487760816,-0.2508222933061741,0.05542888297056573,-0.0909913901464145,-0.19653454979442592,-0.029060668283818616,-0.11281732885636454,-0.13336139590028045,0.5673778127115551,-0.06593306338085557,-0.9225140244732305,-1.8470604163030044,-0.8433641445534631,-0.352672883488768,0.006825399375724558,-0.18719314608465806,-0.020762597311674815,-0.48235325924155326,-0.011038586562059501,0.08561577198218454,-0.015771787377615164,-0.02920722516294604,0.023436415177112858,-0.060629506987344275,-0.11176806267510135,-0.02883854711197947,-0.10238205580267999,-0.04818470441825739,-0.07559575899320387,0.055378211134235064,-0.044635615307225325,-0.2524801162646439,-0.12128271866102276,-0.13994365940277406,-0.8195757525460349,-0.17344858631770202,-0.09292184658449729,-0.8613688038737166,-0.749203649202314,-1.243268577772048,-0.6562021272068007,-1.702856741890027,-0.8768930242758879,-0.5601273441319432,-0.5757073392121407,-0.0036875408105222973,-0.5273981055668185,-0.7835005378054524,-0.2942729477955245,-0.3587906253883688,-0.2830711660434118,-1.0654966163785635,-0.3732898605536003,-0.1807198409673548,-0.3273007547041512,-0.2869728774367326,-0.3050541847856985,-0.2739623658062795,-0.3008999824731932,-0.24382705217715472,-0.2171644760896847,-0.05574465230265644,-0.07314895413512323,0.2557877123294594,-0.133530672046258,0.13395955418895247,-0.018215818294435374,0.18608572402571355,-0.029292815161267256,-0.987719209663837,-1.3064308733888024,-0.2795909870054706,-0.09843253972688683,-0.0067388200961555735,-0.09007264068893538,0.012548495627291068,-0.19238294153334443,0.020947390646747024,-0.28755777129977417,-0.00605978830032433,0.4103806806229148,0.27745466930972895,0.06119670370273065,0.09159895330984974,-0.004469720076092359,-0.08978512667056993,-0.05151736213986789,0.15934101618523525,1.7979853139172417,0.42071965415505513,0.47010104575809897,0.2077866488861673,0.181954656498756,0.04736107432671523,0.0809112446969318,0.47634442730032334,0.24676354673925627,0.25902796546272744,-0.10270375797090678,0.9237143289802339,2.3955818267374274,2.0597520652612005,0.6083382319486563,0.23833364314909689,2.1815203221205817,-0.13776060700037465,-0.547920698132469,0.4536336461469186,-1.2391004404064974,0.09962375675974212,0.07369674572968626,0.38890241672934867,0.016934109850651316,0.04242141546658764,-0.0747968872838135,-0.2644913959063055,-0.18354809596357669,-0.0020272970956110034,0.6095661922332094,0.5274887509432906,0.015187222139512102,0.19391131532627806,-0.4940193778689466,-0.05653540929759835,-0.378816023356237,0.289552560112327,0.345745529186097,0.11708734833198223,-0.624184408752987,-0.5103378371217588,-0.3104173743427851,0.008526980956331701,0.05707363977171418,-0.05822943730294017,0.03704945026705108,-0.2639117939249812,0.021503706484444544,-0.10332568528727176,-0.025905898235407916,0.45309590413858297,0.1808583297704302,-0.020239686587036457,0.1980653570204214,0.1296277504679164,0.08954092051500093,0.06298747398831922,0.06560742154777541,1.1151453370187794,0.3875630801844185,0.17332363248861377,0.2888602547003455,0.8062367144772619,0.013884971031156153,0.030666658475613933,0.27239821345864235,0.11058785885105976,1.7388985967109818,0.3306767873138707,0.3252007179248214,0.6210653746185533,1.2957686766290832,0.11823646938501589,0.005764706281091023,0.34950761828148597,-0.018016266122383835,1.637307209607981,0.6366576321781716,1.2576822377183605,0.11084479901185822,0.03483402111328449,0.5142190321478893,0.05467539000082674,0.2162590539953957,0.2643083201324637,0.10799837478507297,-0.14555295337660837,-0.05159987261130591,0.5736451047552054,0.4389191463907715,-0.08267058210761119,0.18830163371337164,-0.07930168746169641,-0.04453395647037949,-0.3894277928711042,0.3328852585935594,0.2123042155558854,0.061539111439761,-0.6010218116094005,-0.3178400958679609,0.013959915080267334,-0.24048224558124373,0.007430537928462368,0.0954547974184208,0.025113023329673047,-0.07605315647123424,-0.015087131267397197,-0.2581395215364889,-0.0007913163259261532,0.06482339820996076,0.06014134025747049,0.026688832058402678,-0.028530947315908967,-0.09037176055249828,-0.059108085059016095,-0.07447672318530066,-0.064967162069898,0.29131255347040647,0.12158431285836965,0.3551878308303309,0.3565323664956469,-0.40457914757036517,-0.17113958152233885,-0.7963305150609047,0.19725897111879376,1.1714096205837188,0.9246064683396147,0.8811575212960949,0.12274716271780138,-1.1139846408084473,-0.4105530001440172,-0.24463376674187526,0.1123907781173188,2.267973814226651,0.3307667798625212,0.3889187435631315,0.07504011867403416,-1.9589900083897247,-0.07803551270807972,-0.8958036812890084,0.39118268013818425,0.15393418366831496,0.14674678759350343,-0.024913898950521294,-0.07498343910188615,-0.18050528985089317,-0.21059070666492802,0.05312802246083057,0.37763415599417993,0.04997509706884273,-0.015410764689708912,-0.005330430530718294,0.03312661610569584,-0.3689942796951067,-0.06477636067673655,-0.016418505944783005,0.18077530575256415,0.3650321166300932,-0.9307529877781652,0.2475756909715578,0.3364403055800875,-0.01714518134532282,-0.3249174427992587,-0.008607011729600534,0.05536398281200728,-0.01700514092524306,-0.18758084349600201,-0.004663598588077725,-0.016357716456882745,-0.04389113570486703,-0.10093765263482112,-0.03570824182464244,0.018090741706151377,0.027115389453045577,-0.03666124509327309,-0.017622123794534143,-0.5499727946408188,-0.15420344703595976,-0.515659167366411,0.14331035893053817,0.07207115748024041,0.20266652414106917,-0.6457486185961658,0.0497983823783471,-0.25972028943903264,-0.4975005012821755,1.0756604360857742,-0.643532223999218,0.3932069897298722,0.5072837544569284,-0.17059308673371568,0.3219327392452713,-0.8379979649955185,0.06044679088145655,0.2828002606915692,0.16360238353666218,1.4818658434915128,-0.16017765100456605,0.32541973885831604,0.5521820609641355,-0.25165486189393216,0.1163522904788899,0.3295218475819672,0.15079295543398458,-0.05986137554128098,-0.0010224309358666838,0.39926855908784503,0.16173530575197204,0.0374448902040704,0.3002242231589446,0.23395330133606693,0.05726491465966827,-0.21992741316155087,0.16456056453364418,-0.0680829369417712,-0.038443982243858574,0.5239017275582255,-0.22287057279072162
-0.007679885565208595,0.0025746041926054293,-0.006943424830735773,-0.021900623827102526,0.0024561310215762103,0.00247712143250951,0.0011250979993983141,-0.010342041491058161,0.007866842768846584,0.0026018259383522872,0.001895730693895529,0.004342734682759009,-0.0010752363141207164,-0.0057539280000738794,-0.01246813023002704,0.00896536505278288,0.006037468170330883,0.004123271397944203,-0.011559249082265263,0.0028148665380406993,-0.017775304296073782,0.011811791952491414,0.0028154025993903597,-0.0010140125324944677,-0.008199099240451577,-0.0006920268810371136,0.015298551971100442,0.015393458102271796,-0.013703164512651397,-0.01129144582086368,-0.0008410162863759892,-0.00782267263251475,0.014979735918571458,0.009580773457558778,-0.01064442154661266,0.0023532080990902576,0.021847390935481426,-0.00468700199656005,-0.00838757707169715,-0.0049306138530305355,-0.012581183590134217,0.0020386025867897674,0.016618191300530327,0.009296844530592464,-0.0019588878888075873,-0.003613737520204639,0.007638354082435501,-0.009955324556780092,-0.001541786859797492,-0.010630092056269065,-0.016044338619717522,-0.01610643792679832,0.012636562406256921,0.005877434419544001,0.007699238913025121,0.008036903095520121,-0.017796710560528214,-0.0006719269405074938,-0.006993033458591965,-0.008517330824262358,0.011979666187583731,0.005359925813213525,-0.005277392243236278,0.016659883643505173,0.00011350026627492941,0.005773957878963544,-0.003757886293780389,0.0189880801353663,-0.01359676869793812,0.002231917414469289,-0.007155700712037187,0.005052472883118108,-0.0032124520695165915,0.01478822144567936,-0.0009842900494722263,-0.02110260671604925,-0.004208889803177657,-0.01638971296888342,-0.00920327818214432,0.018098265713297246,0.002489999304514095,-0.008101519519882349,-0.0035398575282882512,0.015155208746324832,-0.010003563812233255,-0.012166087765190162,0.011502278011433846,0.02503478349218002,0.019012720705376907,0.015847245185078344,0.008358160370168285,-0.00584102133176074,-0.015156487088149725,-0.002308097784347492,0.012341144009750943,0.004287870405359971,0.004230554136097049,0.014990340372512095,0.011863206165083564,0.007305178609983911,-0.014861837998709009,0.008635564488622446,-0.012759199575455103,0.02011173681403501,0.012628664828070754,-0.009260006761432137,0.0008571223873870907,-0.005599295480759365,-0.03178994949803591,-0.00024795164584408985,0.009096072643660132,-0.004540409539402085,0.007817817584409942,0.006043613566956312,-0.006886410257711392,0.0053832391298085334,0.0011624501509672669,-0.018807568258626988,0.004410627085311248,-0.031946115989988894,-0.012510964428276738,0.0011492037724069653,0.005865576823623173,0.012484482855833767,-0.007542710775816006,-0.008463088290107416,-0.006523502744829519,-0.002477557117247199,-0.005718946037013096,0.006589132842511526,-0.0020997400680569252,-0.0009291193949269906,-0.007598114468205455,0.016477788453778158,0.008841207702892439,-0.020177521589080892,-0.0013131980705110753,0.004264564222381655,-0.0026967566735197354,-0.01760532067931764,0.0077998740665241005,0.020187077040213726,0.014072929917111104,-0.0065402835006711435,0.0003989511425146181,-0.01020137251536198,-0.004624204436498807,-0.023115673721666428,-0.005887100905388562,-0.01852752452652764,-0.011753697679240675,0.010561557035487277,-0.020063457202596474,5.605809548293601e-05,0.0007899340860929745,-0.005482079323376053,0.009708267363720912,-0.007543502590300416,0.021855849850879853,-0.030484468349323317,-0.003991767307084833,-0.0014231905166482062,0.00729803795820741,0.011621041991821438,-0.020824542417042725,0.00017394344140037068,-0.023320561090524772,-0.009887552806672978,-0.0007863916714233275,-0.009785905642184818,0.0033820534796178392,0.01285964913165679,0.008247108802030164,-0.001217676596901706,0.006348059177235288,0.00012540802254300775,-0.02334246778858563,-0.015040720234987247,-0.020865948445169268,-0.015206209959056461,0.0063105565956919725,0.0032562868575081783,-0.002248493004266799,-0.01262093443615237,-0.00936652178613144,-0.005917022678016018,-0.0057118604608390865,0.0013038703541009547,-0.008650819019833283,0.0031847668240497654,-0.0028901109196684594,0.00028754230999877937,-0.005333000824101687,0.01379182456213862,-0.006066810471132541,-0.023645177204370014,-0.0064036790287546235,0.0020600837698422684,-0.028487020525442764,0.01791191672316108,-0.01395672866748156,0.018404035927618266,-0.017614757619366313,0.002024286552628091,0.008740024889692735,0.002292860646003104,-0.03171806281015292,-0.00820052117720988,-0.009893677450845876,-0.0009045546390766978,-0.0321932154951796,-0.014232471015232395,0.014174423999755352,-0.010989802852957439,-0.008087204893969562,0.03955900836132481,0.004423059513519442,-0.0004201701495284859,-0.008060423198517129,0.006716128213196051,-0.010468647145225557,-0.014688888823500407,-0.012126008974298741,0.02178815818493821,-0.006737587015371685,-0.012335317020602124,-0.02161320225500001,0.003224780977207977,-0.010486907833309607,0.012794581349492717,0.0006291413284923583,0.017421224250592875,-0.025920788548903874,-0.01580105281320287,-0.0036311582387779442,-0.04359564585286001,-0.019642456374033217,-0.012589990242047936,0.0005672466374691565,0.0013337525645976012,-0.005140920018442904,0.006105583360331498,0.003943011600016882,0.004393834232989603,0.0028447552039197917,6.974385581577265e-05,-0.007456726105246911,0.002093703914783612,-0.004400996300588354,0.0062083719017975375,-0.011749368129607026,0.004258238439235624,0.005403271858356487,-0.01831192394952223,-0.015389636467712747,-0.010675044344286698,-0.01803750933649775,0.004067796583674038,-0.02806574499881214,-0.014530646600277617,0.00831454070357121,0.028171256682301443,-0.0245574049148257,-0.019621291756684284,-0.005294591422255267,-0.015243295470555366,-0.008724381028318974,-0.03504191681338103,-0.01689549629699997,-0.0019603116925867767,-0.026834072071004716,-0.015046926604088075,-0.010293111789740019,-0.0010908308646425651,0.021724499027364993,0.001076703458718979,0.026084595382735026,-0.01157417847749237,0.012022345049306186,0.0008596243268019144,-0.007818705991786079,0.013426048411097749,-0.008064113915856926,-0.0001898653541271019,-0.016479618263245382,0.004364600536914918,0.014339951711376796,-0.01141757613589544,0.0021242642949249936,-0.018750090220881147,0.0075354188966561386,-0.0031238078269559297,0.00433332843108471,0.007794038678467967,-0.016488094902983867,-0.002149221167546973,-0.04024695524523222,-0.0013841386834204448,-0.0022181719110191873,-0.0047751637063185,-0.0007976255807721834,-0.022933753895766303,0.008267601603102146,0.010586371449922654,-0.0034854866936438592,-0.006216223929057821,-0.019901323637486215,0.0028743852883026506,-0.00963923135054762,0.0029783321598250184,-0.0022937733536092983,0.0014212776592305184,-0.006967363592448933,-0.026284155452950306,0.016642527606531714,0.021267425957101602,-0.0173144473784387,0.0035865738985753786,0.011755689666031093,0.027152648764270603,0.0010111944409566525,-0.03563372677142142,-0.007150309531728874,-0.004452737750099315,-0.00751376023485097,0.014927475830338394,-0.0015474121424712934,-0.001752366803496654,-0.006640903694709991,-0.023129605867301378,-0.01325110377193171,-0.004651034149657421,-0.008756736169152545,0.02171171749512865,0.009827913736031405,-0.0027439020571826114,-0.01871567984253161,-0.003368841482933887,-0.0019035387570249791,-0.009284032080720893,0.007106220708241778,0.01800372615690454,0.004928770800022515,-0.026507316671674237,-0.0246769658038962,-0.009471728256252171,-0.0023722121661485453,-0.009089167005891944,-0.007066941284555522,0.0104462170846415,-0.0071849626291275665,-0.010106859772646514,-0.00837393402871591,-0.009881560441672026,-0.015336222390700984

Wj
-0.007745450598011304,0.05523144267602076,0.031882688263654625,0.05787365095414989,-0.013320970439863954,-0.011080520289436804,0.026419527443200887,0.026128126224056115,0.00826699700363544
-10.337734787152456,-13.643169423600396,-23.015035111994695,-26.47599682617603,-9.256945825629353,-0.02422963703499718,41.403078501411684,-7.027609995549107,-0.02158506193226521
-8.06937773982072,-2.375611211006579,-3.065911819496144,-4.924859454912238,-2.1632004254897392,-0.02848956977736071,7.0339541166732715,-0.9047719329996586,0.024091845787318794
15.1845380749813,26.5513794741958,30.171829616587356,42.45223650185575,13.667396489534545,0.2107701592954911,-14.809729052021595,2.8230238342649026,-0.09798100506844522
0.788482283067342,1.623759164284707,1.6480776837209732,2.5259204329723985,0.7693610556663518,0.0016865849829032068,-0.41429655199782506,0.1732508576022402,-0.011522661865087916
7.914122815354745,17.098910365333197,16.878623928781966,22.983316278646097,7.134428389173443,0.1504911767497997,-4.8877499744838,2.223273959932288,-0.059034396777262896
11.868913597802921,23.658181208311824,23.273133311546104,33.42385284581132,10.352521358843415,0.1795448285218669,-7.311523310564679,1.4894067682122232,-0.09089656544285775
-6.923060760897224,-1.1797272657145688,-2.8884761700602155,-3.6623713809303893,-1.9980878940582882,-0.03977611463969456,5.8185640323266785,-0.5257010980469483,0.027831554291373902

Wk
-4.003683912291978,-0.007388677226691703,-14.805097914276068,-2.0890017983872777,-3.6245157075635737,-0.36632251278810574,-0.7677328028750441,-3.033283570132648,-1.2123480962658075
-22.260917276616592,-0.024376356702963595,-8.204295488410022,-2.098074319478059,-31.124791454402693,-1.805686588954936,-18.506231875951045,-25.765165421156283,-1.6472696965991815
2.659712906656411,0.04953322737839416,-15.56662658715232,-5.231586745343416,37.783552874938636,1.903684457003057,22.535186686595917,30.726747707251878,-4.9731630125852595
-5.591204615782473,-0.045916547638880305,-21.67336872469454,-3.4296166813922784,-6.394207406006169,-0.4117065805034868,-5.4444700729514,-7.526818776551997,-3.258904991878772
-19.265681765061185,-0.019481069783341236,-6.635210615533516,4.116648388090115,-26.466462425400646,-1.5909515706197268,-15.532051548910765,-21.401688149610663,4.112130066959804
-4.110789027297414,-0.00705659927259404,-5.5436706346490805,-0.30974287470855083,-7.143256502869761,-0.25156456989540316,-4.028648622962836,-5.800717185882181,-0.18322908398336188
-16.4875840680367,-0.05765155311713143,-2.6338977230852763,4.425715948469412,-38.07405179439339,-2.081449674862619,-22.441117582615934,-31.01574855598597,4.0885665920369245
-1.304195751090273,0.027619109667870404,-0.4265261703587627,2.541415921675047,-2.570166714596657,0.23475112356289912,1.4421528582338408,0.7200818404366524,2.5115467098134157

