Wi
28.12988707518699,-0.5552196163626473,-1.075362051741908,0.3095673866845057,2.7227039877992114,0.15524491376212463,0.431388025528477,0.19592382078748274,2.8277373040737865,0.19153071269959832,0.9458092948499953,0.43820851601252886,0.45752925108778647,0.5560476630315588,0.4062424230174591,1.065301970175943,1.1937803652631989,0.4123216648997265,6.5148664489787835,4.096478928887594,-1.1792781261147938,0.8930667948175667,3.142758659998783,0.26109391803071613,3.04785123534522,0.7403370546075658,-10.328187210919575,-9.34678786549112,-13.689163893288846,-11.720392578231092,-16.742562970305507,-22.294055422279417,-14.001415942884679,-11.766687566858604,8.81960076389772,-11.628420710431769,-6.332796765526044,-8.242340458933011,-12.695218695154363,-11.194500341667814,-1.5312655953561685,-5.809061952227498,-0.24540413147010448,-1.1466997332806819,-0.9550686707938729,-0.9217923987135122,0.29771719553425324,-0.2113530071135906,0.9364295146100896,3.625516138591676,2.798696852062177,1.2783543715542225,0.29029138927683257,1.3208380005517812,1.6860465716701414,0.9291758223631621,5.177204863223365,2.1464075523398236,22.8579943342126,15.956357875931406,4.1041215616499835,-0.7339928103727597,0.14440344235022662,0.925004361909842,0.07413514394356355,-1.4275478367520253,-0.0008059523166652471,0.6241605196633399,0.04512243942604837,0.10884012547705045,0.2358009314396871,0.38892239522522626,-0.15182427731568077,-0.1953512730300589,-0.941987722177286,-0.7883069217421552,0.15619454412368866,5.135636370288732,1.9755999076888906,2.5753211190366514,-0.5591401509066819,-11.705233473872132,-0.44110561443588736,-6.997485604101902,0.17280032723915287,8.927601325216749,7.841425330668722,-1.3840815894022778,-4.886632456910873,-7.591025669018509,0.05720376165364212,-0.748805924089593,5.609573667080728,9.47280174856166,1.6495136703750053,-4.145081835209345,-5.51275446624276,-15.167131104420688,-4.153327341741258,5.2682166107689286,2.7855260984855192,1.2097152593830791,-0.32927094081654584,-3.625748289761921,-5.866536492350138,-4.234636862634769,-2.5253407283832363,1.0064403432157227,1.091597622126319,1.917690670340724,0.48593252835412015,-5.314867055278496,0.8838578394170399,-2.2783040165745083,0.3024482420962177,2.2943934616455133,0.852039827492276,22.80528618767887,1.8800086269199408,1.5309427432959242,-0.524976359261803,0.10424085376147987,3.117905950800738,0.11776859069096154,0.20823960885139772,-0.20117567447560822,4.652840107987641,0.21105333226974674,0.2921819102333856,0.5196380460996937,0.293878089045748,0.18736986052202279,-0.8787257979747682,0.011226433882780404,0.9453971249168204,0.19140879656488605,1.1464126267070287,-1.505950126445574,-1.4690878586820368,-3.259070345618972,-0.6053990352669592,-1.999012898931228,-0.9501153496557516,-3.315946172492246,-6.182901327573306,-11.017659304484704,-4.756637090773201,-3.259578922194033,-19.926800750275387,-22.52638193818846,-5.167868803525598,-3.254921811051509,21.25943653737471,2.339273287120245,9.978548388390653,-0.3334416078293979,9.333818750799253,-1.1253612960591939,9.12265035886358,2.867404527482508,4.226373485891707,2.8707966766067314,2.1743454409883536,2.392804660155588,3.01897177296235,2.5612612612621763,2.514195171254141,3.405756137800716,4.587866221311196,-1.88784048371801,3.14318221025692,0.737349543984597,2.790658974549673,-2.8848113942910594,4.575354408796609,0.3861822132000606,19.215462744265274,8.593011758727297,-2.3298198521207794,-1.412638021397314,0.14226681291090523,1.1580897823452898,0.14393635713952835,-2.4059509633792997,0.08698299176902745,1.8874492983598885,0.07502826432251727,0.10943969893576656,0.26699843716297667,0.13006266532125027,0.4951050257666805,-0.08949301740473355,-0.6664496417252217,-0.4437233712870688,0.4301805353741353,4.0976506197443126,2.074825017214393,4.028835460488032,2.0745815580621003,-6.647912540736611,2.3728095451954903,-4.224606701247058,2.6700656480590688,6.992480678808729,2.7350995383499614,12.81205788170478,13.494705532536774,-1.5856131688432975,-0.6166497903040975,6.216326783723377,14.850861543726529,3.557585814377536,1.8987175848779059,2.339992294717318,-7.745993911904422,-1.0971670150854405,-6.0585958267019,3.1954129287669883,1.0119145197952821,1.0265056718629835,0.44456034510816184,-3.4508138952292273,-4.059201430036108,-2.6673407358887475,-3.8296214791088756,-0.7939741323477875,-0.04521799121478397,-0.19254221869406157,1.1300688177070042,-2.233748719478284,0.9899311185982217,-3.079598367140413,0.44717730147250756,-0.00750909096300167,1.5954766459171321,14.172314687651758,-3.0421544410112578,-1.128902444757065,2.2141833576406422,0.019429952237310567,-0.5085898904450776,-0.051075374739062054,2.8396298957898525,-0.30841029217374083,0.2197449608782605,-0.18209509957551018,-0.6415919774341153,-1.2849703709705993,-1.5744205481374478,-0.9910400975308556,-2.1991439591166553,-1.9262516034022574,-1.4152437142564247,-0.9612940686164019,0.9647261980665086,-0.44634155030482553,-2.346605371524766,-7.316892424481214,-4.289423503148989,-2.3560991211013254,-4.263208609562993,-6.355973301996519,7.899467069632875,-1.6806807921844622,-19.351226635527375,-16.333388469543486,3.939850178335856,9.779415532868631,-8.339253945567258,-20.46927812376387,15.339522360244773,-3.7732213900590796,1.8710527972144795,-2.933817029252761,4.369585281627205,-3.0537258891683146,-2.606324725248982,1.7474855375567437,2.3994633249257,4.410652579601436,1.5942203297858761,-1.165455225642614,-1.427936343809469,0.5368065051040473,2.863007507675621,3.255598975501082,6.253748997478438,0.11310303812254323,2.901278576289531,-1.892280959353224,0.6858929305983676,0.3790129717333169,3.342884907682438,-1.2312483020111795,16.28586696928418,5.996938282649307,1.243920247037492,0.24420097807926722,-0.18133721642759934,-0.9624104283126806,-0.07287855565177292,-1.699434953244442,-0.06874150033239333,1.9397072968354911,0.014692651821119514,-2.393029243218465,-3.06161160866047,-2.9460121465075857,-2.173007513201129,-0.9823445459966836,-1.030708036057861,-0.10255208449120388,-0.6697879113243629,-7.285968214427197,-3.201451754793658,-12.147771564329588,-5.206976490257069,0.13007186000361834,0.9361889656395678,-2.4088717223694034,-3.048371001272432,1.6051630208693877,1.2295864255809743,-5.177214682101007,1.8233688219634352,9.490533770712883,5.135721507146632,-1.6396092553390813,3.2277018900502146,3.2981487762736728,-4.8843980995962,0.3665125266317392,-0.43843210679368844,11.939538333961238,-2.199696092321227,-1.2167344712451695,-2.0778110263054392,-0.15913213012687535,-1.480388884620166,-1.3437760502431415,-0.7792049697224501,-0.7467187666343574,-0.937020893360702,-2.2550903242364484,-1.919805145297116,2.215360223596015,0.03506778957878447,1.4893709810499403,-0.20043668147222665,0.23284546530571337,0.3805967790756942,1.2593885763780772,-0.24842270278005654,13.415424225807904,3.3274782798349216
-0.005819529815458902,-0.01097232255767358,-0.0022044048483485746,-0.006321329502546178,0.0013589640840214886,-0.004632081998663843,-0.0067772588355722255,0.003627726589052176,0.004485911106910928,0.007516221848018654,0.0016936297813576276,0.008963766486878372,-0.0054923619553148605,0.010222054728096142,-0.0016885137078817788,-0.006168419301631541,-0.004491402995678608,0.014675705354089269,0.0005166702544174501,0.0013087404135032337,0.015039468154829098,0.00091600790669713,0.009860359829964284,-0.0019105528447969885,0.017433151966354612,0.005517424815675505,0.0074127158387319175,-0.003739888004569482,-0.00024839843615051836,-0.008675134498345637,0.003896049546938325,0.0032084067991394686,0.006163482532848695,-0.0230731606124247,-0.009027693600780443,-0.005416213914631405,0.004366929701938847,-0.005938047261675642,-0.0034685865116099697,-0.006941759599036866,-0.0019461898396300576,-0.014132128509147747,0.011746783306865126,-0.0059033619505074,-0.008454176948320466,0.019381258561410583,-0.01193576718189719,-0.007088087830828788,-0.007210109100191348,-0.010773241808441289,-0.003569823522755574,0.0036719994564181958,-0.017930093234850293,0.011995606011939653,0.013371809887810589,0.019441078723324703,-0.000622557702466641,-0.006452283948208707,0.00985023757946386,0.0054100767566972185,-0.003557466800715209,0.015969326187642807,-0.006346744869454595,-0.00544561786357585,-0.002789977335148999,-0.008381934089508956,0.009883058273967144,-0.006161392738202289,-1.1052918181460578e-05,0.014487387557425287,0.009133591855987836,0.018844955001889596,-0.0044802458545961255,-0.00124734021367799,0.0031503333228910333,0.0018370366436545448,-0.004131586193202033,-0.00465693825575054,0.0026583858456210073,-0.003600562959707238,0.0001720297870710595,-0.00021229631971606214,-0.01582973585356514,-0.003346185839575261,0.007726588689077055,-0.024186005734353963,0.0010065099635373814,0.020766974783801736,0.005874845515964623,0.014244690802730397,-0.002782704727733915,-0.010558284610223907,-0.006405279869374444,-0.003048040735425876,0.004212499133676722,-0.0023456056547454434,0.0053921322863172885,0.007686640736584825,-0.0019840884724785794,0.0007687506052063535,-0.008056977548854219,-0.005898226819817358,0.006306944378964947,-0.010675764384521863,0.006994599396223936,0.006588480138085749,-0.008465163925853296,0.023101099180856143,0.0010957084384274217,-0.009852910009793475,0.009884246207578273,0.0021918214561712688,-0.0010531375150496342,0.012844471118779795,-0.0026219923099639066,-0.012888604161712062,0.012503790185735563,0.00907779323672886,-0.0021570101343348076,-0.017308556750974834,-0.020718744495353967,0.003564085400418033,-0.006320595706474102,0.0103504666104137,-0.015343594201298457,0.00448408814124495,0.006289536247062437,-0.005415577054239802,-0.006018441956937921,-0.00615064830041059,5.696302202928826e-05,-0.008716974219515247,0.009812582329703265,0.004538175552299478,0.003268537699230822,-0.010515915539361645,0.0015625113143107523,0.0029893759976941372,0.007543811372575167,-0.009543195157712334,0.011228509219764735,-0.008642287631162196,-0.011477715479945654,-0.001999148845455554,-0.010499132983323507,-0.002660577487148991,-0.004126839417046694,-0.012110442047285185,-0.007703483695039296,-0.02569299730524353,0.0005759757874974519,0.013730265995909324,0.019284375776100298,0.0034727009750293086,0.013501525854287641,0.008553191437691728,0.010877810815403373,-0.00578638612747441,0.01164387996060923,0.0011709488264374896,-0.00633749677258083,-9.677720516561976e-05,-0.01159766419863708,-0.010335553351253869,-0.00083284276428436,0.013579337586199908,0.0028348952043583775,0.0003170675445872065,-0.003173313563768582,0.008238575863158595,-0.015457477610605902,0.005187584699205034,-0.004424749152010753,-0.0008405629633712535,0.007829031924752278,-0.019683447853380196,-0.013750841260380649,0.012512706678133406,-0.00812741105483933,-0.006468722571000598,-0.0049585422727077754,-0.0009018483750950304,-0.0005273869869691967,0.0006660975743253708,-0.015421178005397515,-0.0051417053135121345,-0.0032939010533225505,-0.006557774631117393,0.011350528592480686,0.004456916654544489,-0.003191383996169765,0.009740006137857277,-0.009964327778357625,-0.012104914291701414,0.0030980936526567916,0.01645012135570607,0.016585832295740986,-0.004643352409844756,0.010698119582753851,-0.010211901562450982,0.00042723539028282227,0.009346327605761429,-0.0005792983371443593,-0.014766211917571511,0.003171417964117136,-0.013961081039631654,0.00986078603199767,0.006208025815458597,-0.0019219170172198616,0.0016374999474029841,0.0002587465814666042,0.02299697066842422,-0.005879819192130479,-0.006915325676012348,-0.01771548883621664,0.012666997740405092,0.009779405821955144,0.014669213292937525,0.017672159474337135,0.0061677650336967255,-0.0053703266414340135,-0.0005819062295677254,0.001998260389011384,0.00388389446202604,-0.00023224294789392583,-0.02137877842602688,-0.0036605211511055364,-5.6453745455831385e-05,0.007986882453489485,0.015770269191015707,0.013309285370666248,-0.012730943313241316,0.0009124933191794374,-0.012458225102608723,0.004727052113749088,-0.010850178903926566,0.005797221569477837,0.0016173243632407052,-0.0054767395741292,-0.010599068348511412,0.012997386959214504,0.003383031485871213,0.0049170594164911095,-0.006501032157642991,0.0047150917473076865,-0.012673687287197605,-0.010406969993396305,-0.016120373139044852,0.017755904085232366,0.0008669521161787865,-0.0004570068929523626,-0.013788176039192903,-0.015325311333550636,0.006044325676997505,-0.015410194998986144,-0.009222431457639423,-0.00023979576885202925,-0.0161694105174544,0.013120368045557662,0.011389907365725102,-0.0027217368493954465,0.00928739413816354,-0.004533737633728088,-0.017258011179855273,-0.017835453784446686,-0.011705541542108086,-0.014842146022043418,-0.012306144789981063,-0.0045481911323187975,0.00010756711042722782,0.016143282814218885,-0.03144536224483431,-0.005035088666043941,-0.006416466921630605,0.0014912886014423817,0.01641906240572639,-0.0008612300908639484,-0.0007847065727981615,0.006964574372143888,0.015920448834589887,0.01414769643369372,0.005890286194242647,-0.00507785023312575,0.010980377879270819,0.002314934950055611,-0.0025792169843265518,0.018735324404882348,0.016986903624107826,0.007943609254957159,0.0063503673983446585,-0.0048313409965141385,-0.0020533149188442326,0.009085233377897345,0.01772812713429438,-0.013022881704531973,-0.007033266069819508,-0.016913867390671918,0.004326838056260023,-0.019372339824691782,-0.011496431760538299,-6.521756100532088e-05,-0.00890956852253028,-0.011110487263123699,-0.010068363306373208,0.0011075454689277973,0.013314730853039471,-0.008584107514609007,-0.0029977896823559203,-0.0009227141180317605,0.01361980206393374,-0.024258982882052103,-0.005663402066105334,0.010779326755866705,-0.018065108625532,0.01502721924375383,-0.001966325836815797,-0.004680668482946013,0.011869990393697677,-0.0015684344563948712,0.012897487361951409,-0.007450000499583014,-0.005134769303458666,-0.003877580007731,0.010031032347831606,-0.01438977350831546,-0.00831511847247231,0.0007770407438588316,0.000403611478373277,-0.016243159817277825,-0.02069861427786354,0.006541920799596678,-0.006418448054935716,0.008065820162690574,0.007627280949706544,0.010670611197154067,-0.008801156167110075,-0.007525651376654961,0.0022679815650442432,0.01075212611847388,-0.007425855957745608,0.0010245816584973165,0.011847543488990444,0.012402808606260321,-0.015581089496441106,-0.018418812698348594,-0.0052463567276470014,-0.014353659931955557,-2.7886446063059333e-05,0.009950865511346222,0.013285606598707778,-0.0023175518778064054,0.010468681007078002,-0.0008533795172915895,-0.008546601841502964,-0.001719030549158404
-5.391636371837532,0.7941690073344363,0.7825301193217782,0.07063773759987624,-0.15827203032340423,0.052099610124613366,0.7360958442875385,0.03199587710621529,0.17719367072540745,0.05441791729046338,0.32413236424531044,0.38576720875672427,0.4381632787125733,0.39252608948583595,0.15375270167432892,0.10083963292926068,0.20522277003605527,0.04185429943258895,2.4555067434980273,3.512328070354569,2.414583643400331,0.16580191912331174,-1.847254695685345,-0.14230655536418063,-1.7406088736743117,0.35067704383943543,6.789867581290254,7.3818073169171345,-1.3761670118694291,-3.668898824714605,-4.430418756589583,-6.957334327203353,-3.0147315362539966,-3.0127401288567093,7.072581443310143,0.16399104456648048,-3.2423108162817207,-2.8382221348306382,-5.739033912079414,-3.321837955733549,-3.1415919706985354,-0.3887602231088559,1.206293534690049,0.2900959903896557,-0.654647884301531,-0.49745994176454916,-0.17276114639967596,-0.3538653896140197,0.6518662177283729,0.8966071511709967,-0.6676394898550729,0.2222245295347742,-1.0842803491474495,0.09636095152552177,-1.166219923770642,0.30284953922317553,-0.49510868569758026,0.3236632862287479,-4.802908085879537,3.80424025591551,2.0704196371637984,0.813384230004706,-0.0031949244359463303,-0.0009424689517676342,0.022776299515831485,1.8755597828040689,0.07119969785445296,-0.572295078596128,0.07208151720064052,0.010000509733237186,-0.018713852802044205,0.23124371164726557,0.2571594484904074,0.10160958834847873,-0.043049465602790174,0.09539686444220136,0.26620773800864367,-1.2573429152728461,-0.0520122306529138,0.6224503307310367,-0.1393525510622359,-1.3887085177905578,4.317932547911092,-0.20568253260721442,0.11205872737160372,0.930998902965603,1.6680001211521727,1.776272543674225,-2.5736890831947346,5.025204558901628,6.041678116611773,-0.9280626267639565,0.2007514275957444,-4.157678012518731,1.2903846485311865,-2.114764590330982,-0.88655076896605,11.668933035770578,0.028980204769534775,-1.678924050555024,0.3590661517943118,0.4579103042505108,0.4571693617798425,0.3239415277750345,0.4257161539065306,0.01972841713598485,0.5558833797857206,0.22451236902025373,0.07920800410997629,-0.01989500461365738,0.25873339308629134,-1.212470442395175,0.3954399903101277,-1.1147254324565485,0.06385265957697864,-1.2247122558858965,-0.06693963267248042,-5.632659706689431,4.244823573812822,0.07189156928933445,0.6315224585424632,0.032447261108435224,-0.2984964272021385,-0.0018657262480458172,0.4066816201835397,-0.14697146044417117,0.4291049760488526,0.028215261757524174,-0.2926458348956286,-0.316112117618737,-0.3059888159379236,-0.40823203437142275,-0.6003623414135961,-0.13117099914548974,-0.11660519908079332,-0.24986769014423277,-3.4986997452421242,-1.613174084595325,-4.216336913652906,-1.7725692698432838,-1.8200642599341745,-1.5039986109931127,-1.2382171023582398,-1.4646464404779318,-6.552452004834885,-6.980431243215847,-4.807010557732062,-5.68586124304238,-8.652199005273305,-9.64955098447905,-3.547105688969553,-2.113284233989402,-8.445641623526829,-1.3617290504132917,1.1416369957758614,-1.6126519100055816,4.908560256773499,-1.113170073319389,2.1985087282107085,-1.1501106253323923,-0.34529772561057037,-0.5841173890887396,-0.0849661850387403,0.5852331961073283,0.33429056714420824,-0.010612244742663696,-0.6287306469385442,-0.6887410228496372,-0.021271540070873788,-0.8164204380705882,1.2113444991376423,-0.036531932384047276,1.7851461746418307,-0.7181774383565127,0.0006983975591651282,-0.12121081283072373,1.3623029586312143,1.9392320721929872,-0.2842552125694817,1.0925791341486155,-0.06453464830443825,-0.807534183009994,-0.01589271802290217,0.8921934300267191,-0.007048083781455228,0.003800640695854494,0.10131565489175653,-0.5530432152691498,-0.19067598286639423,-0.25335454687696635,-0.5952475523966896,-0.26539051276088993,-0.083497704129564,0.05988990982307431,-0.0942471167992556,-1.932159175622037,-1.2482874038573946,-0.7707225275273373,-0.5322744521087174,-2.4969995876930597,0.6026081223286086,-0.1878950098166522,-0.9522109527098689,-3.841344857313408,-4.1575691036211655,0.8503634429819723,-3.085979969137791,-5.342883939910161,-4.913923897252092,-0.7449704250626611,-1.980761451420065,-3.3287120863530806,-0.4670483199625251,-1.8753993511769025,-3.1424350662360454,1.4286643626070206,-2.8154141500637926,-1.1293129998752978,-1.422775240601789,-0.8755474324320435,-0.7729551117498141,-0.6111236298356302,-0.3393080810074373,0.255939588265799,0.10710734733944709,-1.0167887603983738,-0.7150489206710942,0.15596597030597012,-0.16350602734927874,0.29118516568032426,0.18395648364972159,1.8714827863811005,-0.25414011858640095,-0.11170287043938301,-0.24490010937743176,-1.301158218282681,0.8609862247713992,-1.2246719016175427,0.35929431271195394,-0.03620763634233742,-0.8717867778048968,-0.044521449728016194,-0.42174073152384944,-0.0504744089071358,0.13080846263558954,0.03820910216031781,-0.31605923366763033,-0.7830140248062022,-0.9354217922872774,-0.5528658516771162,-0.48560579475628374,-0.11624864797819719,-0.3786917000702867,-0.8173543198198482,-2.699995207358542,-1.8603390223370986,-4.043730839716029,-3.035339902591006,-1.6178978100893857,0.08560866436692256,1.057964792864068,-3.2668769845746866,-5.532436930041738,-7.633694286692148,-8.94906863840532,-9.551393830094847,1.7435737294435403,2.286111816774658,-4.74834256407929,-9.71477615778991,-4.567474561585491,-3.1699669134723036,-2.0712321987831794,-0.6212094786975608,16.820188751399705,-0.9669311913381687,-1.004843920575639,-2.72174054706657,-1.0507226267781686,-0.6656921239265169,0.13379061543772738,0.36060980321632136,0.7482792907063751,0.35748093346814197,0.009735057169732267,-0.8587586249696111,0.43282302095920194,-0.27134335776210866,1.7855938128973927,-0.27926805978249586,2.457521930487394,-0.501675320604708,1.1087712879278848,-1.1331901133123963,-4.494904180005742,0.8304381836898457,-1.2192345389707318,-0.9924699754012871,-0.01918674353025094,-0.576234785465885,-0.048848081949769244,-0.785740387970091,0.0564100660163855,-0.136298708439241,0.03805933000229817,-0.4331607929937117,-0.6394548020358187,-0.7656485502475392,-0.7387510818323261,-0.24157527567823844,-0.4230977168340753,-0.359933976110345,-0.4430562492875982,-0.9777291501505024,-0.9041879516724398,-0.22739274652893884,-1.8865039588307495,-1.3059347031409798,-0.9143534381941371,1.809183688022196,-1.5126446613696032,-3.8323929187335195,1.8670598951638981,-5.823946520375728,-2.0027680948190056,-2.9885194935033774,-1.0382392104209521,0.435323908705486,-7.262544533535035,8.15699285038378,-1.650022539354411,-0.7472217765040382,-1.3142339984173685,-1.247993179971416,0.32249112868741653,-0.503026198297914,-2.8536951238958994,0.5007070407783087,-0.38272160007221506,-0.5735127038187695,-0.23597160668089748,-0.10341867695342637,-0.009476245616556576,-0.49988856841879553,0.10994164039780044,1.591691148457714,-0.9021242844976848,0.2856990846165431,-0.644398021829229,1.1564600940684988,-0.7495256797872093,1.7874165875713606,-0.49735751777507575,-3.8927774807295967,-2.127088753169003
-1.9992913467644955,-0.574009111268398,-0.3038552477163478,-0.011102460508316028,0.03226150783120237,-0.01048864482867665,-0.14920037175844905,-0.010482841517739488,-0.4080909660497727,-0.024094571819833217,-0.06049741751327089,-0.06962858412677415,-0.07628412774232121,-0.06538293207135999,-0.1302075997009575,-0.10627015208169324,-0.05720137094108055,-0.06524667241249481,-0.7919706018300064,-0.7236948939571495,-0.05654766197549312,-0.15805031222172247,-0.46650271427180523,-0.07353857698167754,-0.19384315035117758,-0.14742908823291687,-2.6744797145935086,-2.2661583853733913,0.10700002360769395,0.3150926620567824,0.4191009976564181,1.4406230852184128,0.3795438321361058,-0.0887766575157001,-0.6329088761670538,-0.08621569659520543,-0.11777444643177452,0.40019815683949567,-0.19877853623143368,0.5460609556763284,-0.7330536488150686,-0.39604239282530335,-0.20269481247804025,-0.038203622521013295,-0.19384325948823086,-0.17970793933243645,-0.1810517764160967,-0.12337750138653969,-0.3658879928070988,-0.3637498965827715,0.3868759802828278,-0.06648497452185495,-0.12568286156143088,-0.07043541873278482,-0.07411320858954432,-0.07404196738185075,-0.09497289546696587,-0.06960409906593595,-0.31279506171971794,-1.5755387882045198,-0.6941051177623659,-0.21579923247862545,0.0034316391499829035,-0.32388566766352594,-0.0004064206754161234,-0.3789021847822892,-0.020576802319461775,-0.010988771981497364,-0.021591457663126725,-0.027212939901221343,0.013932851949447,-0.1378360203167931,-0.08221816024679883,-0.051081989723256706,-0.041750549091641685,-0.10658376175093578,-0.0699955430251529,-0.3596544324331569,-0.046438028871062034,-0.5843992813446549,-0.20066945284581733,0.04626154215516345,-0.7682825592876424,-0.06004288488569583,-0.0576667157312861,-0.16668648749084872,-0.27165519620006495,-1.0055866866478025,0.18025350270821167,-1.5550734702325715,-1.3264516429925,0.008299537260037966,-0.7527769823565998,1.0067354515587648,-0.2661292820981285,-0.23916348807425353,0.10743698189128678,-2.9480834231161515,-0.049528730705148453,-0.7659120151722516,-0.3572732460895997,-0.1473957113117102,-0.2465531794593018,-0.0785834818436488,-0.12006303013323394,-0.1906525025583952,-0.1961737332189889,-0.41540725616387586,-0.15952998151459968,-0.3380748142538122,-0.06889419278873786,0.1272676226749876,-0.11594191732091641,-0.013507929566698385,0.012468338917846876,-0.1262114546736055,0.01678835809837325,-0.8230982747440632,-1.8521472802388779,-0.5271675498393092,-0.4031626926085205,0.011595444714539447,-0.023935947114868857,-0.0005263791700146448,0.04033810541411966,0.007482534539161416,-0.2608778394290653,-0.013743597267615515,-0.0032001770070785108,0.061397235596010256,0.09995631790275093,0.1419604620655666,0.13443120600364394,-0.0314221998511159,0.0014950914853880156,-0.025145360518942513,0.07860782711630016,0.44961790367997523,1.127584938566363,0.14069051651987183,0.12641303520113248,0.15047645871508372,-0.22455672620266734,0.09297375780410419,-0.5830449350631797,1.0221818030232435,-0.17306064295825624,0.47376053910328386,1.1127407593828862,1.3389400453666036,0.23624484418541358,-1.084453908995097,1.7299360441148928,-0.35537614244929566,-1.1245558610356168,0.20117228824886862,-0.838485308192215,0.16044246124651868,-1.6688320453215426,-0.7228950361942659,0.17896005514149102,0.21737281982495604,-0.022078464669329594,-0.09335701394606243,-0.08953843819045858,-0.13079676741061935,-0.0035770267256961226,0.10095720288457236,0.19463002280535285,0.19722903637952793,-0.2616922929037906,-0.04859053139013281,-0.3918549569268835,0.1505115540197137,-0.0729165622028689,0.0047805336508120275,-1.0937778119065953,-0.7718586772461761,-0.3061611159081015,-0.08162324079075128,0.01309968032197786,0.16251069899382437,-0.007315938757568519,0.006473367570903065,-0.011218132162452857,-0.18211078308214235,-0.008868365874459586,0.17243987198140784,0.07090246176675463,0.047806993230070885,0.13104577815794363,0.023852204684671918,-0.0017123632896803383,-0.01000823545212449,0.011600778162666026,0.48419384276856314,0.22608884740495325,0.07736424242075736,0.032659416575441726,0.45217593489671903,-0.13856782089444833,-0.4141079286540109,0.10137293016879882,0.6467703044395607,0.2684653058310462,-0.42146483063573453,-0.8511844219580534,0.24286778356534738,0.48877704682775214,-1.2143047589717744,-0.004200822499513753,0.9674005553485414,0.04300708353530443,0.38638732541078896,0.03491085801319196,-1.4903421865027358,-0.16752092894831025,-0.5711479146447439,0.3558604189012533,0.18698134956083887,0.23342435369550485,0.2210755942684313,0.13689898058898167,-0.22898850177501046,-0.24586490459505606,0.25086153560504093,0.25417132976464957,0.08031879638143008,0.1260018824374457,-0.01722566086762163,-0.15610912788934836,-0.5778509306400456,0.13808267316925854,0.15023467703875443,0.06614138200736525,-0.6392497455210325,-0.12531547407025104,0.05835504403476827,0.013346564544841904,0.03588756656410209,0.017385741860902755,0.015926080519217796,-0.12305979345070626,0.017253273799775436,-0.20908459708576813,0.00016494781202253136,0.11781476305961601,0.1345386185360776,0.07045721960346532,0.1590596455129768,-0.06390265312938657,0.052043338472881166,0.11664177415025546,0.1471220984459482,0.17256963864261182,0.15065031376112104,0.42647436300437985,0.496130698483412,-0.4865350403924283,0.10946371118831807,-0.34989999901653074,0.5480902224306973,0.6665252416788403,1.6645646004106047,0.6546233043542813,1.1267207641168246,0.25130448348291884,0.34155181121302686,0.7811834224943452,1.5461964949012381,0.4013832152271373,0.4466654676416173,-0.885909069577226,0.28186095402184846,-2.939540866739941,0.3262407539896915,-1.053934932152509,0.5666014915881301,-0.009971142674178651,0.06612508056155972,-0.028026030400370824,-0.09648668633512558,-0.1214904271817234,-0.09721656458142339,-0.04429765734261538,-0.2799363151551659,-0.2802003261316555,0.15772550670023963,-0.619025323140554,0.015143843907158934,-0.6978271889043693,0.1739602050762837,-0.4303193934349912,0.22894140931896495,-0.7788759347265669,-0.7214943662037983,0.11248615735581668,0.3653729971902601,-0.07030097222883447,-0.12228362386855014,0.013045517229244446,0.22305244712196926,-0.020327710929049867,-0.06932239225712743,-0.009045544354212896,0.044511094948162945,0.18245904651917888,0.15985231523062646,0.05157398030713353,0.03877515429465854,0.09235467715739695,0.055166850846514695,0.10657414850485157,0.3361542560486864,0.12403308613297408,-0.30994877375648217,0.45054273081735946,0.2732062188028474,0.0741140207953168,-0.5005582129138859,0.37014445425612963,1.9040092649545537,0.0892851042907646,1.265804529069558,0.23798498648285316,0.8764381549436234,0.35152324039676747,-0.44809764317671236,1.8197742618567885,-1.4819959553196527,-0.04206056104149122,-0.27141960672727844,0.2586723095535489,0.33633292066449233,-0.1260538256565593,-0.26650381724107924,0.6131440493362041,-0.1582756526120802,-0.03776052913918292,-0.030748295313920405,0.021921577185125028,-0.05963361554253053,-0.0056353330499330345,0.2501581655885869,0.008874667898826813,-0.6778722236708982,0.2000048392300617,-0.03851613936878605,0.18622504122377245,-0.3160185268291405,0.3122829838247825,-0.7115541615531128,0.07955519650302745,-2.285768591773655,0.09109993241469082
-19.16125375884144,-0.8637357099104563,1.3078877765133612,0.048772299205645055,-0.07922088454829324,0.07257759685370675,-0.8655516747586626,0.07289543805432905,0.5261533536297323,0.09176465676459981,0.5321254237144808,0.34219055414229016,0.7404257513160035,0.6565326459701066,0.18344300953344542,0.19336424383885645,0.40120876687494766,-0.00883111961701064,3.043181653582006,5.155616916450791,4.131950684976521,0.054141341058102754,-2.5767344676973263,-0.3622783855860061,-2.2425796720624738,0.42564764895699375,5.42331171850991,-3.1363125421198386,-4.058136174853136,-4.9331332041685085,-6.782395568262417,-8.792341596391836,-3.645071166011194,-3.955305727315559,10.25557593824684,-1.7591611480084262,-6.3796065599621885,-2.9211687172383445,-8.33704836412066,-3.1248614244666126,-3.8949654033136154,-1.844999920174562,1.9285443699170328,0.2660259019256342,-0.9849370307447128,-0.3759671191398506,-0.06332586561313122,-0.29513853074928215,0.6105465662252102,0.9724440969252912,-0.4641744659291887,0.18883961046606965,-1.7403456258029861,0.2884719519369832,-1.2591380344634273,0.3840021906585939,-0.5831177423261037,0.7123271590832957,-12.221839831235895,3.84699103765952,2.502893763044801,-1.7674170206217934,-0.01988154871699245,-0.46347402170811747,0.04622932755599957,1.1486483051273244,0.10391101464271066,-1.2405157618006764,0.09343689554252267,0.1925843225713331,0.014753027787831389,0.4610554768999391,0.3327612049579418,0.027546264092242836,-1.2045734829190238,0.2171652496741616,0.30772379700891095,-1.2464265315277232,0.1418768247431176,1.0886049101908402,-0.10156269482454573,-2.228919238791422,3.200375996067749,-4.9320827353728705,0.19720835361834266,2.2925627164488778,2.7650823851608672,1.2506952509770242,-4.228055018996869,5.161642597722599,-3.9565948178074337,-2.73272110982641,0.17313195269437331,-3.763477077105312,1.9869270142945794,-4.109580233688129,-2.4498397882346845,-0.370910736277363,-2.738620661135626,-3.1053061958683092,1.0019401699608697,0.8755999846928227,0.8978703914346551,-0.7005736281778061,-0.07437728992366194,-0.9834395594624769,-0.43716556303136284,0.48477265119768187,0.3583485542796481,0.4027980020042346,0.37993556067918166,-2.490918433596391,0.5107411226150204,-3.356669628050599,-0.1586717976235923,-1.2394436470457812,0.08538178137941722,-6.198926633733067,2.6128010190447255,-2.9943538986289084,0.42751800339720325,0.06408430601775784,-0.06413806423605421,0.004337584255677526,-0.7838929949000133,-0.1390043959425005,0.2571594089137257,0.029032206973724953,-0.32699964139844917,-0.626206915145677,-0.32410767413593167,-0.6431615313656015,-1.1376666951667824,0.05937858821476804,-0.39063164381800936,-0.2992499353711431,-4.87739831782926,-1.60202119768291,-4.516906517234912,-2.304325618029099,-3.874837276814592,-2.2987354615874116,-3.1249876804141885,-2.4959537756450016,-8.169772923893746,-3.9748701627548213,-5.928616775201328,-7.057943636801227,-18.530805641982514,-17.063074673128387,-5.278946980677648,-4.229772003327719,-7.430522141176491,-2.191893117142239,-0.9284433531840526,-2.6213749100380106,5.953482352128788,-3.220597613839653,-1.3727292234935689,-2.8299983757701215,-0.07488757332987325,-1.743871133469239,-1.3340699754622254,0.3134849493115257,0.3564898645109129,-0.03724531587087944,-1.7890797184944878,-0.6631009524460174,0.13355788900884047,-1.535766594844212,0.6294455483403039,0.017891846673481458,2.4791346113308674,-1.4233326589194575,0.3905441000062363,-0.4994409948503681,-8.043424697120992,-2.301911888907609,-3.1178383632669617,2.1187628300513084,-0.020068341880592262,-2.164392652229796,-0.08310265062115196,1.0699702363276988,0.058795809304621076,-0.13483977569489855,0.09939922445631834,-0.7492782472761315,-0.27405170294340714,-0.8873617204480316,-1.732071441773769,-0.2509915413786223,-0.07354627745942677,0.11085154553948733,-0.1818578914213789,-4.64915102843058,-4.226586367870223,-3.763900991820074,-0.4912578919506422,-4.26385504919633,0.7073648104952807,-1.536650752724909,-1.1773162405751318,-8.153074849422607,-13.69552660375301,0.6027516991038261,-3.7396713558927948,-8.00491440878475,-8.271437487738442,-0.6589806800220676,-4.5396421047027165,-5.804079867015311,-1.8478976404012846,-4.62009977304563,-5.316984850516759,-3.487568099999501,-4.320804955676886,-2.8464272065875744,-2.984176371495324,-1.2201597294128619,-2.107807542455518,-1.4069943079136433,-0.4098710117149009,0.03315673619161444,-0.6355295347925775,-2.758292571717328,-0.9337841698331938,0.42247829027122163,-0.237888727915837,-0.6577740832636324,-0.4158329040039553,1.5910278429843443,-0.283847811034808,0.4990689097920545,-0.4027501406974065,-7.571804312980418,-2.214387062651117,-0.8323007827433822,0.875731388920949,-0.0865740795922319,-1.4055320859763158,-0.027946160085390404,-0.978400444709738,-0.07724267587477905,-0.14500716255002288,0.0017060684795280705,-0.4649607132628912,-1.0654869032232046,-2.0531851691995673,-0.6102848284914782,-1.488200381184857,0.06302794755899883,-0.7620979520092295,-0.7477799524113125,-3.579548652252898,-1.823714602626192,-4.917875019089517,-4.286213444099922,-4.740317481753827,-1.0470802507949173,-0.9573837516367127,-4.637179243931038,-6.406550076335317,-7.93258282900234,-14.878970592987509,-12.35374223675526,0.35204109932897537,-1.7293028503823038,-6.916294848827167,-13.381994304906176,-4.095091780163982,-3.7567768812158695,-5.602418845173285,-1.4641001061111962,22.314917035187722,-1.1896737701238147,-1.5895132075009297,-3.8043299014507475,-0.7111751160205597,-0.5381413572400499,0.6946346304117438,0.6985646586840611,1.1700195645161369,0.7522883018295993,-0.16577312082790058,-0.30667803580218167,0.48991380830305675,-0.2521263684726893,2.553164588448769,-0.5378268035213306,3.112659645775951,-0.43051605816114585,1.8353051941265708,-1.6231305384771053,-16.975400702611573,0.6140524294055907,-1.6764897711380655,-0.47664677791463994,-0.029090025172689715,-3.05488838399676,-0.06848824891710023,-0.5034221890934959,0.06883347183986512,-0.13659600886103915,0.05802659419303155,-1.0299299647202016,-1.4199794407610171,-2.1993000798927063,-2.5791357800554118,-0.1165991920446782,-0.6235934774062197,-0.3235249723109705,-0.36834890262769526,-5.772485195689169,-1.3467170845599508,-3.2944913246628285,-2.8241746498030285,-1.1394299322059314,-1.4931733382967791,2.7781384497347847,-1.75873349478403,-3.2821308360875525,2.168998476116082,-12.430218376608003,-4.1002648542038935,-1.9526489651938481,-0.842303084473819,0.7461393188392725,-20.708766700167537,7.909901480866362,-2.626286895590334,-7.123813792401798,-1.058848456215575,-0.8322424394433517,0.820308507203681,-2.0148319391167475,-4.363964928073187,0.08320779287845252,-0.2867669190642145,-1.0455575949200655,-0.2965418662789184,-0.329184311610967,0.32737480169176697,-1.6318047785603471,-0.5083626986152998,1.0703901876679467,-0.6342119629760246,0.324425616608417,-0.905099731805942,1.8026541135064602,-0.579935985088591,2.2127146599418808,-1.7507120781115237,-7.475347629831536,-2.611507765679705
-5.890007959389094,-1.6349317565322803,-0.9065823763876856,-0.04143384703780143,0.12561971395874208,-0.028720554972295313,-0.46509633532778455,-0.032913197550692004,-1.2185486952045916,-0.060814244335140315,-0.23486556167090392,-0.22528852517781592,-0.22335719308013957,-0.16669222350037632,-0.3708749999835079,-0.31076216628065584,-0.20011435155843169,-0.20471571617739057,-2.229718273403079,-2.090599006863581,-0.21410248263977616,-0.4760103215143426,-1.381776484053415,-0.2570348570035671,-0.5188928003657108,-0.41719739159060637,-7.633684813406709,-6.513901449737694,0.3463308067985436,0.936512740243317,1.2707188781710468,4.233739344913099,1.1302013036883933,-0.2612167524938851,-1.8230440764241942,-0.22799051133491338,-0.2703269908932604,1.1836590239291118,-0.6296475198658142,1.6382173277084557,-2.064628506924197,-1.1029324436347865,-0.5938219992268255,-0.11685603162254814,-0.5546373605943982,-0.5389462329912076,-0.5197373754247593,-0.33813990590999154,-1.0383320466083097,-1.06433439371948,1.1353198800421325,-0.1942298316419303,-0.3820501067885931,-0.20687598556037015,-0.15868142150296807,-0.19796776755741724,-0.29692592395205225,-0.22972481153213953,-1.0111442549168164,-4.570990361260875,-2.014378535992306,-0.5975449976790066,0.008773641756550554,-0.9791364268845621,-0.009838441583357437,-1.1820601410529439,-0.06169944780988217,-0.01347932945891325,-0.07299116412710331,-0.0676031519471938,0.0356115650338229,-0.43505195585142237,-0.21391874582502726,-0.10181950471884409,-0.14826301454139346,-0.28018574712957633,-0.24930965551711026,-1.0968509483163775,-0.16092754805142948,-1.7868002934571552,-0.5115803876303443,0.17985866118064875,-2.2563924887764824,-0.10963589888604884,-0.14482154348734305,-0.46911572583821803,-0.77320175218816,-2.8810366930970326,0.5440919058566694,-4.46352204367217,-3.762771531870688,0.09208414127080555,-2.240371983585083,2.7955799617982002,-0.7780298624308629,-0.751938652579119,0.3533072872876995,-8.452959326333092,-0.1622478558421074,-2.255639047412517,-1.016791991860396,-0.45335484518950175,-0.714301486206506,-0.2416978313187633,-0.33688736438933803,-0.5020339862601274,-0.5657031290698259,-1.2280629685965334,-0.5028824489409538,-0.9954259275656737,-0.21269582703424667,0.358146763813945,-0.3604283774139395,-0.02306736490862755,0.037970350603086504,-0.4344687095619691,0.07559512428152645,-2.5173234191554026,-5.433678108954686,-1.5572687284415625,-1.1539933221976568,-0.008791299683066993,-0.10741714517640434,0.02565373879201973,0.15104568877784874,0.03741475741441469,-0.7084259037455787,-0.007372663177888365,-0.0032318854880388557,0.1769544778383548,0.2803495230238984,0.4193148566439759,0.3631844780536733,-0.17008612221411193,-0.010279314338828923,-0.057166724304188045,0.20820940663065413,1.2755632768077934,3.2499534243697283,0.4457218957295824,0.3234246290514153,0.47295223710362505,-0.5451009092038713,0.24296005494376188,-1.7491371849470054,2.961485934327071,-0.49631402183470136,1.3817159835147375,3.276640379345595,3.8967186956603963,0.6999693327972063,-3.1411783372560564,4.802102781593831,-1.0860440327175505,-3.223424450453588,0.5432350041237645,-2.4248708065192153,0.4601736915300705,-4.7607707334991325,-2.14009107526693,0.527868092733004,0.5679358975313833,-0.05602039130217404,-0.2920175101051455,-0.26765680104895284,-0.3264611049345645,-0.03730235871905514,0.2833923312433465,0.5452328011850541,0.5520558590236352,-0.7433814164548922,-0.11494462433462511,-1.131375417406788,0.4789385809061587,-0.19917473688513457,-0.0011755851235201707,-3.2396440513711884,-2.250233213602895,-0.9474643485574491,-0.24736206478298103,0.034870646643435234,0.44450024101817637,0.0065905458499210395,-0.016573531692178192,0.008162827108910154,-0.5295130510101315,-0.03587627045072611,0.46621718037410653,0.2211281303511504,0.11376107133129928,0.35163312686571174,0.07304001325025182,0.024629648235018398,-0.02581667592577946,0.06875185044289431,1.388513065955652,0.65836982886429,0.2084564648119939,0.04785563100494185,1.3291461621427332,-0.3992251420011709,-1.1672991902411196,0.23536208610828993,1.834566203098665,0.7528413380184742,-1.2692696696349457,-2.630170769326379,0.6739213137628876,1.4106553534068813,-3.611326848359045,-0.045191198534831736,2.7354777254441918,0.10419808224483483,1.0021252208320028,0.10640295892454381,-4.351865021214546,-0.5348637970907273,-1.655515397120686,1.0240985893846348,0.5298481507148566,0.6560027982923767,0.6063257265877439,0.3632158195216334,-0.6524969099259259,-0.7435795869238666,0.7291391555191418,0.7397333014950549,0.19771426754675364,0.34960122368521973,-0.04039690159733254,-0.44635791594616664,-1.676145538867216,0.40920424097627833,0.43728498587060477,0.1549414604937147,-1.8340902713300484,-0.38813669890462993,0.18843645996712854,0.034934748196398295,0.04789534940540288,0.0437371233133199,0.02747354048796034,-0.38215234489357386,0.0501209939015548,-0.5405139651273402,-0.00436920826731286,0.36736325105095463,0.41801309298007056,0.26542908455363934,0.49593005261526685,-0.17279645812738775,0.16214795966584636,0.3141051998838073,0.4394758096326068,0.4782596918580797,0.3941941739761061,1.1876342695961903,1.439092162062311,-1.4664325967487426,0.3312352662603996,-0.9406941190944421,1.5289347992502154,1.8190223478615108,4.822453387804487,1.9046039676443334,3.247890536295206,0.7022987627657405,0.9530644375436474,2.2500948520416126,4.522296119283251,1.0415108345928012,1.2866186874439502,-2.5560215870651075,0.7766883552781723,-8.4673524568199,0.9988385953176586,-3.064032754908112,1.6488441228775723,-0.07241724866017396,0.21484810446391742,-0.03162892687386569,-0.24357536012643505,-0.3762063352580312,-0.23628265657990447,-0.20817340200735376,-0.8773527447291434,-0.8350661724291908,0.5016103063879578,-1.7796468638929492,0.01548122926556991,-2.001115956739974,0.5061370221679318,-1.2568356025876422,0.6445330300782178,-2.3288582532178457,-2.085224235429348,0.27160215870738047,1.0671813701909838,-0.21070159847141637,-0.30378722023516735,0.05670155454935916,0.6696757044226721,-0.03479403752635827,-0.26578219130859776,-0.008279986314647879,0.14936113956094235,0.5914570604789713,0.4635082475732209,0.1651464197499103,0.05646204796635509,0.2704248029616699,0.13436844873137216,0.3623873952428084,1.0017699099478161,0.3397121850613289,-0.9488365948369119,1.3424661103974396,0.7397565716456153,0.22289692631436497,-1.4975058072814016,1.058469900759076,5.5243363572830155,0.2079016453625703,3.609359107115456,0.6722081110450879,2.4910971103661095,0.9621901350539008,-1.3214463108366252,5.2668033161859675,-4.360574239041703,-0.16277097248181355,-0.7880862260315652,0.7603599153718601,0.9240517271630834,-0.3645128908495705,-0.7811232541233416,1.7555624190822665,-0.4674891391221689,-0.12292725159787948,-0.07513332671353173,0.004926569868556068,-0.19073461065877964,-0.06177000477770451,0.678706332102017,0.02587677586817746,-1.920067029824367,0.5411995862019987,-0.1660043725635771,0.5856339867071604,-0.9298392768157008,0.898189546030242,-2.0581847277057563,0.1942070880406826,-6.666079640492624,0.18029566426359447
-0.018536778530498316,-0.014184057983466688,4.7372309195205436e-05,-0.022651199185605046,-0.005483606245994507,-0.004981713806046736,0.0008534471198420723,0.010862736845540007,0.0023728281949451442,0.0004861179181217246,0.012689516982534682,-0.0005342162094766436,0.01041228247129905,-0.0005343113673784289,0.003311205334021268,-0.01124926854673168,0.01638392571659894,-0.01084661462951215,0.0010626687594852342,-0.006301062744898488,-0.0012953426875068686,0.003230509327517319,0.013677869834995386,-0.003236946124182746,-0.0036066230963343335,0.0037141105457893482,0.030666357593404605,0.017977549079315168,0.0023292193461145272,-0.0050135989912738375,0.008167903162985055,-0.004244574315897897,0.009541626406440368,0.015023461604822192,-0.010482614976233677,0.005880398664513864,-0.005883009501215511,0.0127384869110561,-0.0033353949141548198,-0.0028784974305106873,-0.014988384552388162,0.006913009593532228,-0.010395235749239385,0.002707077672511439,0.02020164282902708,-0.00849542830912367,0.005250844341824603,-0.008799496390908261,-0.005025719723443077,-0.003339012183713783,-0.0007576859452710993,0.009326738154856531,0.003945832616233673,0.0036216865609902415,0.00782979310748835,0.005328579474330101,-0.013057751886685991,-0.007795087014076163,-0.0346770155465115,0.003249191166351886,-0.0071485819696030075,0.004698093982292029,-0.0004524922404090481,-0.006307893699216971,0.0007757737172342602,0.00224484906300406,0.0031918065872830934,0.005210319804856681,0.00690716600332357,-0.02373691423257162,0.005849389053332651,-0.0073805711466024895,-0.006700245120807444,0.007419472718502834,0.009488201086858805,0.019081223371269045,-0.003714205290585203,0.015416868215927488,0.011715306717359632,-0.00519324924831771,0.006606738564842782,0.013039118208021725,0.000333617133292682,0.026834875836325833,-0.010389930829517597,-0.01560432983898058,-0.005863516145912527,0.00022259196432749084,-0.006203791389101106,0.017479262297296565,0.013874724663359024,0.0026441328841736804,-0.005936580982761236,-0.002609193614579645,-0.0005407639425510239,-0.007378526743548035,-0.0050442485870615264,0.041512943248148,0.018395588341871768,-0.0033257807093379195,-0.008319427729456316,-0.002140657400322912,-0.017463867491253646,-0.016829447449889668,0.01028613874810577,0.0020487322205196058,0.005061264126485192,0.009929006021592808,-0.006747714338400093,-0.005841746642265903,-0.01040208840188826,0.007660393208687408,0.01432265870150426,-0.015625034414885396,-0.0033271037758549273,-0.008145184955195832,-0.00886359828544442,-0.015854973876962004,-0.0005949782017897569,-0.0015291791571267416,-0.004289297179392405,-0.004389308083575178,-0.016409593366632776,-0.011814854643412418,-0.002382716364125529,0.000265176336326548,-0.0031753820194052635,0.007791422066435335,-0.007402996564303507,0.0003716661227964912,0.008577546668463746,0.013414404171800719,0.0020032279427441603,-0.007654043656534121,-0.006959618855233217,0.007938259182053174,0.0003778261020233233,-0.026536242914192182,-0.00960998581214214,0.002716073729411006,0.010960353423297561,-0.002555618835555428,0.004417132486156483,-0.0016844600837559078,-0.01337335033308864,-0.014129048376474126,0.008100784692614757,-0.01339015159960082,0.014185960247470642,0.0037718363612215255,-0.009526801648253511,0.00486210424853717,-0.049334430797998555,-0.009461987807142393,0.0037481531316637924,-0.010009457960166526,0.00868284037354538,-0.010613346277275471,0.02441232093963593,0.007757699101891728,0.003851148579763652,-0.004892962160179945,-0.0007740515190785648,-0.01584609895487023,-0.0069600239608103645,-0.003275642480420441,-0.013406972126617131,-0.01676014477149725,-0.003570590062893691,0.026093308654374283,0.014370322696793458,-0.000883374829217161,0.002550531277772464,0.0039407050387839804,-0.010730250010622706,0.01722564017177271,0.015378288553005857,-0.012743017243325973,-0.0051041173272216005,-0.009268370901442408,0.0017790235762798884,0.012962216881107604,-0.019361215696898536,0.001807293349753804,-0.006230669969711844,0.01202613664511357,-0.009991036989869969,-0.006818346454816608,0.003022909676530278,0.011003133706564822,0.009894705621425854,0.0003280592866717129,0.019436112493420577,-0.003103348413037502,-0.005538072648024427,-0.00020384838249405145,0.007133032066388184,0.0001802761175523015,0.0297305681245783,-0.016869271141425314,0.0009145044993415304,0.02658071167694096,-0.003290018204204239,-0.01781345607759664,-0.0016993352998643182,-0.011153620781043556,-0.004530946013213719,-0.009954715591369043,-0.018482856163531874,0.0006736413993866851,-0.0250780233682435,0.0031462088025127717,-0.006440346496771013,-0.009011272654824256,0.004977507621366201,0.017825761794513686,0.013927660885489083,-0.0024575458911732283,0.008173528012055422,0.012231127207188839,-0.013999742701933217,-0.007855842245422387,-0.009744784254441878,0.004483086931562863,-0.0031721820717962148,0.0009908447880276397,0.005663874825783269,0.003945548472395671,-0.015226890020539412,0.012254133956075034,-0.012413616446610098,0.016058488722552576,0.0005753608670373622,0.001632794899042332,0.02075380067487091,-0.016632351340915376,-0.019207993467027434,-0.034511696099446154,0.021508807799683623,0.005627870278543167,0.0023442247262043165,0.009902636013998604,-0.01685006375332915,0.015563975870261617,0.016399631520170453,-0.0041341913384398505,-0.0059102565094168785,-0.00048434619024742537,-0.004741043339214763,0.015089218021792297,0.0032893060443909554,0.010140240423939111,-0.0010496082820603185,-0.006305543750115589,-0.0033639009645558197,-0.02391106859050921,-0.014551467909357766,-0.011971180712313227,-0.0028196864517921905,-0.014565510385047812,-0.008927748346959558,-0.001914870416913831,-0.01931353687721488,-0.004162442045738311,-0.004884761379200275,-0.005413574346012475,0.001535166411470444,-0.0039039419485397057,-0.02076367636628634,-0.012129779807529516,-0.01954262351194025,-0.011954838511920411,-0.00659150207643029,0.007704390230012043,0.013846981106547019,-6.689641838156728e-05,0.016286691178858136,-0.005312443771766682,-0.0019610268366702798,0.014220551461446513,0.008694044307241897,-0.0019356637725206499,0.006918187982940593,-0.007563650308421273,-0.004952800587594221,-0.004872895522805432,-0.005694500425447924,0.0009923370967841946,-0.0013699627322456256,0.012150277722036737,-0.014910569827311728,-0.005701327913643511,0.004821324056861807,0.018597087780363595,0.005566518820512333,-0.009335760463021621,-0.0030587435507662773,-0.0019845675508803227,-7.690784720376507e-05,0.010124674147266772,0.005696512167283715,-0.011525696919516137,0.0004456832223378845,0.0014182019296461847,-0.0012705687854609538,-0.0022828811207158024,-0.00494121023394411,-0.014035018557995348,-0.0013061375945778904,-0.016616021790907185,0.01203054087834347,0.007322926786718705,-0.007730027144334134,-0.009878235910564876,-0.006574652363590927,0.028101006422235033,0.0033600376630904603,-0.004841623864137224,0.014094876324304846,0.006367032125575755,-0.009080325711020054,-0.025795724957540036,0.0020615845730753675,-0.023332399298946364,-0.001830174639909801,-0.033247479257468855,0.010285944242005216,0.003092337411601781,-0.009625529409162259,0.0025051180266433396,-0.005583208098750376,-0.009209902686013257,-0.0008201790529407042,-0.0032507303804394172,0.00045773533994731793,0.018526031240595334,0.00021457780021128057,0.005177359709971351,0.010424889827752444,0.011492384066280092,0.012340079513691642,0.016316413765603312,0.0017977375142240882,-0.010591774168520703,-0.0038048724770740464,0.016927670148022267,-0.018594255016603032,-0.014699701829009303,0.009612695963118405,0.004508067285190823,-0.0007958424765820183,-0.006296434399957347,0.02059938994292519,0.00683498726919584,-0.021517718736099117
-1.3231606890291874,0.44023758198231944,0.09092764970109204,0.0020775630654443927,-0.06589364972794023,0.023861603990887076,0.2498760845482189,0.004020632445638568,0.06011755018253068,0.007344904713846732,0.09156032732968367,0.09685609920011634,0.11592841423167535,0.053739373173539384,0.033965680274210416,0.03040778270646134,0.027972682819856678,-0.0017978409984458388,0.7552181289058234,0.9675261133278663,0.4195794964589551,0.008927138705198418,-0.4514675993981504,-0.08290571984753167,-0.5375565690796769,0.08674893215808785,1.8429434762758685,3.5866034978290844,-0.006613481088825291,-0.9168330964209144,-1.127361030269592,-1.7935097902453576,-0.4992398578337298,0.05513979366406296,1.4474697668899494,0.25099546962364017,-0.934586950805449,-0.6710575168146337,-1.5802352933824158,-0.5597077963491359,-0.46694797348933903,0.29773548431394076,0.28932516591629165,-0.100731405913351,-0.06864782305628714,-0.09824126382279233,0.005043728594189269,0.06115957491768279,0.22508651017481546,0.27968009400801014,-0.3939423221317665,0.04048213769089287,-0.15752024887646754,0.011634817902930281,-0.22239295439787302,0.008673013691530732,-0.13285131434683306,0.002094156910062763,-2.2863775968061475,0.8993005019842968,0.521719641442548,0.029145548460863473,0.008962368543891328,0.04405129478329387,-0.0062939877406796695,0.3640336992301687,0.012770483400588398,-0.06873373491834232,0.02608601807704059,0.0009317215472531683,-0.016766649198123474,-0.00780019920663079,0.06153919512151054,0.039394184113655244,0.14146422137071402,0.031006959902880764,0.06216594555702548,-0.45810941585268294,-0.02195888738880316,0.1589713338694603,-0.005262017896889789,-0.3171693409619398,1.261081799566892,-0.3735306628702211,0.07968833314633013,0.25553271516549725,0.2959577486910053,0.7412923220923738,-0.509462418142452,1.719151252768733,1.4630007387350377,-0.7052820458637225,-0.020491967484597674,-1.2646756669259576,0.348465758257573,-0.17458981035425208,-0.20541983161165173,5.148916825365947,-0.4781719516449436,-0.7582760458636448,0.18549990511326236,0.17443781025398686,0.17993430940255606,0.18703887835764346,0.1887051716546954,0.0210499677913921,0.13199601599718166,0.0542284215604478,0.0023738465241906993,0.017554594804885127,0.051027874793866036,-0.13497260616973203,0.1786729886661376,-0.22222179087110067,-0.019906376415887963,-0.3826419582068279,-0.027924645008351432,-3.059167463100083,0.6592032818513207,-0.0794106209951641,0.21965315713183373,0.0002671905302624062,-0.11306179824721518,-0.0034118763490516932,0.05633430090817722,-0.011611583680733466,0.10399887207354437,-0.00728899457004763,-0.04264673626893397,-0.07608554257990725,-0.10240088804763897,-0.09995659793787565,-0.3545054148993798,0.07306798206156608,-0.0787296265313361,-0.1448804025505841,-0.41098850233196804,-0.4441337945891694,-1.2181352599574227,-0.36404481336672434,-0.20589740756125996,-0.06869165538065053,-0.19728459992840153,-0.40452750460530046,-1.0842652105331725,-1.8404073294885477,-0.3167639914002415,-0.6552599092590473,-1.600556484753534,-1.5987488758269488,-0.3690524676283449,0.16936529064199268,-3.5327337588232464,-0.2925001839888535,0.3256670929793213,-0.38806046276206546,0.6379437087546223,-0.5857998939082992,1.022091664308895,-0.07063064326187243,-0.2590145472826352,-0.26124347238182066,0.020213880484798087,0.15432950742352705,0.10372642371757747,-0.26211672082172577,-0.14075283325328453,-0.09545393699500154,-0.22133601058900754,-0.13565841403530365,0.21588943040340766,0.059147021261737744,0.5088860640249419,-0.1451881990564586,0.1312505100392255,-0.07886081035273461,-0.3486116688005931,0.3370362048448964,0.0414954277906646,0.13371298046682,-0.02691755777408079,-0.508346854072643,-0.01616853973941846,0.16235176205296173,0.006817266340110502,-0.007301907412032593,0.045577584525191964,-0.3354970285364943,-0.03135641190152227,-0.10702737507426914,-0.2067096863350062,-0.10569434058159334,-0.03965487868256391,-0.08658208621049941,-0.0040289491402960296,-0.5905857614935224,-0.419047724835877,-0.09577996240084671,0.08170501771345609,-0.615188578012008,0.050815770911873885,0.18435697361726805,-0.15716674033635633,-1.0253197759528248,-0.726839945740117,0.3976688462594575,-0.17157151551680536,-1.2072700933431288,-1.2638522561619607,0.14204422338791964,-0.6115937897530392,-1.2481946750132868,-0.10729150777728116,-0.16763190026673383,-0.5331581283302521,1.306381862043724,-0.5948405256504115,-0.1720836496054858,-0.41628927337681004,-0.22987210233824684,-0.30672712014638803,-0.08134871010450023,-0.002816865599748382,0.05810152761112144,0.06539372067386302,-0.3516453227343509,-0.3271163684275364,-0.042367244359224225,0.00025668249956922696,0.22899848959038088,0.03397199007929098,0.7432940044024765,-0.05930945156403515,-0.1230535429004901,-0.1441465304794531,-1.392318890582329,-0.02012523002107049,-0.27475153628055626,0.05930258507816448,0.0015172409291726301,-0.2346137109962016,-0.012825684661650823,-0.27243600744459645,-0.001689275367321603,0.1516672699415543,0.007107120068743892,-0.1553792246304198,-0.2162902838215844,-0.21791336768195183,-0.13018202132619347,-0.19584179144412747,0.040447440379254955,-0.0018623411206592777,-0.06459025107595254,-0.6674113501023562,-0.4568038847912711,-1.1497522762457002,-0.8807003118004381,-0.010128292188543078,-0.12463061024381245,0.46056952928958816,-0.8680217339412986,-1.7011719841229258,-2.142546315756932,-2.880228570899741,-1.7080527376246715,0.35404599261758124,0.4919183465840798,-1.4876222011856624,-2.1733364428931634,-1.7018471542198697,-0.778515906575088,-0.21257762981869616,-0.07202661761404296,4.293169539759106,-0.1649579458069899,0.19571265677329502,-0.6013986005502702,-0.2782615455424541,-0.3068004088255141,0.02128054496997888,0.19146392448004396,0.22052597853022987,0.17555428055223643,-0.1274562136991611,-0.1397464027863108,0.11353538028542984,-0.09502167433717824,0.5317195675622999,-0.05911235055911381,0.7305587615953366,-0.06418778722482997,0.35036236766270257,-0.14136813645249224,-1.6681667597576184,-0.038292104010989154,-0.5680451453655173,-0.3674140784275962,-0.026942819419382223,-0.2912329679134752,-0.002512344999946314,-0.41278128234962763,0.011253681653258806,-0.1516226595537772,-0.0037951669664433836,-0.21871324707572962,-0.04838072642979127,-0.1923866771568443,-0.0837937533929213,-0.07564394949042456,-0.09631474214554664,-0.048983539750810934,-0.037864743329790326,-0.2606004861573794,-0.2351463542507884,0.08625835298962285,-0.31721857549246063,-0.31358923962898677,-0.2823049920714819,0.27819636691293503,-0.3160394198902015,-1.5613176200913572,-0.5571641916577388,-1.3115351650506413,-0.45181062858297794,-1.457499078611051,-0.7214008956174525,-0.013476794959699607,-2.059339439765578,2.4695053631386594,-0.5350468391156935,-0.06572744151212179,-0.22067357181670016,-1.1504320688193213,0.004296117434796452,0.029422760961687274,-1.0084535481616281,0.22891087371516763,-0.049313949065807924,-0.22748875158326062,0.03388262326762001,-0.03058582333871472,-0.10430584114033946,-0.12738470905492458,0.1500401879931332,0.6469464447273671,-0.37925695084286026,0.03305883045733977,-0.18364907502834388,0.29413759655551774,-0.34192367986611677,0.5652165738799833,-0.17312437304805203,-1.306305893304297,-1.0446517770699406

Wj
-22.523353330454707,-48.354625109325546,-0.028788976856942167,-18.848135522606928,4.192649433095962,-26.720827915835383,12.308281405443932,-0.014105433618169228,-3.8972141034977406
-4.296427064034721,-2.554695928535865,-0.006299920559258997,-0.7190504553940574,-0.13842420691879076,-1.8707738218247987,-0.40950272283503036,0.025029161906351995,0.2955029936959032
-23.619682033027512,-8.689045632666444,0.020518702551267903,-10.17827702589043,-0.2102362147526487,-16.46985528134288,-0.5658597119123703,0.04201730908208789,-3.1920925722733635
-0.06946346753580825,0.005374280494082629,-0.0030410356999480905,-0.0334868299505204,-0.020710965521918253,-0.041323142640829626,0.004659885286425382,0.002317112681004701,-0.013171323664507139
-3.605226588543817,9.02348098304719,0.00308644377923437,-4.991489937334603,1.7808277066891365,-2.886331184516924,5.0445529722409175,-0.003649093366037279,-1.0408996211475599
6.8985661071830595,30.738961351874966,0.0011569237884740766,-16.031657710451036,6.077963630019707,-9.743542566147429,17.31177264166887,-0.08207556822600832,-8.503128395128208
-2.0203075403278077,-2.5625755655908735,-0.009442761908445368,-3.0865258390024763,0.01445931582697121,-1.6045470538167697,-0.023651146807453605,1.685193609926707e-05,-1.590757167912741
-0.5593877224074365,0.008854507462379937,-0.00644398698042756,-0.32418284313703516,0.06842650407886117,-0.2817006404735623,0.05363456295770009,0.01076186755892123,-0.06576415461386699

Wk
-10.867861731150434,22.330155808425907,2.26479079862965,10.773033305904839,0.005488434744579081,-4.550020270305704,-0.3321643403096688,1.3441377599642583,-0.0016683081955384108
-15.584967450268595,-3.925039183670659,-0.46372453485917714,0.6988785507562175,0.01808409759843805,1.4622985650488416,-0.633859940204536,0.5001029847948674,0.1552541334047268
-11.73703307724808,0.18525945775193198,-0.13151868289569588,-0.6109120230007611,-0.007439374523730347,-0.10334886023424542,-0.4500997922734612,0.0016457315649787167,-0.011705673137361327
-14.75320524910197,0.04346149411653712,-0.3162155496181411,-1.2116315206178343,0.008341700898026433,-0.499586752721555,-0.6962042679493946,0.0810787382132314,0.03646261893393131
-5.951225903104813,-13.919662078172523,2.7237533810925245,7.067399703021999,0.004728837447454389,-3.7209332280548573,-25.399371067802388,-3.5101111283937603,-0.13995338426507084
-1.9856610355443447,-4.119087423328156,1.4128089854461447,14.18560770719086,0.05082787496034847,4.337569032015663,-5.0526454803748475,0.8445306143648778,0.4108085690016586
-1.3113455378875778,-4.610873278829842,4.437900327679149,21.684823641603963,0.053656768095930146,-3.481108739476689,-22.156961730655222,0.7882933679301484,0.41236737294067854
-2.1424080047020833,-2.142755080592696,0.5909454329037589,7.30798601293331,0.029141794576055837,7.991399912743212,-3.3286650154452175,-3.303336167064303,0.215786676190676

