Wi
-0.037301165994405694,-0.01502402203642165,0.0013907694526440705,0.0005473507655137769,-0.009352906847701516,-0.02157507801375696,0.00048469303595858937,-0.017080178374374127,-0.006051990072541466,-0.004075611043680295,-0.0001254719224088453,0.0058611513243073355,0.003438954480360966,0.0058111381787160155,-0.01382392308776148,0.0018663214429392682,-0.002305992872797482,-0.00021373286163266477,-0.006854428664202159,0.032292558531628955,0.013423066425768874,0.004664902746111915,-0.00947062332077817,-0.003308614195110429,-0.02202941110648103,0.011656702098167531,-0.0034800615561903377,-0.0004013668828806487,-0.024014667437582786,-0.018996560861644043,-0.010661836741294813,-0.0265394899088852,0.002592367230691285,-0.001772629582122519,0.03741404976670635,-0.009174346490690372,-0.037189281780817214,-0.006768428468990638,-0.015516833156592325,-0.03406160490615873,-0.014575540901092018,-0.008495550219664904,-0.0026875911912055957,-0.009143684679767408,0.0040822104140449495,5.673744168258167e-05,-0.013957298140778961,-0.010930022457331885,-0.013898263257076132,-0.014828229531164831,-0.0032172108738531685,-0.010278933128203624,-0.0193722463453663,0.010118788206840298,-0.012804337825123949,0.002640141000234882,0.01325365656231229,-0.006888344374349603,-0.02895513804108029,-0.023276763631036895,-0.009613067868562003,-0.018808393825162726,0.012415115437203791,-0.008830779768307642,-0.0025722792595433515,0.0019530614897019093,-0.013002480659237125,-0.01019588545087211,-0.014348208098884145,0.007666834436174449,0.012619163397817778,-0.0030542370392628937,-0.015142935252739347,0.0024065678553688357,-0.0016932623906721273,0.005160537601378337,-0.009595692564714813,-0.012588905827785487,-0.013485640917729724,-0.0037638999947835336,-0.013732133137120756,0.004181866964965322,-0.0031094006950312153,-0.005625873506294747,-0.019855947483304246,-0.02005442520165858,-0.006331449592566971,-0.0073996662885375125,-0.02843681536582807,0.002505398819196432,-0.00517817338989052,-0.00032514754594513163,-0.001739845871303165,-0.025768560564789853,-0.006879608140859843,-0.02305998859003726,-0.004909099623148548,0.05483261562279569,-0.013937607755448325,-0.025451606837989665,-0.016649278080490784,-0.0008329433398093085,0.012493694001448856,-0.004554728908869214,4.241661790255261e-06,-0.0033014229823856373,-0.015947545852441843,-0.0178902933825796,-0.018138667278771954,0.011484692449032814,-0.00673403576411985,-0.002573787369478214,-0.013199529705555988,-0.005809058535594203,0.011167554141882852,0.00188911188633881,0.018308251742535527,-0.03930198488598613,-0.026743936470276317,-0.022192043311706364,-0.004198795742035274,0.020958569929808823,0.006884715368421709,0.0004388137447905392,-0.004268722946769811,-0.03148325416359703,-0.011034596606018004,-0.0010442751675600946,0.008846907255754894,-0.0008979121444641254,-0.014783396076859114,0.003728419108393576,0.023583004975258358,-0.004252436276911211,7.843838111116414e-05,-0.006928864513553884,-0.026953117782232278,-0.01908420154921752,-0.009007422722448753,0.012828454128667009,-0.003262086915620186,0.007043409345693957,-0.01603715795276608,-0.0013029083861869216,-0.043605615116654416,-0.027326735255784326,-0.02325436268048696,-0.016010546437153876,-0.02447950395437447,-0.005954258781588457,-0.012676511880180338,-0.03716806164916878,-0.028020755117503064,0.0016464504830650392,-0.0006672710414241053,0.005998118291984296,0.025037308502953312,-0.03183693168804454,-0.019160919487606475,-0.0414894310962095,0.004565266631974425,-0.0007472730298491102,-0.010553199375593549,0.01742556872331757,0.0006831691713460151,-0.010247969927468634,-0.012502215988157725,-0.015095352900348807,0.0025885711139131736,0.009929161056136214,-0.0032296111438051313,0.014814099769700382,0.0031374642353029208,-0.00249784473828083,-0.010732960365027832,-0.0034777679838013955,-0.022032307257758267,-0.03363962701694503,-0.005212404038311186,0.0055733562611537625,-0.013904690090107467,-0.015325693152298784,0.007366900896006799,-0.0016588031318565226,-0.013164854745274394,-0.011641583042386168,-0.0015026550583216527,-0.01815964692173621,-0.009149910225490252,-0.010718797725046629,-0.015683061429641487,-0.0009369160414916986,-0.008568683585333461,-0.009436050232670717,-0.004993778014481565,-0.0076704626200999925,-0.009101253009552585,-0.006949724584581195,-0.008501768426549376,-0.005597426638689801,-0.014714489216326069,0.008157682079435222,-0.010325502336555728,-0.026337858641079057,0.0036280822448942944,-0.005957625283264848,-0.029479087465000813,-0.0502888404083031,-0.047389248742097295,-0.01735310597573694,-0.04838375436683556,0.012960624302110837,-0.007744889224109081,0.05565672484707812,-0.013509025381608074,0.00423118387704841,-0.011329671637550071,-0.014605050266586104,-0.01893870195416598,-0.011666061764298722,0.014910427908542556,0.02708175143503007,-0.0004789199785332907,0.001402274479411721,-0.014855186540575467,0.0008120707113172477,-0.00499591180386161,0.017289436873402717,0.007170184734968816,0.017611831495821982,0.008745733042794968,0.010581620244861083,-0.004822018816045941,0.03618574580955205,0.0014708592155352597,-0.03734603382091248,0.009900532295935656,-0.008574247771958698,-0.0010214582449813367,-0.010113442393097352,0.003324091020551483,0.009298221036340449,-0.014939500424100402,-0.0067882299788481785,-0.012403827649577686,-0.011012044748956576,0.0001989057148602084,-0.00216108821163238,-0.033791777515273104,-0.0051854453656826035,-0.013868824245768102,0.005504728619216206,0.0020968923055189096,-0.007461302962655178,-0.01748228942374085,-0.017244720350406112,-0.013149333093503033,-0.011876052278318073,-0.01749570536733554,-0.00820400356956888,-0.0095134258959116,0.003401683345414254,-0.05042224640437027,-0.01207951432821313,-0.02856727714631296,-0.03658898211897268,-0.012676116241280186,0.02646389610850104,-0.011371102503087241,-0.041777481327161255,-0.022971036244812674,-0.012032717237595922,-0.01545657076081288,-0.00398642546403543,0.059453490430153216,-0.01724502668598349,-0.021254738910277064,-0.03224175829599896,-0.002380576145520247,-0.007693990799366308,0.009083596354076049,0.0013297859235510137,-0.0025657138906876246,0.002709535839372899,-0.023351268797246704,-0.008166997019842807,-0.0013706223755288812,-0.00627483441726871,-0.0018838416264057606,-0.008151682982230589,0.012675531935357014,0.009363684531384999,0.00261254629033104,-0.028948508245408733,-0.03396338506272346,0.0035227878759957042,-0.005209254813683502,0.013755359684515415,-0.005142141882844164,-0.017608960320402784,0.0010219842465040397,0.0093005781063351,0.002812579237216375,-0.0019059166984590212,0.010020151311156779,0.008453372334320808,-0.005389568561090267,0.00048295011555686345,-0.0025895380408565995,-0.010561523464232218,0.011936172486804827,-0.006349414589191693,0.002559291651562742,-0.013751298879915882,-0.011319616604647397,-0.0008467004163281414,-0.002559376771146803,0.01074261506802168,-0.004331332717476114,-0.005943206756800537,-0.005411546351366996,-0.011900393108855618,-0.008428123285342204,0.008049199213040129,-0.026335747616942524,-0.03946220837270406,-0.009256317373381612,-0.005587234049125362,-0.025736751156253106,0.058819570234896576,0.023417174609220416,-0.008542105045410186,-0.016891563473801257,-0.01340743513696119,0.0024684100799717093,0.013550159992632175,-0.02429567950393895,-0.014159035098367927,0.006841378774115958,0.00866459514660196,0.0033858895619968297,-0.007939079053550853,-0.013685675938594875,-0.027585840050432638,-0.004876849123068525,-0.0029713617007859345,-0.013874180071077153,0.0016277960389754276,-0.011003992753625562,0.008073563270639912,0.008274147795034267,0.004637405306195834,0.01814819054967667,-0.0643152587790629,0.0019338946197210145
7.334400900482852,1.1142789287856145,1.7594028974769242,-0.014611889531549339,-0.5171766903547701,0.08559671943427002,1.1719490448362506,0.002694589045749572,1.647734950801944,-0.09842342322868633,0.12719399078898952,0.4967370480909474,0.4720875493129003,0.49898513669085964,-0.14286191791051436,0.11586076123267829,0.047568311903939994,0.11940284281588932,-6.230990787359126,4.00586464806462,4.594483853798836,0.26483196250466756,3.4810868778251978,-0.8533285671123141,1.6704648742560575,0.10807132996330494,5.463265883306761,5.48987987080168,-0.1496335574814272,3.072142645226134,2.0149511253733454,-1.3057532582212954,0.7381257948339702,-5.337873938342078,7.352816380795623,-0.8098176385715085,0.8906091354751428,-0.07160462796467737,1.2110676808467478,-0.9843359642327606,0.05224068852764556,-4.0958126060977555,2.242517962735387,1.0851491192370801,-0.07825555914972128,1.3263579020585208,0.6140260887009077,-0.7113716100551136,-0.3741608419277802,-0.8424626286997772,-0.7169743566599343,-0.06385808128158113,2.562803096728702,0.3560951695572168,1.4764115011035737,0.1479849026920925,-6.475852067851111,0.12193438249887087,8.971818081100498,6.065871496775041,2.9027058083936668,1.5572523017385245,-0.14247344819164895,0.27069463723952863,0.053134625064745505,1.5441163431122424,0.08221250505754969,-0.0939203395000861,0.032968872802173754,-0.15893295025994653,-0.48791845568909636,-0.06944338375166062,0.4702332537111055,0.3154266711550464,0.6605779166191119,0.42331719324817496,0.030249217248708337,-1.5081634205571457,-0.5789839682456761,0.6852188559221617,1.0767832518650002,1.7645927413292566,6.036760845907275,2.6447815944444497,0.10392262858986873,-1.3472575891213114,0.21634777509219116,3.9422662034387304,2.4054417758672693,7.661766465979315,0.9141355796192927,3.9196888010751616,-1.097747442741216,0.11152473452080622,1.1092154152522657,4.942754274521041,0.9642282236889103,12.298825290084984,0.749599438970249,7.324108698553972,-0.11515721966980827,0.6049627573097651,2.1338882411433624,3.0589077129061697,2.338232377469795,2.327276658144939,1.4532673401496297,0.771873170619269,0.23946243592374505,-0.342284386467369,0.37444961612586736,0.6011199839785238,0.7369641883382254,0.32259530270210873,0.10410487596711514,-1.2280490452894115,0.07041940133901363,3.879969104898507,5.076222240452433,-0.4969166588654071,-0.08025209870472733,-0.029025004549716196,0.4957459493318848,0.06516119458850514,1.7934780553734608,0.03195767771410199,1.0900043277917502,0.012941582801167018,-3.2761073156404685,-1.7784310278335385,0.2768540462430051,-0.3112027838647118,0.20231863043694726,0.7287553199568619,0.09966861696588222,-1.699601988735664,-13.833528905959444,-1.4040105889110213,1.1819521588215633,-0.3743573685421959,-0.5624713755588062,0.6459822140829022,-2.8538521484956556,-3.030749214732598,-5.3076093570174026,6.728270024478587,4.003280196514882,-4.052054384688288,-11.953999590658865,-8.409758198924854,-2.9716736168999818,-2.8501583491588387,-1.3461379107601559,0.0902305173500672,3.258835332729885,-4.183654365875237,9.527496634363388,-1.0755289368148997,-6.037703726470123,-6.715888881893605,0.09418903195599203,-0.13754463634336767,0.12178187733119697,1.8313661180400747,0.17132999751576303,-1.9084920391632916,-5.532507588452583,-4.564896358937027,0.5216278803347123,-1.1705162681990542,2.696008317194442,0.22988624100848135,1.2713421846001545,-1.76095620672743,-3.2806050981844916,-0.41542640761823146,0.5314244752416771,2.363886305151485,2.221289801284512,1.1313827607448794,-0.3270538045792523,0.7254516755315238,-0.21464177605871287,3.6026146034591293,-0.09963534737760808,0.8674254630347852,-0.03276690332741576,-3.5049414347104197,-1.670042134943887,0.4798298046154146,-1.5589945475645057,-1.1295649739443483,-0.2299837307748766,-0.25136535069916216,-1.1013275656474766,-10.58382319596289,-2.6694891359652715,-1.259535826549735,-3.75484677730154,-4.7020862986729,-0.36854236497375037,-0.9916318402653218,-3.7539570472683166,-3.2411290350718236,-13.288107016994477,-6.650643820523329,-10.894226189290587,-7.003379652454536,-7.094610380750627,-4.301556760833143,-8.855468777938853,-1.1763352904628843,-0.8921494064295796,-12.17508838369953,-2.5789814676765923,2.808267872780075,-0.6186560243990471,-2.666971297483844,-5.596430642900034,0.33135283924430176,-1.2581687771673886,-0.4556264992996157,0.6061762415586126,1.6080921754434438,0.4940054894296574,-4.756782748687632,-3.851596190293259,0.979136106571717,-1.9915148325155476,1.721812365216301,0.2287001959025995,1.9152798683361438,-2.823790412886049,-1.8806573600074143,-0.5711408502091404,4.065863509408369,6.577389860477809,0.324798657184656,1.8093048090545945,-0.05239858950902685,-0.31814005089759523,-0.04605105388041478,1.2330994792881902,0.03158541784060054,1.316929297454328,0.04819682477816049,-0.6543105560232397,-0.3699487037051509,0.0631309694468062,0.4474320399708623,0.3391486314675078,0.21159302046291106,0.4082664845740826,0.054046121932383916,-2.2490042055033994,0.5362784655509608,0.6960844339441975,0.26607907604220443,0.031356724815048545,0.5302617691649614,4.166157463399979,-0.6530994665392047,-14.523077730356373,0.17518692943606198,2.2122611283845504,3.571346614458465,-1.3857788119813492,0.7010977492535816,5.979783343557974,6.853981620277987,-11.157031797841157,0.6458823716610962,-0.9110382834667436,-3.307766543006475,13.437041567950535,1.3328743641574596,5.862181218677946,-3.563728477346495,-0.30903682819131184,-0.23072020021851436,0.7201934244095974,0.6387697989835847,1.2549555101562548,1.460107075505245,-0.7504778932133297,-3.8080079395192734,-1.139404418179229,0.5459567157799948,0.014964742529530908,0.032226454500895486,1.2399010907654684,0.8791239065740567,-0.35762079552978193,-0.735378628666274,-2.3678943153465504,9.352258519582595,-2.406480665376784,-0.4647908516156291,0.057577882852321884,1.7875864844530993,-0.13212198559492258,1.5745468491099075,0.0028665215951998928,0.8727297165265437,-0.048054303154940116,-0.23485111739723546,0.2362007298642409,0.20284905438352144,0.32524409291054696,-0.13996141643823898,0.22843080465639634,-0.22420309459554197,-0.2371763011780116,0.6771709736204723,1.1376322893512416,3.096722061063762,-0.1570841143301036,0.1605566068193592,-1.3522731482887056,3.774706971210933,0.14301133849540548,-5.3889135089966365,-0.38247720732620827,-7.404592010342146,1.5924303649248304,-2.8203226022724266,-1.9148759758951241,-1.7021338881424215,-2.091002183256378,8.007261947238737,-1.4955559069457542,-4.756560270989565,-1.5734348266119291,-3.4661703786646383,-0.24777996843268396,-5.27994632286962,-6.211716050121466,0.8244988584718292,-1.6594819411642752,-1.7036915402114545,-0.482993266901157,0.13745355847117843,-0.9055959425825978,-3.292886060981209,-1.4115398552833698,-0.3066843860517579,-1.5341683969886866,-1.10717454214384,-0.0441116684681907,0.6252336755670543,-1.0093355015278684,-1.4335024551468043,0.37825333884721285,-6.860093464331381,5.894451665112476
-0.005931451665202613,0.0010749697514557668,0.008226029089529735,0.008262717471541765,-0.006652402055704974,0.006345469419157181,-0.0037562415096186303,-0.0119134584089892,-0.000988679027518993,0.0032597855548633925,-0.0032755068710823947,-0.001852743838064337,0.004581313822120998,0.0007640102028658455,-0.00853902433140425,0.006501827276145629,-0.009367382912248463,-0.017736255487525682,-0.0022618373876859524,0.012416752086594375,0.01035685374908318,-0.0032551373901538515,-0.0001481832868396143,-0.012455788980082738,-0.008620518981285411,-0.008741396222234278,-0.002428082005560449,0.004033115961439657,-0.002749765033053639,0.005424125193900423,0.004292852314965736,0.011054985341057155,-0.01278013954735178,0.0040755306234174695,-0.0033630906208945463,-0.012643479956795368,-0.0025435210450030087,-0.012594564455635397,-0.025259756610100877,-0.006309520864632935,-0.011144414783578006,-0.0021760861242522593,-0.012447147027027565,0.0038247940357607,0.0186202260264117,0.0035080768540143416,-0.0002152551984281032,-0.0029216446039515252,0.007423637948975519,-0.0034867931631731887,-0.011403271581982326,0.0012668590179446516,-0.006279833374309761,-0.01819182106318112,0.019067428466457325,7.628543216958865e-05,-0.0012120175457484238,0.0019976257863006824,-0.015176376839359572,0.01782609077921766,0.0071226212466084255,0.0019769477751879865,0.003594688879611501,-0.010149372201187072,0.002381665903517166,-0.023023288910224954,-0.007040064250141475,-0.016036906444965474,-0.0187736228353829,-0.0019413545990419748,0.009149137932914308,0.018679754058082434,-0.011836827097461946,-0.0045642649538643,-0.008769427761603658,-0.0013808680215680123,0.012239618541165091,0.00962669883518833,0.004984734645565643,-0.007326668934226993,-0.012856096686001928,-0.0025573588477153385,-0.024368408733794405,1.8597859328660115e-05,0.004836242504256386,-0.0017559876066754094,-0.009675222316237254,0.009840982557730027,0.007018680519538217,-0.013731768064379467,-0.001490470154427578,0.023642766058521312,0.01838136402391953,0.011655404457763755,-0.005118635444075125,0.007694976718313386,-0.005066127541546872,-0.0026704928672856036,0.021412817723650498,0.002142839231069009,0.019791802800647674,0.016579016684345877,0.004518275470009564,0.020079641198305697,-0.0029967000734433167,-0.0064240154814263085,0.001050836519959544,-0.018985511774019418,0.0021300561385484106,0.006226603487773169,0.0028914911875897865,-0.004091354576919979,-0.016640485567283404,-0.012254956168332873,0.00533044424690936,0.007321517469978701,0.007797843264300694,-0.005909400773515331,-0.027806701210238618,-0.008214445615822932,0.013338409984845619,0.004882941009280267,-0.008348173053399946,0.0031336776620047952,0.008840347939106284,-0.004030397374766701,0.010987583305588678,0.014710906200482118,-0.00941221023550043,-0.001435927134850638,-0.022306476660878597,-0.004751110690032022,0.0007275254701007072,-0.003937902921605715,-0.002700619536008243,0.00739880285063052,-0.005390419156016402,-0.004910422915214278,-0.0029159875668175674,-0.004862717947284826,-0.0015785710716070117,0.011433320893874057,-0.0059187416799987135,0.011919984004161043,0.004554138541538464,-0.015264373906594603,-0.00046899911622605954,0.003948213108519844,0.011262089005191721,0.0006235637257202324,-0.015160991780271643,-0.019736942095905666,0.0003644759166143529,-0.0008464064359659034,-0.0034385164827799627,-0.0042707365335002126,-0.006316038023104602,-0.005803017484569822,-0.01566908554132769,-0.023658689401811615,-0.00038212970825943215,-0.002987289803988267,0.010090546340267363,0.018156301187862742,-0.0013093086868241563,2.0494345406542984e-06,0.0032671467989123467,0.006928857933467269,0.0031972232005121662,-0.030080620710990186,-0.007208208548597686,-0.008412412810104764,-0.009887199494190937,-0.008362488757233642,-0.02212127523820981,0.012594897880828909,-0.009768918794731928,0.005372562530693233,-0.015899381803967553,-0.023530558057552997,0.00042257245511075184,0.0011410967424574617,-0.009408544858728876,0.012934212930314633,0.007064015728534564,-0.005643932594045645,-0.006578817538209885,0.009934861769606163,0.0038926007321639787,-0.009801631003281183,0.0055335379175961005,0.006531205808140643,-0.0015567789911990909,-0.00608666652786894,0.02528876776842237,-0.009291748350223273,0.01711207612285262,0.00013380579827985368,0.016186744811714084,0.005561013447450634,-0.00036610025313559377,0.010882513037238958,0.008358952652967174,-0.0012028227519126555,0.004120704055729332,0.02076504736646349,-0.012888656945103,-0.007065814651587431,0.0036201721001001912,0.004366451874391665,-0.012432958849331986,0.002848862935145111,0.004991443980683822,0.004488156529261656,0.00017914274683342442,0.004142373797289233,-0.004527267170373609,0.011921626454467702,0.011314037361519187,0.0048507532986679786,-0.005936237537038703,-0.013510200432718625,-0.00016000748048044646,-0.00530370812160491,0.010375733199006545,0.0016242237963313194,-0.01138656434002433,0.007429792957519113,-0.007862671932521532,0.015299864194560836,-0.007486971981060217,0.0028950470015858022,-0.014770998315285767,-0.00012173167800001947,-0.0027418864636709057,-0.01208795219143623,-0.01612620001600665,0.011374982776818334,0.015729921670395264,-0.002195003652550468,0.014793723144770114,-0.0009053274954826974,0.01100890208827438,-0.02037374296543589,-0.0012343168195944035,-0.0013511766282424645,0.02630724620834544,-0.0013848056072994764,-0.0070110170232040615,-0.00949043718746123,-0.0057397401352107455,0.006064630259541136,0.008702122284868916,0.0005209038715373227,-0.00035067083334190224,0.011908673562762949,-0.0010755889309600343,0.0002240810321450518,-0.0016073976424699724,-0.0029936856243986203,-0.009195364551849028,-0.008184350439631977,0.017042952740317707,-0.006057409963667145,0.01074554567413855,0.003816596869525507,-0.004136843493576703,-0.006534239331167938,0.011244103618532744,-0.004429177398009544,-0.007149013664280712,-0.003570179804857373,-0.007088115547184103,-0.01850102984993144,-0.014948329418254813,0.009402610861062415,-0.0040649990962152325,0.0018396168116600255,0.0057778083623150475,-0.0013610717399750835,-0.005155515175657703,-0.01728390230931615,0.008618604135433274,-0.007018012956819486,0.006346797639114954,-0.013326487517457995,0.00045553265142313573,0.007501480651044387,-0.003902870281805502,0.00584989332811365,0.017602500285882037,0.0071907276437205,0.0013718815189370766,-0.012430359815798537,0.000988389995380849,-0.009761053743490025,-0.019381077735025166,-0.006487856673296823,-0.012035401900187766,-0.005182782842594228,0.004241974202594304,-0.007219652643184474,-0.003828541444403282,-0.007579479638082019,-0.00012046167421374421,0.01554818361290449,-0.012343929313221636,0.004138263418112635,-0.00688989619344968,-0.008130930106698731,-0.0032559736149219013,-0.004900563990612782,0.00566759073407795,0.003364028809551448,-0.001008682539927035,-0.013284672544442263,-0.018245954362412265,-0.0007426647093129653,0.010459711186681884,-0.010808742524386454,-0.002246790757650943,-0.0016503505757853925,0.008796773596937093,0.004658193347904503,0.0012313716178849374,-0.007437523043866445,0.0008128437481423786,9.07115208591008e-05,0.012355520410784426,-0.016798489884308845,0.02691997946228382,0.0035862136273780033,-0.004955671701728352,-0.009063191671170527,-0.013438246590582821,-0.0026390762231922045,0.0012471223244496865,-0.0075347090490853474,-0.008053308292373834,-0.004534339915691918,0.005748881230844785,-0.0051265934281942765,-0.010634103359307038,-0.011183201858156593,-0.00578927722254052,-0.004531710914350153,-0.0039764383211185845,0.005561618160375331,0.008133965609348547,0.002882550475355177,0.00779550273648152,0.00981999632048539,-0.01815946218699788,0.005707941538122075,-0.008842679878319786
-1.3140864751701784,-0.13815235715283783,-0.07600622386686064,0.005401345450308105,-0.03594707758107752,0.002292473825538773,-0.06378237119263096,0.008599646987019786,-0.0512546668573714,0.010005959405809617,-0.013425514944668992,-0.016390102411680502,-0.012944564337290377,-0.0019004118823295227,-0.023889360807469787,-0.007582279633446506,-0.0001352301771937303,-0.012317107265430843,-0.0038215746534428787,-0.06406119206618853,-0.07915209114574363,-0.010334075419884353,-0.08568501620697377,-0.02543186045399079,-0.12182646385378405,-0.02877168673121168,-0.35879012524840814,-0.45802282129822597,-0.16298553371880958,-0.1494784003100459,-0.14748696441432163,-0.14572697626819903,-0.15573634221318888,-0.07782955232080081,-0.3348704659242237,-0.1530847169482738,-0.18695783596327925,-0.0808858238798956,-0.19761362524990328,-0.09382379612416734,-0.20803903418201086,-0.09153757681773163,-0.03611171247349496,-0.043341669363286726,-0.05622786817600567,-0.06403463744070212,-0.04777586145926628,-0.04566197423115484,-0.044020099811846757,-0.006098074987362405,0.01527324213948752,-0.016146381930160766,-0.05328718557404855,-0.0177414181189337,-0.04762969810613378,-0.012071309521723712,0.06300511110896886,-0.007562432216145719,-0.9365460580399644,-0.3627196007282561,-0.10747671087914558,-0.08922358165146436,0.0037536531456262776,-0.017539981498231532,-0.007192011579616571,-0.06497775022664432,0.0015730081487059942,-0.052464120834768944,0.0039027976310716532,-0.007358238584293922,-0.0030700192832480567,-0.00158444971341255,-0.017568883763281872,-0.011587446444619495,-0.03727810804773711,-0.02402047235847579,-0.003129203793741715,-0.04243112054365946,-0.009217093863257485,0.02691452483871522,-0.020960426738890994,-0.15342601900620378,-0.19360191036223826,-0.30112676798904375,-0.021295246146984782,-0.08572019826564264,-0.08914103961907935,-0.08871657204295821,-0.22986295860592135,-0.6384467448284039,-0.6631817243169411,-0.23173078178901893,-0.08352596768201778,-0.06376120586332114,-0.028851928074111487,0.13598305819756426,-0.16751019793640393,-1.3441110290751799,-0.19201164033407642,-0.17741759846533095,-0.058799853786368705,-0.03566522800383999,-0.03172220225034475,-0.07471287948621892,-0.1114875560061997,-0.15105029505968898,-0.10770740604276541,-0.039757524015416226,-0.04138708167886397,0.09263581173349883,-0.016895468221128467,-0.021725495361368932,-0.023252408530259682,-0.09145659169206427,-0.017530275236464873,0.009117236034150072,-0.004309812080990999,-0.4441182649778387,-0.37940011906600674,-0.19079624696456451,-0.049366804572724805,0.004347245399211108,-0.0345433420156471,0.0162321262870686,-0.0778901805601616,-0.0024718472267119367,-0.0536855387040212,-0.00479947858485656,0.02472774318793385,-0.009515720607407777,-0.015635205320921206,0.010703949440418501,-0.01062567985116878,0.009851271257278041,-0.02384189637617746,-0.00280335310461539,0.04615686812902376,-0.035926059569380345,-0.15163352503982286,-0.0443559665058879,0.07932133924363266,-0.018827799625421807,-0.011349446379992306,0.017943724780409398,-0.17370118231278042,-0.4054729431785591,-0.19895916111586603,0.15051302590146498,0.41760890264530726,0.06590597690474248,0.10189332087626193,-0.08951439704195092,-0.27327763206715866,-0.12166987451215197,-0.07122099348498322,0.11495937220132399,-0.08540087264375501,0.026856167580398393,-0.06007912971961446,-0.005864704901947406,-0.0412325502882026,-0.039582678934607825,0.00981273065960197,-0.013756852679257844,-0.020451285211727822,-0.0156626237516642,0.013729877967193438,-0.0130999034008199,-0.05962179311348761,-0.008086159416579867,-0.052575655902877834,-0.025195126103495467,-0.04019624390947557,0.003593035923673423,-0.013651193003490533,0.0027537767138079,-1.114378648204871,-0.3879345281066849,-0.16555586844339754,-0.06503295116268802,0.005062194641322015,-0.01071289135463967,-0.008055994753181906,-0.04307970722915935,-0.015686810597411994,-0.0013320296250745277,-0.007429244741551654,0.015108956007297121,0.012283252467238348,-0.014363737152137146,0.05389594413973155,0.048582654766794846,-0.010209460198466656,-0.01652339301850211,-0.0005087352979942211,0.08503794659777579,-0.013908260798992905,0.18856318168608635,0.2173428370116074,0.33995419532208204,-0.07954884130204823,-0.038391529625626655,0.025942743769095496,-0.04709165264587886,-0.15472623797305737,0.7816917442458843,0.8047766858737858,-0.06668276835102391,-0.24501057153915295,0.5050549014537756,0.12687035913732234,-0.011113877646633413,0.13014211937962789,1.2761748796956198,0.1634219900966857,-0.4002351463422043,-0.04277983702834782,0.2223851817036884,0.04731052386452293,0.03900485823185397,0.1357500622310911,0.12116366342230903,0.05251416680666424,-0.049920956279152,-0.011769076445996606,0.04398458428647935,0.05551300676608997,0.06422317832854195,0.04558817915146388,0.02725191987690971,-0.002657937324576415,-0.041572975562784074,0.003889472979270952,0.03216087178829275,0.024731786475762556,-1.7213772123284168,-0.1450046678476106,-0.0915430083242384,-0.055100257186586295,-0.006448281100772113,-0.03647049934843697,-0.006159783276199372,-0.05697653968966259,0.00289774202936099,-0.04501803290015858,0.028905208208859987,0.004099831709798727,0.0010872395570217127,-0.03200973187489517,-0.01627896062995782,-0.024025900143611913,-0.024531710290183216,-0.03978538202618986,-0.018992859048018396,-0.04173905452737453,-0.006555579120941285,-0.08843330192682589,-0.050007433975592146,-0.23961088173060593,-0.052111847304851106,-0.23140243019900839,-0.04956037809671879,0.28073687592060664,0.01636488005116108,-0.2050145950298505,-0.2529800666161568,-0.17531662525215252,-0.20108320563787033,-0.1515954715833307,-0.21327034558103408,0.13096373176578344,-0.025322907339490497,-0.15830588292063322,-0.057832372341288456,-0.386416201939063,-0.03727941664544326,-0.1044728258113334,0.015123723738933439,-0.0005890619250761362,-0.03265757101721257,-0.029306863968334488,-0.06525382530228106,-0.04293159932789296,-0.04220093055503712,0.011004619204030579,0.012242818864707412,-0.03411511839703726,-0.01808091149180035,-0.0444317414781734,-0.042166305199569536,-0.04392721710896217,-0.0162879800908366,-0.005774373429033004,-0.014434482010826418,-1.0509978787579333,-0.29439772406995496,-0.04943791135645286,-0.013852927997903903,0.00020292502590377095,-0.055699601486157706,0.007823793469236584,-0.038074447129754975,0.0009739684404395595,-0.023143534997473292,0.00013777981758742916,-0.012751053150565904,-0.01776502043922194,-0.002921080873370671,-0.02991781802576493,0.008513746459669068,-0.013196985121081249,0.000980630711726181,-0.0082813035754276,-0.15365847609842734,-0.07740507983922826,-0.0899754284346279,0.0057073340082680205,0.08809871858832817,-0.013276969510682,0.1366925550203124,0.013906555201117464,-0.14205605740707156,-0.16250703495047028,0.6421632508766424,0.06477893898330052,0.11466258866349224,0.10189454298724947,0.6068607468060863,-0.015557551956898733,-0.131951132875292,0.12272475453086863,0.4468656127607612,0.06515999040940636,0.10294138777796333,0.129315045638747,0.5596513165530923,0.0022006924718725685,0.007187017804119579,0.09505397477444515,0.028913589867857685,0.020490923374520055,0.04234077727316686,0.10109208509254325,0.06022777017374187,0.022243699943730794,0.008722482603080173,0.029204723245094794,0.0348803546681613,-0.025458387917635324,0.022589924636875616,0.006848705204343009,0.01706335859615895,-0.007267378809780922,-1.5606883014502462,-0.1440144613242237
3.6793958781029805,2.7226220350261836,1.4616044184023798,0.00900894008015405,-0.4999973841404634,0.013249962052992337,1.2180153019054116,-0.0015402637373879739,0.4866645702098647,-0.011206700566355449,-0.0793069749862448,0.08662035304898348,0.14907031510379337,0.0937273830967934,0.30383676560393796,0.2298702620096758,0.19741010104627488,0.1464036136687922,-4.725229061087875,0.3420533302056247,-0.35145702239544174,0.4953792641475697,3.941467883305771,1.6717118854862603,3.1655715148879833,0.14025505510752956,1.8499756781523713,6.885009659007427,5.03704611319519,6.3990543439209,9.828604436456976,10.67170246464726,4.941738974649766,1.096762999630937,-6.493626437367811,3.802319871491652,5.514651493882855,4.278769184213374,12.17085111444403,3.9683041406638675,3.2290293565988892,0.27175541011808413,0.644089926468243,1.0503341070100145,1.501165436510772,1.5659731250112465,1.4169954829178304,1.0875078229387165,-0.42354860432676794,-0.715294872515423,-2.0261119940079615,0.1824769346999942,1.6216369464784013,0.11003912721816145,1.0044929701027312,0.1576142798198644,-3.5328557481774765,-0.09727301367676316,-4.806950139729659,2.42600406442457,1.923284943395825,0.4790801991127633,-0.049288024025514084,-0.051253960969704714,0.003580701213831179,0.5251710447450064,0.005531419856520477,0.40447768961646546,0.0011206746736273456,0.11821182130960393,-0.13399945076815875,-0.0887738200857536,0.40458424507950214,0.20252116697696756,0.32340325453995683,0.583989401476145,0.018333930098951075,-0.23030203421174045,0.25060805073849995,0.3541394951967357,0.5728036163921367,3.174184438944718,0.876162458170123,3.3321887572772075,0.23184027652221037,5.456274608463877,4.056769948581853,2.798066690879777,6.695811213498848,7.184763139107942,4.5640464206678395,3.655134838436672,2.473046462183675,0.9795026285612659,1.7485957642054621,1.915512225842261,3.974126293960441,7.4834741249386525,2.867459210572545,2.890998217249733,2.008002714997288,0.12666607895976303,0.7477338894110299,1.2160099052223128,1.093824542802936,1.5111985041240945,0.800638500872881,-0.01560278488312668,0.017469744062856465,-0.9441912664310355,0.3139253785740368,-0.5754490677346564,0.10606631207480928,0.4169038828625427,0.1982473245119698,-1.3295621470490866,-0.27883077148334096,-4.969181046200437,1.0184990372770526,2.4878160965569673,-0.10480853568732665,-0.05554388862832938,0.0028729223344226514,0.043696980611044864,-0.40834023446343737,0.069090816827231,0.7313103776320888,0.04316370961180117,-1.0475425361661987,-0.3086642590049723,0.14895789565272533,0.21600657235864573,0.5351638701650345,0.23417359651329317,0.14749479555260098,-0.13681751728986677,-2.0091809542832815,0.24021804588239143,-0.1379482009679579,1.071688343584733,0.42546640627812515,0.721706849301098,0.5725967008287757,-0.10740464151259942,1.679782739529359,-0.23735822922424157,1.4883721043075906,-0.451839639745428,-3.726172391680108,-0.5098617041025346,-0.9190583777407801,-1.1644972679390209,-7.761634235445526,-0.016819823082010174,0.3794997855563036,-1.4062931866143027,-0.1263334119289685,-0.4622213896544866,-1.2825901985919619,-1.0767196152746021,-0.4543207618510641,-0.245071929691645,0.3019245047304416,0.5813921012023431,-0.1040485984593848,-0.271701660966073,-1.8854077607041602,-1.5588996593480635,-0.7820082504825805,-0.08606820120987765,0.45714395518565853,0.19730474299335082,0.5199510811691218,-0.5058389767613822,-0.7008731150148803,-0.008744618942061272,1.140220337575229,1.796556967615337,2.63659637484723,-1.53378625263117,-0.054052105698279604,0.5513160028576815,-0.007494828613745065,-0.12258568603336295,0.009960231500306685,0.8243770891149612,-0.011912097422849552,-1.4457518037587322,-0.9286210439409183,0.09597431089809073,-0.060462518692625325,-0.09767295500341595,0.18893700675516195,0.25001941863996147,-0.10502896938287046,-4.786172412327823,-1.4581211684642463,-0.11539494545020197,-1.2576282380388453,0.05218743976869923,0.11703007483169185,1.2244351007772494,-0.9871951639436353,-1.654655084687884,-3.5119045414405887,-4.203424879662121,-0.8364001110285453,1.6311043122220754,-0.2213268398468685,-1.111446198220873,-0.5530517495720089,-4.539543751812423,-0.6620851757093544,-3.324078059178491,1.712678718219342,-1.0363489944786035,1.8103080265176756,-0.1809747444675318,-2.058135920892755,0.029756389688156974,-0.6353395805441259,-0.030015442997826762,0.8560959733875699,0.8731362304587945,0.4409029523684773,-1.87726076072585,-1.9990453207624548,0.15592754725207972,-0.49674936507869183,0.29503589191690943,0.35244012928236534,0.2795110228534981,-0.9495824301311119,-1.1659627395939347,-0.4856660122323955,7.122546005502097,0.09298760796595894,0.44367666959843904,-1.9050840479853373,-0.013202146436700323,0.7800317663736225,0.04170366377269798,-1.2720599462455637,0.06340573991665192,1.2267618745807574,0.09695881908620509,-0.22976626352546428,0.5547497911099801,0.9242891612898824,0.5639147816010326,0.7076368530253337,0.7522529029780047,1.0749216523701708,0.8848259186854532,-0.12712496751154534,0.8165214630774861,1.4610622996714977,2.437088673690249,4.641075767596519,1.3536036523309394,2.647189206701546,1.9138542020147191,-5.4766867173418525,-2.0973573136663464,7.60535571632383,6.892044549528547,5.567993885440378,0.36862067573182256,4.749395226103277,10.031902739379232,-8.020893422102427,0.4452731115964379,1.3106269696383506,0.8123092228822955,-1.5459959999834625,0.715003812508484,0.9402342665331263,-0.47481804964951846,0.45837823947240464,-0.8913708759691502,-0.7408221934272454,-0.12783908304988506,0.5811858800921524,-0.7998657366103604,-2.056335022842754,-1.335606324870081,-0.9530851122896079,-1.382794885846964,-1.276410627237575,0.6603132427574765,-0.30182643033220036,-1.6143021771629615,-1.995161501928739,0.3239598990594894,-2.777945983708393,-2.37146855426338,0.3298518025790179,-2.2720358656419832,0.08758991885888331,1.7397365636910684,0.06708377376820848,-0.5957193766822152,0.0042634255228061685,0.7608562914005504,-0.004773656914088081,0.44683657607746263,0.9711777604426355,1.4252778377487754,1.0848848647892113,-0.0032513863425816464,0.3035181050760246,0.4967824487704305,0.1815879280083898,3.7863404833921797,1.532294062956373,4.9057413129105205,0.9674020385024829,-0.1982932497142843,-0.28538804589977246,0.2350513329947349,0.6153082252005988,3.2627901770740624,0.6326318260445332,1.2131649310686556,0.9064511435034598,0.0137859222451315,-2.5829602701799597,-0.8192589221650669,3.4976488258649407,1.1779860612889985,0.7560655906338193,-1.2586036991919265,0.22991190748925233,-8.485025789151422,-0.43177381120098773,-2.0506678603749138,-0.03800069323888058,0.6730580363532443,-0.1612584732136668,-1.3317755798037105,-0.6422305489347747,-0.13001717236741073,-0.9721053974456124,-1.6851840727337652,-0.49646858176942693,0.350395980096335,-1.248100442090845,-1.4555433446316706,0.7689178775720792,-0.6502557412134607,-1.1598813889916713,-0.4740331412585339,0.7654822605259749,3.248387393840314,-1.5481448900432655
-0.5642215006627925,-0.06917525523418258,-0.02608608852368573,0.005538416450360482,0.005292056740345075,-0.005386248187163762,-0.018165471415941048,0.02006848420561671,-0.02857355329936527,-0.008619411343515364,0.0015165478313908726,-0.007548849296640925,-0.012228280150434916,0.014361268503702932,-0.024491650004371892,-0.006004569293218347,-0.010533729815881892,0.008707174136224988,0.016079728637614345,-0.03138832819298803,-0.02358829378696854,0.000228234425036564,-0.03737116097097256,0.008029564195887118,-0.0636902419556323,-0.022712088447108432,-0.1587092827289883,-0.21842210561264927,-0.0765153744916201,-0.06986497474577981,-0.048438763346579414,-0.07165672095272241,-0.06482280897533846,-0.050917941899526524,-0.15152269179960123,-0.05110960415214063,-0.0941720175095452,-0.02718240747506257,-0.1141125098447972,-0.03630316402157331,-0.08788009934427111,-0.0405888421422743,-0.04016700389304374,-0.019440510340051016,-0.0017617158814752605,-0.018951107524867904,-0.016482391771065943,-0.016615265206653667,-0.017728935457673917,-0.014158609089703667,0.015777431418598383,-0.0047587945286138725,-0.0007044188977683655,0.006780948113528955,-0.022767183411322202,0.004764472196654177,0.004030894263516801,-0.013294530550950026,-0.4187672783978302,-0.1702011560856442,-0.05271821681811347,-0.025282847802205213,-0.011052533748519174,-0.0020211933785471907,0.01747538326872124,-0.014740946578516411,-0.006036160588551901,-0.030585212276367218,0.005529351670066805,-0.0032947341186748856,-0.020830144367151693,0.010461583242148667,-0.004677065427671271,0.0015027299531576693,-0.015065595726329782,-0.020491533174641013,-0.008841363692303586,-0.025702836584333196,-0.0005796389506168239,0.001738131920995726,-0.00047797510181316066,-0.06662999546600483,-0.08173788991919288,-0.12573092182024728,6.0713944100219693e-05,-0.03303434466785098,-0.03178776400965783,-0.03250108406518005,-0.10526524541722189,-0.26280514534824184,-0.2799574812965279,-0.08767176246823974,-0.0319131674187839,-0.032274564330980283,-0.0306821611138666,0.05221655659065659,-0.06975356250407286,-0.5776880513523014,-0.09205531545618638,-0.0693122601301192,-0.019713873797897272,-0.033267384072975616,-0.00586620576109886,-0.04652387409236155,-0.04139044507863593,-0.0887036980703559,-0.03876184963949921,-0.012272553844220657,-0.022673208616390578,0.030482855435447407,-0.0138484884325593,-0.0016612298170866136,-0.006249644749500676,-0.050665260746547584,-0.016155917631962155,0.0016829639430530564,-0.004607643027449786,-0.19761682101254321,-0.17597554047487463,-0.07023767839402659,-0.017748834457968547,-0.0055942487439648155,-0.0039524656816979685,-0.002764921510532087,-0.03481770979640791,-0.003348863435913876,-0.004492022844594658,-0.0026486527188878278,0.002758967743641204,-0.0021287397178042663,0.004702513622791218,0.00011174543488603544,0.013775187583879129,-0.011673359254999564,0.0037760933591767416,-0.004805711073761013,0.006257665195717813,-0.013397296261844415,-0.05761732981569464,-0.0009069307062955468,0.03629136170335917,-0.032852325041319914,0.008561029237512187,-0.008806978390099435,-0.0758640769112231,-0.17315589177900403,-0.08702203379251251,0.04129054125564062,0.18263888656184077,0.02081614806657198,0.035747518328133825,-0.052931091191090816,-0.10703449113491266,-0.04370738150793381,-0.034782769503816244,0.049191350298830205,-0.029628531696459525,0.011683206486222432,-0.04771050345122772,-0.011078926620498659,-0.02876385607645362,-0.008321216480051161,-0.0102697360850577,-0.010897650162695111,-0.015279594141028377,0.01286010918058955,0.0007995626097686363,-0.003011653395082795,-0.01934800164885123,-0.0032491166462544126,-0.008964410201281933,-0.005975046420787525,-0.014597867977986475,-0.004894818045265995,-0.004871490439060319,-0.002821306652149535,-0.4782626284700304,-0.15997969982563853,-0.0726656750832473,-0.021681093050179897,-0.0028629608073871336,0.0032638204501393,0.011210883960640208,-0.014066394264928044,0.006995136161390288,0.009713814566880972,-0.013272768808863723,0.00016554541684644364,-0.010017745375903603,0.008394154416005951,0.01425887236698688,0.018598874707087768,-0.00827293024470198,-0.010607747853120485,0.004027287240994245,0.03756484024980369,0.0027213967237946063,0.09100780930176926,0.1045197636243518,0.1520716311310954,-0.0262512942331145,-0.008353370509848199,0.021249463505543353,-0.050899372176666756,-0.0705015033919633,0.33650296327322166,0.3565715563184891,-0.034559864699403295,-0.10648516469029183,0.22944715146620362,0.056851158522152126,-0.0038773465284521465,0.06344958846861584,0.5668119305917743,0.05619865510765782,-0.17356043777064992,-0.01097595522247933,0.09988171844082896,-0.011734998298036411,0.032081350386830285,0.07332922464136656,0.06611756727787904,0.022193624514864025,-0.034459826325125544,-0.019406424741671976,0.02549270498914663,0.013805175587121526,0.02002305587617765,-0.0022807546924134784,0.016182475675296414,0.0007040920025768573,-0.013033658337203016,0.0019330631298366057,0.008592225941424692,-0.00555608920268823,-0.7456133461166108,-0.07409257467414307,-0.03538296046608921,-0.050482088838822416,0.0002021797343986258,-0.028014266037902278,0.005072513014240436,-0.05006008086698499,-0.0009268357801716166,-0.020931156049926822,-0.000614930223270433,-0.004556993617414714,0.0010833425985706754,-0.015197634813912793,-0.014826724209109637,-0.003952445448088648,-0.03894143177578706,-0.0240959509756601,-0.018223887422915336,-0.007870879143914615,-0.011239789622170626,-0.0300723166512262,-0.035738818252283186,-0.10529510912853488,-0.030909746389379614,-0.1172837309136248,-0.019140535473276658,0.10062937969209697,0.006291249610272341,-0.08056400294381014,-0.12671932522489707,-0.06430991782909312,-0.09119042982447668,-0.06401005801631461,-0.093072616865139,0.054870647425273394,-0.002525899552018702,-0.05665311252097081,-0.007503951689295262,-0.17324185935040065,-0.012697464029783823,-0.031669500823586834,0.014242596202137177,-0.0012792544889577606,-0.006354951942805401,-0.012665427312056974,-0.03380297912691992,-0.025683251233852837,-0.0018299738156500969,0.0009814482836080715,0.022283100326816765,-0.015127004632046746,0.0011945516654142318,-0.017833562185085937,-0.0341567376355532,-0.03318358674636793,-0.002233324328537556,-0.014650754171503412,-0.0281824569487523,-0.4730161468959493,-0.13775935661717675,-0.03918203842009405,-0.009413546920792,-0.0039039965190155223,-0.044707061526533844,-0.01016974068315769,-0.034346077815451195,0.020323495058669774,-0.022265473776698304,-0.03488022452476008,-0.022756574871363185,-0.01994433438902374,0.005588177456935436,-0.014040537492291595,0.0010529494797005638,-0.011846908857127617,-0.009520015968136463,-0.014304960301869432,-0.07827697090229511,-0.04538246928374085,-0.044157245009879144,-0.01874770585024246,0.04298962695363793,-0.016698717008979427,0.058644970152852666,-0.006414582232821111,-0.06062459170130679,-0.055385894557498636,0.2705926872181472,0.035824524494833115,0.04256788334273845,0.03178476324536787,0.26313657664345086,-0.017107851031513438,-0.06014392370760781,0.05510264124697845,0.19525249490297625,0.029804442978595348,0.05890729385236372,0.05623701335725245,0.2520000750186275,-0.0015637811590171874,0.007587196917510888,0.025683114247832074,0.024978449801889995,0.030910138488105216,0.02208256426980419,0.01757373918722053,0.03755566198091133,0.012848279509036581,0.007637338333841173,0.0030951297288438736,0.017764507458997564,0.0013727981432345288,0.00964685843984023,-0.01365573360406179,0.009905507247316769,-0.005130988865784523,-0.6831595155582,-0.07052178526889218
-0.011441290898895989,-0.015290612708076586,-0.00912899513210315,-0.0060187109111047256,-0.002617042682409603,0.003927714535244609,0.0008787697314445148,0.009104609530697425,0.01523471254855572,-0.006824052164076474,0.004110964400341586,-0.019516199101324218,0.0020880493368815502,-0.0005652648895075698,-0.0009481667266048326,-0.0014085709097080752,-0.0015049536085779325,-0.00931825161998539,-0.015146799749790434,0.007312752566675576,-0.006837992522273765,0.005305222287300849,-0.013508650235362973,0.010728453318763717,-0.0018225901094467548,-0.009421662418491418,-0.002114925722017409,0.014622402679201429,0.013541752115066159,-0.00468918163273698,0.0026921036954111717,-0.009394270397230281,0.008883566951741721,0.004930251071442768,0.014112479694198992,0.005376394310238454,-0.003372911053592762,-0.0017995561468694976,0.0007923252695983278,0.00394543837119698,-0.009261467053455347,0.008783915208913555,0.02001645028479219,-0.0030890215631761437,0.016727649883431266,-0.0013488883740240135,0.009362431022392061,0.017911096791667098,-0.0047158630036851085,-0.008538408398217113,0.002279681209031278,-0.006609856862625504,-0.0024780816602693084,-0.006666782829711447,-0.009015065094133221,0.005477036198045643,-0.012292145662946065,-0.0012773298171641198,0.006912750921346843,0.0019926482849963166,0.00562027365061695,0.009314968157690295,-0.004153779502465425,0.0004151221973568564,0.003638825990637243,0.0011958161618335719,0.004537526218365593,0.009443928239860204,-0.01491593251795726,-0.023461610096397002,-0.011609170894938098,0.0010665308053807187,-0.011363921691217133,-0.018388723233284016,0.007993742579706453,-0.0071484880269084144,0.013391180740961415,0.0037239344174383186,-0.009870090842224651,-0.017318058580976854,-0.0021832496933951186,0.009392939862720929,0.013082106581344188,0.00687102459295529,-0.009389993973982217,-0.004179998159997611,0.011358853972172166,-0.007526831580549225,-0.013050123694344886,0.012026882520295068,0.025047500113549177,-0.030690033042664135,-0.009552619783052012,-0.013290930109875965,-0.017456828695741604,0.011574494292290877,-0.002558433912073249,0.012241658169966429,-0.009519577010130979,-0.0043446220906382645,0.001177265830913481,-0.005110295419613605,0.015411226265093692,0.003102218280622531,0.009673959931342362,0.007291971676313887,0.015471339792962686,-0.011689687677490256,0.014232995212797719,0.01886992925396406,-0.008413664450819145,-0.010539750621051919,-0.02099749802426637,-0.0024264730774306124,-0.0029505867007281663,0.002214007637012233,0.004316675276230309,-0.003623208558476744,-0.0016814489691184221,-0.014510729947656781,-0.001618253128575082,0.0035797035950682734,-0.00023808971228863585,-0.006080963154646748,-0.013269168167553327,0.009861955654352274,4.5968548314045485e-05,-0.0017923250108849093,-0.01377455174191334,0.007206965094206572,-0.0035638682859390615,-0.008927356542136776,0.010992073044632511,-0.0038652876427290594,-0.004357324671155608,-0.018732124629638223,0.006485846370800427,0.021547239472801565,0.003018435325978648,0.0033732843135201914,-0.0006478956877276011,0.006880262733703484,-0.002211000683969106,0.008318918208727462,-0.0005364566896384894,-0.008415477958826096,0.011946804795002135,-0.005776483978091798,-0.006589439649664306,-0.010609098472483805,0.0022227380257767463,0.008129910770884782,0.005828731194078422,0.0026280642106993675,-0.008609691853609405,0.005738156661261848,-0.010903189972286597,0.006131062872126255,0.00034763059587914104,0.0031509186008478593,0.02439511011469014,0.0058178908332645555,-0.008613461319455822,-0.003123066643993955,-0.014025882571005137,0.006142795341552532,-0.005340446108589211,-0.00232632803671998,0.011586978516235082,0.01196795813711361,0.019168813201757756,-0.014067424849182764,0.004170250830242981,0.023021937545078076,0.00670835011180802,-0.006706922889937174,-0.022020541040666034,0.007612969680032482,-0.006152796923938746,0.022468348010240457,0.00678214683063509,0.008274862649869673,0.015971068168528342,-0.0006337597551447817,0.02292400780006426,-0.0064806220842815575,0.009137119632347732,-0.014959431213747447,0.0008925999646562789,0.0018054465234870931,0.014494012551656285,0.0003976215084216862,0.0014879696044072625,-0.011070947699491433,0.0030114889697764238,-0.00726157414822474,-0.005381982960875592,0.01324868860375101,-0.005157780880569197,-0.005521561282547149,0.013126559296804638,0.021507522394536766,0.022562997481297847,-0.0033148535428539102,0.0038534585735550304,0.009631921717273383,-0.013438337853527233,0.0016310140226476184,0.0019226744886824,0.008924041400943774,-0.011785381004971767,-0.011267185802361163,-0.0004604629902430985,-0.008527846863876571,0.0007999910748778465,0.00260319236080299,-0.012842824909044462,-0.004668276650701907,-0.0075199887278603866,0.003915629342573974,0.00016693163461430863,0.0065884974878906285,-0.029374141598613113,0.007213587223021726,0.0011197290725058172,0.019011145634257934,0.00218630046660144,0.00995998167708468,0.0019121011299824834,-0.0017954039303364482,-0.0050668778443393936,0.0006862095749950194,0.0013232167080021692,0.005672657276649311,0.005912915204398616,-0.0013108511224064795,0.008363211737759606,0.011476648019496001,0.004172654195958973,-0.007942859147595014,0.011849237695494019,0.0025572863888789895,0.011247464049595077,0.003967366471323172,-0.013365452531114689,-0.0033215190221614955,0.01261460264874439,-0.0019001163075039588,-0.0024314942636118496,0.029540303738669036,-0.005307692256638385,-0.0023106299936105847,0.0015890378252934542,0.00039077438119170806,0.012592385992372212,0.010092673241844659,-0.014228989527050272,-0.00916970325596439,-0.005665456206517598,-0.006907003768800878,-0.004206126821416894,-0.01711950523019862,-0.01926200155543396,0.011264379494828452,0.0006953621593775725,0.0072693965662506835,0.007090136543860675,-0.012285072128740847,-0.010498949592438677,-0.015477349690646609,0.011541301207871843,-0.002555609577569493,0.014552469900151896,0.0035507489439240616,-0.00019323173758236967,0.002802076080988116,-0.0096946424262267,-0.009286789284208058,0.0008768084170540412,-0.009341264222012416,-0.007506923912607557,-0.0006377329450559849,0.016921042741948524,0.0025785247007822755,-0.00756657961138588,0.003921824510170322,0.0015641076378280067,-0.005942565744162371,0.012754600611771591,0.007614840002311392,-0.005583425562826697,0.007443220592116579,-0.01746064149991746,-0.016952369284552106,-0.006104597923907787,-0.008220858513491023,-0.008419581149958203,0.006419902630055834,-0.006481082074707383,-0.007914369614295428,-0.0002944315018839849,-0.01112493881796686,0.006572294861658342,0.008006365519472916,-0.004034836520966145,-0.009263372486283531,0.003949303775295673,0.017064297154381996,-0.009692934113992956,-0.001313121136656273,-0.019374903082970792,-0.0003639906843945986,0.0059221852136316705,0.0068096555799798866,-0.007341466475213375,-0.02113417484243125,-0.01384200237634961,-0.009101615751079015,-0.005527839918585235,0.009637265456681978,0.01508849007616136,0.0014609755228866118,-0.009903220280819629,0.004307502349708766,-0.01894620634262638,0.0022524676769290395,0.0014975055353506892,0.008172681429074671,-0.002993778493505748,0.005932807471466898,-0.01012187992825091,0.0018312654118991987,0.010242933959057994,-0.0008983993400467421,0.005326103191923374,0.020142472111576073,0.012222324138951269,0.011910508791635263,-0.011512197017286155,-0.0008770230467652971,-0.006179861332150913,0.005378546463276999,0.002983224058762655,0.008752377848676359,0.02132626294890512,0.0016566341512535868,-0.01336590988739793,0.010136099283710818,0.00017081284539426087,-0.02290913573781489,0.02090374813253492,0.005127962450627942,0.004068028070935732,-0.023607507845636398,-0.002170431455041988
0.1622374192835516,0.6963061947799509,0.26697045987502444,0.023817729547830763,0.08934183386367738,0.00415522753503942,0.3399890683189845,0.004633716797690623,0.37450717359149865,0.006083963992220367,0.005351865899272254,0.044210135022778166,0.06370908881455266,0.05792241103948704,0.10139451806735335,0.07090285512598538,0.04048969138899702,0.0520745060982185,-0.9109716402270792,0.18043953506523683,0.38177803468727106,0.19716717271563639,1.2838993763173274,0.1196713219007803,0.7338240052483465,0.029801646115296575,0.008471001455785963,0.8349123804391952,0.9407988583646488,1.66850302561998,1.138582085430682,1.0924444110664735,0.6923426677226712,-0.20402799209380276,-0.8140497355179394,0.5021568949150312,2.2166070953858394,0.7817308363941655,1.5272489663755877,0.5457167455901378,0.8900396856242884,-0.11612893753974467,0.1908084499508262,0.2880214262264266,0.41807305729708777,0.4085675855870252,0.30192551197528306,0.17628590339751166,-0.004152729483159654,-0.11426003238659375,-0.048070237276206546,0.02282545588015712,0.5940995076125166,0.08771119211941077,0.3408590405003562,0.014242650680814052,-0.7843215687296441,0.037929550142211,-1.7105229723027797,2.0658675129859065,0.7019688224965152,0.30198642036116885,0.0023091444412216343,0.3342876555992983,0.007301331852125391,0.21559184475577595,-0.008931865278719931,0.2979129267768128,-0.023393539652648922,0.07016472814982404,0.029404384710150052,0.047475505638121224,0.11050935330399923,0.0775011795983279,0.08592700393142769,0.1218958195652051,0.03812963570356419,0.6856184253522639,0.2073820060401261,0.3327014993927391,0.20705398956206075,0.8814411666304021,0.4365597666169353,0.7343315636224433,0.1646561767800596,1.4656799158979426,1.1518601314077757,0.9292460839872327,2.060963797609693,2.199003216413269,0.9856103925223417,1.03800828815998,1.4237918130636171,1.4864389236311553,0.5161576044383215,0.7600501815951078,0.9999043498782467,2.5211873826793134,0.5327310013505465,2.026603149705797,0.608778744300581,0.23505810893102666,0.3211379428107488,0.4683180619585234,0.37340078209961935,0.45242209331676,0.33840241700067236,0.2876560297395152,0.28717010088539935,-0.15004170379564105,0.09838360457988905,-0.035214550822171356,0.1255592727246127,0.1716188835165253,0.03175462049889477,0.0827001904802321,0.06275545300629506,-3.2068381758689193,1.9998017998956568,1.093827963325383,0.00425167560685964,-0.01190191668853775,0.4327707005938124,-0.0011338404038755763,0.1800876979739443,0.008804098614674976,0.4034788712573598,0.0018970679947171497,-0.4243533622894673,-0.10573824138349665,0.11307982979945765,0.0438661068559692,0.0652837834748258,0.031539863240907046,-0.021450316860838977,-0.1608257989949398,-1.0053830602439953,0.012876743808672937,0.639741694629668,0.23711533194820758,-0.5626953810768501,-0.2175736312081638,-0.7698562763773462,-0.2829980980834449,0.06872079785198619,1.4644662062299345,1.3936486107818349,0.005698129543835015,-4.387272581194258,-2.559505886276959,-0.7232014379033338,0.5882843264618898,0.23404825015228498,0.720852344086812,1.21582859675914,-0.760790113845831,-0.5735757860702213,-0.4225067827586938,-0.39275228755130276,-0.2603024082890889,0.27213386015603924,0.23823436890935185,0.12145847244079992,0.16367193079052822,-0.04194219238774512,-0.0869282212278347,-0.4757727330135726,-0.3046945793262139,0.29655599876248245,-0.13378906952907238,0.3151708679383353,0.15888516801188693,0.09420651997770238,-0.3290816372498711,-0.09630755513134057,0.22859345417475613,-0.9257494821628879,1.737113826701457,1.1996248783989565,-0.13232055033964985,-0.01674909961667414,0.2806373838022488,-0.0004533485587415554,0.1273762883701111,-0.009208071730788352,0.37140053540139606,0.01764569968331445,-0.3422837823907191,-0.19425903703984068,-0.038375952862059054,-0.2012231320563772,-0.17313939306621787,-0.030078123143457793,0.05932698632350469,0.013537000082330986,-1.1904708276629157,-0.44776369448634684,-0.97239128830208,-0.7561398455360163,-0.956293266244938,0.11599211892877075,-0.2541341382137643,-0.06971282387298086,-0.3923986994548255,-2.040019179178817,-2.6944870442564173,-0.0025112678760287836,0.39685593261241264,0.36976279454123906,-1.3977117084015038,1.929349502427387,-1.9041159786247666,-0.5568924059698579,-4.118035987658503,0.09961596167646408,0.012237258928334334,0.30780822491648957,-0.2570175886036341,-0.3283555207232726,-0.20504914705025726,-0.5352630490480287,-0.3293862874033039,-0.13622247882117985,0.1509904588700226,0.10074749526236824,-0.4562518610022925,-0.46644874959614785,-0.26241033821384196,-0.25897773666101803,-0.1613104807650635,0.18610593692818383,0.10956973272001033,-0.2559330876835365,-0.36541403239438447,0.05416082260064647,0.5213724899372982,0.9644172164658199,0.4197876301541069,0.011459473513542876,-0.006876029206377581,0.28035579345258643,0.03131461961840996,0.058037774660445275,0.017379876957792435,0.7522817176441281,0.021871435310870782,0.008650186121659019,0.10602437018385798,0.16574517469197744,0.1321479628494356,0.16347844721732377,0.22689323186986363,0.31774217379536057,0.2603038534313207,-0.11440804680897262,-0.0005734485119895531,0.23724174401866063,0.4945568540125629,1.5227290613188733,0.383936347989702,1.058613988650261,0.4567479154646587,-2.990032038443561,-0.9410766422812915,1.2523337743991176,2.8632180681853208,1.2285022956422886,0.07151021272455307,1.5367293934365112,2.711222171780581,-3.5582292220967915,0.0223209369119936,0.6274683442575293,0.335166039633824,0.4461557780058296,0.3113590592990888,0.8733773758226182,-0.2090906919621823,0.018040547636850233,-0.04732404597864593,0.11691773529224131,0.23006061539190698,0.30085296143529405,0.12499036202576097,-0.30050260673904405,-0.3769069468767905,-0.16816321782290475,-0.07145178692993923,-0.04464416701424758,0.2538532238320467,0.04469621238682257,-0.11553415057380292,-0.29316712439666326,0.20178802428223477,-1.869501983174055,1.35341623366181,0.4599373391712023,-0.22086943374392753,0.010850670148583354,0.7308271694499656,0.021142153907530766,0.11100112318457521,0.02485999606928243,0.5371926514726296,0.014363628876169715,0.07193472553220681,0.2751305553847275,0.29089775084479247,0.2553834421480617,0.03790922062310073,0.12018800912973678,0.14863773822762547,0.04866364500973262,0.8294941361523661,0.5018945095254348,0.3049775500681648,0.13958976749143948,0.19295328902144526,-0.006017816512582077,-0.5437059757939753,0.13009196808477835,1.2983074468964464,0.024805167299939482,-2.768313749759734,2.07141062814971,0.19616273559115724,-1.511959479748557,-1.9157250904150835,1.971466239748009,-0.9467974382109435,-0.6977184831063419,-1.3207574207016455,0.3920166881513767,-2.058998406019831,-0.6226385489719981,-1.9620996555629924,-0.09595008593637457,0.015151140855377132,-0.4561445519510229,-0.35628585118267375,-0.055266859659366854,-0.02642865063062421,-0.39206910246047527,-0.5877533217075027,-0.26285215464021605,-0.21219777424085753,-0.20230567626111076,-0.3726529316880722,0.3835781088266519,-0.24868361617796342,-0.1136432534196982,-0.4950077274419592,0.24397099015682297,-0.7764053717362214,0.9659664383860865

Wj
-1.079188920841884,-0.05199283549672881,-4.416737444093311,-0.013080382678361846,0.6056750263008795,-1.1868633781778184,0.26691257506711286,0.004509130993927767,-0.6772015858030047
-1.6895968203792788,-0.10710013197493629,-6.417326505961519,0.0036408649027809717,0.9295160951338803,-7.638537296897312,0.41307049182757816,0.00208772904929179,-1.1178010694362617
10.239533927710006,-0.017195309990973618,-2.3769809186319146,0.003139047086877569,-0.49385627233261364,-3.3260723466380306,-0.22018513219457292,0.00243311338050373,-2.324212170639849
-12.99655228081246,0.010901887693275984,-47.35671696521958,0.02504335182580885,1.4866389789045455,-15.173640320268722,0.6557979695510701,0.011905870191046598,-6.189492652387102
1.042451403638226,-0.018177291773063143,-1.3074055676717407,-0.011129418598050816,0.05851958043825873,-3.138464893454094,0.024886914499258613,-0.00039338314503511106,-0.6494952882848257
-1.6384138110227724,-0.019025005482187163,-1.7300039806498666,-0.0019080420027003905,0.47872527847105595,-1.7592015132201992,0.22141394368670023,-0.009844827551201052,-2.026160589440435
-4.087959904622322,0.11747151453371951,0.42003791826878706,0.006079752853580567,1.4369086866507785,-3.1117739535713964,0.6267309181091466,0.01644674344801061,-10.029916651284505
-0.5910848075441393,-0.0348966916269529,-1.3087742114249852,-0.014631229339361996,-0.012248243679660124,-2.140258102540051,0.006139665852424896,-0.012794120640465667,-0.06616907230231867

Wk
-10.023270474041105,7.244144987538368,8.66011418847473,-2.5046809523714044,5.051720161232581,-0.12815651052500113,3.1139597860820873,-1.5882270538677081,1.6348862451874864
-0.33573032195887453,5.083113493953377,5.144315487215376,-8.212025842656388,2.484797245621485,-2.147404028875025,1.0033739870797307,-1.5296391524039377,1.2288705182023185
4.038838204339042,8.25893089576821,13.827358719438081,-2.9352159559433066,7.0987763255507845,1.4209376391829882,3.5023764072953023,0.5348820750448281,2.2935741170994333
-1.3919049678295514,0.26272411825065406,-3.26708957106197,-2.8497511985066772,15.537813390647699,0.8346210798034829,-1.4176482694847274,1.0743903141273015,-0.6599938426636123
-25.16512532395462,-4.875222242517141,-7.402315810228412,0.6605971630478313,5.75115774799061,0.4520065362349721,-3.341448997053991,1.937074504709205,-1.6721964529482771
-1.9040809945815342,0.2615802835584343,0.666276436655574,-1.0190881735988755,1.9394944267459457,-0.16588866584320197,-0.448292645780645,-0.799771941834285,0.26711454717703237
-1.8376812653244308,1.1798920169962628,1.1392356138159099,-2.7657527695331265,3.01903106952912,-0.7261107533022593,0.5273368717562318,-0.020875985195680454,0.4491701874140275
-0.7965331448483096,1.8903567180804728,1.468985622876762,-0.8629074914345684,5.147088492356944,-1.0415669650659078,0.3010699017029717,-1.6457734449080144,0.5423050393450316

