Wi
0.06339793519731544,0.08686239898957793,-0.09478918572364368,-0.002513936295170924,0.2317127402923112,0.025705124343621318,-0.008940799872132392,0.010985585657475785,0.07698272066660253,0.03487926701042917,0.045648634434035266,0.04525219449055657,0.0367679481689318,0.045272216983981074,0.07813816512190812,0.10025801027549332,0.10955007164381368,0.03037060729476083,0.4232280369360106,-0.0876013376479662,-0.11087408771945613,0.09240837924989019,0.3123169112260467,0.28585592431220264,0.1894026811157507,0.14123047262984087,-0.9583810288721011,-0.7189679818719156,0.1356334285216025,0.32654232250468734,0.2943041397703112,0.5933332867565124,0.3159844999662987,0.42735995683502126,0.10537411936393967,-0.05707318654196173,-0.18289813518204373,0.20843802604480205,0.3667327638564668,0.1252631766324217,0.17825021180272366,0.13171285521401385,0.061228718871155885,0.057471834996166205,0.11808507003615439,0.1718521324671405,0.2019924243537159,0.052444778955085605,0.13326896568808083,0.1733522980752507,0.1530414991164683,0.07806974481176807,-0.05748325915896004,0.0996122325633394,-0.18316995260871924,0.009400859588858933,0.38774426434553605,0.13951314565929746,-0.20576270412259848,0.6287061193638283,-0.15363045393646865,-0.12958232748666898,0.0201665546433055,-0.19203647012501182,0.0009612097249532399,-0.12172615575929813,-0.028410862128397447,0.13371724166486784,-0.02803420299470411,0.06378980587611757,0.03794938210946995,0.006945390828837972,-0.022214380399010386,-0.018111778797585198,-0.0384395506293991,-0.017065436303174954,-0.030341783910057863,0.21080310067953348,0.047476324049486686,-0.03599537930798856,-0.04744993966552043,0.16502568010575416,-0.5364757361149789,0.003235912473197271,0.03321845543958237,0.19564133315462354,0.08748700015850483,-0.1068681325407207,0.31740069340639193,-0.3060765348232411,-0.7097561959464898,0.2534616485423733,0.11097530429483907,0.26352619800804633,-0.011664988036375251,-0.036355637125439516,0.3007619087495239,-0.6076904666680251,-0.030038372436476335,-0.12659245077662315,0.08893716471762686,0.11199257287226617,-0.04383035114466812,-0.03748938110617622,-0.013983319232563062,-0.06514344203003852,-0.010436580332474353,-0.06218256287326711,-0.0468272926315087,-0.0897194776103374,0.04159834574511811,0.022109754881476457,-0.0383622065682824,0.06677299861230433,0.039986235812369694,0.05132713756114557,0.03984694404092803,0.26065785398183533,-0.4917967817031092,-0.05840058942475564,-0.055668951082962576,0.0024351983940282067,0.16495772831859892,0.010861338913714396,-0.09167996863926231,0.007635306538588905,0.008488717639630416,-0.010201527674124411,0.18319579906940187,0.1043582123720093,-0.02259355909232417,0.03943887849509562,0.03983146157200806,-0.02481304932003571,-0.006259102065269501,0.04588301076265868,0.5565729347843547,0.2199059999943768,0.12433917483845691,0.15545654926360095,0.08475141729320042,0.0640187394296005,-0.338841860743853,0.2903433359562041,0.004643796905757995,-0.025049098714899843,0.7168034149452056,0.6146379855895355,1.0262144478367219,0.8393187831462745,0.8255031314022876,0.32858128585862795,0.9557329155432686,0.26887863648151655,-0.12745082972034255,0.3264959218620585,-0.7835224804418721,0.13126364735414794,0.21342320987125318,0.2985804228869109,0.13291551239507893,0.21224232886516964,0.12159614853316338,-0.0001404736237095014,-0.048920246700148246,0.06724719732487845,0.2648420067278625,0.32007803177546557,0.03401162440291767,-0.010583897385862184,-0.13229845359043865,-0.001158374801342414,-0.33238051003585783,-0.013043034772918845,0.21788788268596435,0.030307565604688093,-0.3905982635682724,0.0864872637299436,-0.374433351492093,-0.026108576050230384,0.01798713172960286,-0.33566680609225985,-0.0028359252199947837,-0.11236265873851776,0.004418713420378783,-0.10159186180625322,0.005593100223600109,0.23537737881076465,0.07921201775499807,-0.033844320829309986,0.14442651989564093,0.1407973460123515,0.07045053530713817,0.04960091104398411,0.13809886814877192,0.6753366639536531,0.29075971814784873,0.08303209413874714,0.2727339913348676,0.22629727698044638,0.1508218548330233,0.2482478369830347,0.4247667037313126,0.40695408613988565,1.0292696012203002,0.7928927318864483,0.4762656683867116,0.261308164192641,0.49999707375199814,0.47461165033910896,0.5526203142716125,-0.016250507343070507,0.04174487119290765,0.24276810138743318,0.02405101443787605,-0.029689803122850612,0.1571826943231093,-0.13932123155369674,0.3038216847511938,0.08025197968113464,0.18713567007538603,-0.0250020226758791,-0.04244497482287396,-0.04871879063340069,-0.09634205896100022,0.25166896713426984,0.16211405424703776,-0.12223177370560963,0.21082785743584231,-0.14654622032944764,-0.10575822417211535,-0.17051461254508235,0.1606641986186381,-0.03305097243499832,-0.017783211354675976,-0.2883523849532919,-0.011366844566087197,-0.18314444774752214,0.052645599457054985,0.019147302009866092,-0.03008240194674617,0.020427782277515367,0.03364886349731788,-0.015356698851798495,-0.24639420566501227,-0.01176049006299744,0.0637715151348912,0.04812528285005493,-0.01658193941469478,0.018099639026191182,-0.031159091988611724,-0.025859451352413156,-0.016995375541435015,0.045338808167649264,0.6248016976844294,0.09900993302918204,0.4013432122223541,0.05036838428079691,-0.257032197007808,-0.11679750964266485,-0.5296966263880076,0.12264721293995094,1.2829677102231172,1.0966939858715896,0.29914875237269334,-0.4101661129733427,-0.7555854857276064,-0.21902788531081893,0.17792180735647659,0.06168918318895799,1.170928492347063,0.3052756999349792,-0.19578559505957788,-0.1261683816759857,-2.4466642120362865,-0.07835117731512019,-0.5684515612493481,0.43477646376804796,0.19484927181849843,0.23247449240972157,0.07972852238124331,-0.10032049467024566,-0.09496706377833024,-0.06337348235486806,0.2909935973928189,0.42179957445672595,0.05377601507505714,0.049592205030361984,-0.07347419575088539,-0.015528346417944107,-0.45511331646806635,0.0494808370268361,0.11526230395455092,0.01609379166594693,0.31868823431935706,-0.4072155109877942,0.16275718514168258,0.299183980764448,-0.0016366465066309083,-0.2597508581523827,0.0005780590655981861,0.09423460113915784,-5.2447293095453873e-05,-0.09797706779460709,-0.01002995579504626,0.015511892793470133,-0.022755251303330448,-0.15808867383264177,-0.07264395622797985,-0.03459539328318793,-0.04120906173690285,-0.012629520159140114,0.00029375427509898495,-0.4304101979936904,-0.14285882820793536,-0.3320609290465905,-0.0814923507781975,-0.12764294367820392,0.013191575399916965,-0.5482938019251828,-0.07029929183693978,0.18687318979263284,0.08216468857853204,0.4386348002880298,-0.37543619125754196,0.2919037504436947,0.20143290618493342,-0.3779350047804487,0.40976423294625447,-0.7576506409209515,0.0770912584932707,-0.06098522777908901,0.11978448353469393,0.14896252015564765,-0.22567611971778492,-0.07663596389397213,0.3973768080110593,0.010775680963777434,0.0065762216343283825,0.23271827154045097,-0.0685325566219019,-0.24846838778770933,-0.1036102438560387,0.15846829656705658,0.0520973486067725,0.010549007323507675,0.2538766984110645,-0.05786653423362656,-0.0394332241472559,-0.17143242753274493,0.1601636542623579,-0.07112094155948755,-0.07806397196807224,0.7480071393948298,-0.1324602892158393
0.5648084039164165,-1.0054197315962934,-0.4841805277255238,-0.015460462117221407,0.1736315552178277,-0.048527919442219375,-0.6460998750945047,-0.010850867382746451,-0.5684567582099076,0.0033711889597393616,-0.2033382011930863,-0.3312363020760963,-0.15816964041414552,-0.10547782207502358,-0.14636057233440225,-0.10956753897453099,-0.279356672377144,-0.19150945762158242,0.04041742589316696,-0.7520631234954991,-0.7586460208956863,-0.14039331464342264,-0.23571118417926074,-0.011612348408931255,-0.6469736659033324,-0.3067255347715078,-2.5004052561999845,-3.367197961542057,-1.695445817758661,-0.9914959328355897,-0.17570614482375604,-0.25087934954056035,-0.5411233848918937,0.004062913911444585,-0.493337353864407,-0.8168321296194772,0.3776908584486102,-0.01573356198630911,0.725334815386523,-0.21240058104572354,-0.34872705481505784,-0.39876744618745114,-0.6464752672334253,-0.45205540593629806,-0.173349857235792,-0.46447735434941995,-0.812284558929582,-0.5303659459250802,-0.4218434144082786,-0.23725885990678838,0.4651008862645884,-0.19052869298436326,-0.42561549212155597,-0.21906631195215748,-0.20269846647398668,-0.07780806552247367,0.7641816040051557,-0.10693502261942378,0.12799865096785792,-1.7788396635398371,-0.4408210258573779,-0.3663021907759049,-0.007266775253116839,0.14530180724059638,-0.011420876907798201,-0.4602287256593501,-0.01928791630343734,0.13153032930633557,-0.012573662629085568,-0.08532935662533885,-0.06143498561615048,-0.1023797842414337,-0.22162588186071086,-0.17286753882687736,-0.22935388808967586,-0.01588670546754779,-0.08325879374953003,0.6797150792641211,-0.13414826086739037,-0.37721936280680995,-0.25982073201467487,-1.0649462808999133,-0.5618880727248112,0.502641669194015,-0.1937856580108155,-0.2577955765407761,-0.17605223388639543,-1.6009224730453873,-1.559549719104996,-2.300362850805992,0.02647932168587052,-0.7744660950070945,-0.15680355089052264,1.0306755448932554,-0.4498432693429049,-0.5053807243791604,-1.2937920487893633,-0.562284107993784,-0.03465094156168943,-0.8650873507037773,-0.19149181946427726,-0.4354896314814315,-0.6111431748552106,-0.7118156924716088,-0.9215720620012324,-0.07439748300070309,-0.3404263622652669,-0.37042138178292516,-0.14912614647445369,-0.022579524414079358,-0.0591583830766278,-0.1867660124591008,-0.1951060835115951,-0.3440987872118111,-0.08421127980100607,0.28459505696984755,0.09432322938814451,-0.3383355276001597,0.21320159694899332,0.00454125180678654,-0.2582846295878421,-0.012761461877480397,-0.17536761901809444,-0.004807167952798385,-0.4004782079093027,0.006754935017519719,0.046206681974617574,-0.013251658626337322,0.09657466539196227,-0.21619203057654907,-0.27571740903245096,-0.015955593855407266,-0.13992340782566973,-0.22236628460306204,-0.036348000473162556,0.005612773836715968,0.6177030224104023,0.0877162742596372,-0.6089728570603727,-0.2642730448236489,-0.7237628757167831,-0.4708491796910081,-0.3009040774237261,-0.0033112903706799977,0.6289549823672045,-0.7815405845844484,-0.689321924366771,0.8118304073171826,-0.9440728059271635,-0.09319347706347723,0.15354429987144022,0.4771083908447616,0.9794679021586333,0.044630365846749995,-0.5597168672983148,0.4525622557339477,-0.17883838238455274,0.3484581668089694,0.4746070673966897,0.8891066106734293,-0.36493306001446524,-0.4670663790794599,-0.2331419920952923,-0.3526928280697802,-0.14470718342975109,0.24396330596259488,0.13737348732799567,0.04246225226961784,0.1619648330982867,0.10524542081443185,-0.5371355030319573,0.10053759834199272,-0.26045137592683326,0.0822286816821896,-0.1738046005897321,-0.04685397681167943,-0.060055575931808915,-1.3055490410261816,1.0500566358781513,0.17832493407809757,0.04941491089341088,0.17829864201343043,-0.003201757686961891,-0.07957399121605777,-0.03144763774885102,0.5323944829167072,-0.01911512460608173,0.16579260547740923,0.03826825149560312,-0.27503186536364904,-0.07889753778263268,-0.1520750330329876,-0.12710607671848342,-0.08632142731267194,0.12526097713740797,-0.8585780006300253,0.014753508918112892,-1.3729295967010495,-0.19494162500770176,-0.5626175428913992,-0.5749091513873127,-1.3242904147369383,-0.11133118111016861,-0.9371602984751265,0.17524744383588217,0.8378010093432463,1.0394960945898666,0.479583542708481,1.3929222756512696,-0.014156294076457923,0.5203465412498728,-0.05465718241080387,-0.07533678423408255,1.002235875127249,0.22278602391857105,-1.7235880243288744,0.3596613092235387,-0.026499735169253195,0.35933293315390424,-0.20303310689400453,-0.03979009566591941,-0.22985131045011392,-0.3443012283402599,-0.3458971345845119,-0.5472141435259884,0.2616612609615714,0.24371836030397773,0.11571052286420949,0.3631047412260808,-0.2267897805112898,-0.039163705898797814,-0.6144908227717135,0.34441491151441844,0.007861807484617787,0.31263665751446085,0.3913590341259464,0.7677963197005521,-0.09124593455502089,-0.11896967872563859,0.038754486452202426,0.22686199382314146,0.007370880877598008,-0.33828565354117673,-0.0003364639365710548,0.30255899923150437,0.03556939686636243,0.06026386394606501,0.09808133705067316,0.16518477875742837,0.16340942773365677,0.11920926091959624,0.019769613972329656,0.3879052619239014,0.3931804487168927,0.2306591081857807,0.17998205159068809,-0.39200583787529863,0.5574147151540633,0.5717444173081442,0.48271162639958154,0.7182329723223337,0.51329535455967,2.540273786667691,-0.3730520157191263,0.6709271358604767,1.7929435055456553,1.6734293813239827,1.4409668712315562,2.0788579296434215,1.5441159167039613,0.5027760952985345,-0.5974111492623531,0.07952112649033018,0.5392618477655223,0.5782177242509072,0.4029877907616917,-0.29962697346712097,1.0435134191499635,-0.23485707058697694,-0.18548644708294346,-0.1807180416481488,-0.0031559853979894327,0.47379161944632386,0.2159885526929002,-0.1386456169597301,0.1106549017441841,-0.46138797804053827,0.22635882726256548,-0.4740573781838558,0.39914195797139973,-0.11609100598202404,0.024765981575700292,-0.5570903118994911,0.35749212729567004,-0.9200629596233462,-1.3437450516050082,0.5563688794899821,0.5060506708038162,-0.006075380799991071,0.47094615101313864,0.04476597104985935,-0.18244625115340993,-0.015132595545473563,0.48996567505931565,0.016061842388343215,0.22155899777918653,0.2337285144589241,0.28374598974767723,0.20623886783396703,0.16137898275574514,0.16141741117585312,0.29870041826708665,0.14768720448168685,1.0576844487953179,0.252500742515138,-0.5965654836759684,0.22699156153081498,0.789734010645818,0.3423676891630178,0.32007018679084154,0.4135395837985136,1.4958620056998428,0.8143376265067263,0.5836288477409044,0.6384280270413568,0.45019956098033953,-0.5628594161893823,0.36150944782401473,2.7200298115396175,-1.5336198350148895,-0.010260406502648188,-0.5379540663236064,0.15604562747421655,-0.48832892223444746,-0.3843126189788031,1.0014442739045322,1.0823535997451423,-0.5168372902670868,-0.44315882342912394,-0.2276574653310379,-0.14000823904093782,0.08371550285049066,0.18889548303743364,0.3012029158743275,0.20395857709519546,-0.9598485252073348,0.41944933318252425,-0.3777894000687097,0.43743461762743174,0.23194939459107586,0.5016579951697263,-0.2547060250484212,0.6545613815413202,-0.047236563689089954,0.6085983524188879
0.7588225513755741,-0.15790276089078895,0.19691727391774735,-0.059277563177011265,-0.6933253227418265,-0.063585783834445,-0.26243649739127667,-0.033527203483663434,-0.40162117232503025,-0.03318065295989874,-0.31190032346779645,-0.2660792936138354,-0.34615101529941034,-0.41741180659091065,-0.16896689576503393,-0.39701672350118994,-0.3525919476621994,-0.1523034569053953,-0.32935626324013595,-0.16056700236799207,-2.224919929155964,-0.3428895799819196,-1.1744984374282341,-0.17871460784747545,-0.18539736600212894,-0.32428994750447615,4.29134462395289,2.966725331172126,0.03418398156038257,-1.306403961187809,0.3304815208874866,0.5374808853238148,0.4073673286266666,1.7462510075981077,-2.817796252711179,0.5936722538752522,0.5369311505379826,-0.5048736281282413,2.2249252642726534,0.29930893448024687,0.9257576486664947,1.0351057927196297,-0.897628011480915,-0.6569879980448649,-0.35269170704286956,-0.7108737017317508,-0.45139198486273685,0.1325263907904762,-0.052761261470978774,-0.38052187975987933,-1.351008848689134,-0.41582437555606255,0.2892638909646506,-0.5265509493575943,0.5260257125818184,-0.18009732135402703,-0.043090835292525276,-0.4780950802670124,-0.27775130646538543,-3.2301664326661843,0.40956032735466397,0.2443149121181908,-0.046904460039489726,0.43526299906828575,-0.006170240935952314,0.3354402005079111,0.044522485782187045,-0.02899104017692633,0.060042239672269515,0.030605000752282195,-0.08686967509545043,0.0748028770064666,0.019172254171328323,0.2547928940679668,0.11630111844470119,0.2578790831431734,0.11981216039652275,0.27223494120103364,0.033653475614170994,-0.0007494006724685847,0.1402964549863099,0.9370509049164373,0.2693236231042981,1.0500000316489686,0.03291424537681234,-0.21790558118661685,-0.07935157771756615,-0.6227859783785448,-0.760628022680465,0.008733217166093,1.1916382726485057,-0.9320644203566811,-0.8641287462999504,-1.8076587654082659,-0.05132146599398198,-0.39437027738891633,-0.2973470025544857,2.3438677694703816,0.46355962706856885,-0.2420406179304455,-0.2210368339330575,-0.2575632416095419,-0.1297781329516138,0.5171293292385788,0.11471834594837138,0.5802635808558716,0.5168482810726144,0.08688179133283436,0.11089072024688894,0.3096067303774362,0.15371863825309995,0.7327893360022256,0.09399159385436796,0.22567634282254978,-0.015992310073088663,-0.09976856359813048,-0.06266261104361404,1.3347517449709814,1.3305868695515657,0.008794757141957222,0.4108107635121242,-0.06733487884072989,-0.5164342574638255,-0.04548433253122932,-0.17896071244358758,-0.02981100872338158,-0.023180880476200007,-0.0041645884617925915,0.1110221667665006,-0.02412963234728365,-0.07681119879149109,-0.003220207732617621,0.13178815929579402,0.09114688739676509,0.027405111841362847,0.24310430768425048,0.8027552225607805,0.12266313147191242,-1.3444622088222458,0.3133602602862586,0.47793262294483,0.19781268126957952,0.7587779146824194,0.3077548188669039,1.373618963841775,0.7725139720136311,0.772085713578033,0.7341339265912087,0.6676705939309819,2.4866020792510932,0.9140711912931518,2.24179608478079,-2.349490349096505,-0.4588897449354602,1.43604627240363,0.20645076021113412,-1.564223316330271,0.36751414932475274,2.117100146394831,0.8057034076454399,-0.9199026697842984,-0.6189198316760313,-0.05959368618611299,-0.4129904880172714,-0.2584158636273782,-0.11030352010207241,0.18529454827744926,-0.14722785593314405,-1.0958941999263418,0.4694275175152341,-0.585476099989475,0.059716118031806605,-0.3320579077687145,0.3589656407130128,-0.6168537901988788,-0.012975764744392678,-0.9475625300989116,-1.4225947533743784,0.8699929553096282,-0.3771488874525304,-0.09374930002926796,0.3893296789820434,0.006512835059385153,-0.06093659977737873,-0.08144473925147838,-0.009900849493588078,0.02706881309542783,-0.19942953318984816,0.029961547014555782,0.05270106398391108,-0.0876795682290807,-0.1079978990006741,-0.12161176492632761,0.03398249385356489,-0.029093715075699834,-1.2526497826892116,-0.08513970715026543,-0.09384542746808952,-0.5473467118848072,0.8437372945808185,-0.8130606526562426,0.24386071803479512,-0.6386896053821428,0.27928443599854796,1.3041770316459056,0.16816221310431462,-1.1796740500792409,-0.013486736397176987,-1.2640216739352517,-1.3591124435712125,-0.3749906643964732,-2.0290976904916627,0.5310026539095392,0.9776498244086396,1.678360922150676,2.236966149357174,0.6331416497808988,0.5405231931209177,0.21940994405096784,-0.13266142539230602,-0.6662387661033959,0.5428137222065762,0.2993025250007419,0.64294180847728,0.823116492794679,-0.13742792652608507,-0.26439054963439007,-0.318826475560228,-0.41688962390487533,0.06231438576222279,-0.17822185320414324,0.6678856712965635,-0.12576808553155633,-0.7994820121571716,-0.19073998587532745,-0.745190744318661,-1.7812048260572473,-0.2031747358325517,-0.29366435999563967,-0.019633392347481446,-0.1407609533075926,0.027046872823166753,-0.6022014705731338,0.012598679507208195,0.26221827567465783,0.06856077592252069,0.02297027321085113,-0.0741039726797029,0.25014616706055454,0.014160309234034189,0.1579391881563587,-0.1472655395180737,-0.019487469584451744,0.23415132540301445,-0.7303493520548192,-0.05001001827101902,-1.1145052566616946,0.24888497660596545,0.4155797977335381,0.0024680108627080006,1.2717398972406708,0.4403458338662566,-1.6111711026561497,-3.302344476448696,-0.8949492935768434,0.67473585904736,-1.6821221260909276,-1.0949770966595254,0.68518736317997,-0.2587385405620348,-2.046038703274335,-1.2694827543798093,0.0858607888367948,-0.036978119200252596,0.7646945130901271,-0.571658555653752,1.6268641106355115,-0.6764553628364736,-0.520815061080102,-1.1427184141665025,-0.6488875085825485,-0.23446504227002113,0.027454901874548587,0.2022583487281255,-0.5794076696277534,-0.6859952329712974,-0.6243572151556005,-0.36586812626575466,-0.197247114972692,0.17370919691137973,1.058284995768848,-0.14190834451132037,-0.16371659179512002,-0.11360350317692207,-0.3093907251263048,-1.600736795016337,-1.0163698964512216,-0.9111472094991762,-0.006072725226752088,0.40281992724926463,-0.01759924548304198,-0.48629327903694763,-0.015084770535103677,-0.26575913119917943,0.04829552131086861,0.12521004598621793,0.2421371429090594,0.4091788379859051,0.15078923514003253,0.13487986193614956,0.17321242775159204,0.14384526158163694,0.20320698859261846,1.5383984362173262,0.5210930960241453,1.6395465428720843,0.459313556509084,0.3782833062929675,0.5201107505566209,1.3595098452528511,0.4618940051641883,-1.9436465551529034,-2.173430935666033,-0.6190734147001647,0.27617706510769097,-1.1844934072370374,-1.451382493836782,2.1419648554927395,-0.49308535236864715,-0.6053794043918295,-0.2548437889063909,-0.4886455174568186,-0.3161336363159014,-1.5752391942163648,0.24469638244099737,0.43786628383633563,-0.37136150369606175,-0.11432133232221137,-0.07101353990875492,0.06979095069137917,0.2563907196481853,0.514989879236162,0.5139129945233631,-0.16186787068075878,0.1121252863787136,0.09491177681996708,-0.5380478489220459,-0.3680458831752228,-0.12057813310809808,-0.0008210234090952671,-0.5977973046016887,-0.07655429852707912,0.09342151987612095,0.44686876546263093,-1.436243468279005
-1.6081603063209668,-0.7659616984786133,-0.3678865031285257,-0.06346611250461427,-0.014152030984688995,-0.018980010475386413,-0.42299720668686625,-0.013237559804442765,-0.3012644905532782,-0.02556455412837288,-0.1581589269239225,-0.12253789432349947,-0.19482304063657815,-0.1657997711169703,-0.1168254810929235,-0.16553983815759857,-0.16099311853743437,-0.15333622339608477,-0.17422582891508703,-0.41443019425176303,0.15068604433393526,-0.09394130486341021,-1.033283254464441,-0.35163695608344153,-1.3080801886671216,-0.21299214361087543,0.004303016765113552,-0.21147215883675965,-0.2108422070667436,-0.47603444336894174,-0.8684386986640068,-1.03976585584609,-0.03269678066031999,-0.416505156796216,0.47861831388159237,-0.2323173078761025,0.32990214203243157,-0.26453495826372697,-1.1881611547688125,-0.1610160349419166,-1.0072163809795796,-0.1706090771604574,-0.07335671234486428,-0.06664533087808734,-0.14552892033936393,-0.22837650466172701,-0.20402120380750163,-0.08131916670226312,-0.11006355475811007,-0.12212152939194189,0.5517926994390923,-0.25103488187463024,-0.2708105399889175,-0.08067810819813498,-0.3928702090683356,-0.1771617907037764,0.3045678617322786,-0.1029669995342303,-0.11289399388780666,-1.6188903790834164,-0.05432962101799689,-0.049018044073232674,-0.021863471011920047,0.11521888216361655,-0.03613537028939405,0.1727331073091522,0.023116861363498907,-0.04710409851129179,0.01831394191564728,-0.08100696643159687,-0.012151871829625904,-0.04207400932880473,-0.08019396826671961,-0.12055170167281617,-0.08245455151297046,-0.05387704784267031,-0.07282986614974538,-0.694715833771843,-0.23181548644001906,-0.2921482639076968,-0.026544545236931776,-0.5395826026804809,0.09520760406219721,-0.6772210346260327,-0.09502855246824035,-0.9391829191879264,-0.4713630221335631,0.27190735164490415,-0.6737134858667234,-0.4928426297684363,-0.15809564077190214,-0.7256338805447479,-0.20836069993548545,-0.27743363721174047,0.029357843518975572,0.32696450560723833,-0.4858010925932419,-0.5863089230689779,-0.3458635946863168,-0.6737502558713799,-0.1148274955839256,0.05605673737375525,0.16229793379453702,-0.10438153709184805,-0.11405463100666775,0.07495338071411027,0.06333043919353272,-0.0025136654203458167,0.08181235882710503,0.46710396129770354,-0.0991428394899472,0.16770885888664724,0.061285801637454916,-0.11183875120533016,-0.08253551431912638,0.12197963758209995,0.05845807460046514,-0.1911708445309563,1.0542834666436427,-0.4994074051838421,0.10316286768062555,0.0108337874394651,-0.4020233569705833,-0.05549750051748608,0.050867690120429875,0.006065814141714573,-0.5027468462305886,-0.03816508679878375,0.06824208510548516,-0.21096653141940266,-0.23085337408386752,-0.22846523978181696,-0.18318775124854533,-0.11357914823148847,-0.21354242372310273,-0.16465621151482696,0.4665857563268927,0.14252742557854495,-0.07111495576993457,-0.09454375173490728,-0.9440526462861647,-0.1982753785964757,-0.6234118170696025,0.04157062436900865,2.0069744326062193,0.6448827292836022,-0.3167780603158144,0.23506333236176427,-0.4209239766864349,1.070597563636997,0.04968291261526861,-0.11359397651049423,0.05818801439253276,-0.2830058802740686,0.03009090137913656,0.026008351282149064,-0.14083932789689915,0.19906439035104503,-0.6720871018150959,0.5214619550116918,-0.10236861926355956,-0.1426552371655005,-0.13124916620146648,-0.12753232496257366,-0.08418480757915234,0.025018147118628167,0.11943575629306709,-0.02379230698468191,0.09924005589207331,0.04734047865456239,-0.16974113329386253,-0.14734456865257434,-0.19574668539920861,0.1622047913874987,-0.07809147654899312,-0.11830463449888223,0.7761951009966651,-1.1717958174432346,-0.16332021981766287,0.28436945981893685,-0.02468211465354838,-0.8327134798763128,-0.02981892874335529,-0.06638771082651389,-0.0077699245546479,-0.4674382042130434,-0.008359542073600255,0.06726318903454799,0.0074164396257704384,-0.22720141106195763,-0.28909478117407444,-0.2554479788340423,-0.16684312307503385,-0.18610570526671275,-0.1903715520391576,-0.5731045938019683,-0.17161723587659408,-0.42251381705370955,-0.16293833507273517,0.16003672476829095,-0.09487003331650373,-0.42903860964892043,-0.34241039874387197,-0.4755522785021794,-0.6843538330751533,0.6594980614091421,0.5452318519024226,0.7048258666718786,0.37173481973591627,-0.214381692109108,-0.3172196626375825,0.13080643930180133,0.20684178802134529,-0.08306335864613852,0.12253013803171167,0.23420587840199922,-0.11597478705879853,-0.2804705771456068,0.2516693972798566,-0.0977500720814803,-0.00848529843933083,-0.11939672964484158,-0.11508848865659604,-0.20562692020035706,-0.06605363453910812,0.2676834689725501,0.1344555097662517,0.4886959346264413,-0.225284820648826,0.12388607057801862,-0.19179145342416837,0.34186075169001334,-0.17228178333117766,0.22928565749825647,-0.029213685915461352,0.7393313861789353,-0.37706136676888713,-0.0518569734509506,0.3788634896379683,-0.00845779872687469,-0.17708311787272255,0.019911759801180217,0.2274131845314674,0.01865327377818716,-0.21168408997230678,0.018356818522236567,0.09187947757053201,0.04678195789290686,-0.003856373800488397,0.002165629602971057,0.1347262501401909,0.018818569949053215,0.004245675971591248,-0.030556036995501832,-0.021263571038681633,-0.05633416903125152,-0.36642655583355355,-0.15569598843238217,-0.1609752918100852,-0.00039159127762693815,-0.1929601025676516,-0.0813658381063416,0.002406981143623793,0.4638417873290942,-0.2222228806548955,0.22981377865107153,-0.056644837666115846,-0.5150026391113743,-0.27547595007217,-0.7888384438192818,-0.4605473163178439,0.08296596563130298,-0.45310490398266906,0.4389899090297167,2.2148473994170907,0.4430814649191902,0.4575751905181622,0.009960118744843658,-0.38808367562794566,-0.2368491560805885,0.17858617999985832,0.5107780050573071,0.3527810903465673,0.51100000310974,0.22841062276083388,0.10709953376703082,-0.403630466860161,0.32396514745322735,0.14257254539929343,0.11047940964544375,0.24013852014919607,0.3977676696592024,0.28101400885193617,0.016849746007039562,0.19143930495175315,0.21005913042903548,-0.22289815920226078,0.5757492938560212,0.054046107074547226,-0.24870263974610796,-0.01310926797804949,0.328158228345011,0.01392136935285733,-0.1499557941511073,-0.004992725134914475,0.17319644595077635,0.07399077434493624,-0.02050674088429046,0.058402435033138876,0.13230530672452454,0.13017720305202593,-0.051335638787320975,0.10509235992827252,-0.1420912715488354,-0.18680854304022093,0.2809355236877041,-0.013984592608274591,0.3677617832209594,-0.24068809861255566,1.0267989985418424,-0.10314998113241285,-0.45512366853949393,-0.107991645319882,-0.6894095994140353,0.6454590883661504,-0.6847964715529491,-0.896916426915483,0.6770364101710281,-1.0855844054546953,-0.45576796789145835,0.24935995016428855,0.7285012477433592,0.6317132104857375,1.1949215106522857,0.8894707166653107,0.9429813974347114,0.2463111933785646,-0.03363685148589345,0.2997645065744333,0.4296695256959478,0.33186523213557206,0.21568200607206656,0.5003003398893433,0.5588717967350211,0.35071998030904716,0.04435639226063535,0.3901447671993205,0.07542896179261108,-0.04572408606397174,0.4900930113834719,0.3725741825177692,0.10028634458193635,-0.06921223023763763,0.42744834845047025,0.6134015804267174
0.32966601752773866,-0.5305776504140315,0.17891998366641831,-0.005619129763765963,-0.24050638965928933,-0.004497543646317106,0.005904016991882869,-0.02217622215937777,-0.28470867506919434,-0.024697343214103225,-0.10475919267614749,-0.03348548124495009,-0.059192211281199565,-0.062025356855360335,-0.03148314681275324,-0.14685261946111008,-0.100346372290462,-0.05947177828960724,-0.884936975275172,-0.13702060458087867,0.2561162144649424,-0.12957736606363296,0.35997632102927934,-0.04397587245827477,-0.04323276266525219,-0.2070395435211907,-0.33649692825836797,0.21035121728851822,-0.0890740652912857,0.30703378961418853,0.7904280009227567,0.723723240576244,-0.5271808820085517,-0.23063750047391818,-0.7362353921115596,0.44565601900514534,0.5912050787372979,0.33610412525632943,0.8683162436119989,0.33022886731689416,0.28686027791385316,-0.2624002908474497,-0.10583280168675269,0.006174020199684771,0.08423886135062358,-0.02544522923526905,-0.31530291890239104,-0.2343821232038242,-0.19665575881813166,-0.23587335128725673,-0.13202989966327716,0.061311223124227036,-0.0050721943679186915,-0.11783882790850037,0.09873597888434531,0.005237128100646934,-0.6161695547065409,-0.22554285528085485,-0.11501954419876577,-1.0121027378569534,-0.5194715912434961,0.20965171501854282,-0.010566067580011754,-0.2187025190312492,0.0016124690216331122,-0.12319350297056184,0.0065758201653264015,-0.13144257215803626,-0.03445878474185143,0.03851774338215039,-0.08378310461731994,-0.11278883679990002,-0.02861365014102785,0.0038452169796856185,0.046095906837075,-0.0500081991355843,-0.002107509627927653,0.41124488785701185,-0.12510221736142188,-0.2611242147000174,0.0025453629805403566,0.3332573729568617,0.16786708151889954,0.6167370649583858,-0.09304899847399357,-0.10332508108367214,-0.3062378363423445,-0.9604581499902698,-0.1484442960069985,-0.05092927069874549,-0.08932643916426614,-0.20027377227537255,-0.4171552321404343,0.16316326696865385,-0.4833408792080084,-0.520000934989801,-0.051151194897475154,0.6554970161234323,0.21026627442963441,0.3055963076582871,-0.22834897024742087,-0.42863499459861015,-0.24506899328295875,0.03602230448410252,0.18964485715252394,0.1446974071768152,0.06785244591821969,-0.06614868055666301,-0.16105786675631312,-0.38680614313939127,-0.12126515532026746,-0.0703144587613527,-0.08135232116296383,0.022124682652734137,-0.026091899750182217,-0.04030264806213349,-0.11936595918934202,-0.5902972826959384,-0.9480939761960658,0.10549476192863641,-0.13677273654002844,-0.020377259412918198,-0.26132733490229193,-0.0006729209315096329,-0.039799329773473904,0.015663841360699017,0.0544895515629925,0.013065871970170194,-0.3424711007596366,-0.05393708023626638,0.10082204576723043,0.11680646289638233,0.21713045544192544,-0.014152473901942889,0.01525707982495376,-0.07037750572191448,-1.3735311129195789,0.10268836901941901,0.3026585623295595,0.06651054730411043,-0.16223133222669417,0.05795179806973832,0.02989880971060208,-0.1493523180559708,-0.41757412343096756,1.1135224640012131,0.01406089000820046,-0.011451386520719859,-0.43342168095045686,-0.9473605376069413,-0.5287875746629904,-0.9405511559604136,-1.1823128217985193,0.02947357779203626,-0.7549095373224618,-0.1995200134081414,0.4144844941575836,-0.09110431870744147,-1.5187830727788887,-0.7888161270628772,-0.1395703730368284,-0.27338462267166386,-0.09550495400592379,-0.06483705050553355,0.09060094056586662,-0.1778395595800389,-0.4828008928830623,-0.3166131763245295,-0.1075707944464881,0.052542289575545326,-0.019958521538608078,0.015126464801485311,0.09741393527732503,-0.010865419176329962,-0.5569721155955505,-0.13025086201860403,0.5995145503631224,-0.14951262666435855,0.2993017689172472,0.07420830370784615,-0.016728340835098488,0.5358055079361956,-0.023349454411606917,0.3219745003430349,0.011148460006622883,0.10099008272250984,-0.031866943735805266,-0.24296690852262678,-0.08643120420636793,0.08192135092599463,-0.06729289227559783,-0.08189111356700118,0.01435122615457673,0.04145341257837557,0.01718701249419941,-0.9140906322426641,-0.23181613304428167,-0.42071089507759263,-0.3641624546889462,0.051310941332845576,-0.25887012427842787,-0.4401055288129121,-0.37221094013018075,-0.6345750065174676,-1.9100449918566234,-1.5193080547965847,-0.4324882852463832,0.520243568863628,-0.10060298604937863,-0.7993927461199922,-0.7762030594612896,0.26882412913965875,-0.14659881942685432,-0.37862893194907876,0.5761916238148604,-0.9191739487202912,0.6323832523539987,-0.2932528399296428,-0.3237444498520576,0.03321133647156084,-0.07883057500262804,0.2357015213875142,0.2464841511081123,0.029889155880352535,0.059259201193975104,-0.2317530278431701,-0.19477933458947236,0.04263262332135715,-0.14791002263088443,0.16904079862151355,0.0021252166724436044,-0.2738635499868556,-0.1970303408992979,0.10772690042936724,-0.013291560289826958,0.40289838832618496,0.5574873516032317,0.3068301849079549,-0.11128798556743608,0.002748900603175047,0.19826022613503855,0.012713139001108698,0.06085160092154857,0.03934332649787671,0.03322272315343977,0.021160786024726604,0.0924784480109297,0.1396253374634055,0.2747236900490468,0.23318994739901935,0.23482241005303717,0.06467393301586355,0.10667658706707843,0.20527896680913815,-0.2981449243530978,0.3387720960443379,0.9345235076997961,0.5168207697805527,0.3205311533008503,0.3778696033435066,0.22567171865927635,0.6006462981738464,-0.055924712932771944,1.2171542218629239,1.3960077946631293,1.8311066128657272,-0.00011974208634431412,-0.47891962756869,1.176300782452555,2.274427901469026,-0.47441945406150626,0.6998330161894261,-0.15710839043564553,0.06691390965957093,-0.5743967333472596,0.2934479037002477,0.19730009351127628,0.4284209085083451,0.24132595883779465,-0.07956028968203661,-0.10596804372051351,-0.1940085598396991,-0.07552555637142461,-0.1749770373743276,-0.33490534976450337,-0.27098919118710846,-0.4144782546397631,-0.028202868313312056,-0.48430528728620187,0.14383001574312956,-0.4250341831626232,0.05904911384101982,-0.8563508619893662,0.2593509396344991,0.06102190715803658,-0.04924728241075628,0.3748551206949235,0.06780022870482867,0.0028232663447974164,0.5552843360743928,0.00682835403673782,0.1124334839839508,-0.014542030098940721,0.17535284636559195,-0.013805255691518043,0.19174083326318148,0.29653180022039916,0.3706375101140437,0.25996500348541685,0.06570390839167257,0.1782474190151797,0.18731250763797713,0.10420795315840312,0.9618608282827046,0.5930235573229291,0.5994159210806637,0.5461767708468618,0.1593299296541981,0.18357624627667424,0.2637987651926099,0.5478983428182876,0.8743998267621744,-0.188735430200133,0.40220822683506857,-0.17626185732575947,0.08073349171920849,0.15505060735648168,-0.04313914544601727,0.9217927989846306,0.04982073271313046,0.5345878140952635,-0.8147128212164051,-0.12006357476886896,-1.4869063246193372,0.12299598599471026,-0.13896064315877815,0.23704984005484026,0.019289241733859142,-0.06848141824046107,-0.19396819979625665,0.04004628790971385,0.23667702738546723,0.14344178941925018,-0.07267888358168882,-0.008667093403869236,-0.6026379535520582,-0.14463070179550003,-0.2960709155982619,0.29509337335995517,-0.22122652075191837,0.007295889479650193,-0.29566510472569263,0.3221611329069937,-0.5331579634653834,0.9550759778904697
2.4592014976161853,0.41876213198164897,0.43264397262264637,0.015622566865380326,-0.34226906328510504,0.00684182551713752,0.3397965279806518,0.015511625892511597,0.10301361575421562,-0.003054061886141441,-0.022075598905835905,-0.01990439556804726,0.06011273026381563,-0.002988237528454473,0.036395483026226964,-0.050495369387941774,-0.014246398533973708,0.09014903966611694,0.05120688694837215,0.3222774547259302,-0.8271285103555635,-0.07201961142666051,1.0182744203888605,0.28868271803688617,1.4521847925122828,-0.01854576402901972,1.9665364895639772,1.6486738285355276,-0.1226450264667198,-0.03132275415276992,1.6310440328279643,1.1641141804172987,0.004715481570697484,0.872658047795045,-1.2508070170103898,0.4577659626490855,0.09366694373904424,0.23379393337645282,2.954091900614524,0.3037197908128785,1.2414576073543924,0.43403879165183423,-0.3189879878149912,-0.25316191837590263,0.003007662110790734,-0.12055249587329878,-0.1893848241271553,0.0584929735954412,-0.008658698141184955,-0.1158038988011053,-1.0235535812000793,0.05107926429054052,0.4943665989836553,-0.17583070876899853,0.8379458273736758,0.10871367591881452,-0.35936516244754696,-0.16534537369287705,0.22004961863378522,-0.015342279815360417,0.31150686074074907,0.2788684047835021,-0.019073203639450323,0.2550383522529843,0.0345641260975412,0.06451733029380227,0.01640455428827303,0.09554599479298352,0.009903268947556654,0.09095323576833639,-0.045822830194076,0.01089571826837545,0.09575892920376339,0.22666725723917508,0.1209859795838949,0.1360625022681859,0.16132737998444382,1.0454516119888146,0.22933625587568754,0.25356956661836166,0.08878486363911825,1.2279672910065507,0.20826280945312994,1.448789384192406,0.16575430786640652,0.5915966328356095,0.2682465104704157,-0.8952329896989033,0.447270239040437,0.9026161414316523,1.2135277983959274,0.22154881099597182,0.23681288261646802,-0.7154638469959412,-0.24703483600564874,-0.5472161838584595,0.3130285330290453,2.058353553434054,0.6343949050546659,0.9798351835734275,-0.02053189155352969,-0.4449988707582825,-0.316340181303047,0.3342403805258582,0.15920435989086762,0.17280660557389071,0.15721119815808432,0.03885020744476486,-0.09058637943441357,-0.45654694085319364,0.172907962060417,0.2184014653889701,-0.05047001889093024,0.2407914803496811,0.07858049574908378,-0.04367137731267517,-0.07752488260309116,0.7275598939381184,0.04629282897374835,0.6486881063600544,0.06482059188016921,-0.07169148079843335,0.2181483241791566,0.014921950268920818,-0.22858993286500653,-0.019271648600655732,0.5982905970272455,0.022577317243251804,-0.050995939783115965,0.22770013673089715,0.2764193262331729,0.19847884411514355,0.22384467317100043,0.12052308374033521,0.2704776912843499,0.3011639406269144,0.2933654493928945,-0.1668874941831315,-0.4638604269453338,0.18361078219121046,1.2429251133129173,0.332548285720877,1.3717712877580932,0.047979173848721135,-0.2377087772383887,-0.29547041781589595,-0.044557958926374985,0.7621109442468272,1.0610094930566327,-0.04789354533950182,0.049507378842977366,1.5277294565432267,-1.6464327525491869,0.06809345939176206,-0.11336113275392451,0.16917103778597856,0.8809007120268069,-0.03135494300395214,1.537663781975434,0.27891563318648294,-0.3894934551636457,-0.4088558442600265,-0.16449742595964986,-0.1312810580837979,0.146319753264267,-0.06347059560561703,-0.09872073280755306,-0.04535357090639768,-0.683716219265495,0.15295898011600167,-0.14837017985838993,0.1946231975151063,0.2611612802441612,0.07558827485215064,-0.26412734925953735,0.14991136645674616,-1.2155003278383243,0.6248767923584224,1.1321771223976689,-0.22072762157205048,-0.03516087140885651,1.6114430737285808,0.05672146526633928,0.1912592641150804,-0.018716833969091184,0.8096871864670442,0.04849593811960954,-0.08770350841917675,0.13709275337980165,0.3568062115479288,0.21886452379937332,0.2457535044706632,0.11355790253156736,0.2555149120077655,0.2644686822455894,0.7322844455930663,0.18922729243335845,0.24479705599643073,0.06360195050148604,0.10916917830867713,-0.36114350440295256,0.10511476253864531,0.1359143486164307,1.0799963752287705,0.8111915090627201,-1.2106466337385555,0.3965732103149051,-0.5763110949680051,-0.9992113566487495,-0.6826405781114719,1.4147913267329355,-0.6189933739197707,-0.1837062785797798,0.7737769387492852,0.7745847494832131,-0.6647802878308273,0.2579763934383697,0.8596261241500861,0.18050458190585136,0.051020779724414024,-0.34119192358393574,0.3572600437182379,0.134431756944379,0.412907447186024,0.40033663387756685,-0.22027970341371406,0.013555141651649649,-0.6687238780948422,0.1145649469387458,-0.164208922524594,0.29955623817655974,-0.3318296425400406,0.23453025465498373,-0.33750691792200216,0.12718679473613262,-1.2687557949977668,0.7323042629449563,0.32371868647123075,-0.5333034752605318,-0.037085761464251875,0.3364468994017303,0.00842618035248067,-0.5772753324862221,-0.018684804817434328,0.6008791680438869,0.02633656196010621,-0.10543555967641426,-0.08807467665141772,0.181618977836398,0.03805968833701826,0.016243720582438125,-0.03229462391571357,0.059226126070353456,0.2001216513040439,-0.14509800309491175,0.015077576495759694,-0.14717960184395212,0.41361835294201815,0.8178784522582301,0.21997342199544573,0.7878641408867225,0.41612827357878157,-0.12130116987819657,-2.7985159802235873,-0.2679462296747985,1.543135500457119,0.9767647420579971,-0.18806161236053057,0.14013971869227537,1.8570650334790508,-0.3092888038214484,-0.81422749347538,1.0145125655288971,0.06343310933353048,-0.8793325947475907,-0.8444099597353124,0.16538549799949703,0.19983544427954697,0.1671239144758653,-0.26145294332336994,-0.4524341148401989,-0.6240623519834129,-0.38386060487617907,-0.49256657080137617,-0.5965484261064765,-0.47933213599382907,0.15997533090681743,-0.5231800537843665,-0.3425129248137529,0.028004489238689638,0.24724129809583203,-0.554552819816167,-0.6926067793306231,0.11029110175044834,-0.09407302136169719,-0.6368148851638391,0.33295458031938296,-1.0342124442733032,-0.07526996348613472,0.8885675316610067,0.020201836387907915,-0.5094103497160897,-0.03323841861050656,0.36989970905071085,0.024027769203473742,-0.07619011862387144,0.005658026182930545,0.39151840751932804,0.09603302149444538,-0.0365108089890761,0.04520394810046063,0.2330460412593584,0.010542727344146057,1.5627215797438643,0.6100154725690076,0.330259818598647,0.4787907723445686,0.35468303308755894,0.5734275532457764,-0.6357478449755066,0.4527385644591706,0.7897655451817291,-1.1531171578446475,0.4589658530384695,1.5540257635586003,0.6709653328047658,0.2972462115994361,-0.23615595521507327,2.4658411799871947,0.5683743348601789,-0.40523546766002666,-0.45730456321041996,-0.23316379990955588,-2.251129728994164,-0.9133690761139237,-0.7171854936807888,0.19057809490264768,0.03991859662596337,-0.34661183427068265,-0.46259606984112467,-0.13625749693943245,0.20602122945247622,-0.16819449917557058,-0.4346818314764919,-0.2010282675708608,-0.27062979900321554,-0.6875402198971768,-0.23001054830415754,0.21913616027126187,-0.6084058593473125,-0.6275065725534889,-0.125390232600984,0.3091221540188038,-0.9927638058653906,-0.24625303443883845
0.7299335140950594,0.1550570699957394,0.44288798761472997,0.009390552880437263,-0.29757460502021327,-0.004897450403219198,0.34760313312710145,-0.004447108969263928,-0.023974622108666018,-0.006718976913858428,-0.02363213973885198,0.017151850530081995,0.05311824074524973,-0.011892215402655611,0.07001574946862099,-0.12156742049994905,-0.01727134084900455,0.0401792959047947,-0.41306423882198984,0.3033607161978542,0.2984201210905609,-0.057968130224613355,0.3899112240087157,0.03662947696079244,0.5400634163435187,-0.02559074978813905,1.2102172160684823,2.3773852461682092,0.6264151564717699,0.5300061219757346,0.7506874751341246,1.0422115132260938,0.07425016305933209,0.33805134153656713,-0.15265569346277436,0.934750773151492,0.358249891618111,0.20961224819485816,1.1096641328003067,0.43523932054027964,0.8742077066293231,0.21673999848469544,0.06206489830448182,0.12658722681659476,0.0863932225964765,0.026727138600528923,0.0036043421671692446,0.061723984168951126,0.10319825539372497,-0.0726586229745498,-0.6172563897680119,0.06084671573059889,0.31464409629428775,-0.06895867309675717,0.3567385905842404,0.010361398062454622,-0.6226585906505178,-0.14731078111760423,-0.2897575934548763,-0.049856404470402675,-0.02432357961340488,0.3204119205414209,-0.02296007637133803,-0.07954729037289575,0.028495576731125783,0.08947568095623791,0.0016358577555021052,-0.16211280664431824,-0.008323996883229412,0.10379210016044754,-0.042387071144393676,0.01016636898844641,0.11795204982035096,0.14085838247242136,0.11115668768990807,0.01892852913835242,0.054555529831956245,0.3648230011759019,0.10536933543115075,0.3628192529998478,0.14056964705518618,0.7748763996162866,0.19366390772656208,0.9363921160944719,0.034275515409008986,0.5346183712677971,0.354406525610362,0.04058008216257183,0.6531868040893655,0.5633192031453633,0.8901277325408887,0.26477669871750814,-0.1548693837606724,-0.17852454224432446,0.029362223472046894,-0.04971537259431471,0.43164737126792324,1.1659439383170205,0.6268537267738213,0.3552336586445824,-0.012045319918257188,-0.1208590614496993,0.04458219637161182,0.3621869556467996,0.39877816608714944,0.24169321077812678,0.22331086849633594,0.10127637638825045,-0.03337200728731369,-0.26863875361240136,-0.002730948372194654,0.06201116508676818,-0.0031489200681545184,0.19887675092671367,0.026771247658435186,-0.1792045046301359,-0.1072085275303031,0.004382579208508803,-0.5409964320867862,0.20733781564762066,0.018958413502746754,-0.034198236038123685,-0.16425112516466314,-0.0012194322224362965,0.06929055292287065,-0.0027653753450349906,0.05527149824233887,0.014788267064662639,-0.21493176336966677,0.13124685643476092,0.18907624163736259,0.09654252254273547,0.20319290933648074,0.04361586699597982,0.03701290293673506,0.03916859350871867,-0.6879883383393129,0.08942570413831807,-0.044437249557247954,0.11924530394765608,0.2230765211669183,0.2398063994840896,0.5230504289141215,-0.0363614553853053,-0.21498271242752165,1.3173454690553565,-0.015229780837290662,-0.25737974773378347,0.05311766962965648,0.06385088321755499,-0.017591294885431083,0.04443717908809195,-1.0944795232553919,-0.22843458395025132,-0.5589375377023823,-0.33534612042793077,-0.20020237776976207,-0.0887324080948838,-0.3410055000077184,-0.5709672419097771,-0.26940552897234255,-0.30265424842886673,-0.09083096000805005,-0.09892687823834843,0.005768823031971345,-0.21738429823490063,-0.31755042709784503,-0.2278161636446091,-0.3558521604956378,0.061329240584151866,-0.033146036547398235,0.002342916844260837,0.12844828092699062,-0.017143031869917856,-0.39997033557044187,0.009003021809523422,-0.1716172776419716,0.4094679461025157,0.13615641405954243,-0.21661289083964655,-0.04080879859815876,0.5363958241748459,0.00022106263466200433,0.12732881054982273,-0.013934155184605126,-0.04458495718701858,0.009062457232132332,-0.25160465343695204,-0.06106610960693742,0.19894769453778133,0.05113611698864977,0.040194732421212694,0.02327601071131856,0.10198073420442687,-0.010878073956493208,-0.4089038077119577,-0.15531998810186842,0.35654810505349055,-0.16358588402260776,0.25930558286556704,-0.19515719521128105,0.19099455035395532,-0.1760151120785098,-0.3243873993951025,-0.48408940667939,-1.237038279704032,-0.6520733103000614,0.35990722303594863,0.3419672039447204,-0.47043024680272755,-0.5361822813655887,-0.4847851032220907,-0.06818003835104929,-0.25546796131473537,0.6104707431217933,-0.07609002378860229,0.525169210389996,-0.04329321875022489,-0.3620485844809289,0.017858171337246213,-0.24776812593719058,0.2310768247591696,0.25320935815813506,0.27589359040148115,0.3035419047348282,-0.37743288769154937,-0.3138683913981471,-0.17846413785725862,-0.22693112427126774,0.02505014481264988,0.061322349971658224,-0.12180295697060074,-0.24107335996223644,-0.26472538672278323,-0.12232939391572453,-0.4121778724678338,-0.4577591572921104,0.17425624965634265,-0.26577497777133763,-0.03504075685331073,0.054302787560215185,-0.007962023144124248,-0.17326912204947612,4.935534462791102e-06,0.06863252329469888,0.011289909467279669,0.0056820135324141575,0.01033127787206229,0.1498963229152021,0.12427916566043187,0.10226406412467633,0.03739772946346073,0.007697352230905974,0.10235786067607183,-0.37714916653708186,0.17871749613626203,0.4163313865061907,0.3403891193464592,0.38983588123102103,0.3020538326571546,0.6360521553008568,0.40158063625061685,-0.8598015603422442,0.1276277491398931,0.41531039054102076,1.077381049678801,-0.12784779291060816,0.4713783587903294,0.3907225353529077,1.3077750326023876,-0.791376730597558,0.19907387225361084,0.10877697836981942,-0.04154488607615838,0.2870055391727948,0.05979868568260906,0.41686242214649205,-0.15077804300800418,0.1933180113353673,-0.19381630358163038,-0.1799391376421101,-0.2167459174805238,-0.12775858072252122,-0.27398155030621474,-0.38991322624533675,-0.3467794985096165,-0.1813411929401384,-0.28730779546059904,-0.2613171528582611,0.02235350062983725,-0.025453543623268557,-0.18786984567970724,-0.6284384626527824,0.04806541078103848,-0.2284734910478716,-0.21756367572660176,-0.05277291569316577,-0.5500097410480128,-0.0395885883747507,0.43319020541906195,-0.0010691031913252845,-0.10796232344810733,-0.02238384742748638,-0.0917536401609648,0.009099051711292874,0.04718248616156956,0.14733268686900583,0.27639670862321897,0.18906551950908054,-0.031460183502437906,0.04169210316882707,0.07487976478655586,0.004079800373192585,0.7897924708348033,0.5302394553771308,0.997573439288449,0.36591656612956597,-0.32136223700565814,0.16263817194362035,0.17270535412323854,0.40807785082152803,0.25320921469729796,0.41022983489113407,0.5865656709579221,-0.6301716313112202,-0.6325719153127012,0.1600217058028755,0.12212710594401091,0.38874093312677777,0.47129151118103096,0.46713948334834143,-0.7482078406945287,-0.5032548731154229,-1.4665463255645654,0.008412367141424024,-0.46349822630506715,-0.1630583339840087,0.2587686886960939,0.06309290254224129,-0.31030109892763763,-0.02139864203313556,0.2219005585954947,0.014094685142855827,-0.26202004527208433,-0.12397372793035834,-0.1290715951344823,-0.4688322268872459,-0.17673768322468567,0.07952223933975816,-0.3291746248960764,-0.4313239924308494,-0.1415983504434444,0.06704837340619295,-0.6513602792731807,-0.29748136597189145
0.42260322535513345,0.38694694199145624,0.06745400459177252,0.03712873194704605,0.17169308910206973,0.02039524801233079,0.13223398187586485,0.008452987834794631,0.18161732554091964,0.023753719820357833,0.11174513990226506,0.07620266851605935,0.12180672340576755,0.11855972249949744,0.0957092430285026,0.1575386384889461,0.14885985667171478,0.07588131583994076,0.12698128721263574,0.10548582970941207,0.0047986160560334334,0.14106174762938,0.6239959744398187,0.2697677663327147,0.5356216608567519,0.17771303718196704,-1.104428952014927,-0.8486177046172768,0.019976081599218144,0.4404569340658527,0.20195445236359214,0.4276322783707764,0.06750068290652714,-0.030686265111939427,-0.17339493884812093,-0.1226680078843535,-0.16129086379064284,0.19299897738468355,0.25823071293907,-0.013066162329220452,0.1946641284978207,-0.13129779552946466,0.13354685301124308,0.08551040757379161,0.1305761624620224,0.19523781561843256,0.17267553008772538,0.040542401079718744,0.058703957899354495,0.1326084199392481,-0.058233804339987365,0.1591489185667285,0.03642926465332772,0.1400208246511298,0.00673410183602818,0.10760060724940489,0.0014998740324269955,0.1560261138189788,0.05181897785689852,1.282630523355184,0.009428261129972443,-0.10116043934986736,0.004249665221060172,-0.12597936537345888,0.0006407329373752063,-0.13687802926953202,-0.006968146829052154,0.07288129894225052,-0.015240419167828952,0.0337199899166145,0.045158847535148504,0.020379431998824648,0.021836244792522802,-0.002512100684732723,-0.012296160563064725,-0.008502667227120599,-0.00808825356389384,0.2389010167001697,0.13568421483726986,0.08385178143821613,-0.029346430004207884,0.005288323785772095,-0.21426867000548314,0.018390219620241708,0.00802863743391633,0.601256266318447,0.32571777249718564,0.05638629598442166,0.4863338066495843,0.10060325967508275,-0.3203945615174682,0.40417618292787455,0.34361155021059736,0.4813417665199009,0.06612801673003875,-0.0027264836910821494,0.24483849777451755,-0.30289511726630103,0.03266549793509719,0.15302197579786755,0.143695669397815,0.05943604017392655,-0.059701354042756616,-0.11111816619914869,-0.06297175210072084,-0.14721135310445058,-0.14807979878200994,-0.04025993658463478,-0.026455084446127593,-0.21610174564784146,0.06373833242385288,-0.22400875617529523,-0.06367238350369851,-0.06441980582692859,0.048700621230924244,-0.029340743837334083,0.024078979212657035,-0.19892147905028024,-0.5287367886264107,-0.02499304462221345,-0.17979710247731148,0.025394697662064075,0.18975149517034015,0.018988704580444812,-0.14656423037356117,0.01796621254339566,0.16513122757364562,0.011476037918263262,-0.010192013855729579,0.04557639994288773,0.02935775243217633,0.06078945610501708,-0.020817714965639313,-0.026560736251562488,0.035595907246042585,0.018680684293691303,-0.07774269580180429,-0.0900687702995377,-0.09845316021117331,-0.039661976471522545,0.20144121781184857,-0.06878402723572628,-0.05863988664178412,-0.030317140442366386,-0.9116597559707501,-0.8870794814369954,-0.02958909270579317,0.009057567809559318,-0.09336074751436822,-0.652497727074857,0.022517353037748204,-0.14614742538149242,0.26184161458525734,0.048354225252323,-0.21688147394775453,0.014180005839226314,-0.12326117995371444,-0.1632571455478238,0.2330320165892387,-0.23570251674496032,0.09568646585416725,0.07034844520720873,0.03574683706678452,0.017789990603175803,-0.01934037122087125,-0.0022473288906092207,-0.05246151594987517,0.027919035938937634,0.08890666221297226,-0.13481590510678826,0.037299205650271686,0.023053997211631528,0.006131569240827791,-0.15322149532020626,0.18292998827181434,0.017651380690146233,-0.13438468140246088,0.06336415816457708,-0.22937917675507366,-0.1781319608389985,0.01156483545178877,0.07697201730688917,0.017953585845152477,-0.06531683263039227,0.030326625415912307,0.12741634430564647,0.004276268822673889,0.0064079454127468636,-0.013653983624464251,0.0034643986957517826,0.15646351687483875,0.11639741117139045,0.08740797921255708,0.019780382366644367,0.08445619960623264,0.29507973814983746,0.0974857470234677,0.06802755464097156,0.15872383556370415,-0.15720385400724238,0.1534330190888397,0.10497096064796671,0.31121795922749845,0.18908843170350295,0.386776963189051,0.18793476586701452,0.21289729398476454,-0.0219088352431086,0.18810400858091236,0.5468589042933616,0.4799884343564621,0.032759284618553514,-0.18017400291008262,-0.010593627335777773,-0.32762044860797207,-0.4200017707798221,-0.13890458535210176,0.03986542740516702,-0.06709696197710764,0.033480120390908114,0.1184261728277883,-0.12267977709176352,-0.09991012582635886,-0.08460769496130613,-0.2184958470989572,-0.06895803759743911,-0.0307940643385314,-0.18532758937475166,0.22018816523368956,-0.13566510895977837,0.05577022627568761,-0.25224759016658566,0.13317899171856307,-0.0835747245269798,0.03362660431284823,-0.2790666466133189,-0.10818038031358493,-0.18906689213736397,-0.17294796359403086,-0.012708990300170458,0.04791142194419085,-0.005394335051060506,-0.12091139975303523,-0.012264668095904319,-0.0003740270435107628,-0.03435156869153816,-0.08622981216913803,-0.0270695945305024,-0.075068944364457,-0.04108285828948437,-0.12286143655698684,-0.017169246733454515,0.010278597175564409,-0.04381991129398259,0.09501977640004913,-0.018548321612240067,0.12394951674829235,0.006144804448344688,-0.07688040815804037,-0.07222249229084006,-0.3366894002728858,-0.06866925930544711,0.5437719772816797,0.19245566147269405,0.050654799249535226,-0.3774025012226821,0.4278735416227275,0.3281306291982324,0.011828262778845482,0.17104400483722756,0.4688906716877671,-0.011087188917292075,0.14255969351609316,-0.09570928918032354,-1.3505078673403321,-0.12874503255458963,-0.5548510450391734,0.10476368101015165,0.17059344968881118,0.254628232913896,0.01707771400672769,-0.16452467244280053,-0.06878896479826707,-0.2270543268643691,-0.003184604268185479,0.05467834174810586,0.26837189334875144,-0.07682855290261992,-0.05937686548720537,-0.06607156766120297,-0.3050373372692814,-0.18328545985991987,-0.045051457867267844,-0.024593931215932837,0.03887007411162498,-0.4482059088952382,0.17889583140444268,-0.10537106944695838,-0.022308370317716136,-0.06063480493308158,0.012309698417943531,-0.08895093403125828,-0.018890474340972702,0.0770997841636509,-0.01565615674895438,-0.10863982082417145,-0.08146554774828844,-0.11767445918495258,-0.0711949451096202,-0.08661533482551355,-0.13460271767338966,-0.018148867192536708,-0.10613187405544929,-0.3773117525889753,-0.0886009463652387,-0.5312993935604339,-0.15015398741586478,-0.1522869550006114,-0.04297722191042583,-0.8061074467969787,-0.07879050077707658,0.5226449780605046,0.5431277050006408,0.3147628176177286,-0.27066120866204324,0.5937719937919338,0.1158553700339486,-0.7198740220951149,0.5794061125562365,0.0557515147720356,-0.11545243410298847,-0.21808154231514237,-0.07154113721382874,-0.31368248739232124,-0.55648197334749,-0.4038941925104951,-0.007323268668621295,0.02427495235471258,-0.1422904086840025,-0.17046765853760434,-0.2407799049000619,-0.23786443136992355,-0.32296990922054514,-0.195255634772835,-0.16126274517088995,0.015871939702813337,-0.04494885266760663,-0.0367352548153286,0.02391449973244125,-0.1677637622468095,-0.02587325937485247,-0.04846498644165132,0.0006561259599196331,0.050223576729898696,-0.33106966835441193
2.524595104579597,-0.08841703557542535,0.1423455966548357,0.03224311022240487,-0.12021896231883679,-0.04095005776394195,-0.11948372048244485,0.014077492356247527,-0.11194025844232937,-0.0007146926386782931,-0.06396791506313375,-0.18071780415959854,0.027832663525237382,-0.004395423169635766,-0.1997599598109335,-0.06160329214677846,-0.11974523494463811,0.029826090425043392,-0.025818845092079493,-0.015802980895564454,-0.8787910736753772,-0.26658497540592263,-0.22609737512043196,-0.2112775267582649,0.4977285815474235,-0.23809207256683174,0.8580003244549093,-1.7773118357715834,-1.7668227208489193,-2.0099844980357986,-0.05887186666760922,-1.0465410082126778,-1.127775425255384,-0.17478707802509216,-0.9566137117470156,-0.9325417303747133,-0.9488283132324814,-0.7455272471693317,0.484551544318087,-0.5893307498109268,0.10092840211889752,-0.27369748789003157,-0.7389161184113326,-0.6762253601307069,-0.4720105539452587,-0.5493311253820323,-0.6674138918468283,-0.38290709102203707,-0.34024556952855334,-0.3073919861940228,-0.0798567839082478,-0.01511725794701209,-0.250045565703569,-0.2175791596217136,0.5478417916767456,0.15892192212102732,0.15613987183851127,-0.11414103881632265,0.3654940525518645,-0.5970187280852032,-0.16264693407669692,-0.06592463437260122,-0.02024189309381868,0.33957731459437457,-0.022426093321897878,-0.24379413876378989,0.04092255558027603,0.041455512092331975,-0.013857376517481451,-0.15775403291868537,-0.15645900428272005,-0.03887646334212316,-0.0733778057933014,0.018385497344748147,-0.07362466220822957,-0.06541809726768376,0.05674346703782829,1.0125338859114348,-0.16057465538007581,-0.1833496948126213,-0.1565579351827932,-1.0392319739330222,0.47351381695620254,0.2789349835121733,-0.06815887722777172,-1.018097343739223,-0.8878694157514252,-2.0393800007163354,-2.8368897238131185,-1.6204113340010007,0.18580685790042506,-1.282314034934398,-0.8974453590806589,0.09245670075902235,-0.9568770048578035,-1.6937617241203866,-1.5755644368888768,0.6980110886259845,-0.3971849954943895,0.35475401356844544,-0.7780319547165718,-0.6796861329154619,-0.5153003087818725,-0.2702615964009879,-0.5000484759764806,-0.26720752890086147,-0.3273062385061649,-0.2073408955646405,-0.2546513135961412,0.09235894122070949,-0.0516408272671956,0.02326356560303884,-0.0824890849564104,-0.11105200985717911,-0.0804316712788439,0.5004672050472776,-0.014923382890429434,0.7307029576759491,0.5591525994864677,1.1968709060203162,-0.0797893358214966,-0.04862279146214613,0.23677607662481134,0.011093243564903096,0.41962185298106786,-0.007470110118297899,0.5198538679933833,0.0509996660984633,-0.1559358850038867,-0.05235547991667733,0.22927747326686895,0.2013865438824944,0.07390135947138776,0.02445198783012385,0.17994031728161347,0.11767141822808706,-1.826970367330618,-0.02552861990437638,0.6959190759654545,-0.18353618094725002,0.10902801997173629,-0.08290881763861953,0.7285938240175507,-0.5687055222012338,-0.6792032217053504,1.8864000678754325,0.26644608808150766,-1.205965198591485,-1.0286918022528482,-1.9582572018732225,-1.0135936414950442,-0.4721299830523372,0.5669027853437267,1.3010375670420011,0.615080473891811,-0.3561008343892223,1.0521011371739848,-0.004476522870095958,-0.5680490909540213,-0.3044810423392781,0.3289020433634627,0.07595922362878094,-0.03301816644631451,-0.018753363666027072,0.21741793015249167,0.07870387647846726,-0.36955573065761554,-0.33139816557188,0.09759954472065763,0.2961518193407091,0.20011262345989358,0.2877638421152597,0.33171797347825627,0.2845420727202118,-0.4090659431557096,0.1481076522246238,-1.1111494735581775,1.38919112784594,1.8216843745271631,0.538711056847832,0.02969091884591178,1.1403217292662078,0.02346173101059215,0.4632993221572012,0.02851809077692064,1.0609565779441332,0.014439327195466348,-0.21192523328836155,-0.09557229916935982,-0.014317933567593857,-0.1756181403140278,-0.1188265055874795,-0.01252741477210023,0.05365139868193216,0.08597954561420482,-1.118581022250972,-0.20230845019124302,-1.085686955292146,-0.6766737633043753,-1.1790377664947747,-0.29424581080882145,-0.8405481806052902,-0.6018447639609398,-0.7601589400110822,-0.8438389304253403,-1.3747598936790593,-1.4280549762100532,-0.605435926227151,-0.03320822538419792,-0.9432412449288106,-0.944791256616943,-0.08613341392268513,-0.16289015989389458,-0.1684754387589439,0.13024681929737517,0.6659794791362196,0.5164644147658332,-0.4986892905643176,-0.5873023017932766,-0.29263960157222896,-0.2808820303153138,0.16697106315864046,0.07089380649993775,0.13911061776314929,0.15062855806190587,-0.23838759319523078,-0.2600515844069659,-0.17866392610846113,0.11236922872390688,0.2703412734022804,0.23403248113909392,-0.08267372753034549,0.1381617477325607,-0.0032093117661237624,0.29231898756980834,0.363540500262732,2.2360445252387047,0.7639674830503431,0.3036455113492777,0.026026323947172227,0.2375801768517269,0.012370085846257262,0.30665820299209606,0.03011630682052486,0.6139232871032492,0.06202729369292253,-0.040072758620480584,-0.04394801288407059,0.04555292038367691,0.05984554259637748,0.0654731567372813,-0.03686142044498431,0.07502106652191957,0.13985973762473022,-1.032780928242224,-0.044624516958687736,-0.5403519769615038,0.257213216612271,0.24986115629178512,0.1982005011757125,1.9042457590668052,-0.012153305183571909,-0.8745716909808234,-2.3526828915779987,0.8772551054678196,0.014156139463588893,1.1016456304906894,1.792537796997606,0.6777646949013608,-0.014813246067700145,-1.4335234105795094,-0.3513642067956057,0.4321311033850576,-0.6605895822090334,0.7982724486949656,-0.051015977628578034,-0.14552330465221588,-0.25241313343046284,-0.07351826784703389,-0.1049217493991258,-0.22337226394863463,-0.4640513833024311,-0.22254549616232103,0.023873026569571236,-0.34691063083502544,-0.4204786976083436,-0.05567716185511215,0.3265470648370037,-0.06585610153706284,0.08562865439536436,0.4744846905375851,0.16502865728415195,-0.30974054705613807,0.2649962397026691,-1.3513119041157862,1.0104112875659659,0.29175647635216134,0.04424219275943535,-0.018300244125616493,0.6997692901045748,0.02952215595032803,-0.12033491135169354,0.017185285912832738,0.5701092685091153,0.013441343474950677,0.01190480193103046,-0.046354537019830264,0.2577768991774542,0.16190043687665287,0.27688792497785003,0.0907114112807289,0.20939308924768057,0.051911597800825146,1.1367944205570506,0.3893715858379413,-0.3926893999462634,0.38648742047360524,0.3915098769077702,0.48013028098099214,0.5122942435987554,0.20501787210993402,-0.1929616759717651,-0.399765201469533,-0.894714192911857,1.0888108425592011,1.3171747567046088,1.0530072271904214,0.8127394174188098,0.9100919603201042,-0.4364843305304467,-0.8029162097788184,-0.5085760346310548,-0.4647737929407996,-0.2882191019617527,-0.3121626635708835,-0.4578008133439898,-0.6298891154775005,-0.6381852942673677,-0.4301139278541475,-0.37629427281000477,0.03957418069092006,0.17761726429850233,0.0683728020150986,-0.4642659835390335,-0.46482698040391796,-0.6371573947127017,0.17716290315617508,-0.21456525118354197,0.16214841597952667,0.019532480003894116,0.07161816299481519,-0.39482482482778264,0.4273264600444519,-0.9209191044764631,0.8304469030080033
2.006850074035684,-0.11382293811108901,-0.23468304373246537,0.04696812356798749,0.3257491735210149,-0.01837069010140228,-0.39314082496947983,0.01259129024642096,-0.10002045817415474,0.01818569409586808,-0.011204393358620217,-0.18138732062144014,0.062131863256748666,0.0959577433177082,-0.09424906265242321,0.11708447088826214,-0.0633120749985945,-0.00446864733887183,0.4268549095195272,-0.3777743824535946,-1.3057444281411448,-0.07136027871476125,0.35062865883668126,0.18437063770110154,0.8523846837958365,-0.10800900909224728,-2.460662921293972,-4.794722171308205,-2.1887959186270174,-1.4875575485334334,-0.34157946213766666,-0.6943373851485714,-0.9635551305765577,-0.14947765916011224,-1.7622928645728078,-1.6793257506532697,-0.5390967120537241,-0.38822217504224693,0.6325680264927857,-0.6716490506705255,-0.10839187291972097,-0.5591367914083546,-0.7572758823532189,-0.6608340505063696,-0.28893393057977157,-0.4277440674808779,-0.613302356807658,-0.44075182861007495,-0.42363615533454224,-0.14644213452263255,0.2768030609788487,0.023095799596693486,-0.4211070453374947,-0.06655560284736974,0.36275776280618294,0.19589154014761975,0.8444166742845819,0.11288261445570516,0.4770180493701224,0.1621451864101535,-0.24127084254798786,-0.44091061222484373,0.0017601476299507859,0.30106179655983184,-0.021048708134718114,-0.595260893878419,0.012122760425928216,0.2834159038566343,-0.03418340573772358,-0.1069126387223433,-0.07395655921388265,-0.06275358806713678,-0.16067385825535616,-0.08398443459742103,-0.20177534667803476,-0.0672218869447587,0.02576588358904094,1.2927481613228111,-0.06686248082195138,-0.165957562497915,-0.23234010061449037,-1.3487807310620017,-0.4934996491426873,0.021868637136186905,-0.1358170490781603,-0.39510043201662504,-0.34697120915413016,-2.2253560886000443,-2.0369089346945617,-2.8152906126005823,-0.937200248664228,-0.7595533132978742,-0.3175119086681588,1.0610137489410787,-0.8322580817401216,-1.3139646545956736,-1.559827555043644,-1.4393430080681662,-0.5637161971809204,0.03960976435420172,-0.5264379802157589,-0.6205985033925977,-0.7783882211556749,-0.7274039083989818,-1.027443192932185,-0.47417972216158977,-0.5871744245711249,-0.3627965138149579,-0.2822310475872026,-0.01651767304981765,0.06610233330948685,-0.19877837022984327,-0.1696003196700253,-0.24670880678226473,-0.03006081555548497,0.5420575572522817,0.10888626177713431,0.5247162749050289,0.21657806369532673,0.5712215024597802,-0.4718644116611544,-0.028146524371573677,0.4201277900909817,0.061227985859965424,-0.2879281016942645,-0.0053231669581614615,0.603189639184389,0.04256375634739129,0.0523226267084166,-0.08557451203002985,0.048964528190606295,0.19678623778445414,-0.12985005654607878,-0.09554043669544812,0.18171136618381448,0.17811236735943664,-0.4776547103727904,-0.224862189227164,0.3661181774612743,-0.23435733993637595,-0.06457943173239639,-0.41394438228590735,0.27467842628585537,-0.3498432781491591,-1.6704565953124717,-0.46114762698977735,0.17852494671286104,-0.3435848195073772,-1.121480296978143,-1.8811774943008588,-0.37874732180077997,0.3359161011906251,1.274046170448765,1.1693020030949988,0.4014631169277285,-0.04214111694966559,0.25006329109213266,-0.016379171326978047,0.576556936299959,0.30386970291812,0.2932985675930313,-0.013241394314059508,-0.17136437138215285,-0.2145146436026475,-0.030501182012802244,0.14829152950721938,-0.09245324842926352,-0.012468768516767398,0.2798882265549984,0.05244485457745772,-0.10568459142665831,0.2737772204088623,-0.006190225005610428,0.03966003901631057,0.038102682379430465,0.13255858402477766,-1.3539223199705728,-0.06161684475447776,1.2571875036659372,0.20162426089773647,0.08918244359275614,0.9415244567720945,0.037656533372638606,0.028337004708323444,0.022408197060868267,1.1523815733660157,0.04293204440370365,0.03376154746606622,-0.028381291228811032,-0.18352305299114016,0.01481472285205139,0.014351976342703257,-0.013495580235857894,-0.005217588605626323,0.21651663332488483,-0.5499721738920049,0.16919055191461296,-1.0710325366675144,-0.2489839312830549,-1.3614758627445815,-0.3173793924839458,-0.9076298918881761,0.06332028281499363,-0.8632312495397627,0.5008006479153165,0.2710436029792087,-0.0051311674921125415,-0.514616302676541,0.21592858024554745,0.35460388313035784,0.614149421567541,-0.009705447172902101,-0.27133199985279877,0.7716270321903916,-0.33955573771150405,-0.376894892223177,0.24138038680875895,0.1052525859771577,-0.2212582548312436,-0.1643993544702441,0.032051017733540424,-0.08869287138359616,-0.3246413046208382,-0.1896254360511958,-0.40932908075243285,-0.04109112498954184,-0.014643179892829379,-0.2670321354365928,0.5002712212982577,-0.13472900919629777,0.13508230509206998,-0.5663832154107272,0.4676038332928942,0.013828679880212384,0.3965920597406631,-0.04663188336546347,1.5034445959019254,0.0649697397256725,-0.08331321894985232,0.014151456558756445,0.25395736646594624,-0.026854478513398464,-0.2137932329860376,-0.032828521586129374,0.5615468121358992,0.005662259738416071,-0.08369725508292106,-0.07037710769101867,-0.028010649928338054,-0.005174853068603595,-0.1508420320787425,-0.11709001196665828,0.09161470931474136,0.14587884984808314,-0.5062404483986787,-0.1200523053470669,-0.6716052552206746,0.2458822564346878,0.013029220707830667,0.025582023028061646,0.7724466043406176,0.010030386075993549,1.3088599945444808,-2.0183086050062427,0.3823966568233202,-0.2932461226533633,1.3045309602851325,1.847487407117991,1.4023989142278646,0.06885496078498124,0.0361880294058119,-0.8624133905965675,0.5966341704039507,-0.3551017129837745,-1.310878676152752,-0.24780523363420984,-0.9560542138515213,0.46594447235373004,-0.043701931100957804,0.12594110713271783,-0.23344807797913117,-0.5627673034505661,-0.12286920007324408,-0.1321379097220365,-0.23101830134078635,-0.06445093313058813,0.2291083289780439,0.20833223336249224,-0.1937542347300545,0.14895293260366121,0.0017196429563434757,-0.1565370196745939,-0.26953127876545496,0.2516833166983651,-1.255410034989983,-0.753971492568273,0.48989673819552515,0.1480060133811982,-0.018342390487746475,0.4204328937140442,0.06122089995335466,-0.3867322543732746,-0.020578019313762692,0.6924734362481242,0.03178857742596408,-0.02304384882347703,-0.21255148273814992,0.003282530900190538,0.00852403829847096,0.0905598930503637,0.014913764893843556,0.2552673133447392,-0.025958265886662384,0.4888632185380157,0.06501917232134038,-1.3106377464733083,0.088320786958509,0.47302597727839596,0.5042043140050168,-0.4271351797486154,0.028723262922834315,0.4141157223175437,0.10638108635793134,-0.0394266658649767,0.8119749595147655,2.0108016949736323,0.9511900526887094,0.23860355620196183,2.174959076851026,-1.3351084008481868,-0.9707926350594146,-0.2981110302766776,-0.29388029641086655,-0.04797649664076947,-0.9535969276976122,-0.09827314572293266,0.07131857341893275,-0.720561589313144,-0.6927367531368053,-0.473357847839836,-0.2765992718918438,-0.1644754136292237,-0.23949363082211736,-0.31693692699636644,-0.39022537894197284,-0.6909047546871858,0.27692837511646345,-0.24108307229710205,0.24646999581541162,0.004314231077483064,0.2680672460837254,-0.3713228065929109,0.4879494595539911,-0.6276212716510331,0.3448655142501447
0.5152277550754802,-0.8915971932143429,-0.3906282530440152,-0.038563420141194134,-0.09844285240245285,-0.032854415863916554,-0.6362747936847791,-0.018646199434262184,-0.599011889347848,0.010687170638599888,-0.2922034088860423,-0.3464590587987129,-0.2605796054030844,-0.2624091010419276,-0.24441577520843827,-0.2321285301061598,-0.3609111100287011,-0.17814772533282344,0.5637035914155589,-0.5908783300530542,-1.5654834797212929,-0.3605638346091167,-1.4254989239685363,-0.22490922898929888,-0.7250317774543824,-0.38099592243338387,1.0523668446318333,-1.056945896368751,-1.536378190777995,-2.260333834343034,-0.3781063942076522,-0.6380893287173725,-0.3189580008009479,0.9993852791741931,-0.3673395780281495,-0.604952639896276,-0.9295468708502108,-0.694844052484021,0.3971313313916066,-0.24095316110283593,-0.37676057148709086,0.3461860211231057,-0.9563812697827562,-0.8298155749738372,-0.5639020786455623,-0.852040170516453,-0.7786998490336464,-0.33468051301192847,-0.20511157046365752,-0.21723268339726243,0.09238575446758306,-0.33052378532073434,-0.558534008112178,-0.39704190883027674,-0.0636596097006652,-0.1648795134763326,1.1103756723870892,-0.2121855962570385,-0.27564661616720354,-3.2405874671533756,-0.23378093375527412,-0.24865532187812553,-0.021770169435635343,0.3190503139693439,-0.00972320013496088,-0.14566174083231428,0.01504135606389548,0.22261172138283147,0.03301816032525887,-0.08477469696987304,-0.10758650212546753,-0.05476914694893606,-0.1811954665975759,0.0077403751020338005,-0.12723016269766615,0.04851351386440327,0.020689889902376447,0.3998254651503422,-0.25233934628248045,-0.4506996888268759,-0.2277814737063592,-0.502295931506471,-0.2898823679473262,0.5093014330069202,-0.06020597242354755,-1.5306498210683723,-0.8727077565218712,-1.9416289092192658,-2.5858001144464153,-2.176291902616103,0.18717385259659006,-1.5371459220926742,-1.1326550094400973,-0.7189178176747528,-0.6467428768000922,-1.1797521710472703,-1.4058333705961459,0.8083937126778442,-0.21356285184088622,-1.0410244480444215,-0.6566959858358163,-0.4786306661151541,-0.470990173133378,-0.19031717540253798,-0.6290545502357895,0.11751054921074283,0.021980090740268157,-0.29540720448662605,-0.1908302382341091,0.41982706160565714,-0.024784613164280603,0.5918666133416136,-0.08148024979691139,0.035225686552321125,-0.0975928382967687,0.46095379999972025,0.10128159068945707,0.8003650527543816,1.216123457543198,0.3601189862249229,0.22464416080956176,-0.040329064603499304,-0.19925379908176935,-0.018786653612423206,0.09499903021302757,-0.0034872845283579843,-0.10928738192174448,0.0041209516771747315,0.39653588093479336,-0.02242078701149694,-0.14745318046813036,0.0075743764511243365,-0.02121254513052016,-0.07988499219326606,0.006107078077332925,0.18918750497599726,0.9034488771676349,0.27964785957043076,-0.17739919873828394,0.046066936620545514,-0.5185879441484571,0.0057712633256441674,0.15268148720445873,0.2541483281633876,1.0686642088011076,1.5053077407286108,0.6273429800622821,0.4460202117146453,0.9238847156444145,2.506946219868802,0.9253719576429417,1.016526696334419,0.7057396869192082,0.7273278400630327,0.39793548924479705,0.4039605161380008,-0.8846001329571018,0.7214181442500265,0.49196811127979356,1.4309139410319904,-0.2268667161629431,-0.2078884616342624,-0.10473661948091821,-0.40695294052284214,-0.10872624920054956,0.1701650672031388,0.4785270377342534,0.36387764769163566,-0.2559050237011057,0.5264192378263184,-0.6439825299990283,0.1176068065652587,-0.5468238135319706,0.5298880459202082,-0.2716551812285939,0.031131770900084364,-0.7129192954360997,-0.44926820082807795,1.1830659752020565,0.4670830135568656,0.022083652393655027,0.03573403782273942,0.010740940521597209,0.04990449727709099,-0.04960762223595759,0.3262288208096945,0.022748463482593934,0.3270292811465651,0.23153650376384055,-0.25642724791776866,-0.20074600609174803,-0.11784290334071859,-0.1313973661907044,-0.05208197571062283,0.09968369475147566,-0.04476443702240307,0.27497620425611957,-0.9332296741288942,-0.22805623221283577,-0.08678840427940954,-0.5399921049361239,-0.8070744616309937,-0.26661838837543655,0.14413653732206275,1.7995595833197804,1.25525679899018,0.14443320403013413,-0.15013030804093447,0.23695073284613108,-1.1226243536792464,0.022259711406392515,-0.10041466914003531,0.3961124286734214,1.4347781499011474,0.8086365581222498,0.7189632755196651,0.5365484771975699,-0.25982712243087785,0.7063778665411711,-0.2267404566531015,-0.2114666168338881,0.2316317295272697,-0.07835064199281191,0.062336599530562545,0.17450010619873424,0.5768748648268901,0.4191734802103663,0.01548152718296004,0.13180185641279943,0.053442719116682316,-0.2353027866124144,0.05117420226327363,0.3667900360994972,0.05519801358096319,0.1530309198900122,-0.479483950043668,0.9473622078599542,0.017147123907069066,0.32605949751272195,0.040857529403865694,-0.09109484306340063,-0.009225164016255652,-0.007609873650413664,0.033624328344084006,0.07239794790435845,0.051893742016044735,0.1518725727611279,0.05041911167888039,0.10065153510792878,0.04324692750738712,0.17387012009307545,-0.08147548403232072,0.1248583578403451,0.33474132676679436,0.006612623253827971,-0.05591787801342544,-0.9291293411661258,0.2920949241386603,-0.07431715780721206,0.16262740546341928,1.3884814277955515,0.3085734997848328,0.715881935987806,-2.0298378830986206,0.09476161990492797,0.08577815505695838,-0.7697364507139768,0.9850675992773603,0.7060251544182513,-0.7271488087084311,-0.5461438630076197,-0.7287431349354049,-0.3620491107174603,-0.21347125065406114,0.022397521625118533,-0.06481018931475534,-0.17519294620519477,0.3651431220643199,-0.5199828214851905,-0.5787192147579047,-0.3004987348227956,-0.17066538330134923,0.06598316475853816,0.4206746953540395,0.07630816500618924,0.07662311252833544,-0.6319865481010419,0.3002849368938622,-0.1703974656142775,0.26901122003750483,0.4484918759354169,0.3782050978948797,0.002785617039211518,0.16404694894869998,-0.3248327773354706,-1.0288433999004458,-0.16726595800387783,0.5321337596957734,0.017664221650616166,0.13717571355398192,0.032047062527767255,-0.022029500472876554,0.011586565998879063,0.10395301928136115,0.02782415127530064,0.2082910411581782,0.09232899011900468,0.20536551386803473,0.10315976403854839,0.308347238013608,0.23162987311185973,0.16507617504158864,0.24397935680994912,1.2281520535784918,0.1286355363033648,0.13282108983574278,0.4047416892290329,0.7136443492836141,0.6336576306691432,1.0130237700488263,0.2396414036717071,-0.4828070551419139,-1.1008078178640783,-0.42050915355858964,1.0812821300861135,-0.04175337593628667,0.11486289257936036,1.6756469146606154,0.7924761066432837,-1.582607471601899,-0.34011943718897164,0.11699304541472713,0.12441658390806441,0.5209682273407771,0.16516352027909248,0.9507744245701363,0.6808277050414567,-0.5891772906570587,-0.11823258778868354,0.36589947384308114,0.2482820824791412,0.25323862508756784,0.6015297730671935,0.47622182559479714,0.24370989260290257,-0.5181030162019532,0.5928828363623072,-0.21542711361982392,0.041706494332862006,0.18359543591276617,0.34916935108702385,-0.16019899703697207,0.29831208872001275,0.0721464879271089,0.017264624939760765
0.4911819355223208,0.7650798669653315,0.1154957126999043,0.045713183132480364,0.043773913733725925,0.0179558129033381,0.2415531875935869,0.0331309254653481,0.3613715601002678,-0.004093000962532581,0.13560054041723318,0.12832222761506612,0.12046681716725008,0.12242024843318393,-0.022034269123805645,0.14607421190195521,0.17053072290164462,0.1683911691098762,0.39294158891585707,0.48292688238002773,-0.3556917790500013,-0.019615870859733004,-0.22270619130404648,-0.15580317549263822,0.5791028812506948,0.1706860017669632,1.8407792560152427,-0.1640203721023728,-0.10538442748923939,-0.9095775873713244,-0.29652985786133973,-1.1761008821627432,-0.1303848860516217,-0.19225166713833533,-0.26695298302898396,-0.737507289313635,-1.436688438437477,-0.663037548642372,-1.3170767220410144,-0.4498328251209739,-0.32348542738079183,0.09499943685417352,-0.04042651930613605,-0.2960060181405204,-0.32734447125637905,-0.03404114028498941,0.13620622783047232,0.150949311895943,0.03575799868464979,0.04104595468750722,-0.14960606016985642,0.07794406430682468,-0.05035502123739396,0.06341327472028584,0.32108406766790626,0.15131668137332144,-0.11219219416954479,0.12744269490368135,0.5059101766376488,0.9228043780018093,0.19168466142065999,-0.019325568516239754,-0.004954248732279897,0.19951396465233887,0.001593683990905421,-0.01792094960217657,0.041465512934147186,0.15781171330078525,0.007573004309619818,-0.1167549290385791,-0.04442752875038558,0.036542802172499646,0.07083606650508184,0.08929543280222545,0.07553900604165033,-0.016572663552717783,0.11143302324442991,-0.4573717411280282,-0.13075440065187194,-0.30647660362683377,0.0645352399604878,-0.23827514942509678,0.5897234017209689,-0.5532909886132438,0.09376636118037146,-1.0465209033525595,-0.7796316062836908,-0.19774948460217334,-0.6900176805483129,0.09470122732957985,-0.17079215104297982,0.021347192327784103,-0.3824091123576304,-1.2706373906393988,-0.37018625711695674,-0.6460621614629162,-0.1786497615633713,0.557891123415475,-0.46593850388181035,0.752293311531639,-0.3568811795212595,-0.15140820677297656,0.017817849693837918,0.17952854707330504,0.13530322349479507,-0.2216649837167527,-0.11584647975178695,0.043407155932898886,-0.13032658246420134,-0.011322724539235312,0.04503644893286994,0.1745026784764774,0.09143124508644733,0.17873128750372627,0.015043502443931463,0.08374031514073366,-0.02631348272852554,0.8874265337593409,0.05491016314040954,0.6646756672374636,0.07928779237956726,0.004336504656175902,0.5684027407585363,0.030489512428169174,0.40057599427170865,-0.021152526654887815,0.37374140038602327,0.057883808259561895,0.010891605148473954,0.07518339804903706,0.3262233723280407,0.11404652239849573,-0.004076938705351168,0.2041267602699311,0.20456504577546814,0.14246219927139248,-0.9267660147688825,-0.29179075540639426,0.927846360862738,-0.008466717928706244,0.730767369081427,0.2957883225850453,0.7162770275898626,-0.3004757907758771,-1.08775147826621,0.35153677891520424,0.228311636147384,-1.1833885248275702,0.85206133554086,-1.179882641591482,-0.4977175894357992,-0.5224527781611066,-0.06249347296261196,0.8107487787415759,0.5180081250819826,-0.3391377104807177,1.116779791601279,-0.12135156845015704,-0.14348060933218112,-0.43081436230395687,0.6640721797906756,0.5420047932096222,0.07950524792929299,0.2930459708142195,0.2789865850905282,0.020531621077361846,-0.11943247428372884,-0.11288864440348467,-0.017198206426301037,-0.0021753694637733495,0.5567630328803693,0.14879011310120238,0.3930262108422505,0.11688618860946597,0.19057587617869692,0.21465626995162235,-0.9682639798932147,1.6944021743142685,0.2848663860800328,0.28410927510055717,0.009456682185679103,0.5692990402348178,0.03338724625083713,0.3061925247844972,0.031002007904609948,0.5556657040533268,0.04041785425632741,-0.10105159137697954,0.05848816440202738,0.15887223536456274,0.03916819288746007,0.11384323239889509,0.14215130853081115,0.09612155565469765,0.047685879391801723,0.7095231652744949,0.13635856424268633,0.28902362112572644,-0.05015717642911381,-0.4920631534734535,0.5336692792819034,0.46570681555266824,-0.053709710918920246,0.8983225833641657,-0.08379835458791289,-1.2043679276080008,-1.6923679640004212,-1.657133953058719,-2.0006771835752657,-0.9852986046480221,-0.2846368168560719,0.48271735692163903,-0.12643183243785913,-0.5868205787745177,-0.7809473414845385,1.952561402242014,-0.6899292140771102,0.10076362832494414,-0.4147344086785103,0.03535824302877589,0.023274534384845568,0.20784328147201014,0.22779548450979134,0.2841297037256951,0.3688410081436308,-0.1256883893808713,-0.08669695568612744,-0.21106577618992772,-0.01536168732995203,0.3245269589649684,0.29991329514155884,0.4757707965401823,0.04605644746785936,0.17392646312305948,0.12003848139002372,-0.17228131777787883,1.4399228423238892,0.5192836311153479,0.25021880945741476,0.002204827731396224,0.006861625812428737,-0.01371721694089593,0.37126569409432786,-0.01932279387032757,0.16686545070240727,-0.008925673490702916,-0.10894780135017636,-0.1951883307063272,-0.2217432979041793,-0.20132885642355958,-0.2304919471675439,-0.1180775936002636,-0.31818729963444226,-0.2945841323955174,-0.5335929360878714,-0.3513132105181297,-0.5665612446698728,-0.6377505314961411,-0.92549913946069,-0.5166037910534375,-0.25829055564936027,-0.7612696274796591,-1.5539386067456176,-2.3598590358214833,-0.9587044716177916,-1.9092893583397033,-0.516109865984914,-1.2586065435776412,-1.9113445891106446,-2.1566268043021535,-0.7584792831142724,-0.41066853938367365,0.21924437809625025,-0.8420846107099614,-1.3142594538266252,-0.8663639988200779,-0.7358436938824154,-0.8686218562373111,0.003007425799171578,0.1594042668703308,0.0015010908105039535,-0.379663930580724,-0.7285007147159974,-0.20537018374075505,0.008418758434063908,-0.2625001363555676,0.637229922793167,0.07606462547430305,0.42194886311759233,-0.31450844813619533,0.3945809170632176,0.029107618676447986,0.636135035740814,-0.1586515480203909,0.17913651457373597,1.558671661054842,-0.2088198763051009,-0.29655331727642203,-0.011549543882010179,-0.1459722241233185,0.0061827411634443104,-0.09151605023372507,0.022847410209174187,0.16437756375908508,0.036539909224216724,-0.3030487198996393,-0.4521505749925829,-0.23924731006003538,-0.24945013960413379,0.06340899797773317,-0.0941521672339323,-0.08862268405856616,-0.13375130195711218,-0.8568712887835406,-0.4175034075767446,-1.1600761036900937,-0.19273813901708206,-0.11387958042191082,0.10302497474686959,-0.25361246911976226,-0.4906832225177732,-1.7378271771431353,-2.7776077983542247,-1.6013517760203873,1.2887266981169712,1.3822887860453839,1.5925690535081773,0.21871214857154528,-1.0961127827658605,0.16434959715400174,-1.442050465567128,0.5592100302513874,-0.10400513884246805,1.3160006125141304,-0.10819270146833457,-0.9255449606904311,-1.1263952215653752,-0.29703471635957635,-0.18551374512217111,0.006339017301969387,0.1029573679607981,-0.17870518753231188,-0.21505273382220458,-0.4791573543132875,-0.5200038497072254,0.3384526426748373,-0.05446054766522621,0.2797139684087546,-0.27508720396210806,-0.08073553767490194,-0.20522934061649836,-0.014581942531198747,-0.20806109928772856,-0.5677721232137289,0.07616151706375363

Wj
0.16452773073006396,0.820230197944805,0.9140242795642511,-0.8074468903990275,0.01918282579963346,0.6356083573903364,0.025602126178959673,-1.2379688041483172,0.5832377174726678,1.3214251220402593,2.776037458723695,1.1656591345960918,2.0210666790625003
1.129691366766189,2.1467135350668918,-0.3442598230120552,1.773779574815382,-0.5728412445049685,-1.0808640747812837,0.3020036883077782,-0.5568981655409417,0.6340156285364543,-3.2742154677895297,-1.4321889379924126,0.7518990000709237,-0.919143130869482
2.370122116377221,0.48528630664582306,-0.04940465187430176,-0.21322777163441986,-0.26518976295496965,-0.36903760832180615,0.5273723943647858,0.18097111098828716,0.044366078192973286,0.6478074917656023,-0.16008568506900347,-0.05190294574927035,-0.15855230663761116
-0.8050361693611019,-0.396337083214596,0.19968207572511537,-0.8907073406127755,-0.15381981308252923,1.3846127273240432,-0.20867276619212088,1.5049235914721908,-0.20814783721961777,-0.6545060922281648,-1.6793235797341317,-0.6560357615270009,-1.189077902752423
-1.1600860679505633,0.14907452192623333,-0.05765120252872046,0.014933258255858336,0.8763453557402827,1.2808429574791587,-0.9067716987549789,-0.5029667201397324,-0.26204399431701136,0.5984800277453174,-0.5752013777738079,0.20977509906106806,-0.6229132794494029
2.670877129978708,0.434037455524701,-0.05402438236463129,-0.20769964801016708,-0.27056886826454724,-0.3833667818119866,0.5206477991701278,0.14413685153850125,0.03999654266316987,0.5242292153546827,-0.14109148274092423,-0.002970207287363088,-0.11716449404962118
-0.965751634565919,-0.7436883709028496,0.08571898874322613,2.650481787653166,2.225938378180101,0.7745260871553818,-0.9567162795515429,0.49834237314914825,-1.3127764312616685,-1.4401165450079585,-2.8231214297269887,1.1728116251787988,-1.4340969441052471
1.3045443836650232,-1.3008577402871178,-0.049563853253332166,0.33812063473856063,-0.7327593093543703,0.14853960160422786,0.8646403854607828,0.8904211506059614,0.9406640488678625,-0.8963957878870976,0.15241107054250205,-3.723404808902998,-0.8083981721965338
1.4148051600533886,-0.03383072757922014,-1.9884823768279254,2.04036546836869,-1.2602622403002972,1.0127647087754703,3.462432755361284,2.0363334500637205,-0.1514732581891815,1.4817524729068607,-0.15004306775203735,0.328378166849112,2.0839720121811154
0.06603518213997499,0.6073955405956001,2.693707328247088,-0.054809115579762854,-0.6272172262464076,2.0386934950186832,0.5743812211772893,0.6086734835988002,0.3721114033952602,0.08510618635689521,1.2189037553332445,0.7996730144439131,-3.146522452665156
0.4968406533243904,1.4203008167038855,-0.6902701789500798,-1.1559572972590324,-0.7478631805395366,-0.9042630864298412,-1.2572866549609796,-1.4769612255651225,0.7942244907571642,-1.0867172297867946,0.8695390812421662,-0.5126772834477545,0.5372977689681424
0.02193700641080438,-0.3470536761539985,0.8206307759523478,2.947854011376959,0.025376524935616436,-2.3499239696725707,1.0132590723426707,-0.7476124750673646,-0.09734698750544861,0.6050382239845279,0.836399027412775,2.104671132326494,0.4755636197460229

Wk
-2.8191496941120757,-0.9179337337511569,1.45834325845783,-1.6573959093973196,1.4206596367407212,1.5761703784684715,-2.236323378775743,2.0127300198395175,-0.6935466043750274,1.7191937192388567,2.442577727723349,-0.2734566303323354,-0.7717874726358604
-2.528116644468668,-1.4595731639189138,-0.6446350151098582,-1.7599411166140475,-0.5542392274410315,1.2864000022038757,-2.192702436323363,-0.25250278217926647,3.395718225336545,-2.660478549192388,2.7291455435689658,0.9020396120723061,-0.3323274436606309
-2.546051710777466,-1.5686903051208974,0.790935494719556,-2.689055533616298,-0.42618040969530513,-0.7176629613372519,-2.6773142683488467,0.11066606885944304,-2.6546350093187003,-1.6499796222231915,1.1073849709459935,0.8287248088749871,1.436110973486395
-1.8823297500511251,1.0382131516997706,-0.5639336062726265,-1.782436965782009,-0.5061630530932857,2.2562961028383794,-1.6907133699866086,-1.2514223988899786,-1.2821273425098236,-1.7161300497721919,-1.518467289022847,0.14258275038678417,-1.030327896197724
-3.2088739207630566,-1.0197323699072254,-3.1166369251609214,-1.411307657116647,0.7837866166605154,1.0061690367853997,-1.9308368271767868,1.1905289235478076,0.2769127263781139,0.6418717161937192,-2.0549152413803764,-1.1474977429909778,-0.688970058570522
-3.1895081570460957,-0.8973315059156499,2.6897994686958406,-2.6260168075586896,1.070088954841648,0.6756433637294835,-3.0442266968063345,-1.9443784274810003,0.4668343550283641,2.0798484054832613,-2.3084285924641845,1.6186957861042663,-1.6742832873125373
-2.8986543601894588,-0.2794725127802729,3.1287947408337335,-2.2097785055328156,-1.3029324294700995,1.0329285432874613,-2.495217931653489,1.9448710388688322,0.7663394858319994,-0.3355716546564564,-3.2506850007770103,-0.6701157565088129,1.9167974460041628
-1.6301895268808533,2.1549074282757417,-0.6891888780024334,-1.3294874230314302,-1.3437118887865964,-0.6381380200525578,-1.3772264285626563,-2.316650286562044,0.40088603402067663,2.8481057044261093,2.1471893584495207,-1.1970743274520623,0.9934329943902199

